0.00976202 -0.00861526 -0.0106704 -0.0424126 0.0239333 0.0193419 -0.00575583 0.0558203 0.0473555 -0.0520641 0.0301804 0.00741122 0.050279 0.0705516 0.0573364 0.0233027 0.0473915 -0.00905173 -0.0294948 0.00237019 0.0672285 0.00730052 -0.0172031 0.0220438 -0.00159865 0.057832 -0.0578507 0.00493926 -0.0664452 -0.084841 0.0111239 0.00640382 -0.0849289 -0.0772521 0.0580337 -0.0841056 0.0544599 -0.0342445 0.0142508 0.0228944 -0.0624484 -0.0228907 0.0470488 0.00556768 0.00255853 -0.0112721 -0.0862047 0.0298924 0.0495466 -0.000550205 0.0247882 -0.0634389 -0.0226342 0.050649 -0.0955061 0.0133221 0.0355505 -0.0376619 -0.0892313 0.00255924 0.0253878 -0.0675805 0.0257808 -0.0361538 -0.0326322 -0.0537147 0.0670415 0.0878731 0.0145724 0.116559 -0.00836631 0.1103 -0.0299428 0.0714983 -0.00845209 -0.0544591 -0.0265701 -0.00862618 -0.0567315 0.0114189 0.0333657 0.0571779 -0.0808962 0.0680022 0.0197212 0.0465535 -0.0671837 0.012861 -0.00413767 0.0544298 -0.0729828 0.0628628 0.0352658 0.120488 0.0169773 0.132203 0.0708901 0.0574526 0.181957 0.161437 0.0860393 -0.00765753 0.0274883 0.0432245 -0.0236999 0.00783793 -0.0532195 0.0690585 0.0158683 0.0653147 0.0499455 0.0594504 -0.0407492 0.0509379 -0.0435775 -0.0956908 -0.0312878 -0.0474374 0.082564 0.0561755 0.131793 0.107425 0.163737 0.150291 0.150557 0.114928 0.0817735 -0.00191241 0.0698492 0.0670385 0.122351 0.140228 0.110006 -0.000159538 0.121544 0.0802765 0.00963271 -0.0206809 0.0152775 -0.0335365 -0.00195943 0.0654915 0.070138 -0.048123 -0.0758034 0.0857087 0.0952687 0.0392413 0.0554369 0.122929 0.135214 -0.0148562 -0.0147909 0.0134505 0.0314302 0.0677936 0.193599 0.0630824 0.140944 0.0965971 0.135475 0.00113966 -0.00827446 0.0474263 -0.0644273 -0.0662349 -0.0548635 -0.000798404 -0.0466668 -0.052165 -0.0872786 -0.00997049 -0.0306351 0.0579638 0.0602633 0.0618633 0.0743189 -0.02805 -0.0439153 0.0110864 0.0611718 -0.0164871 -0.00107999 -0.0664483 0.0275574 0.00961611 0.0576711 -0.127175 -0.0700218 -0.106348 -0.122164 -0.121028 -0.026744 -0.0481286 0.0272194 -0.0649648 0.0247337 -0.00182101 -0.0593797 -0.0356804 0.105188 0.0506793 0.0318194 -0.0260152 -0.0362363 -0.0619679 -0.0898242 -0.101128 0.0224282 -0.0679848 -0.0888307 -0.136715 -0.206859 -0.312822 -0.212567 -0.149081 -0.166414 -0.11897 -0.189218 -0.265578 -0.0805717 -0.0208474 -0.00394153 -0.0244235 -0.00117726 -0.0440484 0.0287863 -0.0192292 0.0944534 0.0343031 -0.0831052 -0.0970944 -0.0611374 -0.148019 0.0160214 -0.0343371 -0.0290609 -0.114383 -0.162815 -0.170703 -0.25648 -0.161679 -0.279242 -0.362233 -0.143452 -0.177929 -0.110077 -0.299836 -0.105201 0.00885836 -0.0820635 0.0348248 -0.0944558 -0.0583333 0.0666104 -0.073256 0.0312072 0.0101328 0.00938553 0.0186847 0.114183 -0.094843 -0.0762269 -0.01017 -0.0663697 -0.0989868 -0.0111548 -0.216327 -0.105871 -0.22059 -0.255721 -0.255764 -0.233449 -0.141583 -0.108487 -0.220982 -0.114947 0.00672551 -0.0215278 -0.0310071 -0.0246015 -0.0493463 -0.092619 -0.0244935 -0.0415104 0.00386922 0.00834071 -0.10369 -0.090011 -0.21483 -0.0819261 -0.170592 -0.131089 -0.0979659 0.00862167 -0.0260235 -0.13934 -0.142799 -0.128526 -0.0374244 -0.0869208 0.0211339 -0.0889411 -0.0294782 -0.0523398 0.0598959 -0.0381202 0.0192748 0.0100358 0.058828 -0.0479417 -0.00168141 -0.0445374 -0.0416479 -0.204303 -0.175498 -0.190883 -0.249724 -0.225132 -0.119707 -0.0867996 0.0127568 0.168502 -0.0855519 -0.10665 -0.0439919 0.00974379 -0.0289174 0.0784225 0.0166245 -0.0580287 -0.0139829 0.0802611 0.0236636 -0.108052 -0.00534146 0.03403 -0.000228855 -0.0986564 -0.049947 -0.0634453 -0.187323 -0.249892 -0.14612 -0.168109 -0.20299 -0.156398 -0.111675 -0.0454678 0.10937 0.176735 0.0772815 0.0866107 0.0264094 -0.057732 -0.00555991 -0.0690073 -0.0562561 -0.0776957 0.0648258 0.0662002 0.0280971 0.0613861 0.0300737 -0.092522 -0.0570722 -0.0772187 0.0593792 -0.10253 -0.166364 -0.216266 -0.283997 -0.106281 -0.112282 -0.0829898 -0.124825 -0.137827 0.125979 0.204323 -0.0648096 0.0782133 0.0686196 -0.0174932 -0.123374 -0.110945 -0.100522 0.0599409 0.0422391 0.116027 -0.0105937 0.080772 0.0756726 0.0220883 0.00474978 0.0548855 -0.0244957 -0.100853 -0.12097 -0.0777937 -0.120472 -0.112442 -0.122872 -0.0406316 -0.0268546 -0.0361895 0.244814 0.179091 0.131029 0.174272 -0.146595 0.0871165 -0.0228985 -0.0655566 -0.0380495 -0.00834688 0.103626 0.0189788 0.000725714 0.0680457 -0.0499753 -0.0273465 0.0308952 -0.00819717 0.0594923 -0.0230298 -0.0454791 0.0559838 -0.13868 -0.0130146 -0.142963 -0.236859 -0.0239392 0.0411263 0.341957 0.115618 0.0817097 0.0658217 -0.0652496 -0.0108169 0.0106059 -0.000217599 0.0880618 0.0751401 0.0330044 0.0218134 0.136273 0.0836837 -0.00389901 -0.0104225 -0.0943342 0.0659874 -0.0344012 0.00434307 0.0091333 -0.00410712 -0.131749 -0.236213 -0.0721785 -0.114191 -0.0123028 0.208512 0.219527 0.214217 -0.0159379 -0.0727475 0.0194882 0.106969 0.136316 0.19105 0.154681 0.0686629 0.0788033 0.16757 0.0958956 -0.0119252 -0.00106499 0.00494008 0.0534131 -0.0344056 0.141664 0.0759929 -0.0390775 0.0802628 -0.0483729 -0.022104 -0.154893 -0.0486072 0.0785474 0.05331 -0.0495471 0.0789817 0.0478518 0.0274311 0.0146976 0.142099 0.201175 0.13396 0.133426 0.11471 0.186009 0.106893 0.0873579 0.0549774 0.00160256 -0.0560351 0.0397127 -0.0334594 0.160255 0.164397 0.102976 0.0737441 0.0416922 0.0342101 -0.00246147 -0.023939 -0.0224092 0.134233 -0.0709724 0.00996211 -0.0499707 0.16426 0.161471 0.151183 0.10807 0.0844774 0.0772903 0.193203 0.215712 0.117823 0.0806738 -0.0834234 -0.0176433 0.0321145 -0.0258266 0.0556628 0.0756411 0.0837328 0.130751 0.00466868 0.028549 0.0622833 0.237051 0.0489505 0.210031 0.0442157 0.0641782 0.0583954 0.0706827 0.07786 0.148313 0.165094 0.107737 0.0801399 0.157535 0.097926 0.0647614 0.0677166 0.10462 0.0536309 -0.0795273 0.00255558 0.0568322 -0.0514629 0.147312 0.209048 0.062947 0.137482 0.164241 0.176582 0.240437 0.157569 0.191578 0.0401513 0.034532 0.05818 -0.0361541 0.0934409 0.0608794 0.154758 0.15678 0.0815424 0.01459 0.0922084 0.105967 0.0782357 0.0762273 -0.0218429 0.035393 -0.0369979 0.0358029 -0.00299799 0.147272 0.148549 0.181452 0.175911 0.10913 0.201431 0.156446 0.262072 0.100603 0.119834 0.197461 0.0808749 -0.0188994 0.0838659 0.0150156 0.191961 0.1838 0.00671346 -0.00980582 0.0330467 -0.00711986 -0.0382911 -0.0211149 0.0193699 -0.0497353 0.0240502 0.0139947 -0.08745 -0.002087 0.0635322 0.171034 0.151992 0.0609153 0.0332727 0.103892 0.086519 0.103437 -0.000501216 -0.124761 -0.140738 -0.0139788 0.0469573 0.0574947 0.0715693 0.0634378 0.0537802 -0.0691115 -0.0378607 -0.0179751 0.0110552 0.0256105 -0.0184993 0.00565852 0.0613536 0.041547 -0.0152715 -0.051029 0.138981 0.132297 0.0945135 0.0660042 -0.0295342 0.110771 -0.0477396 -0.0154881 -0.0249551 -0.067028 -0.174696 -0.161962 -0.0502835 -0.0274575 0.0338259 -0.038992 -0.0348429 -0.0615992 0.0200219 0.032675 -0.0638123 0.010688 0.0154513 0.0452707 0.00667132 -0.0481387 -0.0515996 0.0322688 0.0146845 -0.0456115 0.0481606 0.0322166 -0.08297 0.0356186 0.0232419 -0.0933525 -0.0628306 -0.0182278 -0.0668502 -0.0281785 -0.128024 -0.00865586 -0.115939 -0.119245 -0.0404341 0.0386566 0.0384422 -0.0808369 -0.0399914 0.0711939 -0.0222988 -0.0603031 -0.081949 -0.00981209 -0.0582078 0.0624064 -0.0605989 0.0210389 -0.0303477 -0.169754 -0.0750315 -0.122018 -0.185282 -0.0290419 0.0157867 0.00800283 -0.104442 -0.00647805 -0.126934 -0.060843 -0.0680683 -0.0549768 -0.087932 -0.109885 0.00873986 -0.0196688 -0.00151949 0.0250738 -0.00216911 -0.0166 0.0643894 0.0272309 -0.0359475 -0.0696008 0.00112919 0.0580879 0.0252588 -0.0346073 -0.0565258 -0.0567795 -0.118964 -0.0949042 -0.0544338 0.0290906 0.00600955 0.0310033 -0.070389 -0.0823964 -0.0278488 -0.0112332 -0.00507359 0.013658 -0.0401637 -0.0479598 0.0360675 0.051245 0.016588 -0.0776403 0.0409673 -0.0772495 -0.0173748 0.0287148 0.0394503 -0.0549749 -0.0522797 -0.0615684 0.00388843 -0.0903262 0.0599254 0.00535792 -0.0571106 0.00454278 -0.0312577 -0.00556949 0.0627386 0.0497877 -0.0488489 -0.000650754 -0.017207 -0.0166833 0.0345889 0.046997 0.00743052 -0.0512387 0.0111337 0.0389637
0.0594798 0.0471531 0.0887822 -0.0255909 0.071338 -0.033916 0.0253871 -0.0528235 0.0502944 0.0461151 0.0967353 0.0479332 -0.0316907 0.0971566 0.0384621 0.00827568 0.0228181 -0.0385139 0.0220862 0.0485958 0.00103013 -0.0544753 0.0771684 -0.00122607 0.0382909 -0.00746149 0.0787781 -0.00666879 0.0932629 0.0409531 -0.0341211 0.103505 -0.062701 0.0598101 0.103404 0.00141138 -0.0622806 0.0266991 -0.0130714 0.100196 0.0201843 0.0967732 0.0889959 0.0690694 0.00487946 0.0356662 0.0741376 -0.0613092 0.0883142 0.0683806 0.0626748 0.00127658 0.0628731 0.0841698 0.0836228 0.00726626 0.0332483 -0.044301 0.0487895 0.0241172 0.0113469 0.0919182 -0.0156772 -0.043632 -0.0383513 0.0701012 -0.0515431 0.0977152 -0.029706 0.0524309 -0.0309312 -0.0602625 0.0697571 0.0364789 0.0504007 0.0814259 0.0614861 -0.0117447 0.0266541 0.0143354 0.0453474 -0.0108773 0.0964986 -0.0647026 0.0976219 0.0546737 0.060133 -0.0518827 0.0644386 0.0768163 0.0447915 0.0798841 -0.0503222 0.0660887 -0.0112351 -0.000566968 0.0124863 -0.0308253 -0.0628415 -0.0612524 0.0263439 -0.116289 -0.0912102 -0.0227385 0.0672212 -0.0384785 0.0718968 -0.0363732 0.0203669 0.014315 0.0666878 -0.0639139 0.0436893 -0.0570809 0.0104984 -0.0557154 -0.0299595 -0.0495347 -0.0243086 0.100751 -0.0259213 -0.00369181 0.0379355 -0.0462989 0.00329357 -0.0791676 -0.0889336 -0.15928 -0.098563 -0.116035 -0.132113 -0.0681873 -0.0771206 -0.0320826 -0.0144685 0.0235165 0.0440005 0.0795562 0.0531077 0.0616342 0.0641896 -0.0264807 0.0961809 0.0777957 -0.0103473 0.0568327 -0.0636144 -0.0332626 0.126727 0.0693146 0.0872891 -0.110001 -0.153138 -0.0780464 -0.0185283 0.012331 0.0158179 -0.103366 -0.0225866 -0.0840379 -0.0673059 -0.050935 0.154844 0.199947 0.0360011 0.0933305 -0.0130477 0.0805204 0.0767329 0.00937497 0.0612997 -0.04972 0.0169246 -0.104057 -0.0382744 -0.0777552 0.0285259 0.0186002 -0.0372235 -0.0900102 -0.0785374 -0.10192 -0.0616003 -0.073763 -0.0666971 0.00476718 -0.0752104 -0.0511669 0.04834 -0.0313474 0.127273 0.0720948 0.0675313 0.0872459 0.0227182 0.0857154 0.00286918 0.0494384 -0.0499195 -0.0738767 -0.0732803 -0.0806055 -0.046011 -0.0876635 -0.0768152 -0.140434 -0.164408 -0.0138879 -0.146537 -0.130923 -0.0681306 -0.0405246 -0.12692 0.0274597 0.0361824 0.0143821 -0.150833 0.00114756 -0.0257929 0.0750715 0.134097 0.022897 0.0382267 0.0381665 0.0880571 0.0530887 0.0830302 0.0304698 -0.0572407 -0.109492 -0.1916 -0.105266 -0.131047 -0.106594 -0.141552 -0.0085723 -0.128596 -0.135396 -0.0358118 -0.00707206 -0.144178 0.0160971 -0.156047 0.0204613 0.0274378 -0.019021 -0.0937276 0.0212305 0.186101 0.0959174 0.0682794 -0.06555 -0.0252305 0.00789043 -0.057798 -0.0548341 -0.129948 -0.203782 -0.0929416 -0.0729516 0.0250639 -0.0787054 -0.00654105 0.0164233 -0.022605 0.000689242 -0.039042 -0.118658 -0.114918 -0.118584 -0.0577883 -0.0177554 -0.0822332 -0.142607 -0.0749699 -0.0328851 0.0385556 0.0412095 -0.0240985 0.0163116 -0.0165819 0.0645798 0.0199182 -0.0699449 -0.0439332 -0.0450523 -0.147696 -0.0100422 -0.0104535 0.161405 0.133404 0.103805 0.157264 -0.10679 -0.199106 -0.0372349 -0.0686627 -0.170022 -0.190417 -0.226881 -0.134157 -0.257522 -0.205353 -0.145364 -0.0582233 -0.00161027 0.0325679 -0.0331934 -0.00976848 0.0209179 -0.0606479 -0.0599215 -0.0646916 -0.0196416 -0.0382424 0.00884124 0.0745372 0.124896 0.0586564 0.0212799 0.0485218 -0.218569 -0.384705 -0.189162 -0.225405 -0.358877 -0.312322 -0.392301 -0.354875 -0.301907 -0.279047 -0.0940021 -0.0748528 0.0586435 0.0367918 -0.0618466 -0.0406621 -0.0587761 0.0287375 -0.00065155 0.0180277 -0.0149005 -0.122903 -0.0636791 -0.00123242 -0.0249662 0.145496 0.280223 0.156214 -0.0202792 -0.115131 -0.0583103 -0.0953865 -0.183853 -0.239599 -0.171817 -0.282211 -0.146282 -0.099106 -0.188451 0.036795 0.0516038 0.000655156 0.0860093 0.00268465 0.0250917 0.0557679 0.0522068 0.0324508 0.0329954 0.03656 -0.0642696 0.0663299 0.0478771 0.172056 0.3324 0.213839 0.100365 0.0233911 -0.0353686 -0.066243 0.11251 0.0841949 0.0308516 -0.123168 -0.0820479 0.0356593 0.00238974 0.0205709 -0.00641003 0.0163548 -0.0102547 0.074698 0.0197459 0.0341441 -0.0496477 0.0164527 0.0511038 0.0231152 0.122976 0.0782882 0.0368109 0.188894 0.14591 0.223562 -0.0214496 -6.32999e-05 0.0292355 0.155599 0.231214 0.136933 0.0542473 0.0482093 0.0176032 0.139047 -0.0379634 0.00560985 0.000679576 -0.0104725 -0.0603196 0.0781525 -0.0445742 0.0813448 0.0733391 -0.0768207 -0.0222923 0.0613169 0.0437799 0.0647314 0.0625412 0.115932 0.0486532 0.147092 -0.101921 -0.037275 0.0825914 0.243632 0.165061 0.0871011 0.0317281 0.0466758 0.0480023 -0.0228689 0.0290008 -0.024597 0.10276 0.0836708 0.00312723 -0.0628497 -0.0212044 -0.0327718 -0.0365278 0.00376892 -0.00772318 0.117629 0.0341906 0.00627401 0.0388867 0.0763166 0.136061 0.129744 0.0623656 0.0633599 0.246093 0.229424 0.0377284 0.149269 -0.00557455 0.142315 0.114779 0.0317593 -0.0189891 0.0528485 0.0461937 0.103069 0.0498348 -0.0487863 -0.00361645 -0.00902823 0.0318863 -0.0134529 -0.00955079 0.120552 0.110143 0.0809107 0.0842709 0.071648 0.189839 0.0363518 -0.000879918 0.0418311 0.17833 0.152141 0.0634514 0.0206101 -0.00799383 0.107219 0.172357 0.0279764 0.12449 0.105133 0.02823 0.0293842 0.0329936 -0.0219269 0.00255001 -0.0274959 -0.0631272 -0.0171304 -0.0265931 0.0196042 0.0638002 0.0204809 -0.0347198 0.131062 0.101774 0.0972766 0.0279865 0.10998 0.200198 0.154437 0.0855904 0.114331 0.132059 0.109582 0.0553378 0.0656118 0.221496 0.194672 0.146833 -0.0495209 0.0918246 -0.0613188 -0.0441067 0.0689201 0.0440186 0.0458066 -0.0156839 -0.0305882 0.0637751 0.107095 0.0638953 0.0476638 0.0734179 -0.0393766 0.0733698 0.240135 0.277284 0.134245 0.0345313 0.107001 0.167755 0.121937 0.21937 0.127292 0.0959877 0.0785182 0.124018 -0.052285 -0.0408492 0.0603703 0.0517137 -0.0247984 -0.101229 -0.0427765 0.0228567 -0.0329067 -0.0783032 -0.0337708 0.000183959 -0.0503787 -0.0347 -0.0112806 -0.0791081 0.11047 0.0616012 0.247202 0.128219 0.20865 0.266159 0.125498 0.0474752 0.026028 0.11662 0.145171 -0.0136897 0.0792072 0.0736182 0.0410903 -0.0563397 -0.0378392 -0.0237255 0.0592556 0.0508325 -0.061196 -0.0371663 0.111288 -0.0120473 0.00563216 0.0289101 -0.11045 -0.0475542 -0.102506 -0.120162 -0.111049 0.0120847 0.11782 -0.00116877 -0.0700133 0.0527129 0.0887066 0.152389 0.0199581 0.103355 0.027437 0.0506166 -0.0385388 0.0509254 0.0358303 0.0986539 0.0437653 0.0539182 0.0132395 0.0429934 0.0745555 0.130641 0.0424652 0.0831821 0.0200244 -0.154631 -0.320089 -0.274748 -0.217931 -0.187448 -0.14481 -0.084577 -0.112304 0.0128408 -0.0182334 0.00306149 -0.0133358 -0.0430544 0.0295114 -0.0346354 -0.0328439 0.0585995 -0.0182923 0.0777702 0.0593295 0.1035 -0.00267229 0.00831711 0.0204559 0.0726886 -0.032478 -0.0373465 -0.109206 -0.170273 -0.0697346 -0.294905 -0.260601 -0.227988 -0.286965 -0.195838 -0.0721217 -0.0497932 0.029359 -0.0477688 0.0266161 0.0312013 0.0749849 0.0854036 -0.0542222 -0.0491725 0.0715393 0.068614 -0.0276656 0.0432295 -0.0711484 -0.025888 -0.0446716 -0.0233317 -0.0663194 -0.029837 -0.0573464 -0.0327473 -0.0626166 0.0196609 -0.00562124 -0.111212 -0.0411072 -0.0288534 -0.075354 0.00424536 -0.0486388 -0.0279301 -0.0609099 0.0824424 -0.00772291 0.103655 -0.0344914 0.0883508 -0.0144423 -0.0491302 0.0578181 -0.0636174 -0.103679 0.00615106 -0.108988 -0.0831532 -0.0128396 -0.0497066 -0.106101 -0.0977872 -0.058478 0.000672424 -0.080359 0.000722132 -0.163726 -0.0327005 0.0196765 -0.00078059 -0.0137285 -0.0208826 0.00701117 -0.0386741 -0.0607132 -0.0243765 0.0609108 -0.0114089 -0.043805 0.0790998 -0.0481412 0.0405065 -0.0782357 0.0540951 -0.0800487 -0.0297166 -0.0832565 -0.113359 -0.0501415 -0.0335149 -0.061731 -0.0999361 -0.00359577 -0.0913404 -0.0988206 -0.116642 0.00536826 0.0166953 -0.0515158 -0.0463061 0.0151366 0.00343883 -0.0130543 -0.0593306 -0.00675739 0.0646371 0.0883204 -0.0430973 0.0219057 -0.0530968 -0.00785592 -0.0367126 0.0547591 -0.0338409 0.0033236 0.000815406 -0.0542879 0.0536127 -0.00418978 -0.043893 -0.0679777 0.00334891 -0.0319039 -0.0189411 -0.011012 -0.0316952 -0.00361975 -0.0463409 -0.0215191 -0.0154299 0.0849689 -0.0570555
-0.035245 -0.061884 0.027301 0.0469019 0.0689653 -0.0532838 -0.0479749 0.0563431 0.0766009 0.0126313 -0.0670699 0.0172056 0.0153387 -0.0788627 -0.062715 -0.0437799 0.0821 -0.00964791 0.0650743 0.0848235 0.0510876 0.0619781 -0.0592217 -0.0322572 -0.030242 0.0859444 0.0321587 0.0381306 -0.0352106 -0.0183413 0.0347308 -0.0641594 0.0495813 0.0506571 -0.0692317 -0.0704196 -0.0654698 0.0263036 0.00964943 0.07502 0.0378463 -0.0386162 -0.0828717 0.0592474 0.043356 -0.041334 -0.0746229 0.0342192 0.0386487 0.0491528 -0.0706684 -0.0235385 0.0245649 -0.0172933 0.0766462 -0.0707654 -0.0703852 -0.034778 0.0529238 -0.0583363 -0.0704498 -0.0441317 0.0558251 0.0633162 -0.0243381 -0.0548996 0.0668856 0.0296963 0.00669147 0.0610596 0.0310023 0.0461166 0.0261143 -0.00369004 -0.0182373 -0.0392803 0.0519252 -0.0393333 -0.0136358 -0.0660658 0.0490606 -0.0783221 -0.0686339 -0.0238199 -0.0483064 -0.0662113 -0.0266309 -0.00975145 0.0810802 0.0249637 -0.0658129 -0.0551301 -0.0727567 0.0467363 -0.0657652 0.0265528 0.158571 0.0833054 0.162104 0.0327611 0.0701126 -0.00876015 0.00177844 -0.128595 -0.00977771 -0.0816073 -0.117308 -0.0408742 0.0466797 -0.0535483 -0.0152146 -0.0737287 -0.00383531 0.0784907 -0.00891358 0.0697122 -0.0385766 -0.0434375 0.09858 0.0578638 0.038598 0.0893244 0.158042 0.227502 0.316445 0.222986 0.220445 0.170463 0.00529901 0.0146813 0.0563298 -0.0796589 -0.0674476 -0.00723325 -0.163865 -0.0903567 -0.0912234 -0.00659853 -0.037051 0.0358871 0.00779662 -0.0429053 0.0150469 0.0611833 -0.0548648 0.116411 0.0374555 0.102206 0.0183699 0.0861528 0.0129208 0.0934771 0.0681245 0.208182 0.157119 0.204749 0.138177 -0.017478 0.0227445 -0.0293576 -0.115639 0.0145283 -0.123821 -0.161432 -0.087941 -0.0373586 0.0201144 0.0184329 0.0656432 0.0484096 0.0655116 0.0568446 0.0755171 0.0349129 0.135814 0.0868266 0.0901183 0.00106655 0.0857722 -0.0524847 0.00545873 0.169246 0.0992375 0.138519 0.187899 0.00268187 0.0645842 0.0101787 0.0666885 0.0685884 -0.0767441 -0.153315 -0.164333 -0.122811 0.0173998 0.0130211 0.0429956 -0.0229847 0.0344244 -0.0326452 0.0785441 0.10618 0.0300275 0.0257201 0.0390036 0.0801424 -0.0102433 0.00881069 0.0982253 0.104056 0.101209 0.0976859 0.000358402 0.0790081 0.000457955 0.0742221 0.177677 0.14924 0.0767255 -0.109079 -0.316758 -0.188633 0.0165006 -0.0824426 0.000365447 0.0519044 0.0776839 -0.00524152 0.120746 0.152807 0.0131398 0.0570011 0.135375 0.0554847 0.126212 0.119277 0.0925944 0.264771 0.338012 0.204042 0.0355005 0.145146 0.0511136 0.156032 0.103139 -0.0421421 0.12031 -0.206583 -0.370957 -0.118091 -0.106024 -0.0312295 0.00563077 0.0214775 0.101252 -0.00945676 0.107667 0.133345 0.0246109 0.013604 -0.0558314 -0.0489865 -0.111141 -0.0706552 -0.00155394 0.232955 0.436623 0.417901 0.185221 0.227885 0.0900629 0.00356236 0.07569 -0.0366671 0.0604353 -0.202969 -0.19218 -0.214103 -0.034267 -0.0670455 -0.0699821 0.0115765 0.0115998 0.0267711 -0.00796077 -0.119537 -0.0567426 -0.0849148 -0.19566 -0.145634 -0.171903 -0.299326 -0.277418 0.000249091 0.325195 0.298314 0.264272 0.131062 0.0892843 -0.0147857 0.0309352 0.00638122 -0.0443772 0.0123831 -0.0660074 -0.0925847 -0.0884063 0.0159997 0.0239406 0.0081438 0.0168795 0.0907039 -0.124824 -0.153677 -0.231186 -0.370301 -0.257708 -0.211492 -0.348204 -0.383221 -0.461933 -0.373833 -0.0582472 0.0639311 0.0534082 0.00989692 -0.011928 0.0967464 0.109582 0.0850625 0.115138 0.0839761 0.0057097 -0.00967999 0.00710517 0.0482116 0.0193106 0.0655204 0.00965983 -0.0770029 -0.180086 -0.232038 -0.512165 -0.382817 -0.261297 -0.358226 -0.256079 -0.269861 -0.269376 -0.383555 -0.121391 -0.121744 -0.0154936 0.0328593 -0.062164 -0.111695 -0.00483361 -0.16045 -0.0211849 -0.00268187 0.0019588 -0.0459445 0.0306561 0.0821128 0.0229783 0.0554262 -0.0537528 0.0362721 -0.207693 -0.348654 -0.297625 -0.214233 -0.213656 -0.0966737 -0.097654 0.00755991 -0.133708 -0.179568 -0.151459 -0.0997668 0.00330974 0.0813094 0.026964 -0.0333096 -0.0387805 -0.00688522 -0.096778 0.0597532 0.12442 -0.0191222 0.0834542 0.063949 0.0609302 -0.0119385 -0.0121258 0.0257364 -0.125974 -0.158091 -0.199408 -0.0963931 0.0362473 0.019151 0.0685802 0.105731 -0.0904731 -0.108444 -0.180991 -0.0644507 -0.0219627 0.045539 0.00827212 0.0272033 0.0175472 0.0833176 -0.0113103 -0.057163 0.022637 0.0151333 0.0433907 0.00141325 -0.0303905 -0.046519 0.00334138 0.00886703 -0.0403901 0.0616883 -0.00494093 -0.0442663 -0.0202779 0.0179513 -0.0266359 -0.0470356 -0.100741 -0.0974449 -0.150415 -0.0372502 0.0518007 -0.0682177 0.00770202 -0.0794937 0.0570047 0.0515141 0.0212431 0.101641 -0.0102748 0.169351 0.0366536 0.0344973 0.0786741 0.046521 0.0225887 0.00271066 0.165039 0.151463 0.0683678 0.141342 -0.0585898 0.100411 0.0450569 -0.0496375 -0.0887573 -0.0847145 -0.0855732 0.00048105 -0.0585384 -0.0280731 -0.0375922 -0.0197495 0.0630705 0.0377956 0.129207 0.0791633 0.0981287 0.1559 0.0825207 -0.0479665 -0.0211651 0.0504862 0.00963123 0.142438 0.205297 0.0801948 0.0951086 0.0885882 0.0431938 0.0375525 -0.058956 -0.0750189 -0.0515125 -0.11005 -0.129373 -0.0435747 -0.035675 -0.0636285 0.0473891 0.0180579 0.0372829 -0.00717726 0.110284 0.0111296 0.0371491 0.173419 -0.0216231 0.0915371 -0.0274267 -0.0351736 0.0841311 0.0050354 0.225537 0.154426 0.0325893 -0.083153 -0.127606 -0.00873696 -0.0336887 -0.0867361 -0.16684 -0.067855 0.0148953 -0.0340202 -0.0395898 -0.00218643 0.0581274 0.0520522 0.00118745 0.0275249 0.0861027 0.180466 0.122733 0.0281772 0.104521 0.00109848 -0.0722879 -0.043179 0.0559257 -0.00671403 0.0905812 0.0557029 -0.00879607 -0.00947884 -0.00897906 -0.0149773 0.029908 -0.00816994 -0.00501966 0.0775068 0.0387151 0.0141194 -0.0175981 0.0743628 0.00854437 0.0871111 -0.0710491 0.0316852 0.0199407 0.1571 -0.000325325 0.127136 -0.00134209 -0.0297508 0.0561169 -0.0574947 0.0559793 0.076406 0.133109 0.184406 0.0127888 0.166122 0.0694951 0.0295127 0.0705452 -0.00826997 0.16457 0.0801498 0.0890865 0.0939692 -0.0571994 -0.0357985 -0.00755938 -0.0218647 -0.0937914 -0.0589248 -0.0244213 0.0858275 0.00450777 0.110532 0.00332182 0.00450674 -0.066908 0.00496619 -0.0627714 0.0278874 0.0846831 0.14544 0.159381 0.118767 0.0720977 -0.00110032 -0.0266958 0.00806132 -0.0499008 0.0519577 -0.0840375 0.0526003 -0.0788479 -0.00268543 -0.0491553 -0.048063 -0.130494 -0.0331956 -0.0554994 0.0501175 -0.00143129 -0.0570924 0.0645055 0.085065 0.0703692 -0.0177734 -0.017536 0.00784752 -0.0290706 0.109289 0.159732 0.0282389 -0.0194711 0.030895 0.0219707 -0.00234959 0.0573426 0.0470833 -0.0405003 0.133708 -0.0186568 -0.0611774 -0.0602913 -0.000737627 -0.102791 -0.0745152 0.0277511 -0.0825272 -0.049848 -0.0229909 -0.0572704 0.0315233 0.0861935 -0.0467392 -0.0622017 -0.0676804 -0.0400521 0.0084544 0.139891 0.12958 -0.0640275 -0.0206957 0.0480105 0.126586 0.0432495 0.0112126 0.109663 0.00938729 0.0265525 -0.0672581 -0.0256896 -0.0330834 -0.141033 -0.163679 -0.0808851 -0.0753703 0.0576383 0.037573 0.0414098 -0.0746242 -0.0281581 -0.00978851 -0.0268605 -0.0775081 0.0682936 0.0969396 0.082813 0.0985076 -0.0317736 -0.0405662 -0.00345034 -0.00252021 0.0128033 -0.0366443 -0.0123467 -0.0326166 0.0297317 -0.0306761 -0.125212 -0.122065 -0.224054 -0.183488 -0.0529564 -0.116067 0.000667197 -0.0158425 0.0117659 -0.00932811 0.0221991 -0.000118068 -0.0180199 0.0855234 -0.0502348 0.0232627 0.0169676 0.0870615 0.05794 0.17346 0.0148223 -0.00750282 0.0872786 0.0273783 0.0680523 6.29863e-05 0.0418573 -0.0330045 -0.0364217 -0.0794416 -0.136957 -0.162268 -0.0840993 -0.0834148 0.0507145 -0.0278864 -0.0479908 -0.00386171 0.0747158 -0.00381291 -0.0382317 -0.045995 -0.0745008 -0.0243968 0.0241056 0.0416733 -0.0433974 0.0771862 0.0125583 0.0573431 -0.0682796 0.0215239 0.0744599 0.0946111 0.0566189 0.0353641 0.074588 0.0781832 0.0204588 -0.0640848 0.00291899 -0.0619033 0.0336906 0.0217837 0.0187335 0.0548396 0.0815451 -0.0614319 -0.00794911 -0.0331302 -0.0500945 0.0357952 -0.043855 -0.0693348 -0.0540934 -0.0422491 -0.0524566 -0.0426435 -0.036671 0.0469492 -0.0543675 0.0404771 0.0574239 -0.0122566 0.0288679 0.0676793 0.0517181 0.0313991 0.0599222 0.082113 -0.0296823 -0.0551879 0.0584032 0.0088928
-0.0407422 0.0137475 -0.000194221 -0.0460086 0.0434894 -0.0120087 0.09689 0.104367 0.0171326 -0.0454847 0.09922 -0.00339819 0.0613698 0.0848693 0.0705014 0.0683561 0.0635182 0.00814506 0.102363 -0.0274814 0.0270881 -0.0395044 0.0314832 0.00584365 -0.0454464 0.101626 -0.0558078 -0.049557 0.0757278 -0.0294618 0.0557029 0.0802711 -0.0195934 -0.0528409 0.0524879 -0.0477809 0.106935 0.102928 0.0894887 0.0995297 -0.0152768 0.00862416 0.0258567 0.0116713 0.0508082 0.0114902 0.0570161 -0.0314908 0.0290028 -0.0111505 0.0465357 0.108159 0.0669046 0.0288565 0.0747436 0.0814555 0.00406032 -0.0523685 0.0852399 0.0790475 -0.0576482 -0.0215212 0.102639 0.00348862 0.0423549 -0.0517187 0.0142609 0.0369034 0.0263802 0.0646226 0.0929101 0.144477 0.0160552 0.0284389 -0.035588 -0.0210794 0.108914 0.0845001 0.0379503 -0.0529731 -0.0507571 0.0830193 0.0455258 0.10074 -0.0397304 -0.0356085 -0.0265682 0.099448 0.0568851 -0.0368796 0.0277517 0.0933556 -0.0142698 0.0507564 -0.0529431 0.0564871 -0.0170229 0.0206616 0.00773064 0.0250707 0.100313 -0.0582794 0.0649409 -0.0431432 -0.0305577 0.083107 0.0532688 0.0707884 -0.0281881 0.0252163 0.0311454 0.0434705 -0.0386702 0.0928368 0.018956 -0.0580117 0.029125 0.0811025 0.0175221 0.0714119 -0.00910827 0.0764776 -0.0862957 -0.0988039 -0.0922628 -0.0727836 -0.1021 -0.180191 -0.131563 -0.033303 -0.0372276 0.0776806 -0.00955525 0.132173 -0.0266687 0.0323023 -0.0407669 0.0210562 0.066957 0.105856 0.0511379 -0.0298896 0.104811 0.00943497 0.112528 -0.0202442 -0.00952001 -0.0628765 0.0529564 -0.0622841 -0.137997 0.0065734 -0.057219 -0.0164663 0.00459376 -0.0294678 -0.129813 -0.155113 -0.140812 -0.0492308 0.0147426 0.0731745 0.0400666 0.0117004 0.0308512 0.0563128 0.0289129 0.103267 0.102284 -0.0260379 -0.0353916 0.0649277 0.0703725 0.00211224 -0.0472299 0.0073591 0.0267555 -0.108231 0.04584 0.154236 0.0136465 -0.0594926 0.0227156 -0.0722509 -0.0473943 -0.0638226 -0.128675 -0.0797632 -0.0898792 -0.035255 -0.0867823 -0.0175667 -0.0354241 -0.0425476 0.0539473 0.0445654 0.0870338 0.0915924 0.105079 0.107333 0.0681489 0.0258025 0.00834933 -0.0222137 -0.0623652 -0.0346182 0.101885 0.064579 0.0827368 -0.00386416 -0.100953 -0.0563001 -0.123224 -0.028819 -0.0482653 -0.00901997 0.0296761 -0.0442105 -0.0385707 -0.0213169 -0.121135 -0.0482186 0.00192093 0.0210294 0.0336168 0.108989 -0.0226817 0.0468018 -0.0160575 -0.0407282 -0.0709 -0.02452 -0.0123639 -0.0832378 0.0646463 -0.0299903 -0.0456836 -0.0662552 -0.0346109 -0.0137243 -0.0885089 -0.0183559 0.0279486 -0.0536435 -0.007483 -0.0484818 -0.146065 -0.0862002 -0.207867 -0.0404853 -0.0510812 -0.0224303 0.0436733 0.0715394 -0.025595 0.0549375 0.0684754 -0.0626727 0.0280602 0.0233277 -0.060869 -0.0289879 -0.0590692 -0.0462707 0.0043065 -0.0575078 -0.0148483 0.0133623 0.0799342 0.0357114 -0.00202948 -0.0195582 -0.0350245 -0.149973 -0.18302 -0.152676 -0.172368 -0.0751183 0.0144016 0.0905698 0.0694361 0.0389793 0.0610428 0.0748968 -0.0590783 0.0143342 -0.0373584 0.119501 -0.00429 0.0903751 0.137853 0.0366678 -0.0109168 0.0208335 -0.0210831 0.00410473 -0.00901991 -0.0453983 -0.015974 -0.0604331 -0.104115 -0.15357 -0.197395 -0.25763 -0.267612 -0.0675304 -0.0827613 -0.0459257 0.0163243 -0.0473936 0.100852 -0.0203165 0.0421505 0.0493899 0.0380231 0.188573 0.151221 0.0964813 0.0663056 0.0529861 -0.140944 -0.111587 0.0118643 0.0429662 0.0595876 0.0451577 0.115062 0.0279913 0.118726 0.113264 0.0360279 -0.163948 -0.15565 -0.117508 0.031763 0.0818303 -0.0138277 -0.0344134 -0.0513996 0.0544944 0.019074 0.101511 0.066713 0.212266 0.106375 0.151514 -0.0354667 -0.016148 -0.112872 -0.136167 0.0867318 0.135504 0.0426747 0.0835057 0.124089 0.152504 0.225223 0.260037 0.115901 0.113298 -0.0236384 -0.0781378 0.0197783 -0.0145547 -0.00499818 -0.015606 -0.0464496 -0.00251015 0.073489 0.165177 0.0500262 0.0706091 0.0345891 -0.040709 0.0450571 -0.155418 -0.152962 -0.113993 0.0586228 0.0705046 0.146804 0.1273 0.171983 0.289607 0.207957 0.139522 0.1295 -0.0246106 -0.0054876 -0.0812583 -0.0261583 -0.00291724 0.0112238 0.0323069 -0.0119132 0.0450476 -0.0019203 0.0268828 -0.0332311 -0.0643196 -0.0355843 -0.0242088 -0.172076 -0.173176 -0.0995452 0.0244791 0.0858542 0.115857 0.122796 0.203561 0.145215 0.276887 0.101775 0.0970822 0.0505006 -0.00138205 -0.101529 -0.0536339 -0.0177754 0.098517 -0.0414291 -0.0529594 0.0296851 0.0091193 0.036607 0.00984387 0.0310371 0.00608323 -0.0822236 -0.276402 -0.240793 -0.066496 0.0285375 0.120509 0.187642 0.154608 0.128856 0.200435 0.168593 0.0357554 -0.0271604 -0.0935185 -0.154592 -0.0594321 -0.0315287 -0.0631813 0.0873403 0.0708799 0.0712355 0.026765 0.0930454 0.0524357 -0.0851488 -0.112928 -0.0285436 -0.0236282 -0.239026 -0.342059 -0.15026 -0.0415505 -0.0409795 -0.0182622 0.210953 0.100129 0.0394298 -0.0455258 -0.0479816 -0.00817194 -0.0596174 -0.17611 -0.180183 -0.200052 -0.157698 -0.0760462 0.0831212 0.0810441 0.105793 0.0249592 -0.0624422 -0.0628192 -0.0836224 -0.155277 -0.210903 -0.213395 -0.261037 -0.160095 -0.0653014 0.188655 0.151488 0.0950096 0.168718 0.066753 0.0149815 -0.0762001 -0.0654274 -0.132695 -0.198181 -0.20201 -0.263154 -0.113299 -0.0587278 -0.097525 0.0710749 0.104777 0.0691669 -0.0590912 -0.0567958 -0.0954791 -0.207691 -0.211657 -0.420562 -0.436908 -0.292905 -0.135039 0.0621965 0.265572 0.187695 0.101795 0.0944382 0.094749 -0.110893 -0.122484 -0.151015 -0.137551 -0.0968623 -0.185076 -0.271898 -0.125891 -0.0321602 0.00480663 -0.0336734 0.0228434 0.0240427 0.0392464 -0.0651268 -0.0342266 -0.215957 -0.163538 -0.31366 -0.399332 -0.250685 -0.0852401 -0.0673677 0.0846885 0.140542 0.135776 0.099563 -0.0445351 -0.00940914 -0.0414886 -0.0520997 0.0117741 -0.0802131 -0.224392 -0.275006 -0.230836 -0.0734979 -0.0638971 0.0426421 0.0252601 -0.0160267 0.0525493 -0.0293145 0.000599191 -0.105541 -0.154878 -0.297923 -0.194994 -0.198669 -0.130611 0.0122837 -0.0261025 0.0496226 0.0978052 0.0650008 0.0627466 -0.0180268 0.00491566 -0.0583616 -0.116301 -0.0703283 -0.0908276 -0.129189 -0.143679 0.00140892 0.0282942 0.0277467 0.0897422 -0.0127296 0.108996 -0.0369087 -0.00724485 -0.127349 -0.085268 -0.0501651 -0.150488 -0.0978808 -0.0114345 0.0731147 -0.0210442 -0.0265987 0.00305427 0.103853 -0.000634174 0.0178442 0.00718521 0.0417033 -0.0309679 -0.0194291 -0.194501 -0.10198 -0.0754743 0.0704594 0.0475686 0.017961 -0.055307 0.0428148 -0.0596019 -0.053305 -0.0390177 0.0202404 -0.00181438 0.00828631 -0.0339615 -0.000359452 -0.0402609 -0.0641823 -0.0861264 -0.0378579 -0.103336 0.084221 0.0230374 0.0528948 0.0262549 0.0910149 -0.0688359 -0.155651 -0.0524138 -0.068147 0.0861118 -0.00563948 0.0648398 0.0450223 0.00701777 0.0813787 -0.0372064 0.0698632 0.0840107 -0.0786977 0.0339519 0.0548062 0.00166642 -0.132841 -0.0676338 -0.0143543 -0.159381 0.0468108 -0.0107232 -0.00744716 -0.0367485 -0.0154724 0.0673515 -0.0184967 -0.068611 0.019289 0.0957588 0.066467 0.0399387 -0.0458371 0.0546867 0.0966091 0.0563255 0.0500232 0.0380117 0.0276255 -0.0401152 0.0812831 -0.0163807 -0.0055731 0.0486921 -0.124488 -0.0319392 -0.175288 -0.0349441 -0.00320115 -0.0686349 -0.00454973 -0.0621916 0.0572919 -0.027818 -0.0559368 0.098456 0.04309 0.0567796 0.0339723 0.121336 0.00625933 0.0858012 -0.0338252 0.0560827 -0.0291647 0.0959659 0.107397 -0.0614246 0.0707441 0.107709 0.0705185 -0.0232667 0.0479638 -0.0529748 -0.0327816 -0.14735 -0.154362 0.0281055 -0.050318 0.0366705 0.0399491 0.118965 -0.0184403 0.158307 0.0162816 0.107924 0.0570941 0.108315 0.0606625 -0.0221523 -0.0523349 0.017619 -0.0102749 -0.0320577 0.00356114 0.00120193 0.00504722 0.0454668 -0.041655 0.13138 -0.0102128 0.0593467 -0.0124629 0.0883123 0.0745972 0.0214606 0.179153 0.0936491 -0.0268454 0.00447703 0.0746248 0.11106 0.087352 -0.0395246 -0.0415233 -0.00904857 0.0624272 0.0504309 -0.0316011 -0.00573764 0.0607418 0.0865669 0.0898591 -0.033941 0.0480618 -0.0289072 0.0106007 0.0848021 0.00410684 0.102984 0.0233648 0.106764 -0.0427537 0.0289035 0.0702045 -0.0496792 0.0669151 0.054665 -0.0239501 0.111845 0.0567663 0.0997787 0.0803978 -0.013049 0.0102464 0.0873414 -0.0533357 0.0344368
0.0830556 -0.00991853 0.0854388 -0.0174003 -0.078383 -0.0125646 -0.0463514 0.0139317 0.0529911 0.0326366 0.0363549 -0.081035 -0.0253664 -0.0310729 -0.0120273 -0.0386136 -0.00860767 -0.0454292 0.0163655 0.0672379 -0.0451113 0.0589789 -0.0305048 -0.029195 0.0181302 -0.00714457 -0.0748667 -0.00509217 0.0808703 0.0259238 0.034302 0.0222663 -0.00589197 0.019813 0.040438 -0.0065086 0.0136173 0.00920897 -0.0361261 -0.00276157 0.0165819 -0.0464993 0.0705164 -0.00954404 0.0445543 0.0676652 0.0242389 0.0103734 0.0655247 0.0777625 -0.0571071 0.0813185 0.0835164 0.0789005 -0.0356809 -0.0149433 0.0771032 0.0649955 -0.0774447 0.0148643 0.00499739 0.027896 -0.0172146 0.0275743 0.0405208 0.000278414 0.0846078 0.0702381 0.0789378 -0.0494024 0.0409876 0.0787523 -0.0049 0.0854956 0.0960185 0.0244571 0.0668854 0.0588985 -0.017222 -0.0400223 0.0329759 0.0372781 0.0650178 0.0293214 -0.0560895 0.0585028 0.0788751 0.0595096 -0.0229542 0.0636111 0.0663348 -0.0557304 -0.0375966 0.032443 -0.0691515 0.0445374 0.071315 0.0518035 0.0267505 0.100053 -0.0307087 0.0274299 0.0642439 0.0844456 0.094793 -0.0103987 0.0128544 0.0307976 0.101447 -0.0538867 -0.0714078 -0.0590871 0.0455699 0.0473393 0.0849866 -0.0411977 -0.0382235 -0.0630094 -0.00238936 0.035885 0.0418414 0.0465116 -0.00403496 0.0115665 -0.128389 -0.142316 -0.0946241 -0.117369 -0.0497141 -0.0331737 0.0198273 -0.0227895 0.139327 0.0615679 0.0894967 0.105624 0.0383264 0.0858654 0.0250648 -0.0783372 -0.0229987 -0.011371 0.0378751 -0.0518395 -0.00259249 -0.0780088 0.000899289 0.0279046 0.00208459 -0.0534309 -0.0430417 -0.163198 0.0213842 -0.0461717 -0.0908776 -0.071003 -0.0447562 0.000369233 -0.12921 0.0510804 0.00264075 0.173658 0.0164516 -0.00126991 -0.00459998 -0.0609466 0.0723194 -0.0397768 -0.0283601 -0.021883 -0.00880095 0.0229505 0.0206565 0.0275359 -0.0424266 0.00845258 0.0139337 -0.0384408 -0.00531749 -0.0267587 0.0330606 -0.163053 -0.026066 -0.024712 -0.0934989 -0.0136655 -0.142981 -0.0880991 0.0338789 -0.0412255 -0.0256951 0.0708985 0.0469791 -0.102393 0.0451915 0.0643661 0.0619074 0.0307804 -0.0716921 0.0086692 -0.00508897 0.00362538 0.0342715 0.118591 0.0102585 -0.0421249 -0.113124 -0.0298469 -0.0547068 -0.0775381 -0.0176921 0.0222488 0.0595485 0.0576532 -0.11985 -0.102635 -0.111977 0.05907 0.00856238 0.0161505 -0.0237951 -0.103281 -0.0179549 -0.0810943 0.0083727 0.0891855 0.0645868 0.0218346 0.0822243 -0.032982 -0.0145595 -0.00141075 -0.0758822 -0.0512945 -0.0650885 -0.0537921 0.0476526 0.0540868 0.0881023 0.14458 0.0251088 -0.0645074 -0.00214765 -0.0740914 -0.10015 -0.118416 0.0587508 -0.0613377 -0.168279 -0.14186 -0.0654915 -0.0647943 -0.027719 -0.0801504 0.0423013 0.0975077 0.0829726 0.0273212 0.0953313 0.0336649 -0.0984833 -0.037293 0.000893883 0.0755762 0.165146 0.00887704 0.0939046 -0.000328403 0.00887778 -0.00447648 -0.0374495 -0.127305 -0.093312 -0.162609 -0.164999 -0.143583 -0.235191 -0.211343 -0.086267 -0.0203273 0.0700692 0.0664329 0.0461386 -0.0259115 0.0669271 0.135999 -0.0592541 -0.091347 -0.0154593 0.0176397 0.185569 0.196452 0.0974798 0.0517944 0.0581519 -0.0427274 0.0508289 0.0217395 -0.0188674 -0.0915286 -0.12718 -0.0166111 -0.165311 -0.149539 -0.357574 -0.221363 -0.0324815 0.0399783 0.0273615 -0.0555584 -0.0288817 0.0019558 0.0783345 0.0911437 0.0708832 0.120839 0.080988 0.1735 0.117398 0.0313139 -0.0961578 -0.179517 -0.0712143 0.0582636 -0.0164535 0.0506761 0.0430385 0.0160032 0.102432 0.0679736 0.076146 -0.0482598 -0.145723 -0.0511543 -0.0778522 0.0426364 -0.0688365 0.0705084 0.0408849 0.0280988 0.13468 0.110233 0.123352 0.0715234 -0.0412913 0.0590954 -0.0183165 -0.101695 -0.187879 -0.222072 -0.062338 0.0101352 0.185528 0.143252 0.0953713 0.0522479 0.177084 0.248651 0.241545 0.190884 -0.0260755 0.0655434 -0.0520944 -0.0372984 0.00812679 0.0465204 -0.000730782 -0.051684 0.0532587 0.0751316 0.0165123 0.000977995 -0.0291387 -0.0426916 -0.141779 -0.149711 -0.186756 -0.123904 -0.00518616 0.182431 0.223431 0.0816783 0.0644037 0.0683512 0.166498 0.149942 0.118062 0.133027 0.0757044 0.0874846 0.00553019 -0.0116427 -0.0349354 0.0754191 -0.0431385 0.0835438 0.0164434 0.0915368 0.0278864 -0.0429345 -0.0627439 -0.19956 -0.14661 -0.147982 -0.198653 -0.0185818 0.105541 0.115032 0.0433134 0.0269585 0.0643864 -0.0597305 -0.109021 -0.00919508 0.0325781 -0.0675845 -0.0038926 0.0345408 0.0736107 -0.0377559 0.0515317 -0.0102429 -0.0223584 0.000785679 0.0222354 0.0449518 0.0751335 0.121407 0.00637927 -0.126239 -0.105566 0.010835 0.0587844 0.0737652 0.121564 0.144321 0.129425 0.221178 0.0939813 -0.00564655 -0.174728 -0.147459 -0.139775 0.000358627 -0.0846598 0.0195454 -0.0535389 0.087231 0.0418237 0.0632111 -0.0934456 -0.0343661 -0.0103965 0.0145449 0.0082506 0.172887 0.0689376 0.231115 0.145369 0.238621 0.188149 0.0856193 0.146197 0.278301 0.158757 0.0811661 -0.0642881 -0.170556 -0.122014 -0.13245 -0.0848401 -0.0830409 -0.0440106 0.0759948 0.0107954 0.0835733 0.0268976 0.0596283 -0.00394035 -0.103624 -0.0169102 -0.0752483 -0.15095 -0.0180731 0.171692 0.324769 0.448114 0.388194 0.493262 0.443004 0.365157 0.155467 0.00930425 -0.139414 -0.103497 -0.131405 -0.0973478 -0.130711 -0.145468 -0.100626 0.0449341 0.0278967 -0.0701769 0.0589607 0.0418035 -0.0822037 0.0215154 -0.11515 -0.127299 -0.242646 -0.213732 -0.0844424 -0.0379694 0.135251 0.0997266 0.301379 0.225122 0.201946 0.251119 0.157705 -0.0233678 -0.0529073 -0.0692662 -0.0196615 -0.0236207 -0.134882 -0.0249735 -0.0552956 0.00307498 -0.0109989 0.0724539 0.051914 0.0651893 -0.0142863 -0.0636162 -0.0480175 -0.16423 -0.247633 -0.111712 -0.076109 -0.218443 -0.144606 -0.164759 -0.101483 -0.142478 -0.0315751 0.0133407 0.0568555 0.0471062 0.0897145 0.00335826 -0.00764531 -0.00573277 -0.0269038 -0.0143104 -0.0836964 0.0188676 0.0533613 0.0151853 0.0309263 -0.040669 -0.0382543 -0.0944309 -0.0149867 -0.203139 -0.233411 -0.164142 -0.106338 -0.101759 -0.170551 -0.205182 -0.0514874 -0.0238974 -0.0984289 -0.00282449 -0.0304633 0.0629088 0.164956 0.127897 0.0449315 0.0118868 -0.0624753 -0.0913161 0.046998 0.0262748 -0.0623487 -0.0310468 0.0667412 0.0283882 0.0039632 -0.0293925 -0.12523 -0.122457 -0.110156 -0.166916 -0.0747372 -0.0879199 -0.00429397 0.0748909 -0.0623295 0.0151828 -0.0769132 -0.00983212 -0.0748812 0.018885 0.0211715 0.111321 0.0370413 -0.0962687 -0.0880902 0.000464898 -0.0419748 -0.0673458 -0.0178927 -0.0114814 0.0493417 -0.019801 -0.0431053 0.00190791 -0.0513784 -0.0751934 -0.10483 -0.117515 0.0160739 -0.0362132 -0.110891 -0.0697252 -0.166124 -0.0359601 -0.0978985 -0.0286327 0.00044633 -0.0683475 0.0711585 0.0602375 0.0560453 -0.0186079 0.019583 -0.0118246 -0.00847894 -0.0546718 0.0567909 0.0255274 -0.0158223 -0.0624838 0.0416171 -0.0841078 0.0309681 -0.11773 -0.0259155 0.0412983 -0.0526752 0.00703242 -0.132048 -0.11786 -0.115607 -0.0580995 -0.0298768 -0.0371697 -0.0804796 0.014031 0.00901159 0.036061 0.0841054 0.00748595 0.0468175 -0.0566399 -0.082375 -0.00598772 -0.0486676 0.06496 -0.0207633 -0.0672857 0.0761208 -0.0698998 0.0725653 -0.0271142 0.0171548 -0.0264882 -0.000247933 0.0358632 -0.097659 -0.115735 -0.0644763 -0.0543919 -0.0346976 0.045541 -0.0271378 -0.0181171 -0.0616469 -0.0771316 0.0277329 0.0142221 -0.0293821 -0.0680603 -0.0694755 -0.0491251 -0.0397915 0.0626356 -0.0598023 0.0838044 0.0518475 -0.021171 0.0527244 -0.0847993 -0.0635035 0.035703 -0.0480467 -0.0912753 0.00735315 0.0406245 -0.0747937 -0.0560899 -0.0444246 0.0245615 0.0439419 0.100194 -0.0117043 -0.0257433 0.0250974 0.0760673 0.032491 -0.0767077 0.00649036 -0.0792716 -0.055102 0.029326 0.0124671 0.00904037 0.0206795 0.0285666 0.0681769 -0.00216133 -0.0358858 0.0783843 -0.0547068 0.12123 0.127604 0.0187895 0.0902476 0.0296669 0.143634 0.125624 0.126413 0.0475216 0.0863333 0.0128863 0.0196755 0.0675656 -0.0738321 -0.0356861 -0.0123312 0.0372033 -0.00341527 -0.0739016 0.0300579 0.0438125 0.085629 0.0482884 -0.0739056 0.0447795 0.0186644 -0.056996 0.0294328 -0.0199377 0.0507843 -0.00933979 -0.0278199 -0.0152071 -0.0289326 0.0282301 0.0182118 0.036465 -0.0466124 0.0230277 0.0215168 -0.0163283 0.0166241 0.058191 -0.0404686 0.0804952 -0.0698467 0.0271608 -0.0348886
-0.029224 -0.051533 -0.0247893 0.0531331 -0.0308242 0.0751101 0.0325866 0.011153 -0.0275536 -0.0210465 -0.0301495 -0.0259398 0.0126764 0.0701577 0.0159438 0.0922617 -0.0710286 0.0233985 0.0037393 -0.0599944 -0.0739866 -0.0713847 -0.00640084 0.00773319 -0.0329564 -0.0445601 0.089377 0.0308562 0.0183355 0.0381227 0.0668334 0.0785489 0.0230292 -0.0464096 -0.0429933 -0.0345558 -0.0310079 0.070417 0.0186194 0.00580879 -0.0765632 -0.038535 0.0220372 0.0417544 -0.0289737 0.0390095 0.0751249 -0.0728122 -0.0258658 0.0541723 -0.0465716 -0.0515322 0.00610725 -0.043481 -0.0382289 -0.0728148 0.0450144 0.0429321 -0.061446 -0.0326223 -0.0461695 -0.0629737 0.0122951 -0.0568571 0.0159313 0.0211308 -0.00178014 -0.0097647 -0.13067 -0.097241 -0.00393424 0.000988261 0.0314471 -0.0416164 0.0690631 -0.0563657 -0.0675981 -0.0588235 -0.0244439 0.0742308 0.0497804 -0.014118 0.0871569 -0.0462273 0.0255393 -0.0416678 0.0915447 -0.0536064 0.0839003 -0.0559014 -0.0327714 -0.00131371 -0.0339575 -0.00690453 -0.15983 -0.0712468 -0.143464 -0.115655 -0.118722 -0.11978 0.0509595 -0.0760465 0.0406961 -0.00272369 -0.0511981 -0.0412115 0.0456861 -0.0692273 -0.0257736 0.0167085 -0.026646 0.0633195 -0.00485494 0.014863 -0.0599992 0.055156 0.0485441 -0.0376131 -0.0157464 0.0102872 -0.139453 -0.0495414 -0.121453 -0.0579163 -0.0421779 -0.00929326 -0.0346755 0.0345992 0.039026 -0.0301245 -0.00544157 -0.00386404 0.0379786 -0.0233313 -0.0864184 -0.0091947 0.0432 0.0301723 -0.0264378 0.0688665 -0.0353785 -0.0559692 0.0565313 -0.071214 0.0795262 0.074329 -0.0139092 0.0112994 0.0891742 -0.0476672 0.0533934 0.0485847 0.019401 0.00996225 -0.0346053 -0.023228 -0.0929521 0.0204285 0.0377055 -0.0586908 0.0225622 -0.00548944 0.0298211 -0.00317862 0.115628 0.0880602 -0.0554754 0.0188728 0.0937255 -0.0237667 0.00632839 0.091999 -0.0231121 0.0609616 0.108324 0.146205 0.0974196 0.099499 0.0803766 -0.0141098 -0.099596 -0.0257252 -0.127979 -0.229776 -0.244935 -0.198517 -0.0208221 0.0382817 0.0169259 0.0364182 0.141286 0.175401 0.16171 0.116857 0.0272172 0.091027 0.0942853 -0.0646778 -0.0581711 0.0589063 0.0945149 0.0860156 0.167292 0.0909308 0.109024 0.0527542 -0.0502457 0.0253518 -0.0537454 0.0653202 -0.156081 -0.255908 -0.342631 -0.108007 -0.00317072 -0.0545859 0.0153716 -0.0205632 0.140473 0.240584 0.214345 0.00804267 -0.00543978 0.006043 0.00526034 0.0589587 -0.0536936 0.0912703 0.077397 0.110126 0.0676459 0.0469923 -0.119168 -0.0783528 0.0786597 0.0940018 0.12238 -0.0202069 -0.0783834 -0.321665 -0.224858 -0.114985 0.00766906 0.0537387 0.00609565 0.0942054 0.0943827 0.153598 0.231387 0.109061 0.0357434 -0.0649287 0.0164002 0.00935998 0.103067 0.111372 0.146642 0.0210091 -0.126981 -0.0273748 -0.120514 0.0398882 0.00324956 0.0818114 0.119928 0.0892382 -0.265811 -0.270365 -0.0619847 -0.022609 0.177125 0.20022 0.198328 0.0984769 0.230342 0.0848819 0.116091 0.130663 -0.0487333 0.00120161 0.028531 0.0328155 -0.00429974 -0.0277793 0.0202562 0.066417 -0.124137 -0.0993313 -0.0198991 0.0115128 0.0359493 0.191437 0.26624 0.145224 -0.282398 -0.0354603 0.00474696 0.0713247 0.190282 0.105404 0.148807 0.0907989 0.0978799 -0.0176752 0.117489 0.125648 0.0656111 -0.0511441 0.0781676 0.076921 0.0306776 0.0834221 0.0613238 -0.110375 -0.132459 -0.0738101 -0.0884696 0.0623614 0.216288 0.288187 0.388435 -0.112465 -0.403155 -0.146686 -0.0267234 0.0989425 0.0865949 0.0206285 0.00978332 -0.138274 -0.154891 -0.0958798 -0.0560704 0.0740094 0.0808171 0.00335593 0.00999031 -0.0446363 0.0674283 -0.0157405 -0.0881152 -0.134571 -0.102626 0.105873 0.174685 0.0739751 0.253621 0.365054 0.440805 -0.0934124 -0.486676 -0.245734 0.102261 0.0212562 0.0305156 -0.0874027 -0.111576 -0.186627 -0.077905 -0.247056 0.00210208 -0.0241565 0.0681365 0.0296812 -0.0143141 -0.0536316 0.0591699 -0.0374318 -0.0577887 0.0871262 0.183366 0.13026 0.125942 0.164271 0.140801 0.383366 0.127623 -0.293147 -0.348649 -0.146292 -0.078317 0.0391623 -0.0603084 -0.226147 -0.0666654 -0.0868126 -0.00958035 -0.0765488 -0.0797098 -0.0569545 -0.00857343 -0.0333119 0.0637603 0.057979 0.0494838 -0.0391195 -0.0138301 0.112899 0.165752 0.165402 0.298615 0.192147 0.185117 0.00533675 -0.0970521 -0.233402 -0.332942 -0.0459622 -0.0218567 0.00108998 -0.0929717 0.135113 0.0279044 0.0571543 -0.0117849 0.0536204 -0.0317351 -0.0318916 0.0241453 0.0307475 -0.0453075 0.0347077 0.105314 0.0199396 0.117232 0.0441778 0.113009 0.0829349 0.131314 0.0758812 0.0225674 -0.0578628 -0.153412 -0.236158 -0.18311 -0.0470475 0.00969 0.0115378 0.0440155 0.163677 0.0633717 0.208616 0.132815 0.169657 0.0898623 -0.0409418 -0.0514908 0.0233922 0.0421022 0.041812 -0.00311487 -0.0360246 0.0264207 0.0255917 0.110608 0.164984 0.0982419 -0.092882 -0.190172 -0.260705 -0.135042 -0.138076 -0.201043 -0.0799351 -0.031558 0.0716156 0.111984 0.165078 0.128748 0.147862 0.0829457 0.0517113 0.104244 0.0402977 0.0353117 0.0519187 -0.02964 0.092358 -0.0328756 0.0156079 0.0976751 0.022512 0.132849 0.0145035 -0.124643 -0.0354214 -0.186154 -0.126315 -0.184448 -0.213852 -0.1059 -0.00828395 0.0167792 0.0343427 0.119581 0.0711688 0.0969258 0.178574 0.0398543 -0.0242768 0.030491 -0.0636991 -0.0449327 -0.0232229 0.0903847 0.0392335 -0.0174489 -0.0217776 -0.0132568 0.0455086 0.122989 -0.0155372 -0.113579 -0.217489 -0.237984 -0.102139 -0.116554 -0.0821079 -0.0879469 -0.0629694 0.0225548 0.0163517 0.0117418 -0.0217761 0.119773 -0.00959837 0.0196816 0.0801112 -0.0677772 0.03152 0.0905199 0.00633857 0.0227594 0.0465953 -0.017714 0.0310755 0.100033 0.170432 0.10546 0.0339579 -0.190822 -0.208017 -0.195093 -0.145677 -0.0916898 -0.0242671 0.0465149 -0.0658967 -0.0597725 -0.0976457 -0.0450347 -0.115377 -0.00453603 -0.0597748 -0.0961001 -0.0296656 -0.0623153 0.00986662 0.0275811 -0.0610109 -0.0351584 0.0263506 -0.0596381 -0.0185732 -0.00811275 0.12353 -0.0145786 -0.0193497 0.0434895 -0.0480514 -0.120401 0.0210285 0.0222185 -0.0918017 -0.0901638 -0.159073 -0.152249 -0.0938443 0.0267718 -0.0583999 -0.0920019 -0.0646134 -0.0740045 0.0165104 0.0744219 -0.0712273 0.066795 0.0202393 -0.0542729 0.0507033 0.00808572 0.0786005 0.0614722 -0.00503991 0.0646099 -0.00912926 -0.0241433 -0.0445879 0.0239117 0.0503586 -0.0578854 -0.126543 -0.171193 -0.0820575 -0.0756714 -0.136657 -0.0760437 -0.0549633 -0.0569526 -0.0397289 -0.0174828 0.015272 -0.0636533 -0.00159924 -0.0362343 0.0186013 0.0799665 -0.0239075 0.00853112 0.0354778 -0.0103296 -0.075086 -0.00245194 -0.0497707 0.0437543 0.0743212 -0.0337598 -0.0159027 0.0452432 0.0314652 0.00317901 -0.0161984 -0.0156059 0.0310681 0.110115 0.152695 -0.00228631 0.0274647 0.0627032 -0.0156328 0.00863994 0.031652 -0.0545493 -0.0248863 0.00209728 0.0799977 -0.0684339 0.0925113 0.0621942 0.053454 -0.00565858 0.0261651 0.010134 0.0872497 0.0723871 0.00899945 0.0247714 0.00866392 0.041395 0.0761465 0.126353 0.0454061 0.108961 0.0921276 0.0556608 -0.0807047 0.0254702 -0.0463015 0.0607636 -0.0561752 -0.0100453 -0.0203777 0.0834068 -0.035586 -0.00144723 0.0561656 0.0132179 -0.0152005 0.0251861 0.0100223 0.0762695 0.0155673 -0.0477109 0.0835873 -0.0476951 0.118429 0.0175242 -0.0147134 0.0160114 -0.0146175 0.0926064 0.0560175 -0.135446 -0.158281 -0.0243914 0.0459582 0.0775435 -0.0226627 -0.0243895 0.00407203 0.00453262 -0.0187693 0.0330887 -0.0182456 0.0531877 0.0654426 0.0524862 0.0343798 -0.0442577 -0.0972473 -0.0653163 -0.0485404 -0.0425056 -0.048498 -0.10751 -0.048611 -0.0112967 0.0108786 -0.10342 -0.0902786 -0.0779714 -0.009981 -0.0139591 0.0602573 0.0747334 0.0227918 -0.0184031 0.0656063 0.0925045 0.0629285 -0.0235434 0.0457707 -0.0623807 -0.0445612 0.0169621 -0.0673143 -0.050734 -0.0175519 -0.149226 -0.129402 -0.121925 -0.136209 -0.105704 -0.101981 -0.0381506 -0.124318 -0.138989 -0.0967359 -0.00701306 -0.0782802 -0.0214474 -0.0392404 -0.0709876 0.0333323 0.0359726 -0.0371368 -0.0532064 -0.0386047 0.0867989 0.0913689 0.0369256 0.0796749 0.00203511 0.0349663 0.0303181 -0.00360539 -0.0500701 0.00529389 0.091582 0.0728472 0.0356376 0.0805214 0.0684068 -0.0495316 0.0683637 0.0492256 0.0547437 0.0684109 -0.039604 0.059663 -0.043559 -0.0300118 0.0899899 0.0814932
0.00256725 0.0169098 0.059643 -0.0757317 0.0457031 0.0374249 0.0217626 -0.00608122 -0.00595673 0.0338115 0.0406332 0.00694578 -0.0616133 -0.0252738 -0.0486379 -0.0262586 0.0131209 0.0404758 0.0911137 -0.0332881 0.0903981 0.0891965 0.0664532 -0.0239745 0.0213687 -0.0290911 0.0747991 0.0349094 -0.0464883 0.0699274 0.0749481 0.0512863 -0.0441997 0.0306702 0.0743034 0.0333688 -0.0669638 -0.0703138 0.057711 0.0733204 -0.0150343 -0.00825412 0.048646 0.080029 0.0644985 -0.0586257 -0.0570521 0.0271977 0.00634387 -0.0352022 -0.0704726 0.0562574 -0.00418956 0.0371722 0.0651568 0.0093242 -0.0379806 0.0772018 -0.0237042 0.0187799 0.0460933 -0.0482225 0.0322507 0.0778698 0.0622607 -0.00867917 0.0925956 0.0461878 0.0104627 -0.0538274 0.0561513 0.0257347 -0.0574858 -0.0612535 -0.01104 0.00124775 -0.0639216 -0.034003 0.0324787 -0.0193397 0.0338219 0.0884049 -0.00217673 -0.00631652 -0.000556358 0.0445471 0.0267861 0.088997 -0.0623547 0.0157353 0.0855643 -0.0751782 -0.0686585 0.0540273 -0.0122786 0.0862519 0.0699531 0.0854938 0.0602153 0.0561922 -0.0170068 -0.0646932 0.0839583 0.0522589 -0.0409806 -0.0449293 0.0169236 -0.0183669 0.0432222 0.0739266 0.0166469 0.0851511 0.0122216 0.0616697 0.0883781 0.00144401 -0.0705465 -0.00234552 0.0633522 0.0618192 0.00167847 0.043061 -0.0535017 -0.0684205 -0.00531704 0.084189 -0.0477455 0.0223261 0.0220815 -0.0638177 0.0505801 0.0445434 -0.0124648 0.0609125 0.0484142 0.028493 0.0858527 -0.024616 -0.0291262 0.0724326 0.070309 0.0684524 -0.0193692 -0.0216161 0.0643346 0.0864532 0.0493063 -0.0234307 -0.0352602 0.0108757 -0.0396059 -0.0309994 -0.0148301 0.0867638 -0.0358562 0.0142138 0.0348964 -0.066727 -0.00240865 0.0454885 -0.0616352 -0.0133575 0.0258898 -0.0690615 0.00155184 0.0544692 -0.0528616 0.0495914 0.0834836 -0.012312 0.0567494 0.0514011 -0.037287 -0.00209191 0.0122439 0.036227 0.000374435 -0.0234202 0.0709 0.0527774 -0.0233681 0.0897147 -0.045108 0.0854169 0.06213 0.0411719 0.0585194 0.0794374 -0.0580138 -0.0469227 0.0321299 0.065183 0.0755249 0.00611177 -0.0573503 -0.022372 0.0145454 -0.033611 0.0728218 0.0389309 0.0823709 0.022328 -0.0135558 -0.0183895 0.0677329 0.0886465 0.0386207 0.0325918 7.93441e-05 -0.0430004 0.0483229 -0.060523 -0.0319111 -0.0355768 -0.046427 0.0553497 0.0684526 0.00471662 0.0616979 0.0694546 0.048442 0.0222358 0.0273949 0.0257462 -0.0710333 0.0345951 -0.0508605 0.0147592 0.0134889 0.0296847 -0.0058343 0.0689431 -0.00776056 -0.068531 -0.00281219 0.0250497 0.0214371 0.0457175 0.0725485 0.0197861 -0.06604 -0.0653038 0.0457722 0.075467 -0.0671732 -0.067698 0.0634454 -0.0161853 -0.0443036 0.0747771 0.0399105 0.0526055 -0.00229274 -0.0108933 0.0660678 0.0510751 0.0226973 -0.061795 -0.0755168 0.0573112 0.0548107 -0.0220101 -0.0294076 0.026675 0.0282014 -0.000542501 -0.0506851 -0.0369134 -0.0510304 0.0290191 0.0330453 0.0820534 -0.0134035 -0.0593131 0.0728156 -0.0350868 -0.0762698 0.0493313 0.0444985 0.0279468 -0.0145071 -0.0693344 0.0777263 -0.0525199 -0.0471769 0.0174095 -0.0385371 -0.0244426 0.0203471 -0.0620292 0.0816769 0.0138961 -0.0523289 -0.0180255 -0.0599031 0.0417481 -0.0361615 0.040479 -0.0755047 -0.0207418 0.0535348 -0.0456344 -0.0245657 0.0530249 0.0672855 0.0509267 0.0804013 -0.0756247 0.0663399 0.0342767 -0.00153921 -0.0149253 -0.00494305 -0.0263344 -0.0290817 0.0639201 -0.00358257 0.0400319 -0.0594702 -0.0171629 0.0230539 -0.0275119 -0.0204487 0.0516275 0.0261903 0.00244729 -0.017863 -0.0375976 -0.00542591 -0.00449321 -0.0299683 0.00644719 0.0470514 0.0759388 -0.0525444 0.04291 0.0656397 0.0794314 0.0621109 0.0420086 -0.0457783 0.0118223 -0.0605454 -0.0658265 0.0772562 -0.0102276 0.0171961 -0.0531681 -0.0093703 -0.0551347 0.0639837 0.080624 0.0382097 0.0521069 0.0229208 -0.0559716 -0.00894575 0.0149659 -0.0757592 -0.0513336 0.0673739 -0.029668 -0.00833465 0.067448 0.0098836 -0.0166943 0.0270983 0.0769894 0.0157915 0.0322232 0.0390439 0.0346701 -0.0443489 0.0161489 -0.0470543 0.0815327 -0.00747987 0.0577889 -0.0473337 0.000445025 0.0657753 -0.0435538 0.0206449 0.0765526 0.0582065 0.0565774 0.0866155 0.0601391 0.00420017 0.0166219 0.00354074 -0.040224 0.0109555 0.0139807 0.0158184 -0.073618 -0.0709189 0.0537267 0.00583468 -0.0617006 -0.0439243 -0.0193863 0.0367623 0.0458 -0.0574948 -0.0124999 -0.00219247 0.0759925 -0.00846417 0.0413295 0.0810504 0.00969485 0.0838066 0.029786 -0.0118759 -0.0566091 -0.044298 -0.035914 0.0501652 -0.0299747 0.0359424 -0.0588668 0.0542639 -0.063802 -0.00731721 -0.0419544 0.05733 -0.0695215 -0.0423566 0.0633695 0.0179986 -0.075622 -0.0609422 -0.0744086 -0.0423449 -0.00160374 0.0900352 -0.0611874 0.0816905 -0.0396732 -0.00854268 0.02505 0.0254641 0.0152376 -0.0197021 0.0871239 0.0618314 -0.0765049 0.0848237 0.0482873 0.0540504 -0.0683604 -0.0225176 0.0484553 -0.0136046 0.0585336 0.0038615 0.0361 0.0359476 0.0132349 0.0768722 0.0226639 0.00686736 -0.0650707 -0.0443081 0.064192 0.0125645 0.055223 -0.0478738 -0.0487658 0.0690243 -0.0494833 0.079085 -0.0667554 0.0250741 -0.0713737 0.0666487 -0.0241007 0.0276328 0.0206538 0.0226642 -0.00536513 0.0402062 0.0492294 0.00258818 0.070342 -0.0134313 -0.00963769 -0.040989 0.0600294 -0.055456 0.0211345 -0.0393992 0.00276964 -0.0346264 0.0695908 0.0795708 0.0730003 0.0672409 -0.0597452 0.0401845 0.06356 0.078504 -0.00359147 -0.00182712 0.0108954 0.039659 0.0870545 0.0144151 0.0477756 0.0332148 0.0224053 -0.0470939 -0.0611038 0.0818356 0.0170575 -0.0794629 0.00767367 -0.006162 0.0751477 -0.0451134 0.0577236 -0.0524301 -0.0415341 0.00209375 -0.0458888 0.0105729 0.0744894 -0.00402625 -0.0468916 0.0122886 0.0875015 -0.0388542 0.0751816 -0.0326555 -0.0328116 -0.0606625 -0.0770627 0.0736224 0.00465883 0.0455239 0.0467714 -0.0602743 -0.0353524 0.0751791 0.0338048 -0.042573 -0.0302364 -0.0343985 -0.0271685 0.0783666 -0.0206401 -0.0354513 0.0652531 -0.0674134 -0.0331521 0.048085 0.0473949 -0.0286042 -0.0748951 0.0687327 -0.0729822 0.0320506 0.0521534 0.0127246 -0.0670783 -0.073564 -0.0151866 0.0682141 -0.0689936 0.0774133 0.037067 0.0708351 0.0748419 -0.0130421 -0.0731914 -0.0338225 0.0859623 -0.0678688 0.0355792 0.065032 -0.0771384 -0.0301071 0.0859973 -0.0739652 0.000205516 -0.0125603 0.00191377 0.0128576 0.0691666 -0.0375844 0.0768325 0.00328211 0.0652091 0.0177135 0.085004 0.0560914 0.0577475 -0.036233 0.071853 0.0289072 -0.0170622 -0.0788794 -0.0453005 -0.0753999 -0.0771405 -0.000970608 0.0854693 -0.0721501 0.0497868 -0.00362359 -0.0706554 -0.0619062 -0.0158269 0.011526 -0.0497003 -0.0571913 0.0368728 0.0623649 -0.0346605 -0.00725848 0.0408942 0.0623137 -0.0205228 -0.069137 -0.0444899 0.0157127 0.0718413 0.0340026 0.0168491 -0.0290342 0.0370217 -0.0554188 0.020642 -0.0547732 0.0812459 -0.0630367 0.0655812 -0.0629221 0.0827341 0.0260919 0.087458 0.0013684 0.0274989 0.00159503 -0.0302352 0.0707803 0.0834168 0.00450693 0.00744262 0.0815067 0.017666 -0.0631333 -0.0167958 -0.032225 -0.0311445 -0.00278562 -0.0721956 -0.0226656 -0.00568205 -0.0483129 -0.00726102 -0.0328062 0.0884158 -0.0728615 0.0266821 0.0833266 -0.0699576 0.0182404 0.0799532 0.0777926 -0.0595387 -0.0362767 0.0439009 -0.058157 -0.030373 -0.0179203 -0.0282813 0.0548873 0.0865213 0.0844982 0.0297962 -0.0650601 0.0130497 0.0481432 -0.0529818 -0.0494268 0.034359 0.0466697 0.0775879 -0.075822 -0.0237471 0.0847148 -0.0606067 -0.0135806 0.0786103 -0.0463302 0.019382 -0.028326 0.0678285 -0.060876 0.0769737 -0.040822 -0.0539386 0.0463054 -0.048756 0.046288 0.00354971 -0.00738488 0.0705881 -0.0238387 0.0711976 -0.0537038 -0.0134059 0.00329928 0.00823045 0.0523023 0.0217153 0.00927701 0.0427361 0.0588791 -0.0559872 0.0155106 -0.0173542 -0.0185407 -0.0228134 0.0250918 -0.0397035 0.0342491 -0.00637909 -0.0505356 -0.0243068 0.043362 -0.0606227 -0.042338 0.00429864 -0.00399471 0.0776057 -0.01532 0.0686932 -0.0628948 0.00107976 0.0499288 -0.00761313 -0.0590036 -7.21919e-05 -0.071981 -0.0514693 0.0284897 -0.00449189 0.00622009 0.0181959 0.0677657 0.088063 -0.0642237 0.0649251 0.0113566 0.0881271 0.0291043 0.0406487 -0.0450978 -0.0263538 0.0391615 -0.0769236 0.00546321 0.0676714 -0.0710644 0.00857383 0.0849282 -0.018691 0.0354217 0.00754326 0.0384355 0.0465115 -0.0530945 0.0492237 0.0427226 -0.0158082 0.0700183 -0.0162879 0.0617363 0.0924854 0.0317505 -0.071509
-0.012235 0.0410094 0.0240412 0.00278886 0.0108991 -0.0792521 0.0137571 -0.0338195 0.0702075 0.0179897 -0.0904087 0.0664682 0.0541727 -0.0838218 -0.0726124 0.0562976 -0.0295721 -0.0246163 -0.0221441 0.00355948 0.0593589 -0.0531918 0.0749137 -0.0514002 -0.0520836 0.0697655 0.000821116 0.0484026 -0.0190972 -0.0207531 0.0237664 0.036967 -0.0829979 0.0431062 -0.0147081 0.0265431 -0.0899751 -0.0847851 -0.0901003 -0.0544201 -0.06555 -0.0575759 -0.00187921 0.0713892 0.071035 0.066916 0.0566952 -0.0508244 0.0209739 -0.0231782 0.0119524 -0.0192486 -0.0590432 0.0474151 0.0479269 0.0731134 0.017328 0.0763746 -0.0641167 0.0723041 -0.0424506 0.033982 -0.0468549 -0.00980935 -0.0213305 0.0406563 0.0241304 -0.00475243 0.0538518 -0.0811049 -0.104903 0.034827 0.0345941 -0.00970117 -0.00208161 -0.0241678 -0.0719547 0.0264495 -0.0404568 -0.0730732 -0.062245 -0.0596043 0.0112008 0.00761753 0.0502328 0.0612868 -0.0298344 -0.0585842 -0.0867499 -0.0144679 0.0642733 -0.0771116 0.0576932 -0.0741304 0.0488086 -0.0324907 0.12433 0.0938024 0.0341256 0.119399 0.119234 0.118404 0.0824341 -0.0366028 0.0755602 0.030976 0.0227394 -0.103231 -0.0430857 -0.0373692 -0.0319346 0.0306348 -0.0507288 0.0370138 0.0684975 -0.0468131 -0.0483163 0.0446811 0.0812376 0.102398 0.0502952 0.0795727 0.143638 0.163468 0.0687909 0.0936051 -0.0545552 0.141619 0.0420432 0.150006 0.225075 0.099859 -0.000424482 0.101207 0.109712 -0.0256435 -0.0459038 0.0116807 -0.00331179 -0.0216408 0.0209548 0.0211334 0.0302657 -0.0765163 0.0679167 0.053617 0.108938 0.118737 0.103638 0.107321 0.0678094 0.0568033 -0.0657523 -0.0105106 -0.0377565 -0.0641884 -0.00613859 -0.0419414 0.0789047 0.0592229 0.0847416 0.061068 0.0168547 0.0771898 0.100231 0.0203519 0.00942296 0.053329 0.0305299 0.0372414 0.0443631 -0.0626102 -0.00398934 0.120021 0.0798171 0.139726 0.149158 0.196359 0.235546 0.189968 0.0204852 0.199471 0.0535915 -0.00377883 0.126509 -0.0100093 0.0482754 0.0724394 0.0850927 0.0857368 0.0740894 0.072194 0.0986726 0.0493671 0.00805266 0.0553812 -0.0233265 0.0121734 0.00390053 -0.00947857 0.154969 0.153878 0.242882 0.120814 0.153832 0.201332 0.0814668 0.167249 0.171348 0.115349 0.115706 0.00769062 0.190953 0.217606 0.186019 0.159329 0.109703 0.0886389 0.0960433 -0.00983093 0.0769296 0.109425 0.0193567 -0.071083 -0.0529034 -0.00871824 0.0544009 -0.0209227 0.183428 0.145088 0.0730941 0.0851096 0.192041 0.11321 0.109169 0.156897 0.0891168 0.143767 0.282292 0.227216 0.193751 0.0965797 0.17025 0.0742143 0.0726928 -0.0319927 0.0870916 0.0381783 0.049488 0.106012 0.0577045 -0.0466346 -0.0929413 0.0399248 -0.0168238 0.0386502 0.0667128 0.062427 -0.0406211 -0.0804798 0.0441175 0.00327672 -0.049232 -0.106469 0.0239207 -0.084876 0.054266 0.0452615 0.0527357 -0.0265713 -0.0767644 -0.12727 -0.121796 -0.051603 0.0131432 -0.0111066 -0.0121728 0.0682857 -0.00814427 -0.0516128 -0.0739014 0.00021894 0.0710064 0.0772532 0.14495 -0.0120207 0.041353 -0.0691641 -0.178525 -0.110441 -0.165831 -0.326337 -0.214218 -0.166981 -0.211603 -0.0948612 -0.054072 0.0202323 -0.240834 -0.301005 -0.112514 -0.0675777 -0.191968 -0.151901 -0.00217151 -0.06261 0.0545971 0.0433402 -0.0161764 -0.0400204 0.105226 0.104818 0.0645376 0.00613452 -0.183456 -0.224819 -0.149247 -0.154166 -0.169096 -0.118048 -0.124528 -0.102706 -0.330216 -0.223413 0.0387802 0.0225377 0.0132972 -0.118093 -0.275066 -0.166341 -0.240146 -0.234731 -0.0907489 0.00456296 -0.0135898 -0.0196615 -0.0146715 0.0825321 0.100164 0.0134139 -0.0234468 0.0173487 -0.0742642 -0.106055 -0.122463 -0.0871664 -0.0291671 -0.104772 -0.118886 -0.238626 -0.176214 -0.0671631 -0.0706561 0.0696549 0.207265 -0.0377165 -0.0277594 -0.186689 -0.256636 -0.282273 -0.111041 -0.00351535 0.0489348 0.0370359 -0.0885019 0.0592103 0.0369575 0.0160563 -0.0119576 0.0219132 -0.19959 -0.0606267 -0.158499 -0.0687291 -0.081364 -0.163852 -0.0970097 -0.0605411 -0.115485 -0.156973 -0.0806038 0.0631064 0.12073 -0.0178287 -0.0206513 0.00493104 -0.0929965 -0.240141 -0.0695159 -0.0698114 0.010109 0.0089399 0.0618947 0.00148797 -0.00136778 -0.0165773 0.0799184 -0.0244322 -0.100244 -0.223674 -0.133271 -0.0675183 -0.127523 -0.139931 -0.0550057 -0.0767032 -0.0729736 -0.135703 -0.104643 -0.0605172 0.0559154 0.0453814 0.120752 0.100671 0.0866909 0.0388376 -0.140576 -0.0364727 -0.0600825 0.0584073 0.0375783 0.0650467 -0.0585235 -0.0466174 0.0596086 -0.0725199 -0.206809 -0.289332 -0.116738 -0.079712 -0.0500512 -0.009508 0.0634872 0.0433205 -0.0677137 0.0196722 -0.108705 0.0193889 0.155366 0.0328157 0.0605037 0.0784215 0.167613 0.0411472 -0.0838831 0.0551162 0.0682595 -0.0227173 -0.0481731 0.0554447 -0.0462628 0.05453 -0.0537013 -0.209126 -0.280145 -0.421091 -0.264116 -0.0729262 0.0385924 0.00445077 0.137793 0.067607 0.0297707 -0.0592572 -0.118632 -0.0208631 0.114152 0.159414 0.0752271 0.166453 0.151728 0.160008 -0.0563728 -0.0129344 0.0424411 0.0683802 0.0737175 0.0109706 -0.0513507 0.0172156 -0.0138867 -0.103535 -0.235056 -0.346475 -0.410729 -0.239563 -0.1432 -0.209661 -0.121377 -0.0206002 -0.217192 -0.113156 -0.187114 0.104646 0.0865148 0.120046 -0.0722494 0.0991047 0.0141728 0.0626174 -0.0840507 -0.0563358 -0.0348224 0.0449257 -0.0630941 0.0454724 -0.0646462 0.0196997 -0.00534259 -0.0147237 -0.208391 -0.185147 -0.204548 -0.359895 -0.347772 -0.393775 -0.282754 -0.237028 -0.188977 -0.0472968 -0.0433053 0.0776684 0.0393863 -0.0483026 0.0239537 0.0897292 0.0645627 0.0202468 -0.0649378 0.0407776 0.0599625 -0.0475664 0.0590443 -0.0449971 0.0374187 0.0953445 0.109065 0.0965751 0.0106926 -0.0862316 -0.07577 -0.198306 -0.211681 -0.223658 -0.221439 -0.142265 -0.13075 -0.0543997 0.0389675 0.0934309 0.00697598 0.0575982 -0.0173623 0.0190232 -0.0161112 -0.086815 0.0380777 0.012784 -0.0340249 0.0424984 0.0489686 -0.0165161 0.0502226 -0.00939449 0.130496 0.0622274 -0.0296202 -0.102423 0.0994473 -0.0166812 0.0371085 0.102247 0.0510119 0.0439039 0.060491 0.0661735 0.0835361 0.0161046 0.151732 0.0104438 0.103164 0.00233488 0.0092975 0.0130075 -0.040979 -0.0946278 0.0705836 -0.0569535 -0.0263109 0.035557 -0.000956202 0.0810142 0.122608 0.0304309 0.00179052 0.0868952 0.0966557 0.0954263 0.0985011 0.0485873 0.0903032 0.0589036 0.168041 0.108076 0.156912 -0.0103328 0.152659 0.00909796 0.0794926 0.00978277 0.0312289 -0.0842506 -0.0813039 0.0279218 -0.0493062 -0.0643203 -0.0694412 -0.0818579 -0.0374362 -0.0484809 -0.00769317 0.0380036 0.036186 -0.0359493 0.105756 -0.0362459 0.0254822 0.0611317 0.0765105 0.0437377 0.0926118 0.0939074 -0.0139843 0.0444784 -0.0179888 0.00326258 0.0630336 -0.0416492 -0.0592069 0.0344689 -0.0569665 -0.0010974 -0.0716008 0.0501135 0.00211693 -0.0306245 -0.00346981 -0.0727536 0.115445 0.166924 0.119973 0.153244 -0.0424793 -0.046263 0.168288 0.0399216 0.021677 0.000194751 0.0908032 0.0685606 -0.028744 -0.0690267 -0.0804941 -0.0170052 -0.17273 -0.0861711 -0.0770398 0.0291341 -0.0222601 -0.0688227 -0.0829949 0.0261995 -0.00809756 -0.0603007 -0.0921062 0.0206966 0.0746812 0.0835573 0.0915476 0.238439 0.192203 0.140299 0.108447 0.0418519 -0.00133453 0.148498 0.187684 0.0526094 -0.0234519 -0.0171659 -0.139081 -0.0560906 -0.0873893 -0.0623975 -0.0341124 -0.0304522 0.00519487 0.0641348 -0.0312779 0.0417319 -0.0276162 0.0173724 -0.0457462 0.0021719 -0.0294249 0.0773179 0.144701 0.175878 0.157918 0.160355 0.203163 0.177856 0.24954 0.133983 0.143593 0.170187 0.0884587 -0.0315499 -0.00630045 -0.0116474 0.0169226 -0.0398329 -0.0400475 0.0729667 0.0382046 0.0433484 -0.0683545 0.0484486 -0.058345 0.0663827 -0.0216439 0.00421894 0.0096971 -0.0169387 0.0485182 0.0422593 0.0284978 0.0224681 -0.0255758 0.0473363 0.0555597 0.00341957 0.0828826 0.122379 0.048037 0.00296836 0.0926294 0.103196 0.0199014 -0.00904511 -0.0765532 0.0383347 -0.0422485 6.46458e-05 -0.0905782 -0.0551532 -0.00948287 0.039901 -0.044627 0.00324529 0.059462 0.0138186 -0.00265298 0.0212088 0.028218 -0.0458141 0.0109024 -0.0177933 0.0764532 0.0311707 -0.0354117 0.0315384 -0.0124414 0.0277869 -0.0554147 0.0628015 -0.0395612 0.0395726 -0.0411312 -0.0338427 -0.0447771 -0.0458816 -0.00789093 0.0528264
0.0740336 -0.0213257 0.0534079 0.0952731 0.00262974 -0.0191629 -0.0695877 0.0179585 -0.002598 0.0708694 -0.0175693 -0.060194 -0.00464714 0.0267337 0.0435964 0.0442667 0.0748245 0.0762368 0.0891514 0.0554232 0.081113 -0.0631255 -0.017921 0.0675899 0.0168961 0.0508875 -0.0196298 0.0041415 0.0860108 0.0542836 -0.0469457 0.0935225 -0.000442254 -0.0384334 0.087913 -0.0541666 0.0299972 0.00355746 -0.017791 0.0276378 -0.0336656 -0.00196912 -9.04144e-05 0.101543 0.0810006 -0.0389231 0.0348334 0.0848791 0.0630354 -0.0424033 0.0228229 -0.0322509 0.0650878 0.00892393 -0.045052 -0.047443 0.0403094 0.0104164 -0.0239799 0.0787205 -0.0268764 -0.0157624 0.0764278 -0.051968 0.0435692 -0.0114653 0.0196062 0.10633 0.0363475 0.0216943 0.041999 0.0271731 0.101109 0.0476822 0.00127394 0.00712255 -0.0304611 0.0845297 0.0830081 0.094009 -0.000704714 0.0677834 0.055071 -0.0517012 -0.0133646 0.0577067 -0.038748 -0.0599378 -0.0667698 -0.00746169 0.0920848 0.00701995 0.00168027 0.0594819 0.0184912 -0.0624174 -0.0474415 -0.101863 -0.0275802 -0.00612847 -0.00508692 0.136802 0.0433891 0.102168 0.0588639 0.0538323 0.118976 0.0379412 0.0102549 0.0683614 0.050368 0.078796 0.0202241 -0.0245385 0.0882383 0.0326443 -0.0486495 -0.0764669 -0.109705 -0.084941 -0.163682 -0.189229 -0.197977 -0.0814793 -0.163985 -0.0807951 -0.00235775 -0.0331711 0.0943201 0.0090234 0.180644 0.10079 0.165683 0.148286 0.139345 0.139925 0.0366065 0.0699948 0.038905 -0.0419753 0.0533655 -0.00893805 0.0271888 -0.0475892 -0.0811348 -0.03393 -0.138908 -0.106912 -0.0891466 -0.0369805 -0.0649192 -0.171336 -0.16501 -0.15103 -0.0334584 0.0682873 -0.046048 0.052529 0.0595306 0.02003 0.132554 0.113905 0.235328 0.221741 0.0232733 0.037251 0.0124348 -0.0110647 0.0131482 0.0940913 -0.0216118 0.0138322 -0.035216 -0.0935171 -0.165501 -0.0452387 -0.115244 0.0198928 0.0070968 -0.0180665 -0.0449008 -0.01379 -0.0676318 -0.038796 0.0706366 -0.0276619 0.126191 0.167947 0.111663 0.107745 0.0452882 0.11339 0.000166934 0.0231911 0.104847 0.068544 -0.0503236 -0.0636206 0.071479 -0.0432304 -0.0204205 -0.0699334 -0.0548188 0.021619 0.0440349 0.0335823 0.0501815 -0.0296986 0.0912336 0.0620379 0.0389018 0.066734 0.0875838 0.192665 0.164104 0.188754 0.165883 0.0505076 0.0563332 0.0717158 0.051632 0.117402 0.0560244 0.0611138 0.0247374 0.0142488 -0.0695266 0.0528051 -0.129952 -0.0113731 -0.123774 -0.0664966 -0.0701927 0.00206322 -0.0314365 -0.0495185 -0.00377646 -0.0249634 0.0487132 -0.0875742 -0.00346041 0.0652117 0.0159009 0.0616283 0.0557401 0.0660866 -0.00941632 -0.00149826 0.189033 0.102351 -0.0143711 -0.021218 0.0543495 0.0505426 0.0387205 -0.0338589 0.0121117 -0.121751 -0.0507521 0.0579716 -0.0241014 -0.0620701 -0.0666729 0.0559288 0.118348 -0.0413696 -0.0425083 -0.0145424 -0.177072 -0.17863 -0.248055 -0.29722 -0.223736 -0.125306 -0.122953 -0.0126122 0.0465194 0.077735 -0.0389398 0.0797207 0.0778994 0.000522859 -0.0468155 -0.0151265 0.0231988 -0.0547968 0.0277514 0.0375941 0.114721 0.0649958 0.131938 -0.0409782 0.0810064 0.0103023 -0.0248982 0.0688895 -0.0829675 -0.321943 -0.367913 -0.562068 -0.550152 -0.335012 -0.319454 -0.228808 -0.106692 0.0825938 0.0925044 0.0780471 0.0801079 0.0127657 0.078001 0.0641624 0.00870168 0.0220993 0.0271294 0.140885 0.179338 0.114767 -0.02211 -0.0383996 -0.061533 0.119693 0.111754 0.178756 0.0357902 -0.134261 -0.187457 -0.323965 -0.445298 -0.35332 -0.433844 -0.318592 -0.238075 -0.00546184 0.0524095 0.055363 -0.0165625 0.027578 -0.0240489 -0.0479816 0.100033 -0.00597953 0.0184651 0.212604 0.084073 0.0273484 -0.040291 0.0478841 -0.0124671 0.0714925 0.0243462 0.164502 0.0710117 0.0337925 -0.0969381 -0.0635698 -0.0897139 -0.253083 -0.366352 -0.349563 -0.24857 -0.0826952 -0.0117549 0.0705069 0.0187279 -0.0326037 -0.0290957 0.0755348 -0.00529467 0.00134939 0.00379918 0.164562 0.132934 0.0199654 0.12536 0.0117346 -0.0243429 -0.0621034 0.129951 0.179761 0.127459 0.0268772 -0.0396959 0.0227254 0.199928 -0.016598 -0.0900557 -0.189754 -0.181465 -0.0477255 -0.0123861 -0.023603 -0.0369932 0.0296171 -0.0112536 -0.06455 -0.018096 0.0391399 -0.0609335 -0.0253515 0.0252737 0.0712746 0.0679479 -0.00542904 -0.0086938 -0.0478577 0.0365444 0.0740083 0.0307103 -0.0770461 0.0143087 0.115194 0.233916 0.0666461 0.0666064 -0.163833 -0.125584 0.010139 0.00643936 0.0357463 0.0105849 0.0805798 0.099696 0.0649092 -0.0453071 -0.104337 -0.0119518 -0.00216229 -0.0301818 0.161041 0.0712935 0.121133 0.0240499 -0.00823854 0.00450129 0.0345829 0.036499 0.0553534 0.00843462 -0.0165423 0.0776079 0.011888 -0.0436006 -0.0991034 -0.0607965 -0.036833 0.0174815 0.0189474 0.0604554 0.0230025 0.061319 -0.0193538 -0.0816339 -0.160708 -0.156062 -0.125957 0.066696 0.0462897 -0.0064084 0.0886003 -0.0586516 0.0512219 0.0964295 0.114542 0.00750397 -0.16569 0.004506 -0.057756 -0.0453594 -0.129357 -0.0172739 -0.0608952 -0.116527 -0.0369084 -0.0132386 -0.0381072 -0.0156331 0.0738426 -0.0204943 -0.049512 0.0159128 -0.0544984 -0.117515 -0.0713086 -0.128233 -0.00616537 0.00807528 0.0532889 0.0358688 0.0403334 0.0786053 0.115719 -0.0565489 -0.0238084 -0.029827 0.0538001 0.116169 -0.0715747 -0.115644 -0.124033 -0.00553062 -0.124892 -0.0151496 0.0451973 0.0257999 -0.0627404 -0.0453791 -0.0044456 -0.055023 -0.0766549 0.0082715 -0.138311 -0.172106 0.0271773 -0.0925313 -0.0737946 -0.00341937 0.225492 0.0829674 -0.0588886 -0.0573552 -0.0251884 0.00469296 0.0753876 0.029174 0.0606904 -0.152044 -0.161127 -0.124871 -0.0360121 -0.00883539 0.0693921 0.0307414 0.0852848 0.00228709 -0.0575694 -0.0785703 -0.0461194 -0.0793146 -0.0565277 -0.0421626 -0.0594857 -0.129402 -0.0832471 0.0960092 0.0561039 0.0249307 -0.0189345 -0.0462292 0.0207139 -0.0179048 -0.0449504 -0.0221353 0.0802985 -0.125432 0.00286046 -0.0580274 -0.0686931 0.0812892 -0.0546778 0.0369971 0.0937078 0.014077 0.0486402 -0.0957053 -0.108228 -0.0842159 -0.145212 0.0255701 -0.0529304 -0.0298224 -0.0708753 -0.0213968 0.000477183 -0.014051 0.071624 0.10806 0.0935721 -0.00366556 -0.00901798 0.0333955 0.0273969 0.0207652 0.0511574 0.0675255 -0.0917432 0.0624093 -0.0379512 -0.0424915 -0.0504096 -0.0365279 0.0046776 -0.0825474 0.0088721 -0.0638874 -0.092007 0.110803 -0.0210062 0.0703339 0.00845516 0.0468152 -0.0638409 0.000316745 0.0477812 0.0598312 0.126283 0.0293948 -0.115963 0.116337 0.0306059 0.07021 0.0839674 0.0418094 -0.0435261 0.0712356 0.0802023 0.0341262 -0.0609856 0.000293546 0.0337099 -0.0232493 -0.0510607 -0.111037 -0.0377008 -0.128489 -1.88519e-05 -0.0767714 -0.0218992 -0.0841253 -0.0469961 0.0771547 0.137868 0.0622497 0.0723291 0.0832201 -0.0568301 0.0399617 -0.00567472 0.112797 0.051561 0.0357886 -0.0476472 0.0783731 -0.00290757 0.0493712 0.061096 0.0316113 -0.0297168 0.0525662 -0.0142737 -0.0505834 0.0084172 -0.00558761 0.0154084 -0.0929927 -0.120366 -0.0177793 -0.0251196 -0.0283542 -0.0186119 0.131853 0.0935903 -0.0924373 -0.0253623 0.043563 0.000363441 -0.0237577 -0.0622297 -0.02981 0.0154051 -0.0124583 0.0938951 -0.0256891 0.052446 0.0127936 -0.0880548 0.0519825 -0.0144034 0.0888232 0.0583193 -0.0408951 -0.0941345 -0.080976 -0.12858 -0.0722817 -0.140131 0.0134839 -0.0496593 -0.0417749 0.00825048 0.0493524 0.059285 -0.0153921 0.0633253 0.0114095 0.0924596 0.0473879 -0.0517474 -0.0373994 0.0239652 -0.0198928 0.0797961 -0.0394384 -0.0367424 -0.0649958 -0.0607781 0.0291243 0.0916559 0.0143665 0.0369187 -0.00123623 -0.0523192 0.00811139 -0.0520092 -0.0180687 0.0361638 -0.0139014 0.11014 -0.0202882 0.0404694 -0.022451 -0.00186488 -0.0259881 0.0762858 0.0197711 -0.0297682 0.00521851 0.0349847 0.0416101 0.0222998 0.0723349 0.0832159 -0.0591031 -0.0591471 0.0748282 0.0529231 0.0634687 0.102322 0.0403819 0.0577339 0.0547515 0.045206 0.0167848 0.100259 0.0121379 0.0350347 -0.00893048 0.0344586 0.0918169 0.0938255 0.07875 0.0671485 0.00956358 0.0198842 0.0714715 0.0313853 0.00905193 0.0671822 -0.0657305 0.0918128 -0.0312086 0.00748455 0.0872422 0.026356 0.0479714 0.0471082 -0.0581082 -0.0445198 0.00204456 -0.0557708 -0.0625351 0.0279887 0.0197631 0.08963 0.0830177 0.0126826 -0.0442103 0.0833964 0.0787807 0.0815367 -0.00471729 0.0699039 0.0322867 -0.0273216
-0.00117546 0.0459899 -0.0379451 -0.0485649 0.0787434 0.0303292 -0.055554 -0.0239504 0.0453087 0.00550739 0.00525409 -0.00683129 -0.0325541 -0.0361366 0.00953173 -0.0422906 0.011634 0.0369608 0.00534089 0.0149636 -0.0558748 0.0265677 -0.0549919 0.035903 -0.0589663 0.0560938 -0.0770381 0.00679022 0.0448062 -0.0640349 0.0356995 -0.0175584 -0.0558275 0.0624519 -0.0596935 -0.0794779 0.014377 0.056221 -0.000436932 -0.050435 -0.00713806 -0.00388529 0.0219223 0.0222742 -0.0242997 0.0522045 0.000318949 -0.011982 0.0161612 0.00832189 0.041193 -0.00552554 0.0909836 0.0577108 0.0540804 0.0479831 0.0848592 -0.0326414 -0.0662289 0.0279776 -0.0163695 0.0719456 0.0459117 0.0187651 0.00862183 -0.0643975 -0.0641243 0.0455055 0.0506446 0.0591333 0.0505537 0.0460422 0.0437903 -0.0319116 -0.0360228 -0.00431915 0.00136674 0.0384541 0.0791282 -0.0329828 0.0758504 0.0029326 0.0889828 0.083489 -0.0262603 0.0223847 -0.0614568 -0.00305791 0.00829266 0.062385 0.0469682 -0.0316154 0.0275174 -0.0204355 0.0149271 -0.0718801 -0.0512281 -0.115358 -0.10806 -0.0567442 -0.00778262 0.0212755 -0.00384932 0.00337975 -0.0172646 -0.013192 0.0281943 -0.0347331 0.0609285 0.0673713 -0.00259799 -0.0440444 -0.0366872 0.0229056 -0.0463982 -0.0632084 0.0196364 0.105093 -0.0208774 0.0486848 -0.0405496 0.0172428 -0.0224333 0.0401112 0.0264717 0.0305226 -0.074032 0.0270042 -0.109832 -0.0216044 0.0449695 -0.0183615 -0.0468396 0.0205634 0.0494205 -0.0241699 -0.0493434 0.0564513 -0.0033233 0.0193493 0.036129 -0.0159741 0.0229259 0.0848423 -0.0336087 0.0430948 0.028705 -0.0024257 -0.0594471 -0.0795307 0.00351346 0.0420279 0.0790057 0.101187 0.0314783 0.00479845 -0.0675835 -0.00769252 -0.0406767 0.0750912 0.09595 -0.0079389 0.060224 -0.0211716 0.0670155 -0.00333384 0.0112971 0.0815382 0.0288408 -0.0721741 0.0179977 0.0219584 0.0546272 0.0572025 -0.0832417 -0.0290093 -0.104417 -0.111317 -0.0179216 -0.000385437 0.151528 0.0942057 0.0130479 -0.0608855 -0.0928704 0.0117461 -0.0786509 0.0541194 0.0645131 -0.0516026 0.0150856 0.0265221 0.0894908 0.114319 0.0967772 0.0293135 -0.0126931 -0.0314651 0.069283 0.0166629 0.00412861 -0.0784814 0.00925573 -0.130772 -0.0131908 -0.0652442 0.0181004 0.0224654 0.0749706 -0.0254144 0.0713558 -0.0138845 -0.0802885 -0.0673194 0.0171319 -0.0190031 0.0157252 0.0552973 0.0652186 0.073205 0.163493 -0.00174572 0.00173074 0.050667 0.0370433 0.0823323 -0.0365183 -0.0661842 0.0768325 0.0491006 0.0467023 0.022512 -0.0660867 0.00248128 -0.0173443 -0.00435116 0.060412 0.0229235 -0.050494 -0.16144 -0.00380309 0.0292979 -0.0595927 -0.0426264 -0.0065519 -0.0121521 -0.0296802 0.0550372 0.0692056 0.0665101 0.0602368 0.00239322 -0.0485839 0.024421 0.0185118 -0.0409925 -0.0512428 -0.123568 -0.0370194 0.00918439 -0.0367228 0.0278516 -0.0448882 0.0914555 0.015601 0.0978858 -0.211316 -0.357333 -0.293198 -0.13174 -0.129994 -0.0249423 -0.0117254 -0.0628541 0.039581 0.114801 0.0942818 0.0084872 0.00613136 -0.0739717 -0.0231683 -0.0675422 -0.113924 -0.00969459 -0.0244143 0.0531119 0.0566644 0.0624426 0.0934181 0.00697379 -0.0906676 0.0488577 0.143963 0.0247968 -0.237261 -0.385125 -0.27479 -0.286402 -0.234168 -0.111599 -0.0263079 -0.0270154 0.00131571 0.10941 0.0218753 -0.00675766 -0.0240761 0.088396 -0.0408789 0.0848775 0.0200899 -0.112033 0.115093 0.0701772 0.00981931 0.058986 0.0931458 -0.0478433 0.0517939 0.0859652 0.303466 0.307796 0.128429 -0.165061 -0.199604 -0.197965 -0.171874 -0.144804 -0.121888 -0.027957 0.0380619 0.0185146 0.0633313 0.0248435 -0.0384456 0.0487552 0.0264647 0.0414146 -0.0772357 -0.036618 -0.0111404 0.0837105 0.133344 0.096857 0.0674332 0.217149 0.123253 0.259186 0.394655 0.390894 0.266043 0.0837707 0.140878 -0.00225189 0.00112466 0.0704398 0.0490134 0.0782953 0.105042 0.102227 -0.0503362 0.0908822 -0.048173 -0.0280694 0.00528625 -0.0101454 0.0500973 0.0442925 0.0610292 0.1049 0.056938 0.0856326 0.0921584 0.0933362 0.0444621 0.242551 0.407234 0.286091 0.202116 0.206426 0.171668 0.256663 0.0763421 0.098017 0.0280972 0.0522692 -0.0211654 0.0159671 -0.0754012 -0.0164705 -0.0514672 -0.0691644 -0.0271148 0.021427 0.0786921 -0.0478242 -0.0834683 0.0359917 0.00430909 -0.0242653 -0.0356435 0.0750945 0.0127566 0.217036 0.24295 0.195817 0.0860195 0.233081 0.22392 0.137844 0.0357422 -0.0271472 -0.117669 -0.0933737 -0.127066 -0.080757 0.00655177 -0.0466474 -0.0386648 0.0069138 0.0504081 0.0202991 -0.0589062 -0.046633 -0.038588 -0.10815 -0.140133 -0.207109 -0.0792765 0.120014 0.0788342 0.18157 0.249946 0.22261 0.203079 0.102354 0.00600531 0.00104757 -0.052302 -0.0151309 -0.150723 -0.0963548 -0.030386 -0.136512 -0.0360823 -0.117542 0.0448718 -0.00159064 0.0432447 0.0413882 0.0124479 -0.0155196 -0.0667881 -0.186904 -0.338181 -0.283298 -0.163947 0.000730369 0.0739897 0.273349 0.321135 0.167476 0.083441 0.066045 -0.000350736 0.0138615 0.025686 -0.0263515 -0.105087 -0.0884978 -0.0985671 -0.13031 -0.119095 -0.125088 -0.0536565 0.00759191 -0.0505219 -0.0656008 0.0774305 -0.0430367 -0.1545 -0.197443 -0.277139 -0.211417 -0.248143 -0.135025 -0.130384 0.0702974 0.113516 0.0437173 0.0881955 -0.101671 -0.135142 -0.147308 -0.08107 0.0226736 -0.0678534 0.00876964 -0.0202459 -0.152432 -0.0847528 -0.140984 0.0374712 0.0179236 0.0518543 0.0106554 0.0817013 -0.0340761 -0.105443 -0.147523 -0.234624 -0.289869 -0.30612 -0.363927 -0.43036 -0.286468 -0.156855 -0.141624 -0.157803 0.0432067 0.0485456 -0.10441 -0.00715135 -0.0217314 -0.0790178 0.112776 -0.013197 -0.132666 -0.116239 -0.0697488 -0.0740572 -0.0356721 0.0033783 -0.0484897 0.0865145 0.0439326 0.0246407 -0.0518586 -0.0542002 -0.203474 -0.201902 -0.355453 -0.374145 -0.347436 -0.332474 -0.240617 -0.264674 -0.0485569 0.109805 0.092673 0.137783 0.117308 -0.0414902 -0.0480081 -0.0302003 -0.0767317 -0.0940374 0.0160389 -0.062757 -0.0534339 -0.00371337 -0.019808 0.051684 -0.0113378 0.0473865 0.0556928 -0.0125627 -0.0649495 -0.0287856 -0.217368 -0.0201142 -0.225678 -0.212974 -0.150906 -0.101842 0.0487918 0.0788862 0.174417 0.112076 0.0191136 0.0536033 0.0834912 -0.0783266 -0.0151691 -0.0672131 -0.0461378 -0.0262032 -0.0414045 -0.0770747 -0.0708978 -0.0636971 0.0673201 0.0183738 0.0271069 0.018392 0.0586586 -0.0447134 0.0857561 -0.0472497 -0.0360743 0.0178469 0.0233806 -0.0480437 0.0697273 0.00323661 0.0613967 0.102357 0.0480766 0.015445 -0.126011 0.00347586 -0.0623694 -0.094958 -0.0199594 0.0640873 0.0728807 -0.0661477 -0.0475858 0.0722278 0.040778 0.0538409 0.0354876 0.027006 0.0683307 -0.005771 0.0749665 0.0195029 0.145422 0.0210441 0.0121729 -0.046926 -0.0209297 -0.0248572 0.110288 0.0464388 0.0812857 0.0725544 -0.0628693 -0.0162512 -0.09364 -0.025313 0.0444281 0.00746705 -0.0236685 0.0408053 -0.0305367 0.0750822 0.0405219 -0.0394019 0.00443731 -0.0439454 0.120535 0.0883803 0.0483135 0.146782 0.127444 -0.0524896 0.0686266 -0.0221484 0.0292161 -0.0518472 -0.000447055 0.00577386 0.0733215 0.0884956 0.109798 -0.0823606 0.0780301 0.0440743 0.0826996 -0.0462335 0.0496068 0.0414637 0.0704544 -0.0527843 0.0166685 0.119709 0.0349624 0.00820431 0.0866053 0.15906 0.155607 0.121616 0.177712 0.063566 0.151666 0.109944 0.089709 0.0911487 0.0385173 0.0552018 0.0253546 0.0803613 0.101451 0.103789 -0.0499835 -0.014828 -0.0576191 -0.0430044 -0.0212019 0.0505443 -0.0258937 0.070932 0.0551207 0.0109144 0.055911 0.0967946 0.0416313 -0.0354613 0.0512362 0.026662 -0.00689597 0.122598 0.0379223 -0.0459717 -0.0370246 0.0354504 -0.0959659 0.00841451 0.0858473 0.089521 0.0261362 0.0957972 0.0156583 -0.0425147 0.0143946 -0.069611 0.0801084 0.0211502 0.0341307 -0.0240212 0.0303354 -0.0189136 0.0578175 0.0896924 -0.0102162 -0.0342466 -0.0118269 0.0185443 -0.0459301 -0.04019 0.0649355 -0.0506895 0.00602438 -0.0431851 -0.0428295 -0.0923859 -0.0134898 0.0671455 0.0145918 0.0317556 0.0366686 0.0237835 0.0630539 0.0907714 -0.0384988 -0.00934834 0.0884737 0.0709504 0.049321 0.0783059 0.0519397 0.0761074 0.0458461 -0.0294834 -0.0188957 0.0505687 0.0136873 -0.00403779 0.0120315 0.0694905 0.0245445 0.0684179 -0.0763894 0.0373166 0.05658 0.0700158 0.05013 -0.0363287 0.0797985 -0.029691 -0.0453891 0.0353164 0.00703304
0.0646688 0.0192493 -0.0631322 -0.0905794 -0.0483513 -0.0847731 -0.0536051 -0.0434546 -0.0417685 -0.0903388 -0.0372082 -0.0183964 -0.0379445 -0.0676347 0.026265 0.0547736 -0.0226523 0.065271 0.00417554 0.0323152 0.0223886 0.0258725 -0.0451998 0.0653404 0.0620896 -0.0848318 -0.0285081 -0.0737696 -0.0220048 0.00322086 0.034817 -0.0112357 0.0614643 0.0409825 0.0801471 -0.0714905 -0.0337556 0.0540092 -0.0492999 -0.00341462 0.000351709 0.0220831 0.0104666 -0.0622762 -0.0640105 -0.0659086 0.0663986 -0.0709783 -0.0483602 -0.0743277 -0.029729 0.0114611 -0.0752354 -0.0137755 0.0338435 0.000586889 0.074895 -0.0707412 0.0186622 0.024975 0.0668602 -0.00329067 0.0744343 0.0446765 -0.0654792 0.00759216 -0.0693216 -0.0121112 -0.0170672 -0.0430647 -0.0490123 0.0548988 0.0399023 -0.0246974 -0.0571714 -0.0155831 -0.0646556 -0.0071534 -0.0817521 -0.0742983 0.027801 -0.0106086 0.0469495 -0.0135414 0.0715307 0.0373501 0.00840473 -0.0855086 -0.0464623 -0.055105 0.0625282 0.0617334 0.00169815 -0.00173281 -0.100237 -0.00403251 0.0929255 0.177686 0.081841 0.111955 0.158381 0.0538277 0.0319567 -0.0763008 -0.0119463 -0.11088 -0.125317 -0.118918 0.0519536 0.0693768 0.0475612 0.0673622 -0.0655162 0.055569 -0.027644 -0.0640748 -0.0533681 -0.000684328 -0.0145524 0.104589 0.123821 0.164473 0.182083 0.0296796 0.100538 0.164119 0.25096 0.126332 0.126424 0.0297483 0.0905259 0.0559417 -0.133481 -0.123037 -0.0721669 -0.0246187 -0.0125021 -0.0388387 0.00332321 0.0562786 0.0190122 -0.03721 -0.0560429 0.0416244 0.0478362 0.0894283 -0.0160771 0.114155 -0.0180556 0.0838232 0.00868712 0.0128334 0.141028 0.0970777 0.0201667 0.0798521 0.0980802 0.117255 0.13872 0.00525496 -0.0450397 -0.157674 -0.195694 -0.128431 -0.103282 0.0341671 0.0551359 0.0477686 -0.0700707 -0.0458608 -0.00705295 -0.044066 0.0787143 0.10359 -0.00993268 0.0150106 -0.0480527 0.0893807 0.0604355 0.0503353 0.104459 0.205747 0.197725 0.228783 0.197038 0.137555 0.0973118 -0.0180318 -0.0176812 -0.0450744 -0.102363 -0.153765 -0.0495144 -0.106941 0.0185487 -0.0518295 0.0404497 -0.078257 -0.00798165 -0.0606638 0.0872444 0.0132223 0.0163412 -0.0753639 -0.0347318 -0.0598856 0.065012 0.181379 0.251202 0.313579 0.299324 0.106401 0.0131303 0.000373527 -0.0284157 -0.0414067 0.0164464 -0.00407907 -0.0456201 -0.20546 -0.167844 -0.0908946 -0.0172817 -0.0295244 0.0523045 0.0548745 0.0517792 0.0605824 0.0287597 0.0348368 -0.00929576 -0.089885 -0.0575129 -0.0801535 0.044484 0.161053 0.144148 0.292529 0.220246 -0.0229771 -0.0832827 -0.00341906 0.00846525 0.0677214 0.00648024 0.0381701 0.00546518 -0.0704121 -0.142041 0.00188374 -0.0672144 -0.0150376 -0.0665519 -0.0605647 0.00781271 0.05838 0.0109348 -0.153852 -0.0677375 0.00264312 0.0463371 0.0278865 -0.0125279 -0.153764 -0.0308196 0.141252 0.266154 0.0606302 -0.0684429 0.156327 0.0666705 -0.0182344 0.0328712 -0.0151052 -0.0205587 -0.192816 -0.02298 0.0336233 -0.0577765 0.0481683 -0.0375581 0.0352135 -0.105576 0.0756355 -0.0137786 -0.0817885 -0.00042322 -0.047521 -0.0570107 -0.286797 -0.305996 -0.391507 -0.454417 -0.100475 0.225062 -0.0485237 0.0129112 0.0573918 0.0790048 0.178351 0.0433387 0.0638384 -0.115173 -0.0324007 0.0127989 0.0687251 -0.0157404 -0.0616297 -0.0771224 0.0106501 0.044373 0.0118344 0.0316637 -0.0878733 -0.0976816 -0.172506 -0.203451 -0.285313 -0.323861 -0.297733 -0.454551 -0.0714037 0.317461 0.177334 0.107474 0.189902 0.14805 0.155984 0.180584 -0.1159 -0.105843 -0.065023 -0.0911634 -0.0568796 0.0724766 0.0320247 0.0365697 -0.00684341 -0.0739623 0.0556739 -0.0343151 -0.237506 -0.257312 -0.212261 -0.271546 -0.153757 -0.149386 -0.318789 -0.351055 -0.101145 0.341305 0.110562 0.0443314 0.0916735 0.102298 0.079495 0.174684 -0.14468 -0.167533 -0.195384 -0.011839 0.0659096 0.00239466 -0.021818 0.00146775 -0.0700499 0.0401021 -0.0468899 -0.118191 -0.216568 -0.28439 -0.176994 -0.0780933 -0.147174 -0.178231 -0.369983 -0.231901 0.165152 0.245198 0.0434721 0.0961952 -0.00469778 0.0854253 0.0851146 -0.0123102 -0.153465 -0.272305 -0.32131 -0.124589 0.0148717 0.0811011 -0.00114956 -0.00110626 0.0118151 -0.0642534 0.0713603 -0.000994986 -0.0916003 -0.097114 -0.084866 -0.0644728 -0.106945 -0.218632 -0.239836 -0.159887 0.0914251 0.184879 0.0118328 0.108632 -0.060281 0.025992 0.0612003 0.0423513 -0.123569 -0.170292 -0.200135 -0.0466813 -0.018263 -0.0274757 -0.061168 0.0747518 0.0479999 -0.0218563 -0.0344644 0.0757835 -0.0379539 -0.0366387 -0.00577007 -0.136149 -0.168484 -0.0763974 -0.104572 -0.205556 0.0551547 -0.00878122 0.118764 0.226613 0.0910926 0.000855231 -0.0993053 -0.0375506 0.0173316 -0.189594 -0.199468 0.0551859 0.121827 0.01356 -0.0628104 0.0104449 0.073731 0.0550168 0.0136232 0.161136 0.0584963 -0.0444618 -0.145238 -0.278172 -0.153231 -0.189497 -0.0492836 -0.0380665 0.0882124 0.0855531 -0.046533 0.0483815 0.0358359 0.0353604 -0.0415725 0.0771448 0.0339878 -0.0674192 -0.109114 0.0957409 0.152297 0.0918985 -0.00677117 -0.0430009 -0.0654819 0.013963 0.00220421 0.243029 0.00476592 0.0967284 -0.0799687 -0.136527 -0.208748 -0.150086 -0.152896 0.0411115 0.0629193 0.0858813 0.0797258 0.014844 -0.0358198 0.0555269 -0.0370773 -0.00245964 0.0609507 -0.0676024 0.072237 -0.00432814 0.113441 0.0461769 0.0679722 0.0481379 -0.0311016 -0.0661247 0.076446 0.16041 0.216672 0.0663047 -0.0925158 -0.114039 -0.151585 -0.0559691 -0.0833252 -0.0723423 -0.0621645 0.0447827 0.084437 0.0617371 0.143122 0.100223 0.0731621 0.0304502 0.0484027 -0.00987844 0.129018 0.0965926 0.173377 -0.00622416 -0.0507018 -0.00915729 -0.0609331 -0.0524622 0.119143 0.220736 0.0789043 0.137392 0.0606358 -0.00503155 0.0908288 0.0780576 -0.0673036 -0.0997737 -0.0251804 0.0438979 0.0750976 0.0989247 0.0625584 0.178148 0.0848474 -0.0122026 0.0663033 0.0464605 0.0675281 0.0661875 0.147848 0.00478702 0.00384022 0.0634303 0.000820355 0.0501667 0.107478 0.114154 0.213371 0.0889943 0.119525 0.142369 0.115195 0.0104882 0.0721711 -0.0617531 -0.0450848 -0.041986 0.00318969 0.0955618 -0.0307731 -0.027813 -0.0131405 -0.0814268 0.00381988 -0.0225311 -0.0410931 0.0736665 0.0458897 -0.0417312 0.0701862 0.0406998 -0.061033 -0.0650394 0.119985 0.0894335 0.0982672 0.141744 0.0762155 0.00809941 -0.032578 -0.085699 -0.118901 -0.0823652 -0.133844 -0.00249919 -0.156134 0.0112854 -0.138171 -0.0241665 0.0355104 0.00704884 0.027539 0.0990417 0.0195191 0.0453537 0.0127432 4.86459e-05 -0.0245231 -0.000822675 0.000295209 0.0352081 -0.0365718 0.048878 0.0708179 0.0548849 0.0824832 0.0242218 0.0382966 0.016882 -0.100535 -0.208536 -0.125928 -0.0974402 -0.131454 -0.211273 -0.0648612 0.0460782 0.0425497 0.0424696 -0.0735336 -0.027294 0.0433271 0.0629084 -0.00827005 -0.0305514 -0.00482032 -0.0786481 0.0725686 -0.0451661 0.0672938 0.118586 0.00923179 0.113526 0.00717632 0.0215526 -0.0219838 0.0124051 -0.0774034 -0.0658138 -0.140977 -0.199688 -0.209478 -0.120955 -0.0296127 0.016136 0.0249545 0.0122374 0.0199451 0.0958156 -0.0548067 0.0936354 -0.0665409 -0.0901926 -0.0293824 0.0165968 -0.000143394 0.0188197 -0.0330153 0.0553871 0.0392404 -0.0255507 0.0149235 0.0536957 -0.08884 -0.170816 -0.0760957 -0.0343768 -0.140412 -0.12908 -0.102004 -0.0437635 0.094347 -0.0335034 0.0877512 0.035037 -0.0131206 -0.0168829 0.00221704 0.06035 0.0213791 0.0534905 0.0279179 0.00261309 -0.0710125 -0.085089 0.0406471 -0.0336346 0.0865144 0.0536055 0.0932044 0.135266 0.0283119 0.0236569 0.00173615 0.0653961 0.144515 0.0861539 0.0255855 0.103888 -0.0327268 0.037171 0.015833 0.00315519 -0.0428863 0.0762712 0.0370598 -0.0208516 -0.0520842 0.0310077 -0.00745818 -0.071327 0.0762802 0.0457728 -0.00938255 -0.0731289 -0.084495 0.0340113 -0.0620534 0.0746176 0.0421009 0.135434 0.13861 0.13391 0.137465 0.0297902 0.0458612 0.117926 0.134965 -0.00351895 0.088566 0.0772607 -0.0484514 0.0259075 0.00153381 0.0142619 0.0233058 0.0379907 -0.0543762 0.0587009 0.0689048 -0.0115879 -0.0435315 -0.0113415 -0.0776215 0.0127444 0.0655475 0.00978958 -0.0436912 -0.0213543 -0.0340138 0.051138 -0.0784412 0.0232025 0.0233521 -0.0321954 0.068538 0.0344693 -0.0408136 0.0293367 -0.0277495 -0.0108338 -0.00485878 0.0729772 -0.0258642 0.0338972 -0.000303874
0.00628915 0.0474297 0.0419317 -0.0487619 0.0330881 -0.0479563 0.0182177 0.0234255 0.0731549 0.00841068 0.000868798 -0.0284952 0.0561566 -0.0331432 0.0379931 0.0597776 0.0163373 0.0295258 0.0200989 -0.0625004 0.0597248 -0.0912675 -0.0217998 -0.0870013 0.0509105 -0.0452433 -0.0508584 -0.0802191 0.0545647 -0.0177915 0.00589317 0.0530649 0.0674274 0.0470557 -0.0774968 0.0485519 -0.0835265 -0.045904 0.0121562 -0.0240643 -0.0185282 0.0661785 0.002904 -0.0702492 0.0216329 -0.0795841 0.00433862 0.0663128 0.0661354 -0.0760887 0.0629153 0.0517325 0.0223622 -0.0565673 -0.00533858 -0.0173815 0.0436168 -0.0406121 0.0240036 -0.067145 -0.0544045 0.00261824 0.0276709 -0.0555514 0.0366409 0.0405831 0.0576544 -0.0385007 0.0398519 -0.00948267 -0.0543436 -0.0612762 -0.0797523 -0.0730043 -0.0844762 0.061635 0.0505122 -0.0198625 -0.0705255 0.0342137 0.0667585 -0.00971507 0.0521712 0.0455341 0.0322586 -0.0925997 -0.032871 0.0491816 -0.0457091 0.0425213 0.0467753 -0.0616507 -0.0882571 -0.0461386 -0.069768 0.0332651 0.0482681 0.0165692 0.00910595 -0.0774333 -0.0723634 -0.0857067 -0.0565118 -0.0626178 0.0557224 -0.051707 0.0513428 -0.0628678 -0.0150612 0.0260146 0.0198373 -0.0334079 -0.00107815 -0.0855217 0.0457015 -0.0199288 0.0703433 0.0683552 0.033183 0.0713669 -0.0248961 -0.00436236 -0.00894653 0.0810146 0.0398235 0.00360496 -0.0869035 0.00126275 -0.0289636 -0.0512767 0.055988 -0.0538656 -0.0567206 -0.0901455 -0.052597 -0.0460924 -0.0452056 -0.0170242 -0.0141085 0.00723905 -0.026161 -0.00125788 0.000807638 -0.00380107 -0.045626 -0.0183273 -0.051932 -0.0538788 0.104773 0.0301718 0.101817 0.0881641 -0.0385784 -0.0767305 -0.165456 -0.105958 -0.0534954 -0.0658361 -0.0451141 0.0873384 -0.0457168 0.01821 0.0536092 0.038549 0.0345556 0.024384 0.0562365 0.00918728 -0.0114557 0.0561874 -0.00550396 -0.0367994 -0.0607923 -0.0390587 -0.0169209 0.0899597 0.145352 0.0679486 0.0309999 -0.0704473 0.0160102 -0.00793704 0.0792615 -0.0451819 0.0247115 -0.0723486 0.050542 0.071728 -0.00388025 -0.0440672 -0.0298323 0.0566855 0.0273724 0.00799675 0.10333 -0.0101351 0.0171137 -0.070018 0.0684821 -0.00755655 -0.0234331 0.0358665 -0.0399074 0.141337 0.163269 -0.00793688 -0.000468322 0.0421575 0.118434 0.0328414 0.185021 0.0673034 0.0283972 -0.0702191 0.00551231 0.0740145 0.0490459 0.00698277 -0.0160968 -0.0375777 0.0136553 0.00885592 0.00581457 -0.061188 -0.00936751 0.0330329 0.0627557 0.041971 -0.0394135 0.109426 -0.00941921 0.0532118 0.0246928 0.0523504 0.0688548 -0.0126839 0.0161946 0.0572982 0.0545594 -0.0411408 0.00380227 -0.101341 -0.0998078 0.0296463 -0.0288015 0.01806 0.00101579 -0.00121197 0.0522218 0.0492177 0.101572 0.0672156 0.00143115 -0.0188378 0.00464401 0.0480979 0.0517724 0.0934547 0.032342 0.0602258 -0.0206301 0.0714159 -0.0296735 0.00448667 -0.0320079 -0.0680975 -0.00779215 0.128315 0.0752027 -0.00070379 -0.0383148 -0.0214786 -7.71438e-05 -0.0571563 0.047271 -0.0693293 0.113408 0.250227 0.0789908 0.0117062 -0.0570035 0.00300654 0.0726624 0.0192505 -0.0251855 -0.0769848 -0.0593429 -0.0456147 0.0173756 -0.0769469 -0.0587704 -0.113851 -0.0833538 0.0558003 0.0089305 0.0910643 0.243757 0.0801595 -0.0321181 -0.0606186 0.0323117 -0.0311035 -0.0789761 -0.0762557 0.0758285 0.0950353 -0.00386175 0.000596119 -0.0609879 -0.013797 -0.0182069 -0.0211821 -0.00775332 -0.117151 -0.0968978 -0.00247533 0.0286706 0.0153826 -0.0126048 0.0375241 0.118707 0.028444 0.139269 0.193061 0.165544 0.178038 0.0479287 -0.0379723 -0.0550035 -0.0475686 -0.111822 -0.15204 -0.0479992 0.0362173 0.0496236 -0.014145 -0.0522938 -0.0129738 0.0289833 0.0153874 -0.0352801 -0.0618492 -0.118004 -0.065624 0.0479582 0.0177287 0.100947 0.102153 -0.0404265 -0.0137729 0.0458518 -0.0179703 0.0943831 0.0695693 0.055212 0.0151988 -0.0854482 -0.14649 -0.294464 -0.259473 -0.187185 0.0208806 -0.0186651 -0.0679649 -0.00884295 0.048554 -0.0808204 -0.0325051 -0.0859877 -0.143382 -0.0902478 -0.0770608 -0.0234638 0.0852242 0.00830231 0.0815098 -0.0973479 -0.0377237 -0.0761969 0.0332606 0.0734386 0.0676842 0.0176246 -0.0150309 -0.104791 -0.0991379 -0.20381 -0.149607 -0.0863353 -0.0208186 -0.0196218 0.0446258 0.0468745 0.0125076 0.0150075 -0.0674934 0.0340588 -0.0142845 -0.17093 -0.0298744 0.00194998 -0.0272858 -0.00305227 -0.125164 -0.158656 -0.121309 -0.115905 0.0503783 0.186767 0.10744 0.011436 0.0111077 -0.130637 -0.0283931 -0.0457523 -0.116026 -0.0630387 -0.0228244 0.0558874 -0.00113696 0.0549272 0.0272632 -0.0651644 0.0434525 -0.111597 -0.179279 -0.135283 -0.216096 -0.219301 -0.152615 -0.181524 -0.186099 -0.0601765 0.0135572 0.0265122 0.172428 0.0471638 -0.0224247 -0.0117133 0.0481102 0.00922637 0.0321563 0.0127298 -0.0997535 -0.0570131 -0.121347 -0.00192246 -0.0650235 -0.0317539 -0.0814442 -0.0785434 -0.0435564 -0.049854 -0.0919096 -0.078949 -0.221573 -0.230134 -0.338162 -0.345691 -0.273924 0.0789112 0.113666 0.213459 0.0955978 0.000961608 0.0126188 0.00421396 -0.0527085 -0.0369421 -0.0475957 -0.103331 0.066405 -0.0452363 -0.112059 -0.0832124 -0.0259773 0.0547123 0.0372498 -0.0153372 -0.0188921 -0.049036 -0.0333746 -0.0480688 -0.163668 -0.209796 -0.332351 -0.317589 -0.169129 0.12758 0.245789 0.110659 0.0479158 -0.00535638 0.014021 0.0726325 0.00817362 0.01043 -0.0649407 -0.0521622 -0.0214815 -0.0776056 -0.0239525 0.0238626 0.0687407 0.011318 -0.00391349 -0.0176459 0.0547042 0.0957807 -0.00580571 0.0285089 -0.0645991 -0.0776686 -0.248332 -0.409356 -0.112116 0.311641 0.316098 0.198924 0.0861524 0.0530086 0.0770388 0.165636 0.101589 -0.0125533 -0.0322634 -0.0249744 -0.0715164 0.0275372 0.0119864 -0.0752476 -0.0572215 -0.00634037 -0.015837 -0.0655846 0.0561646 -0.000607358 0.119026 -0.0186939 0.0137253 0.00180449 -0.303425 -0.360433 0.0429407 0.396512 0.256128 0.140989 0.0669119 0.079858 0.124855 0.0252119 0.0744052 -0.00489517 -0.0499564 -0.0325357 -0.0156709 -0.0834341 -0.114586 0.0353836 0.0268493 -0.00180311 -0.0117787 0.0320768 0.0639872 0.0985863 0.00354035 -0.0498075 -0.143144 -0.174412 -0.18397 -0.308621 -0.0708724 0.249044 0.108924 0.147177 0.00629169 0.165839 0.11388 0.0779674 0.0968162 0.049113 0.0467928 -0.0443369 0.0409513 0.0530128 -0.00653316 -0.0574569 0.0508564 0.0506071 -0.0534209 0.0588045 0.0963284 0.0697851 -0.00491586 -0.138043 -0.17498 -0.101043 -0.237676 -0.257513 -0.115201 0.0748155 0.0792488 0.0835934 0.176787 0.128049 0.215374 0.100654 0.126241 -0.0171405 0.00521584 0.0725113 0.0579314 -0.0486771 -0.037025 -0.0207034 -0.0394493 0.0425389 0.00872368 0.0696565 0.0604698 0.0223088 -0.129705 -0.100389 -0.26996 -0.111472 -0.134366 -0.120624 -0.22076 -0.138886 0.0529977 0.136041 0.0984265 0.0958042 0.165842 0.0212589 -0.00495017 0.0164585 0.0218718 -0.015477 0.0660696 -0.00380156 0.0193085 -0.0810364 0.016137 0.0523236 0.0528607 -0.0463135 -0.0257413 0.0955137 0.0255572 -0.0259816 -0.0374242 -0.228587 -0.241566 -0.0490402 -0.0796829 -0.154069 -0.104472 0.0706423 0.0311251 0.137384 0.111841 0.0355493 0.0714265 -0.0172692 0.0337312 -0.026689 0.045446 -0.0594755 0.0258294 0.0478644 -0.0115536 0.0574781 0.0549787 0.0697583 -0.0565927 0.0179463 0.158775 0.127539 0.0725082 0.0161592 -0.0251955 -0.153876 -0.0178206 -0.0885672 -0.000971547 0.075565 0.0499851 0.104106 0.046364 0.12142 0.00362554 0.00614999 0.0124039 0.101372 -0.0393627 -0.00453414 -0.00224728 -0.036814 0.0568819 -0.0644114 -0.00379842 0.019289 -0.0553028 0.0717161 -0.045129 -0.0209104 0.0920344 0.038152 0.141454 0.137957 0.133435 0.0184316 0.15471 0.119172 -0.000191095 0.108589 0.0256164 -0.0347438 -0.0278023 -0.0600253 -0.0785332 0.0686802 -0.0371039 0.0247983 -0.0614839 -0.0844012 0.0693032 -0.0187369 0.0751219 0.0648622 0.0181008 0.00233858 -0.0791118 -0.0605762 -0.043887 -0.0296469 0.0846298 0.0704274 -0.0504629 0.0627295 -0.0412246 -0.021386 0.0869103 0.0305923 -0.0640584 -0.0151252 -0.0606663 -0.000560218 -0.0318038 -0.0761971 0.0192681 -0.0526494 0.00279758 0.0717616 -0.0462435 -0.0336907 0.0595456 -0.0592859 -0.0485528 -0.0361132 -0.0284943 -0.00959521 0.0335729 0.0737328 0.00771186 -0.0893425 0.0577983 -0.0696521 -0.0819538 -0.0441242 0.0492016 -0.0440807 -0.0547852 0.0758877 -0.0321236 0.0230041 0.0431745 -0.0260798 -0.0431621 -0.0498001 -0.0223338 -0.0368445 -0.0430435
