-0.218364 -0.212633 0.107916 -0.184517 -0.229092 -0.00745418 -0.148638 0.177284 0.173862 -0.0695572 0.00191698 -0.0169686 0.0492547 -0.167124 -0.114686 -0.133218 -0.243496 -0.0537144 -0.240031 -0.139504 -0.0876499 0.0818314 -0.20145 0.169968 0.100865 -0.167577 0.0481968 -0.0770793 -0.238402 0.0363993 0.114165 -0.00992346 0.159017 -0.24841 0.0224492 -0.00396678 0.172371 -0.160361 -0.0699453 -0.245723 -0.107209 0.102501 0.0492211 0.0222226 -0.116487 0.0371422 -0.21663 -0.176941 0.0077442 0.163766
-0.132638 -0.112842 0.117201 -0.14944 -0.0776026 -0.225843 0.135126 -0.018233 0.00997606 -0.0550533 0.262596 0.0492848 0.323145 -0.00860274 -0.0379767 0.342498 -0.207972 -0.017588 -0.00989793 -0.308429 -0.207094 0.0591227 -0.136442 0.0270654 -0.105382 0.14435 0.0242376 0.0703648 -0.245922 0.288347 -0.229234 -0.0131448 -0.214847 0.246986 0.20422 0.0441654 -0.176916 -0.26374 -0.0817479 0.0780866 0.00251099 -0.0928036 -0.0271447 -0.0489403 0.1945 -0.0149789 -0.202368 -0.0381895 -0.353636 0.160435
0.00720392 -0.0817606 0.172752 -0.190034 -0.12022 0.225057 -0.143461 0.245917 0.119032 0.32293 0.0901824 0.191288 0.263924 0.218695 0.156237 0.389017 -0.194062 -0.122876 0.1854 -0.0956739 -0.0597508 -0.298652 -0.124901 -0.147164 -0.168422 -0.0737237 -0.339802 -0.199782 0.252565 0.111656 -0.375068 0.215423 -0.107724 0.196475 0.159616 0.0405707 -0.0491818 -0.177226 -0.222706 -0.293033 -0.060962 0.324467 -0.0838112 0.315818 -0.119951 0.126883 -0.152735 0.174011 0.0745315 0.239758
0.265939 -0.300876 0.0857026 -0.095904 -0.112482 0.450596 -0.0356249 0.0485237 -0.0517983 0.142889 -0.307878 0.545303 -0.00272098 0.038009 0.208337 0.36201 -0.0416086 0.0804853 -0.136812 0.195943 -0.0133879 -0.533074 0.154442 -0.13915 0.0992068 -0.337205 0.140107 -0.118232 -0.0766232 0.26047 0.111586 -0.123559 0.306482 -0.141182 -0.188414 -0.0864077 0.305186 -0.133644 -0.261739 0.455875 0.210155 0.110072 -0.14111 -0.234693 0.214479 0.276126 0.176499 -0.657882 -0.153278 -0.443979
0.024969 0.00123573 -0.243442 -0.0392938 0.030086 -0.0201405 0.193213 0.425843 0.206812 -0.118094 -0.137609 0.0296868 -0.1434 -0.0303897 -0.063786 -0.200207 -0.0889188 -0.102366 -0.0550916 -0.207733 -0.0108242 0.183521 -0.02198 -0.0659479 0.110444 0.11342 0.0606838 0.305351 0.173167 -0.23142 -0.0832749 0.217432 -0.380081 0.125994 0.477808 0.0419227 0.186504 0.239735 0.134477 0.338165 -0.403644 0.172534 -0.143852 -0.184537 -0.0414608 0.258132 0.21994 -0.143891 -0.16464 -0.134869
0.112979 -0.131817 -0.108002 0.150929 -0.0934404 0.241965 -0.181559 -0.0126064 -0.319777 -0.208399 -0.246873 0.147431 0.0268356 0.00233318 -0.0520494 0.239641 -0.164143 0.193075 0.0469029 0.10537 -0.291277 0.267719 0.00843707 -0.00756556 0.379445 0.479719 0.0843927 -0.404027 -0.363451 -0.238333 -0.0558993 0.049415 -0.321042 0.157886 0.0512703 0.112187 0.545904 -0.060823 -0.306521 -0.152351 0.36787 0.0846646 -0.202026 0.0470416 0.194437 -0.0144052 0.131248 0.00236091 0.0714135 0.00556408
-0.287322 0.329508 -0.106419 -0.196764 -0.0805291 -0.22036 -0.0267298 -0.261445 0.328776 -0.274745 0.0458694 0.04857 -0.228485 0.0982729 -0.102808 -0.319391 -0.237247 0.0426602 0.137847 -0.0140764 -0.226533 0.463479 0.0955881 -0.160149 0.195483 0.0834396 0.0869115 -0.132702 -0.0283542 0.284818 0.325569 0.0451302 -0.0620614 -0.272078 -0.316333 -0.138613 -0.0863204 0.518448 -0.333781 0.384771 -0.00177229 0.209793 -0.0470235 -0.447676 0.0192877 -0.111189 0.164489 0.13222 0.140604 0.0625149
0.319739 0.36461 0.033841 -0.149084 0.0949966 -0.0338753 0.00787479 0.133576 -0.295972 -0.0316103 -0.24394 0.359191 -0.269404 0.106162 0.256862 0.293567 -0.0319632 -0.247921 -0.141742 0.0192872 0.258482 -0.279608 0.228072 -0.201392 -0.154723 0.115607 -0.0931886 0.394283 -0.313367 0.129205 0.0968417 0.226184 0.345879 0.0629144 -0.1353 0.039536 -0.15503 -0.154782 -0.313565 -0.316614 -0.00616826 0.237385 -0.0205915 0.430862 -0.0586723 0.331482 -0.113407 -0.26537 -0.000979058 -0.299994
0.210906 0.278297 -0.059595 -0.341991 0.0765676 -0.233243 -0.0431749 -0.19865 0.124554 0.0702437 -0.0843931 0.401313 -0.164447 0.186172 0.580657 0.0711848 -0.197676 0.0762931 -0.142274 0.184064 0.150017 -0.224882 -0.230962 -0.207027 0.420293 -0.452671 0.114858 0.389883 -0.157843 0.478953 -0.158037 0.239859 0.17163 -0.00371616 -0.317088 -0.0388851 -0.242956 0.260066 -0.159362 -0.0486793 0.489058 0.111468 0.0101427 -0.26914 -0.0916708 0.0293738 0.234495 -0.314886 -0.536946 -0.490417
-0.0266194 0.180481 0.0574546 -0.158683 -0.177908 0.155769 0.00823394 0.0468173 -0.186411 0.241006 0.181161 -0.134822 -0.174186 -0.169647 -0.120621 -0.166032 0.202954 -0.0859211 0.0151454 -0.18996 -0.201094 -0.110596 -0.18798 -0.217443 -0.0898453 -0.0404889 0.0161845 0.118021 0.409058 -0.223137 -0.0475846 -0.115858 0.128179 -0.0768241 0.0923497 -0.126678 -0.313758 -0.0323794 0.19452 -0.0808481 -0.0706142 0.29146 0.00367785 0.0336008 0.0434937 -0.0656332 -0.00883633 -0.0598551 0.144748 0.275512
0.477891 -0.166538 0.0162744 -0.304876 -0.163652 -0.19723 0.179763 0.217476 -0.059024 0.031964 0.168885 0.0966168 -0.179801 0.0631348 -0.200366 0.102931 0.0495151 0.0794756 -0.185054 -0.275294 -0.28361 0.193574 0.0678274 0.00796663 0.181737 -0.215523 -0.272147 -0.229658 0.184726 0.333188 -0.290793 -0.0285285 -0.172893 0.131005 -0.134295 0.0499736 0.241945 -0.179503 -0.236583 0.138943 0.133045 -0.121703 -0.2316 0.0333195 0.0441652 0.437132 0.214153 -0.0478631 0.0273787 0.0228189
0.0604607 0.0756632 0.0364542 0.00316234 0.228564 0.120916 0.140523 0.269456 -0.349937 -0.0637899 -0.358364 0.401846 0.193139 -0.140847 -0.0183197 -0.209434 0.376352 0.263036 0.0355184 -0.287868 0.326827 -0.298266 0.319381 -0.0171226 0.184364 -0.188166 -0.319493 0.154218 0.245699 0.0681472 0.0583421 0.0812877 0.267539 -0.289303 -0.0304683 -0.164101 -0.190694 0.0503931 -0.331568 0.0619618 0.292404 -0.154498 0.143688 -0.350211 0.135301 0.1981 -0.218812 0.247884 -0.0381339 -0.0202943
0.229694 -0.536151 0.116943 0.200903 -0.0899922 0.0247187 -0.234736 0.0674593 0.235188 -0.0272981 -0.141886 -0.371918 0.321236 0.14146 -0.00825112 -0.147774 0.114839 -0.0973491 0.0999179 0.0754325 0.167476 0.537641 -0.201954 0.062476 -0.193397 0.0534794 -0.121798 0.175898 0.284397 0.30818 -0.0477201 0.0634946 0.137795 0.411596 -0.0983744 0.0527783 0.511694 -0.349549 -0.193946 -0.327147 0.111095 0.362716 -0.0600564 0.553402 -0.0527248 0.155182 -0.0262692 -0.121258 0.20241 -0.00757598
-0.0779902 -0.186467 0.106295 0.030575 0.0794342 0.0370567 -0.0369948 -0.0153007 0.317262 0.124554 -0.249864 0.138634 0.0203958 -0.140577 0.00741971 -0.100472 -0.248217 0.384491 0.0218154 -0.170968 -0.233774 -0.0011172 0.0560447 0.0507843 -0.0346685 -0.00890977 -0.223597 -0.219606 0.245522 -0.112107 0.0575734 -0.230996 0.231434 -0.0869246 -0.0149092 -0.211405 0.239524 -0.0316875 0.0874038 -0.112885 0.0936654 -0.105969 -0.109131 0.0045517 0.301332 -0.122954 -0.197701 -0.090312 -0.0474541 -0.053074
0.270908 0.169273 -0.0724985 -0.0400857 -0.0415661 0.30835 -0.189625 -0.432585 0.243867 -0.274127 0.0336063 0.0303901 -0.335235 -0.0836238 0.0497811 -0.0442902 -0.183305 -0.422118 0.0722876 -0.171326 -0.218401 0.0967084 -0.33611 -0.157132 -0.0147928 -0.0999931 -0.0245028 0.325167 -0.103349 -0.0410098 0.0369301 -0.117582 0.355989 -0.29194 -0.375183 0.0738219 -0.0065546 -0.137343 0.126052 0.10411 0.246131 -0.328269 0.102006 -0.0937185 0.160879 0.314422 0.0706613 0.308437 0.115537 -0.209754
0.361071 0.314589 0.134379 0.167176 -0.121959 0.178766 -0.152513 -0.185684 0.191242 -0.355017 0.200626 0.316575 -0.114103 0.22391 0.0963155 -0.11973 0.270791 -0.00923363 0.0224465 -0.370697 0.058125 0.0829917 -0.0354493 0.224804 0.236356 -0.030837 -0.0313467 0.0282757 -0.150625 -0.415607 0.0674084 0.187903 0.0793246 0.287973 -0.199228 0.0322894 0.0660093 -0.189694 -0.458961 0.0304383 -0.139888 0.188331 0.126165 0.0499677 -0.381718 -0.00407697 -0.154802 0.0517474 0.280124 -0.266168
0.0323468 0.674729 0.0951674 -0.326323 -0.0360597 -0.0102792 0.225301 -0.063299 -0.0531303 0.329318 0.0965186 -0.0716519 0.015767 0.00118102 -0.114661 0.12469 -0.00387555 -0.44191 -0.0381967 0.0886772 0.0831933 -0.12408 0.39602 -0.0858112 0.35963 0.407251 0.222267 0.326687 0.0023461 0.677192 -0.238159 -0.299821 0.430995 -0.191491 -0.327972 0.172663 0.278482 0.164059 0.0288627 0.0800297 0.0958949 -0.658545 0.0279484 -0.383438 0.297946 -0.175168 0.0875967 0.149897 -0.486706 0.0176518
0.0052868 -0.146791 -0.195247 0.238038 -0.20342 -0.212722 0.112956 0.209791 -0.190586 0.0190792 -0.135038 -0.179266 0.223007 0.160196 0.036973 0.064681 0.220126 -0.0192914 -0.113725 0.00416322 -0.106649 -0.125236 0.117981 -0.210085 0.0139899 0.198361 -0.0501644 -0.203701 0.0976294 0.207028 -0.106554 -0.143107 -0.0602396 -0.129154 0.240081 -0.121216 -0.169478 0.188813 -0.123518 -0.103287 0.223942 -0.142726 -0.0665159 0.0834989 -0.120166 -0.16778 0.0384953 -0.246147 0.111915 -0.136086
0.1747 -0.0157485 0.0114444 -0.413169 -0.0479966 -0.104532 0.0786067 0.282653 -0.256366 0.315222 -0.148008 0.114066 -0.515953 -0.16056 0.23374 0.271216 -0.247528 0.259074 0.131591 0.0148632 -0.0454268 -0.230846 0.285476 -0.0852401 0.0471714 0.227907 0.190602 0.110743 0.0887905 -0.176408 -0.293328 0.326762 -0.174807 -0.0164973 0.376732 -0.171912 -0.160983 0.413833 0.356519 -0.199053 -0.0915467 -0.181408 0.118129 0.253061 -0.180688 0.263093 0.112716 0.181507 -0.0925495 0.19254
-0.256463 -0.110694 -0.238053 -0.161643 0.0116842 0.101486 -0.0577175 0.048809 -0.0341541 0.0231374 -0.201767 0.0442428 -0.108672 -0.0888434 -0.0945247 -0.25979 0.0292438 -0.163857 -0.215867 -0.0471649 0.0995912 -0.0460886 -0.00738025 -0.173347 0.163916 -0.116356 -0.143257 -0.0323033 0.0444282 -0.214381 -0.227138 0.097385 -0.0673859 0.00993752 -0.204572 -0.125165 -0.228535 0.0393508 -0.130969 0.0413635 -0.13646 0.146935 -0.0895596 -0.0840377 -0.0787441 0.164474 -0.158311 0.069503 0.0913961 0.0789659
-0.291775 0.394512 0.220972 0.177298 0.161961 0.0637931 0.0338512 -0.171953 -0.292507 -0.208107 0.141928 -0.253339 0.00675886 0.00878822 -0.217124 0.217365 0.105911 -0.285384 0.105578 -0.121785 0.289967 0.0266659 -0.0107037 -0.0282541 -0.213798 0.175016 0.227199 0.146929 0.116613 -0.183672 -0.156631 -0.0585276 -0.292811 0.122876 0.208527 -0.133418 -0.364158 -0.0603389 -0.175721 -0.0812899 -0.0393836 -0.114042 0.103346 -0.227092 0.364225 -0.305579 0.144553 0.278461 0.191101 0.338431
0.187368 -0.268465 -0.0771826 0.160212 -0.180877 0.0649093 -0.113443 -0.098479 0.224016 -0.0276333 0.117755 -0.152464 -0.0329766 0.0697142 -0.0252374 -0.0418728 0.259299 0.0138232 -0.22683 -0.179155 0.172057 -0.043856 0.0648675 0.218105 0.223871 -0.190387 -0.151198 -0.0999461 0.285118 0.141729 -0.0276887 -0.135583 0.279137 -0.11325 0.179528 -0.140626 0.265177 0.00851284 -0.150964 -0.311574 -0.198856 0.220852 -0.188772 -0.0776248 -0.159015 -0.0807992 -0.0813487 -0.312203 -0.0621309 -0.0115636
-0.0788052 -0.227201 -0.0696054 -0.110697 -0.105267 0.125445 -0.105397 0.177717 0.202599 0.0545573 0.137762 -0.168762 0.171656 -0.185959 0.143743 -0.149007 -0.0056329 -0.0482319 0.232401 -0.226783 -0.0252571 -0.121612 -0.170089 0.229686 -0.0251052 -0.173605 -0.119959 -0.176399 -0.241838 -0.162983 -0.210432 -0.152433 -0.231269 -0.00748916 0.0384505 -0.0433858 0.111768 -0.110843 0.111823 -0.0636665 -0.106444 -0.127198 -0.0426029 0.0856148 0.103935 -0.0767291 0.0725873 -0.158913 -0.0509868 0.107734
-0.00127997 0.0646067 0.157636 0.117351 -0.0112188 -0.165816 -0.0101743 0.0990053 -0.0592925 -0.336057 0.144016 0.169022 -0.0910147 0.148394 -0.202432 0.137202 0.14704 -0.337165 -0.0296965 0.124015 0.0287999 -0.116032 0.247615 -0.0430443 0.267175 -0.19188 0.106004 0.11116 -0.121454 -0.314372 -0.352849 0.0051605 -0.0847329 0.165534 -0.107499 0.114794 0.329885 0.0406986 -0.104248 -0.285041 0.33615 0.0183948 0.168355 0.118878 -0.0451875 0.41947 -0.181587 0.0946926 0.551191 0.247894
0.40819 -0.244957 0.00493124 -0.174553 0.12116 0.0820833 0.042236 -0.193414 0.319098 0.14349 0.390387 -0.249315 0.0484894 0.0599914 0.422773 -0.0459971 -0.19727 0.107544 -0.215155 -0.218153 0.373659 -0.0335913 -0.282147 -0.232841 0.0806498 -0.110383 0.399078 -0.0855656 -0.365352 0.179418 0.00816542 0.0889153 0.0447637 -0.248062 -0.121953 -0.0906478 0.0585764 -0.35326 0.237474 0.199889 0.025665 -0.192723 0.0066375 -0.0180223 0.113027 0.13636 -0.137479 0.234187 0.119203 -0.0583268
0.22268 0.114659 0.0732058 0.407696 0.24214 0.293678 0.0661215 -0.26937 0.152721 -0.0315235 -0.0908656 0.199795 -0.431804 -0.229888 -0.103583 0.129193 0.0956961 -0.129304 0.205093 -0.11619 0.239415 -0.0311343 -0.172934 0.0681908 0.0205291 0.055383 0.12098 0.239348 -0.380341 -0.121448 -0.407844 0.0498225 -0.0405834 -0.000276208 0.163915 -0.160588 -0.179842 -0.141616 0.193499 -0.225289 -0.329635 -0.0131181 0.215148 0.210444 0.297259 0.27138 0.200757 -0.263362 0.323012 0.0655092
0.18168 -0.0840266 -0.0173925 0.0530912 0.120787 0.286352 -0.199297 -0.15845 0.00207332 0.0759496 0.0940201 -0.0812865 0.121883 0.0349317 -0.0545446 -0.265633 0.198541 -0.00490668 -0.0189687 0.349268 0.347578 0.103098 -0.0312315 -0.242692 0.0212072 -0.0984152 -0.121528 -0.143791 -0.0351474 -0.151533 0.302675 0.201469 -0.0368502 -0.00287283 -0.044059 0.149084 -0.101865 -0.0855701 0.207881 0.469634 -0.00961233 0.104356 0.0733248 0.209366 -0.214087 -0.246288 0.243373 -0.255561 -0.279311 0.0953524
0.585988 0.292153 -0.0617841 -0.392404 -0.0355755 0.067369 -0.0661315 0.285821 -0.0472158 0.116296 0.348592 -0.495755 0.497123 0.0855638 0.0167724 -0.118148 0.239999 -0.525462 -0.215539 0.0544863 0.0113446 -0.124297 -0.517097 0.00299556 -0.0380015 0.0750936 0.270823 0.329262 -0.409422 0.179871 -0.084896 -0.0221993 -0.154622 -0.0303249 -0.0344947 -0.240036 -0.121232 0.281709 0.0269064 0.00985901 0.0808494 -0.173065 -0.210024 -0.300318 -0.224704 0.208005 -0.146721 -0.21421 -0.221692 0.0846818
0.0231989 -0.00829634 -0.0662595 -0.0234878 0.0713886 -0.117318 -0.122859 0.142205 -0.120713 -0.0322531 0.164035 -0.433125 -0.197133 -0.0497828 0.013579 -0.396956 -0.292376 -0.117654 0.0910895 -0.0370696 0.137974 0.217387 -0.142446 -0.029122 -0.0521483 0.159342 -0.301866 0.01286 0.057015 0.189464 0.179238 0.154996 0.258187 0.336162 0.102088 -0.153289 0.446264 0.419845 0.0553507 -0.233512 -0.0208777 -0.149877 0.120178 -0.0313093 0.278266 0.243978 0.0407394 0.211591 -0.118012 0.114071
0.284257 -0.130302 -0.136191 -0.251071 -0.0626795 -0.0484172 -0.0632088 0.160095 0.20586 0.170535 0.132379 0.21411 0.354966 -0.0164074 -0.163085 0.374519 0.0653394 0.102783 0.0686649 -0.313501 -0.277931 0.167581 0.144817 0.221768 -0.163393 0.0470903 0.0787367 -0.254823 0.370976 0.0687817 0.052789 0.112291 0.0527381 0.320142 0.172659 -0.145156 0.184997 -0.0209424 -0.044256 0.174827 -0.120466 -0.218958 0.195939 -0.19153 0.162929 -0.0109483 -0.0447663 0.127321 0.0509638 -0.0558588
-0.0272191 0.305579 0.0879375 -0.200079 -0.134747 0.306092 -0.155796 0.12233 0.0624507 -0.0434958 -0.0909061 0.154398 -0.0323484 -0.0741372 0.335571 -0.141659 0.0472087 0.202941 0.107058 -0.343387 -0.0468832 0.00530773 -0.0535863 -0.210955 0.293421 0.0591118 0.424712 0.150966 0.3201 -0.115319 -0.22601 -0.014478 -0.138841 0.249763 0.180297 -0.123527 0.0920525 -0.243779 -0.149298 0.0893424 -0.22489 0.0834455 -0.211524 0.434937 0.00196511 0.0849194 0.229152 -0.122302 -0.193823 -0.260877
0.0202027 -0.0420276 0.161959 -0.0142925 -0.122726 0.27145 0.0479138 -0.00959949 -0.0841434 0.103864 0.0723956 0.0850607 0.291472 0.038218 -0.00522952 0.0131786 -0.135292 0.209588 0.122504 -0.183051 -0.142436 -0.207917 -0.0792679 0.088682 0.21179 -0.103682 -0.150877 -0.0842898 -0.142881 0.11801 0.0721724 -0.0330067 -0.209356 -0.0895312 0.124133 -0.028228 0.023365 -0.196382 0.153116 -0.102322 -0.275803 -0.197916 -0.145986 -0.221591 0.144678 -0.0425648 0.0350819 0.195019 -0.0563417 -0.101985
-0.0538701 0.217203 0.0144583 0.012727 0.231445 -0.23615 0.0638282 -0.479577 0.1571 0.503826 0.35804 0.146937 0.117681 -0.120486 0.29141 0.179144 -0.348818 -0.100601 -0.195214 -0.221472 0.155569 0.203217 -0.00149501 0.0705814 0.358208 -0.0703348 -0.152438 0.557228 -0.589146 0.355723 -0.207646 0.283474 0.239372 -0.0137486 -0.519482 0.0182705 0.103269 0.0981678 -0.250873 -0.308186 -0.117328 -0.405668 -0.0050976 -0.0457157 0.19255 -0.12493 -0.201287 -0.0743353 -0.108271 -0.135481
0.133948 -0.111668 0.23243 -0.0927827 -0.236147 0.19791 -0.238636 0.215027 0.110096 0.0233985 0.181025 -0.228263 0.339257 -0.092244 0.0998184 0.131025 -0.211091 -0.11976 -0.0323937 -0.113866 0.0314449 0.270551 -0.26217 0.214843 0.0869514 -0.236514 -0.061557 -0.037045 -0.170487 -0.0903983 -0.30636 -0.165516 0.200794 -0.0271074 0.109996 -0.161786 0.264436 0.0298884 -0.0181556 -0.025537 0.248727 0.165559 -0.107074 -0.0909533 -0.154659 -0.157609 0.0984266 0.254289 0.248984 0.0806961
-0.027751 0.276543 0.161429 0.133138 -0.157 -0.252185 0.198838 -0.154136 -0.144978 0.114197 0.0385386 0.213241 -0.0813895 -0.00133451 0.301099 0.235979 0.120262 -0.141173 0.158277 0.0630999 0.250907 -0.17732 0.153444 -0.115627 0.208886 0.235421 -0.0172461 -0.151417 -0.353194 0.0623598 -0.159047 -0.21178 0.0821043 -0.305467 -0.340595 -0.206909 0.201657 -0.139782 0.0828871 0.010985 0.570896 0.0349734 0.067339 -0.392029 0.0520486 0.120246 -0.106911 0.456541 -0.286983 0.0283063
0.15389 -0.17752 0.175828 0.0135677 -0.236501 -0.0267339 0.223149 0.177913 0.1539 -0.204305 0.242219 0.124242 0.333028 -0.195851 0.220611 -0.15154 0.221008 0.169028 -0.115773 -0.0241275 0.131435 0.16452 0.0143982 0.186428 0.194695 0.163991 -0.162265 0.223155 -0.0996759 -0.123332 0.467053 -0.187758 0.00513782 0.0280716 0.0843499 0.0431153 0.203749 -0.163022 -0.251147 0.0703557 -0.377861 -0.0378753 -0.000212819 0.0495465 -0.444417 0.0578009 -0.15916 -0.168317 -0.336541 -0.605384
-0.0448096 0.46166 0.0515551 -0.0566669 0.0970672 0.208841 -0.0653209 -0.0176879 -0.28146 0.0771573 -0.167041 0.00761155 0.380732 0.0635989 -0.255528 0.521723 -0.0520031 -0.0258898 0.00791647 -0.339306 -0.209741 -0.0336119 -0.254492 -0.151416 -0.252403 -0.138095 0.240303 -0.0963996 0.067612 -0.214808 0.227512 -0.043468 -0.0713249 -0.253514 -0.0940106 -0.0631134 -0.405063 0.00944406 -0.0999631 0.269652 0.0308952 0.265973 0.122615 0.112044 0.260583 -0.0606308 -0.132538 -0.224718 -0.0289634 0.243785
-0.0835668 -0.080341 -0.0116046 -0.0714333 -0.139497 0.194966 0.0278322 0.22581 -0.234338 0.0547985 0.187026 0.146941 -0.198025 -0.155608 -0.212416 0.196085 -0.0329124 0.155401 -0.106954 -0.138352 0.0640765 -0.185663 -0.157879 0.070975 -0.156839 -0.043989 0.06264 -0.0338583 -0.192978 -0.188581 -0.0169228 0.0325486 -0.00745297 -0.225784 0.121008 0.0803199 -0.181584 -0.109445 0.082017 -0.297759 -0.240042 -0.202386 0.209158 -0.131591 -0.0390318 -0.0852098 0.15186 0.181187 -0.0513011 0.319404
-0.271381 0.322141 0.0529218 -0.216554 -0.0787429 0.119661 -0.117372 -0.392045 0.230831 0.0327281 0.133186 -0.302337 -0.108546 -0.133664 -0.015611 0.0986784 0.0418141 -0.251721 -0.0429636 0.303305 0.155762 -0.0775692 0.0546039 -0.140183 0.195298 -0.184192 0.101659 -0.0548168 0.130211 0.133924 -0.165066 -0.382395 0.0482425 0.0586969 0.16355 -0.061989 -0.147561 0.199046 0.150831 -0.0361528 -0.11713 0.0257108 0.117093 0.133804 -0.0928463 0.23805 0.22567 0.0629367 0.167721 0.0712282
0.032656 0.883178 0.0220947 -0.534368 -0.0286309 0.25605 0.0602987 -0.16698 0.105336 0.601819 0.332544 0.560206 0.575757 -0.177817 0.628289 0.439463 0.0316507 0.0816655 -0.143171 -0.135308 -0.0600715 0.0235208 0.463513 -0.114401 0.31059 0.432603 0.18917 0.44845 -0.156054 0.161839 -0.348841 -0.410258 0.512457 0.377012 0.106284 -0.157785 0.269245 -0.235208 -0.567633 -0.313771 0.0781157 -0.590801 -0.064948 0.195053 -0.213432 0.0926167 -0.195356 0.295666 -0.585108 0.0665813
0.195625 -0.0334088 -0.00579563 0.249087 0.0940428 0.236273 -0.0540755 -0.0538818 -0.377739 -0.104621 0.367796 0.0126045 -0.0210891 -0.0269956 -0.0745503 0.321859 0.00507181 -0.0369132 0.140085 -0.244554 0.253988 -0.151359 -0.230583 -0.11295 0.0642163 0.0788868 -0.246267 0.159557 0.12112 0.0999493 0.272875 -0.0188294 -0.111463 0.334518 0.0787592 -0.0120393 -0.0339233 -0.289956 -0.2162 0.298438 -0.26411 -0.0314242 -0.0625399 0.245601 0.18982 0.405436 0.118191 -0.430673 0.0440987 -0.334397
-0.233482 0.142497 -0.0273154 -0.145943 -0.17209 -0.142251 -0.0937417 0.205631 -0.14678 -0.0373652 -0.207125 0.322577 0.133428 0.107181 -0.266486 -0.177953 0.0175882 -0.165782 0.199935 -0.217332 -0.0624616 -0.154269 0.131752 -0.0667206 -0.0982714 0.229177 -0.353976 -0.236235 -0.238019 0.0727107 0.0379235 -0.310415 -0.0759893 -0.205367 -0.0576261 0.232386 0.154636 0.18925 0.263586 0.464779 -0.14228 -0.177317 0.0876461 -0.196236 0.29299 -0.101296 -0.0144264 0.00422928 0.0195123 -0.0474592
-0.200431 0.22453 -0.208663 -0.189308 0.0837281 0.0245751 -0.209045 0.0516579 -0.0267785 -0.113642 0.270726 0.167431 -0.187768 0.0706145 -0.388794 0.167801 -0.0209473 -0.0643178 0.161958 -0.236619 -0.120457 -0.0916798 -0.303938 0.141308 -0.18512 0.151997 -0.199686 -0.237577 -0.272851 -0.240261 -0.135789 0.283814 -0.0781506 0.237753 -0.147532 -0.0770333 0.10489 0.112577 0.113647 0.10815 -0.143859 0.0811617 0.0614535 0.165337 0.10606 0.0437904 0.0600143 -0.0587817 0.0763078 0.174175
0.174225 -0.444184 -0.131565 -0.00529649 -0.118407 0.0530849 -0.123143 -0.0393874 -0.170557 0.181467 0.362947 0.161009 -0.0112315 0.0190983 -0.111275 0.121825 0.137321 0.0142822 -0.228758 0.168961 0.105548 -0.139031 0.138676 -0.0721921 -0.360599 0.366267 0.071515 -0.325713 -0.232376 -0.220055 0.306699 0.270429 0.191817 -0.0619664 -0.162735 0.0486547 -0.193907 0.147266 -0.220801 -0.0739189 0.216969 0.0131055 -0.234929 0.133269 0.310456 -0.0586992 0.0976419 0.199323 0.0794795 -0.221946
-0.352921 0.444317 -0.0102066 -0.110334 -0.0295296 0.125841 -0.11833 -0.0144108 -0.467351 0.32641 0.110874 0.130241 0.21107 0.152348 0.532389 0.0531549 -0.114876 -0.348488 -0.0889164 -0.0577277 0.40171 0.144792 0.321504 -0.0602329 -0.0809138 -0.441248 -0.324329 0.337286 -0.272132 0.100533 -0.0182524 0.214707 -0.119612 -0.0766488 -0.117311 -0.183809 -0.257743 0.356677 -0.133091 -0.222148 0.244008 -0.210842 -0.0145152 -0.35814 -0.257168 -0.137266 0.135733 0.339578 -0.151452 -0.148805
0.0374622 0.406149 0.20933 -0.0651927 0.174657 0.0527356 0.122365 -0.109218 0.121534 0.0489779 0.11894 0.345023 -0.031961 0.140902 0.232506 0.304202 -0.117025 -0.366163 0.108963 0.040105 0.153876 -0.0744892 0.297234 -0.23981 0.194459 0.231362 -0.119834 0.368555 -0.0283393 0.581885 -0.257498 0.0410423 0.305615 -0.00426368 -0.315216 0.0731453 0.250208 0.04863 -0.110754 0.0865328 0.281593 -0.499071 0.22907 -0.175305 0.127365 0.00499579 0.201008 -0.0845756 -0.244242 -0.209043
0.205721 -0.0868253 -0.0753461 0.279472 0.115045 0.28847 0.0858949 -0.158138 -0.260066 -0.0924367 0.0187025 -0.14021 -0.1298 -0.239174 -0.241221 -0.225768 -0.0756924 0.0708678 -0.0848638 -0.190192 -0.161306 0.0633303 -0.0715172 -0.0341239 0.321216 0.0479419 0.0627645 0.153822 -0.0211423 -0.0799086 -0.0698671 0.0326894 -0.111601 -0.149304 0.14754 0.153669 0.155859 -0.210445 -0.00235877 -0.183084 0.166575 -0.0729084 -0.23406 0.374622 0.0472874 0.171518 -0.110032 -0.155406 0.113157 -0.108871
-0.137877 0.389432 -0.151692 0.191131 -0.0158746 -0.0372891 0.0666484 -0.130896 -0.0305688 0.651053 0.0198628 0.107397 0.416413 0.128051 0.0825576 0.365236 -0.114695 -0.198406 0.0703284 -0.194271 -0.406057 0.0745934 0.0399576 -0.0344118 -0.280454 0.137217 0.20353 0.201124 -0.370672 -0.0821537 0.107672 -0.267522 -0.239774 0.407842 -0.123348 -0.17602 0.137583 0.138037 0.44577 -0.142098 -0.0342412 -0.00689692 -0.0784851 0.12481 -0.178435 -0.192677 0.214423 0.323736 -0.0617635 0.571552
0.126555 -0.25692 0.200052 0.0458016 0.0487321 -0.234969 0.159285 0.175953 0.210616 -0.0940797 -0.163894 0.103325 0.0973253 -0.170904 -0.0364893 -0.26534 -0.166642 0.344736 -0.18565 0.169532 -0.126861 0.318273 -0.000565377 0.0981932 0.0209954 0.0866434 -0.320429 -0.0959971 0.215497 -0.0904429 -0.228737 -0.282733 0.261411 0.125124 -0.0579322 0.0391876 -0.164224 -0.210529 0.0503117 -0.244144 0.107381 -0.166144 -0.0785137 -0.300982 0.157723 0.158787 0.11247 0.0206796 -0.0645089 0.0590021
0.0620463 0.265272 -0.0272563 -0.0483054 0.0689813 -0.516657 0.177372 0.184799 -0.111882 -0.0820835 -0.339926 0.317062 0.176401 -0.1034 -0.0753722 -0.129146 0.0675404 0.287401 0.215239 -0.140169 -0.22012 0.100235 0.396509 -0.0653565 -0.0206703 -0.031139 -0.200333 -0.265283 0.0114731 0.484506 0.452656 -0.264141 -0.04142 0.151348 0.0102668 -0.152295 -0.0400572 0.100352 0.197684 -0.119439 0.000464613 0.0290861 -0.140549 0.151934 0.261237 -0.347392 0.206864 0.233922 0.168655 0.0883259
