-0.0661471 -0.0741325 -0.0203864 -0.0545923 -0.0264696 0.0688239 -0.0636321 0.0322179 0.0121628 0.0253047 0.00114497 -0.0584567 -0.0365549 -0.00127706 0.0880658 -0.0622371 0.0823325 -0.060154 -0.0252734 0.0615062 0.0218905 0.0206005 -0.0497169 -0.0641666 0.0525005 -0.0327235 0.0117003 0.0680044 0.0709541 -0.0619674 0.00984906 0.0484175 0.0185687 0.0667009 -0.000265934 -0.0361322 0.0574757 -0.0534633 -0.0102347 -0.0426491 0.0444483 -0.0223847 0.0419838 0.0163447 -0.0445411 0.0617897 0.0472966 -0.0191676 -0.022538 -0.00478308 0.066735 -0.0613306 0.0117758 0.0571808 0.00583082 0.00055214 -0.0585575 0.0106953 0.036065 0.0871067 -0.0606139 0.0741061 -0.00870794 -0.0408031 0.0783478 0.0780398 0.0276356 0.0640915 -0.0438205 0.115679 -0.0106388 -0.0473463 0.099 0.0988207 0.0663988 0.0856526 0.0218924 0.0955552 0.0150612 0.0437749 -0.0362293 0.00146823 -0.00494685 0.0572185 -0.00562836 0.018813 -0.0240736 0.0477812 0.0237185 0.0304272 -0.00887483 0.0171144 0.0221691 0.0906474 -0.0925805 0.0105365 -0.0788435 0.0456356 0.0640669 -0.0257162 0.0657188 0.0583709 0.0383411 -0.017042 0.0972645 0.0920003 0.104102 -0.00577972 0.060251 0.0612249 -0.0624098 0.0247175 -0.0184423 0.00763899 0.0256624 -0.020828 -0.0236225 0.0267162 -0.0697965 0.0420897 0.003548 -0.0425802 -0.0439446 -0.0747737 0.0116881 -0.0480623 0.0461439 -0.101999 -0.0549303 0.0321209 0.0449955 0.0609126 -0.0336739 -0.0361405 -0.0792726 0.0581598 0.0347883 -0.0868599 0.0637174 -0.0651674 -0.0558675 0.0372885 0.0368632 0.0322313 0.0268375 0.00200037 0.0463898 -0.0395782 -0.0309309 0.0352119 -0.0484431 0.0512821 0.0261201 -0.0231089 -0.0320952 0.0122665 -0.0761628 0.0310268 -0.00841432 -0.0390272 -0.0889235 -0.00723348 -0.018431 -0.141397 -0.0536215 -0.0759679 -0.0656324 0.0677189 0.0177964 0.00270101 0.0203033 0.0156583 -0.0544566 -0.0886254 -0.0530193 -0.0712429 -0.0730589 0.0499936 0.0826996 0.0463792 -0.0293644 -0.0507036 -0.0611715 0.0445783 0.0176441 0.0975208 0.0394546 -0.00265357 -0.0218419 -0.172257 -0.160448 -0.0376524 -0.0152378 -0.0805019 -0.042419 -0.0334695 -0.0578647 -0.0650206 0.0647803 -0.0168722 0.0492993 -0.0634149 -0.0991249 -0.0554221 -0.0259582 -0.00315768 0.0821584 -0.078133 -0.0741978 0.0158164 0.0216993 0.0828234 0.0757492 0.00505441 0.0470907 -0.135915 -0.0700002 -0.0824099 -0.00626563 -0.142667 -0.00402328 -0.0345132 -0.0658113 -0.0659199 -0.0153333 -0.0652078 -0.0568853 0.00583054 -0.0759349 0.00528485 0.014579 -0.00895986 -0.0178728 0.0728488 -0.043846 -0.0503472 -0.0375763 0.0530664 0.0506164 0.092959 -0.00574409 -0.102662 0.0232709 -0.057763 0.0491467 0.0488089 -0.140173 -0.0321114 -0.0821294 -0.0862569 -0.0443738 0.0479711 0.0369288 -0.0694769 0.0270633 -0.0146205 0.0515847 0.0294076 -0.0791404 0.0127849 -0.0420057 -0.0184879 0.00128812 -0.0470433 -0.102607 -0.0797808 0.015183 -0.153177 -0.0666576 -0.124945 -0.13912 -0.0331247 -0.069849 0.0253809 -0.000868568 -0.0177542 -0.0258062 0.0370647 0.0703295 0.0459327 0.0503526 -0.0355567 -0.0117501 -0.0580247 -0.10709 -0.0477792 -0.0175131 0.0537749 0.118652 0.0920828 0.0796179 -0.100437 -0.144563 -0.12141 -0.120485 -0.064358 -0.115335 -0.0828417 -0.0859685 0.0344323 -0.0816234 -0.0578753 -0.0578598 -0.0772573 0.0170691 -0.00144437 -0.0819012 0.0294699 -0.0426616 0.0128583 0.0717794 -0.0502009 0.0742017 0.00497315 -0.0201904 -0.00697751 0.152359 0.196309 0.182034 0.0954521 -0.0613115 -0.0304126 -0.0211072 -0.001564 -0.0810559 0.0480397 0.0493492 -0.013414 0.0817571 0.0031651 0.109011 -0.0784741 -0.0520879 -0.0300272 -0.031287 0.0237164 0.0787846 -0.0636431 -0.0727278 0.0430109 0.0564233 0.0626663 0.115827 0.0514556 0.0924472 0.206091 0.114146 0.0755608 -0.0891475 -0.166873 -0.0289072 -0.0312085 0.00910852 -0.0195634 0.0437713 0.0800496 -0.0283748 0.0850039 -0.0192904 0.000258649 -0.0275187 -0.0898274 0.0477875 0.0813825 0.0317385 0.0802779 0.0803667 -0.0596313 -0.003342 -0.0261026 0.0463485 0.0816161 0.0698029 0.131889 0.249373 0.116906 -0.0839458 -0.131318 0.0542889 0.108663 0.0469932 0.0659344 0.145123 0.0851573 0.0442897 0.0642575 0.0948996 0.0555877 -0.0770022 0.0330493 -0.0680152 -0.0482417 0.0296488 -0.0557923 -0.0571395 -0.0319695 -0.0654696 -0.0905485 0.027366 0.0626822 0.154254 0.0840557 0.0509564 0.124965 -0.0072761 0.0116226 -0.0530466 0.0200047 0.0369448 0.0693023 0.084291 0.00967675 0.0864808 0.0644342 0.0178377 -0.0124364 -0.0676272 0.0164115 -0.0336095 0.0474467 -0.0620244 0.0203663 0.0819614 -0.0760879 0.00954468 -0.0241266 0.00173818 0.119475 0.118483 0.0128334 0.00419433 0.0377849 0.0817697 -0.0177019 -0.0521132 -0.0501335 -0.0879023 0.0371545 0.110516 0.126639 0.0238982 0.10382 -0.0111467 -0.091102 0.00912497 -0.0189393 -0.020057 0.0494443 -0.0127425 -0.0479966 0.0115527 -0.0790874 -0.155114 -0.105743 -0.051777 0.0734529 0.137485 0.0911143 0.0935569 0.0889358 0.0993515 0.00017291 -0.0902345 -0.0774202 -0.0802203 0.0144799 -0.0259177 -0.00681841 0.016204 -0.0690348 -0.0696436 -0.117718 -0.131439 0.0528496 0.0114307 -0.0564548 -0.0342533 -0.0246705 -0.0786519 -0.108757 -0.0643124 -0.102577 -0.0376882 -0.079971 0.0040991 0.0635099 0.168602 0.194331 0.158988 0.0926416 -0.103132 -0.0762335 0.0359992 0.0521693 0.0465061 0.0811019 0.0746709 -0.0295806 -0.0172154 -0.0500018 -0.132869 -0.00961949 0.0272 0.0761939 0.0811439 -0.0533863 -0.0309016 -0.00813187 -0.013579 -0.1221 0.00265325 -0.0352229 -0.0486987 -0.0012631 0.134598 0.0666915 0.0757045 -0.0054944 -0.0162239 -0.0329315 -0.00287956 0.0103989 0.00790178 0.0881262 -0.0451564 0.00693233 -0.0550181 -0.127608 -0.0364455 -0.0824519 0.0163782 0.0443394 -0.0362488 0.0658635 0.00634927 0.0329239 -0.141728 0.019133 -0.0621957 0.0476721 -0.0185455 0.085011 0.0495142 0.0906848 0.066466 0.0155714 -0.0629464 -0.0270129 0.0301763 -0.0196844 -0.0609934 0.0606251 -0.0209142 -0.0171738 -0.110097 -0.105843 -0.0645237 -0.0128554 -0.0185251 -0.0278354 0.0257253 -0.0622057 -0.047631 -0.0709836 -0.0177365 -0.0706145 -0.146457 -0.0393288 -0.134495 -0.117767 -0.147198 -0.0366248 0.0550321 -0.0548528 0.0956451 0.0390982 -0.0637371 -0.029776 0.00937975 0.0180889 0.038651 -0.0553179 -0.0932095 -0.0784961 -0.0352969 0.0177991 0.0868263 0.0725004 0.0449358 0.0178929 0.0443633 0.0113317 -0.110769 -0.0506429 0.0243744 -0.0095719 -0.0868897 -0.0260041 -0.0527888 -0.100524 0.0688261 0.021296 0.0743508 0.0336791 0.0337037 0.0258374 0.0185966 -0.0217782 -0.0246447 -0.0758063 -0.0340935 -0.0132111 -0.0137196 0.00927007 0.0576778 0.0474541 -0.000333656 -0.0603442 -0.0345939 0.0104219 -0.0745838 -0.0700816 -0.0177267 -0.0744805 -0.141866 -0.0590405 -0.146138 -0.0113925 0.0707599 0.0440954 0.0416622 0.0208459 0.013949 0.0610157 -0.0382482 -0.011822 -0.0644635 -0.0237879 -0.0798868 -0.0783183 0.0372443 -0.063045 -0.0661967 0.0615939 -0.0351839 -0.037566 -0.0256017 0.0575918 -0.0593062 -0.0819523 -0.0491702 0.0372652 -0.0755598 -0.131241 -0.0905209 -0.0767738 -0.0807422 -0.0493589 -0.0115284 0.00368944 0.0800856 -0.0178141 0.0325682 -0.0447467 0.104425 0.0122822 -0.0583801 -0.00705651 0.0423014 -0.0599766 0.0387249 -0.0705721 -0.00204446 -0.0423843 0.0888549 0.047002 0.0825054 0.0430868 0.053898 -0.00251993 -0.0187794 -0.102386 0.0102685 -0.0470322 0.031264 -0.0756811 -0.0485226 -0.10616 -0.0308277 -0.00794793 -0.0361839 -0.00103745 -0.018184 -0.00645268 0.0204216 0.0376469 0.0517288 -0.070172 0.0741152 0.0660293 0.000360059 0.0593385 0.0214681 0.0398723 0.0143644 0.00579812 0.0226153 -0.00776458 -0.0348517 0.058679 0.103783 -0.0412494 -0.0245084 -0.0332132 -0.0158075 -0.044756 0.0714108 0.0148304 0.0611874 0.147209 0.120328 0.122564 -0.0585442 -0.0566946 0.0110349 -0.0164512 0.0332203 -0.069129 0.0273388 0.0549308 0.087048 -0.0174469 -0.0255175 0.0455561 0.00311873 0.107521 -0.00598512 0.0133731 0.0998736 0.0216123 0.127819 0.0505307 0.102873 0.141434 0.00540255 0.127485 -0.0342541 0.0901214 -0.00142752 0.0153452 0.0584463 -0.0541205 -0.0159968 -0.0225394 0.0689003 0.0909213 0.0898919 0.0911444 -0.0560741 0.00610007 -0.0162019 0.0625325 0.0610251 0.051145 -0.0384283 0.00426495 0.0970169 -0.0452826 0.036705 0.0875955 -0.0234512 0.0292749 0.0372259 0.0802547 0.0247842 -0.0495465 -0.0419641 -0.00610303 -0.0303404 -0.068583 0.0722144 -0.0575772 0.0295657 0.0212053
0.0469486 -0.0162017 0.0129539 -0.055403 -0.0573454 0.0499169 0.0598591 0.0199789 -0.00829674 -0.067179 0.0386537 -0.0259073 -0.039866 0.092098 0.050205 0.0253192 0.00195372 0.0124662 0.0590435 0.0780796 0.0721832 0.00449052 -0.0479306 -0.0641684 0.0252709 -0.00361087 -0.00647478 -0.0238281 0.0396253 0.00850769 0.0776433 -0.0520268 0.0499564 -0.0415595 0.0944572 0.0245213 0.0759255 0.0375182 -0.0405004 -0.0620336 0.0299603 -0.0545022 0.0595738 -0.0250382 -0.018669 -0.060196 -0.0525856 -0.00304609 0.0187165 0.0292183 0.0244189 0.0225831 0.0577247 0.0932867 0.0404696 0.0522481 0.0543953 0.0269327 -0.0125951 0.05901 -0.0195603 0.0129485 -0.0553148 0.0700866 -0.0139187 -0.0412347 0.0430208 -0.024925 -0.0366415 -0.0815495 -0.0337879 0.0290461 0.0427117 0.0321217 0.0333999 0.0841587 -0.0505618 0.0127853 0.0364002 -0.0308581 -0.0534917 -0.061229 -0.0124513 0.0430694 -0.0117744 0.0145894 0.0356114 0.0428183 -0.00757541 0.0726352 0.00541186 -0.0216984 0.0618136 -0.0277108 -0.0642134 -0.0752908 -0.0478302 -0.0579475 -0.0152505 -0.053139 -0.00669038 -0.0641907 -0.0763444 0.0798882 -0.0604209 0.0643682 0.101339 0.044277 0.0212385 0.0304877 -0.0433901 -0.000721853 -0.0312076 -0.00958984 -0.0394936 -0.0114687 0.0360839 -0.0588433 0.0195546 0.00599901 -0.00596636 -0.0112292 -0.0530839 0.0245409 0.0151322 -0.0805318 -0.254388 -0.191446 -0.119521 -0.0971998 -0.0739872 0.0822887 0.0262861 0.0627194 0.0986947 0.105495 -0.06838 -0.0247315 0.0305232 -0.00697965 0.0315907 0.0984109 0.0220856 -0.0557443 0.0401577 0.0348864 0.114527 -0.0249151 -0.0610804 0.0846848 0.0243001 0.0686319 -0.0635046 -0.174528 -0.101393 -0.103922 -0.126911 -0.113882 -0.146345 -0.0192493 0.0487389 -0.00347706 0.0357722 -0.025389 0.0576669 0.0820916 -0.00275095 0.0175876 -0.0372317 0.0871062 0.018364 -0.0554235 0.0825807 0.0757103 0.0225118 0.0355742 -0.0576555 0.0367415 -0.00477484 0.0203491 -0.0586711 -0.0179826 -0.0905262 -0.176948 -0.14459 0.00319028 0.108867 0.0443945 0.0975424 0.018336 0.0359377 -0.0442537 -0.00201723 -0.0117409 -0.044023 0.0734717 0.0362983 0.0130878 0.0505923 0.0559602 0.0172068 0.0295132 -0.0169505 0.00248877 0.0214194 -0.0335 0.0307085 -0.0391203 0.0129226 -0.0151686 -0.0805939 -0.222796 -0.125753 0.071525 0.10241 0.101124 0.0743521 0.0645182 -0.0588249 0.047885 0.0465077 0.0532497 -0.0351671 -0.0424462 -0.030137 -0.046133 0.0106882 -0.027644 0.0432873 -0.0491011 -0.0634344 0.0660037 -0.0485945 -0.0483741 0.00444908 0.108889 0.108373 0.0837121 0.0127052 -0.168637 -0.0636184 0.157347 0.110057 0.0391216 0.0642653 0.013132 -0.0312904 -0.0611569 -0.117216 -0.0900528 -0.0612935 -0.0361397 0.0621098 -0.0338828 0.0104861 0.0173577 0.0853366 0.124775 0.104554 0.108772 0.139498 0.0784234 0.0707285 -0.00999757 0.0591056 -0.0282366 -0.156415 -0.180015 0.00587266 0.217031 0.235199 0.0846534 0.117884 0.03104 0.0347559 0.00988611 -0.0937319 -0.0194418 -0.044576 -0.0316269 -0.058245 -0.0504469 0.0435868 0.0366699 -0.0392973 0.0992007 0.0869669 0.0538994 0.0159783 0.0581769 0.00998607 -0.0495461 0.0308936 -0.09053 -0.252787 -0.130483 0.0208571 0.222427 0.197621 0.111257 0.0943241 0.0636135 0.0842958 -0.0880032 0.00664936 -0.0528925 0.00845726 0.0957112 -0.0393092 0.0185095 -0.00500277 -0.0358332 0.030145 -0.023595 0.076846 0.0514372 0.027687 -0.00458714 -0.0913445 -0.0456092 -0.172623 -0.286769 -0.158074 0.0607243 0.0730481 0.17333 0.047121 0.0568793 0.0445606 0.00555988 0.025214 -0.0451234 -0.0896086 -0.0724728 -0.0201361 0.0489378 0.0578106 0.041595 -0.0325015 0.0860714 -0.0250354 -0.0764056 -0.0617333 0.0457289 -0.0291227 -0.0755266 0.0454384 -0.10399 -0.132744 -0.193703 0.0155075 0.0499575 0.231866 0.0797377 0.166014 0.0321149 0.0334655 0.0532619 0.0761566 0.0865024 -0.036692 0.0128683 -0.0300373 -0.0454917 0.018689 -0.0040693 0.106388 -0.0134586 0.070932 0.0177442 -0.0110622 0.00923904 -0.0361524 -0.149644 -0.165236 -0.147216 -0.206737 -0.100583 0.0965762 0.116784 0.134089 0.120198 0.125379 0.100945 0.0313401 0.0277502 0.0443045 -0.00781293 -0.12897 -0.0743101 -0.055265 -0.0529799 0.0195681 0.0413887 0.0637189 -0.0345692 0.0446436 0.0578936 0.0647687 0.0579421 -0.0131072 -0.168553 -0.0130257 -0.055848 -0.102429 -0.0301629 0.0399487 0.166798 0.0679324 0.0618517 0.140144 0.261652 0.0707083 0.0465557 0.0624534 -0.00261876 -0.0833568 0.0240545 -0.0357572 -0.044849 0.0656968 -0.00912079 -0.0107179 0.0345619 0.0762012 0.0417807 -0.0737679 0.0429597 -0.0253159 0.0158919 -0.0250804 -0.10783 -0.134506 -0.152825 0.0330032 0.100864 0.00866937 0.160823 0.0244353 0.168557 0.0440361 0.109767 0.0340428 -0.0156214 -0.00216097 -0.0644283 0.0920225 0.000487577 0.0977735 0.0564742 0.0794763 -0.0462034 0.0141277 -0.0302841 0.101457 0.0911325 0.0175745 -0.0146028 -0.0625808 -0.0473946 -0.103681 -0.029725 0.0643613 0.0245711 -0.0507181 -0.0774865 -0.011612 0.0396799 -0.0214602 0.0499969 0.0307258 -0.151001 -0.0350794 0.0623788 0.028815 -0.02345 0.0869571 -0.0373706 -0.0126328 -0.0413529 0.00283549 0.024097 -0.0652599 -2.56508e-05 -0.0193531 -0.00319335 -0.0131233 0.0310373 -0.106091 -0.0456469 -0.0202932 0.0390464 -0.0155248 -0.0399482 0.0756115 -0.0342886 -0.0119819 -0.0479865 -0.0851625 -0.100309 -0.0353307 -0.0609734 0.0597533 -0.0649944 0.0132941 0.00889909 0.0633385 0.0507272 0.048579 -0.0359951 -0.124283 -0.0627702 -0.0780713 -0.13481 -0.086431 -0.131334 -0.104226 -0.135281 -0.119877 -0.00717342 -0.0248225 0.0820461 -0.0915724 -0.0961981 -0.102789 -0.048213 -0.0365296 -0.0941484 -0.0635871 -0.077417 0.0965098 -0.0508172 -0.0471457 0.00914493 0.0861304 0.0402919 0.0172343 0.0197092 -0.0927895 -0.0365383 -0.0160311 -0.107942 -0.107968 -0.125616 -0.207865 -0.0503982 -0.105731 -0.0347179 -0.0129374 -0.0563421 -0.129241 -0.0956238 -0.020734 -0.0833131 -0.197237 -0.0399325 0.0192855 -0.0379078 -0.00608557 0.0885654 -0.0321946 -0.0162438 -0.0056088 0.0566913 0.0299257 -0.126746 -0.0304146 -0.0166189 -0.0920897 -0.174863 -0.0924857 -0.039019 -0.115993 -0.135486 -0.122799 -0.0911301 -0.0238601 0.00540585 -0.0116623 -0.119699 -0.00318455 -0.16978 -0.193846 -0.113075 0.0365831 -0.0776105 -0.0644158 -0.032505 0.0414676 0.00975064 -0.0680771 -0.0636371 -0.059795 0.00693567 -0.142882 -0.08601 0.0324847 0.0481586 0.0610508 -0.0575886 -0.0590936 -0.0291331 -0.0103478 -0.114875 -0.0843479 -0.0226584 -0.00290889 -0.0713261 -0.0811646 -0.0536787 -0.0590518 -0.0291902 -0.0103474 -0.0460245 0.0669872 -0.00820234 0.0619494 -0.0450043 -0.0742829 -0.0137913 0.0193981 0.0457824 0.0502919 0.0249294 0.00399675 -0.0394486 0.0288697 -0.0729243 -0.0635467 0.000462406 -0.0521808 0.0103056 -0.171859 0.0418694 -0.062667 -0.0316741 -0.0441372 -0.0943539 -0.0629304 0.0448178 0.00251593 0.0381679 -0.0557631 0.0881452 0.0173012 0.0423972 -0.0101468 0.0703706 0.0101657 -0.0587409 0.115991 0.0907514 0.0251605 -0.0741173 -0.0361966 -0.0782725 -0.0220947 -0.120055 -0.0022377 -0.0603671 -0.0708305 -0.06784 0.0301298 -0.0762695 0.0162095 -0.0474847 -0.0459201 0.0662779 -0.0251204 -0.0112635 -0.0421825 0.0472497 -0.0602469 0.0356635 0.0599429 -0.0659512 0.0184373 0.0603361 0.0738267 0.135924 0.0256596 -0.0603778 -0.0325765 -0.00142237 -0.0609158 -0.0682454 -0.123162 -0.0952173 -0.0560772 0.00125119 -0.0228129 -0.0519842 0.0955396 0.0888525 -0.0478728 -0.0641418 0.0246887 0.00803528 0.0231783 0.0518272 -0.0604248 -0.0165908 -0.015914 0.0405202 0.0943391 0.0168761 0.0645918 0.0270159 0.0254932 0.0258486 0.0300725 0.0343718 -0.0235993 -0.0889517 -0.0365176 0.028231 0.0245361 0.0240965 0.00476151 0.0078896 0.0688705 0.034124 0.061233 0.0548487 -0.0304584 0.083264 0.0851193 -0.0417888 -0.0247254 -0.0170504 0.0161426 0.0315593 -0.0618231 0.0594515 0.0981355 -0.0699934 -0.0536416 0.0989832 0.0345654 -0.025014 -0.00843511 0.00900039 -0.00964266 0.0674266 0.0189341 0.0351052 -0.00254322 0.0432029 0.0289408 0.0569574 0.0296568 0.0438253 -0.0643717 0.00743881 -0.00843485 0.0239918 -0.026531 0.0867265 0.00895954 0.032177 -0.0359207 0.0480856 0.0579739 0.0228414 0.0109594 0.0714089 -0.033181 -0.0398696 0.0772518 0.0556985 -0.0204167 0.0218516 -0.0161795 -0.0448935 -0.0416878 0.00357609 0.0790129 0.0659739 -0.0442342 -0.0177703 -0.0383185 0.0375614 0.0943039 -0.0637592
0.0262683 0.0237752 0.0808753 0.0795122 0.0623744 0.051531 -0.00856118 -0.0337087 0.0388578 -0.0307179 0.071722 -0.047786 0.0182748 -0.0131367 -0.0133434 -0.0584117 -0.0236444 -0.0439441 0.0841348 0.00772102 -0.0805903 0.0221006 -0.0561965 0.0164366 -0.0701534 -0.0667948 0.0306717 0.0712171 -0.0557063 0.0135365 -0.0720152 -0.0734132 -0.0663832 0.0796012 -0.0051676 -0.0715043 -0.022156 0.0120569 -0.00262803 0.0646197 0.0117937 0.0635017 -0.0112551 0.0441388 0.0395504 0.049316 0.0686615 0.00685633 0.0114819 0.0424551 -0.00653427 0.0148417 0.0309567 -0.0517338 -0.0643701 0.0361556 0.0448033 0.0623974 -0.0298004 0.0601169 -0.0424586 0.00952805 -0.0717269 0.0810028 0.0774838 -0.0450221 -0.0499545 -0.0384624 0.0361596 0.0252583 0.010264 0.0678429 -0.0548384 0.0674158 0.00151022 0.0355512 0.00546407 0.0306041 0.0527218 0.086079 -0.0718769 0.0604976 0.0212574 -0.0363613 0.0271057 0.056609 0.050231 0.014091 -0.0550223 -0.0327959 0.0836636 -0.0821824 -0.0200473 0.0491836 -0.0323757 -0.0659543 -0.0676837 -0.0675695 -0.0519074 0.0378304 0.0272886 0.026615 0.0286862 0.0162845 0.0293449 0.00138995 0.0546143 -0.043321 0.0539568 -0.0630149 0.00649424 0.0383484 0.00834989 0.0337677 0.0103326 -0.0473875 0.0520085 -0.0313779 -0.0711098 0.00537912 -0.0354846 -0.0239495 -0.00118532 0.00805507 -0.0913871 -0.0505156 -0.0849899 -0.0893438 -0.11521 -0.077317 -0.0425846 0.0154852 -0.0294594 -0.0983792 0.0372893 0.0301082 0.0507242 -0.0537473 0.0417792 -0.0535589 0.0457136 0.040487 -0.0515144 -0.076478 0.0163231 0.0843698 -0.038398 0.052149 0.0104785 0.0458982 0.0638958 0.100763 -0.0065109 -0.06198 0.0725494 0.0118764 -0.0364159 0.00709551 -0.117065 0.0239527 0.0241243 0.00358379 0.0563632 -0.0271565 -0.0650202 0.0383819 -0.0820559 -0.0527507 -0.0119754 -0.0309963 0.0692944 -0.0525945 -0.0683248 0.00413431 0.0477755 -0.0243756 -0.0283998 -0.0348245 0.0389663 0.0664845 0.0498624 -0.0305525 0.0552508 -0.0179542 0.0587519 0.131547 0.240009 0.128873 0.0149626 0.00697908 0.00920771 0.0934207 -0.0227043 0.0886761 -0.0179972 -0.0212319 -0.00934243 0.0251588 -0.0473853 -0.0768204 -0.0456022 0.017351 0.0404491 0.0475451 -0.0705785 0.0343695 0.0214862 -0.0234408 -0.0742833 -0.0173993 -0.0790032 0.0313781 0.0112031 0.126464 0.122642 0.114696 0.0970222 0.105963 0.0908027 0.0565225 0.0619288 0.0342035 -0.0557448 0.0778045 0.0821564 -0.0320213 0.0131511 0.0552154 0.000796746 0.0583389 -0.0822766 -0.0338072 0.00612034 0.00109834 0.0581466 -0.0243824 -0.00543493 -0.0426236 0.106308 0.0692083 -0.0526669 -0.0261564 0.0511449 0.142378 0.0487845 0.104494 0.078621 0.0880665 0.130047 0.0197198 -0.0335012 -0.0291376 -0.00194389 -0.0557309 -0.0491861 -0.00471784 -0.0634522 -0.0605438 -0.0822555 -0.0257164 -0.0232719 -0.0424159 -0.0189426 -0.0967683 -0.0856618 0.0290469 0.0409289 0.0127372 0.0829999 -0.05307 -0.0325583 0.0985463 0.14702 0.118032 0.033858 -0.047259 -0.0433378 0.00310979 0.0024176 0.0222794 0.0175149 0.0825506 0.0293731 -0.0845752 0.0524484 0.0169815 0.0668911 -0.117088 -0.0121643 -0.00331733 0.0117434 -0.0888277 0.0629631 -0.0358523 -0.0813716 -0.0197207 -0.0353033 -0.0955057 -0.0405916 -0.118125 0.00933466 -0.0461375 0.0288792 -0.0421774 0.0355527 0.0546915 -0.0355929 0.00420018 0.057881 0.0120304 -0.0778206 -0.0879406 -0.0132936 -0.0527237 0.0017009 -0.0596055 -0.0192598 -0.0852329 -0.0827094 -0.0598649 0.0902552 0.0336472 0.0516999 -0.0168055 -0.0599052 0.00817051 -0.204902 -0.235065 -0.143254 -0.0368733 -0.00376556 -0.0251551 0.0202952 -0.0869352 -0.0849451 0.014806 4.11746e-05 -0.0516951 -0.0417038 0.0536147 -0.0615091 0.112689 0.0599781 -0.0990515 0.0218869 -0.024888 0.0560267 0.0211758 -0.0779313 0.0606773 0.0916947 0.0681016 0.0738596 0.061436 0.0433437 -0.0636711 -0.0503961 -0.020358 0.035669 0.00820156 -0.00213786 -0.0774298 0.0696516 -0.0558993 0.000407468 0.0578533 0.00163022 -0.0217747 -0.00386514 -0.0360288 0.0475087 -0.0862604 -0.0998909 -0.0463786 -0.0276518 0.00311088 0.0362997 -0.0407039 0.03016 0.0648074 0.0116206 0.0936747 0.0338699 0.0810139 -0.000705018 0.0677512 -0.0391346 0.0103255 -0.00665074 -0.0455952 -0.0726371 -0.0248278 0.0693952 -0.0365993 0.058266 0.081328 -0.0634999 0.0558507 -7.40445e-05 0.022865 -0.0610644 0.0269979 -0.0421642 -0.0140728 -0.0893797 -0.00806495 0.0174367 0.0153701 0.125375 0.0918284 0.037443 -0.0238267 -0.0243179 0.00262667 0.0477464 -0.0405806 0.0451694 0.0185356 -0.0265896 0.0465097 -0.0255913 0.0395477 -0.0157717 0.0300026 -0.0116068 0.0866822 -0.0542092 0.028349 -0.0242441 -0.00879797 -0.0696397 -0.0886252 0.0220146 -0.0331137 0.0677594 0.0192737 0.0671177 0.0892041 0.10177 -0.0679785 -0.0024692 -0.00278898 -0.00705466 -0.0673454 -0.0404385 -0.0279136 0.0602308 0.00725586 0.0422771 0.0488321 -0.0608112 0.0642966 0.00380587 0.037596 0.00654401 -0.0419155 0.00237492 -0.0649164 -0.118546 -0.0523223 0.0245463 0.0883691 0.00841905 0.087446 0.11336 0.0782325 0.0299207 -0.0441234 0.0629534 0.0624194 -0.11109 0.0146133 0.0466953 0.0290486 -0.0530342 0.0776667 -0.00997679 0.0741513 -0.0383104 -0.0454278 -0.0201434 0.11054 0.115408 -0.0311976 0.0880524 0.00140138 -0.000163434 -0.0544766 0.0144615 0.0535828 -0.0445767 -0.00734223 0.0954102 -0.0149275 0.0066828 -0.0176286 -0.0255961 -0.0703398 0.0370071 -0.0520842 -0.00721438 0.00171897 -0.0132418 -0.0609072 0.0677701 -0.0583951 -0.0776082 -0.0454776 -0.0433788 -0.102013 0.0500288 0.0570391 0.0709126 0.0952447 0.0907816 0.044789 -0.0133244 0.0246113 0.0397209 0.0378059 -0.0581424 -0.00146423 0.0479758 0.0612773 0.0432119 -0.00319546 -0.092569 -0.0896809 -0.021143 0.0503687 -0.0670175 0.0690611 0.0390539 0.0605588 0.0641556 0.00173928 -0.00105218 -0.120836 -0.0455302 0.0355216 0.0772184 0.0232777 0.0497228 0.0738711 0.0723179 -0.0226526 0.0139931 -0.00287527 0.00456312 -0.0535249 0.113886 -0.0796894 0.00809753 0.0275446 -0.0356143 -0.0331097 0.000623423 0.0433459 0.0550486 0.0110409 0.0640711 -0.00936568 -0.0403004 -0.0274651 -0.0413485 -0.0362373 0.0296071 -0.0520017 0.0443817 0.137859 0.137876 0.203157 0.0885071 0.0807506 -0.00830059 0.0355174 0.00507771 0.124659 0.0927903 0.075006 -0.0477829 -0.0185589 -0.037264 -0.0424298 -0.052333 -0.0524978 0.0701421 0.0390576 -0.0568595 -0.0236627 -0.0725167 -0.0519356 0.0443266 -0.0627675 -0.0128104 -0.127125 -0.0215653 -0.0106451 0.11816 -0.0258829 0.0367261 0.0906166 0.0515114 0.0192605 0.0293622 -0.0102787 0.089919 -0.00822234 0.0331341 -0.0949655 -0.0224471 0.0376489 0.0399271 -0.012887 -0.0335851 -0.0672952 0.080031 0.051778 -0.0478164 -0.0281463 -0.069901 -0.0721995 0.0438748 0.0477636 -0.0153272 -0.0772531 -0.104224 -0.0686545 -0.087285 -0.000306007 -0.0463083 0.0274906 0.0713857 0.03939 0.0188469 -0.106705 -0.0270427 -0.0589174 -0.084247 0.0063759 -0.0313903 0.0312722 0.00582006 0.073575 0.0433164 -0.0293581 0.0569032 0.0254282 -0.0143738 0.0109911 0.050224 -0.0688032 0.00321729 -0.0756222 -0.127498 -0.0928257 0.0467865 -0.108787 -0.0184149 -0.0445715 -0.0117822 0.0378947 0.0221072 -0.0494991 0.0327373 0.0844907 -0.0545924 -0.0867642 0.0229116 0.0331422 0.0805453 -0.0124695 0.0249845 0.0169927 0.00471657 0.0627195 0.0798145 0.055022 0.0790494 -0.0330657 0.0804119 -0.0333334 -0.0902262 -0.0304239 0.0145918 -0.0430881 -0.0499234 -0.00930953 0.0226986 0.0027592 0.0562029 0.115931 -0.0295575 -0.047406 -0.00484801 -0.0436141 0.0313587 -0.0479844 0.0416547 -0.0301415 0.00979648 -0.0202596 0.00178893 0.0490858 -0.0267288 0.0375147 0.0336428 0.0604806 -0.0238022 -0.0799293 0.0214222 0.0515712 0.0718239 -0.00767302 -0.022046 -0.0224145 -0.00346147 -0.0162464 -0.0348532 0.0816123 0.0229939 0.0593792 0.0683095 -0.0152275 -0.0502328 -0.0468636 0.0378817 -0.0265748 0.0336918 -0.0521955 -0.00314311 0.00377228 -0.0518801 -0.000850459 0.0293498 -0.0505056 0.0058037 -0.0649152 -0.0182297 0.0863811 -0.0705823 0.0534447 0.0602593 -0.0685477 -0.0614307 0.0521651 0.0508617 -0.0571649 0.0709597 -0.0140636 -0.0489637 0.074696 0.0380617 -0.015707 -0.0780675 -0.0274071 0.0503999 -0.0298461 -0.0105726 0.0377106 -0.0470383 0.0834937 0.0575622 0.0640678 0.0427799 -0.057507 0.0442155 0.0712049 0.0568297 -0.0215238 -0.053292 0.0203144 -0.0491695 -0.0226712 -0.0592117 0.00135234 0.0317834 0.0182617 0.0156698 0.0555938 -0.022487 -0.0555061 -0.0427238 -0.0309362
0.0318341 0.0655635 -0.055647 0.0443177 0.0341916 0.0383569 0.0580162 -0.014698 -0.0593701 -0.0616922 0.0598758 0.0202949 -0.013563 0.0271389 -0.0356979 -0.00601241 0.0244537 0.00869674 0.0321031 0.0225365 0.0106582 -0.0399433 0.000959968 -0.0212365 0.0383581 -0.00642148 -0.08062 0.0646815 -0.0120398 -0.0248723 -0.0314846 -0.0702119 -0.0288289 -0.047215 -0.0212143 -0.0187589 -0.060125 0.0278541 0.00172666 0.0043045 0.00209391 -0.0244343 0.0379814 -0.0468052 0.0567978 0.0811504 0.0142716 0.0170664 -0.0368174 0.0748552 0.0209878 -0.0666868 0.0555158 0.0838247 -0.0490681 0.0265112 -0.00747708 0.0320644 -0.0506857 -0.0401228 -0.0404732 -0.0788801 -0.016977 -0.0716902 0.0133686 0.0634249 0.0552173 0.0553733 0.075214 0.054988 0.00993482 -0.00429585 -0.0221545 -0.0602921 -0.0555583 0.0460297 -0.0384788 0.0103128 0.0411019 -0.0543079 0.0721266 -0.0399625 0.0590729 -0.0410849 0.0555471 0.0136633 -0.039394 0.066786 0.0456051 0.082479 -0.0513726 -0.0362162 0.0812294 -0.061584 -0.0271398 -0.0206072 0.107284 0.0165021 -0.00537655 0.105696 0.0680124 -0.0520186 0.0703583 0.0152349 0.107638 0.0414354 0.0531542 0.0530753 -0.06207 0.0768027 0.0704039 -0.028578 0.0347331 0.0789535 0.0739623 -0.0447333 0.0457382 0.0145473 -0.0788458 -0.0124016 -0.0289917 0.171215 0.0522655 0.107347 0.062842 0.127911 0.133946 0.157045 0.115521 0.125239 0.0567375 0.0553089 0.075016 0.0267143 -0.0300965 0.0200461 0.035016 -0.0225463 -0.0756436 0.00466755 0.00151018 -0.0462594 -0.0366616 0.0748991 -0.0473639 -0.0147899 0.0549996 0.0373044 0.0571334 0.0964635 0.0555164 0.057176 0.13271 0.099192 0.103112 0.121374 0.111209 0.137882 0.0501875 0.119113 -0.0299967 -0.0663077 0.061076 0.0585916 0.000535914 0.0841241 0.0320237 0.00276547 0.0335398 0.0333309 -0.0709359 -0.0353531 0.0159039 0.0784989 0.00642007 0.0590611 -0.0678498 -0.0206667 -0.0533141 0.0358996 0.013882 0.0652917 0.0556924 0.0396815 0.0327419 -0.00990582 -0.0358802 0.134399 -0.0200718 -0.0443116 0.0367206 -0.0296297 -0.00267754 -0.0713383 -0.0610285 -0.0300063 0.0649068 0.0690919 0.0644251 -0.059397 -0.0100813 -0.0772635 -0.070533 0.0199639 -0.0577034 0.0485797 0.069399 0.0849477 -0.0137287 -0.0217981 0.00205745 0.0561769 -0.0558704 -0.00107321 -0.0430377 -0.0407911 0.0449466 -0.0473167 0.0135474 0.0351504 -0.0120392 -0.0292366 0.079352 -0.0505439 0.0785957 -0.0794685 -0.0619437 -0.0209366 0.0123034 -0.0900818 -0.0964281 -0.109854 -0.0787766 0.0189012 0.0702617 0.0512844 0.0328279 -0.0345168 -0.126966 0.0181303 -0.154164 -0.0781515 0.0256816 -0.0461003 -0.0311265 -0.0367202 0.0910935 0.0194347 -0.0451225 0.0400638 0.00325768 0.0556014 0.0773357 -0.037169 0.0444149 0.0727441 -0.0140046 0.0379875 0.0737316 -0.106805 -0.00252313 0.00616687 0.0049925 0.0563045 0.0267275 0.00841942 0.0638955 0.036117 -0.0577687 -0.117594 -0.0640918 -0.0681504 -0.120393 0.00946963 -0.00629337 -0.0961427 -0.054889 -0.00548238 0.0172628 -0.0237732 0.0351841 0.0660336 -0.0308368 -0.0103321 -0.0459297 0.00154231 0.0328167 -0.0338234 -0.0529795 0.0738258 0.0220673 0.181032 0.0994279 0.155731 0.195225 0.183021 -0.0156719 0.00311432 -0.00508943 -0.140669 -0.0387767 -0.0408387 -0.0674062 -0.0563332 0.0199605 0.0781644 0.065758 0.0813876 0.0654268 0.0384711 -0.0348688 -0.0469535 0.0163993 0.017197 -0.0866089 -0.0465073 0.00559931 -0.0650112 -0.032414 0.0516433 0.206173 0.0358811 0.146324 0.18056 0.0817569 0.0851532 -0.0585412 -0.072251 0.00490703 -0.0421354 0.0153228 -0.0182049 -0.0147242 -0.0359192 -0.00724324 -0.00686238 0.0279949 -0.0725081 0.00936465 0.0568459 -0.0642228 0.0372906 -0.108179 -0.03799 -0.0108579 -0.120996 -0.0435783 0.0563154 0.112733 0.106328 0.0178158 0.0937379 0.0577795 -0.047878 0.0297397 0.0408434 -0.0345149 0.0573074 -0.125412 -0.045944 -0.0303426 -0.0031754 -0.0545673 0.00737238 -0.0426212 0.0799479 -0.0402763 -0.0754981 -0.0494736 -0.0891338 -0.0493187 -0.104798 -0.139349 -0.102871 -0.0993415 -0.0363175 -0.0190789 0.0389511 0.0852207 0.0496065 0.00770612 -0.0259993 0.0970285 0.00133412 -0.0216576 -0.0897558 0.00809428 -0.0822117 -0.0256854 0.055953 -0.0793683 0.0283804 0.082854 0.00385879 0.0557397 -0.020579 -0.101209 -0.0403798 -0.211007 -0.216142 -0.124132 -0.254577 -0.201031 -0.051316 0.0899893 0.0097961 0.0827858 0.00860127 0.0904103 0.0958599 0.0756603 0.020159 0.0386614 -0.0107488 0.0256984 -0.0259874 0.0509294 0.0777417 -0.0396438 -0.0760117 -0.057114 0.0443495 -0.0652215 0.0408359 -0.0726515 -0.0973384 -0.125632 -0.191038 -0.193814 -0.259248 -0.269017 -0.195605 -0.0576497 -0.0206889 0.0910746 0.0681292 0.109499 -0.0205315 0.100895 0.111557 0.0986915 0.0171515 0.067678 0.0332667 -0.0296077 -0.000724835 0.0507764 -0.0488919 -0.00464475 0.0444089 -0.0500566 -0.0387718 -0.0155246 -0.0108777 0.0052143 -0.159795 -0.1278 -0.112423 -0.10904 -0.21891 -0.254134 -0.117097 -0.0354802 -0.00297704 0.0889238 -0.0123403 0.0706178 0.00701298 0.0181847 0.0330088 0.0761665 0.0862866 -0.0084287 -0.104035 -0.0720157 -0.014998 -0.0816335 -0.0236904 0.0590243 0.0679265 0.0428964 0.0154295 -0.0449747 0.0196156 -0.0100644 -0.0269982 -0.119199 -0.181828 -0.23814 -0.201916 0.0418362 -0.00976902 0.0439575 -0.00152632 0.063246 -0.00257944 0.0488091 0.0190246 0.0388759 0.00475643 -0.0107497 -0.0404283 -0.00252456 0.0092558 -0.0588489 0.0824264 -0.00412808 0.0952866 0.0220803 0.098701 0.0657037 -0.0649401 -0.0658174 -0.0248508 0.0187182 -0.0491713 -0.169631 -0.141027 -0.0324393 0.0436551 -0.0438774 0.0358834 -0.00338947 0.0910132 0.0123756 7.2397e-05 -0.0545303 -0.00890172 -0.0700077 0.018637 0.0585175 -0.0340745 -0.0666222 0.0761845 -0.0673837 0.088364 0.0295985 0.0639295 0.0553235 0.0816699 0.0439245 0.0338926 -0.0593796 0.0306249 -0.0229141 0.0218789 -0.0214872 0.0907197 0.0413238 0.100875 0.0670136 0.0671254 0.0833277 -0.0522124 -0.0545998 -0.0748498 -0.0412118 -0.0111173 -0.0275232 -0.0761817 -0.0124849 -0.0302261 0.0414511 0.00814123 0.00229039 0.0941948 0.188762 0.0854705 0.147731 0.132999 0.0466577 0.0301353 -0.0759775 -0.0150148 -0.0886747 0.00547862 0.130106 0.116866 0.0436908 0.0265993 -0.01589 -0.155586 0.00112749 0.0254955 0.0618353 -0.00892827 0.0118864 0.0720269 0.0258529 -0.0190012 0.0147423 0.00573357 0.0720368 0.0850331 0.0632614 0.0134374 0.0394155 0.149885 0.129487 0.167891 0.0834133 -0.0313133 0.0512974 0.014235 0.100299 0.13609 0.0163562 0.0256923 -0.0612687 -0.0976908 -0.0519552 -0.0370747 -0.0956117 0.00967458 -0.00748369 0.0471369 -0.0555485 0.00291867 -0.0160186 -0.0496021 -0.0588204 -0.00495824 -0.00795241 -0.133931 -0.112545 -0.109081 0.0426235 -0.0195405 -0.0766031 0.00689786 0.0705429 -0.01408 0.102046 0.0351286 0.00223781 -0.106273 -0.0573025 -0.0720116 -0.0689702 -0.000157345 0.0601677 0.0251785 0.08215 0.0519753 0.0372638 0.00180356 -0.0526156 -0.00171521 0.00919455 -0.0677612 -0.0752202 -0.0661043 -0.152315 0.0171097 0.0359471 -0.083421 0.0906545 0.0490168 -0.00488152 0.084328 0.148684 -0.0143762 0.0596865 -0.0971388 -0.117218 -0.0465238 -0.0282945 -0.0950546 -0.0683995 0.0616696 -0.00843011 0.0234007 -0.0126136 -0.0353962 0.0529642 0.045331 0.0492765 0.0104615 -0.000370359 -0.068382 0.0438984 0.0413666 0.00459722 0.0495106 -0.0305711 0.0770057 -0.00769001 -0.017129 0.0255963 -0.060135 -0.0571585 -0.102177 -0.0713638 -0.0849899 0.068443 0.0738208 0.0450222 0.0759884 -0.0529338 -0.0589537 -0.0745535 0.0819839 -0.00404629 0.0474563 -0.0670951 0.0785245 0.0527607 -0.0334475 -0.0123786 0.0423027 0.0196553 0.0662281 0.0401251 -0.0134643 -0.0185675 0.0810573 0.0317234 -0.00763664 0.0278606 -0.0312651 0.0131476 0.0742272 0.0501498 -0.00651281 0.0210949 0.0758624 0.00147056 -0.0742021 0.0321587 -0.0703182 0.0601088 0.0314114 0.0200351 0.0293066 -0.0730188 0.00814817 0.00275651 0.0603386 0.0827804 0.0389441 -0.0584407 0.0175566 -0.0278883 0.000368526 0.00406907 0.0362344 -0.0110057 0.0462827 -0.0405649 0.0270213 0.00839778 0.0403785 -0.0599945 -0.0218853 0.0672245 0.081188 -0.00743934 0.050684 0.053787 0.0831393 -0.068028 0.0833692 -0.0446834 -0.0266037 -0.073033 0.0596872 0.0685191 -0.0651177 -0.02134 0.0359864 0.0281678 0.0489076 0.0224431 -0.0115763 0.00554353 0.0227258 0.0750541 -0.0426151 0.01702 0.0322516 0.0302392 0.0319922 -0.0822606 -0.0390362
-0.0762713 0.0443306 0.0122614 0.014513 -0.0500173 0.0449702 -0.0679979 0.0399835 -0.0383561 -0.0872634 0.0486624 -0.0420782 -0.0129659 -0.0840077 0.0607158 0.0187316 0.0500332 -0.0894102 -0.0266788 0.0265016 0.0240893 -0.0322296 -0.0254619 -0.00861776 -0.0348626 -0.0371085 0.0517999 -0.00287838 -0.00400792 0.00948874 0.0666796 -0.0715633 0.0369892 0.0488165 -0.0332546 -0.048267 -0.0797992 0.0175295 -0.0886147 0.0462808 -0.0115296 0.0567282 -0.0226477 0.035518 -0.0715973 -0.0563984 0.0572913 0.038152 -0.00964258 -0.0802109 0.0619043 -0.0271135 -0.00525698 0.0678479 -0.0964799 0.00713263 0.0174631 -0.0654987 -0.0349786 -0.0823181 -0.00772805 -0.0146328 0.0414667 0.00994262 0.0469909 0.0345956 0.0658828 -0.0748032 0.0189677 -0.0510819 -0.00678259 -0.0839625 -0.0916929 -0.000609222 -0.0887624 -0.0957821 0.027253 0.0252423 -0.0790272 0.0379383 0.00667706 -0.0396017 -0.0840588 0.0468229 -0.067688 -0.0457062 -0.0733492 0.0166537 -0.0343734 0.0130692 -0.000791374 -0.0468295 -0.0916795 -0.0220416 -0.0236954 0.0198151 0.0283828 0.00433022 -0.00714508 -0.0389102 0.0933005 0.0225625 0.0690123 -0.0769529 -0.0807532 -0.112932 -0.0209377 -0.0950257 -0.0807086 0.0197822 -0.0209156 -0.097679 0.0281698 -0.00256825 -0.0203988 0.00776805 0.018236 0.0230173 -0.0360671 0.00143019 -0.00838237 0.0906973 0.0691211 0.116247 0.122474 0.0828758 0.033155 -0.0134982 0.0139015 0.0197079 0.106881 0.0311996 -0.0653962 -0.0326289 -0.081653 -0.108493 -0.0808406 -0.00200525 -0.0676402 0.00653128 0.0150631 -0.019917 0.0580406 0.0513878 0.0602302 -0.0433233 -0.0570005 -0.0568918 0.0788977 -0.00263639 0.0719224 -0.00520361 0.084244 0.145046 0.020709 0.0430297 0.142935 0.0449187 0.127938 0.00647939 0.0385057 -0.0862398 -0.0612647 -0.0798287 -0.0964702 0.0317358 -0.0669621 -0.0978317 -0.0637454 -0.0438203 0.0497331 -0.0585566 0.0434173 0.0695216 -0.0454447 -0.106148 0.0371398 0.0442554 -0.16533 -0.0118102 -0.00940518 0.145676 -0.0204485 0.054088 0.0161617 0.00955614 -0.0110527 -0.118393 -0.153272 -0.0913578 0.0214475 -0.0972766 -0.0880255 -0.0888033 -0.0711982 0.0491199 0.0184733 -0.079801 -0.0714154 -0.0612119 -0.00660144 0.0686167 0.0643933 -0.016681 -0.0424078 -0.0307998 -0.00946333 0.0261972 -0.0362989 0.116085 -0.0115117 -0.0246072 -0.121857 -0.0215233 -0.0556944 -0.0160798 -0.14774 -0.0651277 0.00226735 -0.0746771 -0.0336016 -0.0737858 -0.108487 -0.0152778 -0.0864178 0.0549861 0.0334392 -0.00867328 -0.0316671 0.0147493 0.0104207 -0.083837 -0.102887 -0.0621806 -0.0406334 -0.0326203 0.0554387 -0.0353173 0.0040437 -0.0324803 -0.0172853 0.0294734 -0.0394675 0.0301986 -0.0271492 -0.00982633 0.064461 0.0784799 -0.00643796 -0.00507577 -0.0977928 -0.051675 0.0180058 -0.0612525 -0.0214714 0.0317538 -0.0487062 0.0567022 -0.0154677 -0.00938339 -0.200037 -0.210959 -0.076617 -0.132391 -0.00461964 0.021411 -0.0956315 0.00937989 -0.0103997 0.0305471 0.0132865 0.0701591 0.0457893 0.00157717 -0.0239598 0.00783144 -0.097575 -0.0262265 0.0395656 -0.0563433 0.00330033 0.0044636 -0.0591934 0.0914481 0.0335602 0.0413649 -0.0357703 -0.164667 -0.153087 -0.184868 -0.0475312 -0.00490253 -0.0105091 -0.0990994 -0.0907551 -0.0741722 0.017573 0.225756 0.111916 0.0640171 0.0214261 -0.0575129 0.0828589 0.079181 -0.0785174 -0.0297419 -0.113013 0.0554157 -0.0239492 -0.0950803 -0.0439257 0.0779054 -0.105756 -0.0812032 -0.087955 -0.105796 -0.0884215 -0.0478639 0.0411608 0.0677339 -0.0679722 -0.203817 -0.119197 -0.172514 -0.0737125 -0.0128936 0.155311 0.0385065 0.0749336 0.034119 0.0621158 -0.108442 -0.0610179 0.00969493 -0.0258642 0.00722747 -0.0722866 -0.0864418 -0.0678403 -0.0989587 -0.11379 -0.104245 -0.0791121 -0.136696 -0.0829385 -0.0686058 -0.0183758 0.0709936 -0.0300759 -0.0799081 -0.12934 -0.202023 0.0293152 0.0523008 0.0353953 -0.0257696 -0.157137 -0.0467893 -0.0443595 -0.0450821 0.130068 -0.0348063 0.0446353 0.0328053 -0.064009 0.0440337 0.000210665 -0.0476219 -0.153205 -0.195249 -0.0739138 -0.0662022 -0.057457 0.0336838 0.0605231 0.142706 0.0309401 0.0946528 0.0162839 -0.0990688 -0.0424052 -0.131738 -0.0323542 -0.0792493 -0.103478 -0.00331449 -0.0314408 -0.00887561 0.0741807 0.0920205 -0.0444028 -0.0635007 0.0653951 0.0330499 0.0545857 -0.0220416 -0.0463412 -0.0278783 -0.0560054 0.0197987 -0.106017 0.156344 0.120457 0.0873838 0.0877442 0.0970023 0.109484 -0.019559 -0.0330256 0.0368881 -0.00933081 0.0221113 -0.0437739 0.0113633 0.0448624 0.0935054 0.0549732 0.00722063 0.050028 0.0623045 -0.0522535 -0.0863744 0.0510745 -0.0563228 0.0172297 0.0781577 0.0585572 0.0836509 -0.0174977 0.0331628 0.0364093 0.0597245 0.0989124 0.102651 -0.0313065 -0.0319777 0.0218717 0.094212 -0.137479 -0.121649 -0.045832 -0.0295963 0.0530311 -0.0205952 0.0557326 0.066028 -0.0375854 -0.00734389 -0.0145234 -0.0616088 0.0202437 0.0499456 -0.0109584 -0.00433157 0.0321096 -0.00284409 -0.0988485 0.0801952 0.0958446 0.173696 0.130177 -0.00231431 -0.018824 0.00489466 0.015329 0.07501 0.0403583 -0.0671123 -0.00982763 -0.0383061 0.0782935 0.0259863 0.0682803 -0.0206846 -0.04303 -0.0302767 0.0410014 -0.0881489 -0.0723788 0.0222629 0.107087 0.055691 -0.0156089 0.115364 0.0161377 -0.0768566 -0.0646569 0.0367248 -0.0798739 -0.147743 -0.135042 -0.114193 -0.0204062 0.0760425 -0.0510612 -0.0306759 -0.0440471 0.0637453 0.023742 0.0734658 0.054548 0.0588092 -0.0273361 -0.0910531 -0.00530031 -0.0923431 -0.0748683 0.0595981 0.027386 0.0227814 0.089219 0.0374583 0.0326331 0.0169162 -0.0254556 -0.0777591 -0.198314 -0.0373586 -0.0172026 -0.0556416 0.18203 0.045729 0.0108577 -0.0681067 -0.0817132 0.0810108 -0.0121201 0.0753138 -0.0479707 -0.00601508 0.0350347 0.0412388 0.0466021 -0.0574787 0.0215823 -0.0868323 -0.0687779 -0.0267287 0.0890571 -0.00207606 -0.0341527 -0.0154223 -0.00487153 -0.122252 -0.0589397 -0.142246 -0.0475896 -0.0653375 0.0216938 -0.00806138 -0.0294133 -0.0473262 -0.0426357 0.0277574 0.0287296 -0.0456368 -0.120777 0.0664939 -0.079477 -0.0901482 -0.0609049 -0.0562903 -0.0345575 0.0437099 0.0509544 0.0295351 0.0142452 0.108781 -0.0754886 0.0398049 0.0789977 -0.108591 0.00491371 -0.0931635 -0.014892 -0.0117137 -0.161551 -0.113219 0.0792477 -0.0796869 0.0413037 -0.0269273 -0.0770009 -0.0501608 -0.128023 -0.0423635 -0.0757893 -0.0818181 -0.0739526 -0.0898102 -0.0573821 0.0417424 0.0560671 -0.10689 -0.0558851 -0.0184492 -0.0352563 -0.021147 -0.0391828 -0.0769699 -0.0267875 -0.0673254 -0.0511405 -0.0708845 -0.0508236 -0.0104641 -0.0587819 -0.0890064 -0.0953869 -0.049233 -0.0646216 -0.0848988 -0.124935 -0.0699239 -0.0545005 0.0292649 0.0644353 -0.0271434 0.023793 0.022886 0.0128732 -0.0706373 0.0243244 0.040384 0.0331184 -0.00840488 0.0801924 0.055969 0.0424681 -0.0264825 -0.0209525 0.0116805 -0.00386569 -0.0741479 -0.137597 -0.0830099 -0.0992041 -0.0269826 0.0476541 -0.11765 0.00622224 -0.0475413 -0.0932047 0.0482977 -0.0130743 -0.0718441 0.0608521 -0.00795566 -0.0563275 -0.0529205 0.0548773 0.0459809 0.0856729 -0.00182938 0.057448 0.0943911 0.00863668 -0.0230425 -0.0265752 0.0340653 0.0789546 0.017138 0.0362479 -0.0625258 -0.0739601 -0.0571887 0.00700703 0.058676 -0.0998766 0.000787943 -0.0813979 -0.0115909 -0.0240021 -0.0964436 -0.0292211 -0.0685319 0.0630923 0.0391544 -0.00891469 0.0108762 -0.0264418 0.0299892 -0.00425044 0.0292516 -0.0210077 0.102687 0.0939898 0.0665382 0.116061 -0.0275203 -0.0666886 -0.0923085 0.00295224 -0.0586843 0.056197 0.0367177 -0.064055 -0.0848925 -0.0800626 -0.0833656 0.0085462 -0.00618153 0.0143988 -0.0627521 -0.0626924 -0.0404341 -0.0128628 0.0734698 0.0670581 0.0488827 0.109257 0.006105 0.0345899 -0.034663 0.0869272 0.0238128 -0.0269977 -0.107331 -0.0577504 -0.0342616 -0.0260325 -0.0983233 0.0263678 0.0310109 -0.0957803 0.0448852 0.0247477 -0.00500347 -0.0355634 0.0227162 -0.0432046 0.0381334 -0.0231676 0.0333816 -0.0017309 0.0172131 0.0504358 0.0445072 -0.0470086 0.0163682 -0.0904217 -0.0632316 0.027653 -0.115737 -0.0207609 -0.0993301 -0.0502793 -0.00340151 -0.0901007 -0.0831748 -0.0571811 -0.0655811 -0.0114702 -0.0639835 -0.0129807 0.036882 -0.0866841 0.0307033 -0.0038837 -0.0583862 -0.000142305 -0.0782258 -0.0618674 0.0160127 -0.0256344 0.0318861 -0.00101462 -0.0228925 -0.0169597 -0.0052559 0.0599929 -0.0887458 -0.0158003 -0.0174381 0.0355817 0.0474068 -0.0905583 -0.0582516 0.0614809 0.00989048 0.0336843 -0.0829369 0.0322182 -0.0777512
0.039796 0.0734859 0.0922078 -0.0401989 0.066097 0.00538283 -0.0480543 0.11126 0.107218 -0.0395638 0.101146 0.0819487 -0.0117118 -0.0385729 0.0701414 -0.0103148 0.0585992 -0.0116866 0.113983 0.0340546 -0.0108758 0.0347735 0.0694223 -0.0236254 -0.00923383 -0.0200971 0.0781527 -0.0202836 -0.00769085 0.0263525 0.0472269 0.0557835 0.0625034 0.0269138 0.0146188 -0.0302886 -0.00867264 -0.00440323 0.00143367 0.114172 0.0410416 0.0388153 -0.00357766 -0.0187952 -0.0449005 0.030319 0.0274183 0.096955 -0.0223454 0.0841371 -0.014135 0.11594 0.0646657 0.000171017 -0.04815 -0.0190198 0.0522912 0.0064403 -0.0443663 -0.0469152 0.0448957 0.0798784 -0.0159378 0.0346901 0.092651 0.0900339 -0.0550792 0.0094262 0.0551746 0.0443497 -0.0602259 -0.0409939 0.0307361 0.0182582 0.0172597 0.00801302 0.10401 -0.0317775 -0.0442271 0.0422688 -0.0176668 -0.04452 0.0348145 0.0457579 0.0258485 -0.0426767 0.0547274 0.0596846 0.103231 0.0557308 -0.00610119 0.108439 -0.00407132 0.00534758 -0.0366626 0.0286825 -0.00281869 -0.0166078 -0.0318731 -0.0870253 -0.108063 -0.00230444 -0.00172486 0.104183 0.0303056 0.0901625 0.0788633 0.0901399 0.0548745 0.0924304 0.04763 0.00288247 0.034544 0.0616337 0.0533505 0.071443 0.0562919 0.102061 -0.00722434 0.0252457 -0.0946053 -0.0999357 -0.0931341 -0.0113271 -0.0318257 -0.0587777 -0.127777 -0.13668 -0.122368 -0.0293621 0.0406634 0.106517 0.0837956 0.0748983 0.102924 0.0818334 0.0227128 0.0286637 -0.0451846 -0.0189353 0.0667088 0.00695499 0.0346145 0.0376921 -0.0370504 -0.0342657 -0.0809256 -0.112014 -0.0936867 -0.0957473 -0.00850119 -0.0449002 0.0377865 -0.0522987 -0.169432 -0.177941 -0.0449337 -0.0538049 -0.132014 -0.0194769 -0.00585064 0.0219501 0.015605 0.0752292 -0.0491352 0.0167452 0.0500299 0.0732268 -0.033833 0.0525819 -0.0327484 -0.0460357 0.0105975 -0.0949632 -0.117143 -0.242706 -0.046876 -0.0592901 -0.0795489 0.113307 0.15871 0.0316124 0.155317 -0.0267579 -0.0623218 -0.0441048 -0.124588 -0.0212122 -0.0720776 0.0273399 0.0380426 0.0735992 0.00326843 0.0393766 0.0691091 0.0912483 -0.041792 0.0257051 -0.0384531 -0.0128313 -0.0218803 0.0189201 -0.128624 -0.131271 -0.0947233 -0.209931 -0.0508254 0.128703 0.223033 0.0571801 0.0435649 0.0497257 0.085973 0.0527188 -0.0251305 0.0637159 0.0799473 0.104333 0.140383 0.0550916 0.0276444 -0.0125126 0.0715615 0.0251679 -0.027146 -0.0191041 -0.0229238 0.0824588 0.0374635 0.032945 -0.140133 -0.157979 -0.173634 -0.0137954 0.029492 -0.0298714 0.0676844 -0.105008 -0.0569732 0.0729286 -0.0878927 -0.0199881 0.0151106 -0.0209438 0.0326522 0.0971386 0.00918698 -0.00564908 0.0900251 0.0113263 -0.00600285 -0.0363147 0.0736714 0.0167042 0.0831222 0.0305776 -0.0249295 -0.0763035 -0.134703 -0.0377986 -0.0486802 -0.133997 -0.00769889 -0.00912889 -0.19434 -0.224078 -0.037143 -0.00960267 0.024498 -0.122505 -0.032335 0.0554332 -0.0648464 -0.110082 0.0034481 0.0348069 0.110068 0.0208708 0.0987411 0.0871897 0.0241163 0.0876656 0.102236 0.0189942 0.00537026 -0.131657 -0.0442364 -0.0682261 -0.0812111 0.043783 0.0132486 -0.191397 -0.28004 -0.316403 -0.1383 -0.111175 -0.158356 -0.105148 -0.107914 -0.0951168 0.0266752 -0.00977079 -0.079236 0.00284356 0.0719126 0.129015 0.0703461 0.024199 -0.019985 0.0945607 0.0413322 0.0432363 0.0489203 -0.0580603 -0.169449 -0.111314 -0.0348771 0.00112575 0.0137137 -0.0319542 -0.245168 -0.182314 0.00112971 -0.0158817 -0.145544 -0.191785 -0.181938 -0.155479 -0.0644722 -0.140534 -0.203012 -0.118258 0.069093 -0.0322963 -0.0572266 0.027423 0.102876 -0.0484736 0.0187335 -0.00194758 0.0197404 -0.0774867 -0.11593 -0.0538506 0.112537 0.0882459 0.0826215 0.127171 -0.0378879 0.0583524 0.201899 0.0713963 -0.111311 -0.172798 -0.303808 -0.308081 -0.161326 -0.183681 -0.211898 -0.040084 -0.113613 0.0121585 -0.0865209 0.0344228 0.0663319 0.063098 0.0829864 0.0285484 -0.0984779 -0.105854 -0.0683101 0.143209 0.0661458 0.1539 0.295221 0.0883678 0.112597 0.172867 0.249863 0.0993059 0.0227513 -0.114906 -0.245566 -0.331486 -0.193253 -0.128367 -0.158328 -0.0739325 -0.11016 -0.10648 -0.0112856 0.0613254 0.0163849 0.0342041 0.0479233 0.035309 0.0393549 -0.0902094 -0.0769128 -0.125626 0.129904 0.267142 0.180543 0.14095 0.205629 0.170948 0.245838 0.165368 0.0675701 0.0228367 -0.0510972 -0.151946 -0.25937 -0.158662 -0.121758 -0.125608 -0.158464 -0.0551056 -0.0671573 0.10655 0.0778733 0.0105205 0.120147 0.0738568 -0.0299541 -0.148184 -0.188101 -0.166928 -0.122055 0.154148 0.105607 0.160632 0.255248 0.124874 0.173701 0.015707 0.140442 0.122237 -0.0297387 -0.186372 -0.1776 -0.142909 0.0113894 -0.082008 -0.0921182 -0.00630153 -0.00253303 0.0914656 0.0598829 0.0222075 0.106089 -0.00437445 -0.140161 -0.12594 -0.264085 -0.172917 -0.1091 -0.0121753 0.0429056 0.033872 0.0985636 0.0376366 0.0587365 -0.0457855 0.054723 0.0764118 -0.0576491 -0.297773 -0.10928 -0.203573 -0.107168 -0.108505 -0.128468 -0.0472434 -0.0282463 0.10485 0.0868792 0.11179 0.0599842 -0.0405366 -0.147305 -0.160505 -0.330132 -0.296789 -0.241088 -0.293584 -0.214549 -0.140473 -0.215746 0.00815592 -0.0916955 -0.102732 -0.0703711 -0.00744607 -0.0193102 -0.230668 -0.200941 -0.147282 -0.152555 -0.10327 -0.112124 -0.022227 0.00631054 0.057927 -0.0375195 -0.0309833 0.106725 -0.0631977 -0.102021 -0.201248 -0.142162 -0.222768 -0.25341 -0.27403 -0.281563 -0.246634 -0.164787 0.020713 -0.00254972 -0.125092 0.0413141 -0.0384979 -0.067108 -0.232266 -0.146405 -0.109252 -0.0994027 -0.155085 -0.151086 -0.0240903 0.0958814 -0.0141689 -0.0410164 -0.0428735 0.0308954 0.0592291 -0.117025 -0.131529 -0.0425599 -0.0832253 -0.126447 -0.111265 -0.178474 -0.132531 -0.0871866 -0.122246 0.049728 0.00977261 -0.0340447 -0.0177216 0.0160632 -0.139356 -0.205702 -0.163709 -0.149709 -0.161678 -0.118279 -0.0628603 -0.0455236 0.0622706 -0.014792 0.118121 0.0276365 0.0515027 -0.0305722 -0.12013 -0.0524363 -0.0911575 -0.0962612 -0.00751799 -0.145555 -0.17325 -0.144934 -0.01069 0.0230068 0.029696 0.0520498 -0.0459681 -0.148946 -0.173266 -0.148665 -0.203292 -0.0805208 -0.142024 -0.099742 0.0377228 0.0720641 0.0385538 -0.0278802 0.113185 0.0258119 0.0881273 0.055911 0.0259513 -0.0982644 0.0101909 -0.0378102 -0.0184636 -0.0929417 -0.0868188 0.0627117 -0.0551925 0.0525362 0.00544142 0.0151932 -0.0773396 -0.191902 -0.278812 -0.172221 -0.18965 -0.110274 -0.069013 -0.0170637 0.0186115 -0.0127064 0.0654106 0.0132311 0.0205181 0.0359023 0.0357094 0.0656254 0.019411 0.0328771 -0.0443287 -0.0351854 0.0203553 0.039485 0.00476292 -0.00297204 -0.0325709 0.103629 0.0195729 -0.068559 -0.0248444 -0.100964 -0.199287 -0.150864 -0.180948 -0.106477 -0.111245 0.0173167 0.0458956 0.0778307 0.0843155 0.114591 0.0499736 0.0463293 0.00992617 0.0873233 0.0566993 0.106729 0.0963873 0.0430786 0.073586 0.0786346 0.0328007 -0.0771777 -0.0162709 0.125892 0.0780959 -0.125156 -0.218266 -0.248009 -0.0921909 -0.146965 -0.0857428 -0.0404684 -0.0285717 0.0792991 -0.0213375 0.0352889 -0.00588358 0.01047 -0.00805044 -0.00469319 0.114133 0.00266107 0.158476 0.0437656 0.168251 0.0179991 0.0413139 0.0836498 0.0227406 0.00851619 -0.0449254 -0.0109954 -0.0737007 -0.124658 -0.0973381 -0.0244516 -0.0876677 0.0341878 0.024466 0.00557931 -0.00323183 0.081473 0.0340545 0.115683 -0.025444 0.0554525 -0.028939 0.0688747 0.0715917 0.0793026 -0.0283055 0.0872903 0.0876325 -0.0276458 -0.0354063 0.0773573 0.119828 0.129463 0.151325 0.117235 0.125211 0.133579 -0.0328507 -0.0245331 0.0572213 0.0333091 -0.00245947 0.0593578 0.056796 0.116058 -0.0241122 0.0185927 0.00895872 0.081517 0.0202838 0.107503 0.117079 0.0819301 0.0202589 -0.0443651 -0.0108545 -0.00796665 -0.00932919 0.0653793 0.102786 0.0535185 0.0953621 0.0633753 0.0496197 0.100606 -0.0140506 0.037456 0.0216988 -0.0312003 -0.0144555 0.0611723 0.0782902 0.0928069 0.057815 -0.0260561 -0.0483894 0.0480916 0.0987385 0.0807506 0.105058 0.0638988 0.0655687 0.103254 -0.0429655 -0.0204969 -0.01798 0.0741935 0.025481 0.0380409 -0.0149055 0.070535 0.0132213 -0.0429339 -0.0423912 0.102249 0.0970937 0.118136 0.067925 0.0550391 0.0521043 0.0181944 -0.0397184 0.0309424 0.100767
0.0733938 -0.0143989 0.0578892 0.0653402 -0.0426152 0.0545268 0.00843204 -0.0592721 0.0285901 0.0547039 -0.0465062 0.0485284 0.0252643 -0.0447636 0.070327 -0.0418436 -0.0260192 -0.0367674 -0.0689401 -0.068832 -0.0184047 0.0868126 -0.0262404 -0.0515933 0.0265408 -0.0691568 0.000555196 0.00656146 0.00602531 0.0428349 -0.0269388 -0.0721672 0.0836904 -0.0309289 -0.0381158 0.00338076 0.0210064 -0.00904528 -0.0269518 -0.0286926 -0.0178802 0.0403614 0.0332227 0.00851689 0.0635251 0.0462804 0.0667643 -0.00123403 0.0802258 -0.0671642 -0.0201175 0.0694192 0.0255609 -0.021851 0.00883184 0.00373227 -0.0311528 -0.0206286 -0.0550159 -0.00323077 0.00713451 0.0539199 -0.0266091 0.0165147 -0.0325909 0.0794783 0.026142 -0.0351395 -0.0105465 0.00401513 0.0221148 -0.0775521 0.00180872 0.00253946 -0.0309689 0.0582036 0.0379171 0.0423544 0.0408255 0.0817585 -0.0742251 0.0242129 0.0239052 0.068704 -0.0423507 -0.0437527 -0.0546015 -0.0567447 -0.0550224 0.0151953 0.000432539 -0.0152998 0.0591356 -0.0196911 0.0257228 0.0818995 0.0232804 0.020199 0.0724881 -0.0464177 0.0361662 -0.0171294 -0.0352367 -0.0581337 0.0712131 0.0115373 0.031419 0.0267362 0.0809036 -0.0326598 -0.0431215 0.0428429 0.0610612 -0.0153983 0.000229932 -0.0283651 -0.0754839 0.00614142 0.00355533 0.0784382 -0.0157118 0.0555763 0.0810129 0.0517223 -0.0674964 -0.0646627 -0.0236853 -0.0340528 0.076497 0.0342079 0.00911146 -0.0644426 -0.0538125 -0.0367885 0.0477106 0.0853995 -0.076939 0.0314492 -0.0479582 -0.0475241 -0.0488293 -0.0331665 0.0416954 -0.0406834 -0.00543558 0.0743038 -0.0695661 0.0732904 0.0379787 0.0599701 0.031493 -0.0102623 -0.040743 -0.0532346 -0.0754414 -0.0144834 0.0396185 -0.0322475 -0.0499823 -0.0159052 0.0656699 -0.0800777 -0.0373557 -0.0530173 -0.0738192 -0.0312586 -0.0195026 -0.0237838 -0.0529347 -0.00187599 0.0253358 -0.0394705 0.026008 -0.0189213 0.0748197 0.0690735 -0.0787284 -0.0115363 0.00116724 -0.0345117 0.021798 0.0569678 -0.0340878 -0.0138487 -0.058557 -0.00100445 -0.0458329 -0.0294119 -0.049926 0.0725868 0.0477728 -0.000946026 0.0237045 -0.0513462 0.0703801 0.0739195 0.0741773 0.0426897 0.0273028 0.0401681 0.0865186 -0.0310276 -0.0008365 -0.0531904 -0.0207032 0.0776357 -0.0633477 0.0104708 -0.0817092 -0.0798492 -0.0173547 0.0748107 0.0125301 -0.0604377 0.0647031 0.00640219 0.0675013 -0.0195404 -0.0015542 -0.0656611 -0.0114756 -0.0285702 0.02947 0.0212391 -0.0617132 0.0632025 -0.0605529 0.0698866 0.0833851 -0.0136232 -0.0473178 0.0431629 -0.0698585 -0.0611675 -0.0253915 0.0676693 -0.0363326 -0.0286849 -0.0791043 -0.0229832 0.0474889 0.0169438 0.0396405 -0.0782807 -0.0403731 -0.0383296 0.0403852 0.0756849 -0.0297363 0.0786577 0.0626691 -0.0666979 0.0263209 0.0507992 0.0764117 -0.0276183 0.0410518 -0.0444117 0.0677867 0.021405 -0.0145131 0.0219568 0.0182552 -0.0445627 0.04766 -0.0027059 0.0156877 0.0752858 -0.00642492 0.0306187 0.0381133 0.0510327 -0.0194861 -0.0700091 0.0655509 -0.0469062 -0.0106553 0.0226188 -0.03955 -0.00125244 0.0325722 -0.0270077 0.0571892 0.0311526 0.0781084 -0.0324681 0.0346259 0.000478234 0.0542565 0.0632968 0.0234982 0.0675003 0.0393039 0.0835792 0.0754465 0.0353713 0.0459646 0.00807415 0.031278 -0.0448734 0.0157586 -0.0400464 -0.00238403 0.0691527 -0.000740535 -0.034642 0.0391951 -0.0691173 0.0355813 0.0284669 -0.0502564 0.0200694 -0.00802772 0.00854232 -0.0146128 0.0540478 0.0422995 0.0601663 0.0630932 0.0170411 -0.0249062 0.0281837 0.000574156 -0.0667153 -0.0538306 -0.0434004 0.071124 -0.0578369 -0.0216602 0.0457867 0.0780315 0.0755404 -0.0611274 0.0686723 -0.00440482 -0.00342069 -0.0484641 -0.0199126 0.0560492 0.0120778 -0.0393946 -0.0496078 0.0739519 -0.0833064 -0.0784568 -0.0330512 0.0352097 0.0456031 -0.0494557 0.0815906 -0.0787702 0.0656593 0.0276145 -0.061418 -0.0551182 -0.0486895 0.00192248 0.0269714 0.0317103 0.0647398 0.0693002 0.0108706 -0.0225156 -0.0703879 -0.0241175 0.0385541 0.000533778 -0.00974781 0.011736 0.0427643 -0.0659935 0.0674608 0.0431306 0.0301463 0.05826 0.0545478 0.0155754 -0.0652143 -0.0261131 -0.036753 -0.0359151 -0.0333214 0.0531131 -0.00871899 -0.0309918 -0.040313 0.0411454 0.0728608 0.0528811 0.0582008 0.0561878 0.0180731 -0.0616852 0.0684819 0.0785904 0.0231588 -0.0545571 0.0409368 -0.0813692 0.0363975 -0.0753499 -0.0571273 -0.0743119 -0.00588627 -0.0748829 0.0705262 -0.00474939 -0.0635815 -0.0634313 0.063402 -0.0416276 0.00873329 0.0633455 -0.0210388 -0.0201569 0.033585 -0.012407 -0.0517088 0.0703656 -0.0598777 0.064777 -0.0166904 0.0171507 -0.0674545 -0.0336502 0.0817141 9.16814e-05 -0.0483356 0.0206522 0.000332085 0.040396 -0.080502 -0.063904 0.0771535 -0.0340451 -0.0167352 -0.0559316 -0.0280609 0.00905141 -0.0698872 0.05511 0.0662902 0.00531169 -0.0308764 -0.0208511 0.0598123 -0.0756305 -0.0473868 0.0486023 -0.0159024 -0.073794 0.0173029 -0.0058841 0.029847 -0.0538166 -0.0169284 -0.0738456 -0.0714299 -0.0615006 -0.0316661 0.0204402 0.0318403 -0.0554828 -0.0448905 0.022523 0.0816471 -0.0270785 0.00962153 0.00623377 0.00526318 -0.0102476 0.0830765 0.0570202 -0.0394253 0.0510383 -0.0361472 0.0375786 0.0261311 -0.00384487 0.0260997 0.014808 0.0434482 0.0095527 -0.0274044 -0.019272 -0.0728889 0.0741556 0.0366974 0.0108956 0.0785962 -0.0579601 -0.0350635 0.0816099 -0.0545977 -0.0690884 0.0730207 0.035534 0.0545492 0.0176118 0.0418898 -0.00614904 -0.0494242 0.0191933 0.056904 -0.019097 0.0632247 -0.000622732 0.0239988 -0.0342085 0.0445441 -0.0205435 0.0726488 0.0597831 -0.014488 0.0111758 0.0433614 0.00521942 -0.0137218 -0.0498505 -0.0135849 -0.0414645 0.00910091 0.0675202 -0.0556746 -0.0824961 -0.0520163 -0.0706414 -0.0203166 -0.000639583 -0.0281496 0.0374813 0.0207189 0.00246267 -0.0204454 -0.00735388 0.0742935 0.00341482 -0.00330529 0.0675254 -0.0648132 0.00772178 0.0639176 -0.0118192 -0.041722 -0.0771057 -0.0386197 -0.0238232 -0.0577913 0.0322819 -0.0285837 0.0521786 0.0526254 0.0698159 0.0481215 0.0642014 0.0284182 -0.0440848 0.0677867 -0.000761529 -0.0241306 -0.0563221 0.0364934 -0.021843 -0.0702933 0.0321218 0.0156636 -0.036686 0.0196619 0.00907295 0.00476315 0.0489749 -0.0669523 -0.00692845 -0.0574616 -0.0726764 0.00971238 -0.00988464 0.0764082 0.0167914 -0.0161834 0.0144814 -0.0290275 0.0377791 0.0549377 -0.0492932 -0.0141856 -0.0442157 0.0365456 0.011466 -0.0505172 0.0658205 -0.0606968 -0.0169036 -0.0742963 -0.0266028 0.0620744 -0.0726117 -0.0353612 -0.0530521 0.0489636 0.00878188 -0.0367132 0.0073628 0.0648274 -0.0724055 -0.0226363 0.0846732 -0.076967 0.0254912 0.00256722 -0.0762214 0.0664626 -0.0181391 0.0691107 0.017703 0.00762693 0.0329782 0.0110341 0.0444509 -0.0580353 -0.0242331 -0.0739152 0.0274805 -0.0377064 0.077869 0.0419713 0.0397449 -0.0464523 -0.0642037 0.0285399 -0.0567548 0.0801134 0.0378708 0.0613497 -0.0680921 -0.0478967 -0.0235851 -0.0649761 -0.0373806 -0.0087226 0.0470029 -0.0661604 0.053677 0.0745976 0.0527246 -0.0332641 0.00581393 -0.0783103 -0.0626249 -0.0442585 -0.0580577 0.067657 0.0267925 -0.0676686 -0.0645459 0.0632475 -0.0445858 -0.0274516 0.00617445 0.0238052 -0.0682388 0.0812582 0.0221549 0.0779814 0.00157882 0.0184194 -0.000480792 0.00136989 0.0481682 0.0733899 0.0647395 -0.069606 0.028465 -0.038257 -0.063251 -0.0695619 0.00115001 -0.0375184 -0.0691976 -0.0213572 0.0725158 0.0671132 0.0440524 0.0391895 0.036098 -0.054937 0.0819666 -0.0324658 -0.0701469 0.010229 -0.0415294 -0.054546 -0.0487384 0.012877 0.0312036 -0.0603203 0.067393 -0.00693694 -0.0481689 -0.0449332 0.0386795 0.0411987 0.0408306 0.07017 -0.032477 0.0416709 0.0323325 -0.0354391 -0.0256602 0.0266404 -0.0717921 -0.052467 0.00355009 0.0150687 -0.0301463 0.00547803 0.0435535 -0.00205358 0.0812127 -0.0136987 0.0500266 0.0675875 0.0189191 0.00168327 0.0600953 0.0495922 -0.0475283 -0.00253125 0.0621394 -0.0332671 0.0738999 0.0456028 -0.0583361 -0.0598203 -0.0661072 0.0791578 0.0270945 0.00723998 -0.0657533 0.0383911 0.0551417 0.0533987 0.0334649 -0.0499072 0.0197435 -0.0321022 0.0784095 0.0500393 -0.0240624 -0.0148786 0.0585205 -0.0653819 0.0380907 -0.0484179 0.0875416 0.0283548 -0.0444485 0.0228775 -0.0150354 0.0139451 -0.0423507 -0.0531864 0.0378387 0.0112619 -0.0500507 -0.014288 0.0051144 -0.0508671 0.0796787 0.0521539 0.0701509 -0.0428667 -0.0155182 -0.0522547 0.0169106 -0.0778506 0.0823758 0.0320339 0.07165 -0.0773637 0.0724893 0.0591256 -0.0195442 0.0349397
0.00227348 -0.0194488 0.0568215 -0.0297846 -0.0305391 0.0162585 -0.00741454 -0.0123159 0.00963489 -0.00121207 0.00989562 -0.067374 0.0593424 0.0292082 -0.0236896 0.0477264 0.0412935 -0.0639942 -0.0142708 0.0341312 0.0116912 0.0561149 -0.0838095 -0.0716982 0.066003 0.0653513 -0.0116135 -0.0794333 0.0220574 -0.0212391 0.0330535 -0.0485069 0.0592036 0.0368068 -0.0241054 -0.0752293 0.0692348 -0.0670471 0.0408561 0.0855879 -0.0562887 -0.0262841 -0.0764888 0.0116953 0.0306174 -0.0655372 0.0479033 -0.013626 -0.0694958 0.0484008 0.0364113 -0.0211464 -0.0738839 0.0235526 -0.0367538 0.000215484 0.0431913 -0.018387 -0.0064108 0.072161 -0.0305882 0.0687249 0.00339101 -0.0298414 -0.0445533 -0.0214564 0.00940682 -0.0142859 -0.0216043 -0.0357963 0.107678 -0.0239313 -8.26091e-05 -0.0262715 -0.0416574 -0.020107 0.0594675 0.0745807 0.0642891 0.0695141 -0.00192192 -0.0631273 0.0407393 -0.0440529 -0.053567 -0.00774112 -0.0366211 -0.079123 0.0520659 0.0526197 -0.0239414 0.0563971 -0.0141387 0.030767 0.0583263 0.0245282 -0.0251051 -0.0340416 0.0593632 0.0503105 -0.0208403 -0.045861 -0.0591481 -0.0620853 -0.0165887 -0.068062 -0.0638231 -0.0260024 0.0387659 0.0416566 -0.0461254 -0.0870365 0.0764736 -0.0773987 0.00375375 0.0254126 -0.0220155 0.00746732 0.0180269 0.05512 -0.0285072 0.0197262 0.0260893 0.0814594 -0.0684699 0.0332282 0.12035 0.0187899 0.0227752 0.012853 -0.0994048 0.0260026 -0.054093 -0.0893284 -0.0606984 0.0739149 -0.0101109 -0.0695363 -0.0527267 0.0589743 0.0791762 -0.0452742 -0.0577394 0.0351936 -0.048817 0.0549504 0.0805513 0.0845379 0.0998175 0.0374391 -0.000306578 -0.0140316 -0.0405665 0.0101609 0.080752 -0.141471 -0.040063 -0.108698 0.0142703 -0.138007 -0.0948204 -0.0590914 -0.0228498 0.0731074 0.0291613 0.0246737 -0.0509705 0.0323126 -0.0858219 0.0187886 -0.0628811 0.0382726 0.00518401 -0.0246538 -0.0257184 -0.0138523 0.116985 0.0301526 -0.004222 0.0751049 0.0729733 -0.0171166 -0.0264388 -0.0376833 -0.0477739 0.0781546 -0.0452286 -0.0506997 -0.0431123 -0.0863982 -0.0265199 0.0458561 0.0558129 -0.0833871 -0.0697607 0.000620702 -0.00379379 -0.0738949 -0.06145 0.0153589 0.044532 0.0590302 -0.0115593 0.0930325 0.10201 0.00804395 -0.0122482 0.0567577 0.012493 -0.0652955 -0.0353783 -0.0350384 -0.0514678 -0.0185492 -0.0289137 -0.0368287 -0.0590917 0.110416 0.0264603 -0.0234517 -0.00829357 -0.0186181 0.0238657 0.0687275 -0.0672104 -0.0126227 0.0726443 -0.0157967 0.0679905 0.11719 0.117032 0.0942613 -0.010341 0.117066 0.0422977 -0.100332 -0.0958654 -0.0554461 -0.033562 -0.0518779 -0.0662461 -0.0199163 -0.0711458 -0.0463667 0.115426 0.0220092 -0.0092571 -0.069583 -0.117173 0.00721507 -0.0880405 0.0671034 0.0655039 0.0586147 0.0312212 -0.067947 0.0160635 -0.0238797 0.030252 0.0764 0.114082 0.0394007 -0.0525726 -0.110111 -0.189282 -0.171559 -0.0247297 0.0255934 0.0286871 0.0969775 -0.0547374 0.0702537 0.138399 -0.057732 -0.114355 -0.153381 -0.0914286 -0.0106237 -0.00789745 -0.012736 -0.0149393 -0.048275 0.031143 -0.0226594 -0.0558456 0.0762076 0.0529332 -0.017223 0.0999135 0.0412861 0.0234419 -0.0469594 -0.139312 -0.0697916 -0.028892 -0.0104011 0.112079 0.134991 0.0232045 0.0651897 0.0831273 0.0740392 -0.0307303 0.0810491 0.0421217 -0.0674057 0.0386552 -0.03474 -0.0385333 0.0777547 0.072539 0.00102517 -0.0323238 0.0822432 0.127288 0.00410694 0.0353039 0.0640397 0.0193625 0.0781326 -0.0373063 -0.104437 -0.12338 0.0478023 0.0652855 -0.0426438 0.0484077 0.0517291 -0.0410782 0.0416401 -0.0397489 0.139098 0.0174636 -0.0578177 -0.00328828 -0.00768529 0.00918478 -0.0779632 -0.0328287 0.0224965 -0.000280754 0.031497 -0.0415615 0.0215752 0.0587228 0.060902 0.00938179 0.145394 -0.0480105 -0.186442 -0.155442 -0.0442299 -0.0537644 0.0500712 -0.0651775 0.049489 -0.0752001 0.0251167 0.0292394 0.154433 0.0405932 0.0699152 -0.0784375 0.0169669 -0.0758915 -0.0226713 -0.00857745 -0.0415607 0.101607 0.102187 0.139213 0.00511657 -0.024217 0.034138 0.164927 0.0194427 -0.1066 -0.0619147 -0.0311123 0.0346539 -0.0102544 0.0169011 0.0503435 -0.0267287 -0.0127246 0.046038 0.0862674 0.128616 -0.00978031 0.0592314 -0.0770379 0.0361108 -0.0804706 -0.0196846 -0.0729802 0.0351351 -0.0864418 0.0413286 0.0909437 0.00964306 0.186843 0.122256 -0.0124138 0.0939373 -0.0601409 -0.0562987 -0.0406723 -0.101597 0.116395 0.0798858 0.0477831 0.0976257 0.0135232 0.0425725 0.11576 0.0610888 -0.0751254 0.0569493 0.00306998 -0.0611283 0.0209356 -0.0561238 -0.0736433 -0.0202817 -0.0599182 -0.043745 0.0809991 0.055097 0.0956114 0.00721147 0.0704368 0.0277187 -0.104135 -0.093129 -0.0291282 0.0424743 0.0531886 0.0938397 0.078974 0.0181182 0.0983886 -0.00366312 0.00805565 -0.00391424 0.0450387 -0.00918307 0.028725 -0.0185551 0.0716657 -0.034224 0.0523848 0.0191878 -0.0216698 0.0605426 0.153568 0.027911 -0.0257199 -0.153368 -0.112606 -0.187585 -0.0573681 0.0608547 0.0674819 0.129938 0.157284 0.0661668 -0.0579723 0.0293949 -0.0241315 0.0644632 -0.0447417 0.0521924 0.0533153 -0.0391187 0.0384303 -0.0638594 -0.0449635 0.0187208 -0.0319036 -0.0188045 0.0129491 0.0980525 0.13771 0.0534266 -0.114449 -0.227047 -0.287135 -0.090587 0.0168088 0.230801 0.185145 0.0507827 0.179991 0.0917627 0.101913 0.16256 0.0221647 0.0849623 0.0229763 0.0217157 0.0747541 0.0660874 0.0418994 0.0211623 -0.0696231 -0.0595134 -0.0627167 0.0251356 0.0510162 0.107595 0.049473 -0.0311855 -0.215333 -0.257782 -0.299969 -0.0870174 0.104104 0.316807 0.0773747 0.000401434 0.10921 0.168871 0.0550141 0.0647052 -0.000950914 -0.0866472 0.0185911 -0.0199331 0.0495634 0.0659696 -0.0528798 0.00459417 0.0633001 -0.00365748 -0.0261531 0.0399843 0.0603407 -0.0327726 0.139367 0.0177593 -0.198793 -0.141736 -0.247193 -0.120785 0.164305 0.15909 0.109126 -0.00702045 0.0083068 0.0374865 0.0245917 0.0847351 -0.0105283 -0.115499 -0.121401 0.0227501 0.0261424 -0.0165672 -0.05846 0.0145101 -0.0600149 -0.022466 -0.0682119 0.0457668 -0.0116171 -0.00775093 -0.0537855 -0.00958926 -0.144258 -0.131642 -0.10698 -0.0323558 0.0981125 0.204038 0.0908026 0.13044 0.0785928 0.138628 -0.0505661 -0.100431 -0.0689272 0.0276063 -0.137077 -0.019666 -0.0239896 -0.0856841 0.0470151 -0.0353976 0.0335441 0.0107209 0.0754363 0.0586331 -0.0281118 0.0839759 0.0649234 -0.176534 -0.0678047 -0.155561 0.0354276 -0.050869 -0.0148542 -0.000552333 0.0900627 0.19457 0.121974 0.127079 0.0711997 0.104565 -0.0421622 -0.0511575 -0.0276535 -0.0556175 -0.0093011 0.0583111 -0.046544 -0.03868 0.0719524 -0.0321923 -0.0639961 -0.080228 -0.021431 -0.0678364 0.0150724 0.00847576 -0.12746 0.00246298 0.0142793 -0.0355023 -0.0492252 -0.135724 -0.0268238 0.0296348 0.0716143 -0.0186891 0.0521879 -0.0893286 0.0274277 0.0256239 0.0705848 0.0357457 0.072353 -0.0797506 -0.0603435 -0.0848027 -0.0301493 0.0665988 -0.0570948 0.00329094 -0.105179 -0.0783404 -0.103505 0.0154221 -0.00972423 -0.110674 -0.0227275 -0.06009 -0.0446859 -0.124028 -0.0486939 0.00129679 0.0838892 0.000797089 0.047214 0.0473403 -0.00858122 -0.0402926 0.0582365 0.083869 -0.0771104 -0.0521849 0.0441895 -0.0346353 0.0597372 -0.0696508 0.073707 0.017647 -0.0292632 0.0320778 -0.119152 -0.0227909 -0.0863477 -0.0713619 -0.0690589 0.0355341 -0.0913194 0.00944224 -0.0798416 -0.096587 0.00710249 0.0312014 -0.00221711 -0.0507069 0.06616 0.0557562 0.029815 0.00912666 0.0473551 -0.0568685 0.00545582 0.0575497 0.0361561 -0.0865778 -0.00156226 -0.0249688 0.0403285 0.0524755 0.0488504 -0.0995524 -0.0679092 -0.0539305 0.0246998 -0.0994081 -0.0148458 -0.053512 0.0710741 0.0951652 0.0280255 0.0432782 -0.0492826 -0.0899578 0.0358282 -0.0441356 0.00176429 0.0072228 0.0700783 0.00865116 -0.0617762 -0.070369 -0.0812535 0.0101466 0.0581566 0.0269046 -0.0656019 -0.00243588 -0.0696134 0.0433409 0.0504855 -0.069175 0.0713023 -0.0177822 -0.0262668 -0.0639929 0.0653739 0.0285746 -0.0413031 -0.0858433 -0.0830419 -0.00554353 -0.0551373 -0.013517 -0.0587224 -0.067531 0.0648788 -0.039722 -0.0587298 -0.0230428 -0.0582406 -0.0224484 0.0335251 -0.0872373 -0.0172832 0.0761894 0.057319 0.0309005 0.0702123 0.0343649 -0.00535113 -0.0738734 -0.0236617 -0.0302409 0.0590387 -0.0150879 0.0635931 -0.0399377 0.080746 0.0419784 -0.0328942 0.0740358 0.0461576 -0.0446428 -0.052338 -0.050624 0.0181469 -0.00910381
0.0479152 0.012529 -0.017698 -0.000452983 0.00538325 0.0452067 -0.0541589 0.0360481 0.00218414 0.0541368 0.038935 -0.0790844 0.0282385 0.0661318 -0.00967088 0.0454332 0.0554752 0.00131109 0.0694659 0.0182057 0.0654429 -0.0826091 0.0482727 -0.0221739 -0.0626391 0.0649205 -0.047834 -0.0190792 -0.0622256 -0.00318786 -0.0245351 0.0348589 -0.0237007 0.0554043 -0.0665433 0.0083948 0.029481 0.02106 0.0443536 0.00260174 -0.0645863 0.0231601 -0.0586387 0.0732837 -0.0348359 -0.00223717 0.0210597 -0.00328495 0.0701168 0.0284658 -0.0569265 -0.0365117 -0.0389545 0.0504943 0.0264869 0.0206713 -0.0222429 0.0145822 -0.0447411 -0.0116917 0.0209741 0.0321179 -0.0822483 0.051026 0.0707279 0.0127132 0.0687433 0.0733048 -0.0121285 0.0306126 0.0881971 0.0420317 -0.0241262 0.0612466 0.0699169 -0.0328946 0.0239753 -0.0437119 0.039876 -0.0324419 -0.0473918 0.0702262 0.0170784 0.0452524 0.0360106 -0.0746529 -0.0621759 -0.0520627 0.00146353 -0.0634904 -0.0702769 0.0751125 -0.0241427 0.122078 -0.0131972 0.103659 0.0476243 -0.00689609 -0.0426482 -0.0260671 -0.0255732 0.0188841 0.0308412 0.0455918 -0.040398 0.0689045 0.0572521 0.0394566 0.0577324 -0.00537124 0.0576162 -0.0318333 0.0175173 0.0452356 0.0325687 -0.0228362 0.031854 0.0819934 -0.0547139 0.00977556 0.0843031 0.12151 -0.00265377 0.0418026 0.0777652 0.0626735 0.0686373 0.0103641 0.0519966 0.0330485 0.0345331 0.0277165 0.0470739 0.0878021 -0.0215977 0.0714137 -0.0513293 0.0824429 0.0359429 -0.0472671 0.0127004 0.00591876 -0.0614871 -0.0684456 0.070336 -0.0884976 -0.0677759 0.013537 0.0361492 -0.0639733 0.0421723 -0.0786278 0.0555513 0.0267272 0.0499363 -0.0235374 -0.0734429 0.0403068 0.00801573 0.0808349 0.112738 0.0695356 0.0335032 0.0730775 0.0872909 0.0347658 -0.0538813 -0.039576 -0.0840107 -0.0717557 -0.0833621 -0.0337329 0.0375908 -0.0936254 0.0538889 -0.0531199 -0.0858724 -0.103327 -0.144572 -0.126354 -0.104873 -0.0708311 0.032915 0.0532537 -0.0280154 -0.118078 -0.106557 -0.00837208 -0.147533 -0.0139151 -0.0695623 -0.00162728 -0.0383084 -0.00957356 -0.064676 -0.0759494 0.0488313 -0.011972 0.0337643 0.0390969 -0.0205916 0.0235934 0.0229546 -0.10477 -0.0716136 -0.0346549 -0.10331 -0.111261 -0.0750142 -0.177254 -0.0133968 -0.132247 -0.0679078 -0.17968 -0.212423 -0.141831 -0.16641 -0.073525 -0.0922303 -0.0850188 0.00901157 0.0737101 0.0707435 0.0234935 -0.0863132 -0.0692085 -0.0638588 -0.0941028 -0.0313029 -0.0565401 0.0558767 -0.081794 -0.0456269 0.00938357 -0.0863786 -0.116358 -0.12914 -0.0733752 -0.144151 -0.0200546 -0.0983579 -0.155166 -0.159505 -0.11278 -0.0451777 -0.164477 -0.0567333 -0.100116 0.0286364 -0.0377319 -0.00229251 -0.0468179 -0.0713845 -0.00567217 -0.0221208 0.0496292 -0.0663253 -0.014767 -0.0545914 -0.103112 -0.115468 -0.0791704 -0.0475562 -0.0504882 -0.0104092 -0.111428 -0.0862599 -0.000227572 -0.071503 -0.048741 -0.0447443 -0.0725717 0.0263463 0.0840703 -0.0463081 -0.0196956 -0.0764938 0.0272563 0.0404544 0.0544245 -0.0529757 -0.0692301 -0.0167539 -0.0523103 0.035342 -0.0396092 -0.065394 0.0286649 0.0737633 -0.0531396 -0.097486 0.036247 -0.0071518 -0.114551 -0.0982022 -0.00571795 0.0516403 -0.0483419 -0.0595553 -0.0430953 0.0708878 0.0358355 0.0442548 0.0110407 -0.0462881 0.0336859 0.00997557 -0.0854667 -0.0301228 -0.0207469 0.0577107 -0.0479892 0.0160979 -0.039937 0.0318036 0.0247312 0.0848345 0.0132068 -0.10708 -0.0297116 0.0319707 0.022697 0.109039 -0.0133704 0.0626579 -0.144991 -0.00566583 -0.0318534 0.0224846 0.0542998 0.073221 0.100766 0.0150435 -0.045784 0.0422866 -0.0126974 0.0521409 0.0727151 -0.010594 -0.0174219 0.0271584 -0.105436 -0.0521692 0.00666704 0.00841954 -0.00302842 0.0807568 -0.0746694 -0.0330134 0.122549 0.101563 0.106756 0.0242097 -0.0445424 -0.112418 0.0395608 0.0388839 -0.00450303 0.0645531 0.0253629 0.0440739 0.0678385 0.0742642 0.0127307 -0.0763605 -0.0836885 -0.0217924 -0.0256511 -0.0263236 0.0298092 -0.0948346 -0.019395 0.0483466 -0.0121525 0.0694919 -0.00578407 0.125491 0.255115 0.113886 0.0501274 0.0762347 0.0275842 -0.0146538 -0.0142821 0.00527555 -0.0353057 0.107371 0.129964 0.118204 0.0928885 -0.0104028 0.0710912 -0.0601431 0.0110204 -0.000716187 -0.076703 -0.101831 0.0483717 0.0546432 0.0289765 0.0178533 -0.0150632 0.0698105 0.141831 0.103043 0.220494 0.164164 0.174885 0.100322 -0.0170073 -0.0567912 -0.0190282 -0.0912085 -0.0179417 0.00439663 -0.00560737 0.0205261 0.0732178 -0.0235133 0.0350684 -0.0149121 0.00769335 0.0175542 -0.0254661 0.0743996 -0.0088708 0.072747 0.0298609 -0.0081312 0.131406 -0.00997842 0.0356758 0.062943 0.112397 0.115452 0.119448 0.118281 0.147825 0.0589252 -0.0525974 -0.0357501 -0.072699 0.00957745 -0.0550791 0.0919564 0.0122654 0.0583885 -0.0674384 0.0126781 -0.0476067 0.0492908 0.0148494 -0.0467556 -0.039931 0.0450104 -0.0252046 0.0130684 0.0554146 0.121523 -0.0149526 -0.0243135 0.0689006 0.00172486 0.182549 0.0597656 0.230434 0.136747 -0.0126964 -0.0920273 -0.0214037 0.0319586 0.0444924 0.108148 0.0508116 0.00386145 0.0292616 0.0669026 0.00786975 0.0594154 0.105572 0.0552388 0.0382039 0.111719 0.076388 0.166949 0.0992905 0.0590007 0.0210014 0.0224967 -0.0783995 0.0566139 0.103009 0.0708601 0.0664144 0.0996035 0.107609 0.0794143 -0.0122209 0.0626061 -0.0373239 0.0230488 -0.0292079 0.0859219 -0.0867723 -0.010876 0.00492529 -0.0119747 -0.0400224 0.0615681 0.0271338 0.130722 0.0712959 0.181576 0.0195902 0.0613763 -0.0653752 -0.0105661 0.0317952 -0.053934 0.00534454 0.0975847 0.0773849 -0.0352184 0.0500909 0.11843 0.00163676 0.0867523 0.1693 0.147505 0.0877966 0.0168547 0.056592 0.0318919 -0.0553039 -0.0544658 0.00225078 0.0219285 0.105833 0.0469932 -0.00657915 0.114091 0.0763982 0.0691922 -0.0640661 -0.0294621 0.00747381 0.0563926 0.133989 0.0991337 0.109298 0.0968232 -0.0142992 0.109922 0.0641299 0.209768 0.127891 0.0942489 -0.0287343 0.0762683 0.00879756 -0.0729144 -0.0884964 0.0214233 0.0331858 0.0989672 -0.025685 0.0492329 0.100339 0.108496 0.014572 -0.0329341 0.0879869 -0.0465934 0.06266 -0.000191437 0.0448949 -0.0311429 -0.0598533 -0.0662743 0.0569234 0.097937 0.101873 0.0613662 0.00820749 0.0374488 0.0650076 -0.0558125 0.0421504 0.0775753 0.0683189 0.0118633 -0.0308126 -0.01033 0.0115294 -0.0401715 0.0182801 0.106179 0.0478754 0.0412565 0.0454031 0.0582207 0.0462878 0.0188481 -0.0526948 -0.0673352 0.0395264 -0.11691 0.0562008 -0.0272138 0.0751826 0.00924367 0.024651 -0.0222281 0.050698 0.0456846 0.0450131 0.0229369 -0.0347539 -0.0286611 0.00180587 0.0078084 0.00273217 0.0307658 0.0766341 0.0125031 0.0186239 0.0350723 -0.0287018 0.0790846 0.0234906 -0.0572864 -0.191779 -0.130779 -0.0435557 -0.0360989 -0.0270771 0.0407515 0.0717605 -0.0361839 -0.0681818 0.0420471 -0.0687514 0.0771384 -0.0288697 -0.00202726 -0.0840357 -0.0579955 -0.0663147 -0.0138329 -0.0336049 -0.0451576 -0.0415153 0.00090538 -0.0450358 -0.138963 -0.14981 -0.113738 -0.138147 -0.10926 -0.177822 -0.0958085 -0.149348 -0.176903 -0.00953663 0.0161919 0.0472568 -0.025682 -0.0184837 0.0793638 0.00419047 -0.0300174 0.0408945 -0.0747635 -0.0523044 0.0277446 -0.00199941 -0.0855709 -0.0395859 -0.073538 -0.0416059 -0.166275 -0.0660135 -0.107071 -0.12764 -0.171558 -0.0992945 -0.130266 -0.0758524 -0.0688452 -0.135321 0.00809435 0.00769483 0.0119403 -0.0737698 -0.0449109 -0.0875682 -0.0686219 0.0253166 -0.0158442 -0.0704285 -0.0171382 0.00154722 -0.0779889 0.0561203 -0.0330345 -0.0713228 -0.103326 -0.127005 -0.0883803 -0.125169 -0.0650577 -0.0815188 -0.00212673 -0.129273 -0.0960922 -0.0405778 -0.0300773 -0.0856231 -0.0652922 -0.0234817 -0.091428 -0.100952 0.0210702 -0.0104446 0.00767157 -0.0401844 0.0161998 -0.072989 -0.0297804 0.0387285 -0.0314147 0.0728616 0.0184849 -0.0907553 -0.0415056 0.0537316 0.0238879 0.0194193 -0.0173654 -0.0334641 0.0331502 -0.0574648 -0.0393526 -0.0172785 0.0183704 -0.0503139 -0.0838506 -0.041805 -0.00418922 -0.0460043 -0.0296629 -0.0869693 -0.0152472 -0.0602226 0.0675924 -0.0252344 -0.00904802 0.0247345 0.0215128 0.059142 0.064009 -0.0378677 0.0729249 -0.0463018 -0.0824094 -0.0681834 -0.0938677 -0.0743901 -0.0193824 -0.0592239 -0.0033943 -0.00623142 0.0233729 -0.0544974 0.0111883 -0.00872363 -0.0944862 0.0491935 -0.0431378 -0.03793 -0.0740101 -0.0720547 0.0415135 -0.0376273
-0.0370151 0.0632748 0.02726 0.0607317 0.0442477 -0.00251114 0.0415613 -0.0224718 0.0201001 0.0473875 -0.0710999 -0.0310519 0.0203502 -0.0025724 -0.0617419 0.0479063 0.062924 0.0517487 0.0845332 0.0722513 -0.0184905 0.0876562 0.0732898 -0.0290656 0.038682 0.007773 -0.0672799 0.0555076 0.047676 -0.0150328 -0.0258486 -0.0380806 0.00575222 0.0163789 0.0428277 -0.0456421 -0.0419536 0.0872641 0.0261257 -0.0448711 0.0561589 0.0437657 0.00887476 0.0702048 -0.00281122 0.0769227 0.0602929 -0.0612136 0.0266063 0.0234562 -0.05755 0.0785796 -0.0757508 0.000810038 0.021748 0.0891702 0.06205 -0.0590567 0.0183481 -0.0132233 -0.064547 0.00507221 -0.0517877 -0.0663928 -0.0654013 0.0332031 -0.0150276 -0.0871126 -0.0717457 -0.0458137 -0.0543142 0.0325749 -0.0388788 -0.0483443 0.0541606 0.025466 -0.000973706 -0.081267 -0.0180249 0.0230748 0.00257854 0.059734 0.0826635 -0.0391328 -0.0747521 -0.0403749 0.0291772 -0.0702455 0.00216908 0.0424176 0.0590087 -0.0502803 0.047065 0.0349282 -0.0497243 0.0433295 0.0344906 -0.0855253 0.0301141 -0.0121431 -0.0568577 -0.026159 0.0315377 -0.0170186 0.00782879 0.00448262 0.01242 0.0640834 0.0557887 -0.00472258 0.0524687 0.0353778 -0.056594 -0.0675263 0.0534771 0.0575682 0.0664147 -0.0547622 -0.0488831 0.0366099 -0.0843568 -0.127383 -0.027018 0.0815722 -0.036814 -0.0337852 -0.10087 -0.0196598 0.0263553 0.000142501 0.122633 0.0360809 0.0379729 0.0178684 -0.0190773 -0.111118 -0.00596685 -0.0709865 0.0551863 -0.00297621 0.0705892 -0.0543916 0.0613726 0.00261812 0.0787702 0.0697684 -0.0300564 -0.0479335 -0.0552395 -0.135623 -0.037085 -0.0204131 0.00293459 0.037963 -0.0742883 -0.0147763 -0.140078 -0.0351062 -0.0311576 0.0996601 -0.0428942 -0.0916292 0.0154805 -0.102509 -0.0756992 -0.0383604 0.0349204 0.0876491 0.0374081 0.0342545 -0.0026986 0.00518798 -0.0195418 -0.0042454 -0.0466381 -0.160133 -0.144745 -0.158208 -0.0966944 -0.0367045 0.145101 0.0120018 0.00588737 -0.0184772 -0.0361444 -0.000901506 0.038259 -0.102062 -0.102154 -0.00854427 0.00441927 -0.00411405 -0.0683547 -0.0467854 -0.0108481 -0.00222648 0.0170165 -0.0249696 0.0129507 -0.0168626 -0.0380256 -0.0127871 -0.0783188 -0.0808598 -0.185521 -0.0456373 -0.0142613 -0.076487 0.171366 0.0209219 0.0673465 0.0983017 -0.10921 0.0186105 -0.0265263 0.0699324 -0.0629609 0.0145675 0.0117003 0.0506273 -0.0237749 -0.0241675 0.00968737 -0.0748923 -0.0299911 -0.0256389 0.0735288 -0.0144892 0.106453 -0.0762788 -0.0764627 -0.000896013 -0.119216 -0.0558499 -0.0996158 0.0131184 0.11811 0.0193552 -0.00712861 0.0186362 -0.0156213 0.134808 0.144821 0.0616353 -0.0299355 -0.0249223 0.0320995 0.00457565 -0.0327178 -0.00511795 -0.0109331 0.065339 -0.0147807 -0.0611118 0.0620542 -0.0456619 0.00875161 0.0443778 -0.0694829 -0.0571367 -0.186633 -0.145164 -0.234817 -0.162819 -0.0824653 0.00567081 -0.0512125 0.0231225 -0.116957 0.0576967 0.13185 0.144609 -0.0226236 0.00986587 -0.0077345 -0.00886615 0.0765456 -0.0380979 0.0354901 0.0750735 -0.0371927 -0.0015547 0.0460329 0.0705107 0.0913273 -0.0648336 -0.01183 -0.0534066 -0.0379696 -0.149343 -0.115515 -0.120952 -0.251835 -0.177809 -0.173139 -0.131915 -0.0530375 0.0317138 0.0396186 0.0161486 0.0465449 -0.123348 0.0388734 -0.0335671 -0.00558173 -0.0222349 -0.0219286 -0.0395245 0.0269096 0.0578194 -0.0284978 0.00417352 0.0192232 -0.0391412 -0.0755774 -0.0315238 -0.0547698 -0.112419 -0.094843 -0.115701 -0.194874 -0.164322 -0.037171 -0.122225 -0.116547 0.122187 0.0334723 -0.13435 -0.0593485 -0.0950698 -0.00483451 -0.0283171 -0.0137673 0.0526042 -0.0398989 0.0462263 0.0262393 0.0535784 -0.0206402 -0.0834125 -0.0158806 -0.104779 -0.15467 -0.14637 -0.135442 -0.0927756 -0.00788726 -0.0720018 -0.0646085 -0.0191531 0.0293595 0.011652 -0.121646 -0.0972219 -0.108046 -0.141396 -0.143943 -0.173793 -0.143658 -0.0115485 0.0140671 -0.100383 0.0334549 0.0855379 0.049536 -0.0204504 0.0843882 0.0422633 0.0790029 -0.0476663 -0.0995973 -0.0187408 0.0697034 0.0752247 0.0630298 0.0911867 0.101038 0.0205813 0.153198 0.048874 -0.0511097 -0.11792 -0.233459 -0.188321 -0.0226341 -0.0388334 -0.0652369 -0.00343118 -0.116367 -0.0234949 -0.0129185 0.0308887 -0.0503142 -0.0366958 0.069669 0.0872439 -0.062392 -0.0656798 -0.0708074 -0.0525847 0.0364251 0.0768236 0.199932 0.0984157 0.059008 0.195934 0.18468 0.047973 -0.121708 -0.114 -0.196079 -0.165666 -0.12897 -0.0683463 -0.0881831 -0.10206 0.048413 -0.0624488 -0.0681034 -0.0323755 0.0458177 -0.0605873 0.0663787 0.0143403 -0.053295 0.00781782 -0.0027965 -0.0719226 -0.0722998 -0.0241335 -0.0398412 0.0974453 0.0808028 0.109802 0.147527 -0.152607 -0.0862002 -0.0295856 -0.0769411 -0.146388 -0.0719653 0.0199679 0.109276 -0.0556131 -0.0350924 0.0440425 -0.060918 -0.0582627 0.0100401 0.070954 0.0582753 0.0167857 -0.0532208 0.0238999 -0.114404 -0.0285006 -0.0270426 -0.16964 0.00723939 0.0579002 0.0664572 -0.144565 -0.153923 -0.0892318 0.000115066 0.0765068 -0.0294205 -0.228107 -0.0260976 0.0278366 -0.00978499 -0.0406402 -0.0265566 -0.00532069 -0.0597232 0.0843065 0.00944755 0.0155873 0.0270862 0.0404081 -0.0444068 0.00142253 -0.109812 0.0641394 -0.0718829 -0.072711 -0.0324934 -0.12203 -0.207129 -0.150346 -0.203621 -0.07612 -0.0534106 -0.0851098 -0.0706265 -0.17885 -0.135931 -0.0735052 0.0573276 -0.0683508 -0.00250548 -0.101739 -0.0128629 0.046402 0.0475869 -0.0601582 -0.0407337 0.055478 0.0306045 -0.0351563 -0.038227 -0.0532326 -0.0755897 -0.00291151 -0.110524 -0.186707 -0.418485 -0.285767 -0.169055 -0.144436 -0.081933 -0.00807024 -0.104871 -0.159358 -0.071388 -0.0146392 -0.0445269 -0.0350924 -0.150986 -0.0386519 0.0567456 -0.00839651 0.0715088 -0.0753307 0.0227417 -0.0639056 -0.116555 0.045626 -0.0608602 -0.072532 -0.000322738 -0.0445825 -0.0807167 -0.258239 -0.316674 -0.170999 -0.129503 -0.0780194 -0.115725 -0.0406795 0.0364437 -0.102799 -0.0477015 0.0570926 -0.0560293 -0.139366 -0.0205853 -0.0704873 0.0507576 0.0568137 -0.0365896 0.0843552 0.0258839 0.0228459 -0.0894898 0.0339647 -0.0594425 -0.00648589 -0.00836475 -0.166861 -0.132755 -0.249986 -0.122391 -0.108822 -0.209672 -0.103027 -0.0653498 0.030544 -0.0603729 -0.0480561 -0.025821 -0.0743648 -0.128248 -0.140944 -0.120711 -0.0633581 -0.0030107 0.0638679 0.08992 -0.023755 0.0628809 0.0471655 -0.0429503 -0.0253034 -0.0583087 -0.0642064 -0.00900153 -0.041864 -0.135897 -0.179773 -0.168095 -0.120045 -0.109024 -0.11611 -0.0679091 -0.0478362 -0.0683688 -0.0540033 -0.0328784 -0.164705 -0.0931873 -0.109776 -0.0384866 -0.0182372 0.0327503 0.00112343 -0.0629171 0.000239015 -0.0244157 -0.0241709 0.0109482 0.0241711 0.0277713 -0.0325974 0.0164102 0.0523057 0.0422446 -0.00792477 -0.0727313 -0.0993047 0.037518 -0.018805 -0.00787658 -0.0615846 -0.107287 -0.118403 -0.106466 -0.169743 -0.119711 -0.0495835 -0.090888 -0.00806037 0.0523393 0.0254494 -0.0563783 0.0566689 0.0491616 -0.0246794 -0.077735 0.0511416 -0.0520126 0.0557241 0.0899205 0.0264601 0.0832688 -0.0115323 -0.00940131 0.0823718 0.118845 -0.000658596 -0.0565352 -0.0218986 -0.183033 -0.0534942 -0.0774219 -0.110557 0.0120154 -0.0288284 -0.0763322 -0.0207387 -0.0730748 -0.0347177 0.090934 0.0336562 -0.0645033 -0.0216373 0.0754781 0.0352101 0.107499 0.0476593 -0.0149138 0.0686699 -0.0155813 -0.00399554 0.0570588 0.0648221 0.114194 0.0566952 -0.0398305 -0.0210775 -0.020885 -0.0740932 0.0492558 -0.0341547 -0.00468118 -0.00746797 -0.0343588 -0.0579635 -0.0366313 0.0764258 0.00716351 0.0910837 0.0100039 0.0401726 0.029448 0.100509 -0.0447798 -0.032985 0.0348975 0.0619292 0.0081342 0.0312743 0.106685 0.144126 0.11082 0.0500839 0.0817586 0.0578773 0.0588824 0.0808899 -0.026291 -0.0578719 0.0565348 0.0842429 0.0421641 0.0591098 -0.0586453 0.0280243 -0.0159567 -0.0697576 0.0318143 -0.0202999 0.0235048 0.0458197 0.0619309 0.0138891 -0.0248146 -0.0161897 -0.0322036 0.0951703 0.0563997 0.00611372 0.0816616 0.0900329 0.0867368 0.0408683 0.0613445 0.0736571 0.0511479 0.0441522 0.0752129 -0.0257384 0.0632841 -0.0642396 -0.0223479 0.0218965 0.0200214 0.0549091 0.0631986 -0.00181708 0.0239765 -0.0128581 0.0594847 -0.0550106 -0.0508519 -0.0501277 0.0289279 -0.0656977 -0.0557447 0.0566456 0.0723264 0.0580639 -0.0358893 0.0766833 -0.0400763 0.0568046 0.00114424 -0.0113798 0.0699245 -0.0196545 -0.0543118 0.0116158 -0.0195956 -0.069824
-0.0178714 0.0150419 -0.0212136 0.0105453 -0.0573547 -0.0260267 -0.0147589 0.0362718 0.10385 -0.0513629 0.058961 0.0600074 -0.00857189 0.0496733 0.0130313 0.0611366 -0.0518723 0.0667107 0.0480577 -0.00854686 0.0762791 0.046807 0.0116843 -0.0111479 0.0556596 0.0259759 0.0549208 0.100178 -0.0392027 -0.0476703 -0.0217325 -0.0296293 0.0740248 0.0942108 0.0418408 0.035997 -0.0489614 0.040234 -0.0258544 0.0600821 -0.0683742 0.0968944 0.000212548 0.0511569 0.0759782 -0.00562334 0.0123833 -0.0652163 0.0299416 -0.0328246 0.0809236 0.105058 0.0280863 -0.0397435 0.0995965 0.0654127 0.0263294 -0.00479058 -0.0212644 -0.0504398 0.0991719 0.0462395 0.0302076 0.0750025 -0.0508371 0.0261206 -0.0497739 0.0672557 -0.0264791 -0.0246429 -0.0142301 0.0343149 0.00252752 0.098425 0.0201178 0.0219856 -0.00286844 0.0102823 0.0971814 0.030728 0.0914431 -0.042152 0.0247107 -0.0287867 0.0276804 0.0455705 0.0184333 0.0895506 0.0141348 -0.00220589 -0.0239309 0.0941491 0.0219857 -0.0232209 0.0932353 -0.0211578 -0.00474265 0.0262408 0.0200326 -0.141615 -0.0790735 0.0111824 0.0400484 -0.0456034 0.0315677 0.065896 -0.0152095 -0.059064 0.0546439 0.027397 -0.0181946 -0.0315689 0.0189643 -0.0558179 0.0876683 -0.024469 -0.00302093 -0.0749285 -0.0314537 -0.104275 -0.0168023 -0.0500234 0.0742891 -0.0832493 -0.0438582 -0.129798 -0.118989 -0.170875 -0.131329 0.0430867 0.135654 0.165782 0.052845 -0.0104173 0.0588219 -0.0187627 -0.00519539 0.00570322 0.0389109 0.039004 -0.0475916 0.0235369 -0.00211691 -0.00479123 0.00187773 0.027104 -0.118295 -0.098694 -0.195572 -0.219169 -0.0761012 -0.111491 0.0718445 -0.0411605 -0.264939 -0.157327 -0.207317 -0.0190356 -0.0205994 -0.0734687 0.115037 0.0931144 -0.0200809 0.0363385 -0.042345 0.0143656 0.0396123 0.0169564 0.0678188 0.0676012 0.0858221 0.0936799 0.0543028 -0.0534454 -0.12716 -0.332967 -0.280541 -0.141399 -0.158105 0.0422489 0.0460503 -0.0680947 0.0344355 -0.0258338 -0.190631 -0.109715 -0.126732 -0.154926 0.00987384 -0.0218806 0.100569 -0.00632945 -0.0808554 0.0340049 0.0668312 -0.0547844 0.0106598 0.0867992 0.0839629 0.0218707 0.0542696 -0.0812145 -0.183601 -0.236924 -0.157117 -0.221943 -0.0535911 -0.0610074 0.176871 0.0632627 0.00858058 -0.046509 -0.177982 -0.0497595 -0.0302276 -0.0595937 0.000358308 0.0657588 0.189277 -0.0329686 -0.0573908 -0.0226519 0.0756084 -0.0513161 0.0606751 0.0425476 0.00874094 0.00668137 -0.0190659 0.0186732 -0.0197394 -0.065005 -0.183746 -0.198742 -0.137503 -0.11578 0.035464 -0.0985766 -0.00469956 -0.163435 -0.27283 -0.119188 0.0836337 0.0788741 0.0140953 0.0737118 0.0622909 0.105498 0.0486029 0.10858 0.0882169 -0.000944867 0.0463773 0.0828139 0.069147 0.0467658 0.0174644 -0.0480066 -0.0785034 -0.194785 -0.216624 -0.241239 -0.337971 -0.231324 -0.140345 -0.225353 -0.143753 0.0056331 -0.24435 -0.102101 0.118223 -0.0546625 -0.0375108 -0.190805 -0.0372873 0.0231255 0.00325828 0.11679 0.0192343 -0.0116181 0.0242037 0.0100411 0.0989293 -0.0544058 0.118918 -0.00205373 -0.139805 -0.195267 -0.169744 -0.232574 -0.262617 -0.290111 -0.391775 -0.397897 -0.22621 -0.13218 -0.238389 -0.0994521 0.0467168 -0.0452459 -0.0725347 -0.0549188 -0.0993284 0.00386304 0.0397937 0.0622556 0.0409989 -0.0091865 -0.0519534 0.103982 0.0583827 -0.0349147 0.00127644 -0.0676361 -0.169126 -0.194635 -0.0967123 -0.0632207 -0.15854 -0.124463 -0.268023 -0.386266 -0.130951 -0.219501 -0.210849 -0.193494 -0.102445 -0.191738 -0.263176 -0.307518 -0.181591 -0.194385 -0.0919363 -0.0449592 0.081569 -0.0573338 0.0700042 0.0152269 0.0169425 -0.0251858 -0.0622671 -0.0713726 -0.164057 -0.0425977 -0.126642 -0.00898345 -0.0346753 -0.0150133 -0.151232 -0.108013 0.0112559 -0.0732487 -0.115756 -0.141898 -0.267742 -0.364275 -0.326385 -0.258168 -0.154673 -0.225927 -0.0600264 -0.0546721 0.0317809 -0.064395 -0.0311551 0.0970153 -0.0192439 -0.10938 -0.176165 -0.108391 -0.107997 -0.006452 0.0765726 0.00545741 0.178965 0.0521706 0.0556524 0.143237 0.232052 -0.0364324 -0.0863404 -0.411858 -0.510287 -0.354219 -0.0613308 -0.163949 -0.231789 -0.22555 -0.0699843 -0.0862271 -0.0330317 0.0662829 0.0684197 0.00408497 0.10661 0.0426558 -0.00847522 -0.0116003 -0.196186 0.0548474 0.0654049 0.148398 0.280544 0.0576201 0.102542 0.201031 0.471267 0.0474037 -0.0448764 -0.105522 -0.238685 -0.170411 -0.276508 -0.281447 -0.163661 -0.0611078 -0.0914591 -0.0909511 0.101523 0.0934931 0.101193 0.0796483 0.00262585 0.110328 0.041098 0.0164078 -0.0545826 -0.135103 0.00395021 0.0540369 0.104877 0.113004 0.158491 0.237922 0.253841 -0.09918 -0.0540087 -0.0692544 -0.193263 -0.271818 -0.267721 -0.115501 0.02556 -0.106895 -0.105613 -0.00315977 0.009088 0.00473552 -0.00514739 -0.0526205 0.041432 0.0631519 -0.0137617 0.0407445 0.0428605 -0.184347 -0.221407 -0.0776737 -0.0182056 0.114228 0.192087 0.0977117 0.0364297 -0.118739 -0.00598198 -0.0246903 -0.163269 -0.262812 -0.181446 -0.048119 -0.11914 -0.134075 -0.0424592 0.0578827 -0.0514223 0.03474 0.0509017 0.0372455 1.93598e-06 0.0680563 0.0188905 -0.0784737 -0.11704 0.00480899 -0.0681662 -0.193698 -0.128991 -0.0220208 -0.321303 -0.261074 -0.101406 -0.143263 -0.083366 0.00487885 -0.137674 -0.415092 -0.272767 -0.078722 -0.0949306 -0.128534 0.0115644 -0.0426815 -0.0128337 0.0458966 0.0517742 0.00996899 -0.054215 0.0506978 -0.0031432 0.0356315 -0.106777 0.0574178 -0.0864336 -0.180419 -0.0832406 -0.276184 -0.453385 -0.249329 -0.154631 -0.213436 -0.076957 -0.0038641 -0.140422 -0.312248 -0.100528 -0.118063 -0.0724886 -0.0891998 0.0306748 -0.0479669 -0.00335076 0.0454243 0.0303111 -0.0473308 -0.0539573 0.0961341 -0.0329134 0.0211013 -0.0299759 -0.134765 -0.119116 -0.117959 -0.168282 -0.38625 -0.434303 -0.251082 -0.138122 -0.159344 -0.103228 -0.185234 -0.0690276 -0.153485 -0.117652 -0.0846583 -0.0920957 -0.0403055 0.0261001 -0.0306958 -0.0426855 0.0304986 0.0884572 0.028244 0.0250339 0.0186186 -0.041743 -0.0507847 -0.117483 -0.0562822 -0.131134 -0.0989113 -0.229465 -0.342734 -0.283416 -0.218083 -0.255493 -0.0515878 -0.222787 -0.141408 -0.131447 -0.122086 -0.0860099 -0.0618007 -0.0781868 -0.0993385 0.0250396 0.0174163 0.0394191 -0.0290513 0.00979554 -0.0121268 0.0908541 -0.0575995 -0.105961 -0.130217 -0.133086 -0.156557 -0.175943 -0.0970279 -0.227418 -0.252744 -0.115517 -0.185777 -0.144367 -0.0862292 -0.187938 -0.112516 0.0161488 -0.0702509 -0.148838 -0.210256 -0.157098 -0.124088 -0.0118065 0.0474491 -0.00260322 -0.0458399 0.0973727 0.013947 -0.0406606 -0.0234531 0.0196422 -0.0131686 -0.0814581 -0.101332 -0.137103 -0.0820019 0.050023 -0.00126626 -0.20685 -0.206608 -0.0279891 0.0300412 -0.141121 -0.230951 -0.0619091 -0.0228067 -0.104821 -0.0552579 -0.083421 -0.104862 -0.109477 -0.0500452 -0.0453851 0.0782475 0.00739525 -0.0333239 -0.0637571 0.0541332 -0.0227626 0.068324 -0.036275 -0.0391842 0.0145692 0.107656 0.199168 0.182222 0.00807658 -0.00129549 0.131111 -0.0096601 -0.00444754 -0.149011 -0.122179 -0.0637684 -0.0257474 -0.101575 0.0220402 0.019767 -0.0779012 0.0600855 -0.0189692 -0.00692637 0.0640309 -0.00782165 -0.0144778 0.0306233 -0.0169996 0.00066452 0.0147747 -0.0425681 0.00710125 -0.0168262 0.00402629 -0.0420532 0.0693715 0.243247 0.0432129 0.0662095 -0.00914535 -0.0634708 -0.026349 0.0492372 0.0310544 0.0384526 0.0741405 0.0102244 -0.043891 -0.0551286 0.0359806 0.0475681 -0.0484496 0.0542037 0.0884529 0.0450913 0.0160357 0.0450542 -0.0573413 -0.0500573 -0.0870653 -0.0860312 0.00214688 0.0714495 0.006519 0.123689 0.0793843 0.0780131 -0.0371988 0.0512505 -0.0482894 -0.0338529 -0.0424928 0.028665 -0.0308017 -0.0282767 -0.0485635 0.0163272 0.0294018 0.0886779 -0.0249156 0.0192296 -0.0566304 0.0530322 0.0246557 -0.00907069 -0.0313222 0.0708204 0.0355345 0.0220222 0.0525569 0.00768995 -0.0159523 0.0987214 0.081273 -0.0327138 -0.031171 0.0706448 0.046524 -0.00484422 0.0802359 0.1024 -0.00152571 0.0161848 0.00918641 0.000704706 0.00907373 0.0914427 0.012942 0.0219645 0.0734914 0.0596327 0.102515 0.0494376 0.0338894 0.00851368 0.0396543 0.0152688 0.0413627 -0.0157278 -0.0361584 0.0749182 -0.0528283 -0.0486827 0.0428317 0.0231611 0.0539308 0.0196892 -0.0205772 0.0740054 0.0123614 0.0750505 0.0321565 -0.0360702 -0.00428928 0.0730924
0.0401901 -0.0815904 -0.00359167 0.0130349 0.0368279 0.0668331 0.0747494 0.0233781 0.0725136 0.0709624 0.0749202 -0.0574375 0.00673492 -0.0721123 -0.0420584 0.0596211 0.0563064 0.00785441 -0.0410249 -0.00581798 0.065586 0.0782333 0.0469456 0.0678553 -0.0362424 0.0414696 0.0156632 -0.0747147 0.0192689 -0.00189669 -0.0448309 -0.0777583 -0.0307416 0.0292498 -0.0821855 -0.00859232 0.0438244 -0.0796451 -0.0146798 -0.0104272 -0.0353645 -0.0312255 0.0451856 -0.00649166 -0.0133565 0.032086 0.0372203 -0.0429075 -0.0342331 -0.0441913 0.0712478 0.00543852 0.0763101 0.0412892 0.00266078 -0.0289769 0.0493161 0.0210664 -0.0761493 -0.0729728 0.0823808 -0.0125947 -0.0343812 0.0263534 -0.0806216 -0.025442 -0.0495868 -0.0711276 -0.0298661 -0.0383449 0.00423623 0.0262215 -0.023323 0.0154101 0.058447 -0.028848 -0.00799405 -0.054647 -0.0146199 -0.00480365 -0.0400344 -0.0637757 -0.0761659 -0.0827203 0.055638 -0.0520004 -0.022896 0.0720025 -0.0154671 -0.0199317 0.0603097 0.0655884 0.0585549 -0.0286269 -0.0235911 0.0386442 -0.0179713 0.0579889 0.091608 0.0743891 0.0671652 0.13064 0.0171315 0.0200936 -0.05915 -0.0910374 0.0464776 0.0203748 -0.0359764 -0.0436757 0.036612 -0.0416554 0.0579957 0.0314424 0.0261372 0.0800693 -0.0144883 0.0801185 -0.00742591 0.0277386 0.0601661 -0.029739 -0.0514794 -0.0532521 0.0482095 0.0500414 -0.0329087 0.121452 0.0879804 0.0238223 0.123208 0.146399 0.0475354 0.0168585 -0.0343546 -0.0395699 0.0548522 0.0238028 -0.066167 0.0100719 -0.01961 -0.0333405 -0.0110788 -0.0123851 -0.0601142 0.0208084 0.0507397 -0.0618803 0.0644319 0.0783086 0.109526 -0.0258312 0.0115137 -0.00108934 0.0916948 0.135453 -0.00876648 0.00665498 0.0279563 0.103968 -0.0120494 -0.0095663 -0.00601401 -0.00123513 -0.0608047 -0.00986562 0.0595126 -0.080758 -0.0661133 -0.0697018 -0.00310622 -0.0692699 -0.0485684 -0.080909 -0.0363799 0.0652585 -0.0565182 0.0627489 -0.00479403 0.0801061 0.0723977 0.135977 -0.00877515 0.0283626 -0.015114 0.0518422 -0.0055176 0.0676489 -0.0247936 0.0361574 0.0164962 0.0510887 -0.0718526 -0.0101176 0.0172916 0.00171106 0.044756 -0.0785806 -0.0208505 0.0141937 -0.0263055 0.0184381 -0.0885904 -0.02722 -0.0318846 -0.0705769 -0.0757294 -0.0506695 -0.074945 -0.0429979 -0.0410686 0.0213323 0.0640725 0.135267 0.029701 0.0525236 0.128584 0.0568954 0.062306 0.0333693 0.0473801 0.0034299 -0.0369499 0.0262953 0.0252502 -0.0616621 -0.0284152 -0.0599179 -0.0486242 -0.0539216 -0.0797224 0.00125244 -0.0654657 -0.0964223 -0.147453 -0.218025 -0.0291899 -0.274668 -0.131179 -0.0537579 -0.0228053 0.0734022 0.00349679 0.00356528 0.0810512 0.0838373 0.0558101 -0.0288133 0.0198083 0.0143352 -0.0132835 0.0761974 0.0378006 0.00611445 0.0395596 -0.0237462 0.0548365 0.0286123 0.00654046 0.00250891 -0.0917589 -0.163061 -0.200095 -0.146405 -0.215747 -0.296971 -0.259522 -0.179729 0.0495452 0.0478741 -0.0041828 0.00726294 0.0466096 0.0614203 0.011382 -0.00123792 0.0571988 0.0424152 -0.0263462 0.0505728 -0.035288 0.0660805 -0.0537992 0.000431083 -0.0549224 -0.103603 -0.042064 -0.0824499 -0.0558634 -0.084649 -0.150483 -0.200352 -0.119404 -0.0666036 -0.0633597 0.0416691 0.208902 0.0319324 0.0185397 -0.0168664 0.0385194 0.0619068 0.119934 0.0550314 -0.0273 0.0832616 0.00514478 0.0218969 0.0700644 0.0686004 0.0244549 0.0689855 0.015912 -0.0610667 -0.0611215 -0.0179552 -0.10497 -0.114939 -0.0779032 0.0377173 -0.0343504 0.00783779 0.0113544 0.120562 0.106291 0.119232 -0.00962863 0.00894858 0.138208 0.0700709 0.0540046 -0.0728956 -0.009732 0.0155842 0.011588 0.010088 -0.0261988 0.0442368 -0.0673305 0.098933 -0.0298834 -0.000123476 -0.0699727 0.0721647 0.01728 0.10774 0.125501 0.0755913 0.220394 0.0315016 0.107177 0.118279 0.0421346 -0.0587279 0.0222093 0.0515134 0.0136058 -0.0165852 0.0628777 -0.0576222 -0.048037 0.0400531 0.0450351 -0.000148274 -0.00386651 0.032583 -0.0440137 0.0822434 0.0819742 0.0668167 0.109948 0.0625178 0.0189953 0.149802 0.0628413 0.173183 0.0565094 0.0452327 -0.0183712 -0.0201703 0.0779282 0.0314567 -0.0171427 -0.0218573 0.0319483 -0.0550126 0.0158706 0.00404271 -0.0736926 0.0367974 -0.00587954 0.0338438 -0.070442 -0.00752666 0.0830693 0.0926849 0.015271 -0.0483876 0.00715824 -0.00447286 0.000977086 0.0916946 0.0897488 0.102914 0.00217438 -0.066542 -0.0752178 -0.0567227 -0.0822837 -0.0425695 0.00525194 0.0679618 0.017801 -0.0640664 -0.000135061 -0.0164897 -0.0751382 0.0558515 0.00182227 -0.0108569 0.0802355 0.0772565 0.0046305 0.0247404 0.0967819 0.117665 0.0464497 -0.0900716 0.0220421 -0.0283492 0.0441532 0.0155925 -0.0719759 -0.0604306 -0.1039 -0.0206241 0.0584411 0.0830189 -0.000595599 0.0872951 0.0609889 -0.0106151 -0.105179 -0.0273021 -0.0895959 0.0634324 0.0692795 0.0828903 -0.0752064 -0.0656359 -0.0776791 0.00284625 0.0723402 -0.0243211 0.0361817 0.0170934 -0.121036 -0.0608979 -0.00658541 0.0049949 -0.0177348 -0.00685887 -0.129352 -0.00176641 -0.0020253 0.0984227 -0.071938 0.0264045 -0.0634405 -0.00555607 0.020428 -0.112207 -0.013194 0.00598731 -0.0241203 -0.00536351 -0.0663662 0.0176715 0.0184716 -0.0361035 0.00264133 0.0567923 -0.0334875 -0.0578779 -0.124161 -0.0630869 -0.0306001 -0.0434838 -0.0309241 0.00177814 -0.000617015 0.0745185 0.0990076 0.0531525 0.0608627 0.0330219 -0.105899 -0.0995321 -0.0601297 -0.0733415 0.00186463 0.00768592 0.0201921 0.0705673 0.0303575 -0.0093312 -0.0658312 -0.00576845 -0.0330267 -0.0591495 -0.0527153 -0.107716 -0.0248308 0.069068 -0.0384189 0.0534262 -0.0039167 0.105459 0.119315 0.149945 0.00759046 0.0618421 -0.00435336 0.0226291 -0.0233995 -0.0394229 -0.0393343 0.0189332 -0.0222124 0.0694498 0.0275384 -0.0824616 -0.0119308 -0.0100603 0.0148169 0.0479902 0.0723021 0.0392442 0.0391925 0.103733 0.0594956 0.0587397 -0.0112755 0.0347042 0.101555 0.0850532 0.1006 0.0526558 -0.0819885 0.0409061 -0.0402808 -0.0269055 -0.0829388 -0.0537921 -0.130984 -0.0101242 0.0604241 -0.0557164 -0.0818739 0.00681347 0.00987947 0.0478502 -0.0343089 0.0720926 0.103918 0.0934025 0.0815216 -0.00996899 0.0931832 -0.0254044 -0.0490425 0.056214 0.116661 0.0619846 0.0171897 -0.0744532 -0.072006 -0.0570864 -0.132788 -0.0865271 -0.0857961 -0.128572 -0.0590932 0.0018543 0.076264 0.0368473 -0.0758234 -0.0617391 0.0368799 0.0632101 0.0511416 -0.0393878 -0.0314267 -0.00256015 -0.0349946 0.0197544 -0.0309171 -0.0362388 0.0356341 0.00480204 -0.00961446 -0.0418799 0.0487149 -0.126497 0.0237975 -0.0864841 0.0210773 -0.0752033 -0.0156086 -0.0817848 0.00150277 -0.019135 -0.0122709 0.0443508 0.0590294 0.0603296 0.0422394 0.0239382 -0.0259376 0.0775308 -0.0529669 -0.0603785 0.0283567 -0.0877427 -0.0831964 0.0225181 0.0797671 0.0774012 -0.0456959 0.0408395 -0.0122386 -0.0636551 -0.0419066 0.0347227 -0.0736625 -0.071443 -0.105971 -0.092238 0.0506555 0.0763475 0.0385341 -0.0500522 -0.0619744 -0.0815972 0.0540966 0.0322094 0.084459 0.0226231 -0.0239482 -0.000667003 -0.0674647 0.00631994 0.0185983 -0.0331367 0.0176693 0.109648 0.0768887 0.0580897 -0.0794266 0.0135743 0.00556466 -0.0739296 0.0379812 -0.0747315 -0.0267973 -0.066367 -0.0437079 -0.0408556 0.0634707 -0.0416582 0.0842067 -0.00244971 0.0179999 0.0508747 -0.0655211 -0.0218828 -0.0158415 0.0435634 0.0753075 0.0286515 0.0828701 0.0197014 0.0293978 -0.00155623 0.0176255 -0.0179479 0.0467903 0.0110993 -0.0298833 0.0704086 0.044853 -0.0972082 -0.0618328 0.0463389 -0.0792042 0.0519241 -0.02012 -0.00204194 -0.0302067 0.00823574 0.0603244 -0.0407301 0.0170728 -0.00846013 0.000312876 -0.0281808 0.0618612 0.0717914 0.0393496 0.0261767 -0.0307724 -0.0780158 -0.0153713 -0.0652387 0.0565 0.0162419 -0.0299552 -0.0118391 0.0199161 -0.0592269 0.00972154 -0.0679194 -0.0179329 0.0717884 0.0147699 0.0425968 -0.0216359 -0.0813882 0.0710336 -0.0683241 -0.0236737 0.0370361 0.00980777 -0.0401235 -0.010724 0.0377435 -0.0194011 -0.0238193 0.00136421 -0.0466893 -0.0159293 0.0429696 0.0206293 0.0165722 0.0360925 0.0659455 0.0781777 0.0606696 0.0854644 0.080736 -0.0755361 0.0105334 0.0829232 -0.0298189 0.0275373 0.0326351 -0.0654782 -0.0680828 -0.0735075 0.0345233 -0.0311536 0.0570002 -0.0526332 -0.06291 -0.0383383 -0.0376286 -0.0590155 -0.0467215 0.0444043 -0.0283166 0.00751811 -0.0485219 -0.0705764 0.00214704 0.0730638 0.0269565 0.032726 0.0636346 -0.0757954 -0.0368915 0.0582073 0.0401219 -0.0715366 0.0822367
