0.0540743 -0.0254825 0.0168238 -0.023077 -0.0201929 -0.0440234 -0.00517641 -0.02802 -0.0724818 0.0501922 -0.0159067 -0.0114342 0.092819 -0.00817817 0.0118137 -0.00730798 0.0124694 0.00976369 0.0473338 -0.0294145 0.0219319 0.0198234 -0.0673494 0.00447397 -0.0321616 0.0668372 -0.0209703 -0.0344474 0.0253682 0.0308128 -0.0589387 0.0688367 0.0094391 0.0132135 -0.0066179 -0.0464091 -0.0398355 -0.0266096 0.0273367 -0.0441309 -0.0584008 -0.0454422 -0.0240261 -0.0661327 0.0399245 -0.0625936 -0.0771691 -0.0689396 -0.0400429 0.00189041 -0.0221186 0.0555459 -0.00511558 0.0916022 -0.0542324 -0.0702793 0.0726903 0.022449 -0.0292721 -0.0183816 0.0492369 -0.00584581 -0.0546202 0.0161382 -0.00804657 -0.063517 0.0545954 -0.0777126 0.00677147 -0.0570171 0.00135155 -0.0345813 0.0501548 0.0816304 0.0158224 0.0693404 0.0442325 0.0102336 -0.0215341 0.00426424 0.0143145 0.057697 0.0841838 -0.0706929 0.0213959 0.0873819 -0.00790181 0.00189393 -0.0369793 -0.0702682 0.0490674 -0.00469991 0.036219 0.0323671 0.0232158 0.0355384 -0.0306214 0.0405079 -0.0445283 -0.0493096 0.00116631 -0.0728717 0.00985536 -0.0973407 -0.0124595 -0.0553895 -0.026879 0.0569542 0.0784355 -0.0540172 -0.00932122 -0.0138442 0.00334043 0.0530131 0.0152558 -0.0715452 0.0216278 0.0789201 -0.0264571 -0.0581685 0.0338834 -0.0294097 0.00507096 0.0348749 0.00654462 -0.0666127 -0.0991588 -0.143259 -0.0617447 -0.0373229 0.0256634 -0.0519137 0.0957991 0.0970907 0.0750044 0.0889868 0.0273008 0.0742225 0.0756659 -0.0526942 -0.0409062 0.0277156 0.0217948 -0.0605545 0.00540316 -0.0551367 -0.0127911 0.00427882 -0.0198972 -0.0415361 -0.00795346 -0.00634277 -0.0127316 -0.166262 -0.171814 -0.234241 -0.0696393 -0.11639 -0.10596 -0.174878 0.00652084 0.015235 -0.0718551 0.0206785 0.0646145 -0.00152073 0.020312 0.0661736 -0.0264647 -0.0543754 0.0656714 0.0658346 0.000951102 0.0167092 -0.0890415 -0.0653573 0.091509 0.0988216 -0.0742424 -0.106267 -0.0391761 0.0162786 -0.0285525 0.0554804 -0.0164043 0.118454 -0.0473565 -0.0805485 -0.0163154 0.082594 -0.0578593 0.0600022 -0.00305366 -0.0207055 -0.0307764 0.0320246 0.0282542 0.087965 0.0735954 -0.0676629 0.0556187 -0.0126114 -0.0817915 0.0116441 0.0427712 0.00170831 -0.0196122 0.113565 -0.0121018 0.148857 0.0451958 0.0560352 -0.0412484 0.0677975 0.00824219 0.0956237 -0.0722571 0.115334 0.000449494 -0.0227167 0.0572272 0.0302891 0.0791022 0.00214755 0.0518418 0.0709829 -0.0422761 0.000584506 -0.0466193 -0.0727721 0.101651 0.0292238 0.103276 -0.0986504 -0.0127676 0.0647067 -0.0693642 0.0382183 0.0441722 0.0655907 -0.00911902 -0.0290741 -0.0243657 -0.129266 0.0123988 0.0587175 0.0194562 0.00163771 -0.0235578 0.0385873 -0.0572495 0.0289328 0.0652412 0.0449161 0.0334695 0.0479541 0.024509 -0.0170905 -0.00626254 -0.00276846 -0.00870922 -0.148455 -0.136026 -0.106918 -0.165694 -0.132423 0.00741819 -0.0458875 0.00974491 0.0714268 -0.174015 -0.0878002 0.0103783 -0.0400549 -0.0635361 -0.0979211 -0.00751885 0.0761971 0.0414704 0.0754322 -0.0580614 -0.00132834 0.0473278 -0.093574 -0.00861508 0.0419972 0.0419818 -0.0333118 -0.0334046 -0.0877295 -0.000777645 -0.0553657 -0.167857 -0.278505 -0.153584 -0.0870943 -0.106274 -0.0899733 0.036863 -0.0372892 -0.0501047 -0.081567 -0.00688241 -0.0850527 -0.00599524 0.0382276 -0.0261977 -0.0436932 0.0180455 -0.00449693 -0.0196347 -0.0813301 0.0551238 -0.0127701 -0.00576443 -0.109121 0.132321 0.0521276 0.0833704 0.029167 -0.165199 -0.229346 -0.160074 -0.0171393 -0.154437 -0.168928 0.138683 -0.052742 -0.10311 0.00225817 -0.0885952 -0.0442896 -0.068385 0.0429968 -0.0492502 0.0746493 0.0612132 -0.0168422 -0.0278171 0.0293116 -0.0378164 0.0487418 0.0601982 0.115188 0.157011 0.0763795 0.0735263 -0.0223372 -0.0808963 -0.0454239 -0.142664 -0.0355117 0.0352246 0.00733874 0.0212498 0.109505 -0.103279 -0.123848 0.00510212 0.0189672 -0.141358 0.0398833 0.0611076 0.0166784 0.043474 0.012016 -0.0527347 0.0327087 0.002818 0.0689746 0.0734614 0.242248 0.130445 0.169243 0.0831666 0.0950883 -0.0118652 0.013133 0.074053 0.0605443 -0.00307688 -0.0776703 0.0888651 0.0613645 -0.0822516 -0.111008 -0.0714507 -0.0134912 -0.0487361 -0.0667916 0.000731615 -0.0073447 -0.0300649 -0.059729 -0.0113691 0.0606828 -0.000787396 0.0738759 0.215426 0.297981 0.235139 0.101591 0.0921364 -9.64148e-05 -0.0468045 0.134644 0.233725 0.120751 0.121999 0.0275885 0.100675 0.144197 -0.0567518 -0.0245928 -0.0232498 0.0404541 -0.131756 0.0756117 -0.0285476 -0.0571202 0.0274306 -0.0699687 -0.0394295 0.115826 0.040327 0.0870964 0.153512 0.148098 0.0483715 0.094482 -0.0294605 0.0506667 -0.0566852 0.081399 0.131987 0.0502133 0.0890162 0.161573 0.0647103 0.0274766 -0.0944372 0.0252627 0.0839455 -0.0123059 -0.084387 -0.0709207 0.0461727 -0.0587281 0.0234816 -0.0764979 -0.0711166 0.0171138 0.0383826 -0.0337175 0.203397 0.00252427 0.013727 -0.100708 -0.128792 0.0872997 0.123247 0.135249 0.174201 0.0955303 0.119587 0.145426 0.064909 0.00247506 0.00032465 0.067309 0.0145177 0.0341037 0.0572794 0.0136393 -0.0485524 0.00482298 -0.0209634 0.0902163 0.0327634 0.0406123 -0.101331 -0.0487797 -0.0351457 -0.0440994 -0.122073 -0.0654161 -0.0703509 0.0158022 0.0835398 0.0666726 0.0557794 0.148109 -0.00249582 0.114819 0.0236248 -0.0392818 0.0702529 0.0494362 -0.125339 -0.146123 -0.0069354 0.0167705 0.0145703 0.0792576 0.091365 -0.0393801 0.080502 0.0200982 -0.0252076 -0.037148 0.0675224 -0.0208509 -0.115547 -0.118408 -0.0296663 -0.010159 -0.0102821 0.102363 0.088358 0.0332183 0.0474981 0.0488792 -0.0622399 -0.0926009 -0.0345901 -0.0766655 -0.0167338 -0.0240658 0.0287495 -0.0430611 -0.0299196 0.0788208 -0.0579987 0.0219736 -0.000938101 0.0175755 -0.043083 -0.0665512 -0.11801 -0.166463 -0.174738 -0.194468 -0.0425498 -0.005129 -0.0470579 0.0219924 0.0383005 -0.115748 0.0793208 -0.0393866 -0.0101988 -0.00481448 -0.0746949 -0.0665261 -0.0696926 -0.0373873 0.00377264 0.0734647 0.0506355 -0.0497181 0.0372146 -0.030955 0.0474531 -0.0243286 -0.00459622 -0.0773691 -0.101287 -0.18136 -0.130469 0.00673804 0.00564176 -0.0734165 0.0462066 -0.0243463 -0.0535142 -0.0536181 0.0801603 -0.041723 0.0323421 -0.101399 0.00554088 0.0766394 0.030582 -0.0149243 -0.0462763 0.0399331 0.0827932 -0.0294707 0.0743966 -0.0356065 0.035772 -0.0875173 -0.0270397 -0.131254 -0.152037 -0.145434 -0.0677363 -0.113306 -0.0407612 -0.0586688 -0.12129 0.0170452 -0.0935088 0.0191945 -0.024821 0.0550297 -0.0784607 -0.00909546 -0.00036175 0.0118744 -0.101479 -0.101292 0.0424048 0.0139537 -0.0662195 -0.0258648 0.0913167 0.0442846 -0.0569631 0.0631125 -0.0796581 -0.150255 -0.0410873 -0.0939659 -0.0999968 0.00723663 0.0419984 -0.0182532 -0.142482 -0.155012 -0.101502 -0.0823295 0.00545379 -0.0948552 -0.0141997 0.0134127 0.0200208 0.0357865 0.0423163 -0.049473 -0.0616201 -0.0979697 0.0430821 0.093536 -0.0512671 -0.00575574 -0.0117389 0.0742097 0.0305595 -0.0146155 -0.00101465 -0.109798 -0.0585401 -0.00459715 -0.0113678 -0.0444429 -0.134234 -0.094067 -0.0359047 -0.0700222 -0.103256 -0.0832533 0.0125629 -0.0242673 0.0582244 0.0516694 0.115987 -0.0441411 -0.095341 -0.0171758 -0.0608649 -0.054044 -0.0700085 0.0552996 -0.00746817 0.0300285 -0.0544692 0.0198811 -0.0895739 -0.0454644 -0.0886972 -0.065823 0.0600276 0.0373436 -0.0160994 0.0657806 0.0720824 0.00432709 0.0264175 -0.120953 -0.0301378 0.0631409 0.0529328 -0.0360514 0.0514122 0.0803692 0.0270144 -0.0570714 -0.0562158 -0.0225269 -0.0374963 0.0629102 0.00901552 0.0498159 0.0418141 0.0706301 -0.0330189 -0.0722829 -0.00999934 -0.0462653 -0.0198441 0.0508253 -0.00169949 -0.018564 0.0563384 0.0796096 -0.0187441 0.10879 0.0653453 -0.0848776 0.0976367 0.0491359 0.012256 -0.0804668 -0.0178947 -0.0488638 -0.000928666 0.0523636 0.0474664 0.0679872 -0.00768489 -0.0290627 -0.0178989 -0.0251315 -0.00202921 0.0103974 0.0888656 0.0770855 0.0334736 0.0230771 0.0239375 0.0545572 -0.0517364 -0.0426092 0.0233209 -0.0887206 0.00583153 0.0262133 0.0807372 0.0562836 0.0170605 -0.039554 0.010802 0.0867908 0.00876675 0.020467 -0.0324511 0.0613289 0.0669505 -0.063666 -0.0440751 -0.0550224 -0.0279766 0.00650488 -0.0680266 -0.0186023 0.033273 0.091063 0.0752534 0.0019922 0.0792629 0.0817194 0.0365205 0.0632848 0.092246 0.0851635 0.00562729 0.0292956 -0.0202218 -0.006069 0.0806159 -0.062618 0.0610837 -0.0146314
-0.0647273 -0.0706743 0.0686458 -0.0687701 0.0293008 -0.0201186 -0.0683562 0.0601363 -0.082306 -0.00695123 -0.0316205 -0.00429547 -0.0209421 0.000510957 0.00206559 0.000650144 0.0135882 -0.0407155 0.00268376 0.00727325 0.0128509 -0.00742856 -0.00802774 -0.00447478 -0.0437071 -0.0767884 0.0306614 -0.0397704 -0.0359899 0.0142285 0.0276338 -0.0249425 -0.020976 0.00946314 -0.00802709 0.0336175 -0.0787828 0.0343868 0.000636276 0.0325836 -0.0793957 -0.0312647 0.0187438 -0.0422526 -0.0365903 -0.0408809 3.11673e-05 -0.0179061 0.0634963 -0.0208592 0.0739989 -0.0702753 -0.0111253 0.0340097 0.00812948 -0.0431315 0.0764692 0.0748979 0.0311777 -0.0742078 0.0455443 0.048828 -0.0508091 0.0295192 -0.00540093 -0.0486271 0.0163245 -0.0141761 0.0163045 0.00729286 -0.0142244 -0.00828028 0.086275 0.0205668 -0.0504596 -0.0660736 -0.017175 0.0705096 -0.0766966 -0.0377388 -0.0841491 0.072913 -0.0581486 0.00637472 0.0649034 0.00572971 -0.0775919 0.02132 -0.00802614 0.0781343 -0.0324232 -0.0287328 0.0166755 0.0548075 -0.0683556 0.0179747 0.0620863 0.0610525 0.0966677 0.0351117 -0.0355809 0.0352106 0.0157614 0.0122904 0.0334535 -0.0317987 0.00734999 -0.0144947 0.0129466 -0.0421483 0.0721014 0.0683847 0.0550567 0.051325 0.0678359 0.0217653 -0.0129543 0.0402394 -0.0663831 0.0761729 -0.0313273 0.00784513 0.063742 0.0298972 -0.0409224 0.104018 -0.0263584 0.0429936 0.0838192 0.129606 0.109839 0.14607 0.0289289 0.145159 0.160633 0.00730687 -0.0126557 -0.0653292 0.0465002 -0.00117795 -0.000736328 0.00141822 0.0738961 0.0615164 0.0547595 0.0460272 -0.0316062 0.0210384 0.0454749 -0.0478918 -0.112363 0.0457814 -0.0848371 0.0165758 -0.144232 -0.236875 -0.181291 -0.153115 0.0357178 0.0452017 0.128455 0.0312669 0.0692169 0.0251357 -0.0282436 0.0943668 0.0562221 -0.0759857 0.0159082 -0.0780748 0.0423936 0.0820034 -0.026778 -0.018509 0.0369433 0.00959458 0.0548855 -0.0309173 0.0935506 0.0323419 0.140634 0.123214 0.146366 0.11327 -0.028484 0.0993367 0.032253 -0.0228055 -0.0786196 -0.00210014 0.102895 0.00879308 -0.00478067 0.0399971 0.0633716 0.0504619 -0.0642166 -0.0457393 -0.0378465 0.08411 0.00821855 -0.0308713 -0.0202189 0.0315011 0.0212911 0.0216094 0.0809565 0.189091 0.115758 0.09133 0.208354 0.200088 0.0659634 0.152774 0.189558 0.202927 0.183336 0.0488868 0.0297171 0.00320711 -0.0376677 0.0453802 0.0100849 -0.0631233 -0.0701293 -0.0703752 -0.0199473 -0.0224711 -0.000633617 0.0896409 0.0913681 0.00958961 0.107903 0.0608141 0.106652 -0.00156005 0.0625237 -0.0425162 0.178674 0.0889726 -0.0263818 0.026946 0.0638209 0.0726258 0.0603399 0.0882897 0.0245799 0.0505986 0.112526 0.0169997 -0.0402787 0.00160871 0.0706717 0.0809511 0.0184105 -0.0422218 0.0879008 -0.000718192 0.043168 -0.00435779 -0.0585926 -0.0216832 0.0338118 0.0123594 -0.0505048 -0.0257706 -0.00351491 -0.0841467 -0.257662 -0.256336 -0.265525 -0.242933 -0.0764376 -0.0567669 0.00524964 -0.0398322 0.0379979 0.135946 -0.0355224 -0.0865628 -0.0158459 -0.012484 0.0163386 0.0800701 -0.0271241 0.115826 0.0563795 -0.106124 -0.0362887 -0.0466895 -0.0234888 -0.0471412 -0.167607 -0.0536464 -0.166308 -0.167759 -0.251388 -0.248763 -0.0682774 -0.216734 -0.0253463 -0.0567142 -0.0679549 -0.0256578 -0.0119178 0.0453756 0.0591505 -0.0686995 0.0796846 -0.0226656 -0.0385014 -0.0132652 0.0665036 -0.0629947 0.0816798 -0.0901822 -0.115486 -0.0763819 -0.114856 -0.120415 -0.1639 -0.180649 -0.169959 -0.292306 -0.337215 -0.0864992 -0.0271552 -0.0984844 -0.178636 -0.208221 -0.194103 -0.0321459 -0.054233 -0.00591478 -0.0681916 0.0122754 0.0527228 -0.0158851 0.047513 -0.0308479 -0.0842537 -0.0328501 -0.02553 0.0415932 0.0197767 -0.113091 -0.0421718 -0.0905882 -0.141039 -0.0650545 -0.00891351 -0.0990368 -0.086721 -0.106878 -0.0154749 -0.181198 -0.141382 -0.176457 -0.28306 -0.044647 -0.0683111 -0.0124327 0.0243484 -0.0509522 0.0795382 0.0278671 0.0760224 -0.0547851 -0.0415421 -0.0858728 -0.0026351 -0.0484687 0.0879809 -0.0851501 -0.0275443 -0.0444479 -0.0746322 0.0240697 0.14613 -0.163429 -0.0532282 -0.095809 -0.178748 -0.112804 -0.0827696 -0.190688 -0.10585 0.0141663 -0.0127107 -0.0200214 -0.0579632 0.0436419 -0.0106717 -0.00697622 0.0160665 -0.000763357 -0.000927869 -0.0933192 -0.116926 0.0810353 0.0355844 0.0513054 -0.114884 -0.24554 -0.197863 -0.0423172 0.0878698 -0.0785657 -0.068075 -0.0242992 -0.103423 -0.165909 -0.162191 -0.104639 -0.103317 0.0882317 -0.0451322 0.0494133 -0.0527764 0.0378795 -0.00974011 -0.0482463 -0.0624897 0.0573611 0.0297143 -0.0685823 -0.045307 -0.116879 -0.0793264 -0.114387 -0.131985 -0.167189 -0.0837973 0.0753748 0.142931 -0.178132 -0.0474676 -0.138808 -0.0278785 -0.144693 -0.198549 -0.00873058 0.0116178 0.0302597 -0.0385061 0.00149049 -0.0266309 0.0112669 -0.0752915 -0.00323592 -0.0347453 -0.0591343 -0.0899606 -0.142968 -0.167564 -0.211504 -0.214803 -0.0755559 -0.0824544 -0.028663 -0.0193205 -0.0239353 -0.0380481 -0.0616783 -0.0803557 -0.172897 -0.167502 -0.136789 -0.0459937 -0.0675572 0.0788315 -0.0487543 -0.0475858 -0.0711524 0.0282757 0.0249339 -0.0107946 0.03337 0.0596159 -0.000712972 -0.0326598 -0.012867 -0.126541 -0.200208 -0.329575 -0.0920091 -0.0628146 -0.125719 -0.155206 -0.220042 -0.0532057 0.0746457 -0.0817459 -0.0412465 -0.175482 -0.269525 -0.161453 -0.114361 -0.000221732 -0.121555 0.00170074 0.0362949 -0.0642608 -0.0319428 -0.0415565 -0.0806088 -0.0103434 -0.00270831 -0.037628 -0.0942405 -0.0838766 -0.177374 -0.00784807 -0.0349935 -0.0388817 -0.285245 -0.344288 -0.341028 -0.105675 -0.0860937 0.0199366 -0.119591 -0.210192 -0.113233 -0.0336243 -0.0322831 0.0861704 -0.0610041 -0.0375201 0.0147806 -0.0296413 -0.0105944 0.0324562 0.00999256 0.00666449 0.0539414 0.0320052 -0.116502 -0.0806933 -0.0324346 -0.0202861 -0.101906 -0.062448 -0.0738657 -0.169428 -0.210457 -0.228924 -0.0923342 0.0778701 0.131707 0.0424186 -0.0957345 0.00645848 0.0613069 0.00933773 -0.0899437 -0.00387044 -0.032106 -0.0422796 0.071332 -0.0417092 0.0172392 -0.0306298 -0.000118826 0.0675488 0.0317384 -0.00249656 0.0471659 -0.0771738 0.173562 -0.00974938 0.129476 0.131543 -0.188509 -0.0112361 0.0814185 0.171911 0.143713 0.00384581 -0.0157819 0.0851341 -0.0356221 0.11679 0.0715731 -0.0954636 -0.0525602 -0.0129611 -1.26351e-05 -0.00103772 0.0507768 -0.0822119 0.0799094 0.0381727 0.0695419 -0.027687 -0.00974654 0.0820907 0.138157 0.0720301 0.114601 0.210776 0.0120243 0.0456851 0.197223 -0.0389443 0.039193 0.0212653 0.126574 0.0258047 -0.031493 0.0822678 -0.0628873 -0.0942382 -0.0113116 -0.00821672 -0.0819645 -0.00238246 0.0793838 0.0404611 -0.0545709 -0.0835388 -0.0128125 0.0356691 0.00988682 0.0745929 0.113296 0.112898 0.146173 -0.0288153 -0.0788926 0.156835 0.0908763 -0.0567444 -0.0145149 0.0315293 0.0821311 0.156177 0.0674544 0.0667904 0.0776361 -0.0700553 -0.0458567 -0.0540369 0.0649462 -0.059999 -0.00635123 -0.0239123 -0.0522982 0.072837 -0.0171347 -0.0433001 0.0659543 0.0381552 0.133047 0.101034 0.0584459 -0.0848088 0.106251 -0.023272 0.0826921 0.0846958 -0.0415897 0.122741 0.073387 0.0250738 0.0557043 -0.0602255 0.0559013 0.0416212 0.0764218 0.0519557 0.0470311 -0.0776409 0.0304011 0.0301549 0.0619964 0.037098 0.0855433 0.00810445 0.0288408 0.0232039 0.130314 0.0522839 0.0232095 0.0420719 0.129722 0.15665 0.147351 -0.0289153 -0.0479333 0.155759 0.145396 -0.0197474 -0.0352143 -0.056563 -0.0190595 0.0829567 0.0543113 0.078664 0.0314536 0.0519046 0.00548183 0.0489798 0.0648241 -0.0312354 -0.0355026 0.0888218 0.0225369 0.0883768 0.0542737 -0.0083463 0.0901751 0.154214 0.0800155 0.026369 0.0508297 0.0514596 0.138662 0.02028 0.0052041 0.029673 -0.0288936 -0.0678782 -0.0517936 0.0398386 -0.00785225 -0.020269 -0.0839586 0.0606822 0.0377237 -0.0844563 0.0111629 0.0531003 -0.0549931 -0.0720852 0.0375513 -0.0497218 -0.0796846 -0.0757281 -0.0870239 0.0118845 -0.0126795 0.023867 -0.0157099 0.0969383 0.0875436 0.1214 0.0902985 -0.00330451 0.092335 -0.0247686 0.053682 -0.0178836 -0.0864995 -0.0367752 0.0138711 0.0401574 -0.0158422 -0.0743477 -0.0111949 0.041974 0.0294683 -0.0453599 -0.0802743 -0.0473843 0.0126845 0.0553238 -0.038572 -0.0282202 0.0458864 0.0489132 0.0657442 0.0797088 0.0213523 0.081944 -0.00597584 -0.0128505 0.000454688 0.0240959 -0.0478197 -0.0745621 -0.0433768 0.0377091 -0.0865532
0.0781494 0.0449404 -0.0202718 0.00860829 -0.0718792 -0.017304 -0.0565678 -0.0650717 -0.0695403 0.0786079 0.0598595 0.000348907 -0.0499749 0.0455622 0.075832 -0.0632568 -0.0402498 0.00133709 -0.056487 0.065081 -0.0074154 0.0654597 0.0345998 0.0492286 -0.049136 0.0200303 0.0784181 -0.0776183 -0.0174857 0.0122175 0.00268209 -0.0729212 -0.0202645 0.0406025 0.0469935 0.0121217 -0.0511047 0.0241746 0.071108 0.0487929 -0.0739583 0.0237369 -0.0066172 -0.0117895 -0.0263344 0.0831193 -0.0598987 -0.0716936 -0.0071875 0.0436186 0.0296191 0.0576692 -0.0765233 0.00328712 -0.0440963 0.0483072 0.0713483 -0.0392208 0.0108158 0.0506316 0.0234204 0.0817273 0.0352663 -0.0140214 0.0665624 0.0355992 -0.0360397 0.0397114 0.0574464 0.084144 0.0180259 0.0272369 0.014281 -0.0124306 -0.0737963 -0.0281994 -0.0172677 0.0575182 0.0208977 0.0857972 -0.0631311 0.0851606 0.0814473 -0.0679204 -0.016858 -0.0575289 0.0146313 0.024904 0.03374 0.0623275 -0.0105247 0.0249354 0.0694683 -0.0163378 0.0499773 -0.0597498 -0.0640951 -0.0824706 0.0411898 0.0420166 0.0173739 0.0162277 0.0427951 0.0108927 0.0589188 -0.0750148 0.0587218 -0.0403118 0.059133 0.0104894 -0.0799458 0.0167844 -0.0502489 0.0381551 0.042768 -0.0418062 -0.0331185 0.085933 0.0386521 0.0189288 -0.0116822 -0.0337212 0.0100513 -0.014038 -0.0167231 0.0734465 -0.0573534 -0.0383995 -0.0745539 0.0400488 0.0222032 -0.040022 -0.0767596 -0.0506715 -0.0438662 0.0144189 0.0633846 -0.0367739 0.0721233 0.0848731 0.00916075 -0.029286 0.00971759 -0.0341569 0.0693911 0.0622739 0.0592603 -0.0755593 0.0344266 -0.0366983 -0.00952629 -0.0531815 0.0695777 0.00363624 0.0372175 -0.0659178 0.0816745 0.0607523 -0.0465909 -0.0103726 0.0529856 0.0234983 -0.0587755 -0.00988175 0.0467011 -0.0058125 0.0473448 -0.0123067 0.0816872 0.0575624 -0.0173658 -0.0206274 -0.0236514 0.0561912 -0.0233643 0.0342824 0.0485996 0.0335807 0.0125611 -0.0375725 -0.016039 0.0310615 -0.0312007 0.0679942 0.0650417 0.0109787 -0.0138108 0.0705995 0.0715713 -0.0145236 -0.0657072 0.0178921 0.0582133 0.0522893 0.0584745 -0.0752608 0.00215533 -0.0550723 -0.0771631 0.0197449 -0.0432812 0.0314768 -0.0514109 0.0125631 0.0697784 0.0331155 -0.0476644 0.0200994 -0.0415939 0.0473234 0.0670209 0.042515 0.048888 0.0346721 0.0238341 0.0478364 0.0279021 -0.0591575 -0.0124824 -0.0786512 -0.069991 0.0703727 0.0823138 0.000316735 -0.0425922 -0.0589344 -0.0821515 -0.0677862 -0.0583844 -0.0605326 0.00424916 -0.0526669 0.0830959 -0.0120914 0.0337387 -0.039729 0.0619046 0.0176939 -0.0847452 -0.0567622 -0.0445862 0.0237931 -0.0255044 0.0604141 -0.0590476 -0.0663315 -0.00601733 0.00277802 0.0487664 0.0429285 -0.00492777 0.0705796 -0.0763876 -0.0514189 -0.065122 -0.0803897 0.0479326 0.0627002 -0.0536149 -0.0270584 -0.055064 0.0170527 0.0383376 0.0147588 0.0293286 0.0019174 -0.00959227 -0.0474431 -0.0152365 0.0686559 -0.0338443 -0.0245995 0.0167482 -0.0741993 -0.0501676 0.0186778 0.0375638 -0.00684457 -0.082538 -0.000976349 -0.0620672 0.0694735 -0.0645319 -0.0551329 0.0257981 -0.0134554 0.0868653 -0.0213891 -0.0720859 0.0592415 0.0506744 0.0818844 -0.069978 0.0221139 -0.0396295 0.0339275 -0.0353768 0.0569601 0.0151694 -0.0409407 0.0147439 0.0626699 0.0123885 -0.0823546 -0.0741595 0.0411064 0.038791 0.0797906 0.0234144 -0.0069587 -0.0233112 -0.0558361 0.0689542 0.0669752 -0.0545545 0.073158 -0.0613156 0.0280913 -0.0744061 0.0538755 0.0570708 -0.0748888 0.0577898 -0.0375644 0.0244992 0.000442932 -0.000971982 -0.0393733 -0.0112232 0.0342505 0.0110346 0.0470028 -0.0380788 -0.03391 0.069429 -0.0278576 0.00439312 -0.0692453 0.011095 0.039631 -0.0105203 0.0639735 0.0240163 -0.063365 -0.0455608 -0.00423645 -0.0105873 -0.0409499 0.0644213 0.0589913 0.0306004 0.0795519 0.0179689 0.0278099 -0.0195365 -0.0292016 0.0673673 0.0374224 0.0787922 0.00212166 0.0769077 -0.0402839 -0.00941362 -0.0766975 -0.0476345 0.0501766 0.0628322 0.0856839 -0.0428904 0.0583373 -0.0794781 -0.029733 0.0209897 0.0819768 0.0119225 -0.0768295 0.0592042 -0.00565331 -0.0747803 -0.0619702 -0.0847757 -0.0631488 0.0115517 -0.0554734 -0.0793889 0.0096002 -0.00198668 0.047934 -0.0754905 -0.0714181 0.0271458 0.0356054 0.0642062 -0.025555 0.0311909 0.0447806 0.0753493 -0.00326264 -0.0157476 -0.00508869 0.0605601 0.074893 0.0495113 0.0632241 -0.0668643 0.0400892 0.0223402 0.0034671 0.0619533 -0.0729895 -0.0745396 0.0102436 -0.0700146 -0.0665808 0.0230976 0.0644915 -0.0537956 0.0238918 -0.0377988 -0.0498243 0.00729803 0.0194575 -0.00811003 0.0370288 -0.0699223 -0.0478356 0.0441051 -0.0679754 0.0580532 0.0559194 0.00760036 -0.0265394 0.00717224 -0.0697112 0.000728501 0.0330799 0.0823454 0.0440359 -0.017574 -0.0750103 -0.00905546 0.0542988 0.0216422 0.0790319 -0.0102651 -0.0739781 -0.0697627 0.00563292 -0.0687978 -0.057817 0.0598344 -0.00401141 -0.0734588 0.00474529 0.0863114 -0.0495681 0.0176394 0.0317764 -0.0612888 -0.00491467 -0.0122758 -0.0764142 -0.0230068 -0.0326164 0.0532657 -0.0233764 0.0598453 0.0505631 -0.0623265 -0.0748784 0.0498324 -0.0146067 0.00272819 -0.06166 -0.0486311 0.0120301 0.0430866 0.0466157 0.00902978 0.0442255 -0.0211812 -0.0363736 -0.0551119 -0.0191268 0.0534414 0.0138629 -0.028829 -0.0626544 0.0455225 0.0296612 -0.00525202 -0.0729302 0.0708426 0.0364483 0.073462 0.0231059 -0.0121329 0.0658394 0.08161 -0.020553 0.0493324 -0.0135708 0.0692723 -0.016781 -0.0119743 0.0324736 -0.0139699 0.052753 0.070444 0.044128 0.0161509 -0.0582021 -0.0590646 0.0516312 0.0531962 0.0865713 -0.0491376 -0.0613706 -0.00579608 0.0645216 -0.0405836 -0.0692287 -0.0307481 -0.0720488 0.0799549 -0.0393056 -0.0686114 -0.0541588 -0.000114285 0.0207309 -0.022225 0.0297169 -0.0259591 0.0249981 0.0574157 0.0541717 0.0393276 -0.0268345 -0.0200855 0.0162585 0.0541348 -0.0573294 -0.0337851 0.0166397 0.0478768 0.0509675 -0.0487563 0.0835969 0.0774884 0.0671264 0.00632261 -0.0521542 -0.0426413 -0.0813364 0.0717111 0.0236025 -0.0709576 0.0144669 -0.00423135 0.0432404 0.0642042 0.0835962 -0.0149122 0.065706 -0.0569769 0.0728047 0.0187174 0.0654302 0.00677504 0.0388028 -0.0369278 0.039074 0.0740105 0.0280671 -0.0570239 0.0217291 0.0404567 -0.0361735 0.0255388 0.0787513 0.00964301 0.0138478 -0.0451675 0.0210971 -0.0250663 -0.0387696 -0.0149202 0.0767005 -0.0540094 -0.067859 -0.0122456 0.0190372 0.0671591 0.0440645 -0.0692036 -0.0718072 0.0147963 0.0618538 -0.0406592 0.0558351 0.0344783 -0.0251756 -0.0201321 0.0552441 -0.0179036 0.0642303 0.0123917 -0.074833 0.00882833 0.00852589 0.0517669 -0.0500073 0.0256185 -0.0474778 -0.0302277 0.0119029 0.038308 0.0863429 0.0831807 -0.0593022 0.0252949 0.0385499 0.0862846 -0.0337271 -0.076851 -0.0209843 -0.0514725 0.0298407 0.0144001 -0.0573857 0.0818466 0.0794185 0.0132467 -0.0409312 -0.0306884 -0.0697189 -0.0498637 0.0506937 0.0129381 0.0212635 0.0825447 0.0242011 -0.0511474 -0.0585581 -0.0686217 0.00669423 -0.0555893 -0.067474 -0.00449839 0.00373853 0.0122216 0.0453481 0.0817894 0.0341274 -0.0831043 -0.0637732 0.0222901 -0.081659 0.0558296 0.0501423 0.0469843 0.0647249 0.0280787 -0.0220195 0.0372691 -0.036833 0.082126 -0.0653798 -0.050713 0.0234789 -0.00209754 0.0772699 -0.0273485 -0.0521182 0.0857671 0.0115459 0.038253 -0.0143309 0.00343935 0.0696827 0.0821781 -0.0174692 -0.0482684 0.0410064 0.0807 0.0707546 -0.00103006 -0.0778367 -0.0643814 0.0522767 0.00419832 0.058635 -0.0649052 0.0772096 -0.0390964 -0.00840206 -0.00317027 0.0869421 0.0240031 0.0646365 0.0834687 -0.0751619 0.0810813 0.0447736 0.0769745 0.0718536 0.0485062 0.0620732 -0.0620913 -0.0262343 0.064009 0.0541117 -0.0162019 0.0493858 0.0373803 0.0725713 0.0715339 -0.0731812 -0.0460282 -0.0535118 0.084082 -0.0319004 0.0418177 -0.0802261 -0.0112117 -0.0584771 0.00660595 -0.0631656 -0.071352 -0.0386207 0.0278375 0.0791778 -0.0158717 0.0295567 -0.0621643 -0.0104168 -0.0642452 0.0386282 0.0150553 -0.074475 0.0408019 -0.0709278 0.0230344 0.0140417 0.0756212 -0.0564451 -0.0572075 0.0461271 -0.075283 -0.0495639 0.010519 -0.0443663 0.05097 0.00256395 -0.0668926 0.0436225 -0.0543657 0.0666263 0.0701101 -0.0547436 0.0483643 0.073551 0.0845683 -0.0348203 0.0299811 0.0536186 0.0792291 -0.0447067 -0.00998041 0.00448112 -0.0412569 -0.0316234 0.0167793 0.05235 -0.0733796 -0.0396 0.0763678 0.00222844 0.0145455 0.0213202 0.0451946 0.0745618 0.0763472 -0.0142711
0.0536752 0.0207066 0.06535 -0.0123955 -0.00145132 0.0610998 0.0498986 0.0436046 0.025262 -0.0521525 0.0634682 0.0907674 -0.0648562 -0.0609517 -0.0476823 0.0433507 -0.0452127 0.0411539 -0.0218954 0.0413671 -0.00430772 0.00705613 -0.0736476 -0.0446781 0.0591476 -0.0329113 0.0351507 0.00734364 0.0238068 -0.0612091 0.0812068 0.0767706 0.0732082 -0.00921063 -0.0539921 0.00671884 0.0258434 -0.0571465 -0.0363142 -0.00427719 0.0392682 -0.0241054 0.00245664 -0.0332071 0.0604258 -0.0111636 -0.0434811 -0.0608727 0.0364883 -0.0398998 -0.0598955 -0.00918513 -0.0406409 0.0296223 0.00105595 -0.0389645 0.0341653 0.0394832 0.0781047 0.0584115 -0.0633512 0.0412212 0.0184905 -0.0103102 -0.0446612 -0.0922906 0.0637677 0.0616712 -0.0686242 -0.000556638 -0.0600585 0.0719982 0.0161454 0.0645195 0.0588717 -0.0817783 -0.0578728 0.0515462 0.0462112 -0.0330551 0.0624518 -0.0441099 -0.0155549 0.00892175 -0.0330774 -0.0392251 -0.000849292 0.0891586 0.0553586 -0.075857 -0.00211491 -0.0409695 -0.0383892 -0.0430359 -0.0701542 -0.0637258 -0.0907562 -0.102804 -0.162668 -0.160797 -0.18742 -0.0799869 -0.0655237 0.0157604 -0.0568637 0.0307945 -0.00362399 0.0391972 -0.0224081 -0.0424714 0.0769288 0.00983521 0.0247442 -0.012405 0.07412 0.0856769 -0.0427287 -0.0561673 -0.0567474 0.00382939 -0.0501956 -0.000909491 0.0224138 -0.00593627 0.0487877 0.00488588 0.0240138 -0.0643995 -0.0737779 -0.018311 -0.0642638 -0.051253 0.0380559 -0.0498012 -0.0417413 -0.0573083 -0.0391871 -0.0576614 0.00228652 -0.0769911 0.0402916 0.00991264 -0.0490994 -0.0111984 0.0359956 0.0506492 0.0465836 -0.00143919 -0.124465 0.0469231 -0.0766258 0.0152086 0.0590434 -0.0857402 -0.0327715 -0.00794225 -0.134477 0.0418179 0.0703609 -0.00188841 -0.0274989 0.0981312 -0.0481695 0.0175855 -0.0421719 0.0847185 -0.00861439 0.0742155 -0.0165168 0.0392432 0.062394 -0.0672361 -0.011824 0.032563 -0.013295 0.00760682 -0.00731516 -0.0582124 0.000812947 0.0262989 -0.0570468 -0.0447628 -0.139885 -0.234816 -0.164714 -0.0749734 -0.0367004 0.0340979 0.133752 0.0245216 0.143908 0.1642 0.000843226 0.0884607 0.0341218 0.0264817 -0.0183378 0.0404044 0.0929536 0.0625397 -0.054949 0.0771575 0.0828023 0.00369693 -0.107635 -0.0173931 -0.0062938 0.0361881 0.0346682 -0.0894587 -0.0945336 -0.123206 -0.165186 0.0114718 0.0611053 0.0265155 -0.0854658 -0.0133536 0.103044 0.0715131 0.103619 -0.00592584 -0.00180866 0.0253874 -0.0202677 -0.077931 -0.0388459 -0.0143839 0.0642766 0.0326813 0.0902458 -0.0145038 -0.00171405 0.0447988 -0.0190689 0.0271334 0.0984563 -0.126594 -0.218711 -0.200279 -0.183588 -0.0760837 -0.0722361 0.0947216 -0.00486674 0.0143473 -0.0656888 0.0172929 -0.0127686 0.0464976 0.0746853 0.0315605 -0.0238946 -0.0730959 0.0345786 0.0843707 0.0325151 0.0924747 0.0454269 0.023295 0.0265348 -0.0447811 -0.0269872 0.0377622 0.0599245 0.00274148 -0.0751643 -0.150255 -0.0687416 -0.0280497 0.0513466 -0.0260825 0.011988 0.0225539 -0.0300312 0.0946917 0.0296078 -0.0482981 -0.0524065 0.0712264 -0.0426925 -0.0103628 0.0708458 -0.0687828 0.0624307 -0.0802596 0.032173 0.0187135 0.0696194 0.143903 0.167707 0.122721 0.087849 0.0906415 0.139422 -0.0317327 -0.011455 0.0321639 0.123549 -0.019313 -0.0898387 0.0454909 0.12843 0.0700087 0.0552925 0.022746 0.00998686 0.057656 0.0299415 0.030285 0.0658327 -0.0580092 -0.0752763 0.00811616 0.0203169 0.0178768 0.0647611 0.164866 0.0148799 0.0600428 0.0339914 0.203799 0.296677 0.0763557 -0.0322178 -0.0437041 0.0711171 0.0369748 0.014936 0.0599942 0.0157313 -0.000722692 0.0894546 -0.0700109 0.0993189 0.0563561 0.0244622 0.0835527 -0.0732856 -0.0517423 -0.0533578 0.0342693 0.0588378 0.0364267 0.0655001 0.0496139 -0.015734 -0.105377 0.162768 0.330753 0.0809648 -0.0535954 -0.0573207 0.107265 -0.0818423 0.0333613 0.0930523 0.0779845 0.194052 0.00343361 0.0643071 0.00980855 -0.0104445 0.0186934 0.0649305 0.00492292 0.00988406 -0.0767856 -0.047624 -0.0431552 -0.0351952 -0.0262304 0.0237504 -0.0686352 -0.0330244 -0.0373496 0.0565431 0.200267 0.0558876 -0.0743022 -0.120973 -0.0333512 0.0638141 0.0013831 0.0530242 0.0528728 0.0816728 0.0702322 0.0461423 0.0628657 -0.00361024 -0.0602132 -0.0217223 -0.0254512 0.00664211 -0.00725212 -0.0616885 0.00504921 -0.0559763 -0.0885853 -0.242561 -0.0882722 -0.0998761 0.132485 0.0289605 0.228454 0.268116 -0.0761427 0.00811707 0.00953051 -0.0567169 0.141848 0.0106576 0.022856 -0.039015 0.0445725 -0.0454272 0.0570707 0.0341 0.0426956 -0.0480678 -0.0180108 0.0351887 0.00729861 -0.0316309 -0.0876461 0.0375117 -0.139032 -0.130686 -0.119736 -0.042366 0.117677 0.0826306 0.192975 0.119976 -0.011071 -0.0104295 -0.0508408 0.0606141 -0.0862553 0.00146316 -0.0918105 -0.0462551 -0.146344 -0.0851291 0.0422784 0.0884846 0.052386 -0.0409911 -0.0332197 0.0317627 0.0397279 0.038056 -0.0644933 -0.030416 -0.0556749 -0.0611378 0.0385474 0.0629218 0.0929836 0.176946 0.206233 0.0410593 0.0238361 0.0647111 0.00942171 0.0583629 -0.0286184 -0.0962331 -0.067041 -0.0404894 -0.122983 -0.111434 0.0374723 -0.00938296 -0.0079208 0.0832094 0.0362615 -0.0372566 0.0579944 -0.00443265 -0.0402854 -0.00978905 0.0422743 0.0809813 0.0112986 0.0606466 0.152952 0.189127 0.15864 0.0363672 -0.0435976 0.0168818 0.0334991 -0.0287293 -0.14553 0.0546504 -0.0520293 0.0161949 0.0281026 -0.0415443 0.053954 0.0276493 0.0665947 -0.0342039 -0.0768421 0.0221294 -0.0638057 -0.0609297 -0.0158338 -0.100923 -0.0833155 0.050857 0.0453698 0.0914123 0.0966109 0.250788 0.0446901 -0.145138 -0.101903 -0.163349 -0.0803922 -0.0732852 -0.134773 -0.0772805 -0.0368161 -0.0939639 -0.0336956 -0.0499777 -0.0621569 0.0727656 -0.0244411 -0.0103651 0.0159016 -0.00856615 -0.0217202 -0.119153 -0.0824292 -0.136 -0.125797 0.0374076 0.100821 0.188385 0.146063 0.108423 -0.0222579 -0.179281 -0.160424 -0.0840562 -0.163167 -0.0647154 -0.0937476 -0.0820125 -0.0638632 -0.0818418 0.0603417 -0.0243639 -0.0433357 -0.0643519 -0.0151122 -0.016903 -0.0645263 -0.00254337 -0.0169161 -0.0705832 -0.0275288 -0.0460918 -0.0267934 -0.0643436 0.0821253 0.102328 0.196186 0.0782826 -0.124144 -0.0751603 -0.0307373 -0.153284 -0.0181898 -0.0373034 0.0608471 -0.062165 0.00114143 -0.0475752 0.0764814 -0.0331546 0.0410352 0.0488826 0.0344878 0.0601512 -0.00160536 -0.0807502 -0.0102334 -0.0239884 -0.0621925 0.0963424 0.0725836 -0.0459429 -0.0735835 -0.0366227 0.0728309 -0.0239782 -0.00236262 -0.0867256 -0.14311 -0.10211 -0.0511875 -0.0738134 -0.050073 -0.0401587 -0.120574 -0.082288 0.0542967 -0.021519 0.0152236 0.0828856 -0.0500829 -0.0429854 -0.00450582 -0.0561631 -0.0233016 -0.0769547 0.0376252 -0.042049 -0.0958289 -0.0414338 -0.0322864 -0.0492066 -0.0610152 0.084211 0.0991309 0.0488269 0.0528702 0.0800979 -0.0201903 -0.0265591 0.0724244 0.0551787 -0.00338298 -0.0637943 0.114363 -0.0179914 0.0442051 -0.0696278 0.0715966 0.0143608 -0.0347418 0.0319654 -0.0190607 -0.0440699 -0.0446097 -0.0252103 0.00840006 -0.0202474 0.104905 0.0198362 0.0639508 0.186385 0.119467 0.116275 0.00933983 0.0865963 0.0457983 -0.0558265 -0.0259429 -0.0525689 0.00582406 -0.0425558 0.0089201 0.0766583 -0.0112955 -0.015702 0.000682375 -0.0199 0.00852604 -0.0204476 0.0176706 0.0225512 -0.0781605 0.0167089 -0.142093 -0.0587471 -0.0836465 0.00416705 -0.00740439 0.0655921 0.0280991 0.027294 -0.0136297 0.0389101 -0.0391428 0.00216011 -0.0373411 -0.000913458 0.00523199 0.0220155 -0.0821668 0.0116843 -0.0145225 0.0611226 0.036559 -0.0743304 0.0579473 -0.0186778 0.0726467 -0.0735918 -0.0108176 -0.0729648 -0.156491 -0.0429831 -0.0473674 -0.076688 -0.0795662 -0.0241758 0.0438518 -0.0183507 0.0768276 0.0232252 -0.0181802 -0.0919604 -0.096859 -0.0146511 -0.00147178 -0.0222169 0.0392868 -0.0212434 -0.0321872 0.0904023 -0.00868802 0.00102058 0.0174626 -0.0189286 -0.0491948 -0.0292872 0.044419 0.0532622 -0.0187746 -0.0471585 0.00222198 -0.0117706 0.00901471 -0.0894435 -0.0179731 -0.0557161 -0.132301 -0.0568515 0.0184713 -0.0980573 -0.0387549 -0.00175557 -0.0201331 0.00834351 0.0508197 0.0216068 0.0795011 0.0858122 -0.075972 0.0898081 0.080589 -0.00514813 -0.0571881 -0.019804 -0.0154637 0.0135456 0.05616 0.0554351 0.0429063 -0.059555 0.0814014 0.0685903 0.0618069 0.0511081 0.0371208 -0.0615359 -0.0575414 -0.0671043 -0.0530822 0.0311142 -0.0242265 0.017133 -0.0541 -0.0692954 -0.0763677 0.0685184 -0.0712467
-0.0025279 0.0559349 0.00131354 0.0398327 -0.0201006 0.0504988 0.0686969 0.0841329 0.025676 0.0537603 -0.0258378 0.083849 0.0586334 0.00789012 0.0800345 0.0041467 0.0786534 0.0505804 0.00548004 0.0328666 -0.0710291 -0.0098161 0.00829953 -0.0688257 0.0610532 0.0365264 0.0668838 0.0483525 -0.00938846 0.082247 0.0826836 -0.0223786 -0.00507879 -0.0226266 0.0694136 -0.0359088 0.0753162 -0.0146674 -0.0372963 -0.022411 0.0718674 -0.0338771 -0.0705283 0.049236 0.0661575 -0.00358245 -0.0652789 -0.036876 -0.0415754 0.0626875 0.0303069 0.0148374 -0.0279464 0.055845 0.0411859 -0.00510707 -0.0151196 -0.0493426 0.00857425 -0.0827229 -0.0141469 -0.0105017 0.0622526 0.0452951 0.0727589 0.0608287 0.0456453 0.0514351 -0.000613937 0.06528 -0.00158047 -0.0386243 -0.0144786 -0.0593017 -0.0149435 -0.0710999 0.0453589 -0.011732 0.0525416 -0.0617849 0.0185431 0.0239982 0.0418326 0.0206979 0.060383 -0.0538807 0.0727324 0.0679567 -0.068663 0.00763838 -0.015144 -0.0284473 0.0639878 0.0362675 -0.0693731 -0.0573972 0.0541465 0.0823353 -0.020584 -0.0306791 0.0790767 -0.0199204 0.0830144 -0.0277823 0.0095829 0.0819143 0.0638586 0.0417889 -0.0388792 -0.0173323 0.0162877 0.0842364 0.0809336 0.0161669 0.016259 -0.0437968 -0.0582554 0.0657471 -0.0200843 -0.0273089 0.0678376 -0.0244697 -0.0506581 -0.0732557 0.0122827 0.0423278 0.0594457 -0.0660032 -0.0747256 -0.00379695 0.0354884 -0.0287251 -0.0597788 0.00212778 0.0610187 0.0264988 -0.0329338 0.00640763 -0.0307501 -0.0296167 0.0234386 0.0468327 -0.0354805 0.00496193 -0.0402926 0.010879 0.0283065 0.0508858 0.080004 -0.0363619 -0.0740445 0.0761029 0.070999 0.0707372 -0.0829463 -0.0230625 0.0189098 -0.0193567 -0.0608516 -0.0355656 -0.0441642 -0.0536824 0.0521459 -0.0483298 0.0687405 0.0690631 -0.0507554 -0.0618077 -0.0770206 -0.0452101 -0.030837 0.0847487 -0.020219 0.0194321 0.0780436 0.0260213 0.0807583 -0.0578742 0.0490027 -0.00614475 -0.0188925 -0.0418149 -0.00462758 0.0366807 0.0193173 0.0525953 0.0265507 -0.00906582 0.0177906 -0.021989 -0.0390917 -0.0198847 -0.063067 -0.0107778 0.0787598 0.0811265 -0.0823139 -0.0763761 -0.0386884 0.0620477 0.0449387 0.0234153 0.0483964 -0.0665653 0.0245332 -0.00023599 -0.0129314 0.0292291 -0.0387163 0.0303231 0.0113944 0.0395103 0.0548602 -0.0516009 0.0627074 0.0068528 -0.0700804 -0.0363509 -0.0783545 0.0319491 -0.0355687 -0.0195295 0.0604062 0.0626374 0.0459701 -0.0634328 0.0665994 0.068005 -0.071444 0.0297929 0.0140182 0.0599751 -0.066392 -0.0198984 0.0830479 -0.0773708 -0.000921747 0.0138399 -0.0568674 0.0607942 0.0714929 0.0828856 0.00716538 -0.0821136 0.0205106 0.0350846 -0.0575328 0.0572831 -0.0626927 0.0374762 0.0267818 0.0602847 0.0349196 0.0132521 -0.0464233 0.029129 0.0607766 -0.0406609 0.0594827 0.0810791 0.0613501 0.0204002 0.0532314 0.0764109 0.0532006 -0.0514261 0.0442824 0.0717627 -0.0289876 0.0637579 0.07687 -0.076718 -0.00934577 -0.0738666 0.0630378 0.0714942 0.0654209 -0.06438 0.0273494 -0.0170841 -0.0260433 0.0738924 0.016215 -0.00905108 0.0524585 -0.0776588 -0.0130404 -0.0543102 0.00529017 0.032914 -0.0115757 0.0421138 -0.0643411 -0.0157671 0.0594221 0.0246969 -0.0526794 -0.0551812 -0.00448685 -0.000973002 0.0625218 0.0747098 0.0155003 -0.0546627 0.0840276 0.0728092 -0.0613295 0.0310884 0.0380194 -0.00300754 -0.0802141 0.068512 0.0617057 -0.00914656 0.0347851 0.00758587 0.00440061 -0.068354 -0.0595359 0.0394193 0.0557749 -0.0231946 -0.0548416 -0.0547812 -0.0371504 0.0470346 0.0573971 -0.0134354 0.0730922 -0.0721257 -0.00974463 0.0223845 -0.0438123 0.0210212 0.0274627 -0.0823845 -0.0343122 -0.0736227 0.0329483 0.0784841 -0.000987992 -0.0717836 -0.0210504 -0.0446203 -0.0414443 0.0746336 -0.0538333 0.00076578 0.0819693 -0.0639706 0.0501322 -0.0427823 -0.0648039 -0.0459064 -0.0249524 -0.0612065 0.0572946 0.0597588 -0.0367468 -0.00841448 -0.0158271 -0.0821245 0.0839543 0.0423492 -0.000371396 -0.0370331 0.0810844 -0.0760919 -0.0384482 -0.0763453 -0.0306811 0.00728729 0.0294142 -0.0284852 0.0635342 -0.0272772 -0.0402626 -0.0769732 0.0375327 0.0389583 -0.00550968 0.0199936 -0.0455509 -0.0729552 0.0266484 0.008231 0.0149306 -0.0774811 0.0409848 0.0341553 0.0499807 -0.0402526 -0.0701307 -0.00519058 0.0815477 -0.0207208 -0.0698501 0.0315254 -0.0372388 -0.0566589 0.0240223 0.00793299 0.0703842 -0.0411423 0.0275671 -0.0421484 -0.0225969 0.0828957 0.0108381 -0.0465356 -0.0681577 -0.0630576 0.0115906 0.00144794 0.056774 -0.0753293 0.0194286 -0.000183868 -0.0106852 -0.0602991 0.0816893 -0.0632512 0.0513335 0.0764871 -0.0223129 -0.0281739 -0.0131695 0.0771182 0.0239185 0.0130481 0.0543557 0.0494103 0.0220385 0.00422011 0.0185239 0.0654051 -0.0332791 -0.0690801 0.0775631 0.0254525 -0.0557579 0.0413906 0.0251711 0.0562694 0.00992175 0.0830336 -0.0187577 0.0351308 0.00782742 -0.063372 0.0181156 0.036358 -0.0404352 0.0211756 -0.0368587 0.0406449 -0.082587 -0.0228845 0.0466122 -0.0676146 0.0473572 0.0111412 0.00487713 0.0762114 0.0340517 -0.0096378 -0.0080001 0.0103871 -0.0685141 -0.00963525 0.0311994 -0.0722818 0.0550668 0.0135988 -0.0515293 0.0163657 0.0450893 0.0260656 -0.0267564 0.0638281 -0.00809068 -0.00351196 0.0660556 -0.0430125 -0.021563 0.0317897 -0.0146234 -0.0642891 -0.0046179 0.0240329 -0.0300623 0.0155486 -0.0663755 -0.0764688 -0.0122253 0.0380322 0.0780213 0.00672334 0.0436117 0.0332146 -0.0830685 -0.0679829 -0.0161497 0.0838676 -0.0534028 0.0452072 -0.0375906 0.0137756 -0.0143326 -0.000670414 -0.0508521 -0.0640743 0.0396262 0.0709133 8.26226e-05 0.00655643 -0.0339548 -0.0389713 -0.0159183 -0.0322557 -0.0454989 -0.0405619 0.063636 0.0338436 -0.0827234 0.0227913 -0.0606869 -0.0518253 0.0679813 -0.0348696 -0.0774128 0.00653911 -0.0271557 0.00601462 -0.0325376 -0.0235531 -0.0351482 0.0551407 0.0601414 -0.0677032 0.0771947 -0.0120109 -0.041067 0.0179026 0.0824065 -0.0609998 0.0495549 -0.0427876 0.0133544 0.0535777 -0.0463153 0.00527405 -0.0672272 0.0784458 -0.00949487 0.0299873 -0.0488754 -0.0238217 -0.0645241 -0.0690318 0.047858 0.0162485 0.044464 0.0544783 0.0319425 -0.0326927 0.0374708 0.0743279 0.0583914 -0.0323981 -0.0155852 0.0155179 -0.0642628 -0.0433918 0.0609679 0.0311363 0.0594182 0.00970315 -0.0684877 0.031844 -0.0241038 -0.053776 0.0556089 -0.0562547 0.0537233 0.0404798 0.0706873 0.0541952 0.0146633 -0.0748113 0.0375648 0.0747742 -0.0767057 0.0506415 0.0421001 -0.0601522 -0.081896 -0.0303583 -0.0658434 0.00305495 0.065833 -0.046929 0.0725747 0.0777655 -0.0041896 0.079225 -0.0589056 0.0567512 0.0609507 0.0751016 0.0390585 0.00292627 -0.0280712 0.0152041 -0.0690811 -0.00317186 0.0400754 -0.0233454 0.0336985 0.0231578 0.026663 0.0788804 0.0607082 0.05242 -0.0343129 -0.0589431 -0.0733005 -0.0548201 0.011234 0.0189208 0.0301757 0.00930571 -0.0127416 0.0826736 0.0598072 -0.0525534 0.0483335 -0.0458999 0.0118007 0.0655233 0.0225735 -0.0438092 0.0846081 -0.0125604 -0.0789759 -0.0126407 -0.0235511 0.0662211 -0.00275263 0.0569882 -0.0623383 -0.0314936 0.0479135 -0.0431612 0.0429083 0.0173595 -0.0387374 0.0187072 0.0343233 0.0726774 -0.00220678 -0.0175439 0.00228987 -0.0446368 0.0273457 -0.0567838 -0.0495537 -0.0450223 -0.0391236 0.0288132 -0.0115313 -0.0560987 0.0265574 -0.0214047 0.0663776 -0.0772088 0.0807159 0.000770945 -0.0153347 0.000522709 0.024727 -0.0375064 0.0192848 0.0280358 0.0561216 -0.0591374 -0.00778613 0.0817481 -0.0148413 -0.0734766 0.0360165 0.0558367 0.0740418 0.043857 -0.040323 0.00226193 0.0586837 -0.0807035 0.0657902 -0.00470852 -0.067841 0.0585846 -0.0663823 0.00640129 -0.00752082 -0.0507659 0.0587648 -0.012608 -0.0345898 0.0785201 -0.0697732 -0.0471468 -0.031523 0.0585358 0.0285287 -0.00981869 0.0346424 0.00136867 0.0528487 0.0850975 -0.0310066 -0.00401291 0.0103993 0.0859544 -0.0353576 0.0682351 -0.0752213 0.0858998 0.0329244 -0.0454221 -0.0438796 0.0677333 -0.0443541 0.0330294 0.0382482 0.005421 0.0403949 0.0779579 -0.0143933 -0.0111289 0.0714367 -0.080915 0.08426 0.00865636 -0.0823358 -0.0540186 -0.0712964 0.0561092 0.0517044 0.0570958 0.0251706 -0.0727961 -0.0769978 -0.0324208 -0.0560702 -0.0488753 -0.00861601 -0.0199238 0.0378878 -0.0366944 0.0426048 -0.029575 -0.0206548 0.0226344 0.0133902 -0.00170737 -0.0682254 0.0480549 -0.0708493 -0.0178279 0.000835858 -0.0697149 -0.0746228 -0.0491906 0.00177955 -0.0251806 -0.0244001 -0.0454127 0.0321864 0.0720793 -0.00640646 -0.0449289 0.0758684 0.0678588
-0.000642022 -0.038384 0.0181751 0.0444547 0.0170159 0.0600996 -0.0147155 -0.04975 0.0578987 0.0474736 -0.0631934 -0.067284 0.0089127 0.000923955 -0.0109789 0.00650376 -0.0542302 -0.0373686 -0.0158802 0.050709 0.0891376 0.00108397 0.00966035 0.0345356 0.0122128 -0.0517311 0.0105731 -0.0770533 -0.0310539 -0.0046094 -0.0498329 -0.0385159 0.0241513 -0.0311159 -0.0260179 0.0507282 0.0527962 0.0116134 0.0880449 -0.0444014 0.0429726 0.0208491 -0.0666357 -0.0601028 -0.00522842 0.0555217 -0.0201218 -0.026903 0.049135 0.0176636 0.0691626 -0.0613445 -0.0514089 0.0188853 0.0211431 0.0478873 0.077574 -0.0473915 0.0343918 0.0144723 0.0652664 -0.0709139 -0.0297902 0.0643855 0.0408724 -0.0116647 -0.0449933 -0.00541673 0.0330561 -0.0246765 -0.067896 -0.0793115 -0.0436938 2.04956e-05 0.0785726 0.0782971 0.060942 0.0137155 -0.043438 -0.021053 0.013356 -0.0411961 -0.0772358 -0.0658039 -0.0685262 0.0724372 0.00225462 0.0617524 0.0707841 -0.0697901 -0.0335596 -0.06108 0.0240544 0.0815042 -0.0742004 0.011012 -0.102745 0.0160493 0.0188555 0.0469452 -0.0901444 0.0011104 -0.0209323 -0.0168851 -0.0284644 0.0672934 0.0722135 -0.0501781 -0.0293191 0.040966 0.0488176 0.0736657 -0.0485496 0.0195751 -0.0476115 -0.021953 0.0270684 0.0247143 0.0704705 0.0762139 -0.0732226 0.0369904 -0.106606 0.0445325 0.0269802 -0.0311802 0.0512236 -0.0214049 -0.0648831 -0.0678317 -0.0299099 -0.0366992 0.0208741 0.0678408 -0.0678741 -0.0327612 0.0154916 0.00351163 -0.0645924 -0.0793272 -0.0118137 -0.0604869 -0.0122843 0.0347947 -0.0830999 0.0598891 0.0195934 -0.0871957 -0.000301272 -0.0276639 0.037554 0.0607541 0.0577771 -0.0591299 -0.0336492 -0.124029 0.0233459 -0.123929 -0.0612621 -0.0858158 0.0306694 -0.00921698 -0.0534425 -0.0162312 -0.0806674 -0.0462669 -0.0410455 -0.0392782 0.014347 -0.0731407 -0.0465081 0.0818971 -0.0832887 -0.0142932 -0.00254344 0.0340276 0.0188793 -0.0147223 0.0177385 0.0285849 0.0808314 -0.00168682 -0.0470447 -0.106168 0.0607971 -0.00939806 -0.0140907 -0.0880059 -0.101312 0.017126 -0.0619394 0.0764386 0.0637863 0.0727263 0.0675998 -0.038833 0.0256609 0.0864109 0.0902842 0.0806263 0.0241496 -0.0976371 -0.0502356 -0.0361753 0.0923083 0.102376 0.0472907 -0.0616817 -0.0446076 0.0102638 0.0572364 -0.0993949 -0.0129827 0.0700142 0.0133727 -0.0320802 0.0532019 0.103777 0.113447 0.0944591 -0.0497191 -0.0102486 0.0748262 -0.0520716 0.055401 0.0561455 -0.0497139 -0.0682662 -0.0210535 -0.0311941 -0.0184134 0.0724234 0.0537099 0.0490382 0.0116339 0.0412772 -0.0732968 -0.0788748 0.00839926 -0.0394363 -0.0782983 0.0291586 0.0114572 0.0504177 -0.0286647 -0.0575028 -0.00914225 0.0621509 0.0399881 -0.0434541 -0.0153522 0.0432179 0.0656767 -0.0218296 0.052995 -0.0499983 0.0116458 0.00925848 -0.0357665 -0.00460298 0.0502466 0.00513474 -0.0162528 -0.030942 0.0509745 -0.102146 0.0026836 0.0617595 0.194381 0.00744687 -0.0722508 0.0582636 -0.0451722 -0.0169038 -0.045805 0.0394134 0.0678934 0.0555886 -0.0562127 -0.0316324 0.0421935 0.0553743 0.031582 -0.0615724 -0.0529684 0.052222 -0.0377515 0.0463944 -0.046722 -0.0181777 0.0276624 -0.0580314 -0.0843966 -0.0356593 -0.0727491 0.0571988 0.0856079 -0.0454676 -0.0585056 -0.0718534 -0.00938138 -0.00551808 -0.0814919 0.0711039 -0.0317235 0.0166233 0.0603177 0.0624845 0.00600325 0.0488638 0.0570027 -0.043252 -0.0268342 0.0300616 -0.0851006 0.0180724 0.017297 0.0291308 0.07278 -0.103073 -0.0750122 -0.158598 -0.00946757 0.165268 0.00460771 0.00665471 -0.0730692 0.0539466 -0.0155218 -0.0233345 -0.0326397 0.0121288 0.0684365 0.0359475 0.00401278 -0.013983 -0.0249964 0.0545356 0.004447 -0.0205052 -0.0797525 -0.0703544 -0.0940608 0.0169174 -0.0150019 -0.00538065 -0.0625321 -0.038136 0.0432136 -0.0460011 0.0718809 0.0948745 -0.00917738 0.0211921 -0.0834864 0.0136192 -0.0803447 0.0288598 0.00461908 -0.00202488 0.0753876 -0.0365899 -0.00960553 0.0153003 -0.00651206 0.00134819 0.0202927 0.015243 -0.0482121 0.00480872 0.00157823 -0.0508304 -0.0580521 -0.00116461 0.0350084 0.071158 0.0960318 -0.0366741 -0.0124982 0.125138 -0.0199597 -0.0805859 -0.06993 -0.0718391 0.0232508 0.0127273 0.140415 0.120256 0.0630177 0.00278115 0.028406 -0.068231 0.0275516 0.0510853 -0.028458 0.0537198 -0.0791121 -0.106261 -0.0428963 0.0168522 -0.0650604 0.100187 0.0832372 0.136233 -0.0267212 0.0866728 0.0705139 -0.0212371 0.0430985 -0.0631327 0.0448912 0.0205353 -0.0610073 -0.0225152 -0.00464295 0.0976375 0.0613471 -0.0592169 0.000964719 0.0557673 0.0253489 -0.0489967 -0.0618355 -0.0625976 -0.00736854 -0.0373427 -0.0811645 -0.0626473 0.0254768 0.0471369 0.0196814 0.111666 0.0922287 0.0723274 0.144209 -0.0430858 -0.00403202 -0.00765613 -0.0170133 -0.0930924 -0.12032 -0.017573 -0.01193 -0.0467019 0.0693729 -0.0167696 0.0679636 -0.0417052 0.00898294 0.000668662 0.0402256 0.0196435 -0.0151943 0.0326612 0.0305864 -0.0262414 -0.0264339 -0.0282693 0.0258137 0.0222762 0.207831 0.0851608 0.0454776 0.0451539 -0.143864 -0.133417 -0.108768 -0.138268 -0.0877545 -0.0793869 -0.0707167 0.0134207 0.0649814 0.0573374 -0.0531043 0.0215887 -0.00768977 0.0399369 0.0503113 0.0354977 -0.0489948 0.00751311 -0.115173 -0.102349 0.0512385 0.089731 -0.0464729 0.0651064 0.1171 0.0909845 -0.00338717 -0.143423 -0.232819 -0.220355 -0.216241 -0.179975 -0.113274 -0.033734 -0.0403602 0.0347809 -0.05628 0.0861428 -0.053258 -0.00584124 -0.0261397 -0.0309691 -0.0513694 0.0220974 -0.0908907 -0.0183122 0.0160367 -0.100385 -0.0841689 0.0718171 -0.00527153 0.0398666 0.151508 0.0341922 -0.162026 -0.235511 -0.251899 -0.136997 -0.203848 -0.0422924 0.0572765 -0.0215226 -0.0325721 0.0252856 0.0456065 0.0596635 0.0231952 -0.044489 0.0863976 0.0270932 -0.0539705 0.0844587 0.0482295 -0.0706073 -0.0932609 -0.0253997 -0.0328238 0.0200857 0.0722162 0.0866864 0.15337 0.0775084 -0.0659282 -0.223879 -0.137337 -0.123177 -0.158449 -0.127655 -0.0943509 -0.0479087 -0.0856939 -0.0654528 0.0467491 0.015099 0.0253008 0.0879429 0.0414403 -0.0343836 0.0289107 0.0112385 0.00181974 -0.0112965 -0.0471517 0.038078 0.0175451 0.117013 0.193444 0.166343 0.11992 -0.0148073 0.0127689 -0.0445197 -0.00957598 -0.069524 0.013696 -0.0529933 0.0406405 -0.05321 -0.0231509 0.0312383 -0.000519878 0.0568069 0.084368 0.0350581 0.0687441 0.0467529 0.0571076 -0.070626 -0.0880669 -0.0932485 -0.0684426 0.0397655 -0.00487852 0.027244 0.0289629 0.120468 0.170012 -0.0153245 0.0288928 0.0328378 -0.0163958 -0.0895232 -0.000937243 -0.0473962 -0.0967253 -0.00964497 0.00814387 0.0388657 -0.0888298 0.0358071 0.0234007 -0.0145477 0.0194379 -0.0662939 0.019595 0.00887973 -0.0218421 -0.0377387 -0.0275608 -0.050985 -0.0183536 0.133355 0.170165 0.121663 -0.0609957 -0.0801173 -0.00940604 -0.128982 -0.0278441 -0.0867346 -0.0447147 -0.0381526 0.0257667 0.0768826 -0.0404031 0.0377745 -0.00342688 0.00385382 -0.051899 0.086243 -0.0586547 0.0778506 -0.0472308 -0.0366017 -0.0534175 0.00478228 0.023156 0.0401594 -0.0632387 0.126928 0.12849 0.089679 0.00207616 0.00303124 0.0965133 -0.0743783 -0.0131277 -0.0250364 -0.05466 -0.0480391 -0.0391554 0.0221454 0.0355038 0.0115066 -0.0130005 0.0584464 0.047041 0.0274 -0.0112997 -0.0236777 0.0795793 -0.0703589 0.0782268 -0.0600969 -0.0505572 -0.0115621 0.012165 0.0361285 0.0697018 0.10659 -0.0158414 0.0278038 -0.0139327 0.05558 -0.00741411 0.0153037 -0.00100229 -0.0452469 -0.0659143 0.0376169 0.0280304 -0.0830528 0.0622 -0.0680872 -0.0732971 0.0641286 -0.0444698 -0.0225836 0.0299108 0.0379529 0.062349 -0.0511464 0.0752689 0.00820716 0.0195936 -0.0379915 0.0289848 0.0741223 0.0264619 -0.0140135 -0.0561905 -0.00251884 -0.0583185 -0.0177358 0.00434976 -0.0390625 0.0600692 -0.0260768 -0.0473362 0.0163911 -0.0749786 -0.000973431 -0.0141091 0.0695862 0.0725136 -0.0763873 -0.0255519 0.0779351 -0.0550444 0.0738028 0.0762276 -0.0615501 0.0618071 -0.049757 -0.0762698 -0.0515205 0.0366266 0.0238089 0.0572888 -0.0361758 -0.0755095 0.0305948 0.00123766 0.0487089 0.0783677 -0.057418 -0.0732759 0.0129821 0.00648388 0.0877138 -0.0714814 0.0616047 0.0600906 0.0862033 -0.0395251 -0.00243584 -0.065627 0.0427123 0.0677453 0.0273747 -0.059052 -0.0390205 0.0872198 -0.0464929 -0.0242043 -0.0232971 0.0669919 0.0578409 -0.0160113 0.0526225 0.0661902 0.0166995 -0.0340945 0.0679536 0.0585557 0.0274825 -0.0680122 0.00881548 0.0010581 0.0442928
-0.0558496 0.0442292 0.0380057 0.0655361 -0.0663495 -0.00562682 -0.00778514 -0.0782153 -0.069686 0.0495092 -0.0212374 -0.0557403 -0.0274897 0.0457472 0.0160323 -0.0203465 -0.0505865 -0.0626096 -0.0689347 -0.0582137 0.0382855 0.038386 0.0419777 -0.0427581 -0.0504001 0.0473463 -0.0747319 0.074746 0.0571506 -0.0578973 0.0671617 0.0308785 -0.0590191 -0.0742721 -0.0283138 -0.0451036 0.0243415 -0.0514622 0.0504352 -0.0184507 -0.0756821 0.0444208 0.0457236 0.0522509 0.0674984 0.0764678 0.0241866 -0.0370658 0.0327829 0.0404497 0.0285145 0.0460582 -0.0789071 0.0804159 0.0347185 0.080434 0.0690327 0.0579727 0.0638402 0.061978 -0.0162045 0.08479 0.0602236 -0.00699523 -0.0777225 -0.076002 0.0667905 -0.0100775 0.0019171 0.0695053 -0.0726849 -0.0620235 -0.0347063 -0.0736251 0.0821978 -0.0486676 0.0259711 0.0546217 0.0679914 0.0609871 0.0561294 -0.0833787 -0.0180705 -0.0121411 -0.0591677 0.079591 0.0815005 -0.0450266 0.00148908 0.0343739 0.0326807 -0.0380561 0.0402346 -0.0126088 -0.00437567 0.0767137 -0.0619824 -0.0497061 -0.0483591 0.00325038 0.0219332 0.0142467 0.00585221 0.0772784 -0.0610384 0.0738059 0.0693611 0.0381317 -0.0677964 0.0694348 0.0826622 -0.0171097 -0.0821188 0.0149617 -0.0564906 0.0154144 0.0673593 -0.00439746 0.0293265 -0.0629129 0.0671239 0.0738503 0.00615066 -0.0626089 -0.0189469 0.0233489 0.0123197 0.0202914 -0.045343 0.0497654 0.0328956 -0.0058185 0.0759814 -0.0335255 0.0739686 0.0565268 0.0362895 -0.00129577 0.0366805 0.0812836 -0.0139109 -0.0323726 0.0819583 -0.0274603 0.0706426 -0.074907 0.0317513 0.0582397 -0.0406417 -0.0057146 0.0249683 0.0146833 0.0177166 0.0518097 -0.0330343 0.0431099 -0.0200356 -0.00245742 0.0383655 0.0207352 0.0214126 0.0783682 -0.0798856 -0.0226041 0.0603071 -0.028013 0.082926 0.0120535 -0.0731945 -0.000506939 -0.0120919 0.00674234 0.0137066 -0.0678821 -0.013727 -0.00418423 -0.0794974 -0.0673351 -0.0302336 0.0229852 0.0277207 0.0527108 -0.0843455 0.0398414 0.0386586 0.0753775 -0.0624274 0.0682728 -0.0311939 -0.0105709 0.0804105 0.00327447 0.0579258 0.0360602 0.0358284 0.0278903 0.0161772 -0.0162725 -0.0845842 -0.0072867 0.0174431 -0.0142619 0.0119138 -0.0725259 0.0627424 -0.0606782 0.0328672 0.0638553 -0.0341122 -0.00801842 -0.0634026 0.0553247 -0.00476093 0.000201719 0.0390328 0.0260075 -0.0137964 -0.0517671 -0.0324182 -0.0722343 0.0380273 0.0279098 -0.077865 -0.0815991 0.0395405 -0.0261359 -0.0458961 0.0181452 -0.0477487 0.0371416 0.0476736 0.0366846 0.0401002 -0.0543767 0.0104555 0.000586681 -0.0783298 -0.0678257 0.0331284 0.0483104 -0.00413607 -0.0187836 -0.045005 0.0289852 -0.0579021 0.0708449 0.0205509 -0.0565069 0.0509831 -0.0246731 0.0718521 -0.047159 0.0361125 -0.00510269 0.0103645 -0.0136656 0.0750351 0.00158755 0.0726258 0.0751057 -0.0686965 0.0609059 0.0465956 0.0285872 -0.0490226 -0.0636177 0.0335344 0.0598879 -0.0833641 0.0421456 0.0356832 -0.0737747 -0.0567221 0.00114886 0.0395043 0.0310824 0.046235 0.063485 0.0370385 -0.0265563 0.0239709 0.0797864 0.000272124 -0.00713841 -0.0411809 -0.0106493 0.018853 -0.0242455 -0.0651962 0.0844401 0.0413242 0.0137997 0.0647043 -0.0589966 0.0758275 -0.0161191 -0.0829142 0.0298042 0.0293715 0.0414334 -0.0685479 0.0199245 -0.00547814 0.0835892 -0.00507944 -0.0367859 0.0316505 0.0824259 -0.0664011 0.0295305 0.0604382 0.0055104 0.0375088 0.00881104 0.0132231 -0.0832435 -0.027136 -0.00351237 -0.0323227 -0.0527274 -0.0732652 -0.0433327 -0.047158 0.0105705 -0.0804869 0.0564322 -0.0136271 0.0317143 -0.0234886 0.016668 0.0426198 -0.0444418 -0.0550961 0.0588872 -0.02835 0.0406085 -0.0377546 0.0550698 0.014051 0.0732072 0.0426647 -0.0578289 -0.0295788 0.0334882 0.0334207 -0.0615064 -0.0520589 0.069368 -0.045432 0.0100886 0.00204598 0.0790298 0.0254198 -0.0318831 0.0738856 -0.0647175 0.0432224 -0.0143143 -0.0794602 0.064286 0.0550584 0.0760814 -0.0252955 0.0513861 -0.0227222 -0.0696207 0.00926528 0.0280306 -0.0609144 -0.0410803 -0.0839943 0.0562977 -0.0221194 -0.0785009 0.0649226 -0.032482 0.0742395 -0.0230193 0.0271737 0.00141961 -0.0820999 0.0650096 -0.0790813 -0.0619126 0.051554 0.03171 0.0121053 -0.0770251 -0.000105107 -0.081636 0.0774087 -0.0243972 -0.0715281 0.0350832 -0.0510436 -0.0766308 0.0605937 -0.00315084 -0.0125439 -0.0251191 0.0406138 -0.0188336 -0.0617109 0.0727818 0.0826833 0.00628303 -0.0800132 0.0344421 -0.0637357 -0.0804435 -0.00964337 0.00289027 0.0693794 -0.0776762 -0.0179334 -0.0243876 -0.0403983 -0.064898 -0.0747578 0.0623328 0.00271042 0.00764825 -0.0287217 0.0352756 -0.0261668 -0.000697283 0.0823068 0.0754049 0.0207143 -0.0330902 0.0291248 -0.0324649 -0.0442119 0.00743918 0.0754008 0.052071 0.0649682 -0.0686321 -0.0250556 0.0354303 -0.0478141 0.0290463 -0.0139651 0.0216249 -0.0690606 0.0613228 0.0556171 -0.0382138 0.00712451 -0.0491926 -0.00354416 0.0459662 -0.0697494 0.0246328 0.0739912 -0.0653007 -0.00988637 0.0614009 0.0460681 0.0781436 0.0817345 0.0579674 0.0319061 0.0330589 -0.0772221 0.0117358 0.0783244 -0.0799683 -0.0101899 -0.0709745 0.04555 -0.00143645 -0.0729695 0.0155 -0.0538261 0.0606304 0.0846995 -0.0834768 0.0546975 -0.0774655 -0.0331291 -0.0178797 0.00364162 0.0469794 -0.0550845 -0.0186325 0.00611174 -0.0846249 0.0171267 0.0647955 0.0733898 -0.0549122 -0.0440253 0.0772911 0.061299 0.0205437 -0.077151 0.0683272 0.0205312 -0.0153009 0.0407862 0.0699734 -4.15384e-05 0.0245476 -0.0405942 0.01925 0.0646089 -0.0469302 0.0417105 -0.0339605 0.00807664 -0.0575432 -0.064156 0.0110501 0.036008 -0.0415686 0.0336706 0.00805827 -0.0728101 0.0420986 0.0621756 0.0372155 -0.00150942 -0.0130901 0.0681495 0.00937793 0.0288334 -0.0166108 0.0669203 -0.0379784 -0.0234616 0.0285498 0.018256 -0.0709805 0.0680588 0.0681613 0.073823 0.0598454 0.0658842 0.0576879 0.0769301 -0.0428091 -0.0517564 0.0297009 -0.0794716 -0.0486592 -0.0697192 -0.083643 -0.0376793 -0.0164286 0.0693023 0.0524362 0.0824501 0.0790334 0.0118507 -0.0611119 -0.0525433 0.0298417 0.0158668 0.0621282 -0.066063 0.032036 0.0550905 -0.0394879 -0.0813944 0.0137173 -0.0475267 0.017161 -0.050692 0.066734 -0.072596 -0.0475184 0.0656762 -0.0481156 0.0668435 0.0176717 0.00189466 -0.0588988 -0.0719791 0.0116565 -0.00950475 -0.0763183 0.0670523 0.0380167 0.0576568 -0.0152427 -0.0131016 -0.0156769 -0.000756006 -0.0196069 0.0685739 0.0441384 -0.0639039 -0.0335619 -0.0149211 0.0728527 -0.0103581 0.0146516 0.0104982 -0.0617489 0.0743738 0.0689555 -0.00652126 0.0554445 0.0742609 0.0618162 0.0816757 -0.0706199 -0.0456598 -0.0344286 -0.0131141 -0.0303886 -0.062944 -0.017121 -0.0327766 0.0439932 0.00951445 0.011903 0.0468918 -0.0698446 -0.00791466 0.029448 0.0105315 -0.0299244 -0.0525403 0.0263978 0.0505005 0.0663138 -0.0803988 0.0586025 0.0164781 0.0464433 -0.00407883 -0.0431895 -0.0761213 0.0534334 0.0684615 -0.0686434 -0.0361629 0.0364292 0.0566519 -0.0589033 -0.0443966 -0.0168499 -0.0190715 0.0359254 -0.0471176 -0.0733056 0.068045 0.0647086 -0.00604769 0.0467683 -0.0768572 -0.0686138 -0.071176 -0.046673 0.0323403 0.0544815 0.061674 0.0409098 0.0473994 -0.0726426 0.0637648 0.0224097 -0.0206501 0.0717545 -0.0151659 0.0222304 0.0468551 -0.0526514 -0.047596 0.044289 0.0722074 0.0427683 0.0447995 -0.00115421 -0.0409349 0.0246946 0.00472684 0.0489122 0.0180283 -0.0128393 0.0537515 -0.0747087 0.0570128 0.0275516 -0.06781 -0.013512 0.0588206 0.0235802 0.0700783 -0.0296205 -0.0744358 -0.000723201 0.0569623 0.0475511 0.0642226 -0.0312206 0.0525158 -0.0698464 -0.0266518 0.047819 0.0781549 0.0692931 0.0241897 -0.0280038 -0.00369394 -0.00291742 -0.0307375 0.0440419 0.0693076 0.000819858 -0.0667934 0.06028 -0.0103268 -0.0101448 -0.0666119 0.033673 -0.074551 -0.0840377 0.025239 -0.0321553 0.076161 -0.0248631 0.0551885 0.061766 -0.00585662 -0.0689962 0.0818414 -0.0394729 0.0301001 -0.0426295 0.0570679 0.000550933 -0.0795867 -0.0376269 0.0425609 0.0805895 -0.042919 0.0423716 0.0727703 0.0334174 -0.0111632 -0.0011469 0.0293875 -0.0233146 0.080213 -0.00725344 0.0107355 0.00941235 0.0373312 0.0124011 -0.0606789 0.0223886 0.0762191 -0.00717421 -0.0455217 -0.0812743 -0.0764692 -0.0167961 -0.0437998 0.0586988 0.0193475 0.0726491 -0.0167817 -0.0164245 0.0132172 0.0612016 0.0398212 0.0629478 -0.0770234 0.0366197 0.0347848 -0.084359 0.0218646 0.066911 0.0830662 -0.0186344 -0.0813118 0.0759946 0.0589562 0.0190788 -0.00729236 -0.071818
-0.0215608 0.00644207 -0.0362715 -0.00554323 0.0583051 -0.00673555 -0.0560855 0.0162888 0.0261917 -0.048226 0.0204075 -0.0129304 -0.0227179 0.0520923 0.0581164 0.0301043 -0.0676929 -0.0203342 0.00444984 -0.0552758 0.0065627 -0.0568166 -0.0403867 -0.0736299 0.0767423 0.0192732 -0.0346477 -0.0398118 -0.0638842 0.0650382 0.0265559 0.0274636 -0.0579159 0.00606981 -0.0550293 0.0881185 0.0365192 -0.00466574 -0.0169109 0.000613031 -0.0726446 0.0578772 0.0854594 -0.0664843 -0.0352193 -0.0501044 0.0373338 -0.0773018 0.0479948 0.0874432 0.0848787 0.0389406 -0.00970981 -0.0542863 -0.0733557 0.0554815 0.0145917 0.0838675 -0.0206328 -0.0449142 -0.0202573 -0.0742971 0.051516 0.0600828 0.0799315 -0.0336088 -0.0580207 0.0412647 -0.0741827 -0.0351589 -0.018332 -0.0416984 -0.0296627 -0.0478606 -0.0799999 -0.036012 -0.0092186 0.0836717 0.0748274 -0.0200545 8.58464e-05 0.0341311 -0.0185952 -0.0095835 -0.0419169 0.0618439 -9.00542e-05 0.0152134 -0.00189933 0.0396078 -0.0019761 -0.0280019 -0.0089136 -0.0371731 0.0478489 0.117191 0.153366 0.0856263 0.0124983 0.0816186 0.00967368 0.0564858 0.0203354 -0.0534756 0.0087753 -0.0997334 -0.0776553 0.0385796 0.0128451 -0.0677977 -0.018523 0.0105995 0.0844963 0.0287133 -0.0278717 -0.0382713 0.00187046 0.0393562 0.0132731 0.0867255 0.153242 0.0318829 0.110705 0.0352801 0.0175193 0.0734796 -0.0355298 -0.00919184 -0.0848985 -0.0463583 -0.0542794 -0.0548353 -0.108928 -0.0245904 -0.0662062 -0.1043 0.0662099 0.0862661 -0.0627539 -0.0317948 0.0912501 -0.0620388 -0.0204898 0.0718965 0.042477 0.0405223 0.102764 0.0529087 0.0722978 0.0961117 0.0861723 0.0947576 0.0365613 -0.00296578 0.0684455 0.0231544 0.021618 -0.093529 -0.111245 -0.0854426 -0.0915983 -0.229866 -0.142068 -0.0678272 0.0062763 -0.0666133 0.0407889 0.0357555 -0.0289415 0.0235081 -0.0472426 0.0216333 0.050256 0.119419 0.0815974 -0.0242943 0.0978691 0.0836372 0.108025 0.0412943 0.0340545 0.182192 0.0645543 0.00600187 0.0395954 -0.0255659 0.0938293 -0.0622031 -0.0994676 -0.144323 -0.0831199 -0.180847 -0.0482358 0.0166165 -0.0570299 0.0581246 -0.0668837 -0.0051862 0.036694 -0.0405462 0.0606578 0.0315405 0.0799127 -0.0388891 0.0909152 0.0671898 0.00389294 0.0757609 0.02546 0.023761 0.0713387 0.0465928 0.168559 0.16299 0.00499709 -0.0495666 -0.0329796 -0.175856 -0.110333 -0.177045 -0.0203002 -0.05027 -0.0648725 -0.0639046 -0.0189362 0.0449286 -0.0132143 0.0396761 0.0882004 -0.0469321 -0.0538566 -0.0174403 0.112619 -0.0619202 -0.0287833 -0.0193832 0.0209191 -0.00615681 0.0314339 0.121331 0.154119 0.0882571 0.125029 0.0498197 -0.0792973 -0.0577732 -0.0588935 -0.12077 -0.125476 -0.109613 0.0398133 -0.0648541 0.0830815 -0.0612868 -0.0343325 0.100756 -0.0251646 -0.0313142 0.0218673 0.0697253 -0.0190417 0.0613347 -0.0556922 -0.130471 -0.0444584 -0.0237592 -0.0170924 -0.018415 0.103659 0.0891234 0.118102 0.112221 0.0928726 -0.0261681 -0.0255631 -0.167864 -0.0561904 -0.0423077 0.0388473 0.0649648 0.0606625 0.0836728 -0.00701259 -0.00810427 0.0849383 -0.0354411 0.0387275 0.00874465 -0.0564342 -0.08853 -0.0989916 -0.0518669 -0.141533 -0.0913019 -0.0400679 -0.153511 0.159101 0.14062 0.0812417 0.106893 0.184787 -0.0279474 -0.0103023 -0.0221423 -0.110759 -0.0191469 0.0648401 0.0881283 0.0645255 0.00840343 0.00211975 0.0415048 0.0374344 -0.077526 -0.0731612 -0.0468164 -0.0647116 -0.107977 -0.0944482 -0.0182808 0.0281063 0.0205511 -0.111546 -0.0808988 -0.0130189 0.082581 0.170252 0.0986806 0.247468 -0.0167581 -0.0329901 -0.113916 0.0159413 0.039181 -0.0111453 0.0879988 0.0512185 -0.0234658 -0.0602508 0.0259655 -0.0468802 0.00167669 -0.103189 -0.013366 -0.0591414 0.0333657 -0.0958269 -0.0412598 0.0337545 -0.0332922 0.0750782 0.0511549 0.0785699 -0.0774759 0.0756052 0.0125688 0.0832914 -0.10258 -0.115195 -0.0496163 -0.036707 -0.0729029 0.0462706 0.0875944 0.0269438 0.0578937 0.0463516 0.0237195 0.0988868 0.0173775 0.0038707 0.124942 -0.0601671 0.0518771 0.0640219 -0.0260758 -0.0927352 0.0247897 0.0413742 0.0173203 0.0909866 0.0288749 0.11177 0.0459804 -0.0157658 0.0223354 -0.0268281 -0.0104708 0.00430766 0.0378679 -0.0354599 0.0892181 0.0802656 0.076445 -0.0651978 -0.0502286 0.0355675 -0.0210552 -0.0395675 0.13086 0.0473072 0.00978373 0.00100195 0.0488946 0.0949538 0.0686524 -0.000486374 0.0233815 -0.0608014 0.158669 0.119693 0.0796735 0.120964 0.0542171 -0.0544432 0.0488771 -0.029479 0.042478 0.0226389 0.0338075 0.0155992 -0.0537999 0.061941 -0.0671092 -0.00614282 -0.0620036 0.0169795 -0.00263667 -0.0608675 0.01827 0.139334 -0.0204351 -0.0444547 -0.0665435 -0.102522 0.150542 0.0112782 0.169348 0.150884 0.0992254 0.0434329 0.0483162 -0.0193623 0.0111404 -0.110167 -0.031595 -0.0367111 0.0302085 0.0468402 0.0264147 0.0826631 -0.012661 0.0792482 -0.0497051 -0.0771697 -0.0888691 -0.143774 -0.0633998 0.0935761 -0.134303 -0.100854 -0.108471 -0.145971 -0.0930428 -0.0117888 0.177491 0.107077 0.0642331 -0.0786697 0.0193764 0.0663602 -0.0322705 0.0242701 0.0354791 0.0100289 0.0833069 -0.0331845 -0.0306683 0.0757411 -0.0390781 0.037148 0.048134 -0.0392784 -0.0905491 -0.119507 -0.167053 -0.104197 -0.0860936 -0.137863 -0.234763 -0.0441393 0.150195 0.0917684 0.0929706 0.103498 0.0280911 -0.082034 0.0409908 -0.00186402 -0.0311779 -0.0594563 -0.05951 -0.0288798 -0.0525907 -0.0114215 -0.0558347 -0.0535675 0.0746992 -0.0900236 0.0170851 -0.20336 -0.135316 -0.0731288 -0.119713 0.0362665 -0.0654102 -0.138927 -0.125482 0.0338326 0.133483 0.0614265 0.0233988 0.10348 -0.0512947 -0.0378973 0.0828219 0.0558133 -0.0980324 -0.0159071 0.00291604 -0.0011976 -0.0289259 0.0747533 -0.00840784 0.0597388 0.0571108 -0.0563578 0.040708 -0.0336729 -0.164735 -0.0733732 -0.0201263 -0.0190849 0.00528226 -0.0502884 0.11716 0.162684 0.051296 0.0269728 -0.054486 0.0322105 0.018462 0.0433113 -0.0505919 -0.0641 -0.0951289 -0.104033 -0.0366421 0.0295823 0.0769716 0.0227785 -0.0419823 0.0158217 0.0175914 0.00655126 -0.0194756 -0.0137997 0.0156589 0.00977421 0.0100956 0.0994274 -0.00272708 -0.00282301 0.0331056 0.0530264 -0.00207297 -0.163793 -0.20314 -0.168104 -0.16083 0.0168788 -0.10891 -0.123661 -0.0607784 0.0263909 -0.0054104 0.0431445 0.0243796 -0.0195162 -0.0477052 -0.00251015 0.0550496 -0.0970834 -0.156277 -0.213687 -0.130739 0.0276328 0.0134114 0.0181475 0.0614572 0.0437338 0.170961 -0.0431409 -0.032315 -0.0076253 -0.0539106 -0.158537 0.0350973 -0.0901192 -0.156583 -0.106063 -0.0839077 -0.00669447 0.0111656 -0.0456472 0.074358 -0.00742821 -0.0510373 -0.0496458 0.048932 -0.0912552 0.0176182 -0.0551109 -0.0592937 -0.0337503 -0.0754336 0.104741 0.0598642 0.124318 0.0855253 0.0699637 0.0681755 -0.0556154 -0.0211344 -0.0794328 -0.063173 -0.163601 -0.0206246 -0.068341 -0.048369 0.0363186 -0.0258317 0.00512096 0.0637274 0.0821335 0.0274215 0.0561843 0.0116904 0.109507 -0.00382723 0.0915384 0.136157 -0.0402027 -0.0976957 -0.0466605 0.0568834 0.0332972 0.00500295 -0.0175716 -0.053769 -0.015853 -0.0814875 -0.0403883 -0.13991 -0.0865008 -0.101292 -0.0225653 -0.0149039 0.0627408 0.00535542 0.0665725 -0.0527568 0.0300361 -0.0131336 -0.0500433 0.0791308 0.0267111 0.138251 0.0697448 0.01304 0.0407721 -0.0850339 0.0486119 -0.068313 0.00531538 -0.0744639 -0.0738139 -0.0651443 -0.0281735 -0.00452713 -0.0590275 -0.0438304 -0.0118442 -0.00862729 0.00326218 -0.0600318 -0.0562871 -0.0465852 -0.0766232 -0.0700208 0.00988577 -0.0208274 -0.0309561 -0.066191 0.0389655 0.0242804 0.0762474 0.0999401 0.156531 0.0342551 0.0366746 0.0468676 0.144906 -0.0152391 -0.030606 0.0212381 0.0293264 0.00468892 0.0612465 -0.0405888 -0.0366364 0.0186826 0.0522412 0.0163174 0.0844881 -0.0681771 -0.0744817 -0.0349424 0.0225554 -0.0268166 -0.0185763 0.0620766 0.0575755 -0.0679501 -0.00840303 -0.00875346 -0.0364093 0.000444261 0.0941145 0.00612591 -0.0559129 0.032657 0.107414 0.0717178 0.0115505 0.104049 0.00150622 0.0214851 0.0880754 0.0497193 -0.0716835 -0.029104 0.0438615 0.0187388 -0.0625892 -0.0497601 0.017527 0.0890807 0.0328414 0.0150672 0.00314393 0.0720166 0.063374 -0.0701354 0.0442401 -0.0409041 0.0924469 -0.0296707 0.0365253 -0.0524933 0.0527965 0.0868977 0.0247694 0.0244034 -0.0314189 0.0326507 -0.0319015 0.0133999 0.00656542 0.0831115 0.00998742 -0.0514154 0.0421982 -0.0182929
0.0738379 0.0204139 0.0306817 0.0862749 -0.0564218 0.0824385 0.000889403 -0.0517518 -0.0124457 0.000284979 0.0769984 0.00763425 0.0471936 0.0324341 -0.0625233 -0.0695901 -0.00279044 0.0922049 0.0105219 0.0126782 0.0710937 -0.00457111 0.0787823 -0.00337937 -0.0382322 0.0619748 0.0350181 0.0466069 -0.0095781 -0.0345361 -0.017104 0.000514586 -0.0356382 0.0927103 0.072556 0.0405331 0.084963 0.0037819 0.074097 0.100434 0.0469679 -0.0472844 0.0276269 0.000817866 0.0490626 0.0599312 0.0941459 -0.00216993 -0.0408687 0.027728 0.0263833 0.065126 -8.72224e-05 -0.0249588 0.035787 0.0731328 0.0437769 -0.00168099 -0.0522439 -0.073766 0.0696996 -0.029962 -0.0138236 -0.00817134 -0.0624495 0.0443043 0.113637 0.116841 0.0260155 0.0459892 0.107289 0.0556941 0.0439839 0.0595652 -0.0463575 -0.00327587 -0.057476 -0.00789513 -0.0415991 -0.00471334 -0.0715867 0.0844616 0.00678087 0.0199528 0.0471152 -0.0495631 0.0318232 -0.0508649 -0.0125587 0.0629663 0.030079 0.0819517 0.00915644 -0.0751953 0.00511745 -0.0374345 -0.0717892 0.0135695 0.132456 0.00537613 0.030489 0.040976 0.0290022 0.0563161 -0.000297211 0.0179737 0.0422095 0.0607183 -0.0518877 0.0269346 -0.0504249 0.0437423 -0.0221322 -0.0324251 0.0643887 0.0264581 -0.0627052 0.0918085 -0.0480867 -0.0853868 -0.0808374 0.0374569 0.0274549 -0.130806 -0.0134542 0.0423923 -0.0425889 -0.0748119 -0.0471176 0.0440046 -0.0545681 -0.0547205 -0.0531078 -0.0164186 0.0306303 -0.0209627 -0.0223563 -0.0500971 -0.00855931 0.0907492 -0.016209 0.0370092 0.0907199 -0.0554975 -0.00294793 0.0629599 -0.046022 -0.0533026 -0.0707171 -0.0558203 -0.111804 -0.138088 0.0583463 -0.0716583 0.0143572 -0.109177 -0.0021933 -0.00612142 0.0545931 0.0336127 0.0742161 -0.00908314 -0.0231623 0.0218156 -0.0564616 -0.0448072 0.0362907 0.000739182 0.0387827 -0.0634098 0.04564 0.02808 -0.0857352 0.0106682 -0.0971299 -0.0644088 -0.146463 -0.0377809 -0.0454752 -0.130624 -0.152083 -0.231462 -0.136601 -0.107394 -0.105683 -0.132942 -0.0948528 -0.047325 -0.00590759 -0.0199791 0.0428667 0.00151118 -0.0529025 0.0160016 0.0709973 -0.00361219 0.0691742 0.00479303 0.033999 0.000541227 -0.107507 -0.0428346 -0.0650604 -0.101691 -0.148747 -0.21419 -0.0911882 -0.0540574 0.0144463 -0.0736524 -0.085144 -0.0714529 -0.0599777 -0.0369701 -0.0161214 -0.0750292 -0.0216308 0.021743 0.0928906 0.0323304 -0.0152837 -0.043186 -0.0065124 0.043422 0.0408065 -0.0691146 -0.00852027 0.0531514 0.0130557 -0.0985636 -0.166237 -0.12358 -0.184031 -0.21752 -0.0743974 -0.0188691 -0.0330071 -0.000184123 -0.0434526 0.0598997 -0.0275863 -0.0271145 -0.244647 -0.0937362 -0.0401334 0.0612903 -0.105131 -0.0529599 -0.0702938 0.0290925 -0.00166678 -0.0505069 -0.0620574 0.018017 -0.0402949 -0.0768975 -0.0559493 -0.145172 -0.035508 -0.0795778 -0.110673 -0.00942785 -0.0470945 -0.0145645 -0.00614982 0.0334061 -0.158594 0.0364104 0.0278841 -0.142403 -0.124907 -0.0567021 -0.071113 -0.00285905 -0.151155 -0.0508126 -0.0375559 -0.0503677 -0.0128022 -0.0424636 -0.0133004 0.0928877 0.00908746 -0.00972886 -0.0790087 -0.0825087 -0.00448973 0.0530099 -0.0355652 -0.0598501 -0.0853687 -0.0388156 0.0905791 0.0335314 -0.0812628 0.0468389 -0.0758231 -0.208674 -0.0354015 -0.0787945 -0.094797 -0.0904628 -0.105544 0.0139748 -0.0509422 -0.0899151 -0.0159354 -0.0378479 0.0704696 0.0467721 0.0492893 -0.0821522 0.00318095 -0.0420102 0.055829 -0.00805394 0.0556882 0.0379006 -0.0363495 -0.00364926 0.0878695 0.0750211 -0.00914633 -0.186442 -0.0043271 -0.146092 -0.0970073 -0.0664558 -0.0480357 -0.0790271 -0.1368 0.0245933 0.052694 -0.0885144 -0.0729237 -0.0257548 -0.00514681 -0.000814322 -0.0117237 -0.0637298 -0.00245686 0.035041 0.022152 0.088579 0.0994182 0.0698703 0.0503614 -0.0901938 -0.0616894 0.0270616 -0.0859137 -0.0421855 -0.092372 -0.032175 -0.0536156 0.0141222 -0.0203749 -0.109208 0.00553849 0.115893 -0.019016 -0.0598458 0.0652645 -0.0491422 -0.0578229 -0.0538694 0.00592064 0.0190731 0.0278713 -0.013142 0.124689 0.0853089 0.00676741 0.0719524 0.121266 0.0268688 -0.0554108 -0.00435032 0.00223202 -0.00729626 0.129235 0.081271 -0.0261386 0.0350084 -0.0547371 -0.085827 0.0527774 0.0886425 0.0977712 -0.0347056 -0.0320699 -0.0169478 0.0402577 0.0475618 -0.00272023 0.09174 0.0812211 0.115063 0.0949326 0.0914456 0.123969 0.0783144 0.1824 -0.0859063 -0.054171 0.020978 0.0962591 0.0133785 0.0472297 -0.00260049 -0.0102903 0.0188251 -0.0931072 0.000370511 0.106889 -0.0268963 0.0645083 -0.0355165 0.0143372 0.0681354 -0.0065506 -0.0513956 -0.00638322 0.00534729 0.0730154 0.0347039 0.118862 0.1011 0.105475 0.0783879 0.144109 0.0800133 0.0780842 0.114387 0.125146 0.0354596 -0.0231114 -0.0204831 0.0182911 -0.0577842 -0.168993 -0.00383994 -0.0156031 -0.0419467 0.0855417 0.0236008 -0.0253602 0.0154214 0.05644 -0.0532662 -0.00621972 -0.0483462 0.0598495 -0.0286213 0.0320978 0.0335388 0.114771 0.0382254 0.122898 0.237368 0.0441981 0.095797 0.134381 0.0540958 0.0371818 -0.021514 0.0519657 -0.199284 -0.113253 -0.0929484 -0.0240425 -0.0495191 0.0539317 0.0281552 -0.0534561 0.0806762 0.0197972 -0.00664355 -0.0189011 0.0133519 -0.0370489 -0.0321257 -0.019433 0.0401823 0.0653798 0.0551527 0.0975732 0.193925 0.0706327 0.0623888 0.0556718 -0.0377079 0.0151516 -0.045387 -0.0931664 -0.0882522 -0.0639408 0.108248 0.0180238 -0.0408665 0.0210737 -0.023352 -0.0636634 0.0129633 0.0552005 0.00612729 0.0351607 0.107425 -0.0563497 0.0892312 -0.0334372 0.113132 0.075932 0.0433187 0.114356 0.123762 0.150848 0.0504676 0.06145 -0.0273314 -0.0711875 0.00972326 -0.0575113 0.0187272 0.0508433 -0.0108171 -0.0446629 0.0282969 0.0882855 0.0913146 0.0771107 0.0759718 -0.0221117 0.0586581 0.0890395 0.0360696 0.115474 -0.0384267 0.0344158 -0.00518221 -0.0116181 0.111762 0.102253 0.0781453 -0.0198081 -0.062259 0.0249292 0.0057387 0.078516 -0.00553262 0.0990905 0.0266398 0.123489 0.0357387 -0.0371517 0.0213483 -0.00375335 -0.0731049 0.0255327 -0.0723871 -0.0133032 0.0411182 -0.0338149 -0.0622068 -0.0413169 -0.0240848 -0.0805292 -0.0175903 -0.0649147 -0.0306938 -0.101892 -0.0461226 -0.0897143 -0.214064 0.046413 0.0475614 0.0698504 0.0879048 0.0437963 0.0642345 0.124449 0.0977331 -0.0823139 -0.0180878 0.0642106 0.0217892 0.0692576 0.0872583 0.0690927 0.0160421 0.0419917 0.0604946 -0.00101075 -0.0653046 -0.00838231 -0.0775074 -0.0588915 -0.0395182 0.0165333 -0.0655575 0.066698 0.0419626 0.0310854 -0.050056 0.0386698 0.0535266 0.0094676 0.100041 0.101586 0.0259353 0.0757501 -0.0665015 -0.0492966 0.0770262 0.0929582 -0.0455819 -0.0551574 0.0442121 0.03528 0.0233926 0.0755121 -0.00648327 -0.0385057 -0.0251186 -0.0362389 -0.161423 -0.0817627 -0.000152417 -0.0313193 -0.0718797 -0.0463167 -0.0772734 -0.026658 -0.015613 0.103809 0.0408877 0.0328433 0.134909 -0.0138963 -0.0100591 -0.0726037 0.0388262 0.0712004 0.0169449 -0.0466597 0.0368987 0.0628342 0.0186826 -0.081215 0.0120985 -0.0431943 -0.030954 -0.155573 -0.00774246 -0.147306 -0.162564 -0.0363591 -0.0778093 -0.0454985 -0.0482086 -0.0563127 0.104369 0.0890314 0.0905486 -0.0417937 0.0115053 -0.0687676 -0.0769632 0.0451333 0.0438691 -0.0086685 0.0930777 0.0702543 0.0260389 -0.0164443 0.088112 -0.0969756 0.0198679 -0.0489327 -0.0651675 -0.0363564 0.0580132 -0.0743027 -0.164842 -0.139371 -0.0703938 -0.101365 -0.0966809 -0.164484 -0.144623 0.0662824 -0.0216309 -0.0589597 -0.0297654 0.0872438 -0.0460686 0.0802137 0.0685606 0.0082906 0.0541031 0.0532258 -0.0434056 0.0601248 -0.0430635 -0.0196954 -0.0643895 0.0663031 0.046397 -0.0265468 -0.0788187 -0.00717949 -0.14777 -0.0821736 -0.0303512 -0.13097 -0.182928 -0.0505973 -0.0233799 -0.109652 -0.111614 0.00311802 0.0278716 0.0182904 -0.0577938 0.0563392 0.0503303 -0.0730565 -0.0483364 0.0762275 0.0436017 0.0534115 0.0791105 -0.0330756 -0.052012 -0.026405 0.063049 -0.0187482 0.0639959 -0.0326796 -0.015902 -0.0118992 -0.120091 0.00819103 -0.00471366 -0.0695353 -0.0330918 -0.0281127 -0.0150833 0.0309075 -0.072508 -0.0490823 0.0073239 -0.0476897 0.0273792 0.0775239 -0.0314451 0.0209111 -0.0475902 0.0486718 -0.0320874 -0.0670993 0.00653086 -0.00918788 -0.0695532 -0.0642599 -0.0787191 0.0670296 0.0165092 -0.0275656 0.045565 -0.0116461 -0.0654039 0.0529881 0.0606695 0.0355569 0.0225 8.2304e-05 -0.0813743 -0.0199193 0.0378929 -0.0594078 -0.0451248 0.00508213 0.00515092
0.0302613 -0.037463 -0.0238755 -0.0803614 0.041325 -0.0263645 -0.0644214 0.0377521 0.051784 0.0677232 -0.0758878 -0.0105682 0.0553842 0.058079 -0.0466894 -0.0312455 -0.0195153 -0.0871436 -0.0428469 0.0443658 0.0428239 -0.0189507 0.00300475 -0.0501473 -0.0598005 0.0146778 0.0708115 0.014605 0.0084092 0.00621046 0.00592038 -0.0228914 -0.0532936 -0.0596565 0.0619353 -0.0559332 0.0229627 -0.0813148 0.0678271 0.0193244 -0.065193 -0.0765036 0.0261739 -0.0904664 -0.0685866 -0.0163806 -0.0179982 0.0200281 -0.0796691 -0.0749182 -0.0551537 0.0487397 0.055443 -0.0213671 -0.0925481 0.0626661 0.0410788 0.0594759 0.0708008 -0.0628072 0.0289698 0.0475193 -0.0279401 -0.0270517 0.00936889 -0.0881034 -0.054247 -0.0478103 0.0577855 0.0628764 -0.0228092 0.00193335 -0.00533515 0.0480991 -0.045607 -0.0144103 0.0555191 0.0380061 -0.0896231 -0.084196 0.0748553 -0.0137139 0.026321 -0.00269141 -0.0718429 0.0477508 -0.0211139 0.0353803 0.0665744 0.0425674 0.0131039 -0.0411753 -0.0786798 0.0505858 -0.00434942 -0.019802 -0.0148657 -0.0756412 0.0612449 0.0281767 -0.0838276 -0.02193 0.084088 0.0138679 0.0494498 -0.0345964 -0.0607871 -0.0514366 -0.0082722 0.00612213 -0.0109423 -0.057853 -0.0391393 -0.0808481 0.0205325 -0.0555128 -0.0182528 0.0240325 0.056968 -0.100677 -0.00443176 0.0281873 -0.0480522 -0.0357399 0.0783142 -0.0155234 0.0732832 0.0160883 -0.0263145 0.0804627 0.100803 -0.0503023 -0.057443 -0.0783714 -0.0911938 -0.011747 -0.00284041 -0.0656752 -0.0573189 0.0196503 -0.0612541 -0.0139496 -0.0348049 0.046458 -0.0715712 -0.0279533 -0.0186327 0.0418807 -0.134493 -0.103835 -0.0619046 -0.0914724 0.0481962 0.0410056 0.00952824 -0.0644226 0.0389572 0.0560373 -0.0241816 -0.00999981 0.0891479 -0.00209135 -0.0128371 0.0590583 0.0467609 0.0127002 -0.0780796 -0.0531731 -0.0317105 0.0713687 -0.0832485 -0.0804945 0.0805053 -0.00883412 -0.0381207 -0.0996688 0.0230472 0.0223726 -0.0477673 -0.0573984 0.0945805 0.00587078 0.0139936 0.026817 0.0837115 -0.00858176 0.0347748 -0.0311956 -0.0543465 -0.0262597 -0.0581256 0.0510439 -0.0820354 0.0192646 0.0650595 -0.0629382 -0.065294 0.0259772 0.0548141 -0.0693735 0.0652242 0.0107065 -0.0257143 0.00660681 0.0439873 0.0220691 0.0506909 0.0810947 0.0269142 0.121905 0.0632887 0.0809088 0.0869919 0.0855928 0.0875593 -0.0244457 -0.0149077 -0.072252 0.0248942 0.00983885 0.031357 0.0226337 0.0743047 0.00998583 0.00870599 -0.0467924 0.0543003 0.0305968 -0.0662734 -0.157617 -0.0227662 0.0599259 0.0401844 0.0607563 0.019847 -0.0476956 0.0246137 0.115102 0.0195612 0.0328797 0.0911507 0.00609479 0.0320136 0.113458 -0.0394872 0.0198994 0.0681188 -0.0453599 0.136399 0.102016 -0.0731554 -0.02281 -0.0860561 -0.0759441 0.0256388 -0.0153976 -0.0421078 -0.0141042 0.0593037 0.130195 0.0269805 0.115794 0.104744 0.0296914 -0.123841 -0.0676786 -0.093325 -0.00202953 0.0380494 0.00663577 -0.00379376 0.116748 0.0165727 -0.0237961 0.116093 0.0645668 0.0510856 -0.029424 -0.05044 -0.0695257 0.055058 0.0288297 -0.0450509 -0.0267638 -0.00697527 0.159769 0.07825 0.125738 0.160183 0.136128 0.0191537 -0.0501462 -0.184854 -0.0546232 -0.150959 -0.143076 0.0351565 0.0615961 0.187266 0.0939924 0.164345 0.0439965 -0.0166959 -0.0179453 0.0761253 0.0249497 0.0216263 0.0697725 -0.00427677 0.00600933 -0.109659 -0.00536218 0.0855467 0.136371 0.0983132 -0.0111407 0.0374511 -0.0883097 -0.158624 -0.226864 -0.18918 0.0890999 0.0813928 -0.134892 -0.0826179 0.00133674 0.168238 0.174385 0.0736849 -0.0576318 -0.117541 -0.122173 -0.0354668 -0.00891126 -0.0928614 -0.0863049 -0.0878436 0.0626725 0.0239175 0.0137325 -0.112407 -0.0603638 0.0754231 0.0356143 -0.0619169 -0.0131239 -0.122534 -0.0594393 -0.00101918 0.156383 0.00353189 -0.0788916 -0.0907464 -0.0409977 0.0540793 0.145775 -0.116818 -0.163123 -0.0817725 -0.0312712 -0.0787787 -0.0836584 -0.0373966 -0.0207781 -0.0663726 -0.0405864 -0.0963775 -0.0409429 -0.148364 -0.142095 -0.117469 0.0785991 0.140271 0.0386641 0.0628238 0.102596 0.0418564 0.214264 0.121005 -0.100101 -0.0676212 -0.0234452 0.0101274 -0.0375551 0.0341301 -0.101493 -0.160218 -0.0495999 -0.11083 -0.0202231 -0.0524039 0.0386639 0.0167009 0.0681952 0.0649155 -0.0331565 -0.14385 -0.109242 -0.0452715 0.0777954 0.142141 0.194063 0.0876005 0.109985 0.0829549 0.132925 0.097677 0.132251 0.0440485 0.0156641 -0.129957 -0.264525 -0.151104 -0.20815 -0.174332 -0.0622875 -0.0124651 -0.0190053 -0.0666013 0.0681279 0.0587722 -0.088325 -0.023825 0.0511515 -0.0721067 -0.05455 0.0998382 0.103535 0.0942475 0.100001 0.170272 0.21301 0.0948281 0.159803 0.179713 -0.0103708 0.0410541 -0.0228381 -0.201421 -0.126745 -0.0248134 -0.0563951 -0.121302 -0.125769 -0.00455824 0.00302733 -0.0289282 0.0545047 -0.0463301 0.0380902 -0.0147871 0.0378519 0.0106075 -0.0920043 -0.0316106 -0.0617234 0.0444384 -0.0637098 0.0341414 0.117617 0.100389 0.263237 0.0884725 -0.0379162 0.159666 -0.0571119 -0.0432486 -0.136742 -0.0594072 -0.0531835 -0.0492958 0.039821 0.0712687 0.0841532 -0.0763414 0.0625978 0.0432787 -0.0751514 -0.0637049 0.00536998 -0.0811962 -0.0512839 -0.166048 -0.0545584 -0.0615204 -0.121511 -0.0959997 -0.0870251 0.0142127 0.0869908 0.0308151 -0.0484623 0.0406651 0.0731529 0.0306995 -0.0401971 0.035488 0.0640398 -0.044734 0.0270998 0.0374124 0.00646438 -0.0281329 -0.0887134 0.000553739 0.0294693 -0.0106413 -0.0558248 -0.0240714 -0.179486 -0.0549932 -0.0512868 -0.0894822 -0.0967156 -0.154544 -0.267706 -0.220813 -0.167695 -0.0397132 -0.00927557 0.066374 0.071265 -0.00768904 0.0271532 0.112454 0.0108917 0.155522 0.0904886 0.00245768 -0.0341632 -0.0241521 0.0300205 0.0148216 -0.0199628 -0.0583921 0.026623 -0.0898484 -0.0651632 -0.0240288 -0.0503954 -0.0997642 -0.134878 -0.147724 -0.303914 -0.242081 -0.00393754 -0.077753 -0.0285751 0.0513192 0.0783597 0.188327 0.0248851 0.108675 0.06654 0.126196 0.064143 -0.0152712 -0.0336919 0.00495397 0.060222 -0.0477711 -0.0567659 0.0681251 0.0120942 0.0537679 0.0129633 0.0115986 -0.00858456 -0.011852 -0.0744525 -0.0883983 -0.0684519 -0.110786 -0.041526 -0.032013 -0.0696037 -0.104443 0.0317068 0.193699 0.0635096 0.0677013 0.122556 0.0906988 0.0850734 0.051158 -0.0911919 -0.0888949 0.00279859 -0.0264691 0.00130378 0.00861688 0.102371 0.0239359 0.0109091 0.181378 0.0307396 -0.0324406 0.0627933 -0.0935392 -0.0627448 -0.0709511 0.0338981 0.0660942 0.0694296 -0.00582364 0.0421832 0.0253789 -0.00597561 0.0311275 0.0577245 0.0166107 -0.0422473 -0.0620195 0.0235497 -0.0302314 -0.0943461 0.0449203 -0.0408191 -0.0774648 0.00760949 0.0514229 -0.0144191 -0.0240193 0.0875042 -0.0191721 -0.0199006 0.0627866 0.0684597 -0.125978 -0.0669323 -0.00962358 0.0208672 0.0689485 0.0455827 -0.0167303 0.10248 0.177049 0.0728242 -0.0140402 -0.00749638 -0.079449 -0.0179326 -0.0723353 -0.0486526 -0.0596191 0.0541941 0.042587 0.0618274 0.0705739 -0.0358934 0.0873245 0.129779 0.109503 0.159773 0.134755 0.209543 -0.0197402 0.0703837 0.0808406 0.0936731 0.128002 -0.0772296 0.0838135 0.00473965 0.0719647 -0.0270188 0.0662267 -0.0166799 -0.0211574 0.0160824 -0.0374831 0.00472032 0.040995 0.0501724 0.0232337 0.062592 0.0812458 0.0513405 -0.00525287 0.0927163 0.0717042 0.163747 0.09966 0.122169 0.126297 0.182255 0.197918 0.108004 0.0838185 -0.0131102 0.030881 0.0363003 0.0160204 0.0733745 0.0217777 -0.0645509 -0.0833326 -0.0087981 -0.0362178 -0.0657829 -0.000203196 0.0255659 0.0474251 -0.0809178 0.0154635 -0.0858738 0.0355091 0.0156115 0.14097 0.107965 0.0717156 0.135256 0.143223 0.156695 -0.0707051 0.00751662 0.0440646 0.111314 -0.0127346 0.00484525 -0.0331485 -0.0424204 -0.00925936 -0.0322046 -0.0838971 -0.0433732 0.0630736 -0.0367703 -0.090064 0.0586999 0.0704613 0.049099 -0.0109141 0.0106316 -0.0844967 0.0417613 0.0430948 0.0329255 0.016568 -0.00283908 -0.0336293 0.0842526 0.0729027 -0.0906958 0.0458747 -0.0149073 0.0841134 0.0430546 0.0256688 0.0487591 -0.0895553 -0.0403353 -0.0919469 -0.0156528 0.0713863 -0.0625369 0.0254177 0.0677746 0.0629798 0.0684774 0.0271375 -0.0888317 0.0322829 -0.00682339 0.0559364 0.0411859 0.0193351 -0.00198132 0.0408903 0.0764473 0.0660037 0.0756838 0.0436074 -0.0282924 -0.0446719 0.0347949 -0.0537171 -0.00771704 0.0278724 0.00942799 -0.07546 0.00180748 -0.0381044 0.0734523
-0.0698576 0.0302297 0.0552048 0.0659624 -0.0562356 0.0195477 -0.0429016 0.0115394 -0.0133538 -0.0380793 -0.0903228 0.0573069 -0.0555118 0.0692416 -0.00341051 0.0299475 -0.0709594 0.0407566 0.0149674 -0.0226311 0.041575 0.0512102 -0.0509644 -0.0307956 -0.0581999 0.000417459 -0.0357587 -0.0769275 -0.0489552 -0.0295501 -0.0891009 -0.0614453 -0.0591168 0.0422827 -0.0885968 0.00822007 0.0550242 -0.0112592 0.0315119 -0.0314753 0.0241762 -0.0722707 0.0219865 -0.0580283 0.00832463 0.0197255 0.0585266 -0.0645184 -0.0644522 -0.0886186 0.0584521 -0.0448686 0.0671317 0.0622614 0.0678264 -0.0255713 -0.0963456 -0.0311209 0.0382729 -0.0759146 -0.0705973 -0.0542226 -0.0102023 0.00711643 -0.002903 0.0395723 -0.0240391 0.00317973 0.0269562 -0.00420238 0.0376111 0.102734 -0.0122705 0.0937024 0.00403678 0.0885788 -0.0118468 0.0817798 -0.00854558 -0.0486445 -0.0654336 -0.0323143 -0.0816225 0.0539886 0.00467409 0.0372428 0.0486722 -0.063254 -0.0773374 0.037541 0.0642155 0.0284869 0.00534184 0.014125 0.130383 0.0544853 0.075715 -0.0165819 0.0784074 0.0944932 0.0886575 0.0511315 -0.03893 -0.00404096 -0.00391013 -0.0529748 0.0149531 0.0105117 0.0735407 -0.0270613 -0.00741564 0.0683273 0.0505092 -0.001238 -0.0606951 0.026047 0.037632 0.052249 0.072994 -0.0376164 0.0524193 0.0415812 0.190678 0.0316099 0.10022 0.101582 0.0745047 -0.0865872 0.149377 0.0989696 0.0462433 0.0322909 0.0228125 0.0676511 0.0551186 0.0245975 -0.0570376 0.000696357 0.0213844 -0.00347421 -0.040613 -0.0805322 -0.0972387 -0.0546499 -0.0944419 -0.0994067 0.0270597 -0.0475461 0.0134626 0.0488675 0.0974904 0.10495 0.103632 -0.021109 -0.0465427 -0.116338 -0.00876149 -0.0106662 -0.0194653 0.0111274 0.0992493 0.0197784 0.0336646 -0.0442946 -0.00280382 0.0249545 0.0319065 0.0706677 -0.0879872 -0.062571 -0.0149889 0.0421043 -0.0912039 -0.0810963 -0.102753 -0.0287972 0.0805786 0.0815472 -0.0617824 -0.0803927 0.000133263 -0.183469 0.0446747 0.158101 0.018355 0.0454375 -0.0396623 -0.140709 -0.0941965 0.00922931 0.0716947 0.00893081 -0.0695417 0.0589246 -0.0430535 -0.0605761 -0.0678832 0.0646416 -0.0991278 0.0172236 0.0371761 0.067503 -0.106879 -0.0593719 0.133714 -0.0801979 0.0277719 0.0962736 -0.0802239 -0.0135555 -0.00835929 0.0432108 -0.0836427 0.00605312 -0.167295 -0.127496 -0.203849 0.00157236 0.0362497 -0.10589 -0.0640984 -0.043022 0.0496847 -0.073541 0.0409247 -0.00913067 -0.0235987 -0.0380272 -0.0760317 0.000238938 0.0699119 0.033803 0.0318519 0.0340974 0.101387 -0.0516336 -0.0522567 0.0173296 -0.101638 -0.164755 -0.0586168 -0.0516004 -0.080848 -0.0307024 -0.0473829 -0.0030937 0.00540134 -0.086099 -0.0891324 0.0682551 -0.056161 -0.0904591 0.0120996 0.0167498 -0.0780259 -0.000378091 -0.0938576 -0.0730542 0.0212023 0.0295975 -0.0132867 0.0430635 -0.096436 -0.010771 -0.037193 -0.18124 -0.129013 -0.150506 -0.143397 -0.108576 -0.0983259 -0.0839111 -0.0833479 0.00635619 0.0264806 -0.0131312 -0.0343458 -0.0185872 0.0278199 0.014317 0.0348834 0.0454156 -0.0551014 0.0117588 -0.109254 -0.0584719 -0.0833635 -0.021052 -0.107316 -0.0739059 -0.0952407 0.0627089 -0.0849127 -0.200284 -0.217942 -0.174746 -0.141728 -0.0893506 0.0474866 0.0358506 -0.0657872 -0.0069621 -0.0700212 -0.161276 -0.0157281 -0.171722 0.037632 -0.0353675 0.0474125 0.0427411 0.046432 -0.0647165 -0.00825279 -0.0665607 -0.106258 -0.0303981 -0.199241 -0.106886 -0.149879 -0.0142156 0.00519194 -0.161162 -0.128673 -0.0744165 -0.0569763 -0.0738858 0.0273538 0.0120439 0.0176703 -0.121346 -0.122216 0.0123401 -0.0141278 -0.0991876 -0.00318548 0.0444613 0.0659293 0.0513819 -0.0341792 -0.0229007 -0.0693918 -0.129372 -0.132133 -0.154036 -0.113021 -0.0620973 -0.0607712 -0.035826 -0.0504118 0.0140944 0.00114507 -0.0398499 0.0859027 0.063176 -0.0688036 -0.0930228 -0.0510987 -0.0741571 0.0205235 0.085186 0.0986977 0.0312073 -0.0742913 0.0465547 -0.0254045 0.0222892 0.0573249 -0.109736 -0.113009 -0.157111 -0.171628 -0.154075 -0.0410094 0.064974 0.0154809 0.118383 0.027672 0.154569 -0.0103052 0.0979401 -9.76833e-05 -0.075045 -0.0965177 -0.000349331 0.145707 -0.0338945 0.0075096 0.0716332 -0.0154365 0.100343 -0.0160532 0.0194439 -0.0814983 -0.0636246 -0.0948359 0.0165823 0.0116829 -0.0960226 -0.0517787 0.0362062 -0.0344561 0.0290184 0.0124628 0.0325195 -0.0395508 0.0573877 0.188698 0.0960879 0.0366657 -0.0542795 -0.0421707 0.0454326 -0.00891049 0.00309453 -0.0586857 -0.0420187 -0.0557583 -0.00734322 0.0103297 0.0360883 -0.0308964 -0.0230107 0.0356556 -0.0689571 -0.0985048 0.0383498 0.119747 -0.0541619 -0.127494 0.0199651 -0.0107774 0.139396 -0.0104821 0.177239 0.160872 0.0507401 0.0160893 -0.0342967 0.00772685 -0.0116106 -0.030587 0.0109865 0.072669 -0.0122989 -0.00289594 -0.011227 0.0230378 -0.0471968 -0.0218095 0.0539302 -0.00824551 0.0671297 0.0268362 -0.0452323 0.135472 0.0417082 -0.0504769 0.0584631 0.0965373 0.0304149 0.0360003 0.137175 0.08413 0.0554715 -0.00608021 -0.0419575 -0.01092 0.062466 -0.00433473 0.169763 -0.000977297 0.153236 0.0441915 -0.00254456 -0.0171055 0.0406248 -0.0669589 0.0389546 -0.0388965 0.0329936 -0.0332851 0.025114 0.0735063 0.0553359 0.0777761 0.0356763 0.0628859 0.122931 -0.0481162 0.0280649 0.118787 -0.00305386 0.052431 -0.0446893 -0.0473326 -0.0556283 0.0259348 0.120002 0.0276809 0.0749401 0.0256365 -0.0133494 0.0571976 -0.0123234 -0.0691792 0.0684155 -0.0349472 0.13964 0.0427169 0.0498633 0.0625302 0.0639166 -0.0280919 0.0393336 0.0221243 -0.0475528 0.0400335 0.0106077 0.011209 0.0772845 0.0532015 -0.031837 -0.152694 0.136548 0.0224121 0.0704643 0.0127214 0.0970214 0.104703 0.0768447 0.00518484 0.0220134 -0.065732 -0.0592951 -0.0547125 -0.0466955 -0.0107221 -0.00480756 0.0250908 0.0508721 0.0155081 0.0762418 0.0383668 0.0210189 0.0612774 0.030078 0.0794557 0.0394836 0.0171831 0.0365378 0.0638446 0.0551943 -0.0174675 0.0664512 0.0482156 0.122974 -0.0602667 -0.0786067 0.036521 0.00885009 -0.0248037 -0.00364457 0.0430618 0.0100702 0.026045 0.111198 0.0331772 0.0478804 -0.0201406 0.106406 0.0719618 0.0567305 0.113199 0.109198 0.0191164 0.0375613 -0.122983 -0.0308964 0.126023 -0.0324718 0.128966 0.0954012 0.124294 -0.0112163 0.00355939 -0.110157 -0.0275799 -0.0835751 0.0641878 0.0161064 -0.0464892 0.100958 0.0893056 0.0219216 0.0442982 0.0194313 0.0454427 0.0747805 0.0108184 0.0520613 0.0622098 0.20384 0.141171 0.0653034 -0.0927621 0.136852 0.0880223 0.0407849 0.0791734 0.0522174 0.0501075 0.0814408 -0.0632002 0.0377962 -0.0534319 0.0628722 -0.00451658 -0.0499545 0.0383089 -0.0397224 0.0742821 -0.0270916 -0.0159292 -0.00492503 0.106317 0.0163035 0.0453013 0.0916633 -0.0331457 -0.0900985 -0.113563 -0.081961 -0.0361118 0.0134915 -0.00341261 0.12988 0.093013 0.0847887 0.0331987 -0.018832 0.0292811 -0.025802 -0.0984061 -0.0421798 -0.0511978 -0.0553079 0.0233542 -0.0352509 -0.0879229 0.0792646 -0.00522065 -0.0220756 0.0736713 -0.084773 -0.0546447 -0.0244683 0.0227157 -0.0877649 -0.0477323 -0.0109751 0.0126513 0.0314349 0.136821 0.0956635 0.0822386 -0.0386584 -0.0286847 -0.0429848 -0.0247471 -0.0185497 -0.0801715 0.0598793 -0.0959547 0.0710484 -0.0257672 -0.0902622 0.0204027 -0.054525 -0.029727 -0.0371361 -0.0700936 -0.0831923 -0.12787 -0.057171 0.0547997 0.0238775 0.10672 0.112189 -0.0322575 0.0661872 0.0818695 -0.036911 -0.0773863 -0.00977718 -0.0706994 -0.0416681 -0.047905 -0.0275033 -0.0650814 -0.0395069 -0.0710962 0.0675067 0.0643723 -0.00877857 0.0299163 -0.0529083 -0.0548273 0.0471957 -0.0358394 -0.0545451 -0.0605758 -0.0259829 -0.0494026 0.0326585 0.0700002 0.0633345 -0.0610306 0.0180269 -0.00931188 -0.0307411 0.00417565 -0.010127 0.0510039 -0.00258693 -0.079407 -0.0876655 0.0270677 -0.0226088 -0.0751229 -0.040278 -0.0709713 -0.0977589 -0.0885284 -0.000756479 0.0558244 -0.0344886 -0.00964413 -0.0997027 0.0312778 -0.0651951 -0.041508 -0.0751149 -0.129407 0.00534555 -0.024162 -0.0402346 -0.0188327 -0.0137802 -0.095725 -0.0229068 0.048012 0.0627484 0.0473725 -0.085276 -0.0528454 -0.0966438 -0.060432 -0.0342526 -0.0477746 -0.0141021 0.0599045 0.0557855 0.0405896 -0.00467044 -0.0751165 -0.0870733 -0.051384 -0.00225031 0.0134042 -0.102358 -0.0856201 0.0127321 -0.0843356 0.0572447 0.0243507 0.0106008 0.0218705 -0.000294161 -0.0107799 0.0015052 -0.0661821 -0.0622506 -0.0631729 0.0282543
-0.0208296 -0.0217264 0.105571 0.0140767 -0.0390836 -0.00824764 0.0926766 -0.0345332 -0.0257372 -0.0315549 0.0702262 -0.0338669 0.099362 0.00268749 0.0893343 0.0116063 0.0467761 -0.0145995 0.0929256 -0.0172202 0.052588 0.0802627 -0.000910998 0.0628484 0.0939253 -0.0325004 -0.0476254 0.00472783 -0.0202241 0.0185524 -0.0236889 0.0395025 0.0877176 0.0109859 -0.0487151 0.0690781 0.0464872 0.0441064 -0.0567041 -0.0390061 -0.0795969 0.0661867 0.0204232 -0.0592889 -0.0598998 0.0603006 -0.0444972 -0.0553834 0.043103 0.0703027 0.0460036 -0.00460929 0.0628936 0.102029 -0.0536483 0.0134313 0.0492738 -0.0142629 0.0381386 0.0479409 0.0783957 0.0448086 0.0940236 -0.0236648 0.00128136 0.0307381 -0.0416232 -0.0774331 0.00552128 -0.0164583 0.0250119 -0.0223669 0.0103652 -0.0646353 -0.0195777 -0.0427083 -0.00555014 0.0555599 -0.00678975 0.0497195 0.0633624 0.0401247 0.0079822 0.0342965 0.105015 0.0299652 0.0260622 -0.0460205 0.0111009 0.0951547 0.0908116 0.0519486 -0.0471087 -0.00872908 0.0232694 -0.124038 -0.0800715 -0.202112 -0.0659931 -0.0470813 0.00304479 -0.0407573 0.071185 0.0439586 -0.0262549 0.0461595 -0.0446929 -0.0353277 0.0317938 0.0781621 0.0406827 0.0760502 -0.0283185 0.016415 -0.0615192 0.0259225 -0.0238788 0.0380816 -0.0737034 -0.0339443 -0.0348296 -0.020906 -0.0426057 -0.0204966 -0.125417 -0.0797246 -0.107066 -0.0207614 0.00521046 -0.0116801 0.0368477 0.0667989 -0.045775 0.0329302 0.0204728 0.0838808 -0.0739641 -0.044919 0.0537916 0.0787013 0.00537471 0.0308644 0.0768636 -0.0159302 -0.0207412 0.0828517 -0.0307445 -0.0278509 -0.124078 0.012235 0.00381 -0.0303309 -0.042012 -0.10543 -0.128132 -0.101709 -0.164705 -0.141394 -0.127715 -0.0470854 -0.0457597 0.016263 0.023247 -0.0862337 -0.086328 0.0780696 -0.0482888 -0.0591494 0.0652573 -0.0501865 -0.0122752 0.111774 -0.0655606 0.00860394 -0.128564 -0.0672487 -0.0155593 -0.0291564 0.0051631 0.0800395 0.00855458 -0.072923 -0.193159 -0.169194 -0.125583 -0.0515257 -0.0423435 -0.104034 -0.0849117 0.082452 0.00609071 -0.0649812 -0.0573687 -0.0283754 -0.0216541 -0.0487555 0.058792 -0.0519384 0.0770612 0.0588561 -0.00487973 -0.025529 -0.164073 -0.00106981 -0.0232603 -0.029209 -0.0381321 0.0413777 -0.0346197 -0.142998 -0.00234686 -0.0993508 0.0299467 -0.0596567 -0.0123302 0.0472209 0.0430372 0.089854 0.0296533 0.0703871 -0.0506145 -0.0733078 -0.0294087 0.021385 0.0620975 -0.0581199 0.0686741 0.121967 0.106891 -0.0115552 -0.0954057 0.131259 0.0162021 0.0201663 0.0196093 -0.0340347 0.00849433 -0.140155 0.00405947 0.0709531 -0.000493671 0.0740529 0.149288 -0.0760157 0.0931526 0.0730166 0.0465134 0.0480614 0.0770359 -0.0109816 0.0458379 0.00569551 -0.0361895 0.0957112 0.0602679 0.0499296 0.0888585 -0.032797 0.0674661 0.0719556 -0.0728187 -0.0898686 -0.00749196 0.0583936 -0.0630024 -0.0198895 0.114282 0.156192 0.246408 0.0729427 -0.0171982 -0.0649315 0.102517 0.0448251 0.115776 0.171821 -0.00296001 0.0368155 0.0104961 0.0877574 -0.0218133 0.0334274 -0.00538633 0.121512 0.0462464 -0.0453493 -0.0384008 -0.0153232 -0.0204131 0.0292969 0.197849 0.148089 0.00720644 -0.0753063 -0.0950889 0.0944432 0.0904742 0.0721107 0.218117 0.112768 0.118734 0.0717375 -0.0103518 -0.00679905 0.0243516 -0.0314468 -0.0272241 0.101826 -0.0120923 -0.00557539 0.0334986 -0.017862 0.0450663 -0.0209582 0.00771713 -0.0373015 -0.00516986 0.128901 0.0722245 0.122338 -0.000749555 -0.095036 -0.0780892 -0.0496253 -0.110057 0.141756 0.15291 0.100649 0.0175666 -0.0457675 0.0422236 -0.0271669 0.0504307 -0.0271517 0.108952 -0.0212891 0.0081454 -0.0361341 0.00120997 -0.0309523 0.00491665 -0.115655 -0.0371071 -0.0281586 0.107712 0.105323 0.153582 0.0641551 -0.0169087 -0.0740251 0.0263528 -0.020414 -0.0307821 0.0617198 0.0506666 -0.080942 -0.101658 -0.139899 -0.123157 0.0136027 -0.134085 0.0500456 -0.0634509 0.0315589 -0.00492533 0.0874414 0.0852172 -0.0703713 -0.0990975 -0.0127024 0.0232956 0.0588674 0.212834 0.0781401 0.189629 0.0373891 -0.129763 -0.216848 0.154862 0.0721596 0.0367269 -0.0567119 -0.0982423 -0.189138 0.0378234 -0.0597629 -0.0853333 -0.122391 -0.0990846 -0.0210975 0.0406674 0.102311 -0.00442059 -0.0419931 0.0450446 -0.0183867 -0.0363605 0.010796 0.00422764 0.0351748 0.0730594 0.0441213 0.0844088 -0.0741688 -0.106562 -0.00733276 0.17101 0.0237251 0.0256917 0.142166 -0.00212413 0.0519343 0.114766 0.00496416 -0.0701447 0.0471771 -0.126888 -0.0293197 -0.0531948 0.0820716 0.0362951 -0.0216705 -0.0305978 -0.0398991 -0.0365105 0.0877768 0.130209 0.102048 0.168533 0.100263 0.0494938 0.062533 0.0609903 0.0374538 0.0414966 0.0841827 0.0572642 0.0850018 -0.000509725 0.0687045 0.0474013 0.00207048 0.0883293 -0.0540937 0.0513037 -0.0276035 0.0928994 0.00724776 0.0534845 0.00439322 -0.0058246 0.0408522 0.0468341 0.0158601 -0.0599329 0.0465345 0.0764315 -0.00154142 0.0559533 0.0197042 0.0793472 0.0493146 0.0277604 0.109797 -0.0123966 0.144018 -0.0843592 -0.03791 0.0153837 0.0621371 -0.0310415 -0.121852 -0.0168713 -0.0903305 -0.051738 0.00207015 0.0833947 0.105069 -0.0599869 -0.00310355 -0.108005 -0.180914 -0.126828 -0.0446721 -0.0437339 -0.180198 0.0199249 -0.0574018 -0.101373 -0.149821 -0.00505665 -0.00681312 -0.0251563 0.0180275 -0.0575913 0.0232931 -0.0200615 -0.0100197 -0.0766035 -0.0564663 -0.0931426 -0.0339221 -0.0286985 0.0277037 -0.013048 -0.0363287 0.0330481 -0.101418 -0.115256 -0.137057 -0.189538 -0.166967 -0.259543 -0.1758 -0.162384 -0.0803465 -0.113382 -0.0560593 -0.137832 -0.0913991 -0.0674115 0.176916 -0.0983699 -0.0999462 0.0445123 -0.00973999 -0.161542 -0.237091 -0.0400673 0.0279148 -0.0487868 -0.0411392 -0.0109261 -0.0595455 0.0805411 0.00470319 -0.0357727 -0.211937 -0.177667 -0.0903022 -0.238944 -0.279103 -0.350146 -0.273374 -0.189693 -0.197605 -0.0645486 -0.0780041 -0.0181786 0.0140466 -0.0665224 0.0434588 -0.135568 -0.122595 -0.228377 -0.129135 -0.0790369 -0.0157927 0.000961594 0.0311955 0.0823201 -0.0296428 0.0362848 0.0402486 -0.0637446 -0.0948992 -0.144385 -0.142109 -0.229325 -0.151333 -0.200457 -0.134545 -0.0272421 -0.0900447 -0.0657847 -0.0470416 -0.0821027 -0.102767 -0.0270743 0.00387702 -0.147585 -0.0799404 -0.156617 -0.183194 -0.110381 -0.000307406 0.074231 -0.0246415 0.0976146 0.0891874 0.091539 0.0831802 -0.0990963 0.0267237 0.019737 -0.100815 -0.029313 -0.0691299 -0.0212964 -0.0570002 0.0310478 -0.0651493 -0.0387864 0.0362311 0.0167696 -0.0969505 -0.0121738 -0.100732 -0.102096 -0.161581 -0.155341 -0.153387 -0.0927211 -0.0267486 -0.0210749 -0.0276492 0.0848468 -0.0290709 -0.050967 -0.0629883 0.0570493 0.0972157 0.0446256 0.0740175 0.0877295 0.0623422 0.146866 0.0141582 -0.054033 -0.105974 -0.0670889 -0.0887996 -0.0812963 -0.149149 0.0737433 -0.0157072 -0.10106 -0.145538 -0.14412 -0.092078 -0.0530511 0.0330135 -0.0580384 0.0226907 0.0172019 -0.026524 0.0860368 0.0117636 -0.0260372 0.00586408 0.103907 0.164179 0.0350043 -0.0235399 0.116643 -0.000749253 -0.0546493 -0.00901858 0.0262772 0.0316525 -0.0228474 -0.087803 -0.0502516 -0.172254 -0.0786286 -0.0668347 -0.0428796 0.0372177 -0.0544304 -0.0642823 -0.0434446 0.0991336 0.0327694 -0.0424763 -0.00785962 0.0495297 0.0983902 0.169854 0.128585 0.00621864 0.0690329 0.116895 0.107051 0.00406278 -0.0546014 -0.0589584 0.0238702 -0.0613415 0.010868 -0.210545 -0.00899071 0.0395239 -0.079476 -0.00968137 -0.0798748 -0.0832713 0.0580075 0.0332559 -0.0642602 -0.0315657 -0.0515229 -0.0200392 0.0786499 0.0845078 0.0684234 0.107028 -0.0257397 0.0779396 0.073608 -0.0284407 -0.0440336 0.0600664 0.0309396 0.0677889 0.112718 0.0372799 0.0826679 -0.0126598 0.132995 0.151081 0.0324152 0.0215813 -0.0647881 0.0193704 0.054778 0.0247501 0.0094377 -0.00724586 0.0410143 0.107082 0.0365141 0.0740731 0.050912 -0.0325294 0.0694679 -0.0613857 0.0686276 0.0214617 -0.0201725 -0.0484033 0.0208791 -0.0329187 0.0851543 0.0995789 0.0260196 -0.00190711 0.102375 0.0572291 0.0231293 0.0549354 -0.00503322 -0.0370834 -0.0417127 -0.0613067 0.0877689 0.107021 0.0595146 -0.0142098 0.0231485 0.0353245 -0.0411749 0.0887872 -0.0608665 -0.0675599 0.0164642 -0.00693469 0.0502447 0.0278321 0.01908 0.105105 -0.0459902 -0.0363815 0.0731796 0.119693 -0.0108128 0.110587 -0.0388695 -0.0275176 0.0711902 -0.0038163 0.0436324 0.0984778 0.0454557 -0.0584617
