0.00928058 -0.0090967 -0.0111518 -0.042894 0.0234519 0.0188605 -0.00623727 0.0553389 0.0468741 -0.0525455 0.029699 0.00692978 0.0497976 0.0700702 0.056855 0.0228213 0.0469101 -0.00953317 -0.0299762 0.00188875 0.0667471 0.00681908 -0.0176845 0.0215624 -0.00208009 0.0573506 -0.0583321 0.00445782 -0.0669266 -0.0853224 0.0106425 0.00592238 -0.0854103 -0.0777335 0.0575523 -0.084587 0.0539785 -0.0347259 0.0137694 0.022413 -0.0629298 -0.0233721 0.0465674 0.00508624 0.00207709 -0.0117535 -0.0866861 0.029411 0.0490652 -0.00103164 0.0243068 -0.0639203 -0.0231156 0.0501676 -0.0959875 0.0128407 0.0350691 -0.0381433 -0.0897127 0.0020778 0.0249064 -0.0680619 0.0252994 -0.0366352 -0.0331136 -0.0541961 0.0665601 0.0873917 0.014091 0.116077 -0.00884797 0.109809 -0.0304489 0.0710021 -0.00893404 -0.0549409 -0.0270515 -0.00910762 -0.0572129 0.0109375 0.0328843 0.0566965 -0.0813776 0.0675208 0.0192398 0.0460721 -0.0676651 0.0123796 -0.00461911 0.0539484 -0.0734642 0.0623814 0.0347844 0.120006 0.0164959 0.131721 0.0704087 0.056971 0.181474 0.160936 0.0855293 -0.00816513 0.027001 0.0427428 -0.0241813 0.00735649 -0.0537009 0.0685771 0.0153869 0.0648333 0.0494641 0.058969 -0.0412306 0.0504565 -0.0440589 -0.0961722 -0.0317692 -0.0479188 0.0820826 0.0556619 0.131216 0.106894 0.163255 0.149809 0.150172 0.115029 0.0821326 -0.00157447 0.0698002 0.0665133 0.121842 0.139749 0.109546 -0.00063359 0.121062 0.0797951 0.00915127 -0.0211623 0.0147961 -0.0340179 -0.00244087 0.0650101 0.0696566 -0.0486043 -0.0762846 0.0852273 0.0947562 0.0386487 0.0550115 0.122822 0.135089 -0.0145123 -0.0137745 0.0149591 0.03289 0.069068 0.195047 0.063865 0.141004 0.0962315 0.13502 0.000872635 -0.00843449 0.0469543 -0.0649087 -0.0667163 -0.0553449 -0.00127984 -0.0471482 -0.0526464 -0.08776 -0.010451 -0.0310778 0.0575313 0.0596688 0.0609624 0.07353 -0.0281415 -0.0435637 0.0114429 0.061393 -0.0160383 -0.000679157 -0.0661833 0.0279303 0.00989734 0.058745 -0.127043 -0.0702789 -0.106228 -0.122042 -0.121465 -0.0272252 -0.04861 0.026738 -0.0654462 0.0242523 -0.00230245 -0.0598611 -0.0361609 0.104784 0.0502994 0.0311884 -0.0268226 -0.0362263 -0.0623417 -0.0905482 -0.103742 0.0209666 -0.071254 -0.0915887 -0.139535 -0.20793 -0.313961 -0.212698 -0.148144 -0.165644 -0.11846 -0.189565 -0.266066 -0.0810512 -0.0213288 -0.00442297 -0.0249049 -0.0016587 -0.0445298 0.0283049 -0.0197097 0.0941045 0.0339817 -0.0834111 -0.0970713 -0.0626049 -0.151585 0.0104746 -0.0379695 -0.0337171 -0.120239 -0.168354 -0.175796 -0.260247 -0.162854 -0.279951 -0.362308 -0.14341 -0.178133 -0.110828 -0.300325 -0.105681 0.00837692 -0.0825449 0.0343434 -0.0949372 -0.0581997 0.066129 -0.0737367 0.0308594 0.00981392 0.00940098 0.0168058 0.109343 -0.100694 -0.0795957 -0.0119948 -0.069578 -0.102435 -0.0131997 -0.218389 -0.107196 -0.218715 -0.25432 -0.254901 -0.233016 -0.142146 -0.109578 -0.221676 -0.115429 0.00624407 -0.0220092 -0.0314885 -0.0250829 -0.0497567 -0.0931004 -0.0249475 -0.0418454 0.00334947 0.00570781 -0.107333 -0.0946295 -0.218121 -0.0816202 -0.168847 -0.129378 -0.0961603 0.00984566 -0.0277577 -0.139715 -0.140893 -0.125812 -0.0351015 -0.0855745 0.0195972 -0.09004 -0.0307767 -0.0528212 0.0594145 -0.0386016 0.0187934 0.00955434 0.0583466 -0.0484231 -0.00209155 -0.0448678 -0.0434145 -0.207648 -0.178389 -0.191902 -0.247802 -0.221908 -0.117963 -0.084484 0.0149948 0.169617 -0.0871775 -0.107368 -0.0434503 0.0124465 -0.0268901 0.0788891 0.0146425 -0.0595263 -0.0149536 0.0799794 0.0231822 -0.108534 -0.0058229 0.0335486 -0.000710288 -0.0991378 -0.050334 -0.0637759 -0.190243 -0.252954 -0.14691 -0.168586 -0.201126 -0.153113 -0.110276 -0.0449274 0.110027 0.176817 0.0767238 0.0868005 0.0271008 -0.0558705 -0.00504419 -0.0708073 -0.0582752 -0.0797105 0.0650926 0.0663142 0.0276157 0.0609047 0.0295923 -0.0930034 -0.0575536 -0.0777001 0.0589922 -0.10286 -0.167836 -0.218666 -0.284683 -0.106776 -0.111914 -0.08126 -0.123483 -0.137067 0.127294 0.205503 -0.0646073 0.0786934 0.0679196 -0.0163579 -0.123916 -0.111332 -0.101489 0.0581692 0.0421574 0.116239 -0.0110751 0.0802906 0.0751912 0.0216069 0.00426834 0.0544041 -0.0248827 -0.101183 -0.120508 -0.0774818 -0.120955 -0.112947 -0.123349 -0.0407084 -0.0261188 -0.0352429 0.245987 0.180991 0.130836 0.173366 -0.147167 0.086807 -0.0240899 -0.0670095 -0.0392652 -0.00897834 0.103476 0.0194209 0.000244282 0.0675643 -0.0504567 -0.0278279 0.0304138 -0.00867861 0.0591 -0.0233607 -0.0451257 0.0565195 -0.139051 -0.013401 -0.143299 -0.237085 -0.0234511 0.0401921 0.340125 0.114987 0.0806935 0.0631092 -0.0694744 -0.0153675 0.00682074 -0.00201678 0.0862668 0.0741203 0.0328946 0.0222658 0.135791 0.0832023 -0.00438045 -0.0109039 -0.0948156 0.065506 -0.0348826 0.00393539 0.00916006 -0.00358721 -0.131935 -0.236556 -0.0722747 -0.113872 -0.0118674 0.206605 0.216202 0.212081 -0.0170883 -0.076764 0.0145094 0.102884 0.132232 0.186824 0.150442 0.0645489 0.0750846 0.165818 0.0954142 -0.0124066 -0.00154643 0.00445864 0.0529317 -0.034887 0.141182 0.0749381 -0.0406161 0.0806261 -0.047958 -0.0223546 -0.154839 -0.0480025 0.077263 0.051217 -0.0515155 0.0785407 0.0448392 0.0240602 0.0121336 0.140398 0.199411 0.131737 0.130047 0.111339 0.184255 0.106013 0.0868763 0.054496 0.00112112 -0.0565165 0.0392313 -0.0339408 0.159773 0.162964 0.101219 0.0738218 0.0423225 0.0347175 -0.00199052 -0.0236039 -0.024608 0.13236 -0.0704359 0.00923794 -0.0540785 0.161247 0.16064 0.150769 0.107533 0.0839703 0.0767995 0.192719 0.216022 0.118035 0.0801924 -0.0839048 -0.0181247 0.0316331 -0.026308 0.0551814 0.0751597 0.0815655 0.12859 0.00426848 0.0290643 0.0634461 0.238196 0.0487931 0.207765 0.0427883 0.0645523 0.0562244 0.0665447 0.0763592 0.147751 0.164667 0.107209 0.0795905 0.157049 0.0975453 0.0651724 0.0676343 0.104138 0.0531495 -0.0800087 0.00207414 0.0563508 -0.0519443 0.14683 0.207411 0.0607979 0.136076 0.163383 0.177606 0.243143 0.157692 0.188956 0.0371819 0.0316369 0.0545717 -0.0388514 0.0919509 0.0603429 0.154345 0.156298 0.0809724 0.0142534 0.0925184 0.106277 0.0777543 0.0757459 -0.0223243 0.0349116 -0.0374793 0.0353215 -0.00347943 0.14679 0.147713 0.179454 0.17389 0.107356 0.20063 0.157554 0.261762 0.0966921 0.115277 0.193823 0.079009 -0.0204171 0.0833403 0.0142444 0.191581 0.183625 0.00694465 -0.00945771 0.033357 -0.00749971 -0.0387725 -0.0215963 0.0188885 -0.0502167 0.0235688 0.0135133 -0.0879314 -0.00256844 0.0630272 0.1706 0.150554 0.0595019 0.0324199 0.104121 0.0866348 0.101959 -0.00231144 -0.124111 -0.139213 -0.0132567 0.047193 0.0575842 0.0717238 0.063628 0.0540191 -0.0691627 -0.03824 -0.0184565 0.0105738 0.0251291 -0.0189807 0.00517708 0.0608722 0.0410656 -0.0157529 -0.0515104 0.138499 0.131801 0.093859 0.0655564 -0.0296971 0.11107 -0.0473128 -0.0148579 -0.0240209 -0.064577 -0.173548 -0.161727 -0.0500486 -0.0274934 0.0337322 -0.0395199 -0.0357665 -0.0623549 0.0195405 0.0321936 -0.0642937 0.0102066 0.0149699 0.0447893 0.00618988 -0.0486201 -0.052081 0.0317874 0.0142031 -0.0461225 0.0476529 0.0321587 -0.0819538 0.0367653 0.0244025 -0.0928635 -0.0628645 -0.0167308 -0.0670826 -0.0285245 -0.128367 -0.00903627 -0.116321 -0.119994 -0.0412754 0.0379329 0.0379608 -0.0813183 -0.0404728 0.0707125 -0.0227802 -0.0607845 -0.0824304 -0.0102935 -0.0586892 0.061925 -0.0610803 0.0205575 -0.0308291 -0.170236 -0.0755129 -0.1225 -0.18576 -0.0295215 0.0153821 0.00848753 -0.104919 -0.00690828 -0.127364 -0.0613247 -0.0685498 -0.0554582 -0.0884134 -0.110367 0.00825843 -0.0201502 -0.00200093 0.0245924 -0.00265055 -0.0170814 0.063908 0.0267495 -0.0364289 -0.0700822 0.000647761 0.0576065 0.0247774 -0.0350887 -0.0570072 -0.0572609 -0.119446 -0.0953856 -0.0549152 0.0292532 0.00552814 0.0305502 -0.0708363 -0.0828778 -0.0283302 -0.0117146 -0.00555503 0.0131766 -0.0406451 -0.0484412 0.0355861 0.0507636 0.0161066 -0.0781217 0.0404859 -0.0777309 -0.0178562 0.0282334 0.0389689 -0.0554563 -0.0527611 -0.0620498 0.00340699 -0.0908076 0.059444 0.00487648 -0.057592 0.00406134 -0.0317391 -0.00605093 0.0622572 0.0493063 -0.0493303 -0.00113219 -0.0176884 -0.0171647 0.0341075 0.0465156 0.00694908 -0.0517201 0.0106523 0.0384823
0.0600295 0.0477028 0.0893319 -0.0250412 0.0718877 -0.0333663 0.0259368 -0.0522738 0.0508441 0.0466648 0.097285 0.0484829 -0.031141 0.0977063 0.0390118 0.00882543 0.0233678 -0.0379642 0.0226359 0.0491455 0.00157988 -0.0539256 0.0777181 -0.000676317 0.0388406 -0.00691174 0.0793278 -0.00611904 0.0938126 0.0415028 -0.0335714 0.104055 -0.0621513 0.0603598 0.103954 0.00196113 -0.0617309 0.0272488 -0.0125217 0.100746 0.020734 0.0973229 0.0895456 0.0696191 0.00542921 0.0362159 0.0746873 -0.0607595 0.0888639 0.0689303 0.0632245 0.00182633 0.0634228 0.0847195 0.0841725 0.00781601 0.033798 -0.0437513 0.0493392 0.0246669 0.0118966 0.0924679 -0.0151275 -0.0430823 -0.0378016 0.0706509 -0.0509934 0.0982649 -0.0291563 0.0529806 -0.0303814 -0.0597127 0.0703069 0.0370287 0.0509505 0.0819757 0.0620358 -0.011195 0.0272038 0.0148851 0.0458971 -0.0103276 0.0970483 -0.0641529 0.0981716 0.0552234 0.0606827 -0.051333 0.0649883 0.077366 0.0453412 0.0804338 -0.0497738 0.0666363 -0.0106875 -1.94227e-05 0.0130344 -0.0303633 -0.0625495 -0.0610012 0.0265414 -0.115945 -0.090893 -0.022366 0.0677704 -0.0379291 0.0724465 -0.0358235 0.0209166 0.0148647 0.0672375 -0.0633642 0.044239 -0.0565312 0.0110481 -0.0551657 -0.0294098 -0.048985 -0.0237589 0.101569 -0.024573 -0.00274567 0.0384785 -0.0457569 0.00384064 -0.0789284 -0.0887999 -0.159147 -0.0984314 -0.115825 -0.131975 -0.0680144 -0.0765502 -0.0314661 -0.013919 0.0240662 0.0445502 0.0801059 0.0536574 0.0621839 0.0647393 -0.025931 0.0967306 0.0783453 -0.00979785 0.0573823 -0.0628054 -0.0319684 0.128402 0.0711105 0.0878696 -0.110094 -0.153059 -0.0782107 -0.0190966 0.0118617 0.0153797 -0.103987 -0.0233161 -0.0839331 -0.0667116 -0.0503523 0.155405 0.200497 0.0365509 0.0938802 -0.012498 0.0810701 0.0772826 0.00992472 0.0618494 -0.0491721 0.0174616 -0.103521 -0.0372117 -0.0766914 0.0297675 0.019321 -0.0366222 -0.0894417 -0.0781075 -0.100636 -0.0588119 -0.0706299 -0.0632336 0.0055999 -0.0745692 -0.0508885 0.0483093 -0.0306978 0.127831 0.0726459 0.0680834 0.0877956 0.0232679 0.0862651 0.00341893 0.0499881 -0.0493698 -0.0733288 -0.0727529 -0.080077 -0.0455343 -0.0868777 -0.0764303 -0.140071 -0.163954 -0.0150349 -0.148631 -0.130449 -0.0660313 -0.037685 -0.122851 0.0280374 0.0367035 0.0150546 -0.151024 0.00190553 -0.0252362 0.075621 0.134693 0.0234467 0.0387764 0.0387162 0.0886068 0.0536384 0.0835799 0.0310177 -0.0567272 -0.108836 -0.190862 -0.104621 -0.13063 -0.107854 -0.144622 -0.0135582 -0.130147 -0.136487 -0.0359762 -0.00673875 -0.143119 0.016533 -0.155743 0.0215208 0.0280493 -0.018317 -0.0931542 0.0217766 0.186667 0.0964671 0.0688291 -0.0650003 -0.0246808 0.00856016 -0.0572483 -0.0542857 -0.129434 -0.20312 -0.0926208 -0.074177 0.0227924 -0.0817331 -0.0114094 0.0141227 -0.0215142 0.00272396 -0.0373717 -0.117702 -0.114445 -0.116986 -0.0565134 -0.0155946 -0.0811428 -0.141938 -0.0742863 -0.0323079 0.0391053 0.0417593 -0.0235488 0.0168613 -0.0160322 0.0651434 0.0204679 -0.069402 -0.0434215 -0.0448754 -0.15032 -0.0134302 -0.0137019 0.158666 0.130739 0.106363 0.16179 -0.102122 -0.198295 -0.0365857 -0.0691988 -0.169924 -0.188597 -0.224852 -0.132962 -0.25685 -0.20466 -0.14468 -0.0576736 -0.0010605 0.0331177 -0.0326437 -0.00921873 0.0214676 -0.0600982 -0.0593896 -0.0641796 -0.0213799 -0.0416093 0.00685703 0.0744418 0.124928 0.0598612 0.0250222 0.0537323 -0.214817 -0.38371 -0.188708 -0.226913 -0.358069 -0.310304 -0.390886 -0.35393 -0.301226 -0.278354 -0.0933345 -0.074303 0.0591933 0.0373415 -0.0612969 -0.0401124 -0.0582264 0.0292872 -0.000125455 0.0185399 -0.0179088 -0.125875 -0.0634654 -0.000673159 -0.0242378 0.14716 0.284385 0.159924 -0.0179363 -0.114077 -0.059614 -0.0973742 -0.182478 -0.237269 -0.17149 -0.282127 -0.1457 -0.0985306 -0.187889 0.0373449 0.0521535 0.00120491 0.086559 0.0032344 0.0256414 0.0563176 0.0527329 0.0329629 0.0315344 0.0344742 -0.0639441 0.0669261 0.0502053 0.173287 0.331745 0.213457 0.100558 0.0226217 -0.0391117 -0.0680201 0.11347 0.085183 0.0301009 -0.124679 -0.0833569 0.0362207 0.00293979 0.0211209 -0.00586028 0.0169045 -0.00970495 0.0752477 0.0202956 0.0346938 -0.0491216 0.0169647 0.0516358 0.0236414 0.12353 0.0810548 0.039248 0.191923 0.145627 0.222118 -0.022754 -0.00131407 0.0257069 0.154108 0.231591 0.137848 0.0548257 0.0475369 0.0173134 0.139445 -0.0373475 0.00622576 0.00122933 -0.00992274 -0.0597699 0.0787022 -0.0440245 0.0818945 0.0738665 -0.0763089 -0.0217797 0.0618186 0.046356 0.067367 0.065102 0.117698 0.0485897 0.14726 -0.101708 -0.0381337 0.0790897 0.243399 0.167067 0.087595 0.0303189 0.0446247 0.0462756 -0.0231165 0.0297041 -0.0239589 0.10331 0.0842205 0.00367698 -0.0623 -0.0206547 -0.0322221 -0.0359781 0.00429787 -0.00720393 0.119598 0.0375028 0.00872914 0.0411014 0.078163 0.136605 0.129337 0.060218 0.0607645 0.243827 0.228622 0.0389828 0.14933 -0.00713337 0.137683 0.110431 0.0282054 -0.0221235 0.0511367 0.0467431 0.103619 0.0503845 -0.0482366 -0.0030667 -0.00847848 0.0324361 -0.0128553 -0.00891018 0.121833 0.111484 0.082217 0.085745 0.0717754 0.188615 0.034356 -0.00297736 0.0390602 0.17617 0.152334 0.0666523 0.0225327 -0.00709175 0.106828 0.169192 0.0255017 0.123186 0.104325 0.0287777 0.0299339 0.0335433 -0.0213772 0.00309976 -0.0269462 -0.0625773 -0.0164993 -0.0259445 0.0201351 0.0641866 0.0208044 -0.0346297 0.131011 0.0990348 0.0950452 0.0285672 0.10698 0.198205 0.1552 0.0895658 0.117375 0.134514 0.109655 0.0551773 0.0661428 0.222034 0.19521 0.147381 -0.0489712 0.0923743 -0.0607691 -0.043557 0.0694698 0.0445684 0.0464999 -0.0150099 -0.030074 0.0640926 0.107321 0.0643276 0.0468157 0.0706807 -0.0410249 0.0739503 0.235832 0.275604 0.137523 0.0372916 0.109898 0.168471 0.121904 0.21944 0.12783 0.0965281 0.0790658 0.124567 -0.0517353 -0.0402995 0.06092 0.0522634 -0.0242487 -0.100679 -0.0421289 0.0235131 -0.0323133 -0.077785 -0.0335336 0.0009315 -0.051311 -0.037872 -0.0129359 -0.0818291 0.105463 0.0622131 0.250273 0.12819 0.211636 0.266459 0.126256 0.0484844 0.0265752 0.117168 0.145721 -0.01314 0.0797569 0.0741679 0.04164 -0.05579 -0.0372895 -0.0231758 0.0598343 0.0514968 -0.0605242 -0.0364699 0.112064 -0.0110668 0.00551021 0.0262109 -0.112359 -0.0513146 -0.105625 -0.118033 -0.109044 0.0141535 0.118861 -0.000479717 -0.0686678 0.0538068 0.0892563 0.152939 0.0205078 0.103905 0.0279867 0.0511663 -0.0379891 0.0514751 0.03638 0.0992036 0.0443156 0.0544558 0.0138754 0.0437369 0.0755836 0.131833 0.0437909 0.0836553 0.0196107 -0.156337 -0.321018 -0.272303 -0.215658 -0.187349 -0.144679 -0.0836821 -0.111034 0.013935 -0.0176845 0.00361124 -0.0127861 -0.0425047 0.0300611 -0.0340857 -0.0322942 0.0591492 -0.0177426 0.0783199 0.0598793 0.104044 -0.00210046 0.00896712 0.0214352 0.0738737 -0.0311043 -0.0355301 -0.108725 -0.170881 -0.0686071 -0.292435 -0.258667 -0.227836 -0.286258 -0.194821 -0.0710771 -0.0488759 0.0299091 -0.0472191 0.0271658 0.031751 0.0755346 0.0859533 -0.0536725 -0.0486228 0.072089 0.0691637 -0.0271159 0.0437848 -0.0705874 -0.025018 -0.0431124 -0.0220586 -0.0649705 -0.0291274 -0.0576104 -0.0333119 -0.0594656 0.0221929 -0.00526215 -0.110557 -0.040644 -0.0286327 -0.0751101 0.00458963 -0.0480884 -0.0273804 -0.0603602 0.0829921 -0.00717316 0.104205 -0.0339417 0.0889005 -0.0138926 -0.0485805 0.0583678 -0.0630677 -0.103129 0.00670081 -0.108437 -0.0825995 -0.0115406 -0.0487965 -0.105538 -0.0974385 -0.0549124 0.0011992 -0.0798794 0.00127228 -0.163176 -0.0321501 0.0202274 -0.000230525 -0.0131785 -0.0203329 0.00756092 -0.0381244 -0.0601635 -0.0238268 0.0614605 -0.0108592 -0.0432553 0.0796495 -0.0475915 0.0410562 -0.077686 0.0546448 -0.0794979 -0.0291639 -0.0827028 -0.112806 -0.0495903 -0.0336428 -0.0611444 -0.0994135 -0.00309515 -0.0907869 -0.0982702 -0.116092 0.00591801 0.017245 -0.0509661 -0.0457564 0.0156863 0.00398858 -0.0125046 -0.0587809 -0.00620764 0.0651868 0.0888701 -0.0425476 0.0224554 -0.0525471 -0.00730617 -0.0361629 0.0553088 -0.0332912 0.00387335 0.00136516 -0.0537382 0.0541624 -0.00364003 -0.0433433 -0.067428 0.00389866 -0.0313542 -0.0183914 -0.0104623 -0.0311455 -0.00307 -0.0457912 -0.0209694 -0.0148802 0.0855186 -0.0565058
-0.033372 -0.060011 0.029174 0.0487749 0.0708383 -0.0514108 -0.0461019 0.0582161 0.0784739 0.0145043 -0.0651969 0.0190786 0.0172117 -0.0769897 -0.060842 -0.0419069 0.083973 -0.00777481 0.0669473 0.0866965 0.0529606 0.0638511 -0.0573487 -0.0303842 -0.028369 0.0878174 0.0340317 0.0400036 -0.0333376 -0.0164683 0.0366038 -0.0622864 0.0514543 0.0525301 -0.0673587 -0.0685466 -0.0635968 0.0281766 0.0115225 0.076893 0.0397193 -0.0367432 -0.0809987 0.0611204 0.045229 -0.039461 -0.0727499 0.0360922 0.0405217 0.0510258 -0.0687954 -0.0216655 0.0264379 -0.0154203 0.0785192 -0.0688924 -0.0685122 -0.032905 0.0547968 -0.0564633 -0.0685768 -0.0422587 0.0576981 0.0651892 -0.0224651 -0.0530266 0.0687586 0.0315693 0.00856457 0.0629328 0.0328764 0.0479973 0.0280081 -0.00180063 -0.0163583 -0.0374021 0.0537991 -0.0374603 -0.0117628 -0.0641928 0.0509336 -0.0764491 -0.0667609 -0.0219469 -0.0464334 -0.0643383 -0.0247579 -0.00787835 0.0829532 0.0268367 -0.0639399 -0.0532571 -0.0708837 0.0486093 -0.0638922 0.0284258 0.160444 0.085181 0.163984 0.0346644 0.0720419 -0.00686402 0.00366221 -0.126715 -0.00790443 -0.0797343 -0.115435 -0.0390012 0.0485527 -0.0516753 -0.0133416 -0.0718557 -0.00196221 0.0803637 -0.00704048 0.0715852 -0.0367036 -0.0415645 0.100453 0.0597368 0.0404707 0.0911977 0.159915 0.229372 0.318292 0.224768 0.222185 0.172263 0.00716675 0.0165442 0.0582145 -0.0777789 -0.0655673 -0.00535858 -0.161992 -0.0884837 -0.0893504 -0.00472543 -0.035178 0.0377601 0.00966972 -0.0410323 0.0169199 0.0630563 -0.0529918 0.118284 0.0393284 0.103827 0.018111 0.085725 0.01092 0.092778 0.0706314 0.211543 0.160741 0.208266 0.141714 -0.0137706 0.0259576 -0.0271811 -0.113659 0.0165882 -0.121511 -0.159546 -0.0860677 -0.0354856 0.0219874 0.0203059 0.0675162 0.0502826 0.0673846 0.0587176 0.0773936 0.0367904 0.137092 0.0845701 0.0873923 -0.00115147 0.0836822 -0.0545875 0.00462931 0.17236 0.101775 0.140802 0.190201 0.00655415 0.0691314 0.0139245 0.069206 0.0711417 -0.074048 -0.151376 -0.162452 -0.120938 0.0192728 0.0148941 0.0448686 -0.0211117 0.0362974 -0.0307722 0.080424 0.108062 0.029916 0.0229822 0.0380038 0.0809243 -0.00925718 0.00717754 0.0968874 0.103429 0.103213 0.100328 0.00222045 0.0816305 0.00426081 0.0787736 0.18141 0.152409 0.0789148 -0.10715 -0.314744 -0.18676 0.0183736 -0.0805696 0.00223855 0.0537774 0.0795569 -0.00336843 0.122631 0.154684 0.0144989 0.0560173 0.136729 0.0574817 0.128831 0.120961 0.0895655 0.260957 0.33682 0.204184 0.036339 0.148192 0.0547521 0.160183 0.106526 -0.0392793 0.122338 -0.204497 -0.36903 -0.116218 -0.104151 -0.0293565 0.00750387 0.023329 0.103125 -0.00758365 0.109552 0.135221 0.0262792 0.014636 -0.0547133 -0.046866 -0.109025 -0.0693392 -0.00287388 0.228508 0.431893 0.416523 0.185736 0.22915 0.0930938 0.0069266 0.078185 -0.0342277 0.0622353 -0.201072 -0.190306 -0.21223 -0.032394 -0.0651725 -0.0681091 0.0134472 0.0134728 0.0286467 -0.00607431 -0.11776 -0.0557194 -0.0840755 -0.194016 -0.144088 -0.170571 -0.297742 -0.275375 -0.00263858 0.323126 0.296191 0.265025 0.131665 0.0925929 -0.011468 0.0331879 0.00824479 -0.04259 0.0141859 -0.064134 -0.0907116 -0.0865332 0.0178727 0.0258136 0.0100169 0.0187525 0.0925836 -0.122936 -0.152417 -0.23034 -0.369154 -0.25578 -0.208642 -0.345986 -0.379897 -0.458788 -0.373023 -0.0590909 0.0616204 0.0545242 0.0114062 -0.00808268 0.0990617 0.110892 0.0868706 0.11695 0.0857575 0.00756316 -0.00780687 0.00897827 0.0500846 0.0211836 0.0673934 0.0115329 -0.0751212 -0.178198 -0.231097 -0.511214 -0.38107 -0.260008 -0.356447 -0.253842 -0.266833 -0.266752 -0.380977 -0.122339 -0.123335 -0.0131926 0.0358904 -0.0588995 -0.109577 -0.00310579 -0.158824 -0.0193139 -0.000897143 0.00377326 -0.0440715 0.0325291 0.0839858 0.0248513 0.0572992 -0.0518798 0.0381538 -0.205805 -0.347346 -0.29644 -0.212512 -0.212328 -0.0964395 -0.0959271 0.0110121 -0.13097 -0.176018 -0.151103 -0.0994043 0.00689264 0.0839846 0.0291301 -0.0317338 -0.0372177 -0.00473577 -0.0949034 0.0615877 0.126224 -0.0172492 0.0853272 0.065822 0.0628032 -0.0100655 -0.0102528 0.0276181 -0.124086 -0.156301 -0.197613 -0.0949599 0.0362064 0.0193974 0.0703513 0.108858 -0.086859 -0.104497 -0.179031 -0.065057 -0.0190795 0.0478002 0.00901244 0.0279005 0.0196017 0.0857861 -0.00927064 -0.0553219 0.0244192 0.0170063 0.0452637 0.00328635 -0.0285175 -0.044646 0.00521448 0.0107483 -0.0384919 0.0635113 -0.0031445 -0.0441795 -0.0202204 0.0184412 -0.0241343 -0.0431067 -0.0970297 -0.0943284 -0.148334 -0.0380989 0.0532486 -0.0673208 0.00675746 -0.0794875 0.0587563 0.0538124 0.023206 0.103478 -0.00849365 0.171224 0.0385266 0.0363703 0.0805471 0.048394 0.0244617 0.00458376 0.16707 0.153476 0.0693606 0.140964 -0.0585278 0.101112 0.0483025 -0.0453823 -0.0855258 -0.0823261 -0.0848083 -0.0012116 -0.057217 -0.0273095 -0.0387172 -0.0203514 0.0644165 0.039497 0.130417 0.0801228 0.0993729 0.157773 0.0843937 -0.0460935 -0.0192921 0.0523592 0.0115043 0.144311 0.207239 0.0822781 0.0966561 0.0895573 0.0439955 0.0391356 -0.0548607 -0.0717878 -0.0500089 -0.108921 -0.129822 -0.0461138 -0.0335399 -0.0625054 0.04726 0.0182092 0.0382098 -0.00551864 0.111436 0.0125127 0.0386117 0.175292 -0.0197501 0.0934101 -0.0255537 -0.0333006 0.0860041 0.00690843 0.22741 0.156374 0.0345491 -0.0817094 -0.125932 -0.00541439 -0.0304667 -0.0856018 -0.167514 -0.0681117 0.0129636 -0.0356714 -0.0362036 -0.00095527 0.0584397 0.0525866 0.00337549 0.0298948 0.0879752 0.182261 0.124537 0.0300502 0.106394 0.00297158 -0.0704149 -0.041306 0.0577987 -0.00484098 0.0924496 0.05757 -0.00693338 -0.00800583 -0.00620924 -0.0117444 0.0321595 -0.00748979 -0.00765214 0.0758464 0.035866 0.0129842 -0.0147824 0.0758552 0.00887038 0.0892086 -0.0684276 0.0338942 0.0218038 0.158885 0.00150845 0.129009 0.00053102 -0.0278778 0.0579899 -0.0556217 0.0578523 0.078279 0.134979 0.186271 0.0146598 0.167984 0.0722335 0.0322192 0.0720218 -0.00728647 0.166076 0.0790361 0.0858887 0.0916203 -0.0579182 -0.0341308 -0.00686234 -0.0192333 -0.091511 -0.0570715 -0.0226262 0.0876226 0.00638087 0.112405 0.00519492 0.00637984 -0.065035 0.00683929 -0.0608984 0.0297604 0.0865539 0.147306 0.161259 0.121026 0.0751049 0.00130456 -0.0252314 0.00923163 -0.0480602 0.0533742 -0.0851785 0.0516466 -0.0812688 -0.00584722 -0.0481319 -0.0457144 -0.128698 -0.0314108 -0.0537043 0.0519806 0.000441824 -0.0552194 0.0663785 0.086938 0.0722422 -0.0159004 -0.015663 0.00972062 -0.0271996 0.111164 0.161672 0.030998 -0.0164725 0.0332521 0.0242018 0.000702488 0.0605335 0.0503193 -0.0373603 0.135673 -0.0215581 -0.0636206 -0.0622356 -0.00203516 -0.102126 -0.0726911 0.0296142 -0.0806542 -0.047975 -0.0211179 -0.0553974 0.0333963 0.0880665 -0.0448662 -0.0603287 -0.0658074 -0.0381791 0.0103328 0.141877 0.132441 -0.0610472 -0.0175664 0.0518508 0.131019 0.0473054 0.0142553 0.111605 0.0107882 0.0279577 -0.0688055 -0.0284522 -0.0358162 -0.143597 -0.164475 -0.0790121 -0.0734973 0.0595113 0.039446 0.0432828 -0.0727512 -0.0262851 -0.00791541 -0.0249875 -0.0756351 0.0701666 0.0988204 0.0847026 0.100539 -0.0289985 -0.0374348 0.000892662 0.00168819 0.0160428 -0.0346835 -0.0121553 -0.0312207 0.0327365 -0.028948 -0.124134 -0.124764 -0.226761 -0.184699 -0.0510834 -0.114194 0.0025403 -0.0139695 0.0136389 -0.00745501 0.0240721 0.00175504 -0.0161469 0.0873964 -0.0483618 0.0251357 0.0188406 0.0889345 0.0597918 0.175301 0.0174455 -0.00525025 0.0894209 0.0289029 0.0676596 0.00270899 0.0449665 -0.0311297 -0.0345481 -0.0775686 -0.135084 -0.160395 -0.0822263 -0.0815418 0.0525875 -0.0260134 -0.0461178 -0.00198861 0.0765888 -0.00193981 -0.0363587 -0.044122 -0.0726278 -0.0225238 0.0259786 0.0435463 -0.0415341 0.0790344 0.0143993 0.0592111 -0.0664023 0.0230433 0.0760087 0.0971679 0.0593351 0.0372379 0.0764613 0.0800562 0.0223318 -0.0622118 0.00479209 -0.0600303 0.0355636 0.0236567 0.0206065 0.0567126 0.0834181 -0.0595589 -0.00607601 -0.0312572 -0.0482215 0.0376682 -0.041982 -0.0674618 -0.0522204 -0.0403761 -0.0505836 -0.0407705 -0.034798 0.0488222 -0.0524945 0.0423501 0.0592969 -0.0103836 0.0307409 0.0695523 0.0535911 0.0332721 0.0617952 0.083986 -0.0278093 -0.0533149 0.0602762 0.0107659
-0.0382283 0.0162614 0.00231972 -0.0434947 0.0460033 -0.0094948 0.0994039 0.106881 0.0196465 -0.0429708 0.101734 -0.000884246 0.0638837 0.0873832 0.0730153 0.07087 0.0660321 0.010659 0.104877 -0.0249675 0.029602 -0.0369905 0.0339971 0.00835759 -0.0429325 0.10414 -0.0532939 -0.0470431 0.0782417 -0.0269479 0.0582168 0.082785 -0.0170795 -0.050327 0.0550018 -0.045267 0.109449 0.105442 0.0920026 0.102044 -0.0127629 0.0111381 0.0283706 0.0141852 0.0533221 0.0140041 0.05953 -0.0289769 0.0315167 -0.0086366 0.0490496 0.110673 0.0694185 0.0313704 0.0772575 0.0839694 0.00657426 -0.0498546 0.0877538 0.0815614 -0.0551343 -0.0190073 0.105153 0.00600256 0.0448688 -0.0492048 0.0167748 0.0394173 0.0288941 0.0671365 0.0954239 0.146989 0.0185644 0.0309498 -0.033075 -0.0185661 0.111428 0.087014 0.0404642 -0.0504592 -0.0482432 0.0855332 0.0480397 0.103254 -0.0372165 -0.0330946 -0.0240543 0.101962 0.059399 -0.0343657 0.0302656 0.0958695 -0.0117556 0.0532706 -0.0504289 0.0590013 -0.0145087 0.0232057 0.0103323 0.0276785 0.102921 -0.0557024 0.0675317 -0.040569 -0.0280438 0.0856209 0.0557827 0.0733023 -0.0256742 0.0277302 0.0336593 0.0459844 -0.0361563 0.0953507 0.0214699 -0.0554978 0.0316389 0.0836164 0.020036 0.0724277 -0.0110532 0.0766654 -0.08394 -0.0962907 -0.0897549 -0.0701767 -0.099467 -0.177578 -0.128939 -0.0306655 -0.0345764 0.0803148 -0.00708048 0.134653 -0.0241548 0.0348162 -0.038253 0.0235701 0.0694709 0.10837 0.0536518 -0.0273757 0.107325 0.0119489 0.115042 -0.0177303 -0.00845131 -0.064606 0.0510184 -0.0640592 -0.13713 0.00972988 -0.0541896 -0.0134958 0.00752721 -0.0267006 -0.127062 -0.152208 -0.137731 -0.0465108 0.0172223 0.0756032 0.0424654 0.0142109 0.0333651 0.0588267 0.0314268 0.105781 0.104798 -0.023524 -0.0328777 0.0674413 0.0728849 0.00462467 -0.0477903 0.00551833 0.0248931 -0.10962 0.0446816 0.155337 0.01692 -0.0564599 0.0254799 -0.069564 -0.0447355 -0.0606965 -0.12599 -0.0768517 -0.0868577 -0.0328818 -0.0844454 -0.0150712 -0.0329113 -0.0400337 0.0564612 0.0470793 0.0895477 0.0941063 0.107593 0.109847 0.07066 0.0283088 0.0106515 -0.0232587 -0.0640737 -0.0358504 0.100941 0.0641566 0.0841998 -0.00103178 -0.0983068 -0.0537904 -0.120769 -0.0255458 -0.0452208 -0.00615958 0.0327433 -0.0419223 -0.0359648 -0.0187678 -0.118626 -0.0457047 0.00443487 0.0235433 0.0361307 0.111503 -0.0201678 0.0493154 -0.0135478 -0.0383089 -0.0687533 -0.0232143 -0.0138346 -0.0843694 0.0639255 -0.0312663 -0.0462262 -0.0639794 -0.0320411 -0.0111533 -0.0860895 -0.0152755 0.0310481 -0.0508006 -0.00429382 -0.0455551 -0.143251 -0.0835239 -0.205355 -0.0379714 -0.0485673 -0.0199164 0.0461872 0.0740529 -0.0230811 0.0574512 0.0709852 -0.0602571 0.0304398 0.0254402 -0.0611901 -0.0304923 -0.0606657 -0.048827 0.00204304 -0.0585721 -0.0127723 0.0150798 0.0814559 0.0375027 5.1118e-05 -0.0173706 -0.0324662 -0.146693 -0.179635 -0.149915 -0.169853 -0.0726044 0.0169155 0.0930837 0.07195 0.0414932 0.0635567 0.07741 -0.0565685 0.0168422 -0.0348212 0.122014 -0.00259263 0.0896613 0.135999 0.0342337 -0.013301 0.0182407 -0.0214195 0.00590201 -0.00768548 -0.0441345 -0.0146208 -0.0589226 -0.101785 -0.150137 -0.193981 -0.254319 -0.265098 -0.0650166 -0.0802474 -0.0434118 0.0188382 -0.0448797 0.103366 -0.0178044 0.0446603 0.0519196 0.0405692 0.190997 0.152951 0.0985753 0.0648464 0.0508862 -0.143886 -0.114454 0.0102654 0.0432535 0.0604872 0.0466296 0.116849 0.0299229 0.121085 0.116642 0.0394027 -0.16077 -0.153136 -0.114994 0.0342769 0.0843442 -0.0113138 -0.0318995 -0.0488857 0.0570059 0.0215838 0.104052 0.0692558 0.214735 0.108338 0.153605 -0.0351901 -0.0182929 -0.115421 -0.138705 0.0845848 0.133745 0.0415681 0.0852001 0.126902 0.155546 0.228439 0.263165 0.119212 0.115881 -0.0211245 -0.0756239 0.0222922 -0.0120408 -0.00248424 -0.0130921 -0.0439357 1.31962e-06 0.075999 0.167706 0.0525616 0.0730251 0.0368295 -0.03872 0.0472759 -0.153447 -0.152949 -0.11588 0.057064 0.0691123 0.144727 0.129665 0.17548 0.292834 0.211156 0.143039 0.13268 -0.0220967 -0.0029736 -0.0787444 -0.0236444 -0.000403301 0.0137377 0.0348208 -0.00939929 0.0475591 0.000589695 0.0293956 -0.0307173 -0.0622342 -0.0338144 -0.0222313 -0.169851 -0.170071 -0.0978351 0.0237128 0.0848048 0.114731 0.12127 0.202813 0.14857 0.279909 0.10491 0.100411 0.053202 0.00108683 -0.0990605 -0.05112 -0.0152615 0.101031 -0.0389152 -0.0504455 0.032199 0.0116309 0.039119 0.0123551 0.033548 0.00772479 -0.0803805 -0.274468 -0.238291 -0.0634817 0.0321478 0.122379 0.186784 0.15346 0.127157 0.198691 0.169474 0.0382676 -0.0245669 -0.0904725 -0.151983 -0.057023 -0.0290749 -0.0606674 0.0898542 0.0733938 0.0737494 0.0292789 0.0955593 0.0549496 -0.0826112 -0.110389 -0.0262793 -0.0221227 -0.237151 -0.339943 -0.147847 -0.0389649 -0.0377967 -0.0150412 0.209474 0.0984768 0.0374498 -0.0477134 -0.0502862 -0.00728157 -0.0567566 -0.172944 -0.177438 -0.197507 -0.155164 -0.0735323 0.0856351 0.083558 0.108307 0.0274731 -0.0599283 -0.0603053 -0.0808201 -0.152166 -0.208468 -0.211629 -0.259143 -0.157622 -0.0627406 0.191245 0.153821 0.0973227 0.169631 0.0649623 0.0131401 -0.0783851 -0.0678068 -0.132086 -0.1953 -0.199029 -0.260614 -0.110769 -0.056202 -0.0950108 0.0735888 0.107291 0.0716808 -0.0565773 -0.0542819 -0.0929652 -0.20472 -0.208517 -0.418012 -0.434928 -0.291012 -0.132681 0.0644728 0.268157 0.190258 0.104218 0.0960513 0.0938913 -0.112704 -0.124717 -0.15326 -0.13784 -0.0940187 -0.18212 -0.269383 -0.123376 -0.0296457 0.00732103 -0.0311595 0.0253573 0.0265566 0.0417603 -0.0626129 -0.0317127 -0.212633 -0.160219 -0.311106 -0.397134 -0.248366 -0.0829753 -0.0649979 0.087214 0.143137 0.138115 0.102131 -0.0424909 -0.0108059 -0.0437731 -0.0541804 0.0104001 -0.0797926 -0.221578 -0.272492 -0.228322 -0.0709838 -0.061383 0.045156 0.027774 -0.0135128 0.0550632 -0.0268006 0.00311314 -0.102465 -0.151473 -0.294813 -0.192189 -0.196214 -0.128284 0.014918 -0.0233673 0.0520585 0.100649 0.0683563 0.0655312 -0.0183782 0.00334309 -0.0600984 -0.117568 -0.0718316 -0.0909047 -0.126675 -0.141165 0.00392286 0.0308081 0.0302606 0.0922561 -0.0102157 0.11151 -0.0343948 -0.00473091 -0.1246 -0.081884 -0.0467254 -0.147154 -0.0948687 -0.00846588 0.0764772 -0.0175535 -0.0233707 0.00646445 0.107213 0.00227704 0.0198123 0.0055662 0.0403166 -0.0324694 -0.0213534 -0.195037 -0.0994658 -0.0729604 0.0729733 0.0500825 0.0204749 -0.0527931 0.0453287 -0.057088 -0.0507911 -0.0365038 0.0228777 0.000829708 0.0114355 -0.0307692 0.00261832 -0.0369483 -0.0605337 -0.0825275 -0.0342711 -0.0995599 0.0874639 0.0250991 0.054617 0.0250713 0.0898866 -0.0705892 -0.157553 -0.0529499 -0.0656332 0.0886257 -0.00312554 0.0673537 0.0475362 0.00953171 0.0838926 -0.0346925 0.0723771 0.0865246 -0.0761828 0.0365874 0.0575763 0.00441105 -0.13021 -0.0648728 -0.0112766 -0.156568 0.049577 -0.00806965 -0.00483207 -0.0350525 -0.0136026 0.0692806 -0.0181854 -0.0704656 0.0174518 0.0952674 0.0689806 0.0424526 -0.0433232 0.0572006 0.099123 0.0588394 0.0525371 0.0405256 0.0301394 -0.0376013 0.083797 -0.0138448 -0.00301315 0.0511629 -0.122288 -0.0295221 -0.172614 -0.0321169 -8.12504e-05 -0.0659088 -0.00272305 -0.0608391 0.0593327 -0.0252436 -0.0533537 0.101044 0.0456798 0.0593445 0.036486 0.12385 0.00877327 0.0883151 -0.0313113 0.0585966 -0.0266508 0.0984798 0.109911 -0.0589107 0.073258 0.110223 0.0730324 -0.0207528 0.0504777 -0.0504611 -0.0304694 -0.14493 -0.151856 0.0302751 -0.0489884 0.0384131 0.0421645 0.121561 -0.0158986 0.160821 0.018795 0.110438 0.059608 0.110829 0.0631764 -0.0196384 -0.049821 0.0201329 -0.007761 -0.0295438 0.00607508 0.00371587 0.00756116 0.0479807 -0.0391411 0.133894 -0.00769888 0.0618606 -0.00994906 0.0908259 0.0771109 0.0236278 0.181354 0.095984 -0.0245283 0.00699062 0.0771387 0.113574 0.0898659 -0.0370107 -0.0390094 -0.00653463 0.0649411 0.0529448 -0.0290872 -0.0032237 0.0632557 0.0890808 0.092373 -0.0314271 0.0505757 -0.0263933 0.0131146 0.087316 0.00662078 0.105498 0.0258787 0.109278 -0.0402398 0.0314174 0.0727184 -0.0471653 0.069429 0.0571789 -0.0214362 0.114359 0.0592802 0.102293 0.0829117 -0.0105351 0.0127603 0.0898553 -0.0508218 0.0369507
0.0825458 -0.0104283 0.084929 -0.0179101 -0.0788928 -0.0130744 -0.0468612 0.0134219 0.0524813 0.0321268 0.0358451 -0.0815448 -0.0258762 -0.0315827 -0.0125371 -0.0391234 -0.00911743 -0.045939 0.0158557 0.0667281 -0.0456211 0.0584691 -0.0310146 -0.0297048 0.0176204 -0.00765433 -0.0753765 -0.00560193 0.0803605 0.025414 0.0337922 0.0217565 -0.00640173 0.0193032 0.0399282 -0.00701836 0.0131075 0.00869921 -0.0366359 -0.00327133 0.0160721 -0.0470091 0.0700066 -0.0100538 0.0440445 0.0671554 0.0237291 0.00986361 0.0650149 0.0772527 -0.0576169 0.0808087 0.0830066 0.0783907 -0.0361907 -0.0154531 0.0765934 0.0644857 -0.0779545 0.0143545 0.00448763 0.0273862 -0.0177244 0.0270645 0.040011 -0.000231354 0.084098 0.0697283 0.078428 -0.0499122 0.0404778 0.0782411 -0.00541396 0.084983 0.0955086 0.0239472 0.0663756 0.0583887 -0.0177318 -0.0405321 0.0324661 0.0367683 0.064508 0.0288116 -0.0565993 0.057993 0.0783653 0.0589998 -0.023464 0.0631013 0.065825 -0.0562402 -0.0381062 0.0319336 -0.069661 0.0440279 0.0708054 0.0516106 0.0271673 0.100609 -0.0299702 0.0278408 0.0646592 0.0845756 0.0942834 -0.0109084 0.0123446 0.0302878 0.100937 -0.0543965 -0.0719176 -0.0595969 0.0450601 0.0468295 0.0844768 -0.0417075 -0.0387333 -0.0635192 -0.00289914 0.035295 0.0410933 0.0458756 -0.00455714 0.0110569 -0.1289 -0.141669 -0.0936204 -0.116373 -0.0487155 -0.0321711 0.0208302 -0.0218869 0.139281 0.0610127 0.088987 0.105114 0.0378166 0.0853556 0.024555 -0.078847 -0.0235085 -0.0118808 0.0373653 -0.0523493 -0.00310226 -0.0785186 0.000312194 0.0271765 0.000974125 -0.0544621 -0.0428108 -0.162499 0.0219568 -0.0451132 -0.0898017 -0.0702156 -0.0441925 0.00127524 -0.127611 0.0517898 0.00240619 0.172971 0.0155201 -0.00179276 -0.00510995 -0.0614564 0.0718096 -0.0402866 -0.0288699 -0.0223928 -0.00931071 0.0224407 0.0201451 0.027024 -0.0430803 0.00785201 0.0131439 -0.0382602 -0.00486656 -0.0262754 0.0337169 -0.162351 -0.0257472 -0.0242286 -0.0934202 -0.0128337 -0.143328 -0.0879176 0.0342774 -0.0424935 -0.0269918 0.0703236 0.0464681 -0.102903 0.0446817 0.0638563 0.0613976 0.0302706 -0.0722019 0.0081592 -0.0056042 0.00310881 0.0338179 0.118112 0.010476 -0.0410975 -0.111716 -0.0277357 -0.0530494 -0.0756374 -0.0156843 0.0236536 0.0604145 0.0591267 -0.119558 -0.102663 -0.111943 0.0572702 0.00791998 0.0156513 -0.0242995 -0.103791 -0.0184647 -0.0816041 0.00786294 0.0886757 0.064077 0.0213242 0.0817066 -0.0334986 -0.0153481 -0.00224305 -0.0750567 -0.0496066 -0.0625659 -0.0522176 0.0486186 0.0566384 0.0902422 0.145357 0.0258648 -0.0628735 -0.00156501 -0.0738722 -0.100329 -0.119086 0.0584651 -0.0617969 -0.168787 -0.14237 -0.0660013 -0.0653041 -0.0282288 -0.0806639 0.0417915 0.0969979 0.0824572 0.0268068 0.0947935 0.0331794 -0.0982713 -0.0356867 0.00200527 0.074277 0.164894 0.00926558 0.0944218 -0.00159163 0.00736296 -0.00643238 -0.0388326 -0.128572 -0.0944314 -0.162588 -0.164433 -0.143948 -0.235701 -0.211853 -0.0867768 -0.0208371 0.0695594 0.0659227 0.0456288 -0.0264224 0.0664111 0.135486 -0.0597543 -0.0918906 -0.0156164 0.0172807 0.185338 0.195165 0.0964427 0.0506678 0.0591962 -0.0425369 0.0480906 0.0183609 -0.021476 -0.0939406 -0.128604 -0.015991 -0.164658 -0.148854 -0.358084 -0.221873 -0.0329914 0.0394685 0.0268517 -0.0560682 -0.0293915 0.00144297 0.0778183 0.0906376 0.0703841 0.120195 0.0801575 0.174234 0.117771 0.0318466 -0.0978848 -0.18056 -0.0706734 0.0581232 -0.0185918 0.0476807 0.0409839 0.0146088 0.101471 0.0685663 0.0769092 -0.047661 -0.146232 -0.0516641 -0.078362 0.0421266 -0.0693463 0.0699986 0.0403751 0.027585 0.134164 0.10973 0.122852 0.070955 -0.042481 0.0593955 -0.0178446 -0.101097 -0.188969 -0.224063 -0.0629214 0.0105393 0.185701 0.142626 0.0955518 0.0530519 0.178172 0.249175 0.242342 0.190496 -0.0265819 0.0650336 -0.0526042 -0.0378082 0.00761703 0.0460106 -0.00124055 -0.0521978 0.0527425 0.0746282 0.0160091 0.000345975 -0.0294337 -0.0430048 -0.141603 -0.148857 -0.186909 -0.125323 -0.00553893 0.183403 0.224608 0.0839272 0.0668035 0.0698039 0.16792 0.151502 0.118657 0.132519 0.0751985 0.0869748 0.00502043 -0.0121525 -0.0354452 0.0749093 -0.0436483 0.08303 0.0159272 0.0910296 0.0273801 -0.04397 -0.0635883 -0.199863 -0.14639 -0.147161 -0.197883 -0.01822 0.105943 0.115476 0.045268 0.0299146 0.0673533 -0.0572781 -0.107453 -0.00776502 0.0325708 -0.0680926 -0.00439743 0.034031 0.0731009 -0.0382657 0.0510219 -0.0107527 -0.0228682 0.000272076 0.02172 0.0444401 0.0746227 0.119946 0.00572012 -0.126469 -0.1051 0.010799 0.0597793 0.0754318 0.123031 0.144806 0.129829 0.22154 0.0945673 -0.00369113 -0.173071 -0.146336 -0.139742 -0.000149516 -0.0851646 0.0190356 -0.0540487 0.0867212 0.0413139 0.0627013 -0.0939554 -0.0348759 -0.0108969 0.0140466 0.00744513 0.171305 0.0690599 0.232125 0.145686 0.23846 0.18933 0.0870621 0.146712 0.277331 0.157857 0.081041 -0.064775 -0.169381 -0.120048 -0.131327 -0.0848095 -0.0835434 -0.0445119 0.0754851 0.0102856 0.0830635 0.0263878 0.0591185 -0.00445011 -0.104134 -0.0169549 -0.0748097 -0.151542 -0.0190238 0.172129 0.326104 0.448127 0.388143 0.492734 0.442195 0.364069 0.154304 0.0086169 -0.139373 -0.103105 -0.130088 -0.0956665 -0.130128 -0.145973 -0.10113 0.0444316 0.0273871 -0.0706867 0.0584509 0.0412937 -0.0827135 0.0210056 -0.11566 -0.127049 -0.242129 -0.214194 -0.084656 -0.03807 0.135266 0.0984666 0.300842 0.22444 0.201249 0.249668 0.156863 -0.0230213 -0.0526463 -0.068559 -0.0182655 -0.0219629 -0.134309 -0.025483 -0.0558009 0.00256913 -0.0115087 0.0719441 0.0514042 0.0646795 -0.0147961 -0.064126 -0.0485273 -0.163393 -0.246806 -0.112237 -0.0762852 -0.218487 -0.144824 -0.165039 -0.10192 -0.142825 -0.0322816 0.0123194 0.0575044 0.0478824 0.0901857 0.00437717 -0.00595751 -0.00466377 -0.0266788 -0.0148197 -0.0842012 0.0183601 0.0528515 0.0146755 0.0304165 -0.0411788 -0.0387641 -0.0949407 -0.0154965 -0.202727 -0.232583 -0.16396 -0.106354 -0.10167 -0.170488 -0.204259 -0.0505172 -0.0236828 -0.0976631 -0.00141872 -0.0288064 0.0649633 0.16667 0.129071 0.0457969 0.0119996 -0.0631226 -0.0918215 0.0464926 0.025765 -0.0628585 -0.0315566 0.0662314 0.0278784 0.00345344 -0.0299023 -0.12574 -0.122669 -0.109438 -0.166254 -0.0743912 -0.087717 -0.00326399 0.0769209 -0.0604376 0.0167936 -0.0751314 -0.00800426 -0.072255 0.0206339 0.0218908 0.112022 0.0372524 -0.0970583 -0.0887582 -4.05124e-05 -0.0424841 -0.0678556 -0.0184025 -0.0119912 0.0488319 -0.0203108 -0.0436151 0.00139815 -0.0518882 -0.0756535 -0.10539 -0.117364 0.0158663 -0.0367943 -0.110381 -0.0685288 -0.164436 -0.0337389 -0.0951475 -0.0268216 0.00124985 -0.0675752 0.0717419 0.061187 0.0556503 -0.0193381 0.018913 -0.0123339 -0.0089887 -0.0551816 0.0562811 0.0250176 -0.0163321 -0.0629936 0.0411073 -0.0846176 0.0304583 -0.11824 -0.0264134 0.0408136 -0.05369 0.00561999 -0.133259 -0.118312 -0.116337 -0.0588843 -0.0303899 -0.0372234 -0.0802009 0.0146848 0.00916835 0.0354523 0.0834622 0.00689627 0.046239 -0.0571495 -0.0828848 -0.00649748 -0.0491774 0.0644502 -0.0212731 -0.0677955 0.075611 -0.0704096 0.0720555 -0.027624 0.0166551 -0.027016 -0.00137623 0.0333174 -0.0998047 -0.116807 -0.064604 -0.0537013 -0.0344969 0.0443679 -0.0278975 -0.0180751 -0.0622519 -0.07765 0.0273796 0.0138743 -0.0297829 -0.0685699 -0.0699853 -0.0496349 -0.0403013 0.0621258 -0.0603121 0.0832946 0.0513377 -0.0216808 0.0522146 -0.0853091 -0.0640133 0.0351932 -0.0485565 -0.0917853 0.0068425 0.0401273 -0.0752961 -0.0565926 -0.0453711 0.0226442 0.0434645 0.100265 -0.0122135 -0.0262529 0.0245878 0.0755577 0.0319812 -0.0772175 0.0059806 -0.0797814 -0.0556118 0.0288162 0.0119573 0.00853061 0.0201697 0.0280568 0.0676671 -0.00267109 -0.0363956 0.0778745 -0.0552166 0.12072 0.127094 0.0182788 0.0897376 0.0291569 0.142667 0.124729 0.126224 0.0474237 0.0858235 0.0123765 0.0191657 0.0670558 -0.0743419 -0.0361959 -0.012841 0.0366935 -0.00392503 -0.0744114 0.0295481 0.0433027 0.0851192 0.0477786 -0.0744154 0.0442697 0.0181546 -0.0575058 0.028923 -0.0204475 0.0502745 -0.00984955 -0.0283297 -0.0157169 -0.0294424 0.0277203 0.017702 0.0359552 -0.0471222 0.0225179 0.021007 -0.0168381 0.0161143 0.0576812 -0.0409784 0.0799854 -0.0703565 0.026651 -0.0353984
-0.0301562 -0.0524652 -0.0257215 0.0522009 -0.0317564 0.0741779 0.0316544 0.0102208 -0.0284858 -0.0219787 -0.0310817 -0.026872 0.0117442 0.0692255 0.0150116 0.0913295 -0.0719608 0.0224663 0.00280712 -0.0609266 -0.0749188 -0.0723169 -0.00733302 0.00680101 -0.0338886 -0.0454923 0.0884448 0.029924 0.0174033 0.0371905 0.0659012 0.0776167 0.022097 -0.0473418 -0.0439255 -0.035488 -0.0319401 0.0694848 0.0176872 0.00487661 -0.0774954 -0.0394672 0.021105 0.0408222 -0.0299059 0.0380773 0.0741927 -0.0737444 -0.026798 0.0532401 -0.0475038 -0.0524644 0.00517507 -0.0444132 -0.0391611 -0.073747 0.0440822 0.0419999 -0.0623782 -0.0335545 -0.0471017 -0.0639059 0.0113629 -0.0577893 0.0149991 0.0201986 -0.00271232 -0.0106969 -0.131602 -0.0981732 -0.00486597 6.65691e-05 0.0305436 -0.0425303 0.0681316 -0.0572972 -0.0685302 -0.0597557 -0.0253761 0.0732986 0.0488482 -0.0150502 0.0862247 -0.0471595 0.0246071 -0.0426 0.0906125 -0.0545386 0.0829681 -0.0568336 -0.0337036 -0.00224589 -0.0348897 -0.00783671 -0.160762 -0.072179 -0.144396 -0.116587 -0.119654 -0.120689 0.0500574 -0.0769593 0.0397648 -0.0036557 -0.0521303 -0.0421437 0.0447539 -0.0701595 -0.0267058 0.0157763 -0.0275782 0.0623873 -0.00578712 0.0139308 -0.0609314 0.0542238 0.0476119 -0.0385453 -0.0166786 0.0104699 -0.137068 -0.0487521 -0.122287 -0.0588485 -0.043124 -0.0103055 -0.0357108 0.0335745 0.0380552 -0.0310503 -0.00637994 -0.00479929 0.0370427 -0.0242642 -0.0873506 -0.0101269 0.0422678 0.0292401 -0.02737 0.0679343 -0.0363107 -0.0569014 0.0555991 -0.0721465 0.0785934 0.0733965 -0.0137659 0.0135246 0.0913522 -0.0457669 0.05348 0.0471085 0.0179572 0.00854198 -0.0358485 -0.024348 -0.0941236 0.0192548 0.0365455 -0.0597141 0.0215785 -0.00649184 0.028884 -0.00411059 0.114696 0.087128 -0.0564076 0.0179406 0.0927933 -0.0246989 0.00539621 0.0910634 -0.0240708 0.0600005 0.109681 0.148521 0.0996504 0.101362 0.0820987 -0.0140708 -0.101153 -0.0271831 -0.129593 -0.231119 -0.245654 -0.19839 -0.0206705 0.0379899 0.0157465 0.0354334 0.140354 0.17447 0.160783 0.115925 0.026285 0.0900948 0.0933531 -0.06561 -0.0591033 0.0579705 0.093535 0.0850239 0.166507 0.0924821 0.110745 0.0545106 -0.0482015 0.0272605 -0.053648 0.0656121 -0.155155 -0.254196 -0.342201 -0.108979 -0.00424427 -0.0546204 0.0142983 -0.0215655 0.139521 0.239647 0.213508 0.00711049 -0.00637196 0.00511082 0.00432816 0.0580265 -0.0546258 0.0903344 0.076387 0.109131 0.0664577 0.045772 -0.117745 -0.0759263 0.0823504 0.0971375 0.123905 -0.0200176 -0.0785827 -0.32262 -0.224969 -0.115609 0.00592841 0.0531363 0.00489872 0.0931276 0.0934378 0.152649 0.230491 0.108129 0.0348112 -0.0658609 0.015468 0.00777589 0.102135 0.110437 0.145631 0.0200144 -0.128053 -0.0284602 -0.118465 0.0439492 0.00541376 0.0826342 0.121574 0.0904494 -0.268562 -0.273272 -0.0635184 -0.0268605 0.173942 0.197944 0.19576 0.0973667 0.229301 0.0839482 0.115159 0.129731 -0.0496655 0.000269431 0.0275988 0.0318081 -0.00523192 -0.0287262 0.0192424 0.0654053 -0.125142 -0.10033 -0.0187359 0.0131614 0.0353604 0.191287 0.267527 0.145887 -0.28225 -0.0364871 0.00227584 0.0666673 0.187828 0.103087 0.145248 0.0897832 0.0968271 -0.0187008 0.116557 0.124716 0.0646789 -0.0520763 0.0772354 0.0759888 0.0297454 0.0824515 0.06031 -0.111431 -0.133451 -0.0748372 -0.088424 0.0606726 0.215814 0.290717 0.390941 -0.110079 -0.400389 -0.144819 -0.027267 0.0965937 0.0845287 0.0176968 0.00694275 -0.139278 -0.155903 -0.0969324 -0.0570296 0.0730772 0.0798849 0.00242375 0.00905813 -0.0455685 0.0664961 -0.0167235 -0.0891286 -0.135601 -0.103615 0.104884 0.173175 0.0710656 0.252127 0.367965 0.444112 -0.0905682 -0.48405 -0.243936 0.103352 0.0202048 0.0281723 -0.0908741 -0.113568 -0.187872 -0.0789125 -0.24811 0.00108926 -0.0250887 0.0672043 0.028749 -0.0152463 -0.0545638 0.0582377 -0.0384148 -0.0588021 0.0860859 0.182385 0.129222 0.124142 0.161225 0.138531 0.382824 0.127968 -0.291522 -0.347284 -0.145832 -0.0764561 0.0386504 -0.0638837 -0.229274 -0.0698613 -0.0890052 -0.0105819 -0.0775349 -0.0807358 -0.0578867 -0.00950561 -0.0342441 0.0628281 0.0570468 0.0485516 -0.0401025 -0.0148435 0.111816 0.164697 0.164048 0.296436 0.189872 0.184505 0.00406012 -0.0979616 -0.232748 -0.333023 -0.0461792 -0.0197359 0.00223636 -0.0961283 0.132307 0.0259578 0.0558981 -0.0127738 0.0526458 -0.0327899 -0.0328238 0.0232131 0.0298153 -0.0462397 0.0337755 0.104382 0.0189594 0.116218 0.0430741 0.111879 0.0810439 0.12906 0.0739039 0.0222593 -0.0588037 -0.15451 -0.236039 -0.182421 -0.0470365 0.0132087 0.0149427 0.0430385 0.161503 0.061693 0.207478 0.131812 0.16868 0.0888068 -0.041874 -0.052423 0.02246 0.04117 0.0408798 -0.00404705 -0.0369568 0.0254391 0.0245355 0.109263 0.16296 0.0959927 -0.0948018 -0.190285 -0.260769 -0.135584 -0.13969 -0.200363 -0.0796935 -0.0267582 0.075576 0.112974 0.163693 0.127308 0.146771 0.0820033 0.050806 0.103232 0.0393655 0.0343795 0.0509865 -0.0305722 0.0914258 -0.0338078 0.0146757 0.096738 0.0215491 0.131663 0.0128042 -0.126548 -0.0370925 -0.186811 -0.126998 -0.186531 -0.21639 -0.10751 -0.00648763 0.0214496 0.0373842 0.12067 0.0702849 0.0954683 0.177537 0.0389776 -0.0252422 0.0294625 -0.0646313 -0.0458649 -0.0241551 0.0894525 0.0383013 -0.0183811 -0.0227096 -0.0141887 0.044571 0.121961 -0.0171354 -0.11516 -0.218578 -0.239591 -0.105027 -0.119547 -0.0843374 -0.0889489 -0.0608446 0.0271875 0.0186494 0.0127889 -0.0217104 0.118683 -0.0106935 0.0187494 0.0790719 -0.0688032 0.0305878 0.0895877 0.00540639 0.0218272 0.0456631 -0.0186462 0.0301433 0.0991017 0.1695 0.104513 0.0325629 -0.191898 -0.209236 -0.197706 -0.148606 -0.0942216 -0.0250741 0.0446464 -0.0658107 -0.0561641 -0.0956091 -0.0439741 -0.113454 -0.00365943 -0.0608183 -0.097046 -0.0307188 -0.0633016 0.00893444 0.0266489 -0.0619431 -0.0360906 0.0254184 -0.0605703 -0.0195054 -0.00904447 0.122598 -0.0155121 -0.0203499 0.0423049 -0.0509529 -0.123455 0.0183282 0.0218098 -0.0925832 -0.092561 -0.159419 -0.14952 -0.0921702 0.0281973 -0.05627 -0.0898069 -0.0636487 -0.075044 0.0154711 0.0734897 -0.0721595 0.0658628 0.0193071 -0.0552051 0.0497711 0.00715354 0.0776683 0.0605401 -0.0059717 0.0636789 -0.0100561 -0.0255847 -0.0476943 0.0208 0.0488479 -0.0578564 -0.127967 -0.173483 -0.0816569 -0.0754218 -0.135806 -0.0742614 -0.0527925 -0.0546836 -0.0385196 -0.0185224 0.0143261 -0.0645855 -0.00253142 -0.0371665 0.0176691 0.0790343 -0.0248397 0.00759894 0.0345456 -0.0112618 -0.0760178 -0.00338067 -0.0506887 0.0424459 0.0712736 -0.0365492 -0.0164069 0.0449491 0.0294674 0.00115447 -0.0157477 -0.015613 0.0323488 0.111989 0.154841 -5.22181e-05 0.0287281 0.0617556 -0.016565 0.00770776 0.0307198 -0.0554815 -0.0258185 0.0011651 0.0790655 -0.0693661 0.0915791 0.061262 0.0525229 -0.00658687 0.0252507 0.00914292 0.0857945 0.0713003 0.00883228 0.0238636 0.00624472 0.039474 0.0762445 0.126708 0.0448768 0.109576 0.0943708 0.0579699 -0.0793982 0.0245377 -0.0472337 0.0598314 -0.0571074 -0.0109775 -0.0213099 0.0824746 -0.0365182 -0.00237941 0.0552334 0.0122857 -0.0161316 0.0242561 0.00899399 0.0750229 0.014201 -0.0480929 0.0834572 -0.0487065 0.116004 0.0158144 -0.0142025 0.017104 -0.0155593 0.0915829 0.0549894 -0.136424 -0.159245 -0.0253236 0.045026 0.0766113 -0.0235949 -0.0253217 0.00313985 0.00360044 -0.0197015 0.0321565 -0.0191778 0.0522555 0.0645104 0.051554 0.0334476 -0.0452139 -0.0982166 -0.0650421 -0.0488959 -0.0433034 -0.0502305 -0.109395 -0.0475795 -0.009846 0.00993722 -0.104357 -0.0912108 -0.0789036 -0.0109132 -0.0148913 0.0593251 0.0738012 0.0218596 -0.0193353 0.0646741 0.0915723 0.0619963 -0.0244756 0.0448385 -0.0633129 -0.0454934 0.0160299 -0.0682465 -0.0516774 -0.018513 -0.150196 -0.130346 -0.122857 -0.137938 -0.106931 -0.101592 -0.0374739 -0.125244 -0.13992 -0.0976681 -0.00794524 -0.0792124 -0.0223796 -0.0401726 -0.0719198 0.0324001 0.0350404 -0.038069 -0.0541386 -0.0395369 0.0858667 0.0904367 0.0359934 0.0787427 0.00110293 0.0340341 0.0293859 -0.00453757 -0.0510023 0.00436171 0.0906498 0.071915 0.0347054 0.0795892 0.0674746 -0.0504638 0.0674315 0.0482934 0.0538115 0.0674787 -0.0405362 0.0587308 -0.0444912 -0.030944 0.0890577 0.080561
0.00255055 0.016893 0.0596262 -0.0757485 0.0456863 0.0374081 0.0217458 -0.00609792 -0.00597343 0.0337947 0.0406164 0.00692908 -0.0616301 -0.0252906 -0.0486547 -0.0262754 0.0131041 0.040459 0.0910969 -0.0333049 0.0903813 0.0891797 0.0664364 -0.0239913 0.0213519 -0.0291079 0.0747823 0.0348926 -0.0465051 0.0699106 0.0749313 0.0512695 -0.0442165 0.0306534 0.0742866 0.033352 -0.0669806 -0.0703306 0.0576942 0.0733036 -0.0150511 -0.00827082 0.0486292 0.0800122 0.0644817 -0.0586425 -0.0570689 0.0271809 0.00632717 -0.035219 -0.0704894 0.0562406 -0.00420626 0.0371554 0.06514 0.0093075 -0.0379974 0.077185 -0.023721 0.0187631 0.0460765 -0.0482393 0.0322339 0.077853 0.0622439 -0.00869587 0.0925788 0.046171 0.0104459 -0.0538442 0.0561345 0.0257179 -0.0575026 -0.0612703 -0.0110568 0.00123104 -0.0639384 -0.0340198 0.0324619 -0.0193565 0.0338051 0.0883881 -0.00219343 -0.00633322 -0.000573055 0.0445303 0.0267693 0.0889802 -0.0623715 0.0157185 0.0855475 -0.075195 -0.0686753 0.0540105 -0.0122954 0.0862351 0.0699363 0.0854805 0.0602086 0.0561869 -0.0170103 -0.0646998 0.0839517 0.052249 -0.0409974 -0.0449461 0.0169068 -0.0183837 0.0432054 0.0739098 0.0166301 0.0851343 0.0122048 0.0616529 0.0883613 0.00142731 -0.0705633 -0.00236222 0.0633354 0.0618146 0.00169786 0.0430631 -0.0535173 -0.0684373 -0.00533403 0.0841839 -0.0477473 0.0223244 0.0220804 -0.0638174 0.05058 0.0445423 -0.0124751 0.0608957 0.0483974 0.0284762 0.0858359 -0.0246328 -0.029143 0.0724158 0.0702922 0.0684356 -0.019386 -0.0216329 0.0643178 0.0864364 0.0493013 -0.0234135 -0.0352448 0.0108928 -0.0396064 -0.031017 -0.0148386 0.0867674 -0.0358539 0.0142148 0.0348952 -0.066726 -0.00240577 0.0454838 -0.0616471 -0.0133729 0.0258731 -0.0690783 0.00153514 0.0544524 -0.0528784 0.0495746 0.0834668 -0.0123288 0.0567326 0.0513843 -0.0373038 -0.0021086 0.012251 0.0362381 0.000384811 -0.0234056 0.0709139 0.0527732 -0.0233831 0.0897163 -0.0451066 0.0854132 0.0621121 0.0411534 0.0585019 0.0794223 -0.0580258 -0.0469392 0.0321125 0.0651662 0.0755081 0.00609507 -0.0573671 -0.0223888 0.0145286 -0.0336278 0.072805 0.0389141 0.0823541 0.0223112 -0.0135745 -0.0183855 0.0677498 0.0886658 0.0386397 0.0326026 7.37747e-05 -0.0430114 0.0483173 -0.0605391 -0.0319327 -0.035595 -0.0464466 0.0553318 0.0684397 0.00469928 0.0616808 0.0694378 0.0484251 0.022219 0.0273781 0.0257294 -0.0710501 0.0345783 -0.0508773 0.0147424 0.0134721 0.0296679 -0.00585168 0.0689264 -0.00774229 -0.0685134 -0.00279698 0.0250604 0.0214356 0.0457033 0.0725361 0.0197701 -0.0660597 -0.0653196 0.045756 0.0754449 -0.0671943 -0.0677193 0.0634274 -0.0162023 -0.0443204 0.0747603 0.0398937 0.0525887 -0.00230944 -0.0109104 0.066051 0.0510583 0.0226805 -0.0618118 -0.0755352 0.0572918 0.0548059 -0.0219971 -0.0293902 0.0266932 0.0282184 -0.000539018 -0.0507023 -0.036929 -0.0510537 0.0289987 0.0330223 0.0820265 -0.0134263 -0.0593366 0.072793 -0.0351051 -0.0762866 0.0493145 0.0444817 0.02793 -0.0145239 -0.0693512 0.0777095 -0.0525367 -0.0471937 0.017392 -0.038559 -0.024465 0.0203249 -0.0620278 0.0816986 0.013918 -0.052312 -0.0180093 -0.0598909 0.0417331 -0.0361822 0.0404594 -0.075528 -0.0207663 0.0535125 -0.0456567 -0.0245886 0.0530033 0.0672687 0.0509099 0.0803845 -0.0756415 0.0663231 0.0342599 -0.00155591 -0.0149421 -0.00495973 -0.0263551 -0.0291046 0.0639002 -0.00360112 0.0400187 -0.0594528 -0.0171455 0.0230666 -0.0274929 -0.0204306 0.0516245 0.0261772 0.00242482 -0.0178851 -0.0376187 -0.00544658 -0.00451481 -0.0299901 0.00642625 0.0470343 0.075922 -0.0525612 0.0428932 0.0656229 0.0794146 0.0620941 0.0419918 -0.0457951 0.0117999 -0.0605677 -0.0658437 0.0772394 -0.0102402 0.0171968 -0.0531512 -0.0093536 -0.0551167 0.0640097 0.0806532 0.0382299 0.0520932 0.0229021 -0.0559887 -0.0089629 0.0149454 -0.0757794 -0.051352 0.0673564 -0.0296848 -0.00835135 0.0674312 0.0098669 -0.0167111 0.0270815 0.0769726 0.0157747 0.0322026 0.0390231 0.0346532 -0.0443616 0.0161371 -0.0470684 0.081526 -0.00747019 0.0578107 -0.0473119 0.000477482 0.0658046 -0.0435604 0.0206362 0.0765384 0.058193 0.0565619 0.0865959 0.0601219 0.00418246 0.0166051 0.00352404 -0.0402408 0.0109387 0.0139639 0.0158016 -0.0736348 -0.0709357 0.0537087 0.00581686 -0.0617174 -0.0439379 -0.0193981 0.0367454 0.0457854 -0.0574941 -0.0124784 -0.00217296 0.0759987 -0.00844305 0.0413544 0.0810522 0.00969512 0.0837956 0.0297731 -0.0118917 -0.0566262 -0.0443161 -0.0359308 0.0501484 -0.0299915 0.0359256 -0.0588836 0.0542471 -0.0638188 -0.00733388 -0.0419721 0.057312 -0.0695383 -0.0423695 0.0633573 0.017982 -0.0756367 -0.0609568 -0.0744101 -0.0423321 -0.00160159 0.0900394 -0.0611763 0.0816917 -0.039673 -0.00854203 0.0250376 0.0254486 0.0152205 -0.0197202 0.0871071 0.0618146 -0.0765217 0.0848069 0.0482705 0.0540336 -0.0683772 -0.0225342 0.0484381 -0.0136231 0.0585166 0.00385726 0.0361023 0.0359342 0.0132189 0.0768535 0.0226397 0.00687401 -0.0650719 -0.0443068 0.0642054 0.0125895 0.0552328 -0.0478753 -0.0487813 0.0690048 -0.0495051 0.0790642 -0.0667722 0.0250573 -0.0713905 0.0666319 -0.0241175 0.027616 0.020637 0.0226463 -0.00538441 0.0401878 0.0492154 0.00258888 0.0703453 -0.0134417 -0.00965614 -0.0410119 0.0600059 -0.0554761 0.0211348 -0.0393924 0.00279268 -0.0345897 0.0696079 0.0795684 0.0729838 0.0672203 -0.0597651 0.0401646 0.0635432 0.0784872 -0.00360817 -0.00184382 0.0108786 0.0396422 0.0870377 0.0143964 0.0477561 0.033197 0.0223984 -0.0470968 -0.0611053 0.0818199 0.0170372 -0.0794863 0.00764721 -0.00618915 0.0751439 -0.0450961 0.0577561 -0.0523911 -0.0415074 0.00209273 -0.0459016 0.0105558 0.0744713 -0.00404422 -0.0469084 0.0122718 0.0874847 -0.038871 0.0751648 -0.0326723 -0.0328284 -0.0606828 -0.0770832 0.0736046 0.00465031 0.0455206 0.0467698 -0.0602829 -0.0353719 0.0751519 0.0337763 -0.0426031 -0.030252 -0.0343783 -0.0271331 0.0784065 -0.0206028 -0.0354385 0.0652389 -0.0674305 -0.0331702 0.0480676 0.0473781 -0.028621 -0.0749119 0.0687159 -0.072999 0.0320338 0.0521366 0.0127054 -0.0670992 -0.0735844 -0.0152031 0.0682115 -0.0689962 0.0774093 0.0370611 0.0708257 0.0748258 -0.0130592 -0.0732073 -0.0338081 0.0860018 -0.067832 0.0356051 0.0650538 -0.0771344 -0.030125 0.0859795 -0.073982 0.000188819 -0.0125771 0.00189707 0.0128408 0.0691498 -0.0376012 0.0768157 0.00326448 0.0651886 0.0176924 0.0849838 0.0560774 0.0577395 -0.0362424 0.0718442 0.0288955 -0.0170711 -0.0788905 -0.0453092 -0.0754069 -0.0771171 -0.000946862 0.0854918 -0.0721323 0.0497935 -0.00364144 -0.0706722 -0.061923 -0.0158437 0.0115092 -0.0497171 -0.0572081 0.036856 0.0623481 -0.0346773 -0.00727547 0.040877 0.0622945 -0.0205439 -0.0691584 -0.0445107 0.0156969 0.0718291 0.0339973 0.0168503 -0.029032 0.0370113 -0.0554382 0.0206543 -0.0547582 0.0812584 -0.0630211 0.0655884 -0.0629389 0.0827173 0.0260751 0.0874412 0.0013517 0.0274821 0.00157833 -0.030252 0.0707635 0.0834 0.00449021 0.00742618 0.0814893 0.0176468 -0.0631531 -0.016814 -0.0322407 -0.0311625 -0.00279955 -0.0722079 -0.022678 -0.00569592 -0.0483277 -0.00727577 -0.0328145 0.0884254 -0.0728511 0.0266849 0.0833098 -0.0699744 0.0182236 0.0799364 0.0777758 -0.0595555 -0.0362935 0.0438841 -0.0581738 -0.0303898 -0.0179371 -0.0282973 0.0548717 0.0865051 0.0844807 0.0297802 -0.0650762 0.0130335 0.0481312 -0.052994 -0.049443 0.0343414 0.0466528 0.0775704 -0.0758404 -0.0237728 0.0846891 -0.0606294 -0.0135974 0.0785935 -0.046347 0.0193652 -0.0283428 0.0678117 -0.0608928 0.0769569 -0.0408388 -0.0539554 0.0462886 -0.0487728 0.0462712 0.00353301 -0.00740154 0.0705715 -0.0238597 0.0711789 -0.0537208 -0.0134227 0.00328158 0.00821203 0.052284 0.0216985 0.00926031 0.0427193 0.0588623 -0.056004 0.0154938 -0.017371 -0.0185575 -0.0228302 0.025075 -0.0397203 0.0342323 -0.00639579 -0.0505524 -0.0243236 0.0433452 -0.0606395 -0.0423548 0.00428194 -0.00401139 0.0775891 -0.0153366 0.0686764 -0.0629116 0.00106339 0.049912 -0.00763075 -0.0590214 -8.88978e-05 -0.0719978 -0.0514861 0.0284729 -0.00450859 0.00620339 0.0181791 0.0677489 0.0880462 -0.0642405 0.0649083 0.0113398 0.0881103 0.0290875 0.0406319 -0.0451146 -0.0263706 0.0391447 -0.0769404 0.00544651 0.0676546 -0.0710812 0.00855713 0.0849114 -0.0187078 0.0354049 0.00752656 0.0384187 0.0464947 -0.0531113 0.0492069 0.0427058 -0.015825 0.0700015 -0.0163047 0.0617195 0.0924686 0.0317337 -0.0715258
-0.0124799 0.0407645 0.0237963 0.00254394 0.0106542 -0.079497 0.0135122 -0.0340644 0.0699626 0.0177448 -0.0906536 0.0662233 0.0539278 -0.0840667 -0.0728573 0.0560527 -0.029817 -0.0248612 -0.022389 0.00331456 0.059114 -0.0534367 0.0746688 -0.0516451 -0.0523285 0.0695206 0.000576202 0.0481577 -0.0193421 -0.020998 0.0235215 0.0367221 -0.0832428 0.0428613 -0.014953 0.0262982 -0.09022 -0.08503 -0.0903452 -0.054665 -0.0657949 -0.0578208 -0.00212413 0.0711443 0.0707901 0.0666711 0.0564503 -0.0510693 0.020729 -0.0234231 0.0117075 -0.0194935 -0.0592881 0.0471702 0.047682 0.0728685 0.0170831 0.0761297 -0.0643616 0.0720592 -0.0426955 0.0337371 -0.0470998 -0.0100543 -0.0215754 0.0404114 0.0238855 -0.00499735 0.0536069 -0.0813498 -0.105148 0.0345822 0.0343492 -0.00994612 -0.00232648 -0.0244127 -0.0721996 0.0262046 -0.0407017 -0.0733181 -0.0624899 -0.0598492 0.0109559 0.00737261 0.0499879 0.0610419 -0.0300793 -0.0588291 -0.0869948 -0.0147128 0.0640284 -0.0773565 0.057448 -0.0743757 0.0485633 -0.032736 0.124085 0.0932477 0.0329749 0.118108 0.117767 0.117264 0.0812883 -0.0374732 0.0753153 0.0307311 0.0224945 -0.103476 -0.0433306 -0.0376141 -0.0321795 0.0303899 -0.0509737 0.0367689 0.0682526 -0.047058 -0.0485612 0.0444362 0.0809927 0.102963 0.0524636 0.0805966 0.143498 0.163225 0.0685712 0.0923433 -0.0561172 0.140159 0.0404764 0.148315 0.22338 0.0982277 -0.00115034 0.100997 0.109467 -0.0258884 -0.0461487 0.0114358 -0.00355671 -0.0218857 0.0207099 0.0208885 0.0300208 -0.0767612 0.0676718 0.0533721 0.109475 0.120702 0.104967 0.108434 0.0670438 0.0554902 -0.0662317 -0.0118542 -0.0389203 -0.065259 -0.00704972 -0.0428902 0.0776264 0.058197 0.0844373 0.0609638 0.0167172 0.0769475 0.0999856 0.020107 0.00917804 0.0530841 0.030285 0.0369965 0.0441182 -0.0628551 -0.00422496 0.119788 0.0810318 0.14042 0.149655 0.196917 0.236208 0.189411 0.018503 0.197366 0.0505033 -0.00698007 0.12446 -0.00986276 0.0484306 0.072446 0.0850314 0.0857483 0.0740133 0.0719617 0.0984239 0.0491222 0.00780774 0.0551363 -0.0235714 0.0119285 0.00365561 -0.00972353 0.154743 0.153652 0.242043 0.120859 0.154895 0.203065 0.0832456 0.168469 0.17061 0.112745 0.113884 0.0066515 0.189697 0.217462 0.185934 0.159528 0.10986 0.0888113 0.0958474 -0.0100757 0.0766058 0.10918 0.0191118 -0.0713279 -0.0531483 -0.00896316 0.054156 -0.0211676 0.183216 0.144756 0.0725213 0.0842033 0.193995 0.116379 0.113538 0.161323 0.0885796 0.140307 0.279203 0.22552 0.193701 0.0972782 0.169933 0.0740812 0.0729314 -0.0319525 0.0868367 0.0379326 0.0492133 0.105767 0.0574596 -0.0468795 -0.0931862 0.0396798 -0.0170687 0.0384053 0.0665011 0.0620903 -0.040751 -0.0800399 0.0474287 0.00823727 -0.0449154 -0.104491 0.0230933 -0.0881489 0.0493399 0.0432929 0.0533842 -0.0275536 -0.0771254 -0.127606 -0.121892 -0.0516144 0.0129773 -0.0113625 -0.0124177 0.0680408 -0.00838919 -0.0518577 -0.0741463 -2.59859e-05 0.0707615 0.0770152 0.144741 -0.0121015 0.0422579 -0.0680853 -0.175751 -0.10707 -0.163742 -0.32612 -0.214275 -0.169464 -0.212387 -0.0965274 -0.0540346 0.018835 -0.24122 -0.301348 -0.112776 -0.0678042 -0.192121 -0.152086 -0.00241642 -0.0628549 0.0543522 0.0430953 -0.0164213 -0.0402653 0.104981 0.104591 0.0643307 0.00676398 -0.182316 -0.224316 -0.148265 -0.153313 -0.167701 -0.116198 -0.122905 -0.101534 -0.32929 -0.22459 0.0392395 0.0211582 0.0129435 -0.118594 -0.275465 -0.166669 -0.240352 -0.234875 -0.0909586 0.00431805 -0.0138347 -0.0199064 -0.0149164 0.0822872 0.0999195 0.0131928 -0.0236537 0.0183909 -0.0732676 -0.106214 -0.122896 -0.0876444 -0.0293357 -0.103581 -0.11677 -0.236294 -0.176142 -0.0673111 -0.0697366 0.0688032 0.206205 -0.0382831 -0.0282565 -0.187081 -0.25694 -0.282367 -0.11118 -0.00376027 0.0486899 0.036791 -0.0887468 0.0589654 0.0367126 0.0158352 -0.0121645 0.022464 -0.198908 -0.060839 -0.159477 -0.0712954 -0.0837846 -0.164128 -0.0955487 -0.0577834 -0.114096 -0.156094 -0.0784912 0.0619389 0.118358 -0.0187849 -0.021607 0.00461345 -0.0932905 -0.240315 -0.0696386 -0.0700563 0.00986405 0.00869498 0.0616498 0.00124305 -0.0016127 -0.0167984 0.0797115 -0.024507 -0.100349 -0.224079 -0.135845 -0.0700746 -0.130029 -0.140714 -0.0539875 -0.0741024 -0.0708738 -0.133748 -0.102099 -0.0599382 0.0521045 0.0420573 0.120023 0.100327 0.086384 0.0385906 -0.140718 -0.0367176 -0.0603274 0.0581624 0.0373334 0.0648018 -0.0587684 -0.0468399 0.0594016 -0.0726071 -0.206866 -0.291332 -0.119298 -0.0823452 -0.0514584 -0.00949661 0.063537 0.0445782 -0.0652056 0.02164 -0.105178 0.0213768 0.152977 0.030034 0.0591502 0.0784541 0.167408 0.0408271 -0.0840444 0.0548713 0.0680146 -0.0229622 -0.048418 0.0551998 -0.0465077 0.0542851 -0.0539285 -0.209274 -0.281261 -0.423626 -0.267545 -0.0769423 0.0368792 0.00438201 0.138183 0.0685386 0.0326228 -0.0575445 -0.114389 -0.0183797 0.11342 0.15709 0.0746941 0.167383 0.152646 0.160972 -0.0557549 -0.0131794 0.0421962 0.0681353 0.0734726 0.0107257 -0.0515956 0.0169706 -0.0141553 -0.10381 -0.235687 -0.347878 -0.413924 -0.242995 -0.143623 -0.20906 -0.120215 -0.0196105 -0.216547 -0.111656 -0.182926 0.105284 0.0854114 0.117375 -0.0745109 0.0997964 0.0148701 0.0630343 -0.0837182 -0.056581 -0.0350673 0.0446808 -0.063339 0.0452275 -0.0648911 0.0194543 -0.00562669 -0.015021 -0.208542 -0.1867 -0.206512 -0.361325 -0.347513 -0.392493 -0.282199 -0.237737 -0.189446 -0.0453984 -0.0399247 0.0769968 0.0378941 -0.0507486 0.0226154 0.0894776 0.0643175 0.0201411 -0.0650607 0.0405327 0.0597176 -0.0478113 0.0587994 -0.045242 0.0371738 0.0950992 0.108751 0.0962617 0.0104641 -0.0874927 -0.0772217 -0.199539 -0.211955 -0.222787 -0.222377 -0.144283 -0.131697 -0.0550872 0.0396489 0.0930897 0.00545964 0.0581178 -0.0162141 0.0187739 -0.0163381 -0.0869026 0.0379032 0.012539 -0.0342698 0.0422535 0.0487237 -0.016761 0.0499777 -0.00963949 0.130204 0.061913 -0.0299059 -0.102933 0.098113 -0.017892 0.0362721 0.101938 0.0502732 0.0418669 0.0583441 0.0626143 0.0819454 0.0165958 0.150665 0.0126025 0.105305 0.00352751 0.00919199 0.012902 -0.0412239 -0.0948727 0.0703387 -0.0571984 -0.0265558 0.0353121 -0.00120112 0.0807693 0.122349 0.0301222 0.00150993 0.0866723 0.0960552 0.0943219 0.0975064 0.0482324 0.0898437 0.058266 0.165526 0.104421 0.153142 -0.0122893 0.153889 0.0114278 0.0818185 0.0113456 0.0311234 -0.0844776 -0.0815488 0.0276769 -0.0495511 -0.0645652 -0.0696861 -0.0821028 -0.0376811 -0.0487258 -0.00793901 0.0377738 0.0359692 -0.0360116 0.105848 -0.0363919 0.0251084 0.0606222 0.0755689 0.0424211 0.0907699 0.0928871 -0.0164861 0.0449173 -0.0171347 0.00455127 0.0649699 -0.0401567 -0.0594339 0.034224 -0.0572114 -0.00134232 -0.0718457 0.0498686 0.00187201 -0.0308694 -0.00371473 -0.0729985 0.1152 0.166708 0.119796 0.153232 -0.0424872 -0.0462929 0.168159 0.0398188 0.0217183 -0.00063899 0.0892174 0.0679294 -0.0290747 -0.0698379 -0.0808455 -0.0163508 -0.172144 -0.0857067 -0.0772847 0.0288892 -0.022505 -0.0690676 -0.0832398 0.0259546 -0.00834248 -0.0605456 -0.0923511 0.0204517 0.0744363 0.083343 0.0913644 0.238244 0.192011 0.140099 0.108209 0.0416813 -0.00162547 0.147251 0.185246 0.0525428 -0.0218709 -0.0173542 -0.139559 -0.0579267 -0.0892493 -0.0637297 -0.0343573 -0.0306971 0.00494995 0.0638899 -0.0315228 0.041487 -0.0278611 0.0171275 -0.0459911 0.00192698 -0.0296698 0.077073 0.144456 0.175633 0.157669 0.160101 0.202845 0.177557 0.249154 0.133031 0.140893 0.171627 0.0900665 -0.0318095 -0.00655035 -0.0118923 0.0166777 -0.0400778 -0.0402924 0.0727218 0.0379597 0.0431035 -0.0685994 0.0482037 -0.0585899 0.0661378 -0.0218888 0.00397402 0.00945218 -0.0171836 0.0482733 0.0420144 0.0282501 0.0222151 -0.0258297 0.0470894 0.0553151 0.00308386 0.0825169 0.12316 0.0490376 0.00272344 0.0923845 0.102951 0.0196565 -0.00929003 -0.0767981 0.0380898 -0.0424934 -0.000180268 -0.0908231 -0.0553981 -0.00972774 0.0396561 -0.0448719 0.00300037 0.0592171 0.0135737 -0.0028979 0.0209639 0.0279731 -0.046059 0.0106575 -0.0180382 0.0762083 0.0309258 -0.0356566 0.0312935 -0.0126863 0.027542 -0.0556596 0.0625566 -0.0398061 0.0393277 -0.0413761 -0.0340876 -0.045022 -0.0461265 -0.00813585 0.0525815
0.0775803 -0.017779 0.0569546 0.0988198 0.00617649 -0.0156162 -0.066041 0.0215052 0.000948745 0.0744161 -0.0140226 -0.0566473 -0.00110039 0.0302804 0.0471431 0.0478134 0.0783712 0.0797835 0.0926981 0.0589699 0.0846597 -0.0595788 -0.0143743 0.0711366 0.0204428 0.0544342 -0.0160831 0.00768825 0.0895575 0.0578303 -0.043399 0.0970692 0.00310449 -0.0348867 0.0914597 -0.0506199 0.0335439 0.00710421 -0.0142443 0.0311845 -0.0301189 0.00157762 0.00345633 0.105089 0.0845473 -0.0353764 0.0383801 0.0884258 0.0665821 -0.0388566 0.0263696 -0.0287042 0.0686345 0.0124707 -0.0415053 -0.0438963 0.0438561 0.0139631 -0.0204332 0.0822672 -0.0233297 -0.0122157 0.0799745 -0.0484213 0.0471159 -0.00791856 0.0231529 0.109876 0.0398942 0.0252409 0.045544 0.0307166 0.10465 0.0512248 0.00481976 0.0106684 -0.0269146 0.0880764 0.0865548 0.0975557 0.00284203 0.0713301 0.0586177 -0.0481545 -0.0098179 0.0612534 -0.0352013 -0.0563911 -0.0632231 -0.00391494 0.0956315 0.0105667 0.00522781 0.0630299 0.0220392 -0.0588694 -0.0438939 -0.0987154 -0.0251947 -0.00392806 -0.00312952 0.139076 0.0457236 0.104913 0.0624106 0.0573791 0.122522 0.0414879 0.0138016 0.0719081 0.0539147 0.0823427 0.0237708 -0.0209918 0.091785 0.036191 -0.0451028 -0.0729202 -0.106159 -0.0850167 -0.170917 -0.191297 -0.194802 -0.0779237 -0.16044 -0.0787186 -0.000745221 -0.0316126 0.0958929 0.0104529 0.18219 0.102521 0.168496 0.151838 0.142891 0.143471 0.0401532 0.0735415 0.0424517 -0.0384286 0.0569122 -0.0053913 0.0307355 -0.0440425 -0.0775881 -0.0303833 -0.138856 -0.11351 -0.0953336 -0.0430572 -0.0647435 -0.166281 -0.161898 -0.149461 -0.0318176 0.0699671 -0.0441664 0.0543986 0.0613793 0.0223534 0.135752 0.117442 0.23888 0.225287 0.0268202 0.0407977 0.0159815 -0.00751797 0.0166949 0.097638 -0.0180651 0.0173788 -0.0316698 -0.0899708 -0.169116 -0.0503369 -0.120154 0.0149346 0.0024082 -0.017513 -0.0402605 -0.0124133 -0.0669292 -0.0379159 0.0727315 -0.0244969 0.129543 0.171477 0.115197 0.111307 0.0488614 0.116941 0.00371189 0.0267378 0.108393 0.0720907 -0.0467769 -0.0600739 0.0750257 -0.0396838 -0.0168749 -0.0663897 -0.0508473 0.0187083 0.0382729 0.0270771 0.043879 -0.0330753 0.0936401 0.0674504 0.0417983 0.0704102 0.0898901 0.195668 0.167298 0.192172 0.169408 0.0540281 0.0598556 0.07525 0.0551252 0.120948 0.0595711 0.0646605 0.0282841 0.0177955 -0.0659799 0.0563516 -0.126407 -0.00786766 -0.120231 -0.0637759 -0.0769533 -0.00266769 -0.0336017 -0.0505428 -0.00172075 -0.0180793 0.0548279 -0.0812705 0.00250543 0.0685443 0.0189651 0.064756 0.0592469 0.0696193 -0.00590854 0.0019837 0.19256 0.105897 -0.0108244 -0.0176713 0.0578962 0.054085 0.0422672 -0.0303123 0.0156572 -0.118247 -0.046755 0.0633769 -0.0225845 -0.064048 -0.06886 0.0526549 0.113929 -0.0429727 -0.0374322 -0.00838021 -0.169696 -0.174662 -0.245016 -0.294073 -0.220353 -0.121726 -0.11939 -0.00906594 0.0500661 0.0812817 -0.0353931 0.0832674 0.0814461 0.00406912 -0.0432688 -0.0115799 0.0267444 -0.0507896 0.0354462 0.0462442 0.122756 0.0660331 0.126929 -0.0488417 0.073113 0.00278843 -0.0281686 0.0751171 -0.0757351 -0.316336 -0.364868 -0.558888 -0.546769 -0.33145 -0.315894 -0.225253 -0.103146 0.0861405 0.0960511 0.0815938 0.0836546 0.0163124 0.0815477 0.0677087 0.0122475 0.028607 0.0357912 0.147677 0.183687 0.11806 -0.0285208 -0.0462255 -0.0694796 0.112007 0.106637 0.181296 0.041915 -0.128304 -0.184265 -0.320677 -0.441861 -0.349751 -0.430287 -0.315039 -0.234526 -0.00191509 0.0559562 0.0589097 -0.0130158 0.0311247 -0.0205022 -0.0444354 0.103578 0.00219916 0.0266032 0.216557 0.0874494 0.0302863 -0.0425255 0.039774 -0.0201285 0.0640417 0.0170804 0.159051 0.0695208 0.0386931 -0.0940035 -0.060249 -0.0862934 -0.249562 -0.362802 -0.346011 -0.24502 -0.0791485 -0.00820818 0.0740536 0.0222746 -0.029057 -0.025549 0.079081 -0.00174887 0.00751622 0.0107691 0.168358 0.136038 0.0222882 0.127371 0.0123669 -0.0278276 -0.0695222 0.123763 0.174736 0.122401 0.0304225 -0.0380951 0.0257356 0.202951 -0.0131789 -0.0865119 -0.186205 -0.177915 -0.0441788 -0.00883938 -0.0200563 -0.0334465 0.0331638 -0.00770689 -0.0610038 -0.0145501 0.0426909 -0.0573831 -0.0219317 0.027631 0.0736284 0.0702814 -0.00222591 -0.00981494 -0.0549631 0.029646 0.0723884 0.0266407 -0.0823145 0.0147981 0.116071 0.236961 0.0701214 0.0701271 -0.160305 -0.122053 0.0136857 0.00998611 0.039293 0.0141316 0.0841265 0.103242 0.0684554 -0.0417651 -0.100789 -0.0084014 0.000492025 -0.027821 0.163269 0.0741704 0.124765 0.0274031 -0.00870225 -0.000355883 0.0339254 0.0350224 0.0518518 0.00996788 -0.0121267 0.081238 0.0172169 -0.0392757 -0.0956013 -0.0572715 -0.0332863 0.0210282 0.0224941 0.0640021 0.0265492 0.0648657 -0.0158071 -0.0781387 -0.157215 -0.15302 -0.123592 0.067997 0.0467947 -0.00390596 0.0922325 -0.0535302 0.0591908 0.0943424 0.114032 0.00652501 -0.169169 0.000644768 -0.0551521 -0.0385206 -0.120743 -0.00879429 -0.0525379 -0.110035 -0.0333615 -0.00969197 -0.0345605 -0.0120864 0.0773893 -0.0169476 -0.0459648 0.0194375 -0.0510196 -0.114268 -0.0688003 -0.127376 -0.00533332 0.0112517 0.0596031 0.0440333 0.0484668 0.084323 0.115297 -0.0595203 -0.0314713 -0.0383769 0.0519087 0.11999 -0.0641164 -0.108164 -0.11808 -0.000213484 -0.121344 -0.0116029 0.048744 0.0293466 -0.0591937 -0.0418324 -0.000897723 -0.0514741 -0.0731263 0.0117851 -0.13647 -0.170743 0.0289178 -0.0880764 -0.0653311 0.00494242 0.230988 0.0903704 -0.0573216 -0.0628919 -0.0352565 -0.00557285 0.0693243 0.0309249 0.0642385 -0.148479 -0.157559 -0.121304 -0.0324643 -0.00528864 0.0729388 0.0342881 0.0888315 0.00583384 -0.0540218 -0.0750199 -0.0425585 -0.0757481 -0.0543463 -0.0405424 -0.0578391 -0.124799 -0.0750168 0.104246 0.0615612 0.0348974 -0.0132471 -0.0535015 0.0108113 -0.0281087 -0.0538614 -0.0254119 0.0838528 -0.121868 0.00642593 -0.0544756 -0.0651462 0.0848359 -0.0511311 0.0405438 0.0972545 0.0176237 0.0521872 -0.0921549 -0.104656 -0.080641 -0.141994 0.0272442 -0.0512783 -0.0258767 -0.0644448 -0.0156339 0.00730321 -0.00557262 0.0765015 0.103537 0.0846517 -0.0133544 -0.0163075 0.026377 0.024684 0.0243201 0.0547108 0.0710722 -0.0881965 0.065956 -0.0344045 -0.0389448 -0.0468629 -0.0329812 0.00822435 -0.0789928 0.0124334 -0.0603407 -0.0885171 0.113563 -0.0190048 0.0735898 0.0148588 0.0530127 -0.0576282 0.00557345 0.0507317 0.0628925 0.119806 0.0223416 -0.123122 0.109193 0.0267841 0.0737609 0.0875147 0.0453561 -0.0399794 0.0747823 0.083749 0.0376729 -0.0574389 0.00384029 0.0372566 -0.0196932 -0.0475139 -0.107521 -0.0341382 -0.124916 0.0034258 -0.0736855 -0.018214 -0.0806845 -0.0455491 0.0783749 0.140168 0.0665831 0.0680762 0.0782667 -0.0623734 0.0333699 -0.00949856 0.116344 0.0551077 0.0393353 -0.0441005 0.0819198 0.000639175 0.0529179 0.0646427 0.035158 -0.0261701 0.0561142 -0.0107407 -0.0470681 0.0119604 -0.0020397 0.0189075 -0.089597 -0.116978 -0.0143055 -0.0222184 -0.0256631 -0.0159343 0.135021 0.0966687 -0.0922011 -0.0302376 0.0386152 -0.00213727 -0.020211 -0.058683 -0.0262633 0.0189518 -0.0089116 0.0974418 -0.0221424 0.0559927 0.0163403 -0.0845081 0.0555292 -0.0108791 0.0923258 0.0617665 -0.0374901 -0.0906861 -0.0776112 -0.125136 -0.068767 -0.137154 0.0159546 -0.0467144 -0.0380505 0.0118882 0.0533026 0.0651062 -0.00957049 0.0684035 0.0149562 0.0960063 0.0509346 -0.0482007 -0.0338527 0.0275119 -0.0163461 0.0833428 -0.0358917 -0.0331957 -0.0614491 -0.0572314 0.032671 0.0952026 0.0179127 0.0404642 0.00223084 -0.048824 0.0115554 -0.0489117 -0.0157697 0.0398642 -0.0100655 0.113685 -0.0167419 0.0440161 -0.0189043 0.00168186 -0.0224414 0.0798325 0.0233178 -0.0262215 0.00876526 0.0385314 0.0451568 0.0258465 0.0758816 0.0867626 -0.0555564 -0.0556004 0.0783749 0.0564698 0.0670152 0.105868 0.0439277 0.0612799 0.0582979 0.0486285 0.0202364 0.103966 0.0158838 0.038581 -0.00538382 0.0380053 0.0953636 0.0973722 0.0822967 0.0706952 0.0131103 0.0234309 0.0750182 0.034932 0.0125987 0.0707289 -0.0621838 0.0953595 -0.0276619 0.0110313 0.0907889 0.0299027 0.0515181 0.0506549 -0.0545615 -0.0409731 0.00559131 -0.0522241 -0.0589884 0.0315354 0.0233098 0.0931767 0.0865644 0.0162293 -0.0406636 0.0869431 0.0823274 0.0850834 -0.00117054 0.0734506 0.0358334 -0.0237749
-0.00070802 0.0464573 -0.0374777 -0.0480975 0.0792108 0.0307966 -0.0550866 -0.023483 0.0457761 0.00597483 0.00572153 -0.00636385 -0.0320867 -0.0356692 0.00999917 -0.0418232 0.0121014 0.0374282 0.00580833 0.015431 -0.0554074 0.0270351 -0.0545245 0.0363704 -0.0584989 0.0565612 -0.0765707 0.00725766 0.0452736 -0.0635675 0.0361669 -0.017091 -0.0553601 0.0629193 -0.0592261 -0.0790105 0.0148444 0.0566884 3.05159e-05 -0.0499676 -0.00667062 -0.00341785 0.0223897 0.0227416 -0.0238323 0.0526719 0.000786397 -0.0115146 0.0166286 0.00878933 0.0416604 -0.0050581 0.091451 0.0581782 0.0545478 0.0484505 0.0853266 -0.032174 -0.0657615 0.028445 -0.0159021 0.072413 0.0463791 0.0192325 0.00908927 -0.0639301 -0.0636569 0.0459729 0.051112 0.0596007 0.0510211 0.0465096 0.0442577 -0.0314442 -0.0355555 -0.00385183 0.00183418 0.0389215 0.0795956 -0.0325154 0.0763178 0.00340004 0.0894502 0.0839564 -0.0257929 0.0228521 -0.0609894 -0.00259047 0.0087601 0.0628524 0.0474356 -0.031148 0.0279848 -0.019968 0.0153946 -0.0714126 -0.0507606 -0.114889 -0.107587 -0.0562679 -0.00729453 0.0217736 -0.00336432 0.00385091 -0.0167971 -0.0127247 0.0286616 -0.0342657 0.0613959 0.0678387 -0.00213055 -0.043577 -0.0362198 0.023373 -0.0459308 -0.062741 0.0201038 0.10556 -0.0204099 0.0491531 -0.0400798 0.0177106 -0.0219675 0.0405788 0.0269409 0.0310014 -0.0735313 0.0275997 -0.109257 -0.0210722 0.0454693 -0.0178785 -0.0463751 0.0210276 0.0498878 -0.0237025 -0.048876 0.0569187 -0.00285586 0.0198167 0.0365964 -0.0155067 0.0233933 0.0853097 -0.0331413 0.0435622 0.0291732 -0.00185043 -0.0578696 -0.0775393 0.00636392 0.0440982 0.0797943 0.101721 0.0316557 0.00490653 -0.0675923 -0.00758993 -0.04048 0.0753681 0.0964056 -0.00748977 0.0606364 -0.020706 0.0674829 -0.0028664 0.0117645 0.0820056 0.0293082 -0.0717067 0.0184651 0.0224257 0.0550889 0.0576626 -0.0825233 -0.0268096 -0.10192 -0.108679 -0.015311 0.00226238 0.153733 0.0949106 0.0143072 -0.0595643 -0.0917807 0.0113447 -0.0789791 0.0539612 0.0645865 -0.0513876 0.0154435 0.0269796 0.0899557 0.114786 0.0972446 0.0297809 -0.0122257 -0.0309977 0.0697504 0.0171305 0.00458596 -0.0780271 0.0105557 -0.12838 -0.0114435 -0.0644057 0.0189185 0.0236685 0.0752429 -0.0262637 0.069106 -0.0163589 -0.0816545 -0.0682761 0.0164677 -0.0192636 0.0156403 0.055298 0.0656581 0.07367 0.163921 -0.00127828 0.00219818 0.0511344 0.0375107 0.0827997 -0.0360509 -0.0657164 0.0772813 0.0495565 0.047284 0.0238077 -0.0660455 0.00108177 -0.0200207 -0.0076888 0.0605673 0.0237162 -0.0498857 -0.161159 -0.00562445 0.026878 -0.0599153 -0.0431001 -0.00720153 -0.0125749 -0.0294875 0.0554683 0.0696579 0.0669775 0.0607042 0.00286066 -0.0481165 0.0249894 0.0189792 -0.0405252 -0.0507957 -0.123114 -0.0365486 0.00950842 -0.0393104 0.0239653 -0.0474021 0.0918713 0.0180819 0.101036 -0.20793 -0.355576 -0.294307 -0.130899 -0.130077 -0.0253598 -0.0122865 -0.0634892 0.0390675 0.114867 0.0947492 0.00895464 0.0065988 -0.0735043 -0.0227009 -0.0670631 -0.113457 -0.00923132 -0.0239691 0.0535648 0.057133 0.0629116 0.0899759 0.00480748 -0.0899765 0.0507272 0.146187 0.0284861 -0.236508 -0.385227 -0.274475 -0.284089 -0.23413 -0.111732 -0.0265016 -0.0275683 0.000767559 0.109173 0.0223427 -0.00629022 -0.0236087 0.0888634 -0.0404115 0.0853449 0.0205573 -0.111576 0.115537 0.0706308 0.010288 0.0594571 0.0911355 -0.0505466 0.0510132 0.0851407 0.302995 0.306467 0.126924 -0.165673 -0.200967 -0.196222 -0.171778 -0.144666 -0.121913 -0.0284522 0.0377646 0.0184952 0.0637989 0.0253109 -0.0379782 0.0492226 0.0269321 0.041882 -0.0767683 -0.036165 -0.0106961 0.0841685 0.133813 0.0973216 0.0679057 0.216524 0.122793 0.258663 0.393748 0.390249 0.267317 0.0855431 0.138985 -0.00281712 0.00166887 0.0703849 0.0488838 0.0781614 0.104924 0.102643 -0.0498685 0.0913496 -0.0477056 -0.027602 0.00575369 -0.00967804 0.0505647 0.0447455 0.0614735 0.105363 0.0574059 0.086096 0.0930128 0.0953925 0.0461459 0.243041 0.407534 0.286023 0.203524 0.207659 0.16914 0.254479 0.0770217 0.0982015 0.0282545 0.0520656 -0.0211948 0.0164347 -0.0749333 -0.0160031 -0.0509998 -0.068697 -0.0266474 0.0218944 0.0791595 -0.0473712 -0.083024 0.0364518 0.00477608 -0.0237962 -0.0336488 0.077095 0.0144649 0.217426 0.24235 0.195133 0.0863514 0.234534 0.221299 0.135816 0.0370867 -0.0261549 -0.117633 -0.093171 -0.126662 -0.0802886 0.00702044 -0.04618 -0.0381974 0.00738124 0.0508755 0.0207665 -0.0584388 -0.0461792 -0.0381435 -0.107704 -0.139685 -0.205516 -0.0772971 0.121896 0.0796306 0.18132 0.24934 0.222087 0.203192 0.103951 0.00398943 -0.000894274 -0.0507548 -0.0137644 -0.150219 -0.0958812 -0.0299161 -0.136042 -0.0356133 -0.117075 0.0453392 -0.0011232 0.0437121 0.0418556 0.0129153 -0.0150522 -0.0663314 -0.186453 -0.336966 -0.281314 -0.162038 0.00230642 0.0745356 0.273113 0.320782 0.167266 0.0837096 0.068084 -0.00293612 0.0121928 0.0276809 -0.0243422 -0.104587 -0.0880248 -0.0980981 -0.129841 -0.118626 -0.124621 -0.0531891 0.00805935 -0.0500545 -0.0651334 0.0778979 -0.0425693 -0.154235 -0.197386 -0.276311 -0.210632 -0.247253 -0.133862 -0.130545 0.0702131 0.113977 0.0441429 0.0893964 -0.0996112 -0.138108 -0.147964 -0.0791013 0.0246935 -0.0662281 0.00923961 -0.0197775 -0.151964 -0.0842846 -0.140517 0.0379386 0.018391 0.0523217 0.0111228 0.0821687 -0.0336088 -0.105311 -0.147505 -0.234169 -0.289734 -0.306063 -0.363992 -0.430241 -0.285792 -0.155473 -0.14026 -0.15591 0.0437677 0.0451387 -0.104086 -0.0051933 -0.0197271 -0.0781627 0.113243 -0.0127295 -0.132199 -0.115772 -0.0692814 -0.0735898 -0.0352047 0.00384574 -0.0480223 0.0869819 0.0443999 0.0245134 -0.0519805 -0.0539084 -0.203406 -0.201851 -0.355092 -0.373483 -0.34646 -0.330176 -0.23851 -0.262569 -0.0481907 0.107032 0.0927851 0.13975 0.118139 -0.0410221 -0.0475406 -0.0297327 -0.0762638 -0.0935698 0.0165063 -0.0622896 -0.0529665 -0.00324593 -0.0193406 0.0521514 -0.0108704 0.0474481 0.05551 -0.0128368 -0.0651381 -0.0287668 -0.216722 -0.0193632 -0.224902 -0.212465 -0.149535 -0.100151 0.0498702 0.0780042 0.174663 0.114026 0.0195419 0.0540656 0.0839601 -0.0778587 -0.0147012 -0.0667457 -0.0456704 -0.0257358 -0.0409371 -0.0766073 -0.0704304 -0.0632297 0.0677875 0.018722 0.0269508 0.0178794 0.0580882 -0.0450803 0.0860422 -0.0470943 -0.0359249 0.017723 0.0232274 -0.0468199 0.0699066 0.00332575 0.0646063 0.103605 0.0485038 0.0159046 -0.125542 0.00394371 -0.0619018 -0.0944906 -0.019492 0.0645547 0.0733481 -0.0656803 -0.0471184 0.0726952 0.0412454 0.0543078 0.0357669 0.0266775 0.0676932 -0.00635994 0.0748506 0.0195415 0.145244 0.020848 0.0118038 -0.0464239 -0.022582 -0.0247822 0.112655 0.0487304 0.0830739 0.0734867 -0.0624001 -0.0157836 -0.0931726 -0.0248456 0.0448955 0.00793449 -0.0232011 0.0412727 -0.0300693 0.0755496 0.0409893 -0.0389345 0.0048455 -0.0439701 0.120203 0.0881236 0.0482394 0.146827 0.127445 -0.0524651 0.069436 -0.0206854 0.027511 -0.0537242 0.00150684 0.00810431 0.0756844 0.0908239 0.111385 -0.0818932 0.0784975 0.0445417 0.083167 -0.0457661 0.0500742 0.0419311 0.0709218 -0.0523169 0.0171359 0.120176 0.0354401 0.00861571 0.0868277 0.159445 0.155989 0.121835 0.177727 0.0637858 0.152643 0.11184 0.0875492 0.0878423 0.0390087 0.0559783 0.0277268 0.0827479 0.10321 0.104256 -0.0495161 -0.0143606 -0.0571517 -0.042537 -0.0207345 0.0510117 -0.0254263 0.0713994 0.0555881 0.0113818 0.0563784 0.097262 0.0420987 -0.0349892 0.0517106 0.0269677 -0.00651478 0.122982 0.0386226 -0.0440218 -0.0402852 0.0321811 -0.0955014 0.00888192 0.0863147 0.0899884 0.0266036 0.0962646 0.0161257 -0.0420473 0.014862 -0.0691436 0.0805758 0.0216176 0.0345981 -0.0235538 0.0308028 -0.0184462 0.0582849 0.0901598 -0.00974886 -0.033777 -0.0113536 0.0190187 -0.0454629 -0.0397241 0.0653643 -0.0502152 0.00442854 -0.0452093 -0.0423672 -0.0919193 -0.0130224 0.0676129 0.0150592 0.032223 0.037136 0.0242509 0.0635213 0.0912388 -0.0380314 -0.0088809 0.0889411 0.0714178 0.0497884 0.0787733 0.0524071 0.0765748 0.0463135 -0.029016 -0.0184283 0.0510361 0.0141547 -0.00357035 0.0124989 0.0699579 0.0250119 0.0688853 -0.075922 0.037784 0.0570474 0.0704832 0.0505974 -0.0358613 0.0802659 -0.0292236 -0.0449217 0.0357838 0.00750048
0.0661031 0.0206836 -0.0616979 -0.0891451 -0.046917 -0.0833388 -0.0521708 -0.0420203 -0.0403342 -0.0889045 -0.0357739 -0.0169621 -0.0365102 -0.0662004 0.0276993 0.0562079 -0.021218 0.0667053 0.00560982 0.0337495 0.0238229 0.0273068 -0.0437655 0.0667747 0.0635239 -0.0833975 -0.0270738 -0.0723353 -0.0205705 0.00465514 0.0362513 -0.00980145 0.0628986 0.0424168 0.0815814 -0.0700562 -0.0323213 0.0554435 -0.0478656 -0.00198034 0.00178598 0.0235174 0.0119009 -0.0608419 -0.0625762 -0.0644743 0.0678329 -0.069544 -0.0469259 -0.0728934 -0.0282947 0.0128954 -0.0738011 -0.0123412 0.0352778 0.00202116 0.0763293 -0.0693069 0.0200965 0.0264093 0.0682945 -0.00185639 0.0758686 0.0461108 -0.0640449 0.00902644 -0.0678873 -0.0106769 -0.0156329 -0.0416299 -0.0475711 0.0563462 0.0413563 -0.0232499 -0.055732 -0.014145 -0.0632209 -0.00571912 -0.0803178 -0.072864 0.0292353 -0.0091744 0.0483838 -0.0121071 0.072965 0.0387844 0.00983901 -0.0840743 -0.045028 -0.0536707 0.0639625 0.0631677 0.00313243 -0.000298539 -0.0988024 -0.00259825 0.0943598 0.179125 0.0832863 0.113423 0.159891 0.0553365 0.033423 -0.0748636 -0.0105119 -0.109446 -0.123883 -0.117484 0.0533879 0.0708111 0.0489955 0.0687965 -0.0640819 0.0570033 -0.0262097 -0.0626405 -0.0519338 0.000749946 -0.0131181 0.105749 0.124441 0.165497 0.183519 0.0311122 0.102059 0.166074 0.253194 0.128612 0.128363 0.0312437 0.0919827 0.0573813 -0.132024 -0.121594 -0.0707326 -0.0231844 -0.0110678 -0.0374044 0.00475749 0.0577129 0.0204465 -0.0357757 -0.0546086 0.0430588 0.0492707 0.0908627 -0.014907 0.114812 -0.0174141 0.0845159 0.00986927 0.0149765 0.143444 0.0995982 0.0227682 0.082363 0.100601 0.119192 0.140284 0.00672865 -0.0435421 -0.156124 -0.19423 -0.126997 -0.101848 0.0356014 0.0565702 0.0492029 -0.0686364 -0.0444265 -0.00561867 -0.0426304 0.0801766 0.105059 -0.00906569 0.0156123 -0.0474376 0.0904873 0.0620649 0.0524093 0.106702 0.207516 0.199328 0.23032 0.198443 0.138746 0.0983081 -0.017182 -0.016146 -0.0435247 -0.100888 -0.152329 -0.0480928 -0.105507 0.019983 -0.0503952 0.041884 -0.0768227 -0.00654737 -0.0592281 0.0887331 0.0147278 0.0177296 -0.0745164 -0.0333833 -0.0582871 0.0664405 0.181764 0.251539 0.310385 0.295777 0.102214 0.0120624 0.0015182 -0.0268316 -0.0401578 0.0183193 -0.0024439 -0.0441434 -0.204018 -0.166668 -0.0894603 -0.0158474 -0.0280901 0.0537388 0.0563088 0.0532135 0.0620181 0.030287 0.0363788 -0.00771201 -0.0877499 -0.0563334 -0.081507 0.040339 0.157741 0.140418 0.288372 0.21644 -0.0263448 -0.0867702 -0.00367925 0.00992743 0.0688984 0.00899786 0.04018 0.00692121 -0.0689488 -0.140705 0.00331802 -0.0657801 -0.0136033 -0.0651176 -0.0587076 0.00924699 0.0598153 0.0124627 -0.152308 -0.065895 0.003167 0.0430227 0.0226651 -0.0149072 -0.154896 -0.0327971 0.13946 0.266515 0.0595867 -0.0707255 0.159394 0.069245 -0.0166725 0.035574 -0.0128231 -0.0184417 -0.191378 -0.0215456 0.0350576 -0.0563422 0.0496026 -0.0361238 0.0366966 -0.104142 0.0770886 -0.0122427 -0.0804091 -0.000883035 -0.0488518 -0.0615996 -0.289646 -0.30395 -0.389368 -0.453592 -0.0990581 0.226054 -0.0509952 0.0125023 0.060279 0.080835 0.179877 0.0462614 0.0656432 -0.112969 -0.0303689 0.0142333 0.0701594 -0.0143061 -0.0601954 -0.0756881 0.0120844 0.0458073 0.0133179 0.0332021 -0.0875918 -0.098764 -0.173168 -0.204376 -0.284737 -0.321489 -0.298471 -0.455053 -0.0721525 0.316321 0.174388 0.106004 0.190449 0.149479 0.1581 0.183153 -0.114422 -0.103896 -0.0628192 -0.0895568 -0.0554453 0.0739109 0.033459 0.038004 -0.00540913 -0.072528 0.0571734 -0.032777 -0.23823 -0.258145 -0.21109 -0.270058 -0.151763 -0.146926 -0.319753 -0.35187 -0.10109 0.341765 0.111006 0.0421571 0.0894241 0.103916 0.0821174 0.176589 -0.143037 -0.16595 -0.193179 -0.00989088 0.0673439 0.00382894 -0.0203837 0.00290203 -0.0686156 0.0415364 -0.0453904 -0.116653 -0.21602 -0.284641 -0.175732 -0.0765677 -0.144741 -0.174972 -0.36736 -0.229488 0.167232 0.247588 0.0449572 0.0936356 -0.00741807 0.0890504 0.0887748 -0.00827591 -0.150309 -0.27073 -0.319531 -0.122556 0.016306 0.0825354 0.000284712 0.000328011 0.0132494 -0.0628191 0.0728598 0.000543506 -0.0893601 -0.0949931 -0.0834168 -0.0628596 -0.105234 -0.217835 -0.237592 -0.156508 0.0947587 0.188727 0.0129107 0.105676 -0.0617273 0.029913 0.0640816 0.0443254 -0.122007 -0.168828 -0.198422 -0.0444574 -0.0168287 -0.0260414 -0.0597337 0.0761861 0.0494342 -0.020422 -0.0329686 0.0773231 -0.0358227 -0.0343463 -0.00416374 -0.134475 -0.167037 -0.075851 -0.103154 -0.204102 0.0557305 -0.00806269 0.119198 0.221634 0.086575 -0.000206628 -0.1 -0.0371324 0.0176745 -0.18864 -0.19773 0.0574162 0.123261 0.0149943 -0.0613761 0.0118792 0.0751653 0.0564511 0.0150575 0.162639 0.0603708 -0.0421281 -0.143434 -0.276484 -0.151717 -0.18891 -0.0486396 -0.0381907 0.0867362 0.0849468 -0.0465295 0.0428021 0.0311378 0.0331275 -0.0433168 0.0754284 0.0321926 -0.0691556 -0.110515 0.0960547 0.153731 0.0933328 -0.00533689 -0.0415666 -0.0640476 0.0153973 0.00363849 0.244473 0.00631628 0.0989878 -0.0777184 -0.134881 -0.207056 -0.148808 -0.15344 0.0401605 0.062327 0.0862323 0.0783412 0.0104845 -0.0374146 0.0555034 -0.0368037 -0.00235878 0.0598786 -0.0686939 0.0725548 -0.00325214 0.114875 0.0476112 0.0694065 0.0495722 -0.0296673 -0.0646904 0.0778803 0.161844 0.218116 0.0682791 -0.0901962 -0.111902 -0.149882 -0.0543894 -0.0835235 -0.0721837 -0.0608238 0.0451367 0.0814309 0.058078 0.143255 0.101399 0.0743358 0.0318904 0.0498408 -0.00844682 0.131133 0.098623 0.174811 -0.00478988 -0.0492675 -0.00772301 -0.0594988 -0.0510279 0.120577 0.222169 0.0803354 0.138916 0.062804 -0.00266977 0.0932185 0.0794804 -0.0674676 -0.099444 -0.0242188 0.0439939 0.0732181 0.0969684 0.0626397 0.179276 0.0856449 -0.0112624 0.067738 0.0479798 0.0697309 0.0679659 0.149282 0.0062213 0.0052745 0.0648646 0.00225463 0.051601 0.108912 0.115588 0.214801 0.0904294 0.121066 0.14469 0.118833 0.0125519 0.0717786 -0.0638586 -0.0459992 -0.0414232 0.00257821 0.0938585 -0.0301871 -0.0267491 -0.0123467 -0.0807744 0.00495386 -0.0204144 -0.0389762 0.0751008 0.047324 -0.0402969 0.0716205 0.0421341 -0.0595987 -0.0636051 0.121419 0.0908676 0.0997 0.143175 0.0776707 0.00995865 -0.029168 -0.0827542 -0.119582 -0.0847175 -0.134415 -0.000431793 -0.157149 0.0100835 -0.137192 -0.0231282 0.0365626 0.00837885 0.0291889 0.101159 0.0210409 0.046788 0.0141775 0.00148292 -0.0230888 0.000611598 0.00172948 0.0366424 -0.0351375 0.0503125 0.0722513 0.0563158 0.0839562 0.0259888 0.0411972 0.0198343 -0.100011 -0.208775 -0.1226 -0.0940527 -0.132051 -0.21172 -0.063169 0.0477673 0.0440648 0.0438727 -0.0722288 -0.0257715 0.0447614 0.0643427 -0.00683577 -0.0291171 -0.00338604 -0.0772138 0.0740029 -0.0437318 0.0687281 0.12002 0.0106639 0.114959 0.00864183 0.023062 -0.0202238 0.0137644 -0.0767696 -0.0646256 -0.137175 -0.197089 -0.210166 -0.121584 -0.0275604 0.0178867 0.0259002 0.012838 0.0208065 0.0972493 -0.0533724 0.0950697 -0.0651066 -0.0887583 -0.0279481 0.0180311 0.00129088 0.020254 -0.031581 0.0568214 0.0406724 -0.0241209 0.0163769 0.0552227 -0.087286 -0.170168 -0.0754991 -0.0331137 -0.13671 -0.127459 -0.103128 -0.0449463 0.0960298 -0.0319402 0.0892208 0.036443 -0.0117058 -0.0154492 0.00365132 0.0617843 0.0228134 0.0549248 0.0293522 0.00404737 -0.0695782 -0.0836547 0.0420814 -0.0322003 0.0879487 0.0550398 0.0946387 0.136706 0.0297533 0.0240099 0.00260134 0.0664418 0.146759 0.0873484 0.0241484 0.102452 -0.0312936 0.0386053 0.0172665 0.00458823 -0.0414523 0.0777053 0.0384941 -0.0194173 -0.0506499 0.032442 -0.0060239 -0.0698927 0.0777145 0.0472071 -0.00794827 -0.0716946 -0.0830607 0.0354456 -0.0606191 0.0760542 0.0435411 0.136876 0.140043 0.135342 0.139791 0.0312235 0.0457076 0.117447 0.136395 -0.00208535 0.0900003 0.078695 -0.0470171 0.0273418 0.00296809 0.0156962 0.0247401 0.039425 -0.0529419 0.0601352 0.0703391 -0.0101536 -0.0420972 -0.00990727 -0.0761872 0.0141787 0.0669818 0.0112239 -0.0422569 -0.01992 -0.0325795 0.0525723 -0.0770069 0.0246368 0.0247864 -0.0307611 0.0699723 0.0359036 -0.0393793 0.030771 -0.0263152 -0.00939958 -0.0034245 0.0744115 -0.0244299 0.0353315 0.0011304
0.00792157 0.0490621 0.0435641 -0.0471295 0.0347205 -0.0463239 0.0198501 0.0250579 0.0747873 0.0100431 0.00250122 -0.0268628 0.057789 -0.0315108 0.0396255 0.06141 0.0179697 0.0311582 0.0217313 -0.060868 0.0613572 -0.0896351 -0.0201674 -0.0853689 0.0525429 -0.0436109 -0.049226 -0.0785867 0.0561971 -0.0161591 0.00752559 0.0546973 0.0690598 0.0486881 -0.0758644 0.0501843 -0.0818941 -0.0442716 0.0137886 -0.0224319 -0.0168958 0.0678109 0.00453642 -0.0686168 0.0232653 -0.0779517 0.00597104 0.0679452 0.0677678 -0.0744563 0.0645477 0.0533649 0.0239946 -0.0549349 -0.00370616 -0.0157491 0.0452492 -0.0389797 0.025636 -0.0655126 -0.0527721 0.00425066 0.0293033 -0.053919 0.0382733 0.0422155 0.0592868 -0.0368683 0.0414843 -0.00785025 -0.0527112 -0.0596427 -0.0781171 -0.0713701 -0.0828437 0.0632675 0.0521446 -0.0182301 -0.0688931 0.0358461 0.0683909 -0.00808265 0.0538036 0.0471665 0.033891 -0.0909673 -0.0312386 0.050814 -0.0440767 0.0441537 0.0484077 -0.0600183 -0.0866241 -0.0445053 -0.0681347 0.0348984 0.0499011 0.0179037 0.0098655 -0.0768044 -0.0718998 -0.0849336 -0.0557466 -0.0615876 0.0573551 -0.0500745 0.0529752 -0.0612354 -0.0134288 0.027647 0.0214697 -0.0317755 0.000554265 -0.0838893 0.0473339 -0.0182964 0.0719757 0.0699876 0.0348155 0.0729994 -0.0232629 -0.00273079 -0.00731537 0.0826459 0.0414637 0.0041956 -0.0866225 0.00155214 -0.0287079 -0.0510648 0.0561918 -0.0535632 -0.0555196 -0.088468 -0.0509645 -0.04446 -0.0435732 -0.0153918 -0.0124761 0.00887147 -0.0245286 0.000374535 0.00244006 -0.00216876 -0.0439938 -0.0166949 -0.0502995 -0.0522464 0.106405 0.0313359 0.102091 0.0884821 -0.0382889 -0.0769155 -0.165216 -0.105301 -0.052492 -0.0652494 -0.0452384 0.0880298 -0.0442081 0.0200713 0.0556281 0.040193 0.0361883 0.0260164 0.0578689 0.0108197 -0.00982333 0.0578198 -0.00387154 -0.0351681 -0.0591703 -0.0374381 -0.0152884 0.0915917 0.146984 0.0685583 0.0313571 -0.0703389 0.0156941 -0.00842729 0.0789939 -0.0451883 0.0254998 -0.0716574 0.0524042 0.0731888 -0.0026021 -0.04156 -0.0275098 0.0583793 0.0290075 0.00962916 0.104962 -0.00850263 0.0187461 -0.0683856 0.0701145 -0.00592523 -0.0218197 0.037475 -0.0382758 0.142732 0.163631 -0.00845742 -0.000861526 0.0410714 0.117622 0.0313878 0.182906 0.0657771 0.027063 -0.0716079 0.00530989 0.0754732 0.0506813 0.0100606 -0.0143215 -0.0359438 0.0152883 0.0104883 0.00744699 -0.0595556 -0.00773509 0.0346653 0.0643881 0.0436023 -0.0378126 0.111034 -0.00798779 0.0539156 0.0233045 0.0505424 0.0674803 -0.0135345 0.0148383 0.0547123 0.0517298 -0.0432107 0.00197593 -0.103117 -0.100678 0.0293011 -0.0276891 0.0198818 0.00250054 0.000428555 0.0538542 0.0508501 0.103204 0.068848 0.00306357 -0.0172079 0.00627643 0.0497295 0.053373 0.0950628 0.0340162 0.0612801 -0.0211377 0.0697409 -0.0307202 0.00510808 -0.0326066 -0.0686518 -0.00828637 0.129232 0.0766933 0.00061093 -0.0375892 -0.0208091 0.000998836 -0.0561025 0.0478874 -0.0677062 0.11504 0.251859 0.0806232 0.0133386 -0.0553711 0.00463867 0.0742948 0.0208767 -0.023587 -0.0753591 -0.0576352 -0.0439627 0.0180129 -0.0766603 -0.0590363 -0.113003 -0.0819965 0.0575765 0.00962362 0.0920943 0.246361 0.0827548 -0.0297104 -0.0583284 0.0336241 -0.0306129 -0.078469 -0.0759573 0.0774611 0.0966679 -0.00222925 0.00222854 -0.0593555 -0.0121646 -0.0165745 -0.0195658 -0.0061551 -0.115474 -0.0951902 -0.000943574 0.0297759 0.0150653 -0.012553 0.0380527 0.121076 0.030769 0.140681 0.194765 0.168119 0.180836 0.0503107 -0.0364813 -0.0540171 -0.0472375 -0.111615 -0.151705 -0.0463496 0.0378497 0.051256 -0.0125126 -0.0506614 -0.0113414 0.0306157 0.0169986 -0.0336817 -0.0601565 -0.116305 -0.0640353 0.0491022 0.0174195 0.101051 0.102545 -0.0385113 -0.0107704 0.0477585 -0.0169698 0.0950054 0.0707393 0.0556135 0.0143914 -0.0868892 -0.1467 -0.29446 -0.257908 -0.185502 0.022513 -0.0170327 -0.0663325 -0.00721053 0.0501864 -0.079188 -0.0308939 -0.0843893 -0.141682 -0.0885661 -0.0755179 -0.0232581 0.0849213 0.00840459 0.0818319 -0.0960404 -0.0352111 -0.0744612 0.0336917 0.0730778 0.0659544 0.0154143 -0.0170186 -0.10676 -0.100286 -0.203557 -0.14794 -0.0846434 -0.0191862 -0.0179894 0.0462582 0.0485069 0.01414 0.0166399 -0.0658822 0.0356572 -0.012587 -0.169232 -0.0286237 0.0021007 -0.0275862 -0.00292812 -0.124719 -0.158235 -0.120682 -0.115329 0.0508924 0.185167 0.104669 0.00840805 0.00789992 -0.132299 -0.0287969 -0.0445988 -0.114368 -0.0613299 -0.021192 0.0575198 0.000495459 0.0565596 0.0288956 -0.063532 0.0450648 -0.109999 -0.177619 -0.133602 -0.215144 -0.219331 -0.152959 -0.18119 -0.184528 -0.0598189 0.013096 0.0261372 0.172493 0.0469277 -0.0227901 -0.0131548 0.0456306 0.00788285 0.0324308 0.0139101 -0.0980956 -0.0553043 -0.119715 -0.000290044 -0.0633911 -0.0301215 -0.0798118 -0.076911 -0.041924 -0.0482442 -0.0902745 -0.0772717 -0.220623 -0.230836 -0.339188 -0.344664 -0.272095 0.0791784 0.113626 0.214005 0.0963791 0.00199495 0.0127601 0.00396918 -0.0544711 -0.0381934 -0.0473132 -0.102142 0.0680664 -0.043523 -0.110427 -0.08158 -0.0243449 0.0563447 0.0388822 -0.0137048 -0.0172597 -0.0479783 -0.0329006 -0.0464317 -0.162766 -0.210338 -0.332778 -0.315945 -0.167433 0.129445 0.248044 0.112898 0.0489522 -0.00432703 0.0136753 0.0713117 0.00654445 0.00976612 -0.0642096 -0.0505251 -0.0198029 -0.0758958 -0.0223195 0.025495 0.0703731 0.0129504 -0.00228107 -0.0160135 0.0563366 0.0964669 -0.00544431 0.030151 -0.0640478 -0.0772574 -0.247021 -0.406682 -0.110344 0.31358 0.318272 0.201173 0.0871721 0.0533797 0.076388 0.164027 0.100104 -0.0129392 -0.0315351 -0.0233433 -0.0698191 0.0292263 0.0136189 -0.0736152 -0.0555891 -0.00470795 -0.0142046 -0.0639522 0.057797 -0.000650443 0.118996 -0.0169516 0.0146601 0.00322209 -0.301919 -0.358928 0.0444782 0.398255 0.25802 0.14257 0.0669472 0.0793712 0.123753 0.0234915 0.073455 -0.00472402 -0.0489409 -0.030898 -0.0139647 -0.0817679 -0.112954 0.037016 0.0284817 -0.000170695 -0.0101463 0.0337092 0.0656196 0.0990725 0.0035692 -0.0488195 -0.141916 -0.173026 -0.182749 -0.308258 -0.070824 0.249564 0.10866 0.146284 0.00555578 0.164327 0.112111 0.0769163 0.096966 0.0499975 0.0484404 -0.0426374 0.0426511 0.0546452 -0.00490074 -0.0558245 0.0524888 0.0522395 -0.0517885 0.0604369 0.0979608 0.0710682 -0.00472309 -0.137588 -0.174179 -0.100299 -0.237717 -0.258523 -0.1167 0.0735536 0.0780362 0.0827005 0.175317 0.126794 0.214275 0.100715 0.126977 -0.0154417 0.00692296 0.0742116 0.0595725 -0.0470447 -0.0353926 -0.019071 -0.0378169 0.0441713 0.0103561 0.0712889 0.0621022 0.0239193 -0.127853 -0.0992743 -0.268663 -0.109848 -0.133915 -0.121097 -0.22188 -0.140542 0.0514862 0.135371 0.0985014 0.0953464 0.165843 0.0215882 -0.00356368 0.0181657 0.0235447 -0.0138362 0.067702 -0.00216914 0.0209409 -0.079404 0.0177694 0.053956 0.0544931 -0.0446811 -0.0241089 0.0971459 0.0272898 -0.0241102 -0.0351704 -0.22617 -0.239603 -0.0480567 -0.0783602 -0.152163 -0.103031 0.0714543 0.0309798 0.137276 0.112865 0.0372023 0.0730636 -0.0156385 0.0353626 -0.0250566 0.0470784 -0.0578431 0.0274618 0.0494968 -0.00992118 0.0591105 0.0566111 0.0713907 -0.0549603 0.0195787 0.16044 0.129324 0.0747907 0.0191388 -0.0225619 -0.152135 -0.0164412 -0.0878288 -0.000265672 0.07651 0.0506166 0.104967 0.0479897 0.123019 0.00523702 0.00778237 0.0140363 0.103004 -0.0377303 -0.00290172 -0.000614859 -0.0351816 0.0585143 -0.062779 -0.002166 0.0209214 -0.0536704 0.0733485 -0.0434966 -0.019278 0.0936668 0.0397844 0.143086 0.13959 0.135068 0.0200639 0.156159 0.120216 0.00101974 0.110196 0.0272488 -0.0331114 -0.0261699 -0.0583929 -0.0769008 0.0703126 -0.0354715 0.0264307 -0.0598515 -0.0827688 0.0709356 -0.0171045 0.0767543 0.0664946 0.0197332 0.003971 -0.0774794 -0.0589438 -0.0422546 -0.0280145 0.0862622 0.0720598 -0.0488305 0.0643619 -0.0399006 -0.0200309 0.0885293 0.0322249 -0.0624259 -0.0134928 -0.0590339 0.0010722 -0.0301714 -0.0745647 0.0209005 -0.051017 0.00443 0.073394 -0.0446111 -0.0320583 0.061178 -0.0576535 -0.0469204 -0.0344808 -0.0268619 -0.00796279 0.0352053 0.0753652 0.00934428 -0.0877101 0.0594307 -0.0680197 -0.0803214 -0.0424918 0.050834 -0.0424483 -0.0531528 0.0775201 -0.0304912 0.0246365 0.0448069 -0.0244474 -0.0415297 -0.0481677 -0.0207014 -0.0352121 -0.0414111
