-0.0642255 0.0544415 0.0771491 -0.0497118 -0.0349307 0.0056218 -0.0552508 0.0812227 0.08183 0.0769501 0.0359222 0.0792258 -0.0682711 0.0488371 -0.0368208 -0.0863961 -0.0681293 0.0213205 0.0618075 -0.00176727 0.0481514 -0.0259184 -0.0512571 0.0283768 -0.0195664 0.0384343 -0.00667048 -0.0156055 -0.0577134 -0.0359916 0.0480413 -0.0335086 0.0607894 -0.062122 0.0812245 0.0538904 -0.0636989 0.0438008 -0.000352452 0.0309343 -0.0584738 -0.0474306 -0.0786786 -0.0747161 -0.0160467 -0.00750187 0.00092105 0.0559192 0.073173 0.0512832 0.0341879 -0.0865791 0.0333547 0.0220326 -0.00984709 0.0440781 0.010123 0.0615237 0.0498896 -0.0841199 0.0521325 0.0518065 0.0719794 -0.013176 -0.0130681 0.00317898 -0.0611516 0.0515479 -0.0317212 0.0531748 0.0784101 -0.0134144 -0.0272865 -0.074055 -0.0267625 0.0881224 0.0662583 0.0774049 0.0481663 0.0812624 -0.0763732 0.0470323 0.0136428 0.0371029 0.0307303 0.0281156 -0.020655 0.00829811 -0.0511049 0.0043504 -0.00681924 -0.00628685 0.020464 -0.0332104 0.0685358 -0.0617974 0.00622973 0.0187139 0.082601 0.0489659 0.113239 0.00491281 0.0933629 0.057726 -0.0423305 0.00858188 -0.0243568 0.00380006 0.0352587 0.0801018 0.0350154 0.0676001 -0.00145584 0.00749598 -0.00188614 -0.00880955 0.00605866 -0.00946811 0.0661781 0.0223704 -0.0180154 0.0718495 -0.0869696 0.0921916 0.00856764 0.0488123 0.0320196 0.1477 -0.0192098 0.0833291 0.110189 -0.0109706 0.137048 -0.00997508 -0.00145578 0.0740339 -0.0607924 0.023057 -0.0857457 0.0281949 0.00336774 -0.012793 -0.0533737 -0.0652934 -0.0313534 0.0266743 -0.088272 -0.051145 -0.00350467 0.0761044 0.0723192 0.049025 0.00298309 0.00948141 0.0197493 0.0673159 0.148545 0.0759229 0.00567105 0.00524136 0.130623 0.0248218 0.011196 0.0322435 -0.0312109 0.000712127 0.0752783 0.023391 0.0412937 -0.0133734 0.00671921 -0.0779158 -0.0475266 -0.0371102 0.0485704 0.0342109 -0.0259778 -0.0722253 -0.01237 -0.00518367 0.124656 0.0852044 0.160684 0.253254 0.127233 0.117583 0.0180176 0.0747244 0.0471818 0.0261238 0.0161567 -0.0320561 0.0754726 7.2224e-05 0.0432249 -0.0686785 -0.0204398 0.0604122 -0.0263757 0.0682086 -0.0109408 -0.0808447 -0.0744601 0.056033 0.0840777 -0.0126508 -0.0622166 0.003975 0.176371 0.093839 0.112254 -0.0152866 0.0893746 -0.0842912 0.00426887 -0.0641437 -0.0958141 -0.0780368 -0.00953401 -0.0573383 -0.0886843 0.0228829 0.0190338 0.0120658 0.0360606 -0.0268962 0.031092 0.036241 -0.0702187 -0.0825578 -0.0342623 -0.10057 0.0518977 -0.0165914 0.0669356 0.0344484 0.0926229 0.000852365 -0.0056302 -0.224175 -0.141611 -0.314568 -0.171001 -0.206934 -0.168585 -0.179369 -0.13902 -0.126824 0.0452927 -0.0579364 0.0167077 -0.0477835 -0.0549918 -0.0189326 -0.0151093 -0.0519481 -0.0357445 -0.00977311 -0.0596335 0.0586593 0.0755752 0.0662318 -0.074719 0.0452504 0.0225015 -0.122641 -0.245513 -0.325666 -0.234131 -0.303866 -0.239495 -0.287624 -0.25073 -0.173496 -0.202596 -0.127718 -0.0666102 0.0271784 -0.0711918 0.000235819 -0.0152838 0.0299375 -0.0372274 -0.0113666 -0.0424522 0.0496999 -0.0147498 0.0123634 0.0186127 0.00482557 -0.0705231 -0.0816758 -0.0531151 -0.0441022 -0.180142 -0.0513943 -0.133304 -0.0734198 -0.114809 -0.0734516 0.0143428 -0.0816959 -0.0327539 0.0218739 0.0175987 -0.0278379 -0.0701295 -0.0476271 0.0323428 -0.0537765 -0.00318791 0.0803165 -0.0508809 0.0253324 -0.0066298 -0.00883923 -0.0648148 -0.00263347 0.0479318 -0.0514257 0.0160386 0.0376001 -0.0482269 0.0184601 0.0692841 0.176669 0.173658 0.116128 -0.0459707 -0.0374927 0.0227598 -0.00864842 0.0779912 -0.0233066 -0.0527451 -0.00393961 -0.0540646 0.0601447 -0.0447805 0.0296664 0.0927371 0.021372 0.108414 -0.0439051 0.0542915 -0.0371797 0.00492578 -0.00816367 0.0141022 -0.0225775 -0.00965286 0.0148987 0.179206 0.0916947 0.211343 0.00547132 0.0024492 0.0506076 0.000992778 0.0550924 -0.076374 -0.0761016 -0.0726027 -0.0849844 -0.00976606 0.0211079 0.00586828 -0.00193152 -0.00398489 -0.00607361 -0.0147535 -0.00336879 -0.0312248 -0.0216047 0.0761313 0.0771911 -0.0656299 -0.0347667 -0.0800511 0.0829353 0.113001 -0.0261268 0.0238068 0.0903934 0.0319252 0.0281595 0.0486887 -0.0246612 0.0557276 -0.0496601 0.0543692 -0.0322784 -0.0317806 0.0250034 0.0143085 -0.0828301 0.035819 0.00193366 0.0202395 0.0150157 -0.0456981 -0.0265168 0.0739939 0.0811748 -0.0253193 -0.144449 -0.0237394 0.015595 -0.00688472 -0.0392811 0.029271 0.0649771 0.038897 0.0447459 -0.00119597 0.00193218 0.0183817 0.00992649 0.0221275 -0.0737549 -0.00935455 0.0312246 -0.0747216 -0.090525 -0.0169834 -0.0605059 -0.0412647 -0.0810216 -0.0747234 -0.0930746 0.051351 0.01705 -0.070569 -0.00114185 -0.0283634 0.0110535 -0.056809 0.00540122 0.014631 0.099243 0.151944 0.12317 -0.00588272 0.0686825 -0.0616217 -0.0133564 -0.00675429 -0.049933 0.0335544 0.0798068 0.0242079 -0.0519379 -0.0242203 -0.110285 -0.0802552 0.0272361 -0.0553797 -0.0492377 -0.0539101 0.0226183 0.0168254 0.0137266 0.00767773 0.0230681 -0.00280029 -0.0855861 0.0251403 0.0818163 0.0430854 0.0861579 0.0773337 -0.0589056 0.0621408 0.00792873 -0.0819568 0.0635145 0.0677939 0.0791667 0.0632181 0.0634709 0.0445696 -0.104747 -0.0124326 -0.161699 -0.0265438 0.00913381 0.00330598 -0.0443205 -0.0515331 0.086363 0.0198487 0.0242224 -0.0415846 -0.128658 0.000828709 0.040445 -0.00678776 -0.0244941 -0.0194839 -0.0163734 0.0729944 -0.0561539 0.0506682 -0.0307427 0.0394726 0.0537441 -0.0524682 0.0662105 0.0151413 0.0691289 0.018357 -0.113932 -0.0716541 -0.0982758 0.0410685 0.0208333 0.010743 0.0402737 -0.0195798 -0.0681457 -0.0315003 -0.0075875 -0.0497612 -0.010812 0.0114306 0.00695321 0.0462406 -0.0362688 0.0329109 0.0737754 0.0472431 0.0506204 -0.0249174 -0.0818524 0.0753262 0.0564076 0.0781686 -0.0508055 -0.0886572 -0.0305171 0.0301012 -0.00076044 0.00442879 0.0319342 -0.0629651 0.0308285 -0.115108 -0.103339 -0.00151195 -0.0441744 0.0766636 0.017239 0.0458522 0.00545004 0.0314236 -0.0604943 0.088398 0.0161931 -0.0626022 -0.075335 -0.00324106 0.0454487 -0.00811926 0.0688496 0.0525803 0.0952307 -0.0710614 0.0284541 0.0689819 -0.023464 0.0879264 -0.0560064 -0.0684443 -0.0218188 0.00442298 -0.0847992 0.0856909 0.0711395 0.0155821 -0.00897702 0.0194847 0.0600751 -0.0187911 0.0431929 0.100689 0.0231978 -0.0139037 -0.0823918 -0.073102 0.00276285 0.0444574 0.0430553 -0.0304287 -0.0184099 -0.000209958 0.0317394 0.0550343 -0.0243817 0.0189196 -0.049494 -0.0529835 -0.0981441 -0.0920712 0.0788873 0.0116745 -0.0223178 -0.0431933 -0.0349343 -0.0324142 -0.00330619 0.0729132 0.0028496 -0.0729806 -0.0377404 0.0740945 -0.058146 -0.0712361 -0.0407417 -0.0558095 0.0401768 0.0606804 0.0195826 -0.0173358 -0.00480425 -0.00438515 -0.0578318 0.0766776 -0.0842088 -0.0607468 0.019632 0.0250354 0.0264552 -0.0495161 0.0668943 0.0053342 -0.0923647 0.00822401 -0.042318 -0.0586796 0.0213691 -0.0973537 0.0536368 -0.00945208 -0.00493073 -0.075766 -0.0497165 0.0220582 0.0806567 0.0859299 0.0539724 -0.00219512 0.00898471 0.00586083 -0.0694891 0.049069 -0.0688997 -0.0326798 -0.0889647 -0.0597788 0.0566391 -0.00228482 0.0242416 -0.0671146 0.0348825 -0.0706669 0.0544209 -0.0179218 -0.00827995 -0.0411834 0.0273121 0.0551871 0.0740967 -0.0763538 0.0255212 -0.0573268 -0.0230753 -0.0526606 -0.0508791 -0.0352685 0.00841363 0.00305871 -0.0623337 -0.04087 -0.127623 0.0277978 -0.0167987 0.0284161 0.00837092 0.00815521 0.0298168 -0.0396537 -0.0489907 -0.0328354 -0.00806481 0.0732823 -0.0101972 0.0578827 -0.0244681 -0.0530514 -0.0828818 -0.0759367 0.027535 -0.0734636 -0.030531 -0.021284 0.0498331 -0.0566058 -0.0724836 -0.080199 -0.0345933 0.0324051 0.000953245 0.0840543 0.0210949 -0.0056212 0.0375217 0.117255 0.0661781 0.0173411 0.0422458 0.0885577 0.103885 0.0178398 -0.0103183 -0.0277157 -0.079858 0.0580504 -0.0565551 -0.0306645 -0.0140318 -0.0316578 -0.0443586 -0.0648891 -0.0718508 0.074323 -0.0397617 0.0109225 -0.0273499 -0.0331258 0.0473355 -0.0186663 -0.0424902 -0.0464222 0.0216824 0.111345 0.125961 0.0678472 0.0441208 0.0308784 0.0761888 0.0648756 -0.0825901 0.0352841 0.0130615 -0.0776211 0.0211534 -0.0369147 -0.00840056 0.0735978 0.00642111 -0.00181008 -0.0645886 0.0337659 0.0697315 0.0661115 0.0207902 -0.0289698 0.0254955 0.0247025 -0.0409945 0.0228892 -0.0133991 0.0536773 -0.0284884 0.0351504 0.0246957 -0.0462952 0.0663144 0.0140055 -0.0221123 0.0451313 -0.00323598 0.0629322 -0.0196938
-0.0355829 -0.04159 -0.0824786 -0.0157268 -0.0484652 0.0482414 0.0204857 0.0494259 0.00198419 -0.017504 0.0581918 -0.0610252 -0.0407096 0.00189801 -0.0609822 0.0832906 0.0405729 -0.0448347 0.0330593 -0.00661377 0.031275 0.0715312 0.0595541 -0.0467872 0.0786058 0.066192 0.0375535 0.0819381 -0.0109902 0.0593021 -0.0669011 0.031507 -0.0660442 0.0355067 -0.0466882 0.0487662 -0.0716313 -0.014944 -0.0479627 -0.0698016 -0.00194688 0.080576 -0.0489402 0.0715436 -0.0313248 0.0158498 0.060853 -0.0166554 -0.0817575 -0.0818449 -0.0500902 -0.016089 -0.0493943 0.0589598 0.0495416 -0.069635 -0.0332958 -0.0359998 0.0227332 0.0725166 -0.044843 -0.0345363 -0.0688504 -0.0274991 -0.0775506 0.0154594 0.0046494 -0.0321847 -0.00786022 0.0819468 0.0605292 0.0558511 -0.0688228 0.0146141 0.0490204 0.0834569 0.028154 0.0476513 0.0469721 0.0298065 0.00876781 0.0410786 0.0495421 0.000161398 0.0179923 0.0813375 -0.0694363 -0.0797171 -0.0205833 -0.069318 0.0456298 -0.00703924 -0.028121 -0.0556965 -0.00712758 -0.0339314 -0.098092 -0.0285639 -0.11372 -0.058921 -0.0980169 -0.0453754 -0.0952545 -0.0397795 0.0177215 0.0199167 -0.0652516 0.0665333 0.0813616 0.0603821 0.0814011 0.0635483 0.0565931 0.0731018 0.018767 0.0573753 0.0128601 0.0762753 -0.0556857 -0.0841561 0.0529735 0.0506704 0.0647493 0.0601173 0.0707025 0.070776 0.0176478 0.00502579 -0.0392561 -0.139418 -0.0388233 0.0457798 0.0080193 0.0282155 0.0723902 0.0657804 -0.0617519 0.0781773 0.049549 0.0239639 -0.0277136 0.0822715 0.00292432 0.0757155 0.022403 0.00695459 0.0970911 -0.0497667 0.0973053 -0.015059 0.0837817 0.087484 0.0865529 -0.0127079 -0.0700934 -0.0532431 -0.233109 -0.223749 -0.118221 0.0342971 0.0759919 0.0841778 0.0921079 0.0304922 0.0686373 -0.0348839 0.0241232 -0.0733392 0.0711953 -0.0649755 -0.0658891 -0.0138369 0.0422764 0.0169061 0.00213139 -0.0298736 0.0106925 -0.0321518 0.03247 0.00383343 0.0835501 0.126745 0.0866636 -0.126111 -0.281946 -0.391514 -0.233299 -0.0262678 0.149731 0.128177 0.130221 0.21414 0.110909 -0.041963 0.0662108 -0.00693524 0.0127206 -0.0231974 -0.0764099 0.00476636 -0.0238032 0.0498526 0.008192 0.0501406 0.0663808 -0.0298333 0.0628464 0.126664 0.117298 0.104779 -0.0109591 -0.11975 -0.226881 -0.309501 -0.0213162 0.17146 0.0714022 0.0747027 0.137964 0.0727983 0.094244 -0.00148166 0.0882064 -0.00212241 0.0318309 0.0751569 0.0137447 -0.0193115 -0.0461481 0.0741429 0.057868 -0.0394591 -0.0952147 -0.0569891 0.0663725 0.0276348 0.155514 0.137381 -0.0882213 -0.125749 -0.330972 -0.204981 0.0166225 0.116919 0.0149503 0.0257741 -0.0597642 0.102834 -0.0230634 0.112457 0.05894 -0.0068599 -0.0464355 -0.0657002 0.00819771 -0.00749502 -0.000555443 -0.0798412 -0.00551036 -0.0977182 -0.043838 0.0252039 -0.0439612 0.107085 0.126706 0.0940181 -0.0766722 -0.211654 -0.220286 -0.1468 0.053358 0.167974 0.107552 0.06797 0.0555773 -0.057463 0.0827377 -0.0738677 -0.0164881 -0.0611237 -0.00823346 -0.0815592 0.0550301 0.0467776 -0.0373028 -0.0607008 -0.0485329 -0.00934288 -0.0732292 -0.0381479 -0.0296694 0.0171321 -0.0279302 0.0814055 -0.0912342 -0.30133 -0.272527 0.0116662 0.174966 0.101669 -0.00217388 -0.0565678 0.000193363 -0.0748049 -0.0114867 0.0470282 0.0591206 -0.00180525 0.0207726 0.0698049 0.0222918 -0.0371767 -0.0421367 -0.0952477 0.045292 -0.0743356 0.043304 -0.0618926 -0.0791621 -0.0521163 0.0473316 0.103665 -0.0234148 -0.234888 -0.136641 0.0643588 0.148419 0.078275 -0.0189152 -0.0123184 0.0209404 -0.0287235 0.0219473 -0.0683867 0.0442721 0.0332442 0.0388581 0.0489585 0.0235258 0.0236996 -0.0916293 -0.0382015 -0.00727279 0.0134013 -0.0395544 -0.0561401 -0.0327134 0.0391508 0.0947756 0.222576 -0.0862043 -0.101337 -0.0645782 0.123375 0.108432 -0.0122805 0.035304 0.0993205 0.0451768 -0.0294885 0.0245371 0.00543804 -0.0175806 0.00307103 0.0132673 0.0252141 0.0160535 0.0376583 -0.000212517 -0.097676 -0.057688 -0.0356486 -0.10603 -0.0488439 0.0154903 0.0403723 0.098836 0.142082 -0.00308635 0.03009 -0.0863798 -0.00520441 0.0567762 0.0273548 0.0227618 0.0183612 -0.0145535 -0.0554355 -0.096325 -0.067364 0.0299914 -0.0627994 0.0276852 0.0532165 0.00552468 -0.0708903 0.0280654 0.0557049 -0.0430117 -0.0116253 -0.00269079 -0.0322317 -0.0230707 0.0951445 0.0488472 0.0293857 -0.0244738 0.0300985 -0.0127244 0.0381956 -0.0292511 0.135329 0.0145145 0.00701354 0.0450375 -0.0918223 -0.0125605 0.0339871 0.0758479 0.0509906 -0.0781006 0.0800049 -0.0248771 -0.0651444 0.00600552 0.071461 0.00769685 -0.0418831 -0.0174811 -0.0131035 0.0959567 0.0994412 0.129308 -0.0100786 0.00938152 -0.0625449 -0.0102172 0.0159072 0.000348507 -0.0571035 0.0227833 -0.0298599 0.000738328 -0.0358508 -0.00132993 -0.067527 0.0328857 0.0309542 0.00843698 0.0396924 0.0399358 0.0256191 -0.0227381 -0.102978 -0.0701726 -0.0107895 0.038158 0.0746362 -0.00332364 0.160943 0.10885 0.104502 -0.071792 0.0633278 -0.0155464 -0.0181925 -0.0868404 0.0146313 -0.0796596 -0.0490017 -0.03983 -0.0718389 -0.0942975 -0.0990801 -0.00216504 0.0788494 -0.0622316 0.0624059 0.0543097 -0.0107592 -0.0051226 -0.101936 0.033338 -0.00806759 0.0531265 0.0779697 -0.0136637 0.0472599 -0.0151583 -0.0151054 0.00591887 -0.0917902 -0.0181547 -0.00846299 -0.014416 0.0338256 -0.03451 0.0723749 0.0506042 -0.0147966 -0.0838454 -0.0292382 -0.0403632 -0.0605637 -0.0101681 0.0438865 -0.0858052 0.0760718 -0.0434382 0.0673907 0.00913414 0.0714916 0.0123361 0.0513585 0.0710134 0.0314574 0.0259098 -0.0684331 0.0191783 0.0406456 -0.0403357 0.0177386 0.0477212 -0.0751955 0.0452231 -0.0608345 0.0659345 0.0994841 -0.0477489 -0.0335966 0.0202184 0.0715587 -0.0784507 -0.0645797 -0.0624767 0.0388261 -0.0647636 -0.0598187 0.0936036 0.0575137 0.0399349 0.149704 -0.01747 0.00318601 -0.0420651 -0.0956898 -0.0341993 -0.00608806 0.0650295 -0.0373937 0.0215637 -0.0609937 0.0335682 -0.00828432 0.0304215 0.0571329 0.073558 -0.018798 0.074849 -0.00845276 0.0544513 -0.0228555 -0.0273168 -0.0338525 -0.0712026 0.027433 -0.0609786 0.0608958 0.117921 -0.0816529 0.0383139 -0.0349304 -0.0393945 -0.0731053 -0.0469533 -0.040664 -0.0621842 -0.0505793 -0.0872574 -0.041493 -0.0120121 -0.0148379 -0.0730349 0.0426208 0.062124 0.0588978 -0.0701586 0.00432141 -0.0674129 -0.0772822 -0.0624719 -0.0574506 0.0599014 -0.0250628 0.0907581 0.0816924 0.0920908 -0.0375751 0.00163725 0.00716247 -0.0251025 0.0302366 -0.097488 0.00150912 -0.022566 -0.020289 -0.098407 0.0590482 0.0634108 0.0477237 0.013514 -0.0485621 0.0705156 -0.044334 -0.0372156 0.0500739 -0.0724146 0.0377321 0.0230995 0.0610595 -0.0360919 0.0629781 0.0481456 0.0158344 0.0249216 -0.0107322 -0.0838177 -0.0255352 -0.00203405 0.0186659 0.016424 -0.0374932 0.0499609 -0.110838 0.0230717 -0.0367466 -0.00297987 0.0553678 -0.00364827 -0.0504093 0.00594642 0.0399226 -0.0327036 0.039867 0.0119604 0.0426461 -0.0451441 0.0583806 -0.0373219 -0.0395253 0.056457 0.115537 0.0209722 -0.0250379 0.123806 0.134742 0.0219794 0.0602823 0.0164358 0.0750995 0.00121608 0.0708897 -0.118833 0.0230394 0.0498061 -0.0648298 -0.0736525 -0.0771348 0.0219075 -0.0693104 -0.0166201 -0.0532915 0.0200619 0.0219557 -0.0364295 -0.0439637 -0.106984 -0.0631553 -0.00855339 0.0434979 -0.0854807 0.063357 0.0337014 0.0449672 0.100087 0.108047 0.0163351 -0.0208176 0.0512548 -0.0800403 -0.00534196 -0.014029 -0.101822 -0.0699884 -0.00121133 0.0328827 0.0418414 0.0391932 -0.0357858 -0.0799404 -0.0180132 0.00871868 -0.0252799 0.0582846 -0.0152095 0.0147654 0.0130915 -0.0433964 -0.0658969 -0.00293823 -0.0398827 0.0310795 -0.0269168 -0.0483858 0.0580701 0.022783 0.0484666 -0.00486998 -0.0360451 0.0261644 0.000937879 -0.0127051 0.0306531 0.00337288 0.0344961 -0.0619567 0.0331155 0.0390609 0.0317323 0.0303044 -0.00252313 -0.0730205 -0.0252348 0.00670316 -0.0899125 -0.0257852 -0.0195499 0.00605022 -0.00159577 0.0139662 0.0470863 -0.0817968 -0.077085 -0.0179944 -0.0404308 -0.0001773 0.0277201 -0.108057 0.0117846 0.0366845 0.0712416 0.0144315 -0.0796812 0.0592848 0.0185534 -0.0361204 -0.0292666 -0.081741 -0.000989806 -0.0541514 -0.0191507 0.00421535 0.081384 -0.0620234 0.056619 0.038507 -0.0225724 0.0233102 -0.0240677 -0.0350067 -0.00775936 0.0317699 -0.0626167 -0.0724212 0.0137454 -0.0042403 0.0512271 0.0818961 -0.0640586 0.0356625 -0.00233123 -0.064368 -0.0456029 -0.0107766
-0.0454831 -0.0592716 -0.0121281 -0.0633897 0.0164256 -0.0746293 0.0914777 0.0919303 0.0314877 0.0248673 0.045399 0.0540307 -0.0441695 -0.0605068 -0.0388841 -0.0123584 0.0418309 -0.0203366 0.0829351 0.0592856 0.0137031 0.0594367 -0.0576663 -0.0267031 -0.0133959 0.0476926 0.0572524 0.0563946 -0.00703603 0.0742554 0.0386878 -0.0715363 0.0706176 0.0208102 -0.0608941 0.0385005 0.0650104 0.00110774 0.0548228 -0.0227097 0.0489923 0.0211189 -0.0787892 -0.0257233 0.0367414 -0.039342 0.0122931 -0.0775976 0.010502 -0.00649858 0.00749281 0.0633585 0.00277604 -0.0220744 0.0673574 0.0859585 -0.0145414 -0.0206625 0.00720159 0.025015 0.0161525 -0.00426693 0.0150099 0.0118496 -0.0683873 -0.0410467 0.0646084 0.0640173 0.0200542 -0.0491517 -0.0627608 0.0237536 -0.0221997 0.0626151 0.0601283 -0.0595325 -0.0428553 0.00760726 -0.072922 0.0541769 -0.0632505 0.0352473 -0.0019417 0.0211452 -0.0220914 -0.0298535 -0.0729265 -0.0200639 0.0785625 -0.0441338 0.0633492 0.0199467 0.0692165 0.0171529 -0.0361273 0.113969 0.0934385 -0.0352066 0.0612957 -0.0380783 -0.146491 -0.110031 -0.104788 -0.0665041 -0.0831546 -0.000618238 -0.0114433 -0.0415969 0.0669979 0.062443 -0.0209239 -0.0644525 -0.00881033 -0.0254223 -0.000566783 -0.00725667 -0.017386 -0.0758521 -0.0610301 0.0295717 0.0334306 -0.00424247 0.0754344 0.101205 0.0943198 0.0183373 -0.0100698 -0.0150979 -0.0281897 -0.188341 -0.111479 -0.050186 -0.0563361 -0.0206664 -0.0602378 -0.0684274 -0.0262111 0.000882632 0.0458444 -0.0522459 -0.0608109 0.0163602 0.0058729 -0.0240322 0.0214797 0.0130608 -0.0253036 0.0137444 0.0815981 0.0309328 0.0479209 -0.00188698 0.0650332 0.190844 0.0514967 -0.00277395 -0.0698315 -0.111665 -0.0940289 -0.0388989 -0.00927431 -0.0274808 -0.10889 -0.0939161 0.0345856 -0.0294886 0.0827888 0.0285302 0.0748154 -0.0129341 0.0603698 0.0342665 -0.0376969 0.0507027 -0.0307605 -0.0493429 -0.0685953 0.0175441 -0.0591322 0.0411307 0.0942558 0.0910036 0.103562 0.0242482 0.0452813 0.000213183 0.0461438 -0.0475313 -0.0585908 -0.00295641 -0.0551249 -0.180735 -0.0749567 0.0125636 -0.0273846 0.0290575 0.0781926 0.087081 0.0454056 -0.0256511 0.0621704 0.0314612 0.0309369 -0.0391606 -0.0367872 0.0353282 0.0738652 0.0703602 0.0591021 0.182955 0.175229 0.137203 0.222211 0.0592594 -0.0550278 -0.120076 -0.0428529 -0.0421023 -0.049601 -0.0611058 -0.151806 -0.106646 0.019278 -0.0596756 -0.0623917 0.0612757 0.0379675 0.0590704 0.0955084 -0.0476214 0.0447979 0.0528513 0.0868983 0.0570274 -0.0025244 0.0228715 0.0898266 0.0446155 0.226384 0.194175 0.0815682 0.101092 0.0524121 -0.0383251 -0.101319 -0.0608039 -0.00993334 -0.0339386 -0.0245805 -0.115345 -0.0649366 0.0525902 -0.0739253 0.0479593 -0.0334197 0.0327871 0.000947972 0.103141 0.0972504 0.126925 -0.0150623 0.0904531 0.056871 0.0848186 -0.0167048 0.0853414 0.150744 0.153812 0.0424835 0.160055 0.00114924 0.111736 -0.120945 -0.186746 -0.0620984 -0.0412952 -0.08271 -0.0879776 -0.0352305 -0.0688062 0.0181662 0.0418288 -0.0431066 -0.0160283 0.0547645 0.0297679 0.0979023 -0.0117501 0.0756674 0.0387433 0.0674672 -0.0370755 -0.066466 0.00600917 -0.00757864 -0.0176789 -0.0554046 0.106934 0.106978 0.0888681 -0.0377406 -0.14408 -0.131789 -0.00611589 -0.111656 -0.0397115 -0.0231023 0.0892911 0.0502479 0.0460485 0.095094 0.0791623 0.00193407 0.034841 0.0712012 -0.0295146 0.0189712 -0.0261635 -0.0143277 -0.0531705 -0.0755817 -0.111198 -0.101048 -0.0650117 0.00796483 0.0976532 0.243936 0.152452 -0.0123072 -0.0782887 0.0365832 -0.0425128 0.0571555 -0.0153584 0.0437396 0.0928527 0.0640485 0.024329 -0.0612654 0.0499197 0.0949006 -0.010875 -0.0626896 0.0068164 -0.0557475 -0.0651165 -0.252733 -0.244755 -0.274986 -0.238378 0.0238437 0.00957884 0.0864711 0.209529 0.0640928 -0.023777 -0.0770959 0.00135495 -0.0711944 -0.00298526 0.0491111 0.102902 0.0863816 -0.00772642 0.0425497 0.0782541 -0.0540758 0.0721474 -0.0546123 -0.109917 -0.0395636 -0.0614699 -0.0492649 -0.176781 -0.151997 -0.213723 -0.251906 -0.139327 0.00674428 -0.0296518 0.0431133 0.114465 -0.0296456 -0.00677373 -0.0297922 -0.016729 -0.0851384 -0.0968747 -0.0183368 0.00426331 0.00940829 0.0729111 -0.00978677 -0.0305416 -0.000223574 -0.0365203 -0.0162643 -0.031937 -0.128358 -0.173334 -0.104642 -0.0474326 -0.0926116 -0.118642 -0.0251618 -0.0684333 0.0402458 0.00972599 0.109796 -0.0131859 0.0446531 -0.0532103 -0.0989143 -0.071344 -0.106938 -0.14629 -0.061756 0.0488362 0.039751 0.0104374 0.0330791 0.0907947 0.0150173 -0.0416063 -0.0111946 -0.0672453 -0.167415 -0.177037 -0.0473669 -0.0451757 -0.0669683 -0.0544139 -0.0334711 0.0849998 -0.00800044 0.04061 0.0500728 0.117175 -0.0191509 -0.156488 -0.0628503 -0.105148 -0.084023 -0.0374348 -0.0296537 0.0477804 -0.0411288 -0.0115118 -0.0410835 -0.0270384 -0.0207305 -0.0901062 -0.0788418 -0.114264 -0.094914 0.000455779 0.0339927 -0.0625821 0.0817153 0.0991064 -0.0187985 -0.00881698 -0.0806193 -0.0439581 0.0204462 0.0580205 -0.154277 -0.0917205 -0.082162 -0.117184 -0.049795 -0.0319227 0.0249766 0.101751 -0.0506683 0.0605416 0.0871426 -0.0396453 0.0782186 0.0594793 -0.0677809 -0.0156881 -0.115555 0.00215672 0.0705524 0.123549 0.169076 0.0198114 0.0814719 -0.0172449 -0.0291631 -0.0411993 0.0315416 -0.0336036 -0.0860546 -0.150379 -0.15018 -0.122653 -0.0171341 -0.0452241 0.0174986 0.0450117 0.0260665 0.0234657 -0.0593425 -0.0210894 0.0770334 -0.0161368 0.04212 -0.0477778 -0.122008 -0.123985 -0.0148 -0.0280761 -0.0084818 0.0473138 -0.0734728 -0.00632207 0.0445381 -0.0732678 0.013413 -0.0106141 -0.0240479 -0.0764129 -0.121355 -0.100168 0.0221577 -0.0276432 0.0154681 -0.0431111 0.0405683 0.0922616 -0.029291 -0.0225964 0.062218 -0.012482 0.0237823 -0.137712 -0.0874765 -0.112385 -0.0875366 0.0314183 0.0983614 0.0155111 -0.0228163 -0.0092483 -0.0250901 -0.0037498 -0.105647 0.013077 0.00415664 -0.014265 -0.0108444 -0.100857 -0.0146859 0.0731185 0.0327024 0.0382461 0.0299685 -0.0326223 0.0786708 -0.0664864 -0.0708861 0.0500033 0.0374121 -0.028454 -0.117349 -0.0060907 -0.00349373 0.0208771 -0.0167011 0.0532283 0.0727002 -0.0325264 0.048316 -0.0148363 -0.0333947 -0.0881877 -0.0796227 0.00742253 0.00789984 0.0247922 0.0090266 -0.0783404 0.0268727 0.0433697 0.0879243 -0.0237312 -0.0305827 -0.00789253 0.0494556 0.0768726 -0.0116076 -0.119517 0.0107484 -0.00958485 -0.0160193 0.046392 0.0807992 -0.0580698 -0.071482 -0.00641565 0.0456491 0.0568416 0.0424167 -0.0565212 -0.055925 -0.0040518 0.00342568 0.025128 0.0473908 0.10203 -0.0245787 -0.0544998 0.0317981 -0.00547055 0.000678286 -0.0701399 -0.03743 0.0669974 0.062842 -0.0329389 -0.0288791 -0.0819438 0.0666263 0.000755807 -0.0230227 0.0232724 0.015642 0.0335693 0.0121822 -0.0437567 -0.0424466 -0.115246 -0.0567577 0.0263092 -0.0162966 -0.102858 0.05437 -0.0239834 -0.0291943 0.0778538 -0.024858 -0.0550482 -0.0119914 -0.0250657 0.0436177 0.0643309 -0.000121129 -0.0778579 -0.125619 -0.00834692 -0.00687248 0.00791354 0.0984414 0.0190561 0.122306 0.135053 -0.0296108 0.0914312 -0.0826692 0.00120548 -0.00731212 -0.0112498 -0.00359808 -0.00400349 0.0613531 0.100924 -0.0510694 0.0706446 0.0228032 0.00144216 0.0477858 0.0556208 0.022415 0.0789777 -0.0562109 0.00726964 -0.109939 -0.0949048 -0.128413 -0.148285 -0.145884 -0.0427097 -0.0149071 0.00129911 0.0495648 -0.0249371 -0.0355097 0.0209944 0.0633092 -0.0215923 -0.0334595 0.0477768 0.0906081 1.27085e-05 0.0887334 0.0328372 0.000911678 0.0149624 -0.0475998 0.0852966 0.069695 -0.0642637 0.0530087 0.099048 -0.0405922 0.0427341 0.00353435 0.0598769 -0.00755727 -0.00909166 0.0136436 0.0222078 0.0380046 0.0849177 0.0380285 0.138361 0.149092 0.131579 0.150885 0.105857 -0.0396864 0.0703689 -0.0715753 0.0356434 -0.0269038 0.0397851 0.0179839 -0.0617536 0.0624357 -0.0327774 -0.0349779 -0.0173175 -0.00213105 -0.0328515 0.0445697 0.0570342 0.171118 0.100534 0.0522315 0.10895 0.106879 0.0475597 0.048079 0.154817 0.166899 0.015361 0.0523793 0.0283298 0.0663693 -0.0372033 -0.026242 -0.0128064 -0.0383426 -0.041443 -0.0173052 -0.0393576 0.0361841 0.0594346 0.00708686 -0.0743331 0.0219395 0.0677323 -0.0729642 0.034511 0.0802784 -0.00390464 -0.0339267 -0.0518557 0.00281214 -0.0294254 0.0583166 0.0862558 -0.02629 0.0853508 -0.0459595 0.086269 -0.0325372 0.0443846 -0.0609705 0.0252783 -0.0193436 -0.0613686
0.0177066 -0.0166261 0.0718099 0.030268 -0.0523116 0.0633711 0.0582327 0.0852064 0.0407709 0.0701037 0.0640485 -0.0285527 -0.0607223 0.0705374 0.0652943 -0.0321595 0.0641843 0.0106733 -0.0493817 -0.00588801 0.0440702 0.0569158 -0.0321881 -0.05151 0.0214167 0.00609571 -0.0688494 0.0716178 -0.0598614 -0.0548466 0.0270934 0.0159835 -0.0730535 0.0848214 0.0767019 -0.082088 0.0257108 0.071833 -0.0782824 -0.0675784 -0.0658816 0.0676764 0.0595845 0.0639084 0.00276962 -0.079327 0.0150281 -0.0364551 -0.0123392 0.0505435 0.0430264 -0.0649629 -0.0396973 -0.0515892 0.00412837 -0.0430949 -0.013158 -0.0227543 -0.00697767 0.0515212 -0.0392894 0.0484932 0.0539735 0.0748661 0.022298 0.0522349 0.0505828 -0.0393848 -0.02246 -0.031433 -0.00328027 0.0267616 -0.0543432 -0.0304077 -0.000410991 0.0483962 0.0225146 -0.00317495 -0.0181783 0.0618854 0.00601199 0.0542522 -0.0655939 0.0279083 0.0676357 0.0189946 0.0298753 -0.0619391 0.00922344 0.0150858 0.0369749 -0.0518852 -0.0079423 -0.04637 -0.0670516 -0.0384063 -0.0326653 -0.0852483 -0.0546377 -0.103039 0.0194076 -0.00420362 -0.0687019 -0.0405861 -0.07347 0.0218712 -0.0433606 0.0621974 0.0334593 -0.0424036 -0.0164064 -0.0740358 -0.00818554 -0.0188825 0.0740612 0.0845529 0.0605788 -0.0860135 -0.0113362 -0.0116644 -0.105373 -0.0175703 -0.0699115 -0.10815 -0.0533315 -0.00652183 -0.0946734 0.0279818 -0.00213282 -0.0293178 0.0902908 -0.0167405 0.137999 0.0164124 0.0120858 0.0624516 0.0570036 -0.0442361 -0.0523411 0.00750231 -0.0462193 -0.0103256 -0.0715428 0.0134654 -0.0290689 -0.0331409 -0.0644761 -0.00993804 -0.00659376 -0.0101962 -0.0773972 -0.0611235 -0.0745048 -0.00374283 -0.0361538 -0.131933 -0.103626 -0.0610003 -0.0366538 0.075765 0.10864 0.102337 0.129138 0.0809102 0.0733976 0.0674316 -0.0484038 0.0788738 -0.0814957 0.0177868 0.0709253 -0.046859 -0.0703367 -0.0271762 -0.149014 -0.152189 -0.029293 -0.10841 -0.203997 -0.0199778 -0.0638423 -0.162859 -0.0845053 0.0301875 -0.0430664 -0.0169831 -0.0634323 -0.0853576 0.05831 0.0454181 0.118338 0.0418374 0.0256034 0.0208433 0.0905265 0.0151586 -0.0388951 -0.0398042 0.0648422 -0.0844576 -0.0725343 -0.113746 0.0201461 -0.0958953 -0.0425848 -0.0631563 -0.112323 -0.09793 0.137962 -0.00517269 0.0321214 0.0531757 0.0581197 -0.0189977 0.110192 -0.038659 -0.047469 0.0485841 0.0148033 0.0266812 0.143212 0.0491941 -0.025399 0.00605034 0.00947707 -0.0624719 0.0792811 0.0227418 -0.0561784 -0.0638871 -0.0259136 -0.0425248 0.00375306 -0.0890987 0.00638312 0.0191232 -0.012167 0.0182089 -0.0661395 -0.120802 -0.232464 -0.113346 -0.0418017 0.033673 -0.0356861 -0.104894 0.0397666 0.163144 0.12886 0.0973103 0.118449 -0.0701759 -0.0637801 0.0119828 0.0523805 0.0305269 -0.0652378 -0.061793 -0.0861762 0.00129576 -0.0307222 -0.161493 -0.0299388 0.0141378 0.0605124 -0.114213 -0.0763299 -0.2192 -0.277481 -0.166991 -0.112303 -0.109344 -0.200315 -0.060117 -0.0200998 0.016712 0.0310098 0.107157 -0.00960288 0.0706688 0.0820905 0.00639582 0.0185693 0.020847 0.0685932 0.0194562 -0.089934 -0.12448 -0.114714 0.000788261 0.0399404 0.0716664 0.0771526 -0.127232 -0.111399 -0.0282182 -0.079779 -0.0885091 -0.193025 -0.130369 -0.219554 -0.0682771 -0.102139 0.0820753 0.0136457 0.0842579 0.0380317 -0.0131179 0.0569139 0.0306256 0.0811085 0.0497361 0.00999232 -0.0374381 -0.0392101 -0.0890953 -0.0444982 0.0598392 -0.0301112 0.0228452 -0.0206369 -0.100725 -0.164625 -0.158824 -0.0205343 -0.150967 -0.167251 -0.157523 -0.224531 -0.0820229 -0.051949 -0.0761718 -0.0434941 0.0722996 0.0122234 -0.0681088 0.041642 -0.0485708 0.0794496 0.0586788 0.0428861 -0.10724 -0.0843524 0.0111234 0.0468442 0.0581008 0.121439 0.0352513 0.0404048 -0.0882697 -0.0977583 -0.0547188 -0.11247 -0.152751 -0.210169 -0.129655 -0.0751368 -0.00841107 -0.152152 -0.105538 -0.121536 0.0533444 -0.0820794 -0.0791578 0.0442608 0.0322184 -0.0432349 0.0188068 -0.00593203 0.033887 0.0236391 0.0740959 -0.0164725 -0.00534459 0.10773 -0.0199641 -0.0992462 -0.138487 0.0085591 0.000106331 -0.0732407 -0.0419464 -0.238166 -0.163142 -0.0039944 0.0343463 0.0154594 -0.0930198 -0.183111 0.0320422 -0.072571 -0.0840065 -0.0772678 -0.0346438 0.027415 0.0206758 -0.0231171 -0.0602428 0.0482631 -0.060584 -0.0528953 0.0241525 0.0757469 0.021319 0.019759 -0.0353953 0.0296198 -0.0337879 -0.108215 -0.0671134 -0.130992 0.0392523 0.00197076 -0.159624 -0.0750656 -0.115201 -0.124742 -0.0450995 0.0551028 0.00742757 -0.0651899 -0.0231884 -0.0533897 0.057119 -0.0321736 -0.0460107 -0.102265 -0.0108431 -0.0328509 -0.0348309 0.000347087 0.0751799 0.0590123 0.0326938 0.0501661 -0.0215369 0.0190929 -0.0826472 -0.135769 -0.0601567 -0.193978 -0.143544 0.00708598 -0.0694538 -0.0833434 -0.0125384 -0.0718925 0.0690617 -0.0550518 0.0439676 -0.0476603 -0.0908605 0.0479984 -0.0976595 -0.125851 -0.0636668 0.0144551 -0.060924 -0.0672243 -0.0926027 -0.054452 -0.125042 0.036532 -0.0693304 -0.0548481 -0.00940978 -0.191568 -0.187222 -0.187133 0.0255739 -0.0871293 -0.107569 -0.00930065 0.0158267 -0.0125212 -0.0168414 -0.0395839 0.060896 -0.025168 -0.0284686 -0.00909505 -0.043725 -0.0182118 -0.0958818 -0.0238622 -0.0635509 -0.0272827 -0.18863 -0.209686 -0.129642 0.0309948 0.000347008 0.0665176 0.00713258 -0.058803 -0.132805 -0.172175 0.00731529 -0.144007 -0.140033 -0.0937438 -0.0734964 -0.050634 0.0682649 0.0174577 -0.00669342 0.0640283 -0.0872988 0.0372439 0.0304364 0.0308781 0.0294427 -0.110725 -0.00344527 -0.113198 -0.146614 -0.108181 -0.106473 -0.0946543 -0.0791278 -0.0263587 0.0366769 -0.0210552 -0.045086 -0.0475746 -0.070262 -0.186226 -0.0790984 0.0289744 0.0456213 -0.0565261 0.0842625 0.0755884 -0.0461663 0.0657104 -0.0605545 -0.132562 0.0218358 -0.0775832 -0.0490638 -0.0230068 -0.0759335 -0.134642 -0.151904 -0.196307 -0.0960118 -0.166972 -0.0664711 -0.0721671 0.0552004 -0.0907807 -0.102592 -0.123667 -0.153821 -0.149347 -0.115391 -0.0405442 0.0699822 -0.0193482 -0.0142263 0.00552596 0.0742378 0.0446152 -0.108161 -0.110671 -0.0638641 -0.148243 -0.0707326 -0.114066 -0.118392 -0.0401312 -0.0838103 -0.0667644 -0.068444 -0.109588 0.013692 0.0310365 -0.00234688 -0.180425 -0.0463329 -0.0283893 -0.129497 -0.125077 0.0139138 -0.00759739 -0.0110612 -0.0348355 -0.0483188 -0.0562795 0.0671151 -0.0407798 0.043778 -0.000833889 0.0210885 -0.0341814 -0.0133127 -0.130164 0.0742409 0.0343273 -0.0788166 -0.0370285 -0.0549609 0.0438916 0.179496 0.026795 -0.055024 -0.105547 -0.0339935 -0.057193 0.0111689 -0.0241059 -0.00554146 0.0296861 -0.0736315 0.0339297 0.0269804 -0.0455461 0.0549896 0.0446692 0.0247794 -0.0991387 0.0139376 -0.0195345 -0.145198 -0.0823727 -0.0170819 0.0859019 -0.0600826 0.0281561 -0.0766395 -0.0218433 -0.0381102 -0.0666542 -0.0114772 -0.0684728 -0.105015 -0.103712 -0.12434 0.0379342 -0.0673966 0.0532739 0.0601549 0.0608137 0.0701681 0.0647154 0.0697473 0.0338293 0.0300799 0.0296692 -0.000209604 -0.00813323 -0.0914863 0.00963208 0.0106396 0.116761 0.0508722 0.15918 -8.43854e-05 0.0419897 0.0202598 0.0878698 -0.0265033 -0.132387 -0.120047 0.0192792 -0.0922954 0.0039045 -0.0433666 -0.022734 -0.073166 -0.0490761 -0.0460495 -0.0130383 0.0405399 -0.0840643 0.0473402 0.0051066 -0.0534358 -0.0684039 -0.0694854 -0.0721534 0.0290498 -0.0607363 0.0728497 0.113652 0.0811306 -0.00892969 0.0659745 -0.08054 0.0296986 0.0497344 0.0787713 0.0359879 -0.0401043 -0.0538149 -0.0623429 0.031705 -0.0581512 -0.072684 -0.082404 0.0628591 0.0522407 -0.0717073 0.00921044 0.0534985 -0.0617629 0.0387566 -0.0990189 -0.128916 -0.0660398 -0.122291 -0.0759582 -0.0585246 -0.0286629 -0.0282903 -0.0396371 0.0866623 0.042886 -0.0361703 0.0516446 0.00850565 -0.0271765 -0.0532664 0.0728725 0.0803627 -0.00465833 0.00457989 -0.00733734 -0.0793414 -0.0627634 -0.062214 0.0426096 0.0833924 0.0842896 0.0471579 0.0208373 0.0783296 0.072701 -0.0772318 -0.0327082 -0.0535905 0.0180687 0.0861659 0.0327924 -0.053213 0.0299547 -0.0711698 0.0699569 -0.0356368 0.0377633 0.0152667 0.0723908 -0.0558046 0.0772257 0.0748373 0.0715302 -0.0178185 0.0532552 -0.0469127 0.0780812 -0.0542881 -0.0198126 -0.0406056 0.0794052 -0.0181666 -0.0283521 0.0750441 -0.0790993 -0.0763997 -0.0667559 0.0749518 -0.0243761 -0.0431789 0.0291045 -0.016721 -0.0741979 0.0490532 -0.0589518 -0.051013 -0.0594383 0.0635005 -0.0360266 -0.0650275 0.0402037
0.0545477 0.0417511 0.0559356 -0.00801841 0.00633407 -0.0645965 -0.0137648 0.0427109 0.0500548 -0.0364895 0.0399954 0.00455307 -0.0054379 -0.0311419 0.072705 0.000408409 0.00671807 -0.00272364 0.0375159 0.0813212 0.0229121 0.018064 0.0171298 0.00916493 0.0406713 -0.0576991 -0.0514328 -0.0593137 0.0517934 0.0727135 0.059181 -0.0233953 -0.00742287 -0.0124437 0.0856742 -0.000308633 0.0141268 -0.0676122 0.00782837 0.0757021 -0.0177074 0.0750305 0.0796262 -0.0672096 -0.0563774 0.000271055 0.0674495 -0.0469548 -0.0211602 0.00244031 0.0656523 0.0869052 0.0562117 -0.0422633 0.0302469 -0.00311526 0.057304 0.0121214 0.041682 -0.0550531 -0.0246948 -0.0688093 0.000140846 -0.0116961 -0.0405884 -0.02314 0.0204423 -0.0321589 0.0334914 0.0297277 0.0102898 0.000243487 0.0171911 -0.0480282 0.0836519 0.00713749 -0.071826 -0.0510588 -0.0529175 0.0680006 0.0518212 0.0377536 0.0311646 -0.0757499 -0.0496793 -0.0150951 0.0571676 -0.0798728 0.00965378 0.0861831 0.0496696 0.0772938 -0.0107711 0.0793542 0.074795 0.00839868 0.135415 0.0727972 0.0217129 -0.0267249 -0.00289508 -0.00822679 0.0113978 0.00163286 0.0746831 0.016667 -0.0613546 -0.067266 0.0386107 0.0158815 -0.0132263 0.0734431 -0.0332165 -0.040705 -0.0220223 0.0038819 -0.0642985 0.0375557 0.0287143 0.0389202 0.0772996 0.00202897 0.0731727 0.0706905 0.0973143 -0.0363903 0.0221186 0.0191137 0.0572612 -0.00495879 0.0315109 -0.0582644 -0.0402645 0.0726112 -0.0137453 0.0110154 0.00628611 0.0390686 -0.0239884 0.0486291 -0.0110645 0.0363548 0.0384787 -0.0329749 -0.0046716 0.0326249 0.0341859 0.0818518 -0.0158562 0.0175204 -0.0301777 -0.0112943 0.0429215 -0.0349459 -0.077946 -0.0794259 -0.00115004 -0.0970641 -0.0202402 -0.0037014 -0.0635833 0.00106259 -0.015058 0.0209351 0.0267689 0.0130886 -0.0044493 -0.0656837 -0.00296619 0.0715251 -0.0452515 -0.0518256 0.0132508 0.0101687 -0.0158303 -0.0880038 -0.115184 0.0272548 0.0187782 -0.0315526 -0.0133356 0.00394596 -0.0926309 -0.0301977 -0.118955 -0.089787 0.00963978 -0.059975 -0.00425848 -0.106022 -0.000724502 -0.0503868 0.0478822 -0.0644716 0.0105973 0.000161237 -0.0125112 0.0697177 -0.0258392 0.0264127 0.0179078 -0.0919783 -0.00485399 0.0017707 -0.0842434 0.0144218 -0.0456916 0.0325563 0.00607443 0.0242276 -0.0308325 0.115036 0.0524377 0.0331327 -0.0272819 -0.000915389 -0.0246579 0.0224018 -0.0901556 -0.0783494 0.0364218 -0.0206315 -0.0699089 0.0521056 -0.0224143 0.0468222 0.0212516 0.023402 0.0402798 -0.063561 0.0100801 -0.0551861 -0.0133595 -0.013073 -0.0339853 0.00271805 -0.103558 0.0527463 0.0037041 -0.067097 -0.148226 -0.109881 0.0240876 0.000140009 -0.113696 -0.000983442 -0.0913781 -0.0769961 -0.10768 0.0341673 -0.034963 -0.018414 -0.0700702 -0.0435196 -0.0617854 -0.0190225 0.0909348 0.0204977 -0.0454765 0.0069914 0.0158819 -0.0193327 -0.0473192 -0.106435 -0.0521258 -0.0519475 0.048962 -0.00101457 0.00577454 -0.0373852 0.00426595 -0.099433 -0.0121403 -0.0491281 -0.163669 -0.124436 -0.0879951 -0.0155133 0.0355846 0.0517713 -0.0554952 0.0513157 -0.0469943 0.0817017 0.0705166 0.00222031 -0.0758818 0.0244476 0.0690999 -0.04328 -0.1162 -0.121887 -0.219748 -0.0371504 -0.0489804 -0.0234684 0.0953803 0.0938724 0.0669813 -0.0772425 -0.0346778 -0.130961 -0.0205851 -0.0838349 -0.131122 -0.1186 -0.0147361 -0.0622186 0.00787377 0.0442391 -0.0695751 -0.0495922 -0.067793 -0.0574571 0.0249169 0.0340002 -0.0292497 -0.050233 -0.0868298 -0.0956035 -0.0198296 -0.0392808 0.103551 0.0376176 -0.0271342 0.0804607 -0.0360429 -0.0570562 -0.0292006 0.0330976 0.00109337 -0.0716826 -0.0149753 0.0346761 -0.0871583 -0.0271668 -0.0289794 -0.0263595 0.0118385 0.0606397 -0.0593515 -0.0633553 -0.00757193 -0.0452091 -0.085854 -0.0243553 -0.0116109 -0.0179975 -0.0789846 0.0245811 0.129513 0.113043 0.0111888 0.0605763 -0.0772302 0.0166112 -0.0425081 -0.104245 -0.119066 0.0580802 0.00871728 -0.039811 -0.0213226 -0.0582255 -0.0222875 -0.0371413 0.00510412 -0.0419771 -0.0273031 -0.080674 -0.0316503 -0.054725 -0.0247182 -0.0200342 -0.0279736 -0.0319865 0.0257634 0.0384733 0.189258 0.0958424 0.0852454 -0.0982963 -0.0182134 -0.115726 -0.0866275 0.0253076 -0.0027759 -0.0281654 -0.0212697 -0.00977475 -0.0750451 -0.0170291 -0.0260106 -0.0585848 -0.00552517 0.0330077 -0.0411392 -0.0155737 -0.053522 0.0297872 -0.0283286 0.0222429 -0.0714185 0.0154823 -0.0394972 0.213129 0.168443 0.0917768 0.168804 -0.0126713 -0.0876361 -0.115252 -0.145885 -0.127059 -0.0956034 -0.0158427 -0.0174104 -0.0358388 0.0595714 0.0537854 -0.000445043 0.0146616 0.0299292 -0.0981273 -0.0302323 -0.0224613 0.0120489 0.026419 -0.0515642 -0.0754675 -0.105131 -0.0476244 -0.0238683 0.159282 0.177628 0.0218721 0.0226246 -0.163902 -0.19949 -0.170483 -0.124169 -0.0374104 -0.105056 -0.135115 -0.0197857 -0.00399794 -0.00592756 0.0722654 -0.0131611 -0.0536072 -0.0644593 0.0420398 0.00494363 -0.0870718 0.00178916 -0.0432592 0.0194327 -0.0212235 -0.0785895 -0.0264181 0.0428195 0.0505038 0.0358751 -0.0807701 -0.0616433 -0.174078 -0.0403496 -0.0562152 -0.0706956 -0.111345 -0.0307655 -0.0374284 -0.0520832 0.00858346 0.0373593 -0.0674665 -0.0410131 0.0752317 -0.0411968 0.00446471 0.0126021 -0.127417 -0.145464 0.0304783 0.045395 -0.0525928 -0.0864122 -0.0470951 -0.0749721 -0.0129744 -0.0171071 -0.0633628 -0.0563139 0.0119225 -0.0340209 -0.138427 -0.0665142 -0.00678012 -0.0878085 0.0253882 -0.0473584 -0.0252983 0.0767284 -0.0176097 -0.07869 0.0392046 0.0312938 0.0626265 0.0548907 -0.0127057 -0.0863166 -0.147609 -0.0585892 -0.102509 -0.117267 -0.192615 -0.0528062 0.0345488 -0.0521468 -0.0660926 0.0398823 0.0424168 0.0401836 -0.00735561 -0.0712552 -0.00544817 0.0326331 -0.0592946 -0.089912 0.00459516 0.00366717 -0.0212369 -0.0175271 -0.0553086 -0.0494034 -0.027779 -0.0391994 0.0477048 -0.0447564 -0.0931741 -0.160886 -0.0713297 -0.138723 -0.0903381 -0.0324768 -0.0654623 0.0338757 0.00300099 -0.00931252 0.0133544 0.0440719 0.0464859 -0.0568517 -0.101866 -0.0381445 -0.00558978 0.0384389 0.0434803 0.00877738 0.0188287 0.026334 0.060923 -0.0267776 -0.0464191 -0.0692143 0.0478252 -0.0351947 -0.0957194 -0.132074 0.0227703 0.00270088 -0.0686789 -0.166965 -0.0626465 0.127593 0.0262741 0.132417 0.129968 0.0455109 0.0660957 0.0707878 0.0328844 0.0302337 -0.0571944 -0.0502737 -0.0217314 0.0648811 0.0808306 -0.068406 0.0425076 0.0681548 -0.00892879 0.0156636 -0.00627429 -0.0151928 0.0110891 -0.0475113 0.037316 -0.0251761 -0.0133203 -0.0530443 0.00422013 0.0351154 0.0406792 0.0880512 -0.00612741 0.0110698 0.0109179 0.0536008 -0.0429693 -0.00739851 0.0109802 -0.00930622 -0.0431292 -0.070372 -0.0761267 0.0391685 0.0307158 0.017348 -0.0331631 -0.000457552 -0.0351823 -0.100641 -0.080616 -0.0460792 -0.0726875 -0.0285426 0.0426448 -0.0254383 -0.102774 0.053939 0.0872881 0.0854874 -0.0348946 0.0813827 -0.0236224 0.0221961 -0.0975585 -0.0835697 -0.0917677 -0.0527319 -0.01777 0.020519 -0.066257 0.012881 -0.0797529 -0.0246994 0.0377329 -0.0649521 0.0422681 -0.0460731 0.00711948 -0.027051 -0.0820535 0.00594849 0.00192147 0.00275225 -0.0736192 -0.0190587 -0.0594 -0.0292337 0.057307 0.0586659 -0.0414032 -0.0129383 0.0331364 -0.0378116 -0.0644496 0.0320342 -0.0716439 0.0480262 -0.0451471 0.0835719 -0.0470843 0.0455363 0.0644449 0.0764044 0.0721701 -0.0087224 0.0364967 0.0136913 0.0228642 -0.0771534 -0.044748 -0.123601 -0.0776682 0.00808892 -0.056049 0.0278288 0.0984174 -0.058853 0.0435492 0.0272988 0.0658628 0.0884095 -0.0254308 0.0343117 0.0728821 0.0390083 0.0329123 0.0370945 0.069417 -0.00470184 -0.0509199 0.0796812 -0.0761152 -0.062323 0.03225 0.0680224 0.0212282 0.06725 0.0819677 0.0645355 -0.0348655 -0.0313151 -0.0273008 0.0360663 0.0952838 0.0328628 0.133591 -0.00829997 -0.0558225 -0.0179786 0.0266124 0.00235739 0.0352953 0.078215 -0.0195027 -0.0492359 0.0698803 -0.0587801 0.0176129 0.0883827 0.0169765 -0.0538781 0.00404876 0.0492035 0.0955465 -0.0112431 0.108433 0.0219075 0.108933 0.0775049 -0.0358651 -0.0157894 0.134069 -0.0131985 -0.0103061 0.0160882 0.0334643 0.02583 -0.0497058 -0.0653973 -0.0486195 0.0273167 0.0772354 -0.0664192 -0.0576157 -0.0650045 0.0225471 -0.0517427 0.0615143 0.0212247 0.045301 0.0454504 0.00674403 -0.0262698 0.0651144 -0.0747059 0.0245039 0.00164768 0.08495 -0.010547 0.0391518 0.0762241 0.0815162 0.0437854 -0.0279281 0.00209504 -0.0760859 -0.0371311 -0.0295087 0.0607243 0.0513204
0.0126355 0.023161 0.0468427 0.0398594 0.023022 0.0361182 0.0734412 -0.0496388 -0.0076795 0.0366033 0.0298421 0.0106771 -0.0720395 -0.0453073 -0.0575647 -0.0453712 -0.026521 -0.00457319 0.0589438 0.0632976 0.0151519 -0.083374 0.011924 0.0696797 0.0757861 0.0104168 -0.0601697 -0.0859648 -0.0782013 0.0536448 0.046071 0.056898 0.0621269 -0.0105344 -0.055297 -0.0448608 0.0607896 0.0315574 -0.0153438 0.0149014 -0.0413408 -0.0444622 -0.0101264 -0.031287 -0.0524162 0.0234599 0.0488795 -0.0518319 -0.0148394 -0.066953 0.0211938 0.0159028 -0.0248205 -0.054708 0.013199 -0.0035102 -0.0532528 -0.0389142 -0.00915662 0.0141893 0.0278542 0.0578851 -0.0832126 -0.0441718 0.0196585 -0.0884193 0.0117819 -0.0514563 -0.0921954 0.00939798 -0.0793922 -0.0839633 0.0440514 0.0194918 0.000271929 0.0383479 -0.0440859 0.00842186 -0.0772192 0.0291345 -0.0858571 -0.0816693 -0.0319068 0.0525202 0.0560073 0.0731903 -0.0418744 0.0715268 -0.0717284 -0.0477086 0.00542209 0.0428448 0.00452503 -0.0792198 0.0257467 -0.0719223 0.00732877 0.00126038 0.0401595 0.0924908 -0.0140033 0.0195161 -0.0415259 0.0310185 0.0425012 0.0199798 -0.0280603 -0.0635885 0.0316941 0.0765416 0.0576053 -0.0455957 0.0750014 0.0763247 0.00683531 -0.0542096 -0.0158854 -0.0443847 0.055696 0.0719498 -0.0262647 -0.00240601 0.055174 0.00692655 -0.000878982 -0.0787469 -0.0338005 0.0652024 0.00903655 -0.0798567 -0.107998 -0.0436363 0.0024419 0.0253569 -0.00050906 0.0358414 0.00444646 0.0437682 -0.0511759 -0.076951 0.0538387 0.0365864 0.0405368 -0.0837441 -0.0929142 0.0216049 0.035119 0.0133253 -0.0742214 0.0707338 0.0477002 -0.0152022 0.0460707 -0.0362486 -0.0285034 -0.0693298 -0.165688 -0.0777944 -0.134393 -0.11265 -0.0930436 0.00855892 0.0703881 -0.0503978 0.0637091 -0.0486726 -0.0829974 0.0172964 0.022402 0.0623683 -0.0656119 0.0365551 -0.0376233 -0.0842667 -0.0222585 0.0128172 0.0631622 0.0606808 0.0683843 -0.0499461 -0.0239107 -0.0367176 -0.0064229 -0.066818 -0.120909 -0.0353545 0.0344846 0.0574615 0.0263644 0.01724 0.0204715 0.0906583 -0.0389352 -0.0251018 0.0164644 0.0687151 -0.0297016 -0.0613284 -0.0651579 -0.0929314 -0.0184459 -0.0567587 -0.0672758 0.00907243 -0.0175318 0.0367501 0.0767543 -0.0423699 -0.103945 0.0065526 0.133001 0.0485343 0.08014 -0.0104136 -0.00546196 0.0654343 -0.0228064 0.000955719 0.048318 0.106994 0.120284 -0.0506319 0.0565681 0.0716256 -0.0815814 0.0185901 0.0439656 -0.0492312 0.0443775 0.0427864 0.0102426 -0.018188 0.0338951 0.0814666 -0.0630721 -0.0400143 -0.0371449 -0.0215085 0.089212 0.0762993 0.0946689 0.00705727 0.0966261 0.0539643 0.0819759 0.0466835 -0.00509128 -0.0200622 0.0975973 0.0832156 0.00806185 0.0133943 -0.000796154 -0.0332332 0.0720324 -0.0783276 -0.00375776 0.0641186 0.0499367 0.107705 0.0648309 -0.00541116 -0.0800678 -0.120163 -0.0528838 -0.0350145 -0.0458991 0.0708709 -0.00430465 0.105884 0.0661208 0.0824759 -0.0184376 0.0238946 -0.0522288 0.00469922 0.104805 0.0152921 -0.054246 -0.00567795 0.0386738 -0.0296373 -0.0371566 -0.0857818 0.0671645 -0.0447742 0.117775 0.101362 0.166698 0.153017 0.0073905 -0.0196272 -0.196642 -0.131285 -0.00152828 0.0773895 -0.0307718 -0.0823613 -0.019621 -0.0321918 -0.041354 0.0524258 0.115642 0.0901699 0.0230877 0.0749987 -0.0397844 -0.0810095 0.068564 0.0543729 0.0710274 -0.0705668 -0.0762817 0.0457774 0.0918728 0.0485732 0.0891912 0.122644 0.181691 -0.0339216 -0.135838 -0.194083 -0.131036 -0.109509 -0.122306 -0.214241 -0.16462 -0.116956 -0.144265 -0.0308282 -0.0399105 0.102312 0.0548427 0.101809 0.0873863 0.000593128 -0.080005 -0.0896236 0.0705745 -0.0443481 -0.0524334 -0.018988 0.0182788 0.00369215 0.141616 0.204361 0.025749 0.0906479 0.0930782 -0.0394228 -0.00256722 -0.131561 -0.00902576 -0.0982038 -0.00844769 0.0429409 -0.0551117 -0.0421509 0.0467679 -0.0457083 0.0299277 -0.0670658 -0.0631063 0.066345 -0.0428311 -0.0791104 0.00964697 0.0145755 -0.0846111 -0.0162982 0.0553069 0.0876653 0.00327833 0.126312 0.199309 0.174292 0.0332531 0.0649911 -0.0390488 -0.0148789 -0.00920046 -0.0103139 -0.000825367 -0.00555694 -0.0144505 0.0605771 0.0836794 -0.0256937 -0.102745 -0.0487288 0.00204249 -0.00690255 -0.00582028 0.0565726 -0.0292424 -0.100542 -0.0794285 -0.0597404 0.052622 -0.0314196 -0.0165065 0.0479492 0.153701 0.201322 0.149541 0.0425158 -0.0850971 0.00224386 -0.0468349 0.0253772 0.0530095 0.0527559 0.00694596 0.0596465 -0.0872246 -0.0738143 -0.0538762 0.0614968 -0.0604898 0.00669676 0.0322977 -0.0867492 -0.0757814 -0.0727463 -0.064605 -0.0127222 -0.00604296 0.00446399 -0.0317002 0.102714 0.104147 0.145091 0.0941151 -0.0393636 -0.0168274 0.056047 0.0638854 0.0172802 0.0202358 0.0515628 -0.0118999 -0.110921 -0.0655018 -0.014227 0.0434665 -7.95396e-05 0.0353591 0.0375073 -0.0236961 0.0239866 -0.00709945 0.0150529 -0.067699 0.0460545 -0.0425195 -0.0473526 -0.00691943 0.0817559 0.152624 -0.0380356 -0.00459783 -0.0301676 0.0200546 0.0502196 0.0597291 0.0971145 -0.0413399 -0.0120553 -0.00461639 0.0231797 -0.0201901 -0.0463571 0.0387517 0.043231 -0.00169309 -0.0527261 0.0377233 0.0321951 0.0377626 -0.0669613 -0.0143148 -0.0438425 -0.038832 -0.0164684 0.0238085 0.0767713 0.0307411 -0.0236877 -0.0977344 0.0694621 0.0441955 0.00519145 -0.0748338 -0.0427651 -0.0866087 -0.0532359 -0.108342 -0.0444705 0.0442613 -0.091923 -0.0125488 0.0241155 0.0322257 0.0727368 -0.0147256 -0.00443306 0.0225959 0.0650208 0.0189635 0.0366026 0.0752726 0.13615 0.0304397 -0.0448103 -0.0273716 -0.0984946 0.088923 0.154814 -0.0537851 0.0117133 -0.15448 -0.0786235 -0.0227206 -0.0833319 0.00750337 -0.0788804 -0.00920436 0.114941 -0.0375969 -0.0731781 0.0190485 -0.0883338 0.00767556 -0.0584577 0.00372526 0.0382938 -0.0962597 0.102455 0.124698 -0.0408261 0.0309857 -0.139888 -0.107906 -0.0733632 0.035194 0.0350827 0.049344 0.0596208 -0.0631997 -0.120609 0.00149796 -0.0710561 -0.0450568 -0.096498 0.0357043 -0.010257 0.0176067 -0.0162131 0.0575809 0.0203682 -0.0705391 -0.00164802 0.0387577 0.0144423 -0.106286 0.107394 -0.0345833 0.0373507 0.0635521 -0.135982 -0.119722 0.0799687 -0.0387972 -0.00394786 -0.0409545 0.101575 0.0089576 -0.0559708 -0.100732 -0.0141738 -0.0316554 0.0166833 0.143853 0.122091 0.0223508 0.0702046 -0.0886986 0.0509745 0.00518012 -0.0843824 0.0455499 -0.088305 0.00598991 -0.0459556 0.0261205 0.194324 -0.0505853 0.0161151 -0.00448117 0.0366354 0.0637881 0.0381866 0.0653724 0.105485 -0.121011 0.0262298 0.022833 -0.0348871 0.0795538 0.0405064 0.00437585 -0.02243 -0.00604753 -0.094798 -0.0445854 -0.0559605 -0.0342488 0.0404362 0.0263508 -0.0698166 -0.0578706 0.0339641 0.0238548 0.119255 0.102668 -0.0202536 0.0576687 -0.0662408 -0.0365881 -0.0471962 -0.0155154 -0.0281455 -0.071428 -0.0374859 0.0532756 0.0222213 -0.0123619 0.00336412 0.0985277 0.0556634 0.0127462 -0.0862132 0.0777791 0.00694536 0.0213455 -0.0148002 -0.00964915 0.0683978 0.0126278 -0.0575789 -0.00862048 0.0485845 0.120876 0.0371357 -0.0648614 0.0191569 -0.0723424 -0.00431018 -0.0661681 -0.0576571 -0.0391643 0.0512674 -0.00471709 0.00704269 0.0363739 0.0528973 0.0224223 0.00931554 -0.0566217 0.0658179 -0.0188377 -0.0212577 -0.0411519 -0.0181153 0.0664697 0.00291249 0.0499766 -0.0775545 -0.0235277 -0.0347068 0.0551683 0.0517683 -0.0109149 -0.00465676 0.0115461 0.0540431 0.0462235 0.0509132 0.0715697 0.0209062 -0.0136916 0.0635339 0.0319524 0.0162889 -0.0225384 0.0390065 -0.0268315 -0.0215553 0.0707098 0.0433187 -0.011033 -0.00621647 -0.0287806 0.000683849 -0.0329494 -0.0399524 -0.0496399 0.0492416 -0.0881761 0.0252801 0.0468828 0.0251104 0.0182377 -0.0179099 -0.0390388 0.00458199 0.0127415 0.0280365 0.0265493 0.0787138 -0.0532371 0.0572124 -0.0647477 0.0191497 -0.0180175 -0.0129849 0.00222985 0.0515955 -0.0856762 -0.0795415 -0.00240532 -0.0101552 0.0075535 0.0342498 0.0550322 -0.0487828 -0.00930122 -0.0257128 -0.0766567 -0.00847486 -0.00783559 -0.102119 -0.000284748 -0.0411101 -0.0814286 -0.00679538 -0.0623304 0.0160649 -0.0114933 0.0545598 -0.0286074 -0.0123854 -0.0621214 -0.0738587 -0.0137868 0.066215 0.0740826 -0.0902685 -0.0438946 -0.0710839 0.0257371 -0.083437 0.0649503 0.0545265 0.051845 -0.0132015 -0.0215052 -0.0365711 0.00481417 -0.0819018 0.00467607 0.0136393 -0.0815391 -0.0604101 -0.0730117 0.0311109 -0.0067201 -0.0625447 -0.0107157 0.0445157 -0.00793718 -0.0233899 0.0270322 -0.0830896
-0.039002 0.04563 -0.0625071 -0.0116322 -0.0067363 0.0719727 0.0183365 -0.0546341 0.0747307 0.0199408 0.0070203 -0.0804586 0.0281412 -0.0362836 -0.0339173 0.0840193 0.0115929 -0.0763884 0.00687962 -0.0100483 -0.00109931 0.0098479 -0.0530755 0.0779972 -0.0650873 -0.0124205 0.0484614 0.0130872 0.0476242 -0.0150922 0.07294 0.00520156 0.0126563 -0.0414553 0.0370536 -0.061164 -0.0547475 -0.0219563 0.0133818 0.0267029 0.0715362 0.0624373 0.0215344 0.0408955 -0.0172406 0.0593892 0.0151232 0.0432505 -0.0808136 0.0579996 0.0063428 0.00238684 -0.00258477 -0.0737777 -0.0391218 -0.0473242 -0.0798313 -0.0425474 -0.0453994 -0.0720433 0.0600478 0.0627413 0.0440701 -0.0415831 -0.0392934 -0.0388795 0.085435 -0.000798131 -0.0527455 -0.0649956 -0.0326695 -0.000556328 0.0565095 -0.0559 -0.0754551 0.0595654 0.0330361 -0.0145365 -0.063052 -0.0825198 -0.0196565 0.0163107 -0.0334943 0.0359184 0.0590894 -0.0818937 0.00254464 -0.0615521 0.0630346 0.0688289 0.0806384 -0.0505235 -0.0412429 0.0644042 0.0222208 -0.0433798 0.00909255 0.0738402 0.051367 0.00516047 -0.0887514 -0.0217677 0.0493143 -0.0643522 0.0114376 0.0795012 -0.0650462 -0.0204608 0.0273153 0.0482426 -0.0498747 0.0809199 -0.00380328 0.0513739 -0.0409005 -0.0629548 -0.0428299 0.0292323 -0.0356919 -0.0526998 0.052107 0.0413611 0.0765101 0.0339466 -0.0237967 -0.0636818 0.0137583 -0.0155711 -0.0415806 -0.0254859 -0.00221386 0.00888628 -0.0416206 0.0363689 0.0593931 -0.00176235 -0.0431547 0.0381721 -0.0675074 -0.0326737 0.00670647 -0.0203485 0.0770819 -0.044542 0.0587082 -0.00957585 -0.0457683 -0.0175721 -0.00808846 0.0252478 0.00668545 0.0658118 0.104596 0.0136055 0.0438486 -0.00494 0.0611886 -0.0455911 -0.0978308 0.0346971 -0.0484335 -0.00172157 -0.0412782 0.0779914 -0.046833 0.0892279 0.0457758 -0.0828468 0.0227532 0.0744625 -0.0327678 -0.00865836 -0.0852702 0.0291454 -0.0194996 0.0521324 0.0304629 0.107839 0.135885 0.158702 0.143692 0.0927849 0.0196038 0.132856 0.0920727 -0.0427224 0.0309273 0.00224529 -0.0459224 0.0651283 0.0242209 0.0165486 -0.0357279 -0.0308257 -0.0505303 -0.0791306 -0.0554606 0.0128755 -0.00206262 -0.0129532 0.0364577 -0.00428511 0.0733377 -0.0297737 -0.0101126 0.110934 -0.00599293 0.143716 0.0210073 0.0608777 0.0648851 0.0465299 -0.0583357 -0.0754864 0.0398905 0.0409635 -0.101934 0.0663789 0.00742067 -0.0704801 -0.0554277 -0.0618497 0.062109 0.0707775 0.0461563 -0.0207301 -0.0568965 -0.00391078 0.0388342 -0.0681895 -0.0209879 -0.0597191 0.075288 0.0110139 0.0151824 0.0220745 -0.0837873 0.0474436 0.0210936 0.0140419 -0.0753894 0.00603385 -0.0483262 -0.12024 -0.0246208 0.00964945 0.0220072 -0.00834669 0.0527772 -0.0354301 -0.019244 -0.0660608 -0.0820122 -0.0302706 0.05271 -0.00613244 0.0190975 0.0330067 0.0334163 -0.0201768 -0.0475308 0.0299305 -0.03279 -0.0998907 -0.0154374 0.00460799 -0.0350655 0.151934 0.00836043 -0.0959542 -0.0842764 0.00833452 -0.0624781 0.0252284 0.0343274 0.0141733 0.0642333 -0.0686901 -0.00908504 0.0198814 0.0149297 0.0544143 0.0733494 0.0578877 0.0375154 0.0358645 0.0608471 0.00605704 -0.0387554 0.0119501 0.0442882 0.0561265 0.0528582 0.0417389 0.103681 0.154729 -0.0641402 0.0228897 -0.00101238 0.00657467 -0.0561095 -0.0834293 -0.0507061 0.0566954 -0.0061113 0.0391254 -0.0536346 0.0298592 -0.0154302 0.0407853 -0.0484777 -0.0707283 -0.0572274 0.0141319 -0.100724 -0.0411409 0.0180428 0.0771107 0.105369 0.181545 0.211011 0.17697 0.168472 -0.0841227 -0.0870814 -0.0865393 0.0148476 -0.0907802 -0.00812117 -0.000486758 -0.000908953 -0.029815 -0.0392434 -0.0710752 -0.045765 0.0371305 -0.0746405 -0.0236523 -0.0162799 -0.01007 0.00596231 -0.0101969 0.0267901 -0.0298888 -0.0246747 -0.0255925 0.144735 0.0752788 0.0594412 0.0111081 -0.0773398 -0.0944691 -0.00913417 -0.0445272 -0.0036224 -0.0119022 -0.031797 0.0989498 0.0239561 0.0360753 -0.0523778 -0.0193739 0.0337295 -0.000724102 -0.0363872 0.079897 0.0216614 0.0337338 0.0476165 -0.131171 -0.15669 -0.155063 0.00618045 -0.0502594 -0.133542 -0.0161187 -0.136919 -0.116978 0.00403651 -0.11016 -0.0575659 -0.068778 0.0574905 0.0307971 0.0938829 0.0547141 0.0361146 -0.0124513 0.0143117 -0.0656692 -0.0116675 -0.0766784 0.0265255 -0.00835282 -0.00161623 -0.0408121 -0.0204224 -0.0387099 -0.0718247 -0.179157 -0.200389 -0.169393 -0.234782 -0.121598 -0.0732962 -0.0512614 -0.115537 -0.118113 -0.0370536 -0.0640117 0.0826777 0.00895996 -0.0281969 0.0133302 -0.015329 -0.0761213 0.0945966 -0.026227 0.0918922 0.00139021 0.0509133 -0.0621787 -0.0193977 0.0507188 -0.0695735 -0.0609614 -0.0788745 -0.181389 -0.139199 -0.122525 -0.214086 -0.0927246 -0.106706 -0.110458 -0.0879243 -0.140038 -0.00291331 -0.0852596 -0.0399824 0.00206522 0.0629219 0.0383067 -0.083616 0.0609724 0.0169127 -0.0509369 0.0465475 0.0247805 -0.0596329 0.0282623 0.0575589 -0.0406194 -0.0870573 -0.0778775 0.00548099 -0.0591306 -0.0267002 0.0389177 0.0518876 -0.117536 -0.0173211 0.0159094 0.0283972 -0.118317 -0.121589 -0.00782062 -0.0613983 -0.0722625 -0.0369317 -0.0408492 -0.0703529 -0.0400574 0.0586632 0.0521858 -0.0489879 0.00326288 -0.0679859 -0.0590643 0.0638402 0.0849615 -0.03297 -0.0243628 0.00539001 -0.0616522 -0.0539636 -0.0401926 0.0325907 0.00830736 0.0296993 0.0524951 0.00398443 -0.0456261 -0.107698 -0.155237 -0.0387015 0.0234631 0.00419082 -0.0862149 0.00067522 -0.0777424 0.0723069 -0.0107461 -0.0320868 0.0204162 0.00790701 0.00727986 0.0655639 0.0855785 0.0212179 0.10618 0.0330109 -0.0104302 0.0134304 0.0854061 0.0148139 0.168507 0.0406222 0.0239962 0.0436326 -0.035779 0.0169653 -0.066709 -0.0967898 -0.00334638 -0.0839015 0.0236681 -0.119361 0.0590068 0.0431408 0.0433918 -0.0574534 0.029874 -0.0160414 0.0857071 0.0699142 0.0576157 -0.0637322 -0.0167776 0.0228236 0.11341 0.0927426 0.091636 0.0582375 -0.0297308 0.0103154 0.13659 0.0239922 0.0817787 -0.021707 0.0922707 -0.0641226 -0.0741712 -0.0528342 0.0048178 0.0130847 -0.0715391 0.089763 0.0243797 -0.0183245 -0.0454011 -0.0765472 0.0265985 0.0351911 0.0873462 0.092241 0.0944853 0.0941983 0.0168509 0.0641052 0.0475825 0.00599957 0.0841239 -0.0859209 -0.0249607 0.114102 0.104448 0.0305315 0.0789475 -0.0192345 0.0887696 0.0153826 -0.0529691 -0.07432 0.0720437 0.0505988 -0.0671256 -0.0764283 0.0204888 0.0116699 0.0227906 0.041657 -0.0439496 0.00871343 0.0427992 0.0266432 -0.00405998 0.0781776 0.0382867 -0.0219878 0.0512187 -0.0244818 0.0468756 0.0261877 0.0354077 -0.00284592 0.0985133 0.0749345 0.0161128 -0.0709219 0.0212426 -0.0458625 0.0687828 0.0389368 -0.0303723 -0.0265714 -0.0627473 -0.0590178 -0.0595137 0.0280458 -0.036972 0.049868 0.0210652 0.00906915 0.0815064 0.0381334 -0.00500948 0.0412108 0.0914136 0.0152454 0.0801824 -0.00940606 0.00959736 0.0927889 0.00985192 0.0472125 0.0657877 -0.0276622 0.0843429 -0.0754359 -0.0679281 -0.0302888 -0.061345 0.00320702 -0.0284231 0.0639594 -0.0679569 -0.0648491 -0.0581889 -0.0530152 0.046195 -0.0931996 -0.0151741 -0.000494854 -0.0224257 0.0481167 -0.00132719 0.070937 0.0729933 -0.0402225 0.000510417 0.0893372 0.0362688 0.134601 -0.00592591 -0.0012949 0.0717215 0.0846616 0.0480735 0.0400135 -0.0691973 -0.0615729 0.070466 -0.00689313 0.0457916 0.0563271 -0.0617725 0.0249989 -0.00860939 -0.0331674 0.0666311 -0.0363947 0.00323933 0.0426544 0.0166227 0.0673164 0.0388733 -0.00830566 0.0041571 0.0119047 0.0530962 0.00647734 0.0957975 -0.0353472 0.0183755 0.0456962 0.0459083 0.00940325 -0.0589216 -0.0202866 0.0343684 -0.0645337 -0.000844139 -0.0811373 -0.0709282 -0.00104632 0.0390155 0.0689386 0.089933 0.0223796 0.0586009 0.0397686 0.0108642 0.0574365 -0.0524753 0.0643044 0.0858993 0.0564371 0.0585308 0.0531109 0.0548724 -0.02544 0.0608206 -0.0677073 0.0722439 -0.0551859 0.0770826 0.00778103 0.0518949 -0.0757041 0.0322586 -0.0119171 0.0626484 -0.024687 -0.0427196 -0.0615978 -0.0833151 0.00998462 0.0106794 -0.0779607 0.0152159 0.0636103 0.0568481 0.00388116 0.0278883 -0.0600263 0.00415813 -0.0510592 0.0178642 0.00530135 0.0215366 -0.0312476 -0.0275574 -0.0217746 -0.0257441 -0.0260609 0.083243 0.0210886 0.0491203 0.0858514 0.0280762 0.0538329 -0.0577035 0.0420625 0.0504788 0.00925719 0.0795942 -0.00382985 0.000419137 -0.047108 0.0803241 -0.0111327 -0.0170966 -0.0759652 -0.0776863 -0.0282965 0.0203517 0.0809448 0.0537819 -0.040688 -0.0529485 0.0109105 0.0819486 0.0239991 -0.0229694
0.0584024 -0.0152526 -0.0284384 0.0747145 -0.00589631 -0.0532125 -0.0217328 -0.0377635 0.0334095 0.0057223 0.0531189 0.0488969 -0.0375243 0.0808538 -0.0431482 -0.0756041 0.0510294 0.00900717 0.0117434 -0.0831491 0.0798423 -0.0847656 0.0446874 0.0715174 -0.0417416 -0.0624036 0.0814629 -0.00688596 -0.0122639 -0.0456943 -0.0198456 0.0161864 -0.0760699 0.0137722 -0.0527707 0.0674439 -0.00549503 -0.0032879 -0.0553569 0.0529676 -0.0825383 0.0316012 0.0212243 -0.00106836 0.0793811 0.0740386 0.0460799 -0.00388764 0.00428855 0.0384336 0.0804363 0.0181175 -0.054219 -0.0829422 0.0199838 -0.0215218 0.0742418 0.0312717 0.0701886 0.0824424 -0.00116161 -0.0305477 -0.0343872 -0.0589037 -0.0671247 -0.00986878 -0.0154273 0.0449781 -0.0293754 0.0292865 0.0679068 0.00658168 0.0634868 0.063698 0.0471419 0.0391936 0.0212564 -0.0844688 -0.0323957 -0.0548454 0.0292004 -0.0572249 -0.0307863 0.0212972 0.0344637 -0.0830127 0.0366931 0.011706 0.0667672 0.0740552 -0.0160601 -0.0519208 -0.0348187 0.0612074 -0.0669395 0.040653 0.0218957 0.0165715 0.0731766 -0.0276637 0.0674568 -0.0213767 0.0226915 -0.0855373 -0.0327891 0.0573818 -0.0148175 0.0093116 0.0456605 0.0141868 0.0708701 0.0157673 0.00225253 0.0521541 -0.0598305 0.0361632 -0.019236 -0.0362003 0.0591359 0.000435582 0.0467178 0.0119938 0.012931 -0.026393 0.013188 0.0928096 0.030482 -0.0851295 -0.00795766 0.0354894 -0.0453402 0.0310296 -0.013585 -0.0063677 -0.0104015 0.0737245 -0.059013 -0.0840713 0.0680072 0.0747324 -0.00926943 -0.0446107 0.0760326 -0.00574052 0.0819929 -0.0658287 0.0282958 0.07719 -0.0114261 0.0317923 -0.0259312 0.103647 0.0208388 0.0602653 0.0173432 -0.00916147 0.0267339 -0.102131 -0.100301 0.0657154 0.0204864 0.0664968 0.00761458 0.0213532 -0.00161837 0.00186211 -0.0333699 0.0283296 -0.085426 -0.0398591 -0.0746853 -0.0603589 -0.032442 -0.0491017 -0.0459887 -0.0279366 0.0763282 -0.0218023 0.0623478 -0.0696552 0.0387525 -0.0482036 0.0664725 -0.00240879 0.0265092 -0.0431913 -0.046896 -0.0664066 0.0173426 0.0549581 0.0730295 -0.0539566 0.0800306 -0.0190387 0.0406821 0.00269411 0.0482976 0.0214786 -0.0822458 -0.069771 0.0818568 0.0546318 0.0487458 0.00495842 0.0082884 -0.0475109 -0.0452742 -0.0585902 0.022012 0.0668006 0.0988313 0.013503 -0.0679025 -0.0219649 -0.00529101 -0.0246795 0.0136304 -0.0218933 -0.0603157 0.00458714 -0.0390801 -0.0781042 0.0642814 0.0621918 -0.0651291 -0.0784833 0.0734247 0.0213708 0.0663243 -0.0493233 -0.0594455 0.0713369 0.0770692 -0.0218959 -0.0615918 -0.0165495 0.018643 0.0357552 0.00152347 -0.0268419 0.0533414 -0.0726169 -0.0710286 0.0525001 0.00549916 0.0210494 -0.0259327 -0.0808451 0.0607058 -0.0135693 -0.046749 0.0409266 -0.0572044 -0.0046768 -0.0558258 0.0417972 -0.0550854 -0.0796672 0.0616903 0.0357083 -0.0458633 0.0575055 -0.00161835 0.0436239 0.0894477 0.006167 0.0327339 0.102289 -0.00135267 -0.0663355 -0.0488572 0.0451828 0.0062855 -0.0748253 0.060555 0.0570902 -0.0062411 0.00205142 -0.0154365 0.0373056 0.0252567 -0.0335899 0.0800941 0.0390741 -0.0236784 0.0677381 0.0370124 0.0384698 0.0578026 0.0196 -0.0658526 0.0203885 0.0588243 0.0577517 -0.00144071 0.101007 0.0594897 0.0262995 -0.0794518 0.00663038 0.0264406 -0.0825088 0.035317 0.0128 0.0068537 -0.02905 0.0221202 -0.0723791 -0.00662016 -0.0624097 0.0248773 -0.0157739 0.0699719 0.0611556 0.0559034 -0.0264606 -0.0578411 -0.0800523 0.0181054 0.0691459 -0.0558048 0.056894 0.0456003 0.0958857 0.00840408 -0.0367445 -0.0652005 -0.068435 0.0330476 -0.0925439 -0.0899045 0.0358194 -0.0546539 -0.0786928 -0.0531744 0.0206665 -0.0181921 0.0678794 -0.000965174 -0.00625993 -0.00501504 -0.00760782 -0.0383792 0.0127214 0.0443163 0.0650557 0.00588446 -0.021219 -0.0621934 0.0188312 -0.0570434 0.0424936 0.079217 0.0524571 0.0658045 -0.0558798 -0.000154247 0.0259345 0.0636842 0.0297443 0.000410847 0.047121 -0.0497403 -0.0259723 -0.0700552 -0.0460046 0.030959 -0.0568152 0.0454076 -0.00510753 -0.0167834 0.0190851 -0.0674621 0.0763025 -0.00238471 0.00160614 0.0324265 -0.00200099 -0.00157644 -0.0561996 0.028565 0.0593113 0.0140839 0.0333813 -0.0579111 0.0694687 -0.0825779 0.0696559 0.0153694 0.0295937 -0.035237 -0.0607131 -0.0325795 0.0550746 -0.0165212 0.0575585 0.0729201 -0.0245855 0.0670283 -0.0932889 -0.0431633 0.0111094 0.00904215 0.0686994 0.0648009 -0.010232 0.0123544 0.0725348 -0.0156336 0.0488259 -0.0449965 0.0186518 0.0617269 0.0466012 0.0153332 -0.0780103 -0.0612864 0.0375863 0.0648788 -0.0291781 0.0514267 -0.053832 -0.0459635 -0.0268949 0.0214904 0.0761724 -0.0646576 -0.0439954 -0.0544724 0.0509477 -0.0152936 -0.0565701 0.0156841 0.00888303 -0.0205792 0.0422909 -0.0553429 0.0539364 0.0636913 0.00917342 -0.000251594 0.0666434 -0.0750667 -0.0751286 0.0681049 -0.0741854 0.0831347 0.0656154 0.0662317 0.0355983 0.0109485 0.0192963 -0.0394991 0.0282577 -0.0636721 -0.0352698 -0.000796259 -0.0431665 0.0413691 -0.0341875 -0.044437 0.0650557 0.0175964 -0.0249741 -0.00879359 0.103556 0.0499221 -0.00908465 -0.0619213 0.0862766 -0.0680888 -0.0598574 -0.0662628 0.00576529 -0.0301668 0.0341138 0.00597217 -0.0146165 -0.058553 -0.00813201 -0.0770669 -0.0612495 0.068215 -0.0827848 -0.0195471 0.0965316 0.0806603 -0.037582 0.0663502 -0.0606859 0.0406 -0.0257943 0.114673 -0.0526911 0.0712206 0.0448979 0.0123126 0.00285989 0.0929683 0.0608763 -0.00592656 -0.0467681 0.0555377 -0.0311713 -0.0733699 -0.0688447 0.0456942 0.0231117 -0.00218749 -0.0623326 -0.0790607 -0.0567981 -0.0506693 0.0261477 0.063151 -0.0391134 0.0479909 -0.0316015 0.00181947 0.101004 -0.00515178 0.0555863 -0.0645307 0.0961154 0.0399972 0.00606955 -0.0112876 -0.0321701 0.00467532 0.0081783 -0.00647782 -0.0322949 0.0320225 -0.0369349 0.0441708 -0.0365215 -0.00267324 0.00887067 0.0265189 -0.0163014 0.0295695 0.0497734 0.0396367 0.0750142 0.0763704 0.0226645 0.0745175 -0.0154233 0.0692758 -0.0241098 0.0513104 0.0501365 0.0244041 -0.0149485 -0.043002 0.0117765 -0.00423992 0.055006 0.0816659 0.0195839 0.0529012 0.0258636 0.0641609 0.0043606 0.00441072 -0.0486357 -0.0718532 0.0343961 -0.0567928 -0.0144765 -0.0181001 0.00920141 -0.0389664 0.0277943 0.0686675 0.0864741 -0.026509 0.0702104 0.0498569 0.104023 0.0610684 0.0303138 -0.00767629 0.00335342 0.019196 0.00406266 0.0812972 -0.0396343 -0.0735183 0.00282401 -0.0758671 0.0790602 0.0357021 -0.0187722 0.0592802 0.0161118 0.0228112 -0.0273321 0.0311739 -0.00446698 0.0787753 0.0568077 -0.0631449 0.0905607 -0.0564106 0.000231413 0.0756443 0.00798571 0.101631 0.0631327 0.0507813 0.00792344 0.0537884 0.0346206 0.0289456 0.0132241 0.0810032 0.0726875 -0.0688048 -0.0317178 -0.0405837 -0.0353054 0.0330407 0.0223097 -0.0385278 -0.0601696 0.0463396 -0.057757 -0.0659402 0.092495 -0.0294554 -0.052177 0.0441501 0.0465805 0.0654548 -0.0384284 0.0941117 -0.00185353 0.0409173 0.0589132 -0.0491243 -0.050898 0.0155315 -0.0686794 0.0324835 0.0211644 -0.0229704 -0.0642551 -0.00876239 0.071798 0.034872 -0.0151209 -0.0390955 0.0706811 -0.0717278 -0.0782485 0.0604158 0.082203 0.0989484 0.069501 0.0655367 -0.0341487 0.012777 0.03945 0.0287038 0.00188353 0.0734461 0.0358596 0.0761837 0.0113565 0.00491545 -0.00293813 0.0531044 -0.0481237 0.0232641 0.0180885 0.0282373 0.00277208 -0.0304461 -0.0502927 -0.0221635 0.0387386 -0.0472211 0.0831438 0.076983 -0.0265208 -0.0634064 0.0275706 -0.00152133 -0.0239377 0.015452 -0.0784098 0.0527814 -0.0640683 0.0165733 0.0344535 0.00452669 0.0369948 -0.0494915 -0.0546672 -0.0508457 0.0246891 -0.054608 -0.0862308 -0.0420339 -0.0434202 0.0213898 0.0614989 -0.0190973 0.00403642 0.0358279 0.00210175 0.0190347 0.0274915 -0.0909426 0.0289443 -0.0378828 0.0351424 -0.0668907 -0.0660479 -0.0822106 -0.0773822 0.0295897 -0.060375 0.0345636 0.0100998 -0.00466671 -0.0601154 0.0425855 0.00511962 -0.0595763 -0.0179227 -0.0123677 -0.0355935 0.0683633 0.00174053 -0.0507591 -0.0723738 -0.0101365 -0.0749169 -0.0658043 0.0284947 -0.0270398 0.046789 0.0506103 -0.0405419 -0.0407997 0.00312557 0.00578542 -0.0793457 0.0189908 0.00500371 0.0560873 0.00859249 0.0701937 -0.0628687 -0.0689563 0.0142795 0.0371277 0.00816376 -0.0656909 0.0462942 0.031364 0.016593 -0.0664899 -0.0139262 -0.0170453 -0.032657 -0.0525498 -0.0102974 -0.0808419 0.0415443 -0.0453628 -0.0442584 -0.0169706 0.0389576 0.0231967 0.00389304 -0.0265746 -0.0737823 0.0807147 0.027933 0.0358481 -0.0822286
-0.0512029 0.0682147 -0.0586784 0.0227966 0.0457076 -0.0685943 -0.053162 0.00720525 -0.0582126 0.0936124 -0.0634074 0.067822 -0.0559137 0.0132944 -0.0601058 -0.041436 -0.0104731 0.0228218 -0.000790262 0.00982407 0.0340035 0.0290252 0.050799 0.0898479 0.0780881 -0.0663355 0.0556273 -0.010726 -0.0704085 0.0785738 0.0768765 0.0866603 0.0283145 -0.0335179 -0.0212972 0.023185 0.0209375 0.0233775 0.08895 -0.019207 -0.0196344 0.0514787 0.0882542 0.100491 -0.0546653 -0.0523777 -0.0221129 -0.0127614 0.06551 0.0442279 -0.00289541 0.0621187 -0.0330239 0.0859311 0.0284483 -0.0112492 0.00338241 -0.0717714 -0.0590162 0.0741835 -0.0485411 0.0661371 -0.0111146 -0.0332063 -0.0386129 -0.0414231 -0.0239024 0.000546006 -0.0285629 0.0264514 0.0379596 -0.00891138 -0.0397822 0.0958332 0.0490172 -0.0365633 0.00543919 0.00829744 0.00231241 0.0153633 -0.0132683 0.0243599 -0.029773 0.00296217 -0.00653765 0.0590944 0.00210556 -0.0605923 -0.0545063 -0.0060062 0.0833593 0.00363935 0.0907212 -0.0268228 0.0823648 0.0984007 0.0764606 0.0359154 0.000497017 -0.10243 -0.0182496 0.0245779 0.022764 -0.0425974 0.0717379 -0.0057755 0.0390348 -0.0248871 0.00142239 -0.0406593 0.0298056 0.0948546 0.095121 0.00190413 0.0115791 0.0394865 0.0131554 0.0572723 0.0200154 0.00424798 0.0762546 -0.0146829 0.0888991 0.143305 0.112353 0.189329 0.0281142 -0.0202552 -0.00409134 0.0878498 -0.0367659 0.0674847 0.152652 0.0881456 0.0686878 -0.00935607 0.0314304 -0.0259916 0.00152103 0.0415352 -0.0132245 -0.0516357 -0.0720471 0.0156098 0.055472 0.0673377 -0.0761556 -0.0395279 0.0312097 -0.0730836 0.0319466 -0.100668 0.0239 -0.0427288 -0.167724 -0.0591612 0.0100684 -0.0330044 -0.0676176 -0.0236527 0.137146 0.123097 -0.0060198 -0.0533302 0.0340482 -0.0479208 0.0716073 -0.049524 0.0691046 -0.0209559 0.0741956 -0.0542117 -0.0273141 -0.0785287 -0.0465872 -0.0632622 -0.0355589 -0.183328 -0.233802 -0.14818 -0.152012 -0.217662 -0.175525 -0.209825 -0.0104006 -0.145143 -0.0877926 -0.148069 -0.0768747 0.00613217 0.0782533 0.0477386 -0.00322849 0.0636245 -0.043863 -0.0312077 0.0460693 -0.0616509 0.0308872 0.0452304 -0.00544037 0.0460655 -0.0114301 0.0296528 -0.114836 -0.0963142 -0.198941 -0.206503 -0.118522 -0.0871843 -0.0570181 -0.0750075 -0.0934208 -0.0912053 -0.0354301 -0.29195 -0.331373 -0.0636774 0.0347039 -0.0533433 0.0197197 0.0159356 0.0132111 -0.0273584 0.0190519 -0.00885126 -0.0139737 0.0141741 -0.0337425 0.000564431 0.041606 -0.0807664 0.0191707 -0.202054 -0.193887 -0.125505 -0.0575791 -0.125608 -0.0391852 -0.190378 -0.124594 -0.0295074 -0.15529 -0.223234 -0.208723 -0.184412 -0.0152472 -0.0186631 0.0634044 -0.0246898 -0.0489134 0.0293292 -0.00683608 0.0712635 -0.0620297 0.00123273 0.0861913 -0.0232745 -0.0497329 -0.0445282 -0.0601279 -0.114851 -0.300208 -0.245428 -0.111109 -0.218866 -0.161277 -0.165148 -0.129934 -0.061181 -0.264037 -0.316053 -0.167211 -0.199357 -0.0615822 -0.083748 -0.0847642 0.0212763 0.0534382 0.0947363 0.00541639 0.0282647 0.0131261 0.0173737 -0.000544946 -0.105451 -0.229633 -0.142469 -0.107796 -0.158503 -0.135046 -0.116268 -0.18982 -0.193957 -0.390511 -0.255585 -0.199644 -0.122661 -0.170461 -0.226626 -0.329904 -0.182456 -0.12529 -0.107142 -0.0503335 -0.0545413 -0.0581301 -0.0132948 0.071853 0.0114142 0.058122 -0.0574377 -0.0775558 -0.0594565 -0.229046 -0.232435 -0.140887 -0.0503517 -0.0580546 -0.0795885 -0.0868538 -0.211303 -0.367564 -0.277295 -0.289758 -0.168625 -0.19574 -0.229279 -0.373832 -0.187062 -0.138484 -0.0461927 -0.000431146 0.0512714 -0.0658694 0.0115392 -0.00922027 -0.0153883 0.0227705 -0.0352192 -0.125693 -0.168415 -0.164499 -0.168295 -0.174492 -0.155188 -0.00208727 0.073608 -0.0183701 -0.0652769 -0.158813 -0.274421 -0.186004 -0.167191 -0.320664 -0.367028 -0.323289 -0.183854 -0.0321807 -0.0433617 -0.00859184 -0.0454554 0.0106134 -0.0345032 0.08846 -0.0626438 0.00196438 0.055716 -0.0980903 -0.122534 -0.185254 -0.0585471 -0.0897127 0.0365593 0.0412739 0.0155314 -0.0788833 -0.0742668 0.0646859 -0.121723 -0.0969922 -0.178071 -0.279363 -0.212781 -0.118671 -0.054203 -0.0373293 -0.0594007 0.0414033 -0.0421324 0.0675829 -0.0237346 -0.00675075 0.0223749 0.0508527 0.0295625 -0.0629232 -0.135653 -0.0584434 -0.10273 -0.0235192 -0.00187826 0.103943 0.108929 0.0971405 0.1153 0.179564 -0.0516143 -0.0783225 -0.0430528 -0.250405 -0.145851 -0.206195 -0.102374 -0.0581484 -0.0337736 -0.0492653 0.0456644 0.0842631 0.00933256 -0.0122545 -0.0344038 0.075679 -0.0529862 -0.0535636 -0.0177446 0.0250646 -0.0459598 -0.0418169 0.0583131 0.0345217 0.0172478 0.0836899 0.206876 0.180656 -0.0653909 -0.0595068 -0.0657432 -0.261287 -0.174995 -0.166513 -0.0918757 -0.0345773 0.0410166 -0.0180529 0.0849344 -0.0434158 -0.00666036 0.0941869 0.0216046 -0.00094328 0.0660407 0.0374188 -0.0114305 -0.0825657 -0.165115 -0.117759 -0.140642 -0.107724 -0.0114405 -0.0347424 -0.0671773 -0.0727132 0.0103561 -0.0987769 -0.12902 -0.0635966 -0.19358 -0.093944 0.0708547 -0.0971525 0.0753714 -0.0424717 -0.0241068 0.010389 0.0628895 0.0482323 -0.0438383 -0.023021 0.0511986 0.0819707 -0.0254778 -0.124618 -0.161164 -0.154409 -0.247203 -0.212283 -0.135176 -0.383508 -0.146204 -0.0195015 -0.122274 -0.0403295 -0.0648407 -0.122782 -0.164783 -0.0436427 -0.0553601 -0.0857256 -0.0395228 -0.0735747 0.0385904 -0.0579859 -0.00411642 -0.0638894 0.000684584 0.0543651 0.00605043 0.0870002 0.0158558 -0.0260899 -0.14953 -0.183369 -0.33163 -0.299644 -0.340412 -0.22589 -0.179153 -0.181349 -0.249792 0.0709881 0.103241 -0.0844642 -0.120796 -0.221955 -0.0231361 -0.0419861 -0.0886088 -0.0228998 0.0521027 0.0367877 -0.0603184 -0.0294782 -0.0454013 -0.00625535 0.00212001 0.0928937 -0.0643992 -0.0465057 -0.0977354 -0.170685 -0.237911 -0.191513 -0.28781 -0.202691 -0.0370403 -0.20138 -0.0178817 -0.0167025 -0.0471694 -0.0607015 -0.0761667 -0.146177 -0.0201396 -0.083881 -0.0998149 0.022606 -0.047638 0.0605063 -0.059057 -0.0499047 0.0279598 0.0694765 0.0672444 0.00926966 0.0306132 -0.00474719 -0.0606975 -0.16731 -0.0938506 0.0195545 -0.0511919 0.0154663 -0.192566 0.0556955 0.0252089 0.0154558 0.0763347 0.0176632 -0.119711 -0.0933846 -0.0131975 -0.0829865 -0.121239 -0.0368301 -0.0342317 0.0692792 0.0486683 -0.0469227 0.0270753 0.0552586 0.0976301 -0.0455459 -0.0502793 -0.00779577 -0.0101132 -0.060101 0.0367165 -0.0231086 0.0281892 -0.026687 0.0225011 0.0467804 0.0705163 0.0128403 0.0212662 0.045952 0.0217651 -0.0683838 0.0315136 -0.0540228 -0.0884025 -0.0758715 -0.0580546 0.089456 -0.0400042 0.0684623 -0.0288071 0.0258335 -0.0336583 0.0190891 0.08374 -0.00659475 -0.117223 -0.173644 0.0352168 -0.0203196 0.0342218 -0.0795683 -0.0324511 -0.0268504 0.0922856 0.0899471 -0.0301861 -0.00228659 0.067206 0.0262585 -0.0779288 0.019937 -0.0779327 -0.0834155 -0.0329733 0.0408893 -0.0422214 0.0943133 0.0492701 0.0772192 0.0583883 0.0538109 0.048468 -0.0597952 0.0243651 -0.133712 0.0596902 0.00562128 0.0331017 0.0816273 0.0103684 0.0486958 -0.0105257 0.0109792 0.0409142 -0.00760621 -0.0246291 0.0286056 -0.074107 -0.119965 -0.0793872 -0.0610175 0.0746062 0.0871042 -0.0120831 -0.0400145 -0.0125004 0.0400897 -0.0274627 -0.00203803 0.00432141 -0.103454 -0.171674 -0.0127383 -0.00649106 -0.0182656 0.00482358 0.075169 -0.00213961 0.0283604 -0.00311352 -0.106042 -0.147698 -0.00876195 -0.0123336 -0.0878927 0.00419992 -0.0904266 -0.00402171 -0.0690269 0.0181738 0.061158 -0.0582141 0.0199222 0.0527692 0.0628419 0.0730692 -0.0779004 -0.00654193 0.0271833 -0.129177 -0.0979033 0.0040533 -0.0573645 -0.0293112 -0.127431 -0.167876 -0.177713 -0.0487344 -0.0764639 -0.0483097 -0.0474631 -0.0864244 -0.116378 -0.0140646 -0.0342152 -0.0827055 0.0415553 0.0383025 -0.0213455 0.00695275 -0.0241281 0.0357636 0.0741665 -0.0666815 -0.0402372 0.0439954 -0.0730176 -0.00791678 -0.0463107 0.00110708 0.0130771 -0.147219 -0.0701044 -0.064766 -0.0172929 -0.140028 0.00480771 -0.0255123 -0.0938155 0.0488781 -0.0149798 0.00813545 -0.0649108 0.0818504 0.049963 0.0463018 -0.0172119 0.021393 -0.0562334 0.0622946 -0.0393646 0.076601 0.095758 -0.0679189 -0.0603041 -0.0114075 0.0305038 0.0833578 0.0121066 -0.0436388 0.0825469 -0.0104428 -0.0221185 0.0492038 0.0762244 0.0629059 0.0475087 0.0769559 0.0721664 -0.0221558 -0.0454645 0.0442506 0.0390935 0.075416 -0.0358753 0.0129519
-0.0770887 0.0571202 0.0299696 -0.0420468 -0.0686317 -0.0334141 -0.00989821 0.00828029 -0.0250611 -0.0192305 0.0337048 0.0701783 -0.0407818 -0.0658412 0.051004 0.0652137 -0.063396 0.0160052 -0.0502855 -0.026424 -0.0505235 0.0808731 0.0366427 0.00474352 0.0390235 0.0189045 -0.0332167 -0.0286507 0.078819 -0.0112959 0.0618458 -0.0461715 -0.0448058 0.00895127 -0.0386085 0.0291942 0.0859941 -0.0312448 0.0569429 0.00797042 0.0796646 -0.0408223 0.0190718 -0.0742917 -0.0507525 -0.00551816 0.0554456 0.0561216 0.0638834 -0.0442977 -0.0265089 -0.0146789 0.00143718 -0.018207 0.0106083 0.0169359 -0.0331342 0.0266671 0.0723445 -0.0406472 -0.0702293 0.0420194 0.0497915 0.0179633 -0.0556429 0.0848359 0.0100398 -0.0167655 0.0260382 -0.0353652 0.0517755 0.0399466 0.019693 -0.0602042 0.0142378 -0.0776963 -0.0350909 0.0491554 0.00170568 0.0727916 0.0160068 0.0746074 -0.0148745 -0.048929 0.0865137 -0.0656544 -0.076163 0.0103804 0.0310802 0.0655624 -0.053461 0.102716 -0.0490744 0.0190536 0.00901378 0.0718517 -0.027171 -0.0199881 -0.00415135 0.0349887 -0.0789293 -0.0874615 -0.0842657 0.0614591 0.0665716 -0.0621371 0.0841338 -0.0310363 0.0278939 0.0134566 -0.0655817 -0.0268437 0.0110049 0.0296813 -0.0740559 -0.0183077 0.0827421 0.0402966 -0.0504158 0.0089138 0.0601954 0.0416854 -0.0808262 -0.0308252 -0.0150287 0.0121095 0.00918995 -0.0628423 -0.0144998 -0.0319196 -0.0243255 -0.038137 -0.0314565 0.0427251 -0.0744456 0.0577909 0.00944987 -0.0263445 0.00703539 -0.0320778 -0.0146739 0.0526333 -0.00616837 -0.0260757 0.0531523 -0.0420054 0.0213311 0.0406885 -0.0387295 -0.00624697 0.0041224 -0.0317259 -0.0116644 -0.0386045 -0.0870874 0.0240098 -0.172674 -0.124306 -0.07785 -0.0473725 -0.0951165 -0.0117469 -0.0653378 -0.0639694 -0.0363807 -0.0714076 0.0891964 0.066401 -0.03275 0.0028065 -0.0341206 0.0338665 0.0298726 0.0806592 -0.0159386 -0.00318129 0.136109 -0.0165499 0.0347091 -0.0956152 -0.0208886 -0.0721752 -0.0607253 -0.195067 -0.196037 -0.0482491 -0.0949575 -0.0903438 -0.0649326 -0.071689 -0.00953012 0.0726611 -0.0161014 -0.0473326 0.0928048 0.0447903 -0.03321 -0.0723252 -0.0117422 0.0885309 0.0847542 0.0163877 -0.0369803 -0.00676994 0.0935153 0.00688966 -0.0104261 0.0121645 -0.176421 -0.142113 -0.15196 -0.0555247 -0.194388 -0.051106 -0.0831535 -0.0481889 0.0346317 -0.0272673 0.0244168 0.111684 0.0362323 0.0151352 0.0711982 -0.0368242 -0.0522548 0.0662967 -0.058339 0.108008 0.0586129 0.0942201 0.0466518 0.0016306 0.10424 0.0759157 0.100445 -0.0392445 -0.069234 -0.146358 -0.178654 -0.0448242 -0.0836493 0.0577733 -0.0170285 0.00507455 0.143735 0.127518 0.151597 0.161919 0.212609 0.120177 -0.00602789 -0.0489729 0.0662615 0.0088096 -0.043986 0.0993245 0.0680748 0.0282795 0.00664397 -0.0101096 0.112637 0.0758568 0.1111 0.151029 0.0680269 -0.112782 -0.060221 0.0764774 0.0955576 0.117752 0.147773 0.230156 0.158921 0.177636 0.180664 0.178942 0.164038 0.0312979 0.0622345 -0.00392251 -0.0262838 0.0845412 0.0172726 0.0878071 0.0382107 -0.0242767 0.0462614 -0.0341801 0.0400125 0.0848022 0.151568 0.173957 0.0250358 -0.0501932 -0.0162449 0.0513581 0.189463 0.18109 0.0990266 0.152531 0.137987 0.168142 0.20616 0.170683 0.0422481 0.13226 -0.0296872 0.00387252 0.0117872 0.0830773 0.072251 0.070516 -0.0365452 0.0284629 0.0504574 0.00947737 -0.0467359 0.0189968 0.0985266 0.137313 0.105984 -0.0989207 -0.204371 -0.112944 0.00703475 -0.0192792 0.0972885 0.127376 0.0636968 0.0875871 0.0011342 0.124661 -0.027901 0.130437 0.058815 0.0326571 0.00424613 0.00155892 0.0252392 -0.0110379 0.0309824 0.034131 0.0534668 0.116356 -6.9377e-05 -0.0668711 0.0618041 0.0986331 0.084871 -0.105666 -0.239237 -0.115507 -0.106005 -0.0955685 -0.0584526 -0.0601671 -0.0472911 0.0534485 -0.0216284 -0.0387406 -0.0917558 -0.0487781 -0.0223828 0.0108833 0.0591641 -0.012082 -0.0629355 0.0815731 -0.023746 0.0464065 -0.00670478 0.0161696 0.117078 0.103998 0.0730934 0.122737 0.025597 -0.0754221 -0.130142 -0.11063 -0.0811463 -0.105021 -0.0261423 -0.222554 -0.0566785 -0.129935 -0.0320469 -0.0284127 -0.101898 0.0251592 0.010068 -0.0321967 -0.0309261 0.0759977 -0.0631312 0.0582513 -0.0226826 -0.0360947 -0.0167642 0.0773023 0.0997825 0.0633617 0.0134719 0.0260248 -0.0743716 -0.075353 -0.0180212 -0.139523 -0.0336131 0.0513405 -0.106204 -0.0855149 -0.194085 -0.0869027 -0.0835646 -0.114936 -0.0916262 0.0310179 0.0746488 0.00596576 0.0106478 -0.00473384 -0.0441284 0.0940994 0.025468 -0.0163051 -0.0255315 -0.035249 -0.078701 0.0485334 0.0338209 -0.0387235 -0.0722399 -0.00509149 -0.157164 -0.0673706 -0.0947024 -0.12186 -0.0157534 -0.200089 -0.0784529 -0.131265 -0.08996 0.0156831 -0.0561173 0.00297627 0.0659082 -0.0188074 0.0167177 0.084264 -0.0457688 -0.0164179 0.0086435 -0.10538 -0.0974456 -0.0899188 -0.0394211 -0.0884096 -0.0105062 -0.0466112 -0.0699201 -0.0856067 -0.0166017 -0.103319 0.06054 -0.0729185 -0.0162789 -0.128703 -0.105667 -0.0977969 -0.0294149 -0.0619385 0.0544533 0.0591022 -0.0163544 0.0102163 0.0248365 -0.0135931 0.0432031 0.0580455 -0.0776844 0.0513189 0.0254144 -0.0595974 -0.0502622 -0.0833175 -0.075957 -0.083164 0.00633181 0.0762854 0.0842593 -0.0250644 0.0305987 0.153207 0.101724 -0.0246144 -0.0918754 -0.0794368 -0.0277328 -0.0658488 0.000735006 0.0043805 0.0830625 -0.0503616 -0.0692751 0.0563005 0.0250697 -0.0766396 0.0569653 -0.00875057 -0.0287104 -0.0547488 0.0106624 -0.0665727 -0.059497 -0.0895092 0.0362092 0.202366 0.0700018 0.00381006 0.0185187 -3.44598e-05 0.0377344 0.0726195 -0.0507743 -0.0273149 -0.064709 0.0289665 0.0279695 -0.066973 -0.0339048 -0.0254416 0.0725842 0.0448611 -0.0355426 0.0238077 -0.114476 -0.0587095 -0.117578 -0.0709139 0.0629614 -0.00846702 -0.0039512 -0.0506289 0.11378 0.100162 0.0907691 0.00282433 -0.0417874 0.0575563 0.0536194 0.0301571 -0.0344628 -0.0692333 -0.0424654 -0.0903518 0.0438592 -0.0182093 -0.0690956 0.0473974 -0.00799685 0.0309475 0.013276 0.0329832 -0.0789948 -0.00665514 -0.0901038 -0.00328647 -0.041584 0.00532389 0.00312856 0.0396424 0.0438529 0.0125428 0.0609195 -0.0894839 -0.0373136 -0.0711769 -0.020343 0.0646016 -0.00935295 -0.0233732 -0.00185274 0.0165377 0.0779688 -0.0380111 0.00227861 0.0366094 -0.00825675 0.0317232 0.090193 0.0687365 -0.0697073 -0.0917887 -0.156674 -0.0488729 -0.0447592 -0.0385947 -0.0550556 0.0376076 0.0450725 0.144779 0.123983 -0.00681986 -0.0847361 0.0110419 0.0580705 0.0263796 -0.00315124 -0.0483854 -0.0108668 -0.0772501 0.00882155 -0.00687079 0.0127901 0.0688526 -0.0697739 -0.0155563 0.0169043 -0.0483776 -0.00637847 0.0106216 -0.120039 -0.0546886 0.049473 0.00307933 -0.0105507 0.0942164 -0.00728593 0.0728024 0.0404874 0.119263 0.0375732 0.107261 -0.032551 0.0250993 0.0119053 0.0243992 -0.00875417 0.0241638 0.0293993 0.0733037 0.0126498 -0.0253635 -0.0227595 -0.0624178 0.0313504 -0.0683754 0.0194043 0.00175651 -0.0586099 -0.0164238 -0.0294988 0.0108178 0.0226373 -0.0499 0.0512746 0.0885888 0.0880967 -0.00197582 0.00626189 -0.0236454 0.0597637 0.0108599 -0.00688124 -0.00412959 0.0454787 -0.0082061 -0.0158517 0.0697079 0.0684043 -0.0238208 0.0550134 0.0284409 0.0306234 0.0516784 -0.0710136 0.016676 0.0195848 -0.00892713 -0.0720875 -0.0586371 0.0464453 0.0499249 0.0165731 0.0456903 0.0344193 0.054714 0.0650256 -0.00322165 0.0336527 0.0312233 -0.0658128 -0.020286 0.0198326 0.040978 -0.0143001 -0.0686855 0.0665371 -0.0439273 -0.0737922 0.0704852 -0.0639183 0.0619764 -0.0241146 -0.00126088 -0.0829881 -0.00605673 -0.0203574 -0.0914076 -0.082874 0.0440806 0.0117596 -0.0822683 -0.044524 0.0675319 -0.0138743 0.0183862 0.0484015 -0.0452048 -0.0737897 -0.0106215 -0.0576484 -0.0669285 -0.0133624 0.0164969 -0.0406259 0.048542 0.0630049 0.0055397 -0.036189 0.00234529 -0.0818022 0.0198105 -0.101742 -0.0448409 -0.0448511 -0.158383 -0.0620584 -0.0278863 -0.0415797 -0.0242287 -0.0861362 0.0472571 -0.00298136 -0.038417 -0.0037521 0.0371515 0.0544986 -0.0504954 0.0518273 -0.0592616 -0.0320187 0.0473732 -0.0600002 0.0475615 0.0627845 -0.000638972 -0.0728757 0.0426607 -0.0437441 0.0678185 0.0340702 0.0394355 0.00124986 0.0843808 -0.074355 -0.0413077 0.0752978 0.0275065 -0.0768896 0.0369163 -0.0702831 0.047838 -0.0786591 0.0657826 -0.051894 0.0525623 -0.0600145 -0.0416317 0.0347315 0.0164596 -0.0163096 0.0332545
0.0609237 -0.0644544 0.0438549 -0.0235018 0.0560362 -0.0385649 0.0438329 0.0569142 -0.00499057 -0.000851173 0.000691971 0.0739803 -0.071621 0.0915771 -0.0478901 -0.00990551 0.0378585 0.0420625 0.0185541 0.0515115 -0.0165116 0.00180314 -0.037476 -0.0357451 0.0173569 -0.0693596 -0.0265024 -0.0582801 -0.03954 0.0445199 -0.039273 0.019241 -0.00458841 0.0778792 0.0387232 -0.0346864 -0.0253235 0.0407014 0.0426763 -0.0187678 0.0859801 0.0854008 -0.0693957 -0.0270286 0.0105869 -0.0673944 -0.0595731 0.0854286 -0.0337221 -0.0457069 -0.0429199 0.0520893 -0.0688394 0.0246605 0.00274495 -0.0123861 -0.0179173 -0.0512619 -0.0471856 -0.0599031 0.0640418 -0.0536361 -0.0488143 0.0255648 0.0209966 0.0362701 0.0768659 -0.0557093 0.0214694 0.0896532 0.0364673 -0.0666651 0.0404119 0.0151221 -0.0641325 0.0747816 -0.0109207 -0.0755787 -0.0101485 -0.0568504 0.00970413 -0.0476411 -0.0202008 -0.0585858 0.0243799 -0.0652812 0.0369365 0.0615488 -0.0764876 -0.0442157 0.0550455 0.0185861 0.0657785 0.0210918 -0.0467507 -0.0403591 -0.0286523 0.0486235 0.0310853 0.0216304 0.0266628 0.054778 0.00747706 0.0576933 -0.00910776 0.0677988 0.0282148 0.0374416 -0.00606842 0.0580264 0.0204499 -0.0460859 -0.07576 0.0719322 0.0580662 -0.0161156 0.0654645 -0.0761628 0.0880658 0.0175277 -0.047583 -0.067668 -0.0663005 -0.000290112 0.0605218 0.0781174 -0.030353 -0.04181 0.0632226 -0.0698553 -0.0201832 -0.0389274 0.0322146 -0.0393402 0.0590544 0.0167578 0.0832419 0.0708382 -0.0491277 0.0435742 -0.012354 -0.064453 0.0577578 0.0169657 -0.0150651 -0.0759502 -0.00493419 -0.0107816 0.0256844 0.0134751 0.0794856 0.0322838 0.0291114 0.0469787 0.0670577 -0.0716618 0.0565261 0.0754134 0.061967 0.00248136 -0.0690642 0.00742649 -0.0561257 0.0694773 -0.0326207 -0.0177952 -0.0393285 -0.0252871 -0.0567959 0.0882509 -0.0382913 0.0501237 -0.041215 0.0806714 -0.024608 0.0174697 0.0860015 0.0130459 -0.035604 0.0521605 0.0267833 -0.0740059 -0.0621854 0.0254682 -0.0814735 0.061061 -0.00415309 0.057366 0.0137755 0.0388876 -0.0372739 -0.0244415 -0.0551807 0.0895852 -0.00595687 -0.0501002 0.005097 0.0175098 -0.00497003 -0.0632003 -0.0252267 -0.0512724 -0.0645398 0.0164354 0.0305043 0.0695712 0.0127859 0.0500231 0.01255 -0.0789207 -0.019678 -0.061484 0.00120095 0.0224801 0.0243871 -0.0761489 -0.0403481 0.0842748 0.0193257 0.0857522 -0.0744081 0.0872203 -0.000761031 0.0901438 0.087628 -0.0286082 -0.0397283 0.0484083 -0.0225378 0.0539599 0.0572986 0.0639829 0.0810566 0.0212059 0.0674949 0.0803168 -0.0804477 0.081286 0.0558829 -0.0569328 0.000347382 -0.0087325 0.060571 0.00931103 0.0858506 -0.0671378 -0.0624762 -0.04625 -0.067021 -0.0399587 0.015382 -0.0172911 0.0886377 -0.0148895 0.0886249 -0.00732206 0.0523494 -0.0732741 -0.0562812 0.00987458 -0.00317838 -0.00344262 -0.0447327 -0.0144635 -0.0449857 0.062694 0.0295753 -0.0575593 -0.0786158 0.0489364 -0.0587754 -0.0254095 0.0715539 -0.0583268 -0.0605048 -0.00400587 0.0879822 0.0328245 -0.0109055 -0.0314471 0.0556614 0.0701013 0.0162481 0.0438786 0.0565199 -0.0718523 0.0245296 -0.0634333 0.00169096 0.0128623 0.0801205 0.0380119 -0.0359645 -0.0758227 0.00628803 -0.0235493 0.00520941 -0.024819 -0.00169159 0.0657361 0.0780886 0.0492018 0.0599419 0.00209219 -0.010705 0.0252314 0.0129568 0.0260623 0.0621805 -0.0220794 0.0927338 -0.0265606 0.0098554 -0.0426895 0.0576622 0.0897198 0.0287024 -0.052785 -0.0458422 -0.043523 -0.0446866 -0.0523222 0.0538007 -0.00747865 0.0313392 -0.0077758 -0.0376998 -0.042695 -0.0777303 0.0529091 -0.0232992 0.0783035 -0.066363 -0.00501626 0.0444894 0.0666438 0.0539121 0.0706693 -0.048787 -0.0436153 0.0688371 -0.000864612 -0.0381287 0.0220181 0.0693941 -0.0766588 -0.0443381 -0.0502581 0.0869238 0.0202304 0.0227311 -0.0719969 0.00221767 0.026438 0.0436785 0.0760216 0.0851935 -0.059181 0.0633 0.0268308 0.0656801 -0.0488034 0.0873847 -0.0235765 0.0368736 0.0926472 -0.0637073 -0.0014464 -0.0515876 -0.0376127 0.076429 -0.0452809 -0.0544486 -0.000737681 -0.0485169 0.0321162 0.0575784 0.0237208 0.0478539 -0.0199375 0.0239476 0.0117721 -0.051264 -0.0143896 0.0680022 -0.0613505 -0.027138 0.0220609 0.00537223 0.066636 0.00752453 -0.038242 0.0660637 -0.0399877 -0.0759627 -0.00163986 0.00813819 -0.0321484 0.0255556 -0.0383807 -0.0205515 0.0426463 0.0586636 0.0153763 0.0700358 0.0786741 0.0377658 -0.041301 0.0138593 0.0751787 -0.032563 0.0156964 -0.00775223 2.86181e-05 0.0901678 -0.0592744 -0.028483 0.082849 -0.0397602 -0.0606215 0.0583526 0.0658483 -0.00682176 -0.0137189 0.00938941 0.071774 0.0589645 -0.0620859 -0.0430615 0.0398666 -0.00718748 -0.0670563 0.0178822 -0.045204 -0.0569264 -0.0653671 -0.0261483 0.0701328 0.055295 -0.061913 -0.0474495 0.0354861 -0.0567008 -0.0189069 -0.063157 -0.0281299 -0.0200096 -0.0289915 -0.00578418 0.00733812 0.0364601 -0.0462318 0.0525025 -0.0557079 0.0552358 0.0581101 0.042849 0.031197 -0.0260483 -0.050194 0.0663357 -0.00213554 -0.0172943 -0.065357 0.040747 0.00695609 0.0580071 -0.0769845 -0.0783203 0.0559255 -0.0333492 0.0216214 -0.0524646 0.0221394 0.0502637 -0.0298663 -0.061566 6.68825e-05 -0.0436264 -0.0514984 -0.0364957 0.0497328 -0.0571244 0.0391796 0.0153145 0.0513117 0.0802342 -0.0762496 0.0703858 -0.0322556 0.00518966 -0.0604803 -0.0687647 0.0330334 -0.0319356 -0.00958241 0.0215646 0.015314 0.0633874 0.0504653 0.0455185 -0.0070694 -0.0651091 0.00731776 -0.0329563 0.0576888 -0.0513292 -0.0227802 -0.0314995 0.0554519 0.0327034 -0.0542406 -0.0360527 0.0469624 0.0449824 0.0643539 -0.0790751 0.0405495 0.0695799 -0.0170252 -0.021432 0.0597074 0.0094567 0.0325983 -0.00470312 -0.0143125 -0.0772039 0.0803265 -0.0347977 0.0521636 0.0509795 0.0133534 0.0688002 0.0643106 0.000851788 -0.0635048 0.0528012 -0.0335697 -0.00716775 -0.0487179 0.048827 -0.0573678 0.0400419 0.0362441 0.0656298 -0.012153 -0.0826663 -0.0621857 -0.00798954 0.0572676 -0.041131 0.0203977 0.0563737 -0.0164367 0.00791258 -0.0180427 0.0840533 0.069304 0.0709506 0.0518142 -0.00670604 0.0121146 0.0316812 0.0910733 -0.0767126 -0.00302117 0.0532935 -0.0502202 0.0350092 0.0597707 0.0194133 0.0551968 -0.00916316 0.0762818 -0.054825 0.00595477 0.00805235 -0.0413998 0.0331647 -0.0647 0.00331429 -0.00899652 -0.0584915 -0.0571956 -0.0460948 0.0665823 -0.0523888 -0.0436307 -0.0630581 0.0367053 0.0238578 -0.0402726 0.0233109 0.0447729 -0.0649857 0.0409419 -0.00989975 0.0616634 -0.0493141 -0.00591468 0.036821 0.0273129 0.0773213 -0.0540563 0.0136096 -0.0720005 0.036498 0.0688657 -0.0113377 -0.0642168 -0.00890494 -0.00198106 0.0249811 -0.0320847 0.0199357 0.0111657 0.0431456 0.0731465 0.0355233 0.0406439 -0.0114154 -0.053202 -0.0290737 -0.0409908 0.079322 0.0541298 -0.0583046 0.0430163 0.0892965 0.0676379 0.0839911 -0.0318783 -0.0767773 -0.0470738 0.00113716 0.000666901 0.0067162 -0.0275711 -0.0727229 -0.0727515 0.0364674 0.0122342 -0.0444533 0.0631783 -0.0665179 -0.0759161 -0.0461733 -0.00391117 0.075423 0.0788686 0.0152116 -0.0253723 0.0363913 -0.00770475 -0.0677426 -0.0618263 -0.0486077 -0.0325362 -0.0163684 0.0190822 -0.0500805 -0.0605284 -0.0379943 -0.0582037 -0.0599749 0.0296858 -0.0131981 -0.0056946 -0.0290758 0.0727408 0.0257499 0.0536082 0.00115537 -0.0697842 -0.0215502 -0.0696465 0.0275705 0.00308101 -0.0252267 -0.0587724 0.0846934 0.0849846 -0.0445661 0.0797455 0.0864382 0.027958 -0.0670609 -0.0445658 -0.0516523 0.0911255 0.0853676 -0.0220381 0.0352501 -0.00166549 0.00901785 -0.0653024 0.0112399 -0.0282767 -0.0579783 -0.00498798 0.0279789 -0.0662551 -0.0313551 -0.0566583 0.0426013 -0.0333143 0.014903 -0.0715005 -0.0055469 0.0148211 0.0165602 0.0404569 0.0598593 0.034283 -0.0673325 -0.0162382 -0.0227192 0.0926325 0.0288783 -0.068809 -0.0169759 0.0473938 -0.0108923 0.0851988 -0.0743973 0.0593192 -0.038575 -0.0684898 0.0143347 -0.00118405 0.0747747 0.0194512 0.0634374 0.0470248 -0.0157626 0.0216053 -0.0437781 0.0554919 0.0296479 -0.0114447 -0.0086972 -0.0436886 -0.026674 0.0118903 0.0717053 0.0658416 0.0743214 0.0367597 -0.0512267 -0.0513389 -0.0721363 0.0499837 -0.0722838 0.00695466 -0.0430298 0.00964172 0.0231694 0.0803203 0.0845616 -0.0433448 0.0737701 -0.0538093 0.0274262 0.0819596 -0.0568432 0.0488688 -0.0209369 -0.0288748 -0.00131684 -0.0270534 0.0585408 0.0480757 0.0229077 0.08734 -0.0164681 -0.000616869 -0.00307534 0.0653363 0.0809312 -0.0315078 -0.0606466 -0.00933473 -0.0116993 -0.039192
0.00456003 0.0131107 0.0364971 0.0557032 0.0672711 0.0101438 0.0847496 -0.0206108 0.0356948 0.0448388 -0.053134 0.0298755 -0.0126526 -0.0509927 -0.00615142 -0.0162435 0.0720468 0.0441251 0.0548125 0.0523714 -0.0224972 -0.0146875 0.0656664 0.0531966 0.0129899 0.0913129 0.0178061 -0.014844 0.00629718 0.023485 -0.0298449 -0.0500351 -0.0023898 -0.0612618 0.0187598 -0.0613912 0.00379234 -0.0666067 0.0777543 0.0677759 0.0824552 0.0177093 0.0815943 -0.01271 -0.0211213 0.0235093 0.0529429 0.00588952 -0.0534277 -0.056598 0.0652261 0.0868395 -0.0542582 0.0593729 0.0931912 0.00957872 0.0611487 0.0800927 -0.0319933 -0.0467345 0.00456354 0.0744984 0.0626718 0.0383862 0.00912682 0.0996349 -0.0417218 -0.0219001 0.0828307 0.0531914 0.00580175 0.0610634 0.0916226 0.057775 0.0760649 -0.0339827 -0.0309958 -0.0270669 -0.047916 0.00999756 0.0298393 -0.0245685 -0.0687387 0.0442294 -0.0242249 0.0669174 0.0902804 0.00431017 -0.0520869 -0.0652548 0.0441433 0.0482232 0.0490861 -0.0235396 0.129179 0.128511 -0.00356374 0.0253682 0.0425815 -0.117239 -0.122232 0.0196379 0.00956306 0.0519556 -0.00499263 0.0243928 0.0933302 0.0195136 0.106991 0.0745602 0.080171 -0.070946 0.0315752 0.00808676 0.081424 -0.0686691 0.0132867 -0.0427299 0.00206189 0.019936 0.062019 0.0346905 0.150962 0.0245211 0.0791278 -0.0147761 -0.0383346 -0.0516698 0.043994 0.117766 -0.0174183 0.15275 0.116785 0.121872 0.030314 -0.00313104 0.0187535 0.0146039 0.0686523 0.0677538 0.0556284 0.03542 -0.0292364 0.0582336 0.0611994 0.0548925 -0.0619446 0.00603727 -0.063266 0.0584968 -0.109462 0.0126529 -0.0133977 -0.15374 -0.206441 -0.142592 -0.178464 -0.0523015 -0.0848252 -0.0481063 0.106046 0.0408572 0.075883 -0.0654902 0.0392224 0.0141492 -0.0418331 0.0631577 -0.0140868 0.0150882 0.0821953 0.0154113 0.0254736 0.0156864 -0.0430477 -0.00775925 0.0404366 -0.0394097 -0.306159 -0.185668 -0.060913 -0.243478 -0.28829 -0.236209 -0.0919475 -0.0999154 -0.0929468 -0.0673644 -0.168664 -0.0359483 0.100335 0.0132373 -0.0628679 0.039713 0.0871054 0.040388 0.0249068 0.075474 0.0166375 -0.0258414 -0.0686095 0.0915201 -0.00960206 0.0646895 -0.0585345 -0.105496 -0.130467 -0.140574 -0.0405113 -0.0486205 -0.230765 -0.130915 -0.0142726 0.0497408 0.00767577 -0.260952 -0.285942 -0.0495999 0.0446119 -0.0196216 0.0792425 -0.0786183 0.0705744 -0.0619741 0.0760013 0.0631577 -0.00633096 -0.0509807 0.046693 0.0181195 -0.00828137 -0.077067 -0.039443 -0.154236 -0.104574 -0.0522298 -0.121294 -0.0632079 -0.160011 -0.212203 -0.210772 -0.143213 -0.0731638 -0.232827 -0.195463 -0.174155 0.015039 0.0410137 0.0614119 0.0697964 0.0446084 -0.0454659 -0.0564282 0.0053268 -0.0288884 -0.0275857 -0.0271219 -0.0578151 -0.124802 -0.0997667 -0.212843 -0.185035 -0.348051 -0.290078 -0.306795 -0.280512 -0.321427 -0.357 -0.242448 -0.0804068 -0.169645 -0.160623 -0.198576 -0.236904 -0.0676868 -0.00234466 -0.0815279 0.00427363 0.0599925 -0.0417575 0.018575 -0.043757 0.0063917 -0.0497431 0.0660026 -0.00827727 -0.213246 -0.19715 -0.0958112 -0.12463 -0.0700236 -0.255516 -0.225778 -0.365905 -0.476502 -0.382785 -0.241369 -0.104369 -0.240529 -0.237938 -0.272962 -0.221142 -0.0611537 -0.129086 -0.1625 -0.0361926 -0.0420392 -0.0754414 -0.0202275 0.0500435 0.0603864 0.0217206 -0.0348568 -0.130239 -0.21316 -0.154877 -0.213766 -0.149931 0.0207696 -0.00959984 -0.142424 -0.329043 -0.39346 -0.42798 -0.182229 -0.126877 -0.0937952 -0.30689 -0.262239 -0.234485 -0.150513 -0.147862 -0.0886249 0.041574 -0.0955438 -0.0529535 -0.00362028 0.0648859 -0.0724661 -0.0429515 -0.0675621 -0.15956 -0.144302 -0.164865 -0.0974466 -0.133009 0.150342 0.0378667 -0.0221901 -0.121624 -0.272022 -0.33916 -0.060338 -0.120721 -0.304237 -0.396769 -0.377121 -0.209668 -0.109301 0.0334102 -0.0926946 -0.0146538 -0.0798808 -0.0168307 -0.05456 -0.0747073 -0.0367467 0.0544434 -0.0820243 -0.204564 -0.0796898 -0.0165958 -0.0253574 0.0189416 0.216539 0.0788214 -0.064369 -0.0557837 0.00781424 -0.15327 -0.1613 -0.166635 -0.221064 -0.277998 -0.161711 -0.0406393 -0.0524014 -0.0552179 -0.0817358 -0.0397247 0.0402401 -0.0337217 0.0767327 0.0400439 -0.0373662 -0.0499335 -0.0930062 -0.00644568 -0.0914029 -0.055079 -0.0819408 0.171386 0.253051 0.128364 0.0293401 0.0181151 0.082556 -0.0666438 -0.0200414 -0.10114 -0.173472 -0.125094 -0.111076 -0.0639858 -0.0454783 -0.0826748 -0.104288 -0.0942508 -0.0553737 0.035468 0.025818 -0.0195525 0.0461365 0.0484611 -0.110758 0.0429858 -0.0417137 -0.0969049 -0.0774798 0.0699849 0.0660708 0.0718505 0.116221 0.147411 0.066835 -0.0840997 -0.0102181 0.0397419 -0.128006 -0.17215 -0.213344 -0.0474805 0.0120424 0.052565 0.00974991 0.0484135 -0.0457703 -0.061396 -0.0385701 0.0650254 -0.0529382 -0.0583131 -0.0871235 0.0425658 -0.0437186 0.0272264 -0.115943 -0.098393 0.00701971 0.119684 0.0274292 -0.130464 -0.0994447 -0.0600362 0.00512662 0.0224126 -0.134909 -0.151628 -0.113765 0.073439 -0.0550513 0.00916536 -0.0388722 0.0719024 0.0078031 -0.0256294 -0.0756372 -0.0175009 -0.0212039 0.0555595 -0.0483859 0.0176269 -0.0148562 0.0234654 -0.111852 -0.128177 -0.225559 -0.1637 -0.306884 -0.234305 -0.258063 -0.143543 0.117661 0.148876 -0.0254775 -0.167892 -0.120093 -0.0747247 -0.13277 -0.143321 -0.0593225 0.0258816 0.0188308 0.079401 -0.0382771 -0.0462767 -0.0168053 -0.026487 0.0966618 0.0224234 -0.121248 -0.00750485 -0.114044 -0.279296 -0.311283 -0.440371 -0.230551 -0.152275 -0.261222 -0.268568 0.091544 0.206214 -0.0701278 -0.246804 -0.290619 -0.11971 -0.168744 -0.152323 0.0249436 -0.0465546 -0.0308021 0.0862241 0.0495423 -0.0372839 0.0719984 0.0472433 0.00211283 -0.106354 -0.168851 -0.248007 -0.114946 -0.367088 -0.303859 -0.310815 -0.149253 -0.152793 -0.217312 -0.172746 -0.116738 0.0611415 -0.1556 -0.22524 -0.153319 -0.137679 -0.0658143 -0.10575 -0.132358 0.0128886 0.0661673 0.00905501 -0.0293788 0.00505983 0.0502116 0.00684562 0.0507394 -0.102514 -0.0604658 -0.153671 -0.204233 -0.104164 -0.09349 -0.157442 -0.0622296 -0.155846 -0.0580909 -0.0357806 -0.047159 -0.0496796 -0.112921 -0.205979 -0.0612137 -0.0310901 -0.0940278 -0.0729402 0.0101104 0.0115786 0.0567863 -0.0360891 0.05268 0.0174466 0.048585 0.0294585 -0.0357293 0.0335829 -0.054859 -0.148873 -0.148972 -0.0318045 -0.107385 -0.0718748 -0.0664868 0.0672338 0.13426 0.18506 -0.00424446 -0.0412408 -0.0413088 -0.0154692 -0.1546 -0.0238535 -0.0703593 -0.113585 0.0356385 -0.0118169 -0.0669148 0.0295965 0.00470351 0.0748506 0.0260974 -0.0703214 -0.0713777 -0.0540073 -0.123544 -0.197886 -0.113934 -0.0422718 0.0912308 -0.00760235 0.0209415 -0.0348804 0.0436251 0.0985624 -0.0935018 -0.037437 -0.132488 0.0288017 -0.0111378 -0.0965764 -0.000313203 -0.136635 -0.0667643 -0.0908231 0.0221019 -0.0584422 0.0351172 -0.0183724 0.0756804 0.0512077 0.0185776 0.0312354 -0.156137 -0.0484339 -0.102637 0.0208202 0.072151 0.0394336 0.0805103 0.000653012 0.0336938 0.00944352 -0.0543471 -0.00629296 -0.101871 -0.0907055 -0.0418487 -0.106573 -0.0475125 -0.0439778 -0.0583773 0.000319506 -0.0152073 -0.0738979 0.0179805 0.0237221 0.00661793 0.0227177 -0.0495483 -0.017465 -0.134133 -0.173774 -0.101731 -0.0083714 -0.0756697 0.0177998 0.0378074 -0.0622707 0.111435 0.0367907 -0.102415 -0.0473331 -0.106335 -0.127313 -0.130843 -0.118186 -0.0387732 -0.0722724 0.0435499 0.0041472 0.0706371 -0.0205876 -0.0304499 0.0634551 0.0647023 0.0129612 0.0556991 -0.0918925 -0.0644089 -0.0422322 -0.0582228 -0.0678869 -0.0423537 -0.0654421 -0.0349296 -0.036785 -0.0716591 0.0767367 -0.0100682 0.0345774 -0.0171059 -0.00285531 -0.0718879 -0.0203803 -0.0374464 -0.0900007 0.0048918 0.0415422 0.0503726 -0.0699431 0.015344 -0.0565386 0.038862 -0.0755134 -0.0128275 0.0281867 0.0691433 -0.0490851 -0.00255784 0.0372588 0.00495454 -0.0663592 0.0170719 0.00128984 -0.0674748 -0.0564979 -0.103332 -0.088861 -0.000834399 0.0431476 0.0723289 0.00775166 0.0348775 0.0204456 0.0236547 -0.0530531 0.0091157 0.00653509 0.0321302 -0.0394336 -0.0197001 -0.0431231 0.0114222 0.0340556 0.084315 -0.0720594 -0.0326573 0.0438139 -0.0389011 0.0917458 -0.00184167 -0.0736339 -0.0338364 -0.0409282 0.0838522 0.0145985 0.0549215 0.0436478 0.0375371 0.0402056 -0.0401681 0.0706338 -0.0308111 -0.0478261 -0.0457743 0.0891127
