0.00306642 -0.0747952 -0.0100788 -0.0446675 -0.0290285 0.00163025 0.0171262 -0.00803143 0.0288452 -0.0288728 -0.0133682 -0.031388 -0.0559395 0.0377328 0.00411187 0.031784 -0.00132163 -0.0301811 0.0755666 0.0769296 0.00858399 0.0186161 0.0416787 -0.0291587 0.00966935 -0.024318 -0.00556958 0.0450972 -0.0732421 0.0146518 -0.0341682 0.0360515 0.0330671 0.0266671 0.0416403 -0.0335995 -0.0177581 0.0646738 0.0148935 0.00688532 -0.0576306 -0.0124732 0.0587095 0.00664132 0.0631142 0.0470018 0.0648972 -0.0502307 0.0549099 0.0160764 0.0613465 -0.0774288 0.0277692 -0.0346287 -0.0365989 0.0560922 0.0564595 0.0649948 -0.0398553 -0.0380599 0.0172071 -0.0189392 0.0453905 0.0779019 0.0822978 -0.0194526 0.0198923 0.0139937 -0.00460623 -0.0617643 -0.028855 -0.0332146 0.0108347 0.0728357 -0.0179912 -0.0644004 0.0752761 0.0450703 -0.0342345 0.0333835 -0.0541036 -0.0322673 0.0514119 -0.0573408 -0.0797831 -0.0384617 0.0248293 -0.0763906 0.0194572 0.0734985 -0.0133348 0.0498104 0.0448726 0.056805 -0.0448933 -0.00519811 0.0697221 0.0250508 0.0430957 0.0366549 0.0240847 0.0443949 0.0302145 -0.0404807 0.0603109 0.0231883 -0.00543208 0.0544301 0.00554584 0.0237959 0.0518719 -0.00295626 0.0312913 -0.0584353 -0.00455431 -0.00572095 -0.0412838 -0.0283544 -0.0369488 -0.072994 0.0208984 0.0771624 0.0854632 -0.00267278 0.0808874 -0.0727432 0.0487757 -0.0407778 0.0732354 0.0103162 -0.0629524 -0.0244461 0.0569297 -0.0603328 -0.0650769 0.0734401 -0.00901224 -0.0456171 0.00659772 -0.018037 -0.0718906 0.075933 -0.0170064 -0.0287019 -0.0140304 -0.0114706 0.0235738 -0.00280243 0.0639072 -0.0315144 0.0143843 -0.0460647 0.0470667 -0.0128942 -0.0818219 -0.124535 -0.0250398 0.0128737 0.0126795 0.0787526 0.0432462 0.00489342 0.0470108 -0.0524698 0.0568405 0.083823 -0.0356576 -0.0552563 -0.0553594 -0.0176519 -0.0606218 -0.00715883 0.0421352 0.0357064 0.00778496 -0.0780533 -0.0639562 0.0117778 0.0519555 0.0276299 0.0191612 -0.0364015 -0.103315 -0.0106473 -0.146219 -0.123883 0.0332505 0.00255381 -0.00218148 0.0738391 0.0902352 -0.0674597 0.0458624 -0.0413492 -0.0101929 0.0164747 0.026952 -0.0014327 0.0458847 0.0247148 -0.0765766 -0.0586832 -0.0617202 -0.0942082 -0.0127836 0.0275042 -0.028538 0.0160814 0.0211223 -0.0711562 -0.0624996 -0.0890987 -0.12551 -0.0328613 0.0901923 0.0642172 0.0405015 0.0512111 0.0414922 -0.0176813 -0.0288046 0.0357013 -0.0617661 -0.0446162 0.0219822 0.026114 -0.0422149 0.0532294 -0.0320903 -0.0244622 -0.04614 -0.0423436 0.0571528 0.00377911 0.0392901 -0.0592222 -0.0788205 -0.0640555 0.0450239 0.0161906 0.0509159 -0.0200452 0.0169641 -0.00385061 -0.0217532 0.0877934 -0.00609117 0.0563319 0.0499182 0.0635029 -0.0114037 -0.0630843 0.0500175 -0.0535698 0.0702435 -0.0831207 0.0216869 0.0694647 -0.014511 0.0128798 0.0383025 -0.102671 -0.0993664 -0.0963031 -0.0524204 -0.0777913 -0.13041 0.0313897 -0.0506 -0.0734555 -0.0218601 0.0165936 -0.0555147 -0.0312717 -0.0192423 0.015727 0.0295801 0.000656569 -0.052917 -0.0141622 -0.0236395 -0.0236662 0.0382164 0.025177 -0.0628118 -0.0366262 0.0110511 0.0345936 0.0143159 0.0397806 -0.0939626 -0.0275541 0.025281 -0.0480184 -0.132886 -0.0774893 -0.052898 -0.112689 0.0143117 -0.0362801 -0.0254271 0.0141996 -0.0557191 0.0478074 0.0358736 0.0685908 0.0659672 0.00375145 -0.0128193 -0.00655866 0.0588681 0.011733 -0.0563886 0.0123766 0.0466446 -0.0403573 -0.0958046 0.0219201 -0.0328138 -0.0228871 0.0103844 -0.162162 -0.0919848 -0.0905068 -0.118595 -0.0270335 -0.011654 0.0363288 -0.0674304 -0.0109613 0.00113337 0.00766724 0.0578226 0.0191271 -0.0806502 -0.0443642 0.00913935 -0.000744881 0.0429872 -0.0154546 0.00737137 -0.0341909 -0.0382035 0.0417691 0.0174309 -0.10075 -0.0933757 -0.0797951 0.0105244 0.0437012 0.0732385 0.0602154 0.00703562 -0.0894274 -0.0296182 -0.0708962 -0.00645593 0.0397633 0.00784397 0.0309696 -0.0628442 0.0462038 -0.0392083 -0.0618639 -0.0517972 0.0215442 0.0678601 -0.00965826 -0.0761026 -0.0729847 -0.0675934 -0.0111737 0.00751963 -0.0120178 -0.0572892 0.0484359 -0.0131321 0.0985964 0.0535744 0.0418119 -0.0712944 0.0173917 -0.119442 -0.0219853 0.048073 -0.0504997 -0.119 0.0137062 -0.000493259 -0.00075671 -0.0621361 0.0129901 0.0323597 0.0464608 -0.00302934 0.00584043 -0.0674207 -0.0786181 0.024262 0.0139949 -0.0239811 -0.0241408 0.0635285 -0.0112257 0.0311406 0.0806097 0.174398 0.100121 -0.0574331 -0.0223304 0.0695306 0.0073935 0.0254001 -0.0585421 -0.0643559 -0.101552 0.0477152 -0.0716309 0.0683287 0.0290256 0.00590499 -0.00256836 -0.00989614 0.0239601 -0.065844 -0.0736227 -0.0239201 -0.0643671 0.0471147 0.044482 -0.00465887 -0.00753493 0.107107 0.147556 0.0773452 -0.0216149 -0.0535174 0.0570083 -0.0402426 -0.075345 -0.0104906 -0.0476216 -0.0731807 0.0425593 0.0787483 0.0681189 0.0393411 0.00168782 -0.0324879 0.0344212 0.0660254 0.0114558 -0.0344681 0.0283206 0.00617671 -0.115437 -0.0722474 -0.0930833 -0.0581206 0.079079 -0.0535342 0.00232229 0.0126908 -0.0636817 0.0106905 0.0519281 -0.0471477 -0.109534 -0.0250033 -0.101864 -0.0271412 -0.0145847 0.0159875 0.0717541 -0.0564385 -0.0370457 -0.0415778 -0.0364354 0.0740178 0.0921485 0.0987067 -0.0268689 -0.0298295 -0.0940724 -0.0792057 0.0441085 0.0543528 -0.0356638 0.028532 0.0450579 -0.0494081 0.0519292 0.0171124 -0.0014094 0.0283343 -0.0481221 -0.0430031 -0.0320283 -0.00704681 0.0171898 0.0645848 0.0628747 0.0493692 -0.00867731 0.0244965 0.0737036 -0.0088882 -0.0591958 -0.0440358 0.0604214 0.0964591 0.0736031 -0.0801796 0.00802491 -0.0156688 -0.0326821 0.00208645 0.0244581 0.0531778 -0.0681513 0.00533662 0.0315632 -0.0032263 0.052183 -0.04575 -0.0408803 -0.0207897 -0.0665277 0.0884732 -0.010871 0.0530156 -0.0442134 -0.00581668 -0.0226991 0.0829085 0.0244871 0.0542871 0.0928445 0.0835441 -0.0410261 0.0259852 -0.0080426 -0.0465648 -0.0295604 -0.117868 -0.0572423 0.0144847 -0.0533766 -0.0585332 -0.052864 0.08218 0.00980389 0.0535742 -0.0591301 0.00936247 0.100871 0.0833392 0.0607565 -0.0343959 -0.0766865 -0.020787 0.0709785 0.036217 -0.0659541 0.0806404 0.0637198 0.0707776 0.041771 0.00460299 -0.0134576 0.0562897 -0.00942041 -0.0772873 0.0484272 -0.0150204 -0.060749 0.0062472 0.0062123 -0.0236573 0.0939545 0.0347611 -0.0012992 0.0554672 -0.0409245 -0.0579917 0.0155382 -0.0320815 -0.0619167 0.00912103 -0.0806283 0.0387774 -0.0759793 0.0452671 -0.00139953 0.0121472 0.0100435 -0.0328848 0.0658801 -0.0605845 -0.0932612 0.0421589 -0.0426044 0.0120401 -0.045648 0.000634095 -0.00274833 0.078737 0.0434765 -0.00351431 -0.0507587 0.0128168 0.0328365 0.0676989 0.0351345 0.029956 -0.0246595 0.0771141 -0.0783541 0.0592181 -0.0693768 -0.0588148 -0.0329513 -0.0929968 0.0305562 -0.00919844 0.0551162 0.00833153 -0.0295317 -0.0638626 0.0283062 0.0416113 0.0232219 0.0647073 0.0155958 0.000672655 0.0185155 -0.0591839 0.049493 -0.0424834 0.0681393 -0.0805606 -0.0617693 0.0393396 0.0464426 -0.0126301 -0.0169732 0.00907362 -0.0455353 0.063373 -0.0576759 -0.0788472 0.00174355 0.0319711 0.0210124 0.0410645 -0.0737107 0.0159509 -0.0652756 0.0474147 0.0198945 0.0792921 0.0139427 -0.0545058 0.0459485 0.0856144 -0.0694933 0.0727437 0.0328773 -0.00168535 -0.0695294 -0.0516183 -0.0374642 -0.0507606 -0.00408611 0.0388628 0.00843601 0.0222135 0.0403698 0.0339751 -0.108224 0.0171269 -0.0724876 -0.0232385 -0.091817 -0.0233265 0.0172711 0.0687704 0.000129757 0.0641407 -0.0367931 0.00909352 0.0322337 0.0781209 -0.00168535 -0.0315149 -0.0373626 -0.0124851 -0.0415328 -0.0470471 -0.0479623 0.0387155 -0.0152259 0.0174803 0.0469282 0.0529277 -0.00619535 -0.0421546 -0.0748494 -0.0817202 -0.00798435 -0.0247567 0.0870877 -0.0625158 0.0825794 0.0459013 -0.00849916 -0.0117166 -0.0728407 -0.0186051 0.0441224 0.0399609 -0.00796408 0.00280636 -0.0502558 -0.0717146 0.025998 -0.00258142 -0.0170836 -0.0132393 0.0334803 -0.00187919 0.0790142 0.0512522 0.0108363 -0.00240312 0.00184354 0.0503805 0.0363739 -0.0876697 0.0747476 -0.0173351 -0.0839392 0.0103856 -0.0705209 0.00719293 -0.0265389 -0.0706719 -0.0620553 -0.0208854 -0.0689336 0.0205461 0.0130326 -0.0403868 -0.0594907 -0.0447056 -0.0158642 -0.00558847 -0.0166729 0.015861 0.0689915 -0.0791966 0.00739287 0.00750045 -0.0720234 0.0468476 -0.0225275 0.00731571 -0.0664735 -0.0491643 0.00316408 0.033 -0.0442913 0.0119469 -0.011362 -0.0241728 0.0418859 0.0336017 -0.000194233 0.0166232 -0.0549662 0.0668091 -0.0148208 0.0297701 0.0779124
0.0500847 0.0646689 -0.0596988 -0.0665898 -0.00862789 -0.0431517 0.0710938 -0.0616911 0.028629 0.0722848 -0.0279508 -0.0155502 -0.0585627 -0.0676365 -0.0684648 -0.0747859 0.0445991 0.00715493 -0.0734494 -0.0701842 -0.0302676 -0.0461958 -0.0365697 -0.0369216 -0.0600625 0.00263411 -0.0647969 0.0643332 -0.0371444 -0.024487 -0.00736686 0.0005449 -0.0050442 -0.00146255 0.00940313 -0.0117045 -0.0260166 -0.011567 -0.0665002 0.00789625 0.0749941 0.0573531 0.0159579 0.00283895 -0.0793772 0.0167167 -0.0108632 -0.0681426 -0.0455498 0.0631311 -0.0141957 0.0506584 -0.0762804 0.0672483 -0.0769853 0.0767315 -0.0327969 -0.0542353 0.0212074 -0.0395042 0.067856 0.0337171 0.00851128 -0.0160415 -0.0455861 -0.0226038 0.0514119 0.0580657 0.0684854 -0.0542125 0.0911895 0.0237938 0.047755 0.0396835 -0.0164194 -0.0462498 -0.00751233 -0.0547999 0.0763303 0.0364287 0.0398473 0.00834033 -0.0421488 -0.0692697 0.0511204 -0.0206262 -0.0518298 0.024877 -0.0580103 -0.00805271 0.0178476 -0.05734 -0.0562213 -0.00437204 0.0108477 0.0174571 0.0685256 0.105313 0.043315 0.0416222 0.0355866 0.062052 -0.035139 -0.0185683 -0.015561 0.0966994 -0.032018 -0.00331162 -0.0213687 0.0359335 -0.0427106 -0.0117585 -0.0108299 0.0192398 0.0546822 0.0689664 0.0131282 -0.0463115 0.018021 -0.0459593 -0.0635201 -0.0551534 0.0212734 0.0702415 0.0991814 -0.0239505 0.0763526 0.052457 0.0854708 0.0319537 -0.0208436 -0.0437113 -0.0012472 0.0331675 -0.064193 0.0726614 0.0182837 -0.049089 0.0537167 0.000603022 -0.0630206 -0.0311445 0.0118247 0.0357451 0.0421505 0.0620459 0.0145061 -0.00693243 -0.031197 0.0603359 0.08221 0.0613106 0.0290572 0.0193054 0.0144596 -0.0107901 -0.1093 -0.0788907 -0.0634822 0.0960232 0.0748461 0.0336057 -0.0401667 -0.0575545 -0.039148 -0.0135125 -0.0462542 -0.0244378 -0.0638801 0.0555259 -0.0780903 0.00327579 0.036862 -0.0271957 0.0266403 -0.0402054 0.00994734 0.00226838 0.0707435 0.0119641 0.163548 0.00175903 -0.0172629 -0.00189126 -0.0088974 0.121776 -0.0326066 -0.0637135 -0.0247082 -0.0417387 -0.0326214 -0.0839351 -0.0359927 0.0411094 0.0676957 -0.0405475 0.00931662 0.0653752 -0.0227786 0.0747045 0.042501 -0.0774363 -0.109242 0.0279146 0.03396 -0.00787503 0.111692 0.065332 0.0400263 -0.027072 0.0508336 0.0228627 0.0635532 0.0969551 0.0140464 -0.0438548 0.0150965 -0.0377788 0.0439988 -0.067532 -0.0504001 -0.0662679 0.000146279 -0.0513838 -0.0565697 0.057165 0.0112845 -0.0581419 0.0692598 0.0189793 0.017178 0.0411214 0.0848697 0.10308 -0.00573657 -0.00231444 -0.0492087 0.0149342 0.00550067 -0.0614435 0.0512516 -0.106043 -0.108735 -0.0199262 -0.0496105 0.0346836 0.0234417 -0.0900377 -0.0681588 -0.017515 -0.0436184 0.0294509 -0.0367668 0.068846 0.0176481 0.002396 0.0880629 -0.0349251 -0.0740101 -0.0817082 -0.0440651 0.0050663 -0.00367346 0.0299201 -0.0390525 -0.0329849 0.0389114 -0.0449873 -0.0654584 0.0138731 -0.0822461 0.0155833 -0.0749622 -0.0779649 -0.0957861 0.0356576 0.0128412 -0.0251949 -0.0683228 -0.0327181 0.048172 0.0584769 -0.0739011 0.0279904 -0.0399176 -0.0280151 -0.0942106 -0.00498182 -0.0440019 -0.0505981 -0.0256517 -0.0439284 -0.103877 -0.0477632 -0.0986095 0.00463705 -0.00173966 -0.0219897 -0.069377 -0.0183986 -0.0208541 -0.0201842 0.0420549 0.0346113 -0.034263 -0.0604938 0.0596329 0.0551679 0.0469707 0.0428642 -0.00161506 0.0486657 -0.0321647 -0.0208458 0.00282392 0.067049 0.0412286 -0.0589979 0.00656867 -0.0537054 -0.0656141 -0.00796231 0.00685778 0.01612 -0.0497305 -0.0801633 -0.0578171 -0.0367972 -0.0712782 0.0347398 -0.042183 -0.0806602 -0.0543278 -0.0384399 -0.0724278 -0.0367726 0.0137326 -0.0138642 -0.0664199 0.0164589 -0.0421891 -0.0726017 -0.057455 0.0107947 -0.0285378 0.044399 -0.0455711 0.0129231 0.00903886 0.029238 0.131138 0.0636443 -0.0103392 0.0316227 0.0258198 -0.031509 -0.0628616 -0.0030069 -0.00743634 0.00332658 0.0170922 0.0433761 0.00419684 0.0781262 -0.0578664 0.0371117 -0.0138771 -0.067892 -0.0322602 -0.00644987 0.00154991 0.0297982 0.0763351 0.0598737 0.0721686 0.0149605 0.0694051 0.0996054 0.0243944 0.082474 0.01026 -0.0586694 0.120857 0.0273072 0.0137888 0.00647799 0.0862411 -0.00859839 0.0345492 -0.0342696 0.044885 -0.0412893 -0.0299761 -0.0537767 0.014528 0.028344 0.0623138 0.0279294 0.00852637 -0.0429699 0.00817409 -0.0104239 0.0219747 0.114047 -0.00065933 0.111319 0.147896 0.0938482 -0.00335413 0.0870474 0.132278 0.143973 -0.0100577 0.0342696 0.0211161 -0.00394142 -0.0946703 -0.0188362 -0.00125064 -0.00271913 0.000320799 -0.0355285 0.0227466 0.0607098 -0.00214441 -0.078162 -0.079612 -0.0205843 0.0962843 0.0352471 0.108752 0.159457 0.122797 0.0877062 0.196918 0.0747314 0.0690374 0.0804067 0.0442477 -0.0179932 0.0879398 -0.0166421 0.0994482 0.0094117 0.0671675 0.0608618 -0.0683815 0.0442496 -0.0137128 0.0691064 -0.0257839 0.016486 -0.0262715 -0.0484861 -0.079241 0.0458198 -0.0095261 -0.0111157 0.106815 0.0917675 0.00541342 0.0516772 0.0601335 0.0451107 0.117148 0.00318964 -0.00116182 -0.0481081 -0.0715388 -0.0690008 -0.0464584 -0.0189452 0.00713843 -0.0583043 -0.0491639 -0.0288875 -0.0302146 0.039295 0.0760277 0.026407 -0.0534967 -0.0442938 0.0335229 -0.00196281 -0.00921872 -0.00927539 0.0549351 -0.017319 -0.0660259 -0.0047801 0.0568582 0.00711098 0.0450879 -0.0511288 0.0500535 -0.0155396 0.0247735 0.0632936 -0.00204187 0.0862064 -0.0768657 -0.0504367 0.0071393 0.0604089 0.00564605 -0.0399262 -0.0486095 0.0755734 -0.0416418 -0.0181194 -0.0499669 0.00833684 -0.0779105 0.00213193 -0.0466288 -0.091224 0.0183117 0.0486932 0.00375152 -0.0163504 0.081603 -0.0396188 -0.0329483 -0.047496 -0.0163093 0.0505834 0.00869669 -0.0520463 0.049275 -0.0431805 -0.020467 -0.0299458 0.0346549 -0.00486533 0.0327602 -0.00360111 0.0213911 -0.0430272 0.0621151 -0.0723895 -0.0321727 -0.0566074 0.0875262 -0.00579587 -0.121452 -0.0480017 0.0385742 0.00862553 -0.0503038 -0.014881 -0.0932694 -0.0843976 -0.0038102 -0.0786893 0.0290683 0.0199192 0.0220385 0.0679583 -0.0308066 0.0690039 0.0723281 0.00391592 0.0252496 -0.046973 0.00653087 0.0335022 -0.058221 -0.0578705 -0.0924087 -0.000866266 0.0414854 -0.0843648 0.0418823 -0.0238214 0.00136854 0.0921144 -0.0350512 -0.0106324 -0.0504086 -0.0962196 0.0185525 0.0266172 -0.0878749 -0.086432 -0.047476 -0.0136456 0.0566998 -0.0246863 -0.0385668 0.0467654 -0.0149954 -0.0142202 -0.0305879 -0.0214839 0.0704718 0.0896414 -0.024132 0.0675513 0.0729581 0.030937 -0.0276895 0.0175494 -0.0170401 0.105661 0.0550337 0.0109343 -0.0301132 -0.0868664 -0.0240099 -0.0073912 -0.0909675 -0.0707497 0.0418759 -0.0720215 -0.064991 0.0734911 -0.0609299 0.0326113 -0.0265468 -0.0487487 -0.00339453 0.0451441 -0.0395273 -0.0184964 -0.089556 0.0422187 -0.0466835 -0.0937989 -0.13073 0.0532754 -0.0627486 -0.017146 0.00694136 -0.0571429 -0.0682234 0.0163211 0.00822738 -0.0510351 -0.0885721 -0.0303905 -0.100177 0.0619627 0.035344 0.0794988 -0.0702528 0.0294132 0.0124486 -0.0437445 0.0496704 0.0714333 -0.0199539 0.0114115 0.0485255 0.0686778 0.0564182 -0.0729475 -0.0756762 0.0808448 -0.0329527 0.0193149 0.0404292 0.0107173 0.0120305 -0.121554 0.0382545 -0.0859166 0.0297034 -0.0277138 0.0201745 -0.0552774 -0.0745397 -0.05376 0.00672054 0.0784672 -0.0681775 -0.0126138 -0.00640366 0.0880866 -0.0542632 -0.0122164 0.0725876 -0.00550603 0.0117241 0.0132478 -0.00224872 0.048503 0.0315551 0.0179902 0.0274472 -0.0185645 -0.0152326 0.027495 -0.0145359 -0.0357576 -0.0448168 0.0711283 -0.0408149 -0.0570591 0.0246848 0.0497142 0.0531857 -0.0544846 0.0649989 -0.0359771 0.034403 0.0244556 0.0727673 0.0244686 0.00106412 0.0884035 0.115182 -0.0466692 0.0240476 0.0660425 -0.0131163 0.0287148 0.0173354 -0.00647781 0.0335951 -0.0255022 -0.00440626 -0.0280861 0.0449888 -0.0116906 -0.0239558 0.00361635 -0.0306518 0.0582831 0.0803587 0.0742106 -0.0116343 -0.0595471 0.0117145 -0.0388124 -0.0655611 0.0405499 -0.0590346 0.0531058 0.0191088 0.0866171 0.084724 0.00762885 -0.0828823 -0.0467904 -0.0135271 -0.0068813 -0.0639899 -0.0616262 -0.0461065 -0.0749626 -0.0563481 -0.0672829 0.0681228 -0.039568 0.0533609 0.0820242 0.0606954 -0.0493513 -0.0626208 0.0807917 0.0221679 -0.0449226 0.0538822 0.0248666 0.0497104 0.0334939 0.0769541 -0.0230783 0.0759989 0.0155577 -0.018829 0.0162913 0.0496589 0.0182184 0.00104837 0.0570436 0.0288596 -0.0375138 -0.0294325 -0.0132654 -0.0592742 -0.0626248 0.0821977 -0.0586443
0.0178043 0.0174935 -0.00239397 0.0105026 0.0203019 -0.00513902 0.0346724 -0.0683467 -0.00533228 0.0564112 -0.0314635 -0.0736426 0.0644682 -0.038303 -0.0718944 -0.013255 0.0588264 -0.0735272 -0.0370517 -0.0620214 -0.056212 0.0206209 0.0677911 0.063167 -0.0575822 0.0643685 0.0481529 -0.00568565 -0.0157698 -0.0117331 -0.058538 -0.0429046 0.0411289 -0.0591453 -0.0750015 0.0652101 0.0787328 0.046639 0.0467019 -0.0260057 -0.0376162 0.0564552 -0.0763604 0.0435239 0.0807654 -0.0338478 0.0289442 -0.0318497 -0.0139424 0.0816066 0.0772455 0.00726801 0.0486135 0.0623656 -0.0024775 0.0253101 0.0412345 -0.0780551 0.0308234 -0.0633439 -0.0663361 0.0754289 -0.0741248 0.0691271 0.0206367 -0.0446806 -0.023203 -0.0220381 0.00793093 0.0311019 0.00223741 0.0913107 0.0213816 -0.0483011 0.102182 -0.00881324 0.00901313 0.0192782 0.0792836 -0.0450234 -0.0531302 -0.0166962 0.0301 -0.0272915 0.0274501 0.0314565 -0.0542087 0.0799022 0.0641138 0.0333732 0.0582874 0.0972342 -0.0371386 0.0564795 -0.0326186 0.0502285 0.0704917 0.0196805 0.0695616 0.0541742 0.00654486 0.0781334 0.0158768 -0.00648075 -0.00401769 0.0215796 0.0308169 -0.0103122 0.0504437 -0.0545972 0.0728588 0.0403958 -0.0493184 0.0394089 -0.00154234 -0.0656927 -0.0129278 0.0705079 0.0653371 0.0568466 0.0742343 -0.0114549 0.0819605 -0.0175965 0.119615 -0.033651 0.0307477 0.073749 0.106753 0.0871426 -0.0320317 -0.00589584 -0.0460796 -0.0277589 0.0292282 0.00141642 -0.0295306 -0.0114443 -0.059609 -0.0104525 0.00919496 0.0276358 0.041965 -0.0739906 0.00875883 -0.0195607 -0.0119991 0.0307786 0.0577684 0.0535489 -0.0488555 0.00877802 0.0664127 0.0475285 -0.0389612 -0.02343 -0.0187832 -0.0927589 0.00931669 0.0294316 0.00243052 -0.0120201 -0.0168333 0.00201917 0.0492328 0.0366956 0.0428892 -0.0450191 -0.063997 -0.0757337 -0.0736753 0.0712837 -0.0743382 -0.0561492 -0.10865 -0.0464552 0.00565551 -0.0304942 -0.0389881 -0.0991161 0.00749223 -0.117402 -0.13552 0.0113101 -0.0334409 -0.171455 -0.058169 0.00978308 0.0671045 0.0204503 -0.0303869 -0.00685965 0.036116 -0.0241597 0.0255851 -0.0404702 0.0352854 -0.0439745 -0.0354064 0.0369949 -0.0330426 0.038504 -0.0754686 -0.0780182 -0.071618 -0.09094 -0.0289342 -0.0238941 -0.0785899 -0.101298 0.0761913 -0.00605172 -0.164744 -0.0901757 -0.0544873 -0.1459 -0.0225163 -0.0330519 -0.0514705 -0.100537 0.025214 0.0622273 0.0140197 -0.046132 -0.0648714 -0.0691759 -0.0706456 -0.045187 -0.0759794 -0.0585598 -0.0701271 -0.118336 -0.111268 -0.0687715 -0.0829034 -0.0159296 -0.0103772 0.0342724 0.00842893 -0.0472619 -0.114823 -0.0972406 -0.0736944 -0.0846438 0.0273715 0.00377311 -0.0770699 -0.0170229 0.0427499 0.0516994 0.0483171 0.0292118 0.0365312 -0.0207026 -0.0403548 -0.0570346 -0.041045 0.0115574 0.0105148 -0.00394158 -0.0101498 -0.0495584 -0.124439 0.00172971 -0.0365983 -0.0586666 0.000454456 -0.068998 -0.0236713 -0.0561411 -0.0834808 0.0318884 -0.0761319 0.027634 0.0286251 -0.049689 -0.00989512 -0.0385398 -0.0605682 -0.0730403 0.0225376 0.00621998 -0.0021311 -0.0330451 0.0872203 0.063639 -0.0761425 -0.0500165 0.0430752 -0.0391583 -0.0547167 -0.0963496 -0.0860444 -0.0085783 -0.0139485 0.0438277 -0.0313368 -0.0965115 -0.0374164 -0.0124351 0.0633347 0.0114884 -0.0172582 0.000390519 -0.0245537 -0.0187435 -0.0332039 0.0346376 -0.045979 -0.0782236 0.0620179 -0.0514125 0.0800246 0.0345197 0.0258259 0.0156262 -0.0307517 -0.0787157 -0.0541559 -0.0418224 -0.101279 0.0183788 0.0652852 0.00487357 -0.0101453 -0.0156432 -0.0166648 -0.0361861 0.00522711 -0.0243561 0.0529774 -0.0382067 -0.00154742 -0.0203899 -0.0689608 0.0381847 0.0816945 0.0481137 0.00989728 0.0241893 0.0590711 -0.0424132 -0.0355942 -0.0321949 0.0689443 -0.0566093 -0.0884407 -0.122243 0.0268011 -0.0315882 0.172994 -0.0499197 -0.0190103 0.032894 -0.0244871 -0.0218595 -0.0876119 -0.0385083 0.0533893 -0.0327965 -0.0635987 0.0528223 -0.0229078 -0.027566 0.0774181 -0.0281202 -0.0183996 -0.012541 -0.0541744 -0.112053 -0.0261689 -0.108399 -0.0729393 -0.0166619 -0.0582705 0.0583733 0.0463984 0.0935001 0.0474375 0.0266714 0.0094773 -0.0824496 -0.0718202 -0.0262291 0.0469085 -0.0535549 0.0586173 0.01758 0.0192469 0.0674305 -0.0459679 -0.0358654 0.0469345 0.00799099 0.0634103 -0.0376757 -0.0964543 -0.0801224 -0.0873169 -0.0970197 -0.0545036 0.0450528 -0.041791 -0.0113652 0.0829135 0.00591963 0.0891063 0.0227915 -0.0430701 -0.00235153 -0.0781203 -0.0171843 -0.00334025 0.0110658 0.026559 0.00698296 -0.0413775 0.0090938 0.0460941 -0.012058 0.0452416 0.013487 0.0188855 -0.0635959 0.0371822 0.017544 0.0212074 -0.0792435 0.0475922 0.00733666 0.0473595 0.0349654 -0.00304091 0.162666 0.156823 0.0360931 -0.0807079 -0.0129155 -0.066412 -0.0512498 -0.0113892 0.0804796 -0.048353 -0.0478528 0.0579353 0.0536323 0.0630823 0.00120221 0.0790706 -0.00175392 0.0152988 0.0956073 0.0940882 0.0908169 -0.0147814 -0.00939232 -0.016225 -0.00257985 -0.0393479 0.0852824 -0.00403878 0.138429 0.124705 0.0561425 -0.0608177 0.0440827 0.030056 0.048042 -0.00738179 -0.0632801 0.0561788 0.0765525 0.0314657 0.0442387 -0.00736958 -0.0189358 0.00789391 -0.0597146 -0.0715011 0.106368 0.0955349 0.0137333 0.0561269 -0.0230369 -0.00350181 -0.0333537 0.087507 0.015149 -0.0595795 -0.020905 0.0759831 0.0409543 -0.0337058 0.0326809 0.0115674 0.090244 0.0289192 0.0559803 -0.0548752 0.0520385 -0.0116174 -0.0209534 -0.00732034 -0.0274299 -0.00710864 -0.0298038 0.0571921 0.0308131 0.0715169 0.0731817 0.0469574 -0.000386487 -0.0486058 0.047911 0.00811444 -0.0335984 0.0155872 -0.0012474 -0.044448 0.0345188 0.13695 0.0879066 0.0940395 -0.00159776 -0.030719 -0.0305048 -0.0495133 -0.0680716 0.0145459 0.0244363 0.0430007 0.081299 0.0388897 -0.0116866 0.0607425 0.0471351 0.0113771 -0.0321133 -0.0511418 -0.0252059 -0.00761743 -0.0128174 -0.0166571 0.0584151 0.0216339 -0.0675504 0.00850929 0.0156413 0.114959 0.0710554 0.0490698 -0.0462607 0.100361 0.0612819 0.0255452 -0.0363343 0.0564031 0.0400519 -0.0328174 -0.0233007 0.0808566 0.080447 -0.0362931 -0.0591315 0.0347677 0.0238645 -0.0250279 0.0719997 0.0119484 0.123011 -0.0095894 0.0598062 -0.00357629 0.0685486 0.0940091 0.11259 0.0886977 0.0456779 0.00230591 -0.0104077 0.0338805 0.00174185 0.0552596 -0.0339666 -0.0284474 -0.0681872 -0.0665401 -0.0532689 -0.0781894 -0.0613968 -0.0374003 -0.0182047 0.0667831 -0.0187342 0.035666 0.0876629 -0.00598223 0.0796484 0.101891 0.0193807 0.0693691 0.138849 0.119391 0.115118 0.107692 0.107265 0.0928552 0.099713 -0.0355381 0.0141825 -0.070495 0.00723148 0.0341476 0.0414437 0.0825859 0.0773142 -0.0727726 -0.0456545 0.0437816 0.0167776 -0.0427432 -0.038249 0.00150427 -0.0864773 -0.0837929 -0.00407414 0.0741396 -0.00148454 -0.0436763 -0.0291849 0.011085 0.0630913 0.0906096 -0.0249119 -0.00207969 0.00271725 -0.0740173 -0.066261 -0.0945892 -0.0148614 -0.0447192 -0.0146294 -0.0036225 -0.0784712 0.0288229 -0.0599661 -0.025428 0.0370341 0.077022 0.074855 -0.0351627 -0.0221259 -0.0141091 0.00269233 0.0395852 0.00748298 -0.00884332 -0.0475128 -0.0342518 -0.0318959 -0.00131799 0.00940014 -0.0655302 0.0355756 -0.0405827 -0.0277105 -0.00795248 0.00483416 -0.00883018 -0.0752678 0.0111536 -0.022637 0.00232029 -0.038174 -0.0167628 -0.0685657 -0.0190042 0.017991 -0.0478271 0.0346262 0.049985 0.0114671 -0.0291557 0.0529641 0.0856734 -0.0925616 -0.0613902 -0.105641 -0.0314445 0.0232745 -0.0683079 -0.0136168 0.029183 -0.0331973 -0.0684212 0.0698092 -0.0290123 -0.028769 -0.0776297 -0.00505654 0.0266734 0.0716636 -0.0260065 -0.0429434 -0.0807126 0.0194089 -0.0746066 -0.0661342 0.013731 -0.0193919 -0.00184736 -0.0420282 -0.00395848 -0.0568306 -0.0512275 -0.0364943 0.0386983 0.0356979 -0.0872451 -0.0578105 0.0503411 -0.0331672 -0.010053 -0.0429049 0.0491603 -0.0429325 -0.0543091 -0.0743292 0.0287717 -0.0237367 0.0519754 0.028081 -0.0540236 -0.0618102 0.065012 -0.056913 0.0597625 -0.059901 -0.0528012 0.0236613 -0.0749022 0.0653504 -0.00859327 -0.0604175 -0.0373597 0.0504479 -0.0435726 -0.00873286 -0.0469478 0.0576489 0.00979196 -0.00426274 -0.0202984 0.0472842 -0.0601407 -0.0753777 -0.0665854 0.0259364 0.00665415 -0.018793 0.0659928 -0.052377 0.0120142 0.0467521 0.0673828 0.0396533 0.0467974 0.078059 0.00706097 0.0370738 0.0666333 0.0239812 -0.0498379 -0.042427 0.041888 -0.0778179 0.0801146 0.0518688 -0.0795804 -0.00850451 -0.068702 0.0787961 0.057797 -0.0270547
-0.0469885 -0.045345 0.0167802 -0.0100214 0.041176 -0.0393474 -0.0294735 -0.0239633 -0.0576417 0.0727528 -0.0365899 0.0528358 -0.0376674 -0.0775617 -0.0164797 -0.0399954 -0.0126161 -0.0322842 -0.0216088 0.0621229 -0.0343922 0.00555027 0.0273716 -0.0380077 -0.0512067 0.0420468 -0.0208718 0.0208049 -0.0165485 -0.0504157 0.0670724 0.0758741 -0.0113746 -0.078494 0.0703619 0.0651137 0.0185459 -0.0444383 -0.0726143 -0.00579686 -0.0767289 -0.0137945 -0.0188241 -0.060314 -0.0259148 0.0216815 -0.0800779 0.0585973 -0.010487 -0.0555529 0.0350211 -0.0561121 -0.0316963 -0.0330636 0.0528839 0.00432741 0.00267608 0.0431535 -0.0290149 -0.0589716 0.014578 0.0202909 0.0651123 0.0184703 -0.064894 0.0796461 -0.0557938 0.0566037 0.0753096 0.0615823 0.0142447 0.0056632 -0.00785324 0.0135045 -0.0027598 0.0261411 -0.0412468 0.0205498 0.0736548 0.0703875 -0.0362329 -0.0429739 0.0604181 0.0517826 -0.0153238 0.0417888 0.0242613 -0.0402533 0.0144618 -0.0626407 0.0528665 -0.0602213 0.0475213 0.0794702 -0.0120987 -0.0376771 0.0676338 -0.0613762 -0.017354 0.0610023 -0.0586886 -0.0517738 0.0552304 0.0267483 0.0235748 0.0820361 0.00942314 0.0293017 0.0105943 0.0172451 0.0077218 0.0686806 -0.000981368 -0.0521582 -0.0704791 -0.0703506 0.0677632 -0.0739389 0.0719138 0.0571124 0.025897 0.0699574 -0.020096 -0.00278427 0.0352193 0.0364918 0.028698 -0.0501282 0.0572083 -0.0735066 0.0743253 -0.0543143 -0.0122792 0.000773018 0.0380375 0.076322 0.0165447 0.0115377 -0.00108602 -0.00796416 0.0581192 -0.00716779 0.0698288 -0.0169726 -0.0799685 0.00272385 -0.0455772 -0.00711927 -0.0694649 0.0158137 -0.0652074 -0.0723748 0.0476737 0.0127251 0.0543475 -0.066287 -0.0581034 0.0678619 -0.064854 -0.0191605 0.059077 -0.0620402 0.0547879 -0.0354677 -0.0671068 -0.0797272 -0.0229441 -0.0201347 0.00895295 -0.0177852 0.00127677 0.0664985 0.0550463 -0.01855 -0.0732502 -0.0268701 -0.00938509 -0.0664695 0.0248257 -0.0509447 0.0217792 0.0466977 0.0531943 -0.028383 0.032847 0.0399775 -0.0679411 0.0566943 0.0363367 -0.0644287 0.0258507 0.0336117 0.0354911 0.034965 0.0181304 0.00427628 0.0117515 -0.0405597 -0.076579 0.0675629 -0.0591317 0.0129421 0.0660177 0.00471906 -0.027813 0.0735661 0.0212643 -0.037374 -0.0199529 0.0577221 -0.0686591 -0.0261782 0.0519677 -0.0767105 0.0523123 0.061633 -0.0425421 -0.0124496 -0.0819075 -0.0672497 -0.0403879 0.0169302 0.0398885 -0.00943631 0.0768539 0.0392479 -0.0677223 0.079047 -0.00310495 0.0729614 -0.0432184 -0.012893 0.000811502 -0.057076 -0.0594033 0.0483904 -0.0624261 -0.0772619 -0.0315077 -0.0342818 0.0476981 0.0669984 0.0197106 0.0219987 -0.0540689 -0.0348827 -0.00145151 0.0490411 -0.049957 0.0791161 0.00690113 -0.0599103 -0.0420163 0.0391576 0.0703452 0.0144125 -0.0656015 -0.0282599 -0.0292544 0.0280592 0.0714234 0.0597857 -0.025425 -0.0154998 0.0180893 0.0294323 -0.01921 0.00772496 0.0256177 0.0338133 -0.00769454 0.0762585 -3.40522e-05 0.0392485 -0.0746098 0.033909 0.0388649 -0.0799638 0.04854 -0.00689472 -0.0234508 0.0726435 -0.0740381 -0.0688198 0.00958925 0.0490608 0.04834 -0.0299142 0.0841134 -0.0578747 0.0431928 -0.0716312 -0.0762675 -0.0673183 0.0296495 -0.0504293 -0.0543884 0.000360287 0.0138481 0.0504656 0.0483488 -0.0250484 -0.0620662 -0.0318797 0.0575501 0.0413702 -0.0280581 0.0778847 0.0121613 0.0135067 0.0644311 -0.0249447 0.00529365 0.011169 0.0328328 0.0657694 0.0826889 0.0384574 -0.0341271 0.0203703 -0.0332816 -0.0170441 -0.0560456 -0.0595269 -0.0685172 -0.0324352 -0.00054707 0.0161423 0.0702133 0.0336673 0.0231647 -0.0333905 0.0156394 0.0166317 -0.0699531 -0.0592301 0.0367719 -0.0442396 0.0616786 -0.0668615 0.00722988 0.0589523 -0.0160463 0.0428509 0.0219858 0.0764709 -0.0773481 0.0468845 -0.074867 -0.0518999 0.0549407 -0.0763348 0.0298433 0.0473002 0.0462892 0.0260046 -0.0591764 -0.0249924 -0.0643635 0.0622845 -0.0402503 0.075918 -0.0277235 -0.0324622 0.0321331 0.0109306 0.00808044 0.0580601 -0.0103117 0.0483315 0.00626841 -0.0704727 -0.0567108 0.0344585 0.0176883 -0.0699166 0.0168697 -0.0728048 0.063775 -0.0676044 0.065556 0.0157349 -0.0412673 -0.0580179 0.0726322 0.0343374 -0.0691784 0.023324 0.00822774 0.0097491 0.0155408 -0.0390684 -0.0252503 -0.0341061 -0.0519853 -0.0397948 -0.0194591 0.0186311 -0.00148426 0.0667976 0.0248803 -0.0425071 0.00336878 0.0147591 0.0343957 0.035959 0.0343469 0.00881212 0.0590446 0.045838 -0.0644148 0.00619855 0.0571502 -0.0697288 -0.00412562 0.0473902 0.0473427 0.0698409 0.041503 0.0695457 0.000291537 -0.0747194 -0.0299445 0.0503815 0.06934 -0.0119679 -0.0323166 0.0229671 0.079979 0.0489868 0.0740993 -0.00223596 -0.0337083 -0.0106999 -0.0111308 -0.0881092 -0.0641701 0.0645965 -0.0787603 -0.0361524 -0.0567871 -0.0434046 0.0717711 0.0164348 0.0259373 0.040465 0.0404031 -0.0507335 0.0215681 0.0315665 -0.0633274 -0.00727353 0.0696973 -0.0293353 0.0829234 0.0035197 8.69696e-05 -0.0365025 -0.0440476 0.0729016 -0.0327937 -0.0289287 -0.0320725 0.0413466 -0.0826687 8.15854e-05 0.0115 -0.0420471 0.0460022 0.00844537 0.0744736 0.0223032 0.0692143 0.0734774 -0.0181181 0.0067383 0.0666597 0.0588815 -0.039463 -0.0508928 -0.0233247 0.0149466 0.0116037 -0.0755873 0.0362252 0.0356629 -0.0619632 -0.0402617 -0.0656678 0.0596336 -0.0866314 0.0356154 0.0145056 -0.0343887 -0.0171115 -0.0444751 0.0668296 -0.0250974 0.027055 0.0524975 0.0147167 0.0725143 -0.072866 0.0381732 0.017484 -0.00330265 0.0489797 -0.0231247 0.0732344 -0.0709955 0.032267 0.0654861 0.0706213 0.0911208 0.0423341 -0.050024 -0.0701382 0.0404797 0.0235495 -0.0418517 -0.0525346 0.0351541 0.0395948 -0.00850181 -0.00368829 0.0716221 0.0205344 -0.0677927 -0.0668871 0.0473215 -0.0475005 -0.0294547 -0.0254648 -0.0153963 0.0108161 -0.0284766 -0.0189496 -0.0212938 -0.0348583 0.0894193 0.0820466 0.0771832 0.0375968 -0.0359138 -0.0787771 0.00474277 -0.0818488 -0.0779508 -0.0399523 -0.00921501 -0.0924264 -0.0718197 0.0423966 0.0108539 -0.0460041 0.0286089 -0.0129045 -0.0541937 0.0791953 0.000725995 -0.0784979 0.0733326 0.0716771 -0.0497247 -0.05901 -0.0719114 0.080373 -0.0135746 -0.0516718 -0.0145753 0.00470649 0.0607635 0.0319445 -0.0823169 -0.0322001 -0.0286808 -0.00046726 -0.0278389 -0.0121272 -0.00467393 -0.0191728 0.0390538 0.0711187 0.0613923 -0.0225129 -0.0460588 0.0359011 0.00854277 0.0498814 0.0461428 0.0571323 0.0418237 0.00541833 0.0559561 -0.0503711 0.0751537 -0.0327062 -0.0156451 0.0483463 -0.0615439 0.0252775 -0.0733214 0.0740226 -0.0737009 -0.0073857 -0.0661812 -0.067468 -0.00578874 -0.0176866 0.0376207 0.00795622 0.0236399 0.0562532 0.0552221 -0.017105 -0.0393789 -0.0444334 0.0676579 0.0572456 -0.0675009 0.0370913 -0.0334384 0.0509834 0.00325558 0.0159625 0.0454289 0.000239646 0.00408207 0.0449049 -0.00411488 -0.059145 -0.0208953 0.0600423 -0.00380771 -0.0778055 0.0198962 -0.0217398 0.0199997 0.0631423 0.00921142 0.0757671 -0.0423952 -0.0450485 -0.0400969 0.0558171 -0.0285814 0.0364514 -0.0749432 0.0586901 -0.0333199 0.0726335 -0.0325005 -0.0232546 0.012519 0.0154185 0.0334247 -0.0102935 0.0658013 -0.00438895 0.0538593 -0.0640051 -0.0513431 0.0454186 -0.0535873 -0.0656359 -0.00246952 -0.0099133 0.0832075 -0.0542229 0.0628437 -0.00612063 0.059003 -0.0785398 -0.0223909 0.0203971 -0.0348573 -0.059374 -0.0657002 0.0414526 -0.0102046 0.0258617 0.044143 -0.0276027 0.0553216 -0.0201694 -0.0689677 0.0694555 -0.0254998 -0.0159447 0.0403988 -0.0789061 0.027977 -0.0365096 0.0203666 0.0100548 0.0137491 -0.0100864 -0.0544459 -0.071836 0.0339752 -0.0556321 0.00680044 -0.0246091 -0.0191895 -0.0459028 0.0400925 -0.00976542 0.0650361 -0.00617264 -0.0569166 -0.0693075 0.0143488 -0.0187918 -0.0463659 0.0403486 -0.0371272 0.00404454 0.000459401 -0.0439217 0.0118634 1.61735e-05 -0.0301388 -0.0840489 -0.0193003 -0.0138119 0.0386917 -0.065867 0.0099454 -0.000767097 0.0757677 0.0343587 0.0785015 0.0222141 0.0590243 -0.0587672 0.00129601 0.0315004 0.0478296 0.00342007 -0.0591963 0.0226151 -0.00355386 -0.0553588 0.0245007 0.0248962 -0.0116962 0.0626133 0.0301113 0.0646405 0.0300886 -0.0368736 0.0515073 -0.0472608 0.0432012 0.0176076 -0.063982 0.00612461 -0.0443333 -0.0426698 -0.0759448 0.060144 0.0727323 -0.0513365 -0.0148405 0.0745818 -0.0567025 -0.0187828 0.0531723 0.00553075 0.0238629 0.0468144 -0.0285935 0.0174631 -0.0144262 -0.0685446 -0.0815722 0.0432486 -0.0563229 0.000733113 -0.0584759 -0.0823878 -0.0465425 0.0605652 -0.01321
-0.016837 -0.0147964 -0.0120982 -0.0501229 -0.00293916 0.0127357 -0.026412 0.0155481 0.0079092 0.0266924 -0.0129616 -0.0649538 0.0521242 0.0542422 0.0169486 0.0317418 0.0131368 0.0800518 0.0302818 0.0362175 0.03149 -0.0514497 0.0307205 -0.0658526 0.0666598 -0.0284276 -0.0149278 0.0434089 0.0248206 -0.00698214 -0.0671959 0.0730373 0.0770157 0.0356477 0.0286213 0.0267095 0.0119094 -0.0226555 0.00370338 -0.0233696 0.0725485 0.0521015 -0.0467071 0.0203036 0.0102682 0.0558257 0.0294835 0.0736357 -0.0573176 -0.0587568 0.0145839 0.0737542 0.0772286 -0.0511344 0.0369587 0.0313468 0.0271615 0.00691864 0.0544226 0.0295005 -0.0377248 -0.000509095 -0.00324624 0.0558379 -0.0254131 -0.0188774 -0.0675108 -0.0291979 -0.0463441 -0.0352489 0.00337631 0.0652045 -0.0106159 -0.0559238 -0.0340844 -0.0391236 0.0402249 -0.0509483 0.0531919 -0.0418021 -0.0478797 -0.0373569 0.000208652 0.0749658 0.00457564 0.0181304 0.0149262 0.0251771 0.00598933 -0.05003 0.0247955 0.00184335 -0.0710408 -0.0613459 0.00665472 0.0581143 -0.0394145 0.0395817 0.0626416 0.0668183 0.0157781 -0.08526 0.0442839 0.0624752 0.0392242 0.0391574 0.0148541 0.0687151 -0.0327778 0.0425912 -0.0664128 -0.0508085 -0.0724534 0.0243362 -0.00852679 0.0234034 0.0530199 -0.0514429 0.00791356 -0.0618436 0.0373626 0.0317368 0.0911845 -0.0409791 -0.0229225 -0.034977 -0.101864 0.0363914 0.0295047 -0.049481 -0.00370935 -0.0498748 0.041318 -0.00237488 0.0376342 0.0766595 0.0387995 0.00307349 -0.034365 -0.00521916 0.0362557 0.0431935 0.0480098 0.0717719 0.05363 -0.0192794 -0.016572 0.000672965 0.0296902 -0.00549741 0.0575715 -0.0483306 -0.079829 -0.0647051 -0.128463 -0.113192 0.0227677 -0.0376026 -0.112358 -0.0167885 0.0919123 -0.0613193 0.0735169 0.0409143 0.035157 -0.0881489 -0.000628059 -0.0487412 -0.0238047 0.0496618 0.0552684 0.0797688 -0.0459213 0.0374638 -0.00671451 0.0186667 0.000209605 -0.0890357 -0.00658944 -0.00249897 0.034665 -0.00603728 -0.0463358 0.0717574 -0.0575895 -0.0901946 -0.117954 -0.0764423 0.065324 0.0502383 0.00687476 0.0633054 -0.00322828 -0.0516242 -0.0336719 -0.0193252 -0.0175058 0.0657345 0.04759 0.0620116 -0.0791001 0.00982298 -0.039099 -0.122409 -0.115936 -0.0824463 -0.033562 0.0428359 -0.0151213 0.0652312 0.102805 0.0614412 -0.0361284 0.0224904 -0.0800703 0.00286713 -0.00431036 0.0188959 0.066406 -0.0783658 -0.0159437 -0.0735763 -0.0245117 -0.0636686 -0.0389555 0.0384825 -0.0206081 0.049003 -0.0862396 -0.00544616 -0.0386758 -0.121927 -0.0928727 -0.107179 -0.108937 0.0128684 0.0249952 0.0795565 0.00993304 0.0200877 -0.104385 -0.092305 -0.0508017 -0.0150624 0.0168985 -0.0957759 0.0286718 0.00195919 0.00098409 0.0278203 -0.0721714 0.0706736 0.0682545 0.0821681 0.0471324 -0.0289671 -0.0689358 -0.0510481 -0.058588 -0.000347347 -0.0522069 -0.148141 -0.164691 -0.0900047 -0.113324 -0.114257 -0.148508 -0.00794684 -0.083884 0.0366297 -0.0247975 0.00548086 0.0261063 0.027362 -0.0101389 -0.141644 0.0375147 -0.000620594 0.038073 0.0776614 -0.0250888 0.0293059 0.0722326 -0.0744016 0.0623811 -0.0557219 -0.0224855 -0.00729676 -0.0191689 -0.0191305 -0.150152 -0.15018 -0.131114 -0.167598 -0.225094 -0.095951 -0.124147 -0.119436 0.0141489 -0.00519648 -0.0902467 -0.122232 -0.0307216 -0.140764 -0.0652268 -0.0173133 0.0120664 0.0679327 -0.026762 -0.0650285 -0.0217573 -0.0502489 -0.0393856 -0.0183898 -0.106152 -0.0123257 -0.0062335 -0.101564 -0.118548 -0.102101 -0.0320923 -0.0826653 -0.107411 -0.0324616 -0.0923783 -0.00136164 -0.0897573 0.0170916 -0.00218488 -0.123248 -0.117034 -0.12733 -0.122494 -0.0689824 0.012897 -0.0438792 0.0383628 -0.0698432 0.0517672 0.0599665 0.00674813 0.0062857 0.0293022 -0.0914973 -0.0117503 0.0435477 0.00820502 0.0157488 0.110639 0.155516 0.111259 -0.0257974 0.0540637 -0.111977 0.0273484 0.0349731 -0.0812393 -0.0516603 -0.0387423 -0.0748701 -0.0374635 -0.00604018 0.0435681 0.0651389 0.0808275 -0.0616258 0.0348274 -0.0123428 -0.0349701 0.0407889 -0.024144 0.0372374 0.151093 0.0629281 0.109812 0.00906801 0.155599 0.147698 0.148766 0.00134731 0.0351206 0.0138768 -0.0750059 0.0738112 0.117573 -0.0498359 0.014701 -0.0756198 -0.128699 -0.0110589 0.0306746 -0.0133938 -0.00238646 0.0244755 0.0663154 0.0684043 -0.000394525 0.00620767 0.0650117 0.0470354 0.149983 0.165807 0.120275 0.00860834 -0.0421263 0.0599913 0.214033 0.0393324 0.122891 0.0547932 0.00537864 0.0698722 0.126347 0.00477809 0.0288655 -0.0908882 -0.00868455 0.0604211 0.00799261 -0.00641022 -0.032338 -0.068844 0.0337696 0.0534027 -0.0201559 0.0496139 0.103179 0.136264 0.158757 0.043001 0.0663878 -0.0473068 -0.00460083 0.108094 0.148905 0.0532882 0.0492767 0.0848815 0.0809871 0.0343555 0.0454973 0.0911589 0.106957 -0.069179 0.0474684 0.0235498 -0.00576626 0.0039445 0.0418687 0.00917251 -0.0554788 0.0760315 -0.0544813 0.0668494 0.139569 0.0646016 0.15156 0.0527879 -0.0241216 0.0217407 -0.0159989 0.151263 0.00170416 0.0382245 -0.0023289 0.0712122 0.0295501 0.105175 0.0230214 0.0644524 -0.0244335 -0.0157192 0.0029074 -0.050834 0.0389156 -0.0214442 -0.0518859 -0.0460743 -0.0460421 -0.0405588 -0.0360242 0.0671611 0.132656 0.0705581 0.13145 0.0480281 -0.00353998 0.0307972 0.0195808 0.0243814 0.13512 0.021564 -0.00555935 0.0242529 0.0771735 0.0547818 0.0667668 -0.0425915 -0.00937122 -0.0552465 -0.0776676 -0.0787899 0.0699454 0.0444369 0.0352983 0.049712 -0.0344333 0.0240028 0.077986 0.136782 0.012485 0.0351137 0.0681343 -0.0433101 0.00760789 0.0355518 0.00419896 -0.0154891 0.0573589 0.0254021 0.120081 0.00985998 -0.0176216 -0.0125759 0.0424235 -0.0286972 0.0191584 0.0155086 -0.0917803 0.0307403 0.0589176 -0.0038413 -0.0576723 0.0123431 0.039731 0.0747045 -0.0419481 -0.0238584 -0.0357969 -0.0187616 0.0409531 0.00326899 -0.10729 -0.0685628 -0.0368578 -0.0171358 0.0321869 0.0605344 -0.0188178 -0.0425951 0.0124247 -0.0192911 -0.0908363 0.00429045 0.0112622 -0.0113978 -0.0108412 -0.00146182 0.0811705 -0.0582418 0.0711596 0.0445907 -0.0525391 0.00883465 -0.0735463 0.0364099 -0.0504879 0.0152053 -0.0534495 0.0267583 -0.0892104 -0.113029 -0.0778828 -0.0114756 -0.00655538 0.00624804 0.0866572 0.0849489 -0.0241697 -0.0559989 0.0259598 0.00808703 -0.0597003 -0.086487 -0.0946199 -0.0139496 0.0679423 -0.0304749 0.0242242 0.033638 0.0172068 -0.0171285 0.0779758 0.031027 -0.0806306 -0.042464 -0.0507703 -0.0617912 -0.077134 -0.099446 -0.104829 -0.121823 0.00540105 -0.0261688 0.0489654 -0.0235127 0.0373583 0.07359 0.0640531 -0.0112011 -0.0530166 -0.0457084 -0.00465343 0.0129582 -0.0285922 -0.0312846 0.0171107 -0.0415334 -0.0396004 0.0664673 -0.0217702 -0.0288194 -0.0878824 -0.124312 -0.0760813 -0.124795 -0.102645 -0.0197537 -0.109371 -0.0967153 -0.165024 -0.0972466 -0.0697434 -0.0210442 -0.0320643 0.00361256 0.0588082 -0.0900165 -0.0564321 -0.018137 -0.0925925 0.015625 0.0516368 -0.0066915 -0.0049642 -0.0382855 0.0775029 0.0338279 -0.0455197 0.0182636 0.071394 -0.0402142 -0.042082 -0.032684 0.00318702 -0.0445179 -0.13539 0.0225004 -0.0485509 -0.121151 -0.102718 0.0370695 -0.00474283 0.0547162 0.117636 0.0686735 0.0532051 -0.0815723 -0.0311121 -0.0191025 0.0566503 -0.0731518 0.064737 0.0468664 0.00716108 -0.0723941 -0.0129038 0.0454878 -0.0449645 -0.0381205 -0.0419357 -0.0193832 0.0368581 0.0250841 -0.00749353 -0.0721693 -0.0890305 -0.08601 -0.0706026 -0.111421 0.0359696 -0.0627391 0.0359379 -0.0127674 -0.0127316 -0.0346985 0.0702832 -0.0633648 -0.0368661 0.0298549 -0.0255139 -0.0390397 0.0345697 -0.0530123 0.0612005 -0.0292555 0.0751702 -0.0490115 0.0904284 0.0591023 -0.085628 -0.0137634 -0.0439 -0.0159064 0.0027927 -0.0870608 0.0185501 -0.102643 -0.0528456 0.0175861 -0.0245098 -0.0534873 0.0748404 0.0141991 -0.0282939 -0.0382085 -0.0554227 -0.0742295 -0.0700612 -0.0588499 -0.0682995 0.00029701 -0.0249487 -0.0404009 0.0989374 -0.0265946 -0.0118307 -0.0268257 -0.0435534 -0.0586067 -0.0523472 0.044711 0.00122907 -0.0634593 0.0466989 -0.0747049 -0.0419703 0.00419774 0.0118576 -0.0193977 -0.0766906 0.0723897 -0.016348 0.0109729 0.0268007 -0.0440349 0.0487766 -0.0193487 0.0361627 0.0018407 -0.0271416 0.0293399 0.0172336 -0.0260781 0.00849467 0.0110972 -0.0745695 0.0189027 0.0226159 0.0725076 0.0450444 -0.0104625 -0.010232 0.034273 -0.0231709 -0.0647873 0.0132059 0.0729568 0.0806168 -0.00103079 0.0143761 0.0706473 -0.00680166 -0.037796
0.00466606 -0.0572534 0.00988755 0.0646114 0.0364257 -0.0266366 -0.00638032 0.0153242 0.0346605 0.0527709 0.00508436 0.0755536 0.0205628 0.0882331 0.0363433 0.0551405 -0.0587091 0.0671882 0.0220748 0.0848229 -0.00548693 -0.0600583 -0.0572136 0.00429552 0.00891515 0.0528654 -0.0449429 0.0720266 -0.00268406 0.0727635 -0.0194476 0.0769927 -0.0331002 0.0357971 -0.0399359 0.0689729 0.0347365 0.0105155 0.0383882 -0.040547 0.0379107 0.0701676 -0.0584072 0.0742602 0.0602313 -0.00223022 0.0687157 0.0460443 -0.0122 -0.0133567 0.00393809 0.0281634 0.0475083 0.0412283 0.0401784 0.0429211 -0.0223442 0.0564266 0.0769389 -0.0547287 -0.0525744 -0.0471074 0.0893325 -0.0704958 -0.0299661 -4.7997e-05 -0.0457943 -0.0251799 -0.0825665 -0.0431923 0.0179742 0.0321781 -0.0354237 -0.0124004 0.00910091 0.0239909 -0.0454895 -0.0603384 -0.0697684 -0.0291508 -0.0347887 -0.0508551 0.0271709 0.0671534 0.00821252 -0.021547 0.0534024 -0.0667584 0.000944895 -0.0122416 -0.0173487 -0.00992968 0.0127954 0.0319478 -0.042615 0.00478777 -0.0698707 -0.101651 -0.0288828 -0.060684 -0.0848948 -0.068237 -0.0285202 0.0518582 -0.0434874 0.0274186 0.00161512 -0.0589979 0.0718503 0.088984 0.0755916 -0.0344245 0.0362795 0.0167809 0.0579374 -0.023842 -0.0651366 -0.0422857 -0.0162706 0.0623977 -0.0200647 -0.110421 0.0236558 0.0114421 -0.0737843 -0.0486447 -0.0746458 -0.00528224 -0.0468293 -0.0890361 -0.015137 -0.046658 -0.0425407 -0.0929878 0.015091 8.68126e-05 -0.0507852 -0.00473363 -0.0364375 -0.0478206 -0.0351433 0.0386281 0.03722 -0.0528117 -0.00746822 0.00753731 -0.0258262 0.01847 -0.0357906 -0.078151 -0.0557574 0.0308326 -0.0308455 0.0375902 -0.0651872 -0.09268 -0.0787581 -0.0803793 -0.0655248 -0.0110719 -0.0605097 0.0296789 -0.075141 0.0624747 -0.0549574 0.0588548 0.0683729 0.012399 -0.0529964 0.0409225 0.0751862 -0.0343818 -0.0554539 0.0569613 -0.0545404 -0.0773813 -0.023074 -0.0588491 -0.0465606 0.00273802 0.06528 -0.0345373 -0.0199969 0.00833004 -0.0855997 -0.0138299 -0.094141 -0.0128642 -0.0338182 0.0167993 -0.051989 0.00933686 -0.00924236 -0.00803585 -0.0688863 0.0116022 0.0393271 0.0125762 0.0170006 0.0529815 -0.0346635 -0.0785812 -0.0388027 -0.104554 -0.00649973 -0.0972786 -0.0418641 0.0444468 -0.00125449 -0.0347905 0.0445456 0.0423911 0.0129211 0.00634463 0.00403671 0.0170442 -0.046567 0.101576 0.00972873 0.034262 -0.0494905 0.00178152 0.0867706 0.0115085 0.0383544 0.0155981 0.00270001 0.0437059 0.0676619 0.0283962 -0.0473009 -0.0609731 -0.0794349 -0.0157036 -0.032262 0.0390179 -0.00792147 -0.0371339 -0.00577805 0.0266185 0.0654138 0.0812181 0.0026647 0.0194669 -0.03354 0.0152972 0.106416 -0.00383116 0.0669946 -0.0452242 0.0220265 0.0836508 -0.0335348 0.0326119 -0.0202354 -0.0676163 -0.0497707 -0.0853651 -0.0752818 -0.0645216 0.0439545 0.0171656 0.000782586 -0.0605815 0.0163913 -0.0817548 0.00830201 -0.000126261 0.0198704 0.145729 0.0675381 0.0331912 0.0348366 -0.0132647 0.0608446 0.0437098 0.0441598 -0.00823473 0.0416182 0.0676834 0.0758445 0.0339247 0.0439539 0.0696477 0.0177226 0.00602308 -0.0977546 -0.0877568 0.0258029 -0.0257191 0.0998181 -0.0671393 -0.113743 -0.0696673 -0.0957311 -0.0631053 0.0554941 0.0353986 0.0577888 0.0846308 -0.00654319 -0.0430103 0.00581694 0.139863 0.0588459 0.0696575 -0.0480523 -0.060997 0.0465358 -0.0235986 -0.0652393 -0.0712527 0.0404155 0.00589268 -0.0155989 -0.0602032 0.0187367 0.115468 0.0398937 0.0517135 0.0524499 0.00822978 0.0346343 -0.0308392 -0.0285025 -0.0112537 0.00810242 0.0531505 -0.0991054 0.0570658 -0.0420861 -0.0331294 0.0851653 0.0740413 0.093345 0.0209933 0.0658288 -0.00306236 0.0553887 -0.0413246 0.05121 -0.103938 -0.110071 -0.0466704 -0.00458353 0.123724 0.164397 0.145015 0.0100307 0.0222766 -0.041635 0.0328093 0.0151395 0.0997238 -0.0683124 -0.013415 -0.0501707 -0.0119408 -0.0775494 -0.066821 0.00860674 -0.0394865 -0.0206659 -0.0596489 -0.0301243 -0.0642612 0.0777217 0.0374403 -0.00493766 -0.11998 -0.0794208 0.0587762 0.084634 0.0793695 0.142296 0.0981453 0.122117 0.0968577 -0.00857933 0.0656512 0.0530036 0.0483586 0.00680089 -0.0749067 0.00830582 -0.0238082 -0.0681116 -0.0692951 0.0256065 -0.0384465 0.0471194 -0.0639685 0.0230595 0.0124317 0.0897995 0.018642 0.0286865 0.0112535 -0.0331148 0.0256937 0.0876287 0.145916 -0.0260261 -0.0512549 0.0601904 -0.0321969 0.0249644 -0.00594117 -0.0184064 0.0306553 -0.101867 -0.118524 -0.00686429 0.00663177 -0.0765356 -0.0141642 -0.00231869 0.0477109 -0.0719549 -0.0587177 -0.00529919 -0.0676414 0.0600414 -0.0100497 0.00087774 -0.012793 -0.00686924 -0.0377901 -0.0221107 -0.0300972 0.0375052 -0.0400439 -0.00263025 -0.0798228 0.0158175 -0.0506065 0.0772105 -0.0022748 -0.018391 -0.0680399 -0.0360909 -0.076089 0.0591942 -0.0511491 -0.025357 -0.0225717 -0.0160072 0.0376249 0.0541506 -0.0229486 0.0811735 0.0613537 0.0495775 0.0451716 -0.0391376 -0.0152419 0.0215892 -0.0743479 -0.0292726 -0.0258526 0.00870484 -0.0491884 -0.0175242 0.0290371 0.0784766 0.0108313 -0.0234842 -0.116515 0.00838354 0.00284758 -0.0443267 -0.022025 0.0121567 0.0354622 0.0341029 -0.0742006 -0.0140595 -0.0275733 0.0885418 -0.00202658 -0.0772367 0.0385736 -0.0912941 -0.00553108 -0.0851014 0.060621 -0.067421 0.0606852 -0.00719675 0.067516 0.0610763 -0.0504863 0.0134541 0.0550616 0.0240545 -0.0754153 0.00392475 -0.0687557 -0.026264 -0.0430143 -0.0896966 0.0247958 -0.0434886 0.0459315 0.0575652 -0.0296359 -0.0234624 0.025356 -0.0451009 -0.0912491 0.00969871 -0.0295554 0.0283106 0.0347023 0.0320477 -0.0478083 -0.040431 0.0270493 0.0305002 -0.0807044 0.0282637 0.11604 -0.0434463 -0.0974236 -0.0335392 -0.0396439 -0.093241 -0.03935 -0.0835523 0.0562125 -0.00633575 -0.0575212 -0.024097 -0.0414076 -0.026253 -0.0230165 -0.0803257 -0.0462866 0.0330499 -0.0710054 -0.00431506 -0.0887957 -0.0852401 -0.0687364 0.0455353 -0.0861621 0.0461233 -0.00284882 -0.0360942 0.0720588 -0.0299156 -0.0908973 -0.0413588 -0.0320765 0.0106243 -0.109833 0.0554913 0.0256923 0.0862699 -0.0217849 0.0291781 -0.0143509 -0.0611796 0.000999519 -0.00718981 0.025911 0.0149019 -0.0664535 -0.0913171 -0.126161 -0.0873783 -0.0907827 0.0582841 0.0367788 -0.0442449 0.0107544 -0.0302927 0.013705 -0.00581078 -0.0827079 -0.127959 -0.0189505 -0.0178906 -0.0821706 -0.0707633 0.0239323 -0.0616518 -0.0704125 -0.00559104 0.0389087 0.000253776 -0.0306379 0.0443082 0.0578731 -0.0412148 -0.00113205 -0.0429578 0.026982 -0.0176471 -0.0437438 0.0511914 -0.0354024 -0.126819 -0.107941 -0.0101824 0.00213055 0.0208185 -0.100592 -0.0360992 -0.0472572 -0.0526674 -0.0999895 -0.0226129 -0.0507307 -0.0594354 0.0644272 -0.00463397 0.0249327 -0.0684597 0.0235099 0.0553129 0.0258357 -0.00467913 0.0650016 -0.0199959 0.0311796 -0.0436372 0.00245414 -0.0509471 -0.156293 -0.0325624 -0.123314 -0.0951118 0.0143024 -0.0390475 -0.0784262 -0.0971372 -0.0351239 0.00140107 0.00636089 0.010933 -0.0710147 0.0171725 -0.0143548 0.060571 0.0812432 -0.025355 -0.01206 -0.0082764 0.0547359 -0.0139337 0.102625 0.0842577 0.0611869 0.0939944 0.00633261 0.0425158 -0.00452304 0.0728809 0.0741889 0.0114024 0.0476162 0.0512122 0.00538257 -0.00188774 0.0499313 -0.0706378 0.0624602 -0.0167434 -0.00879651 -0.00948742 0.0665286 -0.00450942 0.0572966 0.0854241 -0.0192984 0.0497147 0.0453592 -0.0462904 0.0630133 0.0126825 0.00290563 0.011401 0.0160306 0.0357585 0.0808427 -0.0112106 0.0634816 0.000332733 -0.0597446 0.0178946 0.0680734 -0.0710933 -0.0261711 -0.033895 -0.0233059 0.0103199 -0.060483 0.0479241 0.0571478 0.0747371 -0.0705493 -0.0348759 -0.022307 -0.00280285 0.0753142 0.0607397 0.0538481 -0.01474 -0.0355218 0.0499623 0.0795832 -0.0391143 -0.0340925 -0.0630391 -0.0588381 0.11229 -0.0393646 0.104354 0.0980608 -0.00827947 0.0818627 0.0837359 0.0556884 0.0576797 0.0623893 -0.0426627 -0.0525902 0.0052912 0.0349049 0.0643742 -0.0360454 -0.0408374 0.0740001 0.0780445 -0.0450951 -0.034711 0.0266447 -0.0393129 0.0450541 0.0719914 0.0897714 0.052562 0.0240236 0.0922327 0.0324702 0.0546019 0.0864038 0.0680148 0.0726605 0.002088 0.0369662 -0.0238282 -0.00452091 0.0336392 -0.00447527 -0.00400007 0.0612856 0.00258628 0.0144081 -0.0256828 0.0502997 -0.021489 0.0262372 -0.0655161 0.0186881 -0.0537193 0.00314256 0.0212003 0.0476993 -0.0516283 0.0842631 -0.02189 0.0851729 0.0824659 -0.000391986 0.0148263 -0.0666665 -0.0398155 -0.0354067 -0.0451532 -0.0415647 -0.0357053 0.0854916
0.0208534 -0.0206278 0.00784317 -0.0530165 -0.0610768 -0.0191286 -0.0729573 -0.0753862 -0.0637253 0.00113862 0.0220951 -0.0259097 -0.0248765 -0.0238693 -0.0448423 0.051148 0.0456212 0.0215372 -0.00752446 0.0283101 -0.0766075 0.0155232 0.0384019 0.0478115 0.0574364 0.0644759 -0.0293261 -0.0333285 -0.0261624 -0.0805731 0.0372671 0.0225076 0.0509709 0.0539922 0.0530103 0.0245173 0.0712081 -0.00279936 -0.00968858 0.0625926 0.0746938 0.0609499 -0.0277453 -0.0480179 -0.0430696 -0.0251347 0.017041 -0.0567723 -0.0737707 -0.00880097 0.034335 0.0297451 -0.0547688 0.0420865 0.0810224 0.0484567 -0.0332191 -0.05541 -0.0404235 0.0310255 -0.0589397 -0.0310724 0.051097 -0.0239447 0.0737883 -0.0226876 0.0178164 0.00876302 0.0193043 -0.0100844 -0.0561794 0.0507445 -0.0599113 -0.0521039 -0.0020075 -0.0453142 -0.0211167 -0.0540974 -0.0253271 0.0717452 -0.00920717 0.000201736 0.0213747 -0.0268711 0.0469047 0.0693162 -0.0524769 0.0688489 0.0786628 -0.0229637 0.00366927 -0.00594047 -0.0539969 0.00410907 0.0491885 -0.0237256 -0.0135821 0.0249188 -0.0751759 -0.0235966 0.0414559 -0.058286 0.0423093 -0.00721302 -0.0744066 0.0242126 -0.0497395 0.0435163 0.0457228 -0.0574253 0.0119474 0.080744 -0.0762692 -0.0594967 0.00712604 -0.0328915 0.0106634 -0.073829 0.0320462 0.0318457 -0.0458512 0.00305819 -0.0124422 0.0571703 -0.0672091 -0.00374947 0.0272359 -0.0276125 -0.0425833 -0.049805 0.0106984 0.0386851 -0.0171006 -0.0649933 -0.0956643 -0.0738085 -0.0467191 -0.0744685 0.0703571 -0.00805914 -0.0332588 0.00188132 0.055105 -0.00831382 -0.0638338 -0.0243716 0.0439607 -0.0204079 0.067434 -0.0324373 0.0119315 -0.0307297 -0.0116639 -0.00965254 -0.104708 -0.111305 -0.012701 -0.0172067 -0.0136238 -0.0146216 -0.0377504 0.0449122 0.0288165 -0.104613 -0.0727138 -0.0828681 0.00815803 0.0778283 0.0701366 -0.0295498 0.0532146 0.0539588 -0.0562482 -0.0123802 -0.0937769 -0.000577174 -0.112871 -0.00209916 -0.00936176 0.0030604 0.00406816 -0.00176688 -0.0212989 -0.076144 -0.0586519 -0.039437 0.0416132 -0.00231607 -0.0475703 -0.00452786 -0.0524383 0.0185496 -0.0984456 -0.0564334 0.0399375 0.0584832 0.0640764 0.0770052 -0.0767828 -0.0829153 -0.0693342 -0.0017432 -0.0942621 -0.0376482 -0.0335175 -0.108164 -0.0463668 -0.0209814 -0.0339666 0.0443261 0.0283662 0.0530517 0.00676158 -0.0233041 0.0170048 0.0298547 -0.0648105 -0.00427692 0.0454555 0.00747236 -0.139382 -0.104808 -0.0239356 -0.051811 0.0622149 -0.0627421 -0.0597782 0.0568262 -0.0907817 -0.110366 -0.0271819 -0.141261 -0.0758829 -0.112494 0.00798327 -0.00183173 -0.000436319 0.120471 -0.0174232 0.0571151 0.0488711 0.0472994 -0.00778388 -0.0529654 0.0326933 0.008717 -0.0344103 -0.126414 -0.12537 -0.099697 0.0253916 -0.0289134 0.0294177 -0.0608042 -0.0571977 0.0702847 -0.0671027 0.0223838 -0.0697917 -0.116055 -0.0371047 -0.00576962 0.0298078 0.0429443 0.0569709 0.112631 -0.0159615 0.0144649 -0.0443179 0.109693 0.0454023 0.102229 0.0479038 -0.0957653 -0.000868632 -0.156508 -0.132067 -0.070325 0.00165912 0.0152647 -0.0645135 -0.024428 -0.0344935 0.00816653 -0.0455185 -0.0799686 -0.0100463 0.0217967 -0.0364133 0.0278725 0.140226 0.107028 0.00544077 -0.0131763 0.00619125 -0.052698 0.0508688 0.0300668 -0.00424078 -0.0211343 0.0355038 -0.117153 -0.0835055 -0.0936276 -0.111586 -0.064608 -0.0923374 0.0495427 0.0503722 -0.00441226 -0.0395734 -0.0268305 -0.014024 0.0561578 0.00681179 0.094574 0.0562895 0.14784 0.0123236 -0.000224775 0.0739498 0.0398583 0.0321773 -0.0584554 -0.130433 -0.0827366 -0.0380719 0.00149099 0.0853047 -0.0654043 0.0561276 0.0516978 -0.0666099 0.0226735 -0.0891423 0.0539783 -0.0396852 -0.0381929 -0.0351898 0.0468201 0.0252718 -0.0416223 0.0134867 -0.0396906 0.0200917 0.00344211 -0.00390981 -0.101811 -0.128239 -0.0355021 0.0051429 0.0568154 -0.0694466 -0.0405086 -0.000978163 -0.0238178 0.0350454 0.0537713 0.0615678 0.0902785 0.0621005 -0.048525 0.0633076 -0.0220139 -0.0531952 0.00780142 -0.0158304 0.0697054 -0.0349678 0.00367633 -0.00692209 0.104049 0.00690579 0.049559 0.073368 -0.111203 0.0165228 0.0128665 0.018932 -0.0283448 0.0446283 -0.0421416 -0.0136299 0.00947714 -0.023477 0.0869085 -0.0177941 0.1067 0.110813 0.00180179 0.0231186 -0.0131799 -0.0661307 -0.040613 0.055731 -0.00485078 0.0774554 0.0902356 -0.0199064 0.128769 -0.0215763 0.0636562 -0.0127121 0.00838146 0.0362514 0.0554486 0.0825073 0.0543628 0.016832 -0.0157578 0.0830438 0.0148395 0.0466347 0.0288206 -0.0261318 0.0781933 0.00381902 0.0500563 0.0976902 0.00123607 0.0440563 -0.0472781 0.0218434 -0.0363823 0.0432319 0.0630756 -0.03572 0.0846008 0.0286076 -0.0069683 -0.00644672 0.0241212 0.130722 0.163268 0.0146782 -0.0522223 -0.0105644 -0.0637814 -0.000821393 -0.0759188 -0.10409 -0.0683023 -0.00658656 0.0332509 -0.0306159 -0.0474502 -0.0469492 -0.0509095 -0.0313574 0.033357 0.0548176 -0.0126098 0.0873133 0.0199551 -0.0434583 -0.000272245 0.0201503 -0.0175368 0.0656312 0.0998972 0.0116145 0.0561177 0.027037 -0.095041 -0.0818477 -0.150743 -0.0658364 -0.109836 -0.0887705 -0.0124311 -0.0646194 0.0360592 0.0302266 0.0735381 -0.0206402 -0.00104337 -0.0353867 0.0631295 0.0402325 -0.0912242 -0.0245075 -0.0127877 0.065258 0.0569702 0.0687705 0.100404 0.223797 0.20189 0.0428654 0.0943784 -0.042205 -0.0259953 -0.0369045 -0.0685902 -0.139849 -0.139856 -0.0803909 0.0151409 0.0485583 -0.032787 -0.0494401 0.0151617 0.0812225 -0.0505456 -0.0172926 -0.0148 0.0773967 0.071221 -0.0569867 -0.0846244 0.0511069 -0.0186522 0.11214 0.101439 0.142127 0.0450453 0.114824 0.0074976 -0.0424482 -0.0977029 0.0119026 -0.013063 -0.0256702 0.0516172 -0.0903752 0.0506336 0.0552704 0.11017 0.0304405 0.00218135 0.0215791 0.0673154 0.0769845 0.0814725 0.0700557 0.0267339 -0.0194663 0.0109079 -0.0677245 0.109031 0.0322055 0.136038 0.102758 0.167397 0.0398805 0.0225508 -0.0575809 -0.10897 -0.052803 -0.0530516 -0.0317209 0.0207713 -0.00629941 0.0792082 0.0869586 0.12076 0.0633259 0.0314827 0.0198991 -0.0631816 0.0554701 0.0356411 0.0457554 -0.0065631 0.0570666 -0.0544208 -0.0178336 0.0184959 0.0399508 0.0192395 0.184886 0.101693 0.0161709 -0.058253 -0.0211764 0.0648653 -0.0348669 0.0663825 0.0033227 0.0743536 0.0710451 -0.0231593 -0.0225335 0.07311 -0.00783527 0.0868005 -0.00672078 0.0639012 0.0797338 0.042435 -0.00999638 -0.0262193 -0.0436534 -0.0384888 -0.053408 -0.0834251 -0.0563059 0.0329617 0.0491638 0.0307306 -0.0684521 0.0386643 -0.0282275 0.00778917 -0.0492584 0.0795219 -0.0397444 0.044559 0.103939 -0.0470821 -0.00981475 -0.0390015 0.00534866 0.0137838 0.0193778 -0.0550297 -0.0303809 -0.0402094 0.0149518 0.0167565 0.0822114 -0.0300593 0.0879068 -0.035965 0.068112 -0.0154139 0.0221841 -0.000864161 -0.0575868 -0.0669555 -0.0161128 0.0171284 -0.0261497 -0.0411361 0.00996998 -0.0197229 0.0123066 0.0733938 0.0860799 -0.0448534 -0.0158874 0.0360587 -0.0437311 -0.0253753 -0.0172558 -0.0560472 -0.0448624 -0.0134543 -0.0260858 -0.0429685 0.0358016 -0.0110581 0.0159175 0.000793569 0.00287285 -0.106289 -0.00559986 -0.0879002 -0.00306622 -0.107625 0.0502463 0.00616962 0.0223448 0.0225196 0.0333966 0.0121432 -0.00874713 -0.0388181 -0.0574619 0.000986657 -0.064001 0.0417317 0.0565649 0.075451 0.0109402 -0.0359414 0.0242099 -0.0310949 -0.13426 -0.123272 -0.118714 -0.118472 -0.0705497 -0.0587302 -0.127028 -0.0326881 -0.00714819 -0.0100759 -0.0725513 -0.0567987 -0.0195057 -0.00173837 -0.0603246 -0.0456276 -0.0375335 0.0374974 -0.0749976 0.0811277 0.0757437 0.0664118 0.00368368 0.0648879 0.0715344 -0.0402259 -0.0258437 0.0112486 -0.0864176 0.0504769 0.0406223 -0.0739611 -0.0804132 -0.121659 -0.0864489 -0.0669449 -0.0385066 -0.055499 -0.0782855 0.0615695 0.0548778 -0.0623311 0.0809707 0.0284077 -0.05943 0.0508768 0.0706304 -0.0335686 0.0119274 -0.00941672 -0.00660545 -0.0676757 -0.0776166 -0.0575743 0.0820608 -0.0502593 -0.0405534 -0.0272293 -0.00595475 -0.0280535 -0.0698022 0.0775979 0.0674148 -0.0447105 0.0581369 0.0565116 0.0105603 -0.0237102 5.06454e-06 0.034746 0.0664216 0.0744069 0.00393608 -0.0742943 -0.0366912 -0.019539 0.00376023 0.0407376 -0.0320116 -0.0613507 -0.000148304 0.0452735 -0.0727748 0.033225 0.0113927 -0.0488956 0.0515907 0.0673959 0.00251893 0.030543 0.0341005 -0.0720237 0.0145211 0.0521352 -0.0673233 0.00310253 -0.00702057 0.0102774 0.031696 0.0514412 -0.038483 0.0643236 -0.0493449 -0.00289772 0.0430845 -0.0126295
0.00737848 -0.0792203 0.0191804 -0.0133489 0.0394137 0.0800384 -0.00695841 -0.0361113 0.00307751 -0.0569137 -0.0201794 -0.0332727 -0.00674617 -0.00793064 0.00643442 0.0362581 0.0571492 -0.0341267 -0.0759743 -0.0550265 0.0802691 -0.000120035 -0.00551566 -0.0776436 -0.0180878 -0.04174 -0.0492354 0.0217452 0.0476845 0.0801062 0.00838362 0.0741514 -0.0168504 0.0550866 0.053749 -0.060482 0.0523132 0.00614525 0.0769474 0.0796947 -0.0692169 0.0397661 -0.0614394 -4.04296e-05 -0.048701 -0.0308445 -0.00719109 -0.0160449 -0.0398664 0.0770647 -0.04129 -0.0213387 0.0311238 -0.0792253 -0.0281138 -0.0573809 -0.0633758 0.0273038 0.0377903 0.0600269 0.0281226 0.0293427 0.0801742 0.0791894 -0.0635352 0.0766232 0.0884614 0.0305389 -0.0607862 -0.0276013 0.00429648 -0.0287889 0.0849016 -0.00184191 -0.0152494 0.075182 0.0718404 -0.0732103 0.0165999 -0.0387706 0.076982 -0.0291673 -0.018616 0.00606811 -0.0277006 -0.0548954 -0.0366176 0.0629076 0.0157318 -0.0449663 0.0731901 0.0477428 0.091069 0.0294242 0.00590112 0.0544212 0.0755588 -0.0254983 0.0828743 0.00410108 0.0947583 0.00709952 0.00586021 -0.0123509 0.028113 -0.0331155 -0.020892 -0.00885712 -0.0744571 -0.0647157 -0.0377694 -0.01282 0.02833 -0.0667938 0.0457913 0.0091233 0.0491689 0.0375936 -0.0176103 -0.00718278 -0.0882207 0.043888 0.0163033 0.00904581 0.0378709 0.0958143 0.0366333 0.109033 0.0610325 0.0756627 -0.0555564 0.0562367 -0.0595085 -0.00444054 -0.0840195 -0.0724884 -0.0141314 -0.0488664 0.0470345 0.00770407 0.00980159 -0.0195083 0.0202886 0.016026 -0.0401457 -0.00430669 0.0185015 -0.0588015 0.0438901 0.0650731 0.0969245 0.0328219 0.0502355 0.048243 0.0330432 0.00349997 -0.0389698 0.034733 0.0189311 -0.10151 -0.00940374 0.0224573 0.0517679 0.0510315 0.0272749 -0.0325608 0.0486065 0.0656915 0.0579938 0.0367534 -0.0302625 0.0571985 -0.0116136 -0.120926 -0.119234 0.0475549 0.0164959 0.0915493 0.0632088 0.0489658 0.077396 0.0895317 0.13396 -0.0122323 -0.0400647 0.0196139 -0.0874886 -0.0725757 -0.0347756 -0.0911996 -0.0135655 0.0128515 0.0186575 0.0648999 -0.0551462 -0.0475816 -0.00702484 -0.0276917 0.0534039 -0.0837355 0.0332023 0.0321852 0.00259626 0.00100075 0.0679843 0.0882829 0.0251788 0.11339 0.0787254 0.089551 0.0656565 -0.0135755 -0.0126226 -0.103434 -0.0815885 -0.1847 -0.149997 -0.0612296 -0.103847 -0.0539333 -0.0113574 0.0246398 -0.0646047 -0.0790074 -0.00615706 -0.0723192 -0.0344817 -0.0549773 -0.0626848 -0.0142467 -0.0067221 0.0502758 0.110596 0.154367 0.0554982 0.163652 0.0429831 -0.0810038 -0.00270391 -0.135469 -0.0615378 -0.0893993 -0.110264 -0.16125 -0.0852639 -0.122613 -0.119014 -0.0197986 -0.0146476 0.0454612 0.0449642 -0.0707459 0.0345101 0.0431821 0.0237558 0.0185651 -0.00196051 0.0611268 0.0720995 0.00691019 0.0853963 0.0934334 0.0255531 0.0692031 -0.094343 -0.189631 -0.160943 -0.0631818 -0.138573 0.0515133 -0.02698 -0.00829618 -0.0360111 -0.0957741 -0.00599463 -0.0116733 0.0401313 0.0765565 -0.061661 -0.0531615 0.0783032 0.0217393 -0.0467523 0.0147563 -0.0360368 0.0173495 0.103565 0.120421 0.0860398 -0.0134661 0.0675676 -0.0825731 -0.115854 -0.0814805 -0.114901 -0.0293194 0.0226354 -0.00836959 0.129735 0.00812686 -0.0346878 0.0623824 0.033025 0.00153144 0.0135258 -0.0389192 -0.0327191 0.0340785 -0.0143993 -0.046879 -0.0623127 0.0514977 0.00821868 0.0168721 0.0957791 -0.00293389 0.0663487 0.12428 0.0875593 -0.0134363 -0.00154155 -0.00451521 0.0120069 0.124107 0.0297041 0.107816 0.204853 0.11973 0.0788726 -0.0080215 -0.0362684 -0.00918317 -0.0452037 0.0390206 0.0549156 -0.0495637 -0.0282572 -0.00458899 -0.0691071 -0.0445552 0.0269895 0.0521608 -0.0455289 -0.000300316 0.0903107 0.0311119 0.0165165 -0.0523481 0.00753494 -0.0440146 0.0204579 -0.00180223 0.0323356 0.0813466 0.0558526 0.126594 -0.0287205 0.0311916 0.0498128 -0.0113321 -0.0375722 0.0651942 -0.0370562 -0.0232237 -0.0392312 0.0418785 0.00219938 0.0554004 -0.0556826 0.00798953 0.0357014 0.0548514 0.0335073 -0.0406367 -0.0446467 -0.00642398 0.00961769 -0.0621569 0.00545835 0.0324242 -0.0143321 -0.0490029 0.0596551 0.0258801 0.0846312 0.0675874 -0.0644617 -0.048806 0.0121205 0.0115946 -0.03536 -0.0775388 -0.0659787 -0.0439708 -0.0651487 0.0397577 -0.0622724 -0.0323925 0.0103512 0.023627 -0.0433374 0.0648779 0.00851831 0.0437206 0.02271 -0.102087 -0.118937 -0.0238745 0.0958176 0.0231156 0.0128421 0.0202862 0.00882395 0.0176548 0.0301138 0.0853974 0.00598546 -0.00552001 0.0161329 -0.047146 -0.0691803 0.0746712 -0.00947338 -0.0707515 -0.083265 0.0484089 -0.0545255 -0.0592349 0.0315899 -0.00527277 -0.0286229 -0.013928 0.0691674 -0.0112337 -0.00932055 0.0172559 0.104328 0.0351859 0.0268864 0.100691 -0.0563435 0.0516158 -0.0903086 0.00382116 0.00575342 -0.0622196 -0.078041 0.0221632 -0.00844467 -0.033422 -0.0338936 0.0173889 0.0680122 -0.0508293 -0.0669272 -0.0253203 -0.00244402 -0.125004 -0.0208813 -0.0645448 0.0020042 -0.0406072 -0.00565176 -0.0434445 -0.0609142 0.0618848 -0.0330871 0.0032876 0.0621234 -0.0512383 -0.0139435 0.0509379 -0.0479329 0.0864759 -0.0273499 -0.0334637 0.0674342 -0.0112704 0.0266809 -0.074388 0.0517976 -0.00350692 0.0359391 0.00546252 -0.0458988 -0.146851 -0.0423546 -0.00093751 -0.000582537 0.0777557 -0.023305 0.0111387 0.0490144 0.0129745 0.0406203 0.00493882 0.00695095 -0.00719763 -0.0340042 -0.0297519 -0.0187443 -0.0481673 -0.0347816 0.0749081 -0.0602942 -0.00235543 -0.0507403 -0.00767696 -0.0170535 -0.030091 0.0118175 -0.0980641 -0.106271 0.0313481 -0.0223661 0.0204453 -0.0294498 0.00960107 0.0181701 -0.129017 -0.0998507 0.00261845 0.0329342 -0.00532527 0.00422573 0.00398218 0.062861 0.0283743 -0.0250179 0.0505898 -0.046862 0.0762587 -0.0472061 0.0269118 0.0443512 0.0415199 -0.0238228 -0.10371 -0.0433906 0.0033073 -0.0364785 -0.0870319 0.0589494 0.0405401 0.0623441 0.00985283 -0.0524943 -0.0566384 -0.0593772 -0.105113 -0.0238511 -0.0563991 0.0557061 0.0206897 0.0273084 -0.0525026 0.0456611 -0.0482337 -0.0535371 0.0436802 0.0655888 -0.0721372 -0.0349028 0.0386964 0.0429811 0.0129058 0.0027379 -0.0270343 -0.0900142 0.0454037 -0.0229846 -0.0815433 0.0645836 0.0688187 -0.00305608 -0.0148557 -0.0632985 -0.0536711 -0.0773561 -0.0149309 -0.0494104 0.0713316 -0.0190093 0.000157953 0.0196899 0.0597751 0.0158385 -0.0674809 -0.0549664 -0.0524879 -0.0158253 0.0694736 -0.0195847 -0.00668906 -0.0356729 -0.0864601 -0.0759579 0.0907884 0.0278071 0.0562296 -0.0286305 -0.0115684 -0.0157492 -0.0515131 0.0128861 -0.0829344 0.0558891 -0.0739236 0.0627408 -0.036295 -0.0431244 -0.0444755 0.0728705 0.0361381 0.0301717 -0.0441064 -0.0690237 -0.0583485 0.0158698 0.0302079 0.0225275 -0.0116152 -0.0709813 0.00876917 -0.00639673 0.0134297 0.0565043 0.0822519 -0.0838311 -0.0392839 -0.0444111 -0.0152908 0.0440152 -0.0459716 -0.046873 0.00222037 -0.0624818 0.0285819 0.0570013 0.00671433 0.0231212 -0.00427038 0.0472746 -0.048672 0.00878694 0.0148592 -0.0511174 -0.00310017 0.0713502 -0.00199631 -0.0405078 -0.0918437 -0.0284205 -0.00754111 0.0526672 -0.020116 0.0398052 -0.0490236 0.0486291 0.0480793 -0.0450887 0.0483484 -0.0864637 0.0259798 0.0745519 -0.0131469 0.0860509 0.0158565 -0.0893697 0.046346 0.0768901 -0.0167648 -0.0205461 0.077104 0.0737293 -0.0551676 0.0395229 0.017983 -0.00320213 -0.0803293 0.0545053 0.0767905 0.0627634 -0.0448872 0.0616315 -0.0590372 -0.0419824 -0.0360506 0.0176425 -0.00415834 -0.0263062 0.0511667 -0.0070907 0.0221955 0.063284 -0.0415081 0.0512527 -0.0361577 0.00689031 -0.000897486 -0.0431088 -0.0245477 -0.0732222 0.0445456 -0.0731894 -0.0256228 -0.0782851 0.0343412 -0.0617455 -0.0732402 0.0144436 -0.0553832 0.065176 0.0302872 0.0479599 0.0622388 0.0648695 0.0874579 -0.0205909 0.0601563 -0.0262085 0.0916822 -0.0367463 -0.0468571 0.0310422 0.004532 0.0721053 -0.0640246 -0.0239676 0.0337381 0.0475412 -0.0389985 0.00774596 -0.00906523 -0.040569 -0.00370515 -0.0428693 0.0459069 0.034016 0.0369494 0.0823718 -0.0484484 0.0234374 -0.0248712 -0.0495158 0.0625921 -0.00198725 0.0628859 -0.019848 0.0679501 0.00600226 0.00195975 -0.0533521 -0.0239059 0.024936 0.0768053 0.0165712 -0.0426697 -0.0760207 0.0789138 -0.0490333 -0.00353676 -0.0759264 -0.0591029 -0.00672839 -0.0447879 -0.0655409 0.019894 -0.060282 0.0142964 0.0255689 0.0320559 0.034294 -0.0242713 0.00236576 -0.00208673 -0.0378227 -0.0701906 -0.0388214 -0.031359 0.0757719 -0.0233002 -0.0459374 -0.0738903
-0.000553739 -0.00515281 0.0102205 0.0125495 -0.0638991 0.0236335 -0.00388995 -0.0173311 0.0351923 -0.021798 0.0152196 0.0336697 -0.0817928 0.0789349 0.0656452 0.00708902 0.0467299 0.0765876 -0.0646272 -0.0526073 0.0645187 -0.0118675 0.0152158 -0.0534917 -0.0824094 0.0746539 -0.0771474 -0.004656 0.0300953 -0.0213111 -0.0540778 0.0561272 -0.0305161 0.0624268 -0.0391081 -0.010846 0.0113293 -0.0233659 -0.0250163 -0.0130301 -0.0416441 0.0209483 -0.0305878 -0.0343057 0.025011 0.0518266 -0.00861369 -0.0640975 -0.0705286 -0.0126084 0.0118899 -0.0355841 0.00258327 -0.0108372 0.0430137 0.0655672 -0.0405827 -0.0105231 0.0167817 -0.00908811 -0.0545063 0.0199563 -0.0685071 0.0409834 0.0358419 0.05766 0.0701452 0.0111512 -0.0107976 -0.0241139 -0.0237686 -0.0192828 -0.0397076 0.0311741 0.00720085 -0.0579515 0.044621 -0.0182871 -0.0262034 0.0736737 -0.06725 -0.0351433 0.0686675 0.0481569 -0.0217652 -0.0672647 0.0700603 -0.0732917 0.046366 -0.0514143 0.000327635 0.0113714 -0.0800482 -0.0297892 0.0335504 0.0555458 -0.075399 -0.0844088 0.0445861 0.0288331 0.0557434 0.00618951 -0.0916541 -0.100839 -0.00344443 -0.0681113 -0.0100902 -0.00687569 0.0114704 0.0378894 -0.0183256 -0.0238127 0.0491151 0.0362704 0.0691915 -0.0601441 -0.00570805 -0.0796426 -0.02451 -0.0857608 -0.0343155 -0.0208919 0.0856452 -0.0586956 0.0574823 -0.069205 0.0642357 -0.0188211 -0.0518219 0.0123501 -0.00742031 0.0301397 0.0276369 -0.0048125 0.0346794 0.0402275 -0.0712732 0.0473582 0.0680142 -0.0424325 0.0680321 -0.0384862 0.00662732 -0.0729991 -0.0600793 -0.0792226 0.00750655 -0.102506 -0.088185 -0.010066 0.0195473 0.0576216 0.0811626 -0.00930527 0.0582274 -0.0629799 -0.0902078 -0.0483217 0.0168079 0.00964671 0.0337898 -0.0683404 -0.061019 -0.0716813 -0.0742507 0.0389491 -0.0369158 0.0423372 -0.071222 -0.033536 -0.066889 -0.0496561 -0.0458337 -0.0271351 -0.104945 -0.0119659 0.0816084 0.0227954 0.0109519 0.060167 0.0501032 -0.0072412 0.0064206 0.0570425 0.0493652 -0.0392384 -0.0242909 -0.0599021 0.016109 0.0175742 0.0169399 0.0756143 -0.0416171 -0.0312611 0.039692 -0.0142745 0.0565873 -0.0343141 -0.0257173 -0.0195484 0.00627158 -0.0331361 -0.0634003 -0.00684843 0.011541 -0.0202144 0.0232783 0.0791936 -0.0416742 -0.0103595 -0.0462449 -0.0311597 0.00600999 -0.0416892 0.0870211 -0.016653 0.0266456 0.169333 0.12236 0.0106619 0.00772632 0.0216814 -0.0708465 -0.0766665 0.015697 -0.00313108 -0.0734979 0.0229923 -0.0910148 -0.032794 -0.0538532 -0.0275281 0.057018 -0.075331 0.0552254 0.110435 0.100452 0.0341995 -0.009353 -0.0838515 0.0375646 -0.0463762 0.087636 -0.0770149 0.0525774 0.0569021 0.0485748 -0.0258315 0.0713116 0.0098923 -0.0150144 -0.00457251 -0.0345337 0.0696435 -0.0436885 0.0034403 -0.0499196 0.0648046 -0.087362 0.022149 0.016874 0.0478483 0.0385366 -0.0212624 0.0738033 0.0161101 -0.0259772 -0.0314448 -0.14067 -0.0586355 -0.0622852 0.0673617 -0.0336068 0.0188082 0.0278477 0.00590065 -0.00365388 -0.04788 0.0500725 -0.0751487 -0.00521956 -0.0765967 -0.039256 -0.0803764 -0.0171748 0.0595742 -0.0839429 0.0349055 -0.0705159 0.101539 0.0677593 0.0113131 0.080978 -0.0185718 -0.0926869 -0.0081774 -0.0140357 -0.092087 -0.0444428 0.000549414 -0.0471563 0.0252454 0.0854098 0.000786944 0.12362 -0.0617311 -0.0649729 0.0213248 -0.067806 0.0600183 -0.0575939 -0.00822431 0.0421392 0.0193386 0.0552737 0.0636125 0.0247621 0.00149254 -0.0897464 -0.036714 0.0279386 -0.138164 -0.116991 0.00373136 -0.100621 -0.0760054 -0.0909689 -0.00725053 -0.0899851 0.0652673 -0.0544718 0.0515111 0.0700389 -0.0157689 -0.0265335 -0.0190407 -0.0422824 -0.0805696 0.00858564 -0.019773 0.0178539 0.0285763 -0.0532676 0.0532207 -0.0494521 0.0737258 0.0278769 -0.00537508 -0.0953809 -0.000928885 -0.135982 -0.141012 -0.0866931 -0.0823975 -0.0114289 -0.0599314 -0.0360938 0.0493354 -0.0230322 0.0872166 0.0641268 0.0122568 0.0140699 0.0378032 -0.0519246 -0.00103066 -0.0112212 -0.0343204 -0.00921951 0.0275897 -0.0608354 0.0212289 0.0311739 -0.00958642 0.0379984 -0.0892136 -0.0449184 -0.0539389 -0.0723892 -0.112341 -0.0963136 -0.023214 -0.0574061 -0.0697386 0.051213 0.111224 0.104395 0.114057 0.102206 -0.0199877 0.03919 -0.039442 -0.0423415 -0.00731073 0.0766144 0.00642194 0.0416509 0.0441765 -0.0333802 -0.012587 0.041634 0.0681607 -0.0593718 -0.0719466 -0.0630225 0.0349319 0.05845 0.04261 -0.0954292 -0.0845307 0.0631106 -0.0477596 0.0399909 0.0333908 0.0807708 0.0750003 0.00384353 0.0226106 -0.0400671 0.0485607 -0.0679374 -0.0737499 -0.0790386 -0.0232399 0.0686973 -0.00745135 -0.0517861 0.00742599 -0.00190523 -0.0314027 0.0682769 0.0896097 -0.00684642 -0.0126194 0.0211847 -0.0344132 0.0129482 -0.030193 -0.0608115 -0.0417299 0.0155739 -0.0573027 0.00812768 0.096228 0.031384 0.0933967 -0.0480942 0.0307702 -0.0435503 -0.03062 -0.0400347 -0.0567155 0.048387 0.122008 0.092207 -0.10611 -0.0145031 0.0550203 -0.0581966 -0.0762079 0.0393779 -0.0477345 0.0279101 0.0175178 0.049069 0.0908114 0.0215669 -0.104422 -0.062233 -0.0463408 0.0983385 0.0939012 0.0687141 -0.00439413 0.0509722 0.0101556 -0.047643 0.0711713 0.0326756 0.0679188 0.0253503 0.0614163 0.032426 -0.0124237 0.0361295 -0.00184294 0.026543 -0.00978944 -0.146583 -0.0150131 -0.0492516 0.0903766 0.0603272 -0.0201369 -0.048326 -0.0704521 -0.039098 0.0182516 0.00516237 -0.0600747 0.0103836 0.0460634 -0.025237 -0.00554953 0.0547874 -0.050399 0.068699 -0.03556 -0.0530616 0.0284381 0.136287 0.0642367 0.0720711 0.0349044 0.0651854 -0.0447169 -0.0446741 -0.00149998 -0.0368718 0.0208948 -0.0421805 -0.0686812 -0.000910161 -0.0774901 -0.023073 0.0189633 0.0185812 0.0148922 0.0616455 0.0117702 0.0300764 -0.0363046 0.0532691 -0.0542883 -0.0412674 -0.0476225 0.0838617 0.0600003 0.0470967 0.0335988 0.090716 0.0478507 0.0751734 0.0625238 -0.0475066 -0.0321809 0.00483413 0.048752 0.0287637 -0.0929387 -0.0386399 -0.118825 -0.0740811 0.0975444 0.00597611 -0.0410053 0.080827 0.00997381 0.0622882 0.0739578 0.0529278 0.0756843 0.0323896 0.0286274 0.0543696 0.0279002 -0.00348078 0.087389 0.105529 0.0769015 0.0638866 0.0397296 -0.0174898 0.027018 0.0182702 0.0446513 0.0078805 -0.00254342 -0.0246835 -0.11592 -0.121085 -0.0555599 0.0918705 0.0751262 0.0169591 -0.00101854 0.0669745 0.050724 -0.0603019 -0.0722106 -0.0183727 -0.00178523 -0.0811313 0.0267296 0.0630598 -0.00533339 0.0864623 0.0464897 0.0161684 0.042286 0.00752233 0.123422 0.0232916 -0.0268693 -0.0587177 -0.103658 -0.0482378 0.0723148 -0.10628 0.090939 0.0179857 -0.0510772 0.0118378 0.0380198 -0.0632836 0.0293779 0.0503887 0.00136118 -0.0493866 -0.00666941 0.0537595 -0.00592175 0.0685015 0.0472509 -0.00292551 0.0990014 0.0398176 0.0905949 0.0278176 -0.0753576 -0.0477116 0.0235843 -0.00852758 -0.0212921 -0.0152458 0.0609029 -0.0349048 0.00848068 -0.0614342 -0.0127048 -0.0824833 0.053972 0.0228891 -0.0825197 -0.0245732 -0.0320158 0.0269251 -0.0454817 0.0277072 -0.0850291 0.0184367 -0.0795752 -0.00794735 0.101748 0.0349051 0.0949612 -0.0273167 0.0449436 0.0958743 -0.0476395 -0.0197004 -0.0144242 0.0693648 0.0266377 -0.0228245 5.98796e-06 -0.00212831 -0.00130771 0.0107782 -0.0125645 -0.0714153 0.0313036 -0.0531214 0.0675601 -0.0279519 -0.0801492 -0.0984312 -0.0441726 0.0285466 -0.0908039 -0.0434382 -0.0677034 0.0122074 0.0368446 0.0729423 0.000730589 0.126491 0.110103 0.0412525 0.0157234 0.0208791 0.030239 -0.0306592 -0.00591077 -0.0338538 -0.0421175 -0.017208 -0.00878753 -0.0437766 0.00950202 -0.0332009 -0.00372997 0.075618 -0.0830556 -0.051685 -0.0392978 -0.0602155 -0.0411963 -0.0501505 -0.115374 -0.118878 0.0106593 0.0230472 0.0263125 0.0678078 0.0199177 0.0575543 -0.00119607 -0.0519751 0.0392462 0.0380054 0.0585059 0.0122262 0.00370377 0.0427261 0.0616734 0.0587946 -0.0768763 -0.0428588 0.0180879 0.0100178 0.0646828 -0.0721561 0.0394822 0.0613649 -0.00864054 -0.0633144 -0.0775832 -0.0438201 -0.0682593 -0.010495 -0.0467738 -0.0605759 -0.0153999 -0.0448841 -0.0534479 -0.0583969 0.0156222 0.0143568 -0.0425139 0.0544526 -0.0295457 0.0288035 0.0251571 -0.0344957 -0.00564341 0.0370688 -0.0153769 -0.00755483 -0.052464 -0.0180039 -0.0428575 -0.0592012 -0.0259486 -0.0318244 -0.0312896 0.0514967 -0.0441183 -0.0730746 -0.0432351 -0.030685 0.00601649 0.0739412 0.0291307 0.0225903 -0.0423991 0.0420811 -0.0792008 -0.0464122 -0.023886 -0.0229058 -0.0345127 0.0118432 0.0538008
-0.0687905 -0.0170285 -0.00439993 0.0312162 -0.0579555 0.0859398 0.0578959 0.00589766 0.00684389 0.0874145 -0.0296725 0.0611837 -0.00157846 0.00808449 -0.0248482 0.0565827 0.0741143 0.00156084 -0.04461 -0.0270957 -0.0556137 0.0584472 0.036775 0.0626317 0.0632305 -0.0180624 -0.0136644 0.036244 -0.0574173 0.0337988 0.00558504 0.0593588 0.0825009 -0.0213038 0.0258049 0.0335617 -0.0451059 0.0680314 0.0802846 -0.0182547 0.0855554 0.0739344 0.0814917 0.0170649 -0.00408552 0.0191019 -0.0154045 0.0114576 -0.0685861 -0.0611012 -0.0685786 -0.0143132 0.087541 -0.0479674 0.0390385 -0.0160292 -0.010876 0.024376 0.0327382 -0.0321878 0.070839 -0.0611883 0.0456381 0.00609128 0.00144561 0.029645 0.102559 -0.0313279 0.0904901 0.0319532 0.0743266 0.0910872 -0.0140518 -0.0210327 -0.0621827 0.0103092 -0.0452756 0.0156449 0.0210189 -0.0268901 0.0814547 0.0500419 0.0861506 0.0661111 -0.000665357 0.0750401 -0.0300642 -0.0573886 -0.05191 -0.0373714 -0.0256173 -0.00797846 0.0874736 -0.038692 0.00975954 0.0992976 0.0408502 0.0682702 -0.000889624 0.0237662 0.0534612 -0.0940694 -0.0685255 0.0675323 0.0635403 0.0319289 0.0329421 -0.0124972 -0.0465655 -0.0525719 -0.0260448 -0.000568566 -0.0510675 0.0577578 -0.0667842 0.0206674 0.0503018 -0.0335954 -0.00884917 0.0717633 0.0958432 0.0349853 0.0237833 0.0263556 0.0884864 0.090953 0.0202113 -0.0302182 -0.0137525 -0.0336384 0.0245326 -0.0528492 0.0126856 0.0182701 0.0316994 -0.0146604 0.0498816 0.0706597 -0.0160984 0.059845 -0.00116759 -0.00620117 0.0818082 0.00588511 0.0731623 0.0191129 0.0605189 -0.027933 0.0222207 0.0159654 0.0901086 0.0206335 0.112195 0.00594522 -0.0398161 -0.0474125 -0.0418991 -0.126516 -0.0750071 -0.0584538 -0.106467 -0.0389074 -0.0484356 -0.049963 -0.0411669 0.0255892 -0.0197505 -0.0690217 -0.0590891 0.0513116 -0.0454467 -0.0227166 0.00561083 -0.0289983 0.0547375 -0.0146109 -0.0482064 0.0530959 0.0177275 0.0739538 0.00516019 1.37831e-05 -0.0319454 -0.0592568 -0.021891 -0.0378981 0.0345618 -0.0926608 -0.0287123 0.00542566 0.000167987 -0.0619298 -0.0240214 -0.00755671 0.0798191 0.0247828 0.0342956 0.0352206 -0.0461581 0.0576107 -0.0624292 -0.00691991 0.0587529 0.032847 -0.0395596 -0.0618607 0.0548768 0.140855 0.0401509 0.0441647 0.0367733 -0.0597552 -0.0201527 0.0909055 0.00667625 -0.0106244 0.0322013 -0.0432621 -0.0201101 0.0302478 -0.059482 0.0326362 0.0230423 0.0120193 0.0220691 0.0472543 -0.00126653 0.0752356 -0.0684008 0.0275811 -0.00317337 -0.0836419 0.0752123 0.0679161 0.144551 0.00925331 0.0178102 -0.0195454 0.0315539 -0.0819356 -0.0716546 0.0699142 0.0237722 -0.0525959 -0.122552 -0.12172 -0.0446846 -0.00113645 0.00657035 -0.00311794 0.0595196 -0.0320451 0.0545563 -0.0460922 0.0149085 -0.0276342 -0.0440569 -0.0215292 -0.0828376 0.00829891 0.0113383 -0.083205 -0.051098 -0.0309426 -0.120141 -0.0516072 -0.16616 -0.0182255 -0.0104029 -0.00425404 0.010124 -5.73337e-05 -0.0595171 -0.120702 0.0328098 0.0245381 -0.0479373 -0.0660465 -0.0722568 0.0893706 -0.034396 0.0545892 0.0689009 -0.0214743 -0.0558447 -0.0547247 0.0109697 -0.0628779 -0.0111059 -0.123896 -0.0682469 -0.082404 -0.227644 -0.108759 -0.0261359 0.0320776 0.0614323 -0.00255456 -0.00308057 -0.0717206 -0.0608635 -0.0500515 -0.0495387 -0.0890095 0.0165745 -0.0546986 -0.0143278 -0.0440234 0.0144913 0.0143934 0.0355176 -0.0763279 -0.0778468 -0.0417004 -0.057533 -0.0924276 -0.124744 -0.139281 -0.130923 -0.198624 -0.192011 -0.0367383 0.0576629 0.0387276 0.0373492 -0.0578095 -0.0233123 -0.116826 -0.0992752 -0.0341356 -0.0727893 -0.10637 0.0230907 -0.0561446 0.0710913 0.0304515 0.00712181 0.050531 0.0538401 -0.0715268 -0.0613827 -0.0823342 -0.0648775 -0.112454 -0.159945 -0.202571 -0.203687 -0.0460438 -0.0856755 0.107205 0.146459 -0.0151358 0.0696253 -0.106867 -0.0905869 -0.106489 0.0104453 0.00813735 -0.0017378 -0.0812326 0.0238078 0.0762699 0.0814419 0.0764022 0.0768948 -0.0388488 0.0423296 -0.0532715 0.051839 -0.0576018 -0.116854 -0.144082 -0.120417 -0.0821863 0.00360667 0.0925508 0.0705167 0.200603 0.0746434 -0.0389579 -0.0520343 -0.0180269 0.00591846 0.0221546 0.0440097 0.0159814 -0.0543099 -0.0306132 -0.0279518 0.0509954 -0.0342327 0.0645774 -0.0548589 0.0588574 0.0370419 -0.00793624 -0.0304817 -0.0749653 -0.00788015 -0.0158938 -0.00865646 0.123048 0.124378 0.0482207 0.153605 0.155736 0.128157 0.00693971 -0.0207134 -0.00115758 -0.0201355 0.0571487 -0.0346502 -0.0808144 0.0650865 0.0485122 0.00354484 -0.037806 0.0845642 -0.0697824 0.0135813 0.0719975 0.0639408 -0.0511864 0.0254092 0.0553068 -0.064238 0.0147681 -0.0124267 0.048258 0.125623 0.0903702 0.100737 0.139555 0.00326416 0.0860509 0.0516933 -0.0479915 -0.0705669 -0.131013 -0.0543906 0.00404213 -0.0466408 0.0233576 0.0365442 0.0150436 0.0504312 -0.0628366 0.00350365 0.00419828 -0.0464543 0.0720554 -0.0522605 0.0543399 -0.0222465 -0.0223712 0.0918784 0.0823122 0.0143052 0.119629 0.050197 0.0963688 0.0811553 0.0161847 -0.0156894 -0.0317229 -0.00914721 0.00804331 -0.0405457 0.0331417 0.108296 0.0462727 0.0882449 -0.00438864 0.0879922 0.0443082 -0.0715913 0.0145205 -0.0136128 -0.0454747 0.0531954 0.045201 0.0123014 0.0423896 0.0509214 0.0379764 0.076726 0.0913731 -0.0340596 -0.000544005 0.0254508 -0.0878488 -0.0248427 -0.0251164 -0.0101995 0.00560832 0.0174022 0.0419331 0.036106 0.00124182 0.0429832 0.094646 -0.0467605 -0.0409027 -0.0539271 -0.0225114 0.0654313 0.0389258 0.0533052 -0.0410932 0.0150428 -0.053141 -0.00792518 0.0276148 0.0237739 -0.0751676 0.087675 0.0411317 0.0796865 -0.0113081 -0.0930869 -0.053654 -0.0290723 -0.0815524 -0.0778736 -0.00749262 -0.0228615 0.0278733 0.0774174 0.0657562 -0.0439573 -0.0542902 0.0560214 0.0897879 -0.0611551 -0.0595045 0.0118961 -0.0397467 -0.0287958 0.0641385 -0.0815852 -0.0801671 0.0536239 0.0311648 0.0443845 0.0862272 -0.0167351 -0.0250509 0.049938 0.029792 0.0778034 0.0569819 0.0747637 0.0515597 -0.003772 0.0389327 -0.0206236 0.000689298 -0.0406697 0.0366863 0.0483336 -0.0301482 0.0425279 0.0415729 0.0347802 0.0752615 0.0534159 -0.0942606 0.00588056 -0.064619 -0.0094333 -0.0818435 0.0308274 0.0141279 0.040515 0.0251946 0.0579745 0.0960752 0.0986147 -0.0615656 0.0156107 -0.025877 -0.0874049 -0.0899084 -0.059328 0.0314444 0.0750547 0.0142688 0.0501562 0.00619449 -0.00872053 0.0114959 0.0545906 0.0382469 -0.0325221 0.0209976 -0.0119199 -0.00257037 -0.0625866 0.00596289 0.0187802 0.0339373 0.038925 -0.0245976 0.0378098 -0.0977049 0.00177156 0.00482987 0.0596221 -0.0504641 0.0487709 -0.0129531 -0.0434273 0.00857822 0.0755047 0.0346781 -0.0202348 -0.0458538 -0.0435155 -0.0468199 -0.0313787 0.0292398 -0.0644931 0.0132653 -0.109332 0.0299327 0.0225844 0.0516238 -0.0629599 -0.0153637 -0.0655726 -0.0918921 0.00780073 -0.0809671 0.0375247 -0.0370016 0.0391437 -0.0358493 -0.0362011 -0.015289 -0.0162684 0.0312981 -0.0350022 -0.0121284 -0.0412746 0.0364798 0.0826282 -0.0731073 0.000794218 -0.0176749 -0.0085198 -0.0332183 0.00883961 0.0480996 0.0303267 0.0202377 0.0417957 -0.0498396 0.00561854 -0.0633517 -0.087886 -0.0782008 -0.100407 -0.0075165 -0.0234573 0.0251127 -0.0252803 -0.0826097 -0.0334839 0.00381465 -0.0219792 -0.041557 -0.0504337 -0.0565936 0.0417287 -0.0277775 -0.0240975 0.0257817 0.0501277 -0.0621689 -0.0487176 0.0532327 -0.0209728 0.105767 0.103451 -0.0673622 0.0332219 -0.0483028 -0.0276226 -0.0818833 -0.0633862 -0.0243167 -0.0283781 -0.0714447 0.0788413 -0.0275494 -0.025185 0.0679834 -0.0377039 0.0849081 -0.00814263 -0.0559703 0.0855688 0.0374582 0.0493439 -0.0671376 -0.000221447 -0.0393933 -0.0601608 -0.0761518 0.0160186 0.0809212 0.0455292 -0.0194725 0.0625215 0.0424536 -0.00367449 0.0448425 -0.0719565 -0.0536651 -0.0646091 0.0796893 -0.0681507 0.0577376 -0.0339265 -0.0368804 0.0215544 0.0519683 -0.0396273 -0.00734114 0.0259961 0.0843113 0.0140041 -0.0395711 -0.0670326 0.00943274 -0.018694 0.0630484 -0.00973909 -0.0455995 -0.0226524 0.0168555 0.00820993 0.0655567 -0.0404135 -0.0127164 0.00016308 -0.0160492 0.00840118 -0.056456 0.0230688 -0.0530022 -0.0388053 -0.0681482 0.0408419 0.0688804 -0.0349132 0.0394032 -0.0201807 0.0396006 0.00892059 0.0626521 0.0584559 -0.0297248 0.00785214 -0.045099 0.00296061 -0.0650102 -0.00197197 -0.0328505 -0.0404743 0.0241135 0.0788964 -0.0684141 0.069559 0.0505704 0.0608167 0.0310865 0.0711644 0.0138173 0.0580779 0.05381 0.0883423 -0.0526298
-0.0105677 -0.0635348 0.0256854 -0.0364825 0.00763074 -0.0708223 -0.0636485 -0.0190644 -0.0785421 -0.0797948 0.0540247 0.0393632 -0.0612463 -0.0799499 0.0556379 -0.0815085 -0.0631835 0.0351243 0.0749994 -0.0575019 0.010732 -0.0142921 0.0345508 0.0718892 0.0624603 0.0509933 -0.036792 0.0644626 -0.0107407 -0.0582691 0.038441 0.0587814 0.0216917 0.0141308 -0.00655391 -0.0282491 0.0737145 -0.030053 0.0580898 0.053914 0.0419887 0.0570517 -0.0381833 -0.0361991 0.0492127 -0.0216275 -0.0806576 0.0249388 -0.00424349 0.0210053 0.0636475 -0.0730915 0.0263121 0.0174204 0.0193317 -0.0745655 3.7403e-05 -0.0613666 0.028766 -0.0319553 -0.0348945 -0.0135536 -0.0417382 0.0439351 0.0444715 -0.000567652 -0.0346846 0.00356934 -0.0527466 0.0178678 0.0135671 0.0418585 0.0470476 0.0554391 -0.00799041 0.0483469 0.0438755 -0.0212922 0.0558365 -0.0605858 -0.0811416 0.0651946 -0.0207203 -0.0379545 -0.0580223 0.058358 -0.071174 -0.0525076 0.0578935 -0.016283 -0.0121762 0.0595093 -0.0564317 0.0882054 0.0290234 0.0879141 0.0253333 0.0355988 0.0494198 -0.0456723 -0.00745883 -0.0575322 -0.0215071 0.0379003 -0.0311003 0.0232707 0.0395294 0.0200026 -0.0174605 0.0463408 0.0706282 0.0243166 -0.0516199 -0.0727227 -0.054469 -0.00777334 -0.0175244 0.043469 -0.0414034 -0.0679558 -0.0669731 -0.000324846 0.0654998 0.00821641 0.0429044 -0.0109913 0.0066014 0.019457 0.121264 0.127349 -0.0554301 -0.0170573 0.00631705 0.0196722 -0.0765916 -0.0653013 -0.0627322 -0.0324177 -0.0375436 -0.0150947 0.00791744 0.0606778 -0.0505319 0.0623278 0.0154749 0.0469339 -0.0396909 0.00632515 0.0455465 -0.0455245 -0.0478038 0.0727598 -0.0124136 0.0319722 0.05047 0.0823648 0.0923319 0.0471658 0.0995128 0.0786785 0.0508061 0.0530576 -0.019774 0.0342356 -0.0136429 0.00667155 -0.0700575 0.0735014 -0.0218063 -0.0561656 0.0179248 0.0265442 -0.045682 0.0102033 0.0481253 -0.0671958 -0.0757756 0.0200499 -0.0653963 -0.0345219 -0.0622947 -0.00914786 -0.0197151 -0.0401743 -0.0082821 0.0684633 0.0275652 0.0296996 -0.0136263 0.0685204 0.0864075 -0.0843724 0.0442601 -0.0693296 0.0240314 0.0441439 -0.0650472 -0.0364801 0.0237616 -0.0526195 -0.0803083 0.0359089 -0.0647933 -0.0907855 -0.051064 -0.0357592 0.0381454 -0.0400807 -0.0127994 0.0027554 0.0304612 0.0602305 -0.0578659 0.0369226 0.0699696 -0.0392758 0.034396 -0.0494632 0.0451922 -0.0166374 -0.0209773 -0.0673466 -0.0692901 0.0353565 -0.039211 -0.0636889 -0.0827081 -0.0575465 0.0340239 -0.0423342 0.0467584 -0.0460168 0.00286732 -0.00898996 -0.0401656 0.055354 0.0444104 0.103463 -0.0804758 -0.0843403 0.0887195 -0.00387123 -0.039342 0.00857015 0.0105208 -0.0442566 0.00901497 0.057768 -0.0620384 0.0135591 0.0705004 0.0588061 0.0341652 0.0577263 0.00210346 0.0645731 -0.0189325 -0.0948331 -0.0584153 -0.0443285 -0.0590432 -0.00967799 -0.0280163 0.0354659 0.0356776 0.0711505 -0.00942513 -0.1252 -0.0177766 -0.0168895 -0.0549941 0.0258217 0.0101382 -0.0435921 -0.0846349 0.0791844 0.0886996 -0.00836629 0.0724899 0.00739241 -0.0758774 -0.0791727 -0.0126351 0.0454619 -0.0244018 0.0205691 0.0071088 0.0878313 0.0781157 -0.0422579 0.0356395 -0.0996708 -0.0844361 0.0096292 0.0550967 -0.0739217 -0.0767792 0.0494261 -0.045153 0.0276012 0.099107 0.0546598 0.0224112 0.05277 -0.0429725 -0.0797838 -0.0688793 0.0707366 0.0701966 4.41025e-05 -0.069753 -0.0220732 0.0163348 -0.104035 0.00356608 -0.026399 -0.0315094 -0.0607064 0.0343745 0.0120311 0.057127 -0.0783169 0.012751 -0.00397118 -0.0686358 0.0241393 0.0101118 -0.0805287 -0.0830348 0.0190547 -0.0724213 0.0191137 0.0686613 -0.069348 0.00460382 -0.0165212 -0.0478086 -0.0820006 -0.0751106 -0.0760334 -0.00252991 0.0238477 -0.0215244 0.0570761 0.0370748 -0.000313303 0.0137401 0.0120487 -0.0250762 0.015383 0.126824 0.123961 -0.0408767 0.0059498 0.0415956 0.0319649 -0.0344355 0.0683652 0.0350807 0.0291022 0.121152 0.0632169 0.0321201 -0.0696327 0.0259802 0.0611453 -0.0115098 -0.0265994 -0.0746812 -0.0155402 0.00994143 0.0451792 -0.00343363 0.0218303 0.00924036 -0.0231965 -0.0284699 0.14704 0.0431109 0.0260716 0.0283258 0.0142707 0.009812 0.00124671 -0.0213345 0.0230316 -0.0282913 -0.0212478 0.104547 -0.0168103 -0.0594982 0.0117112 -0.0469315 -0.00589868 0.038213 0.0617778 -0.0396888 -0.0306662 -0.0372571 0.0171443 -0.0240203 -0.0316131 -0.00015745 0.0516188 0.0861014 -0.00106361 -0.024935 0.00330421 -0.114035 0.0181419 -0.0361504 0.000465862 0.00234956 0.0169674 -0.0226388 -0.0488218 0.0959058 0.0175143 0.0238496 0.0457517 0.0707891 0.0418635 -0.0175956 -0.0234626 -0.046853 0.00687558 0.0116294 0.0592868 -0.0308186 0.0592853 -0.0274787 -0.00415289 0.076106 0.075621 -0.0312986 -0.0974978 0.0759825 0.029966 -0.0561094 0.0390066 -0.0140346 -0.0497842 -0.00399825 0.0110074 0.0439947 0.0416799 -0.0492796 0.0682282 -0.0499012 -0.0700991 -0.00683082 0.0217264 -0.00486934 0.0375199 0.0748891 0.0622783 0.0586083 0.17538 0.0299127 0.0522194 -0.115439 -0.0822768 0.0126589 -0.0058664 0.0629291 0.00284311 -0.00441134 0.0195627 0.0235416 0.0734765 -0.0421261 -0.0701222 0.00949494 -0.0453747 0.0578541 -0.0551349 -0.00903678 -0.046693 -0.0798837 0.0117316 -0.0119289 0.043813 0.118812 0.113434 0.161862 0.0744901 0.0973477 -0.0541768 -0.0981521 -0.119602 -0.126824 -0.0813708 0.00466214 0.0244006 -0.0723949 -0.0144047 -0.0984137 0.0229456 0.0859867 0.0795028 -0.0252537 0.0764693 -0.021902 -0.0531485 0.0264871 0.0454958 -0.0617992 0.0100981 -0.0103562 -0.00925791 0.0196295 0.0927857 0.144623 0.0836804 0.0149937 -0.0957316 -0.113142 -0.0375053 0.00826486 0.0306661 0.0822459 -0.0597009 -0.0174746 -0.113388 0.0136699 0.0329522 0.00111842 0.0495719 -0.00766949 -0.0528762 -0.025568 -0.0837938 -0.0458105 0.046546 -0.0717658 0.0190191 -0.03118 0.0170349 0.0243615 0.0988367 0.14186 0.182605 0.110447 -0.115769 -0.0153013 -0.0459752 0.0137554 -0.0076214 -0.0529195 -0.0154481 -0.0274171 -0.0897875 -0.0609564 -0.0604492 0.0594268 -0.0446285 -0.0579259 -0.0414366 0.0390888 -0.0389733 -0.0502456 -0.0457637 -0.00523437 0.0574229 0.0215997 0.0720567 -0.0437615 0.119464 0.128409 0.101129 0.00548126 0.0260533 0.00335028 -0.0944997 0.0306502 0.0138093 -0.0733601 -0.0519072 -0.056755 -0.00629167 -0.0541056 0.0947889 0.077985 0.0573775 -0.0587771 0.0679123 0.0113099 -0.0645053 0.0257135 0.0101861 -0.0123917 -0.0060861 0.0549217 0.0565181 0.0362607 0.0665773 0.000777377 0.143336 -0.0206856 0.017753 -0.0834511 -0.0311075 0.0842664 0.0543916 -0.0896117 -0.0571908 -0.0810517 -0.0617165 0.0435681 0.00934419 -0.0378388 0.0494757 0.029551 0.0256214 -0.0840323 -0.0011378 0.04237 0.00861481 0.0709918 0.0392995 -0.0102208 -0.0440646 0.0152765 0.037666 0.147566 0.119967 0.0568412 0.0983365 0.0769153 0.0779984 -0.0765899 0.00607418 -0.0481197 -0.0582807 -0.0508152 -0.0330189 -0.0134692 -0.0495248 -0.0284443 -0.0209794 -0.0371306 -0.0443475 0.0384596 -0.0525455 0.0688864 -0.0240831 0.0775897 -0.0772057 -0.0640221 -0.0582574 -0.0424841 -0.057834 0.164775 0.0853752 0.066728 0.11846 0.0174964 0.0648397 -0.0728573 -0.0391367 -0.0689548 -0.0212045 0.065813 -0.0635556 0.0260943 -0.0775357 -0.0310374 0.0443314 -0.00831738 0.01767 -0.0599687 -0.0701212 -0.0350691 -0.0567469 -0.0595518 -0.0506789 -0.0624361 -0.0148046 -0.0512349 -0.0147832 0.0585581 0.0806658 0.0441961 0.0290633 0.0759522 0.0819221 0.000186356 0.0396567 -0.0354042 0.0526107 0.0821404 0.00866928 0.0143523 -0.0417074 -0.0830802 -0.0795233 0.0168473 -0.0209047 -0.0550629 0.0607871 0.0641134 0.0228678 0.0658206 -0.0739564 -0.055646 0.026535 -0.0751246 -0.0400893 -0.0361267 0.0244189 0.073754 -0.0343995 -0.110695 -0.0401627 0.0388667 -0.0675499 -0.00628259 -0.0716039 -0.057715 0.0270254 0.0447944 -0.0712606 -0.04771 -0.0770257 0.0550825 -0.0771698 -0.0620249 -0.0488553 -0.0778561 -0.0533429 -0.0287345 0.00158728 0.00288273 -0.00208897 0.0131755 -0.0268175 0.0513791 -0.0620543 0.049948 0.0537804 -0.0434835 -0.00934363 -0.0825532 -0.0822093 -0.0254992 -0.071714 -0.0138551 0.0621673 -0.00165546 -0.0320561 -0.0834089 -0.0822196 0.037567 -0.0357377 0.0217975 -0.0771798 -0.0354568 -0.0545635 -0.0562312 0.0417606 0.0152804 0.0348057 0.0365206 -0.0287198 -0.0387149 0.0732925 -0.0743284 0.0482866 -0.0436835 -0.0282176 -0.0336747 0.0624904 -0.0594837 0.0159151 0.0621053 -0.0799888 0.0309085 -0.00946239 0.0504268 0.0073388 -0.00197161 -0.0165771 0.0435714 -0.0258196
-0.0268254 -0.00187904 -0.0130534 -0.0101551 0.0323876 -0.0242864 0.0092151 0.0514264 -0.0170539 -0.0123963 -0.02103 0.0745021 0.0774594 0.0287284 -0.0664333 -0.036504 0.0501911 0.00297124 0.0270812 0.0153025 0.0499393 -0.0579655 0.0170686 0.0388647 -0.0777377 -0.0697455 0.0629961 0.0412356 0.077928 -0.0577745 -0.0789819 0.0682797 0.0338336 0.0284475 0.0454079 -0.049336 0.0426066 -0.0791443 -0.0468662 -0.0164309 -0.00178077 0.056162 0.0294292 0.0608096 0.0374648 -0.0615115 0.00032454 -0.0272082 -0.0286104 0.0112125 0.0208748 0.031318 -0.0218972 0.00359409 0.0122771 0.0364069 0.0650425 -0.0769374 0.0503504 0.0223706 -0.0521241 -0.0195707 -0.0335352 0.0186211 -0.0392033 -0.019888 -0.0410072 -0.0093984 0.0218525 0.0716847 0.0624325 -0.0666276 -0.0126137 -0.0234319 0.0460874 0.0431439 0.0752309 -0.0114557 0.00214695 0.0730048 0.0785869 -0.0252883 -0.000154604 -0.0677473 -0.0311835 0.0313764 -0.0743344 0.0345532 0.0254558 -0.0104979 -0.015367 -0.0654467 0.0956881 0.0825378 0.0531555 -0.0156773 0.0922051 0.0685616 0.0172669 0.101414 0.084636 0.0796867 -0.0142503 0.0578726 -0.0281659 -0.0215764 0.014308 0.044165 0.0356766 -0.0443223 -0.0461167 0.0328707 0.00769684 -0.0309311 0.0387854 -0.0729526 -0.00862774 -0.0305702 -0.0527692 -0.0514237 -0.0294097 -0.00226185 0.0886269 0.0787724 0.0542525 0.0427276 0.00403102 0.0228597 0.0078885 0.0628724 0.0624881 0.0570199 0.012271 -0.0315544 -0.0426101 -0.0721798 0.0586925 0.0120538 -0.000798595 0.0447991 -0.0319905 -0.0210061 0.0655639 -0.0130429 -0.0747702 -0.0937257 -0.0154382 -0.00639659 -0.0113328 0.0592227 0.0244999 0.0193636 0.00647552 0.0268436 0.00121229 0.0485592 0.10106 0.0806994 -0.0464962 0.0599783 -0.0172628 -0.0347017 0.0566122 0.0484021 0.0157322 -0.0374773 -0.0343144 -0.0561559 -0.0547392 0.0699003 -0.0402002 0.0749617 -0.0465456 -0.0742667 0.0393602 -0.0368668 0.0450254 -0.0722019 -0.0183312 0.0452766 0.0486599 0.0965453 0.13449 -0.00608604 0.0428587 0.0404968 -0.121341 -0.0615406 -0.077788 -0.00436766 -0.0550659 0.0372194 0.00467654 0.0375318 -0.0634628 -0.0687366 -0.0222579 0.0607838 -0.0229767 -0.0608634 -0.0324053 -0.0277935 -0.0305069 0.01041 -0.0407699 -0.0676749 0.0412999 0.161223 0.139845 0.0425928 0.0349392 0.0682499 -0.0655267 -0.132113 -0.175841 -0.121047 -0.116532 -0.142083 -0.166157 -0.0555675 -0.0412324 0.00682158 -0.0293022 0.0281665 0.0447103 0.0229125 0.0273094 0.0178137 -0.0441585 -0.052464 -0.0652261 0.0797622 0.0783999 0.0889975 0.135058 0.089808 0.0595573 -0.0446149 -0.131888 -0.112144 -0.115263 -0.105293 -0.0910844 -0.125681 -0.155384 -0.0853014 -0.0959134 -0.111809 0.0289204 -0.0518237 0.00354958 -0.0385224 0.0433069 -0.0387845 -0.0502805 -0.0780531 -0.0547027 0.0738157 -0.00581132 0.124129 0.0963304 0.0853995 0.0270202 0.0919803 -0.114451 0.0028626 -0.0354209 -0.0420291 -0.132418 0.0744356 -0.0111204 -0.0125085 -0.0963537 -0.0768597 0.00796714 -0.127713 0.0502709 0.0127103 -0.0132924 -0.0556498 0.067873 0.0110637 -0.00862937 -0.0784807 0.0508524 0.0221082 0.0915388 -0.0124289 0.0518315 0.0271959 -0.041027 -0.126999 -0.0963683 0.0233302 -0.116741 -0.104717 -0.0803329 0.0617968 0.124229 -0.0623241 -0.0714436 0.0349806 -0.0361704 -0.0650547 0.0391914 -0.0600649 -0.0411205 0.0441583 -0.0138481 -0.0522816 0.0659986 0.0130582 0.0108793 -0.00537909 0.0119469 0.0152988 0.0467494 -0.0254177 -0.121704 0.0139607 0.0240381 0.0714581 -0.0460623 -0.0530689 0.0429862 0.117592 0.0578093 0.0702431 0.00821952 0.0133889 -0.0647393 0.0564249 0.104399 0.0649637 0.0271 0.0585791 0.0425379 -0.00200899 0.0203249 0.0701784 0.0359942 0.104212 0.114729 0.0054067 -0.0507584 0.00111056 -0.0398797 -0.0779177 -0.00961887 -0.0381566 0.10423 0.0492873 0.091667 -0.0112849 0.0549148 0.0679588 -0.0999994 -0.0245692 -0.016193 0.0679607 0.0219264 0.0566356 0.0256067 0.0347581 -0.0540085 -0.0652696 0.0183478 0.0470297 0.0469687 0.0214789 -0.0322202 0.0611041 -0.0456577 0.0580828 0.0829331 -0.0123319 0.0248311 -0.0152522 0.0286126 0.0299813 0.0726252 -0.0583584 0.0484918 -0.0128276 -0.0677815 -0.0330405 -0.0615818 0.0492294 0.0392372 0.0100676 -0.0268241 -0.00951285 0.0255435 0.0346001 -0.00249784 0.0571493 -0.0329492 0.0424031 0.0740561 0.013807 0.0339216 -0.0483212 0.0955352 0.0711483 -0.0925469 0.0205722 -0.0196275 0.0190509 0.0473387 0.00454545 0.0293889 -0.0347228 0.044293 -0.0568342 -0.0037555 -0.0134384 -0.0391462 -0.042568 -0.0111569 0.0404282 -0.0293411 0.0154521 -0.0595378 -0.0198399 0.0384575 -0.0619486 0.0236692 -0.021726 -0.0746577 0.062514 0.0386419 -0.0323221 -0.0705639 -0.0252815 0.0636895 0.0429952 -0.0237263 -0.00702411 0.090618 0.107597 0.0315408 0.0515254 0.0433353 -0.000683183 0.0670022 0.0903294 0.0383396 0.059362 0.034649 0.0360358 0.00998265 0.0133833 -0.0310703 -0.0215982 -0.074448 -0.0215799 -0.0922268 -0.0337033 -0.0111074 -0.0504964 0.0250567 0.0242652 -0.0657451 -0.000999314 0.0075543 -0.0720962 0.0126006 0.0863036 0.0306419 -0.0339116 0.0751532 0.0386935 -0.0102632 0.0408938 -0.00976883 0.0110507 -0.0183664 -0.021871 -0.0252946 0.0295132 0.0587713 0.00693396 -0.0229086 -0.0244813 -0.0978376 -0.0556764 0.0437905 0.0828462 -0.0144001 0.0606634 -0.0869533 0.00552508 -0.095479 0.0333765 0.0681134 0.087901 0.0615204 -0.0175653 0.0689321 0.0900902 -0.0355096 0.0452765 -0.06795 0.0561829 -0.03015 -0.0729052 -0.0589135 0.0566629 -0.0770618 0.00159418 0.00923476 -0.10534 -0.0263209 0.0264121 0.0203347 0.0478103 0.0557964 0.0621621 -0.0973964 -0.123911 -0.105486 -0.0160709 0.0612808 -0.0448924 0.0184376 0.000357105 0.0233242 -0.0329971 0.0475361 -0.00739673 0.0144373 0.0522485 -0.0607834 0.0137868 -0.00218604 -0.0224282 -0.0732821 0.052915 0.00703363 -0.0876766 0.0317223 -0.0558892 0.0010255 0.104362 0.145795 -0.00413959 -0.0902824 0.00903482 -0.0555457 0.0122807 -0.0597782 0.069246 0.0735105 0.0675956 0.0966796 0.0228953 -0.0460205 0.0492028 -0.0466019 -0.0332502 0.0763476 0.00468839 -0.0578979 0.0607874 -0.0452742 0.0402475 -0.113035 -0.023376 -0.0203305 -0.00420732 0.0281033 0.0772604 0.111749 0.0403999 -0.0430608 0.0277983 0.0341067 0.0575212 -0.00263902 0.0676591 -0.00527109 0.0106901 0.0600901 0.0624358 0.00606699 0.0234469 -0.0412031 -0.00103209 -0.0780272 0.0701741 -0.0749156 -0.0293643 -0.00316833 -0.0290184 -0.029397 0.0563801 -0.0770693 -0.0167611 -0.0400856 -0.00750208 0.058135 -0.00984024 0.0139715 -0.0361013 0.0252178 -0.025212 -0.0195181 0.0535779 0.0192308 -8.41657e-05 0.0634756 -0.0576954 -0.00246255 0.0224813 0.0147503 -0.0375662 0.0725226 -0.0700034 0.0264594 -0.00707097 -0.0671509 0.0154595 -0.0492003 0.00328814 -0.0654575 -0.0555836 -0.114529 -0.00977535 -0.0384986 -0.0151702 0.0106357 -0.0479869 0.0352733 0.00418168 -0.00858313 -0.0074862 -0.00168648 0.0597721 0.0183622 -0.038237 -0.0615259 -0.0378874 0.0353136 -0.00470654 -0.0235136 -0.060676 0.0640075 0.0163251 0.0501704 -0.0383668 0.0145588 0.0295884 -0.106703 -0.0848732 -0.133505 -0.0948769 -0.0744188 -0.0684837 0.0159237 0.0639251 -0.00235298 0.0399477 0.0608198 -0.0452483 0.0639317 0.0013398 -0.0541881 0.0687734 -0.0285547 -0.0147222 0.0365164 -0.0493973 -0.030792 -0.0775473 0.00263757 -0.0814712 0.00953616 -0.0650025 -0.0393411 0.0174477 0.0424124 -0.107773 -0.078689 -0.0890423 0.0221446 0.0730766 0.0695802 0.0208084 0.0228089 -0.0153387 -0.0103565 -0.0262032 0.0997373 -0.0187923 0.0576294 0.0661532 -0.0213937 0.00234335 -0.0546148 -0.0124584 -0.0729618 -0.026293 0.00587004 0.0127215 -0.0381578 -0.000719983 -0.0139317 0.0428402 0.00733947 -0.0160295 -0.040027 0.0126048 0.0529833 -0.0392279 -0.0166881 0.0128962 0.0855879 0.0393243 0.0189457 0.124505 0.0868511 0.0625743 0.0275924 0.0217355 -0.0695305 -0.0765382 0.049137 -0.0378394 -0.0581757 -0.0828754 0.070166 0.076402 -0.0441327 -0.0634877 -0.0394845 0.0627182 -0.0692799 -0.0829838 0.0261171 0.0290641 0.0236337 -0.0428576 -0.00679313 0.0263502 0.114411 -0.0180591 0.0602042 0.0299225 -0.0148832 -0.00630322 0.0252496 0.043339 -0.0172744 -0.0366202 -0.054981 -0.0678371 -0.0552111 0.00318746 -0.0539578 -0.0290164 -0.0348373 -0.0270908 0.00823147 -0.0422004 0.0623531 -0.0713253 0.0381257 -0.0780536 0.0384737 -0.0169016 -0.0603002 -0.0547985 -0.0558791 0.0229769 -0.0300345 -0.0034351 -0.00899824 0.0568414 -0.0272795 -0.0382866 0.0316944 0.0286338 -0.0363913 0.0732048
