0.086395 -0.0534643 -0.0349657 0.0103038 -0.0171278 -0.0301188 0.0414762 0.0588867 -0.0277031 0.00673354 0.0207239 0.0757467 0.0120839 0.0609667 -0.0823229 0.0556431 0.0219297 -0.0756539 0.0620598 -0.0744358 0.0521541 -0.0822749 0.00849761 -0.0255338 0.0344732 0.0616158 -0.0156011 -0.0723876 -0.0746955 -0.0622778 0.0476603 0.0115638 0.0569008 -0.0520495 0.0838222 0.0323224 0.0369588 -0.038318 -0.0660674 0.0750414 0.0296469 -0.0662842 -0.0834817 0.0210849 -0.041695 0.0452762 0.0294916 0.0463217 0.0172045 -0.0148588 -0.0168589 0.0492954 0.0619393 -0.0443249 0.0605839 -0.0144201 -0.0399203 0.0696723 -0.00206118 0.0802515 0.0748749 -0.0610487 0.0574491 -0.0532466 -0.0168689 0.020066 -0.0590837 -0.00603534 0.00447727 0.0493661 0.0627757 -0.03161 -0.0118305 0.0733272 -0.0662154 0.0574444 0.0146802 -0.0514534 -0.0665854 -0.00557495 -0.0223973 -0.0465399 -0.00647763 -0.0304174 -0.0815386 0.0492338 0.0398845 -0.0349341 0.0220652 -0.0776729 0.0470472 0.0381102 0.0629186 -0.0177634 0.0615127 -0.0496209 0.0367031 0.0682768 0.00995025 -0.0147861 -0.0605786 0.0208257 0.0136082 0.0715156 -0.0819059 0.0510724 0.0759669 0.0497312 0.00994287 -0.0069135 0.0623243 -0.0344814 -0.0793136 -0.0828512 0.0505465 0.0837787 -0.0167875 -0.0633392 -0.0793694 0.0178429 0.0673747 -0.0528311 0.0221652 -0.0296716 0.0380815 0.0604708 -0.0340679 -0.0449326 0.0110882 0.0655671 0.0317104 -0.012421 -0.0885334 0.0726616 0.0122565 0.0497687 0.069635 -0.0593285 -0.00455143 -0.0133997 -0.018753 0.025252 -0.076044 -0.0706726 -0.0183195 -0.0433026 0.0290584 0.00401334 -0.018114 -0.0438769 0.0716186 0.0019587 -0.00434083 -0.0423904 0.0822458 0.0581826 -0.0150514 0.0185339 -0.0725471 0.0429007 -0.0153956 -0.0426224 0.0377459 -0.0840302 -0.0526108 -0.0670612 -0.0557359 0.0827711 0.0596963 -0.0277397 -0.0687118 -0.01394 -0.025748 0.0633666 -0.0209531 0.0166922 -0.00546094 0.038634 0.0501833 0.0763469 -0.0326019 0.0810023 -0.0766802 0.0621075 0.0136854 -0.0057681 0.0655857 0.0679162 0.0192614 -0.0865109 0.000168395 -0.0222503 0.0401238 -0.0300399 0.0295203 -0.00706513 -0.039233 -0.00578543 0.0755118 0.0807259 0.0264983 -0.0122401 -0.0196126 -0.00229468 -0.0602151 -0.00141806 -0.0572227 0.0914907 0.0367723 -0.0557876 0.0549923 0.0809661 0.00446362 -0.050162 0.0215189 0.0360422 0.00734198 -0.0246529 0.077582 0.0627867 -0.0533947 0.0355682 -0.0524449 -0.08001 -0.0294642 0.0182212 0.0677336 0.0272407 0.0834328 -0.0127335 0.069701 -0.00474018 -0.00310566 -0.0696611 0.0347118 -0.0137549 0.0766712 -0.0083071 0.0777662 0.0423597 0.0624375 -0.0396178 0.0429482 -0.0230808 -0.061738 -0.0278069 0.0231851 0.0563572 -0.0471273 0.0597957 0.06292 -0.0280078 -0.0153262 0.00901324 0.0562714 0.0299041 -0.0520975 0.0100241 0.031119 -7.51275e-05 0.0322541 -0.0439645 0.0746104 -0.0498286 -0.0748227 0.041617 -0.0698456 0.00863876 0.00186362 -0.0612879 -0.0269854 0.0593775 -0.0260821 -0.0602371 -0.0438794 -0.0550707 0.0820296 0.0247274 0.0217439 0.0520427 -0.0753683 0.0236628 -0.0598407 -0.0655307 0.0393716 -0.053191 -0.00325979 0.0226495 0.0595273 -0.0707101 -0.0526032 -0.0408011 0.019392 0.0430839 -0.0781151 0.0676599 0.0898139 0.0476857 -0.0380779 0.0318204 0.0227501 0.0598945 0.0120692 0.0320119 -0.0623121 -0.0511492 -0.0743048 0.0166618 0.0631414 0.00350161 -0.0631018 -0.0784757 0.00638955 -0.00795912 0.0715623 -0.0627519 0.00203199 -0.0456903 0.0103266 0.0469264 0.0231878 -0.0301811 0.0463398 -0.0556249 -0.0403529 0.0817457 -0.0204438 0.0362288 0.0653173 0.0127525 -0.0608176 -0.0588257 -0.0231762 -0.059449 -0.062826 0.0418383 -0.0198436 -0.0506537 -0.0787658 0.0669799 0.0753216 -0.0153616 0.0844286 -0.0209488 -0.00926539 0.0346704 -0.00580414 0.028235 0.0745817 0.0340538 0.0719343 0.0503948 0.0129933 -0.0597057 -0.0619844 0.0762618 0.0488992 -0.0438869 -0.0722916 -0.0740293 0.0752233 0.0123177 0.01492 0.0176787 0.0594628 0.00143539 -0.0661156 0.0278871 -0.0607267 -0.0154348 0.0856498 -0.0137907 -0.0485981 0.0177903 0.0538026 0.0645128 0.00419791 -0.0417686 0.0189116 -0.0545567 0.069512 -0.0376852 0.0514975 -0.0353252 -0.0574789 0.0145576 -0.0789314 0.0197355 0.0495563 0.00981553 0.0716948 -0.000418748 0.061389 0.0161466 -0.0273629 0.00743334 -0.0415929 -0.0310658 0.00207806 0.0515481 0.0228757 0.0375197 -0.0391636 -0.0132653 -0.0205497 -0.00950736 0.0713472 0.0498559 0.0696286 -0.0160737 0.049047 0.0281506 -0.0729286 -0.0805074 -0.0781365 0.0847543 0.00870181 -0.00415489 0.0284413 -0.0527811 0.0436806 -0.0220104 -0.0667038 -0.0200083 -0.00458526 0.0195647 -0.0840373 0.0683846 -0.0836649 0.0387771 -0.0598327 0.00756237 -0.0723163 0.0424294 -0.0154506 -0.0355701 0.0383722 0.0240309 0.0747911 0.0685738 -0.0154461 0.0790457 0.076918 -0.0131511 -0.0594771 0.0632181 0.00865828 -0.0421736 -0.0187608 -0.0623839 0.0222377 -0.0266222 0.0332054 -0.0688442 -0.0242957 0.0560319 0.0620398 0.0520202 -0.0628971 0.00729875 -0.0414599 0.0687589 -0.0239186 0.0574415 0.0188727 0.06327 0.0742852 -0.0376025 0.0462282 -0.0551431 0.0307437 -0.0160721 -0.0244855 -0.058144 -0.0396656 0.0237718 0.00186718 -0.0574763 -0.0583984 0.0430877 0.0372713 0.0297477 -0.0365675 0.0623033 0.0460494 0.0818066 0.0303557 0.0374153 0.0571168 -0.0359457 0.0636131 0.0100579 -0.0820862 -0.0607601 -0.0596252 0.0738166 0.0502939 -0.0745846 0.0543934 -0.0539323 -0.0171139 0.074768 -0.0668583 0.0706206 -0.0654213 -0.075875 -0.0741802 -0.037201 0.0123237 -0.0223401 -0.035194 0.00996725 -0.0797594 -0.0198386 -0.0646263 0.0517166 -0.0121818 0.0481894 8.93633e-05 0.0685397 -0.031991 -0.0640939 -0.0450364 -0.0436023 0.00523215 -0.0211321 -0.0693524 -0.0709408 -0.0255969 0.0672111 -0.0449291 -0.00791171 0.0802711 0.00995295 0.0560985 0.0261974 0.00422151 -0.0501877 0.0126315 -0.0638411 0.0716931 -0.0716563 -0.00458196 -0.0806079 -0.0779202 0.0758099 0.0538852 -0.0470142 -0.071851 0.0235171 -0.00181478 0.0268737 -0.0516774 0.0779009 0.0256459 -0.0262344 -0.0191927 0.0260991 -0.0335758 -0.0289089 0.0344224 -0.0250984 0.0231206 0.0596241 -0.0150341 -0.0286155 -0.0640922 -0.0568413 0.0360755 -0.066242 0.0127646 -0.041065 -0.0886238 0.0703819 0.0291477 -0.0646575 0.0343746 0.0775014 0.0707975 -0.0235567 -0.0361529 0.0366726 0.00310671 -0.0115035 -0.0699582 0.0281326 0.0579017 0.00884837 0.0512272 -0.0377751 -0.0220978 0.0744811 -0.00170422 0.0580249 0.0122503 0.0201532 -0.0809344 -0.072885 0.0348748 -0.0639735 0.074358 0.0554934 0.0125978 -0.0645745 -0.0122209 -0.000326096 0.0442061 0.0510348 -0.00968328 -0.0468904 -0.0187106 -0.0373981 0.039282 0.0292115 -0.0140881 0.0738339 0.0292555 -0.0628778 -0.0188468 0.048824 0.0265901 0.0148712 -0.0666041 -0.0663397 0.0516686 -0.0349585 0.0797363 0.0822225 0.00754687 0.0597243 -0.0352144 -0.0336062 0.000712173 0.0228088 0.00511217 0.0562781 -0.0329413 0.0620522 0.0208069 -0.0825464 -0.0637996 -0.0108332 -0.0193 -0.001264 -0.0476817 -0.0780222 -0.0504709 0.0375448 0.012071 0.00917111 -0.0199623 0.0589975 0.0396021 -0.0352229 -0.0747006 -0.0304761 -0.0251109 0.0279464 -0.0704096 0.0779242 0.0554283 0.0793651 0.00747715 -0.0792817 -0.0389 -0.0335901 -0.0607565 -0.0648767 0.00509603 -0.0252512 -0.0239147 0.037393 -0.0100976 0.050693 -0.0824343 -0.0614601 -0.00116678 0.0848903 -0.0194955 -0.0367356 -0.0598857 0.0369768 0.0185634 0.0474674 0.0542197 -0.0515273 -0.0258564 0.0639834 0.0215545 0.0409876 0.0462196 0.0384256 -0.000363634 0.0174622 -0.00787658 0.0457378 0.0359289 0.0466602 -0.0361497 0.0555316 0.0320492 -0.0842027 0.0699651 0.0685466 0.0805822 0.0783253 -0.034158 0.0700669 0.0535217 -0.0183794 -0.0532318 -0.0154728 -0.0814206 -0.00396401 -0.0776265 -0.028966 0.0163529 -0.0307611 0.0686712 0.0296642 0.0859077 -0.0151017 -0.0388482 0.056538 -0.0355693 -0.00509184 0.0123407 0.0333465 -0.0286674 -0.048076 0.0785821 0.0526575 0.0664759 0.0778974 -0.0432658 -0.0663545 -0.0210094 0.0722302 -0.00211593 -0.0640715 0.0456161 0.0141549 0.0572488 0.0781379 -0.0824883 0.0797208 0.0286298 0.0789564 0.0622184 -0.0315887 -0.0358238 -0.0569561 0.0836045 -0.0587816 0.0581245 0.0855225 -0.0086617 -0.066244 0.037894 -0.0390125 0.0346626 -0.0477843 -0.057441 0.0539286 -0.0293163 -0.0432147 -0.0735022 -0.0548222 0.0135723 0.0381792 0.0420868 -0.052435 -0.0310927 -0.0637488 0.0302871 0.0454981 0.0876879 0.0816317 -0.00423493 0.0144556 -0.0828928 -0.0229835 -0.00197047 0.055626
-0.0740985 0.0032538 0.0311152 -0.0777068 0.074559 0.0483147 0.0857983 0.0132743 -0.0681859 0.00348015 -0.0847609 -0.00160649 -0.0387942 0.00481348 0.0505066 -0.024315 0.0429547 -0.0805424 0.0545259 0.0610628 -0.0778965 0.0850278 0.0312089 -0.00365234 0.00707479 0.0699295 0.0625337 -0.0561237 -0.078167 -0.0273959 0.0263882 0.0324691 -0.0848694 0.0318144 -0.00220588 0.0448535 -0.0179407 0.0304809 -0.0220454 -0.0501265 -0.0150031 0.0803232 -0.0657156 0.057649 0.0732951 -0.00643413 0.0578255 -0.0730008 0.0796311 -0.0753765 -0.000790763 0.060979 -0.00795036 -0.0194722 -0.0486421 0.0750241 0.0815686 0.0792498 0.0568613 -0.0205552 0.039378 0.0179445 -0.0250727 0.0627406 -0.0271697 -0.0804068 0.0704124 -0.074104 -0.0717781 0.000121334 0.0273689 0.0335767 0.0234293 0.0672734 -0.0796023 -0.00444476 -0.0212792 -0.0255284 0.085345 0.0656629 -0.0552964 -0.0325914 0.0289173 0.0476706 0.0750897 -0.0134128 0.0702333 0.0719451 0.0339387 -0.0627939 0.0527026 0.00478 -0.0811452 0.0431862 -0.0171112 0.0463581 0.0333289 0.0716936 0.0282791 -0.0352388 0.00228983 0.0761773 -0.0701085 -0.0134999 -0.0411774 0.0711063 -0.0773913 -0.0162237 -0.0445296 -0.0439987 0.0265987 -0.0360311 0.0040763 -0.0446955 0.00457241 0.059765 0.0649933 -0.010766 0.0315082 -0.0301294 0.0567054 -0.0502372 0.0627092 -0.0751269 -0.0588466 0.0575889 0.0405114 0.0197523 0.060322 -0.072229 -0.0353954 -0.0122245 0.085704 0.0843729 0.0607225 0.0475755 -0.0710712 -0.0235086 -0.0703664 -0.0372709 0.0281285 -0.0690218 0.0517296 -0.0300261 0.0870209 0.055421 -0.0638491 -0.0040627 0.0462935 -0.0763137 -0.0879915 0.0420663 0.0499628 -0.0384556 -0.0498049 0.0694204 0.0604057 0.0687281 -0.0579083 -0.011391 -0.0311359 -0.0819487 -0.0405471 0.0564373 -0.0635944 0.0484364 0.0619194 -0.0368652 0.0798528 -0.0439502 0.0163911 0.0368353 0.0220586 0.015093 -0.0632681 -0.0277219 -0.0207741 -0.076856 -0.0707042 -0.00313889 -0.00759608 -0.00458694 0.0786696 0.0144094 0.0477472 -0.018084 0.0382665 -0.0258584 -0.0844796 0.0367841 -0.0717123 0.0071176 0.0641449 0.025036 0.0749117 -0.0376651 -0.0138614 -0.058063 -0.0262522 0.063569 -0.00276279 0.000115871 -0.0789753 0.0596058 -0.0301725 -0.0805588 0.0197481 0.0207448 0.0512259 -0.0714221 0.0229367 -0.0568872 -0.0511396 0.0214898 -0.00310759 -0.078845 -0.0836235 0.0543514 0.00627281 -0.0442209 0.0141968 -0.0450243 -0.00374287 0.0447155 0.0781408 0.00258481 -0.0681706 -0.00682735 0.00667918 0.0104565 -0.0569346 -0.028231 -0.0183458 0.017423 0.0524817 0.0304559 -0.0080623 -0.067555 -0.0298338 -0.027081 -0.0112074 -0.0122012 0.0421728 -0.0716406 -0.0451292 -0.0153079 -0.0668958 -0.0114891 0.00662 0.0717329 0.021959 -0.0547189 -0.0488782 -0.0417193 0.00876869 0.0031227 0.0523002 0.0423108 0.0857519 -0.0444881 -0.0429143 0.0359451 -0.0956448 -0.0464941 -0.0369647 0.0519983 0.0258566 0.0912773 0.0683019 0.0147969 0.0840094 -0.0471595 -0.00565916 -0.0189892 0.00686735 0.0657471 0.0576009 0.0285219 -0.00603881 0.00370021 -0.0591327 0.0494045 -0.0306065 -0.0748868 -0.0261634 0.0370622 0.0609158 0.00371047 0.0229041 -0.00863567 -0.0292713 0.0309531 0.00628498 0.0272066 -0.0110239 0.0520482 -0.0378838 0.0621627 -0.0430029 -0.0208727 0.0237694 -0.0632684 -0.00988781 0.031837 -0.0570105 -0.0360538 -0.010754 0.0288999 -0.0337447 0.0761779 -0.0588569 0.00528609 -0.0490041 -0.00827553 0.0565439 0.0328826 -0.0207449 0.035613 -0.0459232 0.0018103 -0.0119766 -0.0454944 0.0630337 -0.0209645 -0.0705143 0.0303125 -0.0555011 0.00169104 -0.0626577 -0.0289481 -0.0190773 -0.0328009 -0.0837786 0.0596962 -0.0216369 0.0627225 -0.0409011 -0.0636135 -0.0803725 -0.0440958 -0.0201336 0.00614154 0.0272333 -0.0797814 -0.00904423 0.0268262 -0.00321388 0.065205 0.0277994 0.0228289 0.027412 -0.0676066 0.0130258 -0.0734063 -0.044209 -0.0209619 -0.0512182 -0.0808592 0.0227788 0.0637895 0.0859959 0.0565566 -0.0701315 0.0861724 -0.0490499 -0.0769917 -0.0459738 -0.0699727 0.0253649 0.00409722 0.00304766 0.0552433 -0.03455 0.00579066 -0.0260247 -0.0805787 -0.0872675 0.076978 -0.0648143 -0.00197373 0.0112974 -0.0227066 0.0576712 0.0201294 -0.0689507 0.0639075 0.00404599 0.0805085 0.0785704 0.0287048 0.00572929 0.0845984 -0.0786697 0.0671446 0.0114732 0.0141964 -0.0106701 0.0432865 -0.0416597 0.0804905 -0.0658266 -0.0656732 0.0219166 0.00102023 0.065157 0.0148842 -0.049126 -0.0273254 -0.00167777 -0.045628 0.0480618 -0.0344896 -0.068236 0.0850714 0.0412185 -0.0222479 0.0208488 0.0170506 -0.0667278 0.0660305 -0.0318484 0.0803559 0.0569767 -0.0406713 -0.0239654 -0.0606341 -0.047384 0.0245479 0.0134599 -0.0270588 0.0711195 -0.03874 -0.0305928 -0.0062948 0.0363488 0.0323985 -0.0455314 0.0459068 -0.0897104 0.0447738 -0.0792871 0.0584741 0.0319386 -0.00570524 -0.0339741 -0.075789 0.0746201 -0.0670471 -0.0621052 0.0218062 0.0789111 -0.046684 -0.0301311 -0.0689374 -0.0403542 -0.0755463 -0.0460573 0.0411519 -0.0433709 -0.0623135 0.0488983 -0.0430778 0.0831143 0.0175578 -0.072143 0.0576882 0.0460727 -0.0156255 0.0738898 -0.00151635 0.0472123 0.0416258 0.0310693 0.021406 -0.0224717 0.0276552 0.0617109 -0.0148386 -0.0780708 0.05341 0.0156425 0.00570973 0.0323058 0.0200145 -0.081425 0.0410582 -0.071548 -0.0533023 0.0153131 -0.0399584 0.0393125 -0.0103553 -0.0620844 0.0293714 -0.0537338 -0.0198344 0.0178916 -0.0432573 0.0602616 -0.0393565 -0.0639335 -0.0466477 0.0553033 0.0409694 0.0508472 -0.0727839 -0.042121 0.0721453 -0.0584777 0.0567831 0.0326598 -0.0497909 0.0146371 -0.00516558 -0.0329851 -0.00774054 0.058195 -0.00323855 0.00922277 -0.00267334 -0.0258722 0.0696164 0.0449136 0.0758363 -0.0568608 -0.0504001 -0.022998 -0.0327899 -0.078794 0.0591885 0.0450375 -0.053934 0.0531428 0.0767511 -0.0716858 0.0139587 -0.00756607 0.0401195 -0.0715605 -0.0681172 0.0433956 -0.0225559 -0.0533372 -0.0418777 -0.0338216 0.0598463 0.101882 0.0669305 -0.023523 -0.056057 0.00878113 -0.064726 0.0894316 0.0644974 -0.0349159 -0.0832875 -0.0495003 -0.0593999 -0.00733355 -0.0304683 -0.0224805 0.0304045 -0.038632 0.0736579 0.0141032 0.0742406 -0.0662791 0.0166584 0.000323933 -0.00130559 -0.041642 -0.0724925 0.0427062 0.0434774 -0.0227311 -0.023217 -0.0304164 -0.035741 0.0654726 0.0797647 -0.0844776 -0.0577713 0.0130923 0.0698944 0.0788134 0.0168549 0.0248338 0.0476839 -0.00919388 0.0439198 -0.0175451 -0.0489562 -0.00958464 0.0266003 0.0532023 -0.028761 0.062202 0.0762488 0.0211048 -0.0576395 0.0470822 0.00409019 0.0220324 0.0212304 -0.0374073 -0.039556 0.0552293 0.00625688 0.0312456 -0.0298533 0.0539221 -0.030452 0.00907538 -0.068223 -0.0630592 0.0337903 0.0295767 -0.0253644 0.0149926 0.0578128 0.0735853 0.0336837 -0.0702735 -0.00959904 -0.0198984 0.0680971 -0.0649509 -0.0466333 -0.0745005 -0.0427314 -0.0474827 0.0216565 0.0781273 0.0724389 -0.0030148 -0.0402975 -0.0251441 0.0817754 -0.0810513 0.0292871 0.0347068 -0.0346362 -0.0682093 -0.0602581 0.0470068 -0.0261382 0.0735648 -0.0332856 -0.0113844 -0.0381067 -0.0619913 -0.0114112 -0.0826564 0.00970729 0.00595402 -0.0577386 -0.0845867 -0.000831549 -0.0738753 -0.0368527 0.0759125 0.0025877 -0.0478369 -0.0734345 0.0740952 0.0113922 -0.0335582 -0.066726 -0.0626543 -0.0181788 -0.0520809 -0.058846 0.0368154 0.0183954 0.0490646 0.051705 0.0858237 0.0823873 0.0357737 0.0864692 0.0535121 0.0590409 -0.0635837 -0.0872842 -0.0716828 -0.0131993 0.0323154 0.0289313 0.0761021 0.0707608 -0.0635624 -0.076268 -0.0819688 0.0715037 0.0686392 -0.0258739 -0.0274768 -0.0549593 0.0536322 -0.0786418 0.0558203 0.0386685 0.051144 0.0692066 -0.0576633 -0.0132736 0.0434639 -0.0252133 0.00310398 -0.0205561 -0.0424918 0.0315669 0.0610496 -0.0229384 -0.0337725 0.0791219 -0.0194583 0.0369117 0.0248687 0.0377154 0.01153 -0.0555117 0.0584225 -0.000323755 0.0598465 -0.0641497 0.0614374 0.000451699 0.00288846 -0.0420223 -0.0769599 -0.0555534 0.0344033 -0.0224774 -0.0394847 0.0777628 0.042322 -0.0714586 -0.0136785 0.0632677 0.0580879 -0.0696766 0.0148873 0.0788337 -0.0209951 0.0472825 -0.0759913 0.0853681 0.0597203 -0.0635736 0.0413865 -0.0717554 0.064141 0.0347365 -0.0025478 -0.00500193 0.0339264 0.00933257 0.0270781 0.0297033 -0.0549792 -0.0524837 -0.0179828 -0.0186389 -0.010934 0.0120882 -0.0166732 0.000698805 -0.0820074 -0.0350306 0.0779458 -0.0357812 -0.0137368 -0.0659574 0.0473561 0.016001 -0.0535374 -0.0542723 0.0332981 0.0309998 -0.0477507 -0.046472 -0.0612863 -0.00710011
-0.00410116 -0.0833709 0.00350677 0.0852479 -0.0603086 -0.0160857 0.0539368 -0.0605049 -0.0812474 -0.0317375 -0.0635286 -0.0433109 -0.0687842 0.0453692 0.0695212 0.0440808 -0.0167735 -0.00470816 -0.0220188 0.0590953 -0.014044 0.0530988 0.0241942 -0.0375127 -0.0602255 0.0679478 0.00770493 -0.017002 0.0534381 -0.0547019 0.0042843 -0.072387 0.0399618 -0.0305791 -0.019108 -0.0821058 0.0239434 -0.0024441 -0.0020423 -0.0737999 0.00641006 0.0768629 0.065021 -0.0696504 -0.0219317 0.0270714 -0.0227697 0.0830008 -0.0454901 -0.0385121 -0.0559707 -0.0232472 -0.0453632 -0.0369848 -0.0757107 -0.0246239 -0.0779908 0.054553 -0.0240227 0.0397911 -0.0107036 0.0418496 0.0312355 -0.0232988 -0.0156462 -0.0151221 0.0480213 -0.00803876 0.0112659 -0.049523 -0.0281128 0.0335678 0.0363423 -0.0524856 -0.0454107 0.0288282 0.0634094 0.0385592 -0.0754411 -0.000940923 0.0340055 0.0248092 0.0155961 -0.0228284 0.0231547 0.0537933 0.0168171 -0.0418765 0.0628616 0.0495301 0.0326946 0.0380708 -0.0173426 -0.0192572 -0.012346 -0.00253004 0.0600886 -0.05777 -0.000732749 0.000523009 0.068009 -0.082607 0.0297944 0.00634736 -0.0506712 0.0300671 0.0213395 -0.0331821 0.0560471 -0.00743822 0.0555578 -0.0070845 -0.0617329 0.0032742 0.0475816 -0.0560187 0.00718943 0.0070234 -0.00988275 -0.0724166 -0.0603914 -0.0736869 0.0344368 0.0881689 -0.0309311 -0.0546052 -0.0616453 0.0644446 -0.0746062 -0.0876618 0.0340338 0.0840611 0.0258143 -0.0629119 0.0274485 -0.0716045 -0.0504894 0.0401593 -0.00384529 -0.010986 0.0360884 -0.0622529 0.00883513 -0.0590287 0.000193592 -0.0310318 -0.0522514 -0.0275548 -0.00337935 0.06349 -0.0715228 -0.0226731 -0.0341553 0.0117383 -0.00127869 -0.0733811 0.0456689 -0.0568897 -0.0140478 0.0454497 -0.0450717 0.0601345 0.031754 -0.049149 -0.0690952 -0.0133824 0.00961313 -0.0342141 0.00410627 -0.00988025 -0.0245383 0.0140138 -0.0652358 0.0354963 0.0628866 -0.0435845 0.0517858 0.0113329 -0.0557349 0.0139541 0.0125119 -0.0186092 -0.0691674 0.0109229 -0.0256031 0.053261 0.0631879 0.0435211 0.00920664 0.0306093 0.0178567 0.0433204 -0.0779003 0.0809799 0.0710206 -0.0309862 -0.00125119 -0.0808315 0.0847135 0.0264631 -0.0659061 0.0747548 -0.0774473 -0.028618 -0.0644948 -0.0788322 -0.0292493 0.0436909 -0.0379859 0.0021529 0.0721109 0.052934 0.0720081 0.0348574 0.0304568 -0.00121978 0.058107 0.00393588 -0.0667512 0.00412397 0.0414002 -0.0652095 -0.0183934 0.00516462 0.0282637 0.0639615 0.0434482 0.0538328 0.0580804 0.072538 0.0393432 0.0735279 0.0546562 0.036929 -0.0054384 0.00908156 0.00154669 0.0302043 -0.0617739 0.0671372 -0.0489916 0.0615558 -0.0530292 -0.0325935 -0.0674002 0.0383319 -0.0360813 -0.0776312 -0.0363018 -0.0833514 0.0579308 0.0416415 0.00679898 0.034602 -0.064388 -0.0451486 -0.00388476 0.0143671 -0.0227312 0.0132431 -0.0278262 0.0712682 -0.0535979 -0.0708787 0.0476363 0.0392362 0.0812729 0.0050885 -0.0218396 -0.0291017 0.0386761 0.0439443 -0.068587 -0.0350357 0.0300063 0.0203996 0.0785338 -0.0566395 -0.0457576 -0.00387168 0.0412479 0.0598494 0.0646876 0.0387032 0.00735558 -0.0660699 0.0153403 0.0324768 0.0151747 -0.0381912 -0.0190279 -0.0222223 0.0433734 0.0340278 -0.0732243 -0.0392853 0.0550964 -0.0737044 -0.022691 -0.0601076 -0.051205 -0.0246122 0.0399196 -0.0547799 0.0295667 0.0677496 0.0146105 0.0579678 -0.0573804 0.0274702 0.00135675 0.0680619 -0.0359462 -0.0550732 -0.0527708 -0.00827683 0.052761 0.0493774 -0.0513999 -0.0667303 -0.00356809 -0.0493507 0.0780704 0.0747001 -0.0405993 0.0723017 -0.0301929 0.0121421 -0.0513978 -0.0345806 0.0108625 -0.0365765 0.038558 -0.0461951 -0.063001 -0.0148383 0.0753093 0.0339645 -0.0120485 -0.0306071 0.00724138 -0.0704685 0.0364208 0.041172 -0.011183 -0.0120249 0.00629647 0.067212 0.0279699 -0.0744274 -0.0571646 -0.0427384 -0.0486372 0.0549603 0.0689155 -0.0516292 0.0244665 0.0646903 0.0380489 0.0613635 -0.0692647 0.0053377 -0.026643 0.0851834 -0.0699925 0.0307221 -0.0740059 0.0550666 0.0774941 0.0735221 -0.0318901 0.00433171 0.0507698 -0.0332663 0.0077713 0.0729426 0.0707817 0.0155342 0.0484201 -0.0804182 -0.0167643 0.039513 0.0128886 -0.0498481 -0.0766266 0.0537087 0.0558398 -0.0195911 -0.0490951 0.0466319 -0.0806904 0.0306809 0.00610587 -0.022824 0.0488774 -0.0112152 -0.057638 0.0373093 0.0253064 -0.0805919 -0.0755394 -0.07556 -0.0498673 -0.014099 -0.0546454 0.00915841 -0.0207521 -0.00280763 0.06604 -0.0427404 0.063535 0.0685865 -0.000271853 0.0769511 -0.0644467 0.0603553 0.0167956 0.0253189 -0.0712732 0.00790944 -0.0247639 -0.0279695 -0.0816725 0.0506208 0.00628098 -0.0153757 0.0656086 -0.0564173 -0.0617182 0.0454657 -0.079388 0.0575213 0.00249895 0.0579712 -0.0367363 0.0478372 -0.0180417 0.0194338 -0.0017949 -0.0239906 -0.0411721 -0.0757571 -0.0624474 0.0535291 -0.0495005 -0.028811 -0.0469908 -0.071653 0.013713 -0.043009 -0.0785741 -0.043377 0.0808299 -0.0661333 0.051574 0.0751788 -0.0285109 0.0541678 0.072143 0.00617833 0.0812605 -0.0479545 -0.0617223 -0.0195739 0.0937404 -0.0138144 0.0463396 -0.0869095 0.02393 0.0177866 0.0642906 0.0686382 -0.0553912 -0.00377258 0.0594131 -0.069167 -0.0762614 -0.0134268 0.0660362 0.0399609 -0.040828 0.012631 0.00761395 -0.049654 -0.088991 -0.0718218 0.0807178 0.0338792 0.0699448 0.0707044 -0.0213875 0.0250488 0.040388 -0.00182476 -0.0025861 -0.0687834 -0.0265222 0.0259056 0.0306573 0.0231006 -0.018218 -0.0779063 -0.010203 -0.00371614 -0.022132 -0.0438875 0.0485129 0.0077944 0.0331124 -0.0743976 0.0322695 0.0591443 0.0480081 -0.00558251 -0.0179207 0.00523094 -0.0737597 0.037932 0.0699912 0.069933 0.0209658 0.0591409 -0.0280985 0.0473616 -0.0269439 -0.0690221 -0.0329142 -0.0118564 0.0681933 0.0180451 0.0762515 -0.0553546 0.0735416 -0.0719216 -0.0779037 -0.00404593 0.0454112 0.00161917 0.0465652 -0.0353412 0.0313303 -0.0250757 0.0548432 0.0326123 -0.0246245 0.0792134 -0.0358462 -0.0736158 -0.0868446 0.0413513 0.0546767 -0.0278475 0.050692 0.0752537 -0.0630306 -0.0103689 -0.0701903 -0.0575318 -0.0744418 -0.0530957 -0.0295179 0.0323742 -0.0648476 -0.0167024 0.0688447 -0.0484198 -0.0876259 -0.083274 -0.00334475 0.0463379 -0.036204 -0.00779168 -0.0529428 0.0680399 0.0388404 0.00833638 0.0460318 -0.0833492 -0.0302349 -0.0860829 -0.0459817 0.0594386 0.0615444 -0.0288323 0.0494009 -0.0365626 0.0630162 -0.032032 -0.0260391 0.0762673 0.0361403 0.0821501 0.0212361 0.00542805 -0.0150274 -0.0372263 -0.0701292 -0.0489558 -0.000540313 0.0157326 0.00983619 0.00122871 0.0787332 -0.0460536 -0.0340349 0.0308879 -0.0705944 -0.0274008 -0.0211892 0.017213 0.0145725 0.0255528 -0.0181369 0.0114813 -0.00483684 0.0176379 -0.0695107 -0.0504604 0.0744786 0.0220008 -0.0301929 0.00335657 0.0354101 -0.0424368 -0.0207265 0.0362853 0.056179 -0.0798542 0.040829 -0.0834123 0.0498063 -0.000929978 -0.0227964 -0.0689606 -0.0643731 0.0224041 0.00804037 0.0286876 -0.0658905 -0.0587538 -0.0544017 0.0136405 0.086369 0.0275919 0.054254 0.019798 -0.0339151 -0.0154517 -0.0239252 0.0231019 0.0048015 0.0600207 -0.0656705 -0.00086617 -0.00589009 0.0527359 0.0413408 0.0292988 0.0805399 -0.000536894 0.0287974 -0.0803856 0.05848 0.0862978 0.0424416 -0.0430139 0.066557 -0.00468136 0.00999454 -0.0611784 0.010483 0.0435547 -0.0818945 -0.0108369 0.00729669 -0.0840844 -0.0506101 0.0473286 0.0535076 -0.051792 0.0391796 -0.0132213 0.0133565 0.014591 -0.0213229 -0.0748862 0.0343692 -0.02849 -0.0581679 0.0766321 -0.0131997 -0.0600655 0.0829381 -0.00709909 -0.0549328 -0.0122274 -0.0251161 -0.0603936 0.0675834 0.0635027 -0.0548097 -0.000725166 -0.0509238 0.0649531 -0.0741228 -0.0151595 -0.0073401 0.0746836 0.0831535 -0.00235668 -0.0483778 0.0739589 0.079526 -0.0544071 -0.00862921 0.0808955 0.0029443 0.0837458 0.0604034 0.00800327 0.0836425 -0.0206867 0.0736 -0.0581766 -0.0690377 -0.0352929 0.0587145 0.00806441 0.0158818 0.0777157 -0.0568324 -0.0607703 0.0627923 -0.0596429 0.0872004 0.0155743 -0.046705 -0.0449751 0.0701918 0.0543567 -0.043364 -0.0794869 0.058378 -0.00438812 -0.0128344 0.0781584 -0.0710999 -0.0141639 -0.041608 -0.0733403 -0.0771003 0.059123 -0.00968713 0.0414286 -0.0602492 0.0729983 -0.0526131 0.00609122 0.0321458 0.0530858 -0.0172095 0.0393661 0.00356393 0.0141321 0.0326639 0.0686694 0.0742483 -0.0808133 0.0591937 0.0234471 0.0552657 0.0833465 -0.021165 0.0718187 -0.00484515 0.025152 -0.0593199 -0.0321736 -0.0732489 0.0303049 -0.0431756 -0.0821245 0.0357821 -0.0824341
0.0122785 0.0100487 -0.0177558 0.0353175 -0.00605575 -0.0190865 -0.00948522 -0.0290852 -0.0398507 -0.000435841 -0.0609702 -0.0483872 -0.0443387 -0.0594719 0.0308588 0.00942165 0.0787675 0.016995 0.0553359 -0.0269887 -0.0682601 0.053968 -0.0154855 -0.0378561 2.55022e-05 -0.052481 -0.0789667 0.0219447 -0.00219928 -0.0359966 -0.0734182 -0.0660149 -0.0787891 0.0655087 -0.0676716 -0.0630461 -0.0464832 0.0088652 -0.000606085 0.0491493 -0.0119826 -0.0815238 -0.0553181 0.0508668 0.0632933 0.0661494 -0.0674656 -0.0777383 -0.0516052 0.0347744 0.0153451 0.0684644 0.0350106 -0.0519874 0.0415882 0.0782536 0.0645834 0.0518249 -0.0166207 -5.92249e-05 -0.00943097 -0.00993251 0.0680263 -0.0615345 -0.0538584 0.0362337 0.0640261 -0.074745 0.030714 -0.0048542 -0.0400834 0.016484 -0.0215186 -0.0706834 -0.0642947 0.0606297 -0.073592 -0.006456 0.0368185 -0.0697283 0.0639513 0.0755926 0.0529473 0.0599633 -0.0290671 -0.015248 0.0594052 0.00317532 -0.0359501 0.0595546 0.0554884 -0.0640188 0.0509464 -0.0582468 -0.0111043 0.0617968 0.0149191 -0.0366925 0.00661963 -0.00471651 -0.112294 -0.0548293 -0.0296914 0.0218588 -0.0158485 0.0789734 -0.0429331 0.0627836 -0.0265201 -0.0232403 -0.0306398 -0.00886967 -0.0130805 -0.0158434 0.0663794 -0.00517979 -0.0593256 0.0709024 0.0764692 -0.0368334 -0.0347469 0.0399746 0.0503106 -0.0505496 -0.0577441 0.0631611 -0.00586538 -0.11948 -0.0717597 0.0289762 0.0554694 0.000403037 -0.0481879 -0.0235444 0.0526168 0.0416975 -0.0130965 0.0457268 0.0293017 -0.0713314 0.0389201 0.0717934 -0.00461498 -0.0863253 0.0592928 0.0151761 -0.0661072 -0.0225639 -0.0697248 0.012775 0.00683194 0.0601478 0.0467224 -0.0294077 -0.0710725 -0.0560716 0.0324259 -0.0635926 -0.00909762 0.00945895 -0.0692766 0.0171565 0.0455939 -0.0274709 -0.0810083 0.0826326 0.0632372 0.029413 -0.0817149 0.00567502 -0.0356968 0.0435022 -0.0351393 0.0359707 0.0467681 0.0222895 0.0556664 0.053349 -0.0582918 -0.0168807 -0.00640713 0.0434927 -0.110693 -0.0720608 -0.0507721 0.0449994 0.0188933 0.0739863 -0.0328033 -0.0416551 0.0471863 -0.030288 -0.00990767 -0.0727871 0.0617357 -0.0251733 0.0313221 -0.0140331 -0.0238504 -0.0533748 -0.064118 -0.049615 -0.0024362 0.0244929 0.0218653 -0.0189597 0.0778544 0.00478075 0.0484006 -0.0413216 -0.00777172 -0.101355 -0.0189868 -0.0592168 -0.0695227 0.0846686 0.059965 -0.0186608 -0.00565522 0.0647436 -0.0135967 0.00823746 0.0720819 -0.0505799 -0.023546 0.0142289 -0.0646637 -0.0439626 0.0622598 -0.0571961 -0.0052617 0.0975897 -0.0432659 -0.0634749 -0.0788666 0.0452949 -0.0380066 -0.0244702 -0.029114 -0.00654963 -0.0731044 -0.0661779 0.0134154 -0.0343452 -0.0205043 -0.0689832 0.0709173 -0.080746 0.0301901 0.0215058 0.0703907 0.00658876 0.0533394 0.0184818 -0.0283344 0.0826525 0.0360188 -0.0395683 -0.0383617 0.0404005 0.0935529 -0.0348764 -0.0146573 -0.0479372 -0.0108951 0.0325973 -0.0327631 -0.0380554 -0.000252805 -0.0142098 0.0124263 0.0133034 0.0733564 0.0534221 0.0273728 0.0188589 -0.0232969 -0.026504 0.0731763 0.017241 0.0140379 -0.0476842 0.0608225 -0.0408012 -0.0859687 -0.0451903 -0.0702048 0.0733613 0.0316731 -0.0292263 -0.0502495 -0.0283787 0.0804243 0.070525 0.056462 -0.0472179 -0.027159 -0.00521619 0.0704899 -0.0313401 -0.0131608 0.0803017 0.0416102 -0.0071545 0.0578297 0.0143666 0.041761 -0.0900096 -0.0303583 -0.0672009 -0.0500862 -0.0539424 0.0442892 0.00443311 0.0759669 -0.0467773 -0.0402081 0.0791886 -0.0415792 -0.0344969 -0.0264076 -0.0022096 0.0393261 0.00869809 0.0937216 0.0498723 -0.0421161 -0.000930138 0.054867 0.0351113 -0.00016671 0.0349595 0.0764761 -0.0117102 0.0485884 0.0105264 0.0503909 0.0782532 -0.0433388 0.00812203 0.0718086 -0.0446105 -0.0607637 -0.00518244 0.0356677 0.05573 -0.0742215 0.0528213 0.00282147 0.0560748 0.00677507 0.0490296 0.0544772 -0.0380728 0.0645105 0.0750338 0.0105079 -0.0699633 0.0513031 -0.0684145 0.0427297 0.082609 0.0191897 0.0610328 -0.00584457 -0.088921 -0.0263485 0.0254341 0.0623604 0.0642953 -0.0637765 -0.0592794 0.0786062 -0.0342887 -0.0450296 -0.022325 0.0538578 0.0621357 -0.0303755 0.087965 -0.0102153 0.0601746 0.0568064 -0.064558 -0.0669105 -0.00506309 0.0322485 0.0515434 -0.0632107 0.0562501 0.0761403 0.0577861 0.0771707 0.0130437 -0.0321618 -0.0568009 0.00923522 0.0636653 0.0765797 -0.0173268 0.101778 -0.0415863 0.0249575 -0.00718931 -0.0708808 -0.0612402 -0.0318169 -0.0905676 -0.0119619 0.0805158 0.0295788 0.0779012 -0.0572807 -0.0726117 -0.0370234 -0.00532689 -0.0516299 -0.0779395 0.0207407 0.0592471 0.0756394 -0.022948 0.0116904 -0.000391023 -0.0735606 0.0589219 -0.0346547 0.0430079 0.0271175 0.0693996 -0.0487865 0.0100408 0.0222128 -0.0758875 0.0563025 0.041222 0.0443311 -0.0434329 -0.0223013 -0.0121905 0.0928997 0.0443508 0.0349724 -0.0862798 0.0183256 -0.0857892 0.000792682 -0.0457195 0.0662974 0.0310005 -0.0518102 0.0746943 -0.0794262 -0.0265704 0.00929583 -0.023662 0.0897237 -0.0166897 -0.0140453 0.00423234 -0.0212076 0.0804062 -0.0226 -0.0850966 -0.0800126 -0.087022 0.0849923 0.0810634 -0.0284638 -0.0112395 0.0206197 -0.0543082 -0.0863649 -0.0213841 0.00894757 -0.0855403 0.0366126 -0.0770718 -0.0258483 -0.0233363 -0.0516454 0.0179936 -0.0850158 -0.0673262 0.000894718 -0.0736671 -0.0887867 -0.0647385 0.0161489 0.000719119 -0.020857 -0.068816 0.0038539 -0.0253206 0.00458946 -0.0731489 -0.095527 0.00206298 0.00160784 -0.0390707 -0.0324718 0.0250647 0.0445309 0.0412827 -0.00639372 0.0274542 0.0469386 -0.0227718 0.00567202 0.0417723 0.0516375 -0.0205787 0.0071479 -0.0949556 -0.0374108 -0.0907432 -0.056185 -0.0551588 -0.0743574 -0.0107771 -0.095644 -0.0966775 -0.0367527 0.0104496 -0.0762572 0.0758347 0.0225704 -0.0176722 0.0508229 0.0647682 -0.0174094 -0.0779156 -0.0217608 0.0213886 0.0723798 -0.0410718 0.0501903 -0.0785638 -0.0968726 -0.0479227 -0.00213137 -0.126971 0.0477811 0.0104946 -0.043295 0.0656529 -0.0548245 -0.0549277 -0.0145981 -0.102955 0.023006 -0.0945805 -0.0733094 -0.0257544 -0.0304204 -0.00215484 -0.0665892 -0.0374946 0.0065987 -0.0651858 0.0350489 0.00819333 -0.051326 -0.00675977 -0.0565119 0.0467332 -0.102449 -0.115246 0.0272063 -0.116765 -0.104584 -0.0104724 -0.0595177 -0.0885026 0.025043 0.0031318 -0.0267606 0.0618676 -0.0547612 0.0579295 0.0690214 -0.0778874 -0.0328444 0.0566121 0.068884 -0.0592302 0.0513725 -0.0863599 -0.0062235 0.00317856 -0.0340354 -0.0292806 0.0518531 0.0317097 -0.0976865 -0.0587845 0.00928036 -0.0738627 -0.0342719 0.0757459 -0.0335301 -0.0731994 -0.035014 -0.0479719 -0.0209591 0.0384181 -0.0935789 -0.0504796 -0.0561892 -0.06015 0.0358593 0.0456461 -0.0415537 -0.0459455 0.0291647 0.075672 -0.0550759 -0.0137219 0.0306183 -0.0756469 -0.072746 -0.0734776 0.0704545 0.0437595 -0.0923018 0.0404669 -0.000287073 -0.0600334 0.0368016 0.0580019 -0.0406095 0.0828684 -0.0134612 -0.0899409 0.0230852 0.00743438 -0.00627747 0.0496661 0.0439562 0.0493338 0.0507516 0.0231874 -0.00783546 0.0828284 0.0706905 -0.0645448 -0.0707616 -0.0791725 0.00471263 -0.0440677 0.0178854 -0.0612959 0.00421706 -0.0427772 0.104186 -0.0356924 -0.0804497 -0.0747614 0.004358 -0.0442357 -0.0507387 -0.0250774 -0.0721211 0.0449798 -0.0386289 0.0694546 -0.00784754 -0.066624 0.027121 0.0416436 -0.0351374 0.0225939 0.0352208 0.00941733 0.0578132 -0.0572079 -0.0893753 -0.0320558 -0.0751983 0.0824686 0.0479081 -0.0348536 0.0129625 -0.0811088 -0.0396403 0.0719905 -0.0484022 0.0457405 0.0524679 -0.0731043 0.0704594 0.0255668 0.0852227 0.0598836 0.0748011 -0.010467 0.0816621 0.0269714 -0.0810691 0.0251114 -0.0221962 0.0618845 0.0630106 0.0384305 0.0809572 0.0397929 -0.0428741 0.0203554 0.04839 0.000267646 0.0371953 -0.0739554 -0.0739061 -0.0756626 0.0736899 -0.00557736 0.041689 -0.041033 0.0215421 0.0688529 -0.0720363 -0.00831187 0.00226416 -0.0569452 0.030115 -0.0469782 0.0716297 0.0809562 -0.0730387 -0.0111772 -0.0738382 0.0121054 0.0416526 0.00665211 -0.0256326 -0.0489489 0.0470668 0.0431054 0.02953 -0.0277565 -0.00473434 -0.0637051 -0.0648685 -0.0613005 -0.000654135 0.0653059 0.0660638 0.0782607 -0.088148 -0.0259544 -0.0821787 -0.0348891 -0.0370312 -0.0149316 0.037344 -0.0317882 -0.0297712 0.0339408 -0.0400818 0.0652733 -0.0669631 0.0244705 -0.0317132 0.0459727 -0.0794372 0.0120045 -0.0530413 -0.060626 -0.0185532 -0.0437685 0.0418154 -0.0303969 0.0628328 -0.0324871 -0.0320863 -0.00719425 -0.0693166 0.000771415 0.0406875 -0.0488978 -0.0743179 0.017921 0.0685664 0.0423271
-0.0479091 -0.0462655 -0.0373792 -0.0405107 0.0474327 0.00982417 -0.0746207 -0.00106241 -0.0609191 -0.0402138 0.0379565 -0.0387879 -0.0632533 0.0768282 -0.0505552 -0.0832048 -0.0583874 0.0141581 -0.0808266 -0.0572341 -0.0562881 0.0108163 -0.045752 0.0688348 0.057737 -0.051773 -0.0017528 0.0834643 0.0249479 -0.0620021 0.0475362 -0.0759103 0.0192086 0.0309869 0.0182962 -0.0262534 -0.0290528 -0.0727344 0.0726977 0.0282968 -0.00654473 -0.0524089 0.07159 0.0390019 -0.00444987 -0.0371645 -0.0635468 -0.0365709 -0.0135987 -0.00975472 -0.083586 -0.0859747 -0.0154271 0.0605693 -0.0587377 -0.0728639 -0.0234193 -0.00420815 0.0739385 -0.0783555 -0.0498955 0.0586403 0.00756566 0.040403 -0.00928853 -0.055148 0.0120933 -0.0502169 -0.0539535 0.0461226 -0.0727537 0.0451061 0.0482262 0.0767003 -0.0249454 0.0718217 -0.0467023 -0.0186979 -0.0632832 -0.081052 0.0706464 -0.056867 0.00068474 -0.0202046 0.0678607 0.0705121 -0.013391 -0.0277697 0.0217906 0.0756429 -0.0814942 0.0721789 -0.0213577 0.00388483 -0.0616956 0.0832264 -0.0440815 0.0638293 -0.020301 -0.0191062 0.0399928 0.0458515 -0.037279 0.00699611 0.0504321 0.047213 0.0429411 -0.00737665 -0.0175964 0.0678527 0.0671994 0.0627939 -0.0102907 0.0355423 0.0263509 -0.0798231 -0.0498066 -0.0299929 -0.00849377 -0.0424887 0.0349403 -0.021103 0.0734214 -0.0804749 -0.00921605 -0.0189546 -0.0647688 -0.0582914 0.0461235 -0.0650224 -0.0425225 -0.0996402 -0.0748918 0.0160471 0.0231612 0.0328886 -0.010489 0.0312472 -0.0615597 0.0527673 -0.00756785 -0.0240042 -0.0419224 0.0814147 0.0676992 -0.00341116 0.0221164 -0.0319239 -0.0418913 -0.049968 -0.0118627 0.0133049 -0.0978207 -0.00630902 0.00589172 -0.00104612 -0.106204 0.0169368 -0.0583049 -0.000868875 -0.0340323 -0.0605631 0.0895517 0.0251222 0.0515191 -0.0645014 0.0285251 -0.0629945 -0.0609762 0.0613555 -0.0463999 -0.0770998 -0.0233582 -0.0763785 -0.0135588 -0.00370701 -0.0391692 0.0570071 -0.0816702 -0.0951324 -0.0711 -0.0328223 0.0545827 -0.000477372 -0.0375611 -0.0306296 0.00874109 0.0590978 0.0416564 0.026185 0.0970372 -0.00837249 -0.0205829 -0.0549119 0.0813493 -0.0228789 0.066806 0.0345205 -0.0111807 -0.0856925 0.046302 0.0792711 -0.0225192 0.00547532 0.0729656 -0.0554838 -0.0618616 -0.00559678 0.0389678 -0.100428 0.0195928 0.0326305 -0.0743612 -0.0894254 -0.109109 -0.030565 -0.0625686 0.0769804 0.0375442 0.0214702 0.0874751 0.064848 0.0606278 0.0296501 0.0786855 0.0660447 -0.00884383 -0.0529066 -0.0359891 0.0492792 -0.024892 0.00865556 0.00550687 0.0249165 0.0402829 0.027731 0.0391122 -0.0605449 -0.0776479 -0.102005 -0.130106 -0.0539995 -0.120327 -0.00884886 0.0421999 -0.00790895 0.0325865 0.0749131 -0.0388287 -0.0427358 -0.0448001 -0.063081 -0.0353253 0.0509165 0.0757442 0.0357269 -0.0835315 -0.0859946 -0.0279162 0.0530628 0.0118638 -0.105076 0.00764645 0.0465951 -0.0499515 -0.038019 -0.0814575 -0.0750924 0.0187895 -0.100933 -0.103144 0.00618544 -0.0751703 0.0187046 -0.0301063 -0.0390055 0.00539314 -0.0276496 -0.0365745 -0.0262337 0.0763996 -0.0237096 0.0741093 0.00323356 -0.0130935 0.0534599 -0.0583066 0.036675 -0.0564707 -0.00384245 0.0306999 -0.0234286 0.0734609 -0.071605 -0.064385 -0.0129969 -0.0182818 -0.0100428 -0.0906149 -0.00588564 -0.0741992 0.0656419 -0.0538316 0.0108159 -0.0469574 -0.0806658 -0.0191761 -0.046663 -0.0365799 -0.0708001 -0.0634322 -0.0367012 -0.0194017 0.025953 0.0592929 -0.0967042 -0.0141516 0.0215161 -0.0263248 0.128919 0.0925214 -0.052029 0.0177748 0.0548222 -0.0389536 -0.0600495 0.0430346 -0.0563318 0.032925 0.0566617 0.0655761 0.034376 0.0517652 -0.0559688 0.0647535 -0.0861624 0.0129325 0.0687904 -0.0292205 0.0839665 -0.0189929 0.0359041 0.00595928 -0.0268689 0.0776244 -0.0238602 0.0411581 0.0435468 0.0584892 0.0835283 -0.0776621 0.0982527 0.0505333 0.059658 0.0560103 0.087266 -0.00491389 -0.0636604 0.0295981 -0.0215863 0.0727168 -0.0145832 -0.0514275 -0.0431474 0.0351885 0.027488 0.0771067 -0.0330156 0.0268132 -0.0131105 0.0890993 -0.0251818 0.00852716 0.0209706 0.0221949 -0.0595151 0.00843274 0.0580573 -0.0444158 0.0394509 0.0285032 0.0523648 0.00890672 0.0546289 -0.046971 -0.0201592 0.0086412 0.0260672 -0.0532938 0.0692464 0.0547949 -0.0585876 0.0552609 0.0372017 -0.0409683 -0.0639705 -0.0118709 0.0424945 0.0333218 -0.00052712 0.0958252 0.116113 0.0937774 0.0395584 0.0685108 -0.0402935 -0.00146955 -0.000957426 0.0520946 0.0157212 -0.0912332 0.0197087 0.0628026 -0.0153732 0.027005 0.0325995 0.0646419 0.0373801 -0.0358272 -0.0407624 -0.00445872 0.0580584 -0.0516797 0.0552329 -0.0247629 0.0216656 -0.0378639 0.0876228 0.00408026 -0.00504187 0.0599457 -0.0455105 0.0133805 -0.0642484 -0.0459536 -0.0141027 -0.0178102 0.0692565 0.0230514 -0.0617253 0.036189 0.0345208 0.0824315 -0.0444329 0.00069976 0.0839875 0.0371034 0.0601753 -0.0364899 -0.0366219 0.0213969 -0.0397008 0.0699306 0.0489915 0.00741561 0.0536925 0.0430555 -0.00726464 0.0242405 0.12743 0.111834 0.104377 0.031745 -0.00956585 0.0823824 -0.0668438 0.0280593 -0.0611436 -0.0528659 -0.0634023 0.0117228 -0.0326563 0.050656 0.0190943 -0.0618849 -0.00794955 0.0406754 0.0591448 -0.00530605 -0.0244317 0.0414526 -0.0435719 0.0639987 -0.028259 0.0715905 -0.0512624 0.0124853 0.108427 0.0889568 0.0737074 -0.0586093 0.0721911 0.0968946 0.0668484 0.0546474 -0.0123466 0.0590256 0.0256321 0.0127862 -0.00983519 0.0475471 0.0704208 -0.0864819 -0.0703726 -0.040553 -0.0684486 0.0381356 -0.0491288 -0.0490356 -0.00386695 -0.0473088 0.0188054 -0.0631919 -0.0390585 -0.0537026 -0.0123311 -0.0294211 -0.0767308 -0.0251006 -0.00944272 -0.0643052 0.00368931 -0.0072504 -0.00568277 0.0281134 -0.0707372 -0.0512341 0.0756926 -0.0636173 0.0340402 0.0828533 -0.0712268 0.0388508 -0.0478812 -0.0547649 -0.0248793 -0.0945755 0.0147991 -0.0964775 -0.0566836 -0.0826379 -0.0540417 -0.0764468 0.0414296 0.0424074 0.0661837 0.0903319 0.041104 -0.00524567 -0.0472704 -0.00102852 0.0139935 -0.0354981 -0.0456242 0.0185858 -0.0441051 -0.0163302 0.0600635 -0.0067821 0.0711127 0.0694088 -0.0332488 -0.0459035 -0.0537467 0.00267387 -0.0218234 -0.010774 0.0516798 0.0330356 0.0184986 -0.0438949 -0.00660578 0.0765373 -0.028789 -0.0092394 -0.0458199 -0.0462441 -0.0918942 0.00294446 0.0059414 -0.0927929 0.0436079 0.000611664 -0.0249488 -0.0587336 0.0369677 0.00565584 -0.0413454 -0.0246656 0.0333812 0.0395075 -0.0363488 -0.098427 -0.0162962 -0.113747 -0.0258634 -0.0611136 -0.0535358 -0.0814643 -0.0351099 0.0130735 0.0613599 0.0565276 0.0691647 -0.0577592 -0.106557 -0.0753047 0.0251179 0.043058 0.0385404 -0.0328125 0.0269074 -0.0349345 -0.015517 -0.0134751 -0.0369223 0.0532151 0.0680013 0.0326263 0.0410808 -0.0172824 0.0180992 -0.00459276 -0.0539956 0.0123213 -0.0719804 -0.0477372 -0.0750864 -0.00369766 0.032509 0.0125064 -0.0616512 -0.044856 -0.0396033 -0.0629383 -0.0360411 0.0116336 0.0680568 0.0650279 -0.0235088 -0.00881585 0.0719463 -0.0613844 -0.00445963 0.0351319 -0.07917 -0.0693932 0.0740085 0.0721824 -0.0582178 -0.0116682 -0.0946263 0.0581289 -0.0208041 0.04206 0.0754184 -0.0439481 -0.0557379 0.0264262 0.0345664 0.0545072 -0.0378957 -0.0704054 -0.031525 -0.0364918 0.0225501 -0.0389309 0.0702929 0.0260009 0.0181422 -0.0213454 -0.0675862 -0.0515391 0.0727187 0.0588209 0.04178 0.00759867 0.00701629 -0.0437646 0.0636457 -0.0418959 0.0568988 -0.0872531 -0.0429854 0.023437 -0.0194112 -0.0133759 -0.0711464 -0.0348271 0.0444987 0.066728 -0.0377353 -0.0206779 0.0234835 -0.0329083 -0.0451208 -0.064901 0.018179 -0.0462064 -0.0225127 0.00079739 0.00282832 -0.0102144 -0.0291448 0.0225066 -0.0536737 -0.0416576 -0.0752423 0.0766655 -0.0830834 -0.0161116 -0.0011508 0.0540663 -0.0501619 0.0264389 -0.0386199 -0.083568 0.0735206 -0.0377191 0.0118784 -0.00167863 0.0256153 0.0168857 0.052383 0.0338005 0.0809676 -0.0321085 0.0184615 0.0442932 0.00038758 0.0484629 0.0452747 0.0774684 -0.0414025 -0.00302286 -0.0771663 0.0118388 0.0632025 -0.0636622 0.00766479 -0.0510314 -0.00168233 -0.0211326 -0.0645367 -0.00490183 -0.0669219 -0.0143592 0.0546119 -0.00456035 -0.0306946 0.00956309 -0.0809278 0.0109337 0.0806693 -0.0142653 0.0304041 -0.0661076 -0.0328525 0.0226142 -0.0863805 0.0519544 -0.0520124 -0.0048177 0.0760542 -0.0423307 0.01389 0.028562 -0.0100683 0.0567311 0.0429928 0.0284478 0.0654758 0.0130443 -0.0294876 -0.0751422 0.00438775 0.034929 -0.0669233 0.0562083 0.0530299 0.0497228 0.0313413 -0.0346734 0.0652593
-0.0113 -0.0119931 0.0696746 -0.0566306 0.0436433 -0.0620019 -0.0112769 -0.0753407 0.0195025 0.0668197 0.00780096 -0.0409345 0.0258914 0.0232936 0.0314736 -0.0252198 -0.0336495 0.0491289 -0.0620794 0.0060232 0.0152169 -0.0611019 -0.0372291 -0.0620857 -0.0339965 -0.0514722 -0.0244988 -0.0828454 -0.0451799 -0.0215639 -0.0244212 0.00800194 -0.00859267 -0.0910016 -0.0557423 0.0723988 -0.084456 0.0331284 -0.0784861 -0.0330977 0.0142811 -0.0847457 0.00742315 0.0639977 0.00662835 -0.0491175 -0.055225 -0.0279998 0.0640427 0.00831638 0.0411121 -0.0676355 -0.0454883 -0.0327119 0.00541742 0.0694447 -0.0204536 -0.0247184 0.0145573 -0.0922226 0.0523794 0.00864283 -0.0407333 0.0726864 -0.0331909 -0.0341905 0.0560759 0.00267599 0.0164213 0.0392121 -0.0616919 -0.0481802 -0.0431421 0.041218 0.0460375 0.00923527 0.0402868 -0.00726034 0.0291518 -0.00112455 0.0419305 0.0701078 -0.0158733 -0.0119511 0.0709585 -0.000993254 0.00779496 0.0114777 -0.0156807 -0.0801874 -0.0951271 -0.0389488 0.0131475 -0.0931279 0.00141735 -0.026206 0.00444511 -0.0706413 -0.0731751 0.0377073 -0.0352115 0.0187267 -0.0210484 0.0379383 0.0453013 0.0565597 0.0378057 -0.00177431 0.0688383 0.0517068 0.0306841 -0.0650342 0.00220902 -0.0357978 -0.0709008 -0.0593998 0.0759738 0.031071 -0.0305885 0.0614788 0.0254756 -0.039933 0.0423548 -0.0289238 0.0474415 -0.0647768 0.0319721 0.0991394 0.11765 0.0492634 0.0262533 0.030726 -0.0792872 -0.0561976 -0.06319 0.0307708 -0.021466 -0.094518 -0.0763909 -0.0541668 0.0577497 -0.0807357 0.0552662 -0.0520177 0.0718046 -0.0958359 -0.0230658 -0.0657179 -0.0768719 0.0146408 0.0668442 0.0621101 -0.0785413 -0.0137011 0.0711121 0.0225389 0.101064 -0.0559319 0.0451509 -0.0132006 0.00916758 -0.0990679 -0.00209575 0.00684199 -0.0805181 0.0625692 -0.0815392 0.0187949 0.071718 -0.092321 0.00526157 -0.0958769 0.0322166 -0.0352672 -0.0399916 -0.0870229 -0.0307543 0.0621126 -0.0314152 -0.0684198 -0.0635154 -0.0319554 -0.0357611 0.00518129 0.0934135 -0.0527614 -0.0203059 -0.0355897 -0.0789674 -0.0816211 -0.0902888 -0.0149611 0.0434748 -0.0664035 -0.0400463 0.00776994 -0.0615244 -0.0946826 0.0464685 0.0582463 -0.01569 -0.00053566 -0.0854342 0.0312469 0.0140592 -0.0958212 0.00117828 -0.0452853 0.0318847 0.0269803 0.0897483 0.0033698 0.0549717 -0.00628926 -0.086104 -0.00418983 -0.0446664 -0.0601833 0.0434921 -0.0535582 0.0155056 -0.062622 -0.00929504 -0.0560344 -0.0258002 0.0163877 0.0550872 -0.0678699 -0.0548006 0.0789432 -0.0285911 0.0705985 -0.0787032 0.0772499 -0.0254359 0.109541 0.0811055 0.0987165 -0.0387627 -0.00743645 0.050734 -0.0692519 -0.0484942 -0.00463627 0.0590073 -0.0691165 -0.0600635 -0.0484377 -0.010464 0.0485259 -0.0630117 0.0357885 0.0735984 0.0376528 0.0511795 -0.0415152 -0.0254991 -0.0896985 -0.0437431 -0.00716411 0.0206682 -0.0644071 0.046305 0.0513028 0.104752 0.0557601 0.0961417 -0.0657348 -0.00579114 -0.041014 0.0651911 -0.00780269 -0.0411571 -0.0234012 -0.0406432 -0.0878236 -0.0918969 -0.0199449 -0.0870577 0.0276699 -0.0612728 0.0702712 -0.0198585 -0.0872538 -0.0165377 0.0654426 -0.0698137 -0.0587737 -0.0563055 0.0480192 0.0149609 0.0476231 0.101454 -0.0188758 -0.0687123 -0.0600848 -0.023861 0.0515956 0.0558765 0.0297636 -0.0448192 0.0772993 -0.00579312 0.0096078 0.0590259 0.0172023 -0.0414767 -0.0613603 0.0449719 0.0233919 -0.0905465 0.000478249 -0.0198091 -0.0313814 0.0058899 0.0343914 0.0541471 0.00792329 -0.0489821 0.113455 0.109359 -0.0387975 -0.0741601 0.00422706 0.0111372 0.0373194 0.0116884 -0.0178362 -0.0203688 0.0843448 0.0188956 0.0819244 0.0402808 0.0500152 0.0409386 0.0644622 0.0604256 -0.0916344 -0.0324052 0.0489868 -0.0905085 -0.0126522 0.0662691 0.0937482 -0.0544814 0.0476721 0.118746 0.0383439 -0.00208582 -0.00132837 -0.0855571 -0.0450122 0.0541896 0.0848911 0.0607419 0.0796355 0.0605952 0.101066 0.0705568 -0.0385128 0.0623404 -0.0426031 0.065458 0.0626981 -0.0699691 -0.0823345 0.001048 0.0389145 -0.0471168 -0.0291469 -0.0763773 -0.0624875 0.0797405 0.100189 0.0666575 -0.0333957 -0.0311658 -0.0107343 -0.0567698 0.00750253 -0.0635638 0.0195133 0.0758843 0.0555416 0.00440304 0.0790441 -0.0270131 -0.0492491 -0.0144184 -0.0385521 0.0064822 0.0286005 -0.0458341 0.00546179 0.0616065 0.0549959 -0.0866926 -0.00561748 0.040117 0.050845 -0.0330046 0.0370059 -0.0285146 -0.0425509 0.0111862 -0.124044 -0.102615 -0.0183156 0.0502087 -0.014272 -0.0234495 0.0593934 -0.00406772 0.00358418 0.0221205 0.0149285 0.0300713 0.0764765 0.02599 -0.0429959 -0.0504221 0.0350882 -0.0671558 -0.0857822 0.00576022 -0.0790415 -0.0418948 0.0169381 -0.0242616 0.10322 0.0694908 0.0574729 -0.0309248 -0.149135 -0.0329149 -0.0647624 -0.00212617 0.0615323 -0.0243277 -0.0194288 -0.022586 0.00439425 0.0669038 0.0316016 0.0671289 -0.0778528 -0.0953218 -0.0710452 0.0623401 0.0598548 -0.0480831 0.0643922 -0.0305121 0.0666922 -0.00187334 -0.00266891 -0.0335328 0.00940443 0.0483501 -0.00585045 -0.019788 -0.132182 0.0305037 0.0131564 0.00418928 0.0279056 -0.00120359 0.0202132 -0.0140036 -0.00691205 -0.027725 -0.0359896 -0.0831733 0.0170562 0.0673681 0.0142842 0.00979575 -0.0521537 0.0302735 -0.0211932 0.0616526 0.0623298 -0.0119911 -0.0390133 0.125997 0.0381903 0.0935776 0.0314865 -0.0368758 -0.0344272 -0.0377068 -0.0213563 0.0565776 -0.0828388 0.105106 0.0463777 0.110979 -0.0242389 -0.0312212 -0.0727389 0.0616903 0.0174271 -0.0813878 0.0273086 0.0699991 0.0230048 0.0102219 0.0737372 -0.0542084 0.0516175 0.0645399 0.0245622 0.0803079 -0.0213242 0.0394989 -0.00889511 -0.0948828 -0.0611347 -0.00326124 -0.0165825 -0.0212349 -0.0539707 -0.00855793 0.0129323 0.102389 0.0669201 0.0850644 -0.0854281 -0.0164004 -0.0902416 -0.0825484 -0.00423487 0.0618814 -0.0951919 0.00175349 0.00744655 -0.034055 0.0248995 -0.0644899 0.0873899 0.10252 0.113089 -0.0150426 -0.0131103 0.0710465 0.00549363 0.0821542 0.10301 -0.0431452 0.0662537 0.0502901 0.0349603 -0.0389763 0.088141 0.0646533 0.0331097 -0.043149 0.0693364 -0.065747 -0.0465072 -0.00573816 0.0487141 -0.0628211 0.00570091 0.0719622 -0.0198482 -0.0337826 0.0389124 0.104125 0.102272 0.0546723 0.0759203 0.0413735 -0.0463551 -0.00936134 0.023214 -0.00993953 0.071839 0.0247682 -0.0279198 -0.0410012 0.0845231 -0.0145146 -0.0179587 -0.0203961 0.0262162 -0.023035 0.0356998 0.0103466 -0.00472819 -0.041934 -0.0315292 -0.0570508 -0.0481508 0.0554284 -0.00829714 -0.0349996 0.0351249 0.00279826 -0.00483927 0.0245669 0.0432657 -0.0591425 -0.0145115 0.0264701 0.0676258 0.0966283 0.0827779 -0.0523802 -0.0303644 0.00259093 -0.0125949 -0.0155923 -0.0278772 0.000663261 0.0506025 -0.0540658 -0.090225 -0.0393152 0.0510166 -0.0367539 -0.0580604 0.0497146 -0.00450626 -0.100889 -0.00780824 -0.0477983 0.0685487 0.0440173 0.0723302 -0.0849977 -0.0440427 0.068497 -0.0608624 -0.0156078 -0.0328402 -0.07056 -0.0713341 0.0401768 -0.00856271 0.0471884 -0.0772631 0.0257073 -0.0117914 0.00504873 -0.0125863 -0.063813 -0.0645808 0.014367 -0.00489196 0.0612928 0.0597021 0.0216939 -0.0842707 0.001345 0.0560629 -0.0585718 0.00757075 0.0769844 0.0331617 -0.0551171 -0.00951504 0.0578183 -0.0432238 -0.0618476 0.0281715 0.00496311 -0.0306771 -0.000643051 -0.0253725 0.0184513 -0.0823977 -0.0494737 0.0348854 -0.00307247 -0.0667657 -0.0406143 -0.083878 0.012532 -0.00327421 -0.056361 -0.0372877 0.0450821 0.0155814 -0.0315783 0.0666899 0.0199288 0.00560354 0.0216177 0.0674677 0.065101 -0.0927453 0.0558956 0.0746984 -0.0943107 -0.0894435 -0.0464344 0.0576938 -0.0100247 -0.0660204 -0.0338955 -0.0942162 0.0275876 -0.0802622 -0.0436464 0.029393 0.060253 -0.00472213 -0.0897197 0.0184151 0.0269505 0.0429702 -0.0848932 -0.00517558 -0.0604394 0.0578838 0.0013473 -0.043425 -0.0125817 0.0240809 -0.0109368 0.0411334 0.0202939 -0.0935115 -0.0834038 -0.0139259 -0.0842543 -0.0843278 -0.0103271 0.0654206 -0.0671303 -0.0361307 -0.0759665 -0.0592408 -0.0913891 -0.0677465 0.0706934 0.0373765 0.0626717 -0.0906684 0.0593704 0.000288633 0.00400154 -0.00910978 -0.0641725 0.0641652 0.0309061 -0.0520652 -0.0105272 0.0679106 -0.0112685 0.0316294 -0.0462972 -0.0956355 -0.0562144 0.00675708 -0.0315687 0.046559 -0.0541978 -0.057476 -0.0340571 -0.0133767 -0.0468981 -0.0451311 -0.0289062 -0.0365199 -0.0140257 0.0406949 -0.0677054 -0.0231593 -0.0675031 0.0424561 -0.0597472 -0.0426336 0.0430428 -0.0300079 -0.0263794 0.0336861 -0.0437488 -0.0129224 -0.0324103 -0.0534311 0.0586243 -0.0217139
-0.0586368 0.0826393 0.0746021 -0.0406156 -0.0343052 0.0539782 0.0784885 -0.0517549 0.0585474 0.00885567 -0.0477633 -0.0507192 0.0684071 0.0493611 0.0230235 -0.0315749 -0.06594 -0.0639621 0.0651638 0.0637443 -0.0525313 -0.0144784 0.0142929 0.0224228 -0.0282694 -0.0726054 0.0444367 0.0831329 -0.000993919 0.0253987 -0.0585638 -0.0486124 -0.0105163 0.0477277 -0.0343013 -0.0649491 -0.0614435 -0.0472886 0.0296444 -0.0503652 -0.00468307 -0.0329547 -0.0810908 0.0815391 0.00259386 -0.0766651 0.0559258 0.0369735 -0.0365717 -0.0497595 -0.0603999 -0.0432651 0.00484985 -0.0102094 0.0555536 0.0662321 -0.0728734 0.00522214 0.047848 -0.0301811 0.0170039 -0.0804732 0.0475244 -2.96249e-05 -0.0215707 0.0603848 0.021096 0.0119684 -0.0815335 0.0709637 0.01635 -0.0866657 -0.0592296 -0.0642284 0.0333023 -0.00723594 0.0628498 0.0505121 0.03181 0.0603063 -0.0617501 0.051203 -0.0318422 0.0331838 -0.00508576 -0.0643718 -0.0219018 0.00338108 -0.0368478 -0.0527226 0.0203647 -0.0567895 -0.0070224 0.0800225 -0.0391017 0.0372531 -0.0584978 0.0285385 0.0698491 -0.0868888 -0.0180188 0.0114812 0.0191033 -0.00512271 -0.06395 -0.0830615 -0.021049 -0.000507102 -0.0254188 -0.0658872 0.0488728 -0.00405695 -0.0108252 -0.0811505 -0.07602 -0.00931194 -0.0753978 0.01843 -0.0200045 0.014853 -0.0722881 -0.0417861 -0.0224132 0.0103539 0.0649846 -0.0243761 -0.0433449 0.0504697 0.046872 0.0715314 0.0271821 -0.0322031 0.0730115 -0.0495156 0.0335559 -0.0546806 0.0772862 0.0567118 0.0259902 0.0576528 -0.0149625 -0.0254435 -0.0326137 -0.0599098 -0.046213 0.0728925 0.085511 -0.0296425 -0.0668556 0.0191908 0.0406401 -0.0557758 -0.0775214 -0.0434674 0.0690065 -0.0878611 -0.0784339 -0.0671157 0.034561 -0.0181499 -0.0676864 -0.0731462 0.0832813 0.0435924 0.0736294 0.0560637 -0.0833092 0.0815916 -0.0565839 0.0721297 -0.0682413 0.0706812 0.0850529 0.0795826 0.0807119 0.0738683 -0.0663597 0.0688647 0.000469491 -0.0621122 0.0638784 0.0155348 0.00149077 -0.00732807 0.05825 0.0363123 0.0135048 0.0874955 0.0159236 0.0616955 0.0579143 0.0671439 0.032631 0.0295014 0.0812703 -0.0213025 0.0557519 0.0087841 -0.00401066 -0.0239034 0.0183524 0.0650265 0.0439446 -0.0785431 -0.0014715 0.0157245 -0.0633181 0.00187418 0.0239126 -0.0576985 0.0142297 -0.00329733 0.00888674 -0.0567024 -0.0592294 -0.0327797 0.0116166 0.0770664 0.0208601 0.030898 0.0549037 -0.0826528 0.0529077 -0.0482371 0.0179228 -0.0682622 -0.0327875 -0.024951 0.0853451 -0.016573 0.000874986 -0.0582706 0.00745753 -0.0226363 -0.0847446 0.0300449 0.0483384 0.0519068 -0.1007 0.0617827 0.000116207 -0.0341644 0.0309139 0.00295813 0.0608123 0.0367784 -0.0256768 -0.00913322 -0.0640456 0.0197571 0.0656414 -0.0280988 0.0489751 0.00421162 0.0530756 -0.0222693 0.0291989 -0.0573156 0.0250009 -0.00516577 0.0549815 0.00275008 -0.0636189 -0.0883807 -0.0635096 -0.0513344 0.0771755 -0.0560545 -0.0323679 -0.0657252 0.0145781 -0.0772127 -0.0431577 0.0285599 0.0212585 0.0194364 -0.000863525 -0.0871857 0.0682049 0.0775419 -0.0282656 0.0717584 0.0233472 0.0216012 -0.0545152 -0.0453322 -0.0892743 0.0626967 -0.0592167 -0.041514 -0.0456501 -0.00715613 0.00637574 0.0321796 0.0940377 -0.0183408 0.057056 0.0475899 0.0241087 0.0746995 0.0632174 -0.0263705 -0.0706049 0.000923999 -0.00295845 0.0172905 0.00284088 0.0349311 0.0108195 -0.0773781 -0.0592983 -0.0217124 -0.0496695 0.045363 0.0700793 0.0471324 -0.0856685 -0.0598366 -0.023026 0.0679326 -0.0760389 0.0096165 -0.0171238 -0.0218425 0.00992424 0.0122375 -0.0672574 -0.075461 0.0403405 0.00993743 0.00686671 0.00331385 -0.0300846 0.0532442 0.0363757 0.0560691 -0.0243654 0.0656284 -0.0348599 -0.0343335 -2.81092e-05 0.0102777 0.0326593 0.0159405 -0.0382777 0.077875 0.00898295 -0.0922954 -0.00325534 0.00845712 -0.0377241 0.00860739 -0.0740377 0.0240216 0.025646 0.0755648 0.0740238 0.0692499 -0.0345961 -0.0101863 -0.0600458 0.042714 0.0550556 -0.0644975 -0.0648045 0.0773333 0.0472301 0.0323419 0.0386664 -0.0483275 -0.0726623 -0.0660409 0.0125199 -0.0397472 0.0770969 -0.0839123 0.0804426 0.0835896 -0.0460316 0.0574224 -0.0428242 -0.101745 -0.0545232 0.00229748 -0.0339485 -0.0435257 -0.0701637 0.00757184 0.0713747 0.0083326 0.0157846 0.0733649 0.0652121 -0.0510416 0.0630395 0.0683634 0.0367311 -0.0610499 0.0894703 -0.0513793 0.0935515 0.00452564 -0.0804087 -0.0588018 -0.0686571 0.000631451 -0.00920542 -0.0659137 -0.0752962 -0.0730469 -0.0411142 0.0168906 0.0817595 -0.0497573 -0.054743 0.0112423 0.0345382 0.0463397 -0.038113 0.0720436 -0.0303149 -0.0229226 -0.0237532 0.0621915 -0.00252282 -0.0196239 -0.0391459 0.00780606 0.0280887 -0.0526599 0.00736085 0.0433516 -0.00439708 0.0190708 0.0813538 -0.0366333 -0.0919459 0.0609209 0.0330609 -0.0566222 -0.0626442 -0.0801984 -0.0251469 0.034302 0.0633277 0.0252581 0.008814 0.0335747 -0.0664978 -0.0360554 0.0847206 0.0844485 -0.0648027 -0.058188 0.044197 -0.035619 -0.065091 0.0573708 -0.0182917 0.0930903 0.0207236 -0.00929131 0.0625415 -0.0313291 0.0585889 -0.0216826 0.00540446 -0.0598762 -0.034562 -0.0679135 -0.0860769 0.0159146 -0.0255249 -0.0308572 0.0367101 0.00727724 0.0727467 0.0624927 -0.00403126 -0.0503746 0.0500452 0.0265739 0.0696056 -0.0868203 -0.0229892 -0.0325472 0.0382656 0.0336245 0.103525 0.0292417 -0.00198111 -0.00743237 0.074136 -0.00295232 -0.05751 -0.0021441 -0.0695054 0.0431144 -0.0516857 -0.0286914 -0.0599651 0.0209456 0.0758041 0.0585694 0.0187384 0.080418 -0.0193958 0.0796954 -0.0915271 0.00524991 -0.0425827 -0.0730736 -0.0553565 -0.0222842 0.00190213 0.0309555 0.08348 0.0620071 -0.0808226 -0.0408255 0.0171972 -0.0936268 -0.0246622 -0.0140508 0.0623767 -0.036081 -0.0686876 -0.067756 -0.0509326 -0.081044 -0.0118854 -0.0426939 0.040024 0.0383677 0.0184796 -0.0533082 -0.0742239 -0.05989 0.00548249 -0.0728151 -0.0489408 0.0752772 -0.0628628 -0.0511141 -0.0488983 -0.0397065 0.0259658 -0.0732079 -0.0786893 -0.0123368 -0.0194803 -0.0301827 -0.0630335 -0.0354281 0.00650894 0.0452073 -0.0222372 0.0773139 0.0334936 0.0287651 -0.0340318 0.0412809 0.0280286 -0.0671977 -0.0226535 0.0101833 -0.103034 0.012853 -0.00293977 -0.070537 0.0755487 0.00332463 0.0139726 -0.073334 -0.0578485 0.0452808 0.0336497 -0.0996073 0.00987786 -0.082517 -0.0437816 0.0578406 -0.0316604 0.056037 0.0832834 0.0311196 -0.0301045 0.030856 -0.0267567 -0.0642164 0.0450525 0.0735109 -0.0591268 0.0127592 0.0641129 -0.0691012 -0.0122854 -0.0558829 -2.53124e-05 0.0370107 0.0146816 0.0123661 -0.0825337 0.0552307 -0.0361297 0.0273194 -0.00637766 -0.0771821 0.0535347 -0.0426873 -0.0608537 -0.000904215 -0.0504828 0.0773001 0.011958 -0.00516182 0.0758258 -0.0346855 0.0775839 0.0403476 -0.0809733 -0.0121939 0.0572136 -0.022928 -0.0632499 0.00041406 -0.0316318 -0.010231 0.0792148 0.0457715 0.047717 0.00523573 -0.0901577 -0.0271016 -0.0565647 0.0456414 -0.0908421 -0.0878333 -0.0691718 -0.0323648 -0.0744178 -0.0772786 -0.0372138 -0.00451383 0.021014 0.0383807 0.0588088 0.057236 -0.0757768 -0.0133453 -0.0136434 -0.00248871 -0.040308 -0.0326992 -0.0510482 -0.0369785 0.0465674 0.0371594 0.0408526 0.087673 -0.0254932 -0.0573336 -8.00285e-05 -0.0924866 -0.0102415 -0.0708836 0.0130347 -0.0231704 -0.0467766 0.0445646 0.0279027 -0.0595574 -0.0245961 -0.0425464 0.0118361 0.051034 0.0724486 0.00972569 -0.0338897 -0.0157942 -0.0720508 0.00501944 0.0478786 0.0135289 -0.0580806 0.00227699 0.0310645 0.0584436 0.00193171 -0.064015 0.0312853 0.0524581 -0.062937 0.0777033 0.0166611 -0.0274124 0.0465887 -0.0375001 -0.0560216 -0.0850496 0.0690822 0.041095 0.0715053 0.065132 0.0395251 -0.0154471 -0.0266488 0.027574 0.0782189 -0.0370567 -0.0926834 -0.0402723 -0.0657103 0.0278521 0.0425165 0.0427204 0.0228487 0.00631484 -0.0189998 -0.038198 -0.0388207 0.070478 -0.0823824 0.0487451 0.0405554 0.00760781 -0.060722 0.082757 -0.0866987 -0.0790129 -0.0297828 0.00363295 0.0538539 -0.0277356 0.0345494 0.0798689 0.0133233 0.0329761 0.0166312 0.0603316 -0.0689909 -0.0504299 -0.0283092 -0.0364484 0.0649827 -0.0336408 0.068371 -0.0174802 -0.0275977 -0.0106154 0.077205 0.0220422 0.078915 0.0326274 0.0132606 0.0789212 -0.0413492 -0.0162429 0.043481 -0.0581217 0.0822095 0.0288189 0.0573489 0.0528209 -0.0393908 0.0535576 0.0747067 0.0713988 -0.0181781 -0.0715013 -0.0401687 0.00880026 0.0484927 -0.0849214 -0.057258 0.0487431 -0.079305 0.000653596 0.0511422 0.0210121 -0.0287586 0.0606111 -0.0401587 0.0595819
0.0261276 0.0387198 -0.0309376 -0.0479159 -0.0251673 0.0322619 0.0708618 0.0122664 -0.0358477 0.068205 -0.0211563 -0.0280108 -0.0849726 -0.0531356 -0.0327431 0.0616079 -0.0623145 -0.0388679 0.0112771 0.066816 0.0569654 0.0156562 -0.0424859 0.0138673 -0.0253909 -0.0230767 0.0204488 -0.0647535 -0.00204003 0.0302028 0.00988414 -0.00729404 -0.0594136 -0.0886369 -0.0713591 -0.0723757 0.0809984 0.0518994 -0.00421876 0.0638331 -0.0182871 0.023676 0.0301973 -0.00583327 0.0216013 -0.0460996 0.0458998 0.0440237 -0.0435852 0.0317566 0.051814 -0.0147577 0.0241954 -0.0230547 0.0780044 -0.0824793 0.0156715 0.0340796 -0.0658873 -0.0635076 -0.0431206 0.0276472 -0.0633774 0.0818035 0.0397758 0.0360008 -0.0629267 0.0142467 -0.00687164 -0.0409865 0.0811358 -0.0378964 -0.0624338 0.0299007 0.0837808 -0.0816353 -0.0606088 0.007259 -0.0876414 0.0525072 -0.0107346 -0.0240043 -0.0610847 -0.0511105 0.0210313 -0.0203486 0.0127111 0.0819273 0.0447025 -0.0758884 -0.057075 -0.0467937 -0.0201802 -0.0320361 -0.0595661 -0.0181353 0.00272324 0.0603544 0.0619507 0.0708089 -0.0139197 -0.0479639 -0.0503849 -0.0692936 -0.0196346 -0.06983 0.0669235 -0.0106006 -0.00558085 -0.0487879 -0.0791071 0.025581 -0.0213461 -0.0802074 -0.0286179 -0.0230362 -0.0859854 0.0612353 0.0765625 -0.0881403 0.054919 -0.0796862 0.0467945 -0.0130982 0.0986116 -0.0816737 -0.0329241 0.0425703 0.0402997 0.079881 0.0106439 0.00577595 -0.0705646 0.0833894 -0.00461044 0.0344981 -0.0687777 0.055195 0.0425468 -0.0189057 0.0265155 0.0736371 -0.00671275 -0.0276963 -0.0199038 0.0111283 0.0451375 0.0615925 -0.0816392 -0.0314257 0.0105095 -0.0959985 -0.0322046 0.0527884 -0.0922071 0.0702377 0.0654988 -0.0550592 0.0236422 0.0328489 0.0483035 -0.0206577 -0.0316299 -0.083063 0.0424376 0.00859135 0.0520477 0.0815227 0.0432511 -0.0649156 -0.0651606 -0.0764903 -0.00575469 -0.0151792 0.0252396 0.0198458 -0.0677117 0.0290063 -0.0130507 0.0448298 -0.0603898 -0.00872446 -0.029423 0.0678007 0.0430783 -0.00237242 -0.0343287 -0.0363299 -0.00264087 0.0220599 -0.0307609 -0.0233038 0.0185754 0.0247686 0.0770777 -0.0679053 0.0609654 0.018988 0.0132389 0.00697502 0.0330132 0.0101754 -0.0241923 -0.00507475 -0.101442 -0.0742484 0.0461641 0.0065562 0.0357614 -0.0749005 0.0536705 -0.0206444 0.0638453 -0.0289974 0.0409408 0.0631906 -0.11346 -0.0274299 0.0316806 -0.0300701 0.0371009 -0.0641105 0.0566997 -0.0139556 -0.0177066 -0.0647383 0.0395174 -0.00290779 -0.0167229 0.0705837 0.0185142 0.048797 -0.00713327 -0.0106786 0.0236109 -0.036102 -0.0157073 -0.0633183 0.00505068 -0.0373949 0.0520206 0.0334122 -0.0274593 -0.0994172 -0.123535 -0.0291875 -0.0152861 0.0459065 0.0543141 -0.0412154 -0.00418695 0.049272 0.023998 -0.0354206 0.0527376 -0.0254336 0.0446417 -0.0577357 -0.0238411 -0.000851613 -0.021156 0.00536701 -0.0291353 -0.00634182 0.0963029 -0.00965361 0.057528 -0.0170512 -0.00683129 -0.0594311 -0.0862683 -0.106503 -0.074124 -0.113563 -0.0722897 -0.0299612 0.0749513 -0.0330516 -0.0233945 -0.0308169 -0.0259127 0.0343666 -0.083202 0.00278623 0.0730038 -0.0736564 -0.0948224 -0.0627521 0.0215688 -0.0463142 0.0159435 0.00569389 -0.0447393 0.0187744 -0.0677125 0.0471625 -0.0179592 -0.0677857 -0.0516342 -0.0187855 -0.0157002 -0.0818101 0.0427546 0.0602583 0.0371519 -0.00971296 -0.0212546 0.0442348 -0.00148153 -0.0464302 -0.0596693 -0.0331819 -0.00871058 -0.0871946 -0.0904674 -0.0107736 0.0700576 -0.0406846 -0.0758895 0.0516677 -0.0502537 0.045577 -0.0650882 -0.0210364 0.0169816 -0.0521593 -0.0159848 -0.0340914 -0.0325309 0.0275626 0.064117 0.0122125 -0.0799854 -0.0858449 0.0380375 0.0748053 0.028308 -0.0851568 -0.0483634 -0.00661157 0.00448024 0.0434089 0.0383762 -0.0809083 -0.0260836 -0.0855442 -0.0883827 -0.0744454 -0.0157062 0.0143776 0.0879563 0.0696819 0.0576372 0.0502366 0.0438919 -0.0191921 0.0385917 -0.0524766 -0.0873328 0.0209403 -0.0416423 0.0234155 -0.0136204 0.0761872 0.0241264 -0.0885115 -0.0112564 -0.0825943 0.0148339 -0.020096 -0.0755137 -0.00691278 -0.0603298 0.0682858 -0.0834761 -0.0403236 -0.009716 -0.0249265 0.0477697 -0.00255166 -0.0583116 -0.0827664 -0.0489603 0.0145576 0.0207402 -0.0827628 -0.0307605 -0.093906 -0.0824911 -0.014802 -0.0152615 0.0118896 0.0747726 0.0026569 -0.00924374 -0.00114367 0.0644389 -0.0697041 -0.0289612 0.0196842 0.0426894 -0.00124047 0.0746898 0.081366 -0.0217247 0.0525309 0.0397716 0.0333269 -0.0231347 0.0473097 -0.0614319 0.0409225 -0.0159492 -0.0105758 -0.0604363 -0.0219106 -0.0531348 0.0121224 -0.0894928 -0.0762509 -0.0209188 -0.0563189 -0.00918132 -0.00977283 -0.080624 -0.0515578 -0.0916875 0.0341151 -0.126165 0.0232673 -0.0429848 -0.0238778 0.0347212 -0.000751594 0.0532463 0.100529 -0.0522359 -0.0770141 -0.105258 0.0034556 0.0336879 -0.0447106 -0.062135 0.075297 -0.0852485 -0.000653868 0.0561587 0.0785629 -0.0768443 -0.0779025 -0.062089 0.0292057 0.0184918 0.0505111 -0.0345734 0.0256462 -0.0687663 -0.013091 -0.0718907 0.0800277 0.0117227 -0.0158417 -0.0159958 0.109976 0.0141654 -0.0833437 -0.0103228 0.00618583 0.000217533 0.035327 0.0572493 -0.0300233 -0.0244014 0.0121806 -0.0486027 0.054339 -0.0667663 0.0823147 -0.0387984 -0.0902256 -0.0122313 -0.0300184 -0.000336908 -0.0909706 -0.0188718 -0.0701699 0.0225583 -0.0172221 0.039701 0.0371888 0.0125507 0.0556153 -0.0800311 -0.0931129 -0.101511 -0.0706688 0.0223229 -0.0557872 0.060826 0.0206159 0.0193701 0.0844325 0.00707759 0.0702212 -0.0583518 -0.0382427 0.0434264 -0.0142804 -0.0228671 0.0236862 0.00690818 -0.0598249 -0.0646795 -0.0555361 0.0827036 -0.0266153 0.00303178 0.0821681 0.0086381 0.0483595 -0.0437665 -0.0133662 -0.0473345 -0.0825327 0.0110378 -0.0500936 -0.0761235 0.0605649 0.0612201 -0.0550119 -0.0122123 -0.00228342 -0.0756058 -0.0545126 -0.0451817 0.0209396 -0.0685079 0.0113756 -0.0207281 0.0131382 -0.0288648 -0.0280886 0.103393 0.0157836 0.0904551 0.11601 0.130392 0.0495936 0.0145951 -0.0145255 -0.0666299 -0.070206 -0.00856573 -0.045239 0.0690967 -7.47046e-05 0.0685381 0.00690717 0.0217803 -0.0235922 -0.00671245 -0.0541776 -0.0306223 -0.0674586 0.0749388 0.0642113 -0.00196963 0.0214899 -0.0235678 0.0320178 0.072166 -0.0697558 -0.034433 -0.0314649 -0.011231 -0.0371725 -0.0771338 0.0245136 -0.0573226 0.00601315 -0.0646498 0.0422212 0.0878893 0.0189204 0.0601019 -0.0636992 0.0326906 -0.047678 -0.0729578 -0.0197608 0.0320844 -0.0410247 0.0736738 -0.0224244 -0.0224445 0.0328677 -0.0261236 -0.051791 -0.0718221 0.044244 0.0495191 0.0906384 0.0299627 -0.0442232 -0.0294383 -0.115299 -0.000480339 -0.0786881 -0.0741049 -0.00163014 0.0786835 0.0614198 0.0612462 -0.0758193 0.0699363 -0.0611575 0.00381756 0.0323173 -0.0346378 0.0651108 0.0586863 0.00120756 -0.0159734 0.00212722 -0.00980813 -0.0287149 -0.00725117 -0.088183 -0.115286 -0.0256513 -0.077171 -0.0532222 -0.0254517 0.0147816 -0.00174242 0.0126368 0.0594465 0.0687452 -0.0840936 -0.0140705 0.00768142 0.0581075 -0.0354943 0.030677 0.0789466 0.0612827 -0.0822186 -0.0883614 0.061311 -0.0752908 -0.0591819 -0.066974 -0.0943546 -0.107762 -0.0419735 0.0154995 0.012096 0.0365134 -0.134574 -0.0395322 -0.0718025 0.0474658 0.0427028 0.033698 0.0519547 -0.0308798 -0.0391557 -0.0542064 0.0209261 0.0495213 -0.00630409 -0.087706 -0.00671226 0.0302518 0.0806277 0.0301164 0.0357751 0.0562267 -0.00281316 -0.0101337 -0.0615408 0.0160026 0.0605161 0.0119069 0.0704346 -0.100822 0.0201147 0.0129588 -0.053322 0.0337947 -0.0801721 -0.0447087 -0.0233972 -0.0628038 0.0212294 -0.0666279 -0.0651165 0.060398 -0.0865597 -0.0842272 -0.0415548 0.0621266 0.0775335 -0.0777323 -0.0134261 0.0646183 0.0360369 0.0280023 -0.027776 0.0828725 -0.00488194 -0.0255338 0.0715199 -0.0634276 0.0419953 0.0805986 0.0304367 -0.0181577 -0.0114451 -0.0550888 0.0108775 0.0777118 0.0274953 -0.0442483 0.00966253 0.0372981 0.0329078 0.0781329 -0.0182078 0.0422478 0.0796047 -0.0763901 -0.046657 -0.0817918 0.0589887 -0.0244066 0.0209269 -0.0505559 -0.00169013 0.0105025 -0.0724264 -0.0187907 -0.0798624 -0.0842831 -0.0685486 -0.0801502 -0.0479705 0.0340039 0.0761486 0.00879628 -0.0828379 -0.079575 -0.0410665 -0.0371341 0.0689895 0.0673922 -0.00957044 -0.083024 0.0482443 0.00114493 0.00708197 0.0491021 -0.0879021 0.0234585 -0.0877019 -0.000845546 0.015518 0.0768465 -0.0680346 -0.00887021 -0.0704064 -0.0869364 -0.0832918 -0.0885216 -0.00190626 0.0562693 0.0123579 -0.0115103 -0.0198724 -0.0157758 0.0196728 -0.070963 0.0694735 0.0742597
-0.0686991 -0.0657631 0.0126459 0.00637886 -0.00871618 0.0552421 0.00219627 -0.0601053 0.0591304 -0.0661168 -0.0157116 0.0710698 -0.0102063 -0.0701718 0.0722046 -0.0628227 0.0240801 0.01322 0.0756952 0.0512636 0.00636044 0.0751083 0.0797458 -0.0320805 0.0700278 0.061365 0.0073254 -0.080052 -0.0558831 0.00595736 -0.00685294 -0.0703454 0.0580811 0.0630141 0.00752517 0.0160597 0.0240877 -0.0401386 -0.0182427 -0.0664509 -0.0279843 0.0710178 0.0345056 0.0125763 -0.0589167 -0.0337022 -0.0151812 0.0573594 0.0788316 0.0217651 -0.0810557 0.0704105 -0.0339143 0.0159225 0.0282049 -0.085536 -0.0345309 0.0652114 0.0634227 0.050431 -0.0699947 -0.0581864 0.0830525 -0.0512166 0.0194342 0.075992 0.0383739 0.0171288 -0.0339381 0.013487 -0.00122637 0.0624026 -0.0265457 -0.0621428 0.0288707 -0.0334762 0.0576533 0.0628884 0.082418 -0.0207404 -0.0718968 -0.068328 -0.0106733 -0.0717377 -0.0619051 -0.0318408 0.0797259 0.0178688 0.0582065 0.064534 -0.0402342 -0.00140465 0.0655817 -0.0749593 -0.0214634 -0.0729011 -0.0540122 -0.000749197 0.0711309 0.0332264 -0.0293304 0.0116939 0.0464968 0.0145431 0.040003 -0.00122758 -0.0298666 0.00459803 0.0511001 -0.0693906 0.0430547 0.0837705 -0.0212639 0.0107065 0.0711992 0.0520702 0.0455876 0.0676005 -0.0384137 -0.0762611 0.00117924 -0.0692652 0.0284377 0.0570027 0.0567343 0.0639762 -0.0130378 -0.043404 0.0550942 -0.0414055 -0.039027 -0.052592 0.00217838 -0.0698223 -0.0196761 0.056473 -0.0674252 -0.0510582 0.079228 -0.0392414 0.0633778 -0.0580169 -0.00648362 0.0308469 0.0752579 0.00996125 -0.00579531 0.0221938 0.00195799 -0.00592449 0.0111896 0.0532826 -0.0391029 -0.0376126 -0.0608037 0.0349326 -0.0121664 -0.069073 -0.0493705 0.0487221 -0.0890065 -0.0311563 0.0526829 0.0233408 -0.0786345 -0.00598092 0.00485139 0.0510251 0.0719493 -0.011957 -0.00930747 -0.0448753 -0.0687251 0.0203512 -0.0605152 0.0784412 -0.0268273 -0.0352178 0.010999 0.076551 -0.025249 0.0871192 0.0150318 -0.0650677 0.083859 -0.0528534 -0.0431076 0.0602804 0.0275506 -0.0439384 0.0647599 -0.0012809 0.00867689 -0.0800554 0.0119961 -0.0703053 0.0169828 -0.0156168 -0.0375581 0.0684209 0.0175617 -0.0515676 0.0700848 -0.0234861 0.0700696 0.0165414 -0.0356153 0.0648845 0.0418107 -0.0238578 -0.0657531 -0.0763631 0.00681768 -0.0167337 -0.0958232 -0.012724 -0.00276983 -0.0863197 0.0358807 0.052627 -0.0174639 -0.0127572 -0.0272152 0.051806 -0.0279384 -0.00571953 0.0600225 -0.0293893 0.0348849 0.0299529 0.0420862 -0.0309579 -0.0666987 0.0637256 0.0486856 0.0606874 -0.0127112 -0.051831 -0.0100613 0.036289 -0.00895641 -0.0704123 0.0385419 -0.0458539 0.00715215 -0.0245103 -0.0577532 -0.0749881 -0.0460809 0.0787323 0.0752701 0.0829008 -0.04984 -0.0423129 0.0352814 -0.0746985 0.0216321 0.0401508 0.00547678 -0.0573992 -0.0197958 0.0838219 -0.0519266 0.00996466 -0.0380534 0.0794443 0.0519599 -0.0283971 0.0605453 0.0688131 -0.0783821 -0.0247546 0.0200389 0.00244016 -0.0856292 0.0422967 0.00112363 0.0384911 -0.0136705 0.0840366 0.00341033 -0.0817817 -0.00909274 0.0188867 0.0821296 -0.00391307 -0.0621965 -0.0430884 0.0333206 0.0841254 -0.029169 -0.00595952 0.0552001 0.0234143 -0.0589438 0.0429339 0.0696335 0.0469462 0.0358524 0.0637519 0.063609 -0.0720302 0.0319388 0.0151613 0.048818 -0.0722932 -0.0870121 0.00523971 0.0787313 0.0473826 -0.0587353 0.0508785 0.00673757 0.0641861 0.0521079 -0.0636596 -0.0603868 -0.0616167 0.0877747 -0.0673118 -0.0813852 0.0372402 -0.000480165 -0.00654404 0.0248439 0.0660172 -0.0184233 -0.0184764 0.0772024 0.0687755 0.0660328 -0.0202287 -0.0469849 0.0801899 -0.0680411 -0.064035 -0.00480457 -0.00929538 0.0263652 0.0216716 -0.0543288 -0.0233239 0.0317491 -0.0236905 0.0654936 -0.0370805 0.0406797 0.067825 -0.0228199 -0.0083521 0.0579111 0.0521714 0.080877 0.0276525 0.0785171 -0.0267629 0.0623629 0.0545496 0.0260201 0.0821453 0.0400321 0.0034653 0.0123008 -0.0351892 0.0280353 0.00952955 -0.0295824 -0.0642298 -0.0252317 -0.0814201 -0.0134166 -0.0592258 0.0551606 0.0616604 -0.00747926 -0.0285275 0.00560274 0.0599054 0.00917856 -0.0376981 -0.00869472 -0.0758636 -0.0337634 0.0212047 0.0165075 -0.00845087 0.0857245 0.0293451 0.0716822 0.0414736 0.0431019 0.0590688 0.0254224 0.023556 0.0368648 0.0382907 -0.0541869 -0.0596382 0.00378636 0.0762374 0.071643 0.0154991 0.0577467 -0.0921638 -0.00071483 0.0358438 -0.0781807 0.0117225 -0.0139394 -0.0796459 -0.0558306 -0.0757772 -0.0411378 -0.0197016 -0.00158608 -0.00116062 -0.00707218 0.0293766 -0.0102614 0.00259211 0.0488991 0.0740508 0.0504822 -0.058759 -0.0393362 -0.0270854 -0.0527086 -0.0285738 -0.0489489 -0.0464932 -0.0512793 -0.0827378 0.020397 -0.0290929 0.0344635 0.014902 0.044946 0.0380571 -0.00778418 -0.0714398 -0.0602161 -0.0269713 0.0253652 -0.0367573 -0.0137423 -0.00724275 0.0587641 0.0641052 0.0586648 -0.0717317 -0.0151926 0.026296 -0.0803645 -0.0490165 -0.0440425 0.00689207 0.0203008 0.0173227 -0.00701457 -0.0872266 0.0739308 -0.0064207 -0.0839724 0.0710394 -0.0296324 -0.0344966 0.0498715 0.0648284 -0.0598412 0.0728727 0.0617924 0.0631558 0.078149 0.0618013 -0.0420008 0.0533943 -0.0796094 -0.063721 -0.0416858 0.061278 0.0315397 0.0134279 -0.0906363 -0.04532 -0.0774513 0.0481459 0.0223929 -0.0288582 0.0289374 -0.0796137 -0.066295 -0.0357732 0.0266022 -0.0720941 0.0318432 0.000312122 0.0293641 -0.0451473 -0.04282 0.0198003 -0.0525428 -0.0768288 0.0168564 0.0593294 -0.0824368 0.0273725 -0.0300426 -0.0150824 0.000113718 0.000813304 0.00259285 0.0505864 -0.0437739 0.00743412 0.0350815 0.0654986 0.0615268 -0.0353435 -0.0754013 -0.0288454 0.0797337 0.0084787 0.0214493 0.0428901 -0.0377736 -0.00817365 0.0637659 -0.00858902 0.0169123 0.0284644 -0.00184724 -0.0128406 0.0700553 0.0344028 0.0501543 -0.0277667 -0.0241429 -0.030001 -0.0527015 -0.0787613 0.0649081 0.0566819 0.0632881 0.0906871 0.0801657 -0.0845899 -0.0673116 -0.0250899 -0.0717845 0.0523156 0.00214265 0.0355255 -0.0651479 -0.0684957 0.0694259 -0.0220908 0.07683 0.0201995 0.0337051 0.0164064 0.0276569 -0.0491989 0.0398505 -0.0825771 0.0641174 -0.0529073 -0.0121647 -0.0285203 0.0572645 -0.056617 -0.0493771 -0.035987 -0.0604801 -0.0136807 -0.061823 -0.0491943 -0.035348 -0.0698053 0.0214988 0.0633626 0.0647662 0.0386963 -0.0126821 0.0843241 -0.0388395 -0.0612829 -0.0407841 -0.0777804 0.0547061 0.000481274 0.0646169 0.0826504 -0.0515652 0.0485252 0.0818165 -0.0490286 -0.0632063 -0.0731041 0.0405595 -0.0695095 0.0208691 -0.028898 0.0427374 0.0545942 -0.010319 0.0514349 0.00315339 -0.000638277 0.0833137 0.034895 -0.00194982 -0.0162015 0.0719616 -0.0299928 0.0176119 -0.0171057 -0.0464403 -0.0209094 0.0369574 -0.0745252 -0.00199229 -0.0778104 0.0754242 0.0540147 -0.0807308 -0.0524039 -0.0927621 -0.0645735 0.0359296 0.0195865 0.0400855 0.00299608 -0.0788188 -0.0779157 0.0353837 -0.0803954 -0.0353392 -0.0151686 0.0789046 -0.0126115 -0.0534798 -0.00719667 0.0326576 -0.0725963 -0.00376913 -0.0355148 -0.0849042 -0.0108483 0.0710561 -0.0399083 -0.0786599 -0.0395748 0.0105892 0.0561457 -0.073513 -0.082953 -0.0377209 -0.0550626 -0.0413316 0.0155742 -0.0540389 0.0310706 0.0491889 0.047442 0.02631 0.0283881 -0.052469 0.031292 -0.0720799 0.059672 0.0173962 -0.057404 -0.00795454 -0.0872313 -0.0868336 0.00778272 -0.0195532 -0.0340719 -0.0670206 -0.00240337 0.0373281 -0.0082047 0.0406528 -0.0706026 -0.0507033 -0.0524925 0.0184874 -0.016622 0.0192641 -0.0228731 0.0169588 0.00715519 0.0640928 -0.00428805 -0.0143143 0.0504095 0.0602749 0.00700788 0.0652181 -0.0869711 0.0449951 0.0637931 -0.00793732 -0.0795813 0.0705349 0.0123626 -0.0157487 1.9972e-05 -0.0156908 0.0261185 0.00276103 0.0323131 -0.0473282 0.0261152 -0.0610612 -0.0730422 -0.0475471 0.0220621 -0.0122189 -0.00707253 -0.0603473 -0.0397076 0.0193262 -0.0349064 -0.0796876 -0.0172493 0.0343987 -0.013273 -0.0198745 -0.0165041 -0.036826 -0.0308363 -0.0614725 -0.0227551 0.0413141 0.0819684 -0.0636384 -0.0362376 0.0315558 0.0648952 -0.0222824 -0.057682 0.0520715 -0.0678995 -0.0419829 -0.017591 0.0602259 0.0754417 0.0111108 -0.00769791 -0.00993666 -0.0654712 -0.0161738 0.0755715 0.066724 0.0326918 -0.0172253 -0.062107 -0.0169824 -0.0843585 -0.0321656 -0.0159195 -0.0872942 -0.00673534 -0.0367623 0.081856 0.0145791 0.0666909 -0.0315696 0.0821531 -0.00839509 -0.0823294 0.0386091 -0.0463754 -0.033737 -0.0118491 0.0724681 -0.0538185 0.0136105 0.0291517 0.0568371 -0.000301167 -0.0560568 -0.0092029
0.081885 -0.00463782 0.0512253 0.0662581 -0.0624134 -0.0737318 0.0268658 -0.0696633 0.0386646 -0.0663809 -0.0801795 0.00318585 -0.0728084 -0.0400943 0.000529449 -0.0855527 -0.0779443 -0.0209259 0.0433856 0.0593203 0.0282795 -0.079463 0.0826408 -0.0312239 0.0729442 -0.0489127 0.0788903 0.0489774 -0.00495673 0.00965296 -0.0377747 -0.0412023 0.0250946 0.0780605 0.0667904 -0.0151365 -0.0784912 -0.0629704 0.00954062 -0.0721661 -0.023309 -0.0265175 -0.0722089 0.07118 0.0472891 0.0641856 0.0523188 -0.00416584 -0.0282834 -0.0644976 0.0399095 0.0649456 0.00673976 -0.0231417 -0.0475275 -0.0422441 -0.0427344 0.0354602 -0.0147756 -0.0880576 0.0622597 0.0818133 -0.0254361 -0.0334253 -0.0797423 -0.0880283 -0.0505715 0.00211833 -0.0116211 -0.093415 0.0695776 -0.00372659 0.0732395 0.0795236 -0.0891263 0.0552285 -0.0147732 -0.0404246 0.0481749 0.0258202 -0.0757794 0.00531457 -0.00831507 0.0808759 -0.0519539 -0.0060762 0.0599281 -0.0639404 -0.0815513 -0.0600228 0.0474407 -0.0600624 0.0789593 -0.00263036 0.0355323 0.039338 0.0190302 0.00934824 0.0458535 0.0504456 -0.0928909 -0.0260992 0.00882213 -0.0724838 -0.0626285 0.0320962 -0.010389 0.0144311 -0.0201125 -0.0353475 -0.0167433 0.0473282 -0.0757712 -0.0319498 0.0659727 0.0631261 0.0685762 -0.0104362 -0.0220436 -0.0819212 0.0483555 -0.00642368 -0.0776372 -0.069271 -0.0479878 -0.0992285 0.0256992 -0.0658725 0.00965903 -0.0927869 -0.057866 0.0227624 -0.0825548 -0.043746 -0.0530639 0.0463678 0.0615676 -0.0653939 -0.0631091 0.0560855 -0.0537346 0.00742477 -0.0533111 -0.0781004 0.0584775 0.0653888 0.0492353 0.0780264 -0.0204567 -0.0941462 -0.0653137 -0.0833419 -0.0175695 -0.0772058 -0.0418358 0.0463584 -0.0416821 0.0519061 0.0293215 -0.074601 0.0578838 0.0152133 0.0432315 0.0222821 -0.0481025 -0.037763 -0.0212094 -0.0370562 0.0819091 -0.0372286 0.0493525 0.0297824 -0.0166054 -0.0214398 0.0598611 -0.0715203 0.0686683 0.0526684 -0.0420422 -0.0719831 0.00723863 -0.00495664 0.0501442 0.0615509 -0.0988308 -0.0224141 -0.0753274 0.0130851 -0.0136359 -0.0790505 0.0296385 -0.0243664 0.0439805 0.0206976 -0.0168409 0.00391465 -0.0431091 0.0571963 0.000186596 -0.00641063 0.0767576 -0.0112738 0.0347808 -0.0819806 -0.036003 -0.0694679 0.0450197 -0.0592271 -0.0090924 -0.0469288 -0.0254766 0.00155753 0.0124934 0.0400944 -0.00418409 -0.101084 -0.0488799 -0.0766766 0.0393091 0.0512358 0.0655906 -0.0299447 0.0765088 -0.039412 0.0407165 -0.00960392 -0.0833261 0.0367544 -0.0729698 -0.00401549 -0.0833434 0.0251103 -0.0670807 0.048569 0.0720443 -0.0678726 0.0392774 0.0933331 0.0291268 0.044271 0.0815474 -0.00157932 0.0921026 0.0830208 0.0649881 -0.100159 -0.0599414 0.0638115 0.0315276 0.0247761 0.0259164 -0.0320192 0.0180812 -0.00879424 -0.0558558 -0.0218204 -0.0269316 0.0744115 -0.0928054 -0.051776 -0.0397204 -0.0253519 0.0675436 0.064245 0.045478 0.0105687 0.0135091 0.115745 0.0713939 -0.0616931 0.0561147 0.0473814 0.0520546 -0.0351662 0.0437562 0.0511094 0.0492299 0.0758672 0.0396727 -0.0847241 -0.0764599 -0.0751785 -0.00305763 0.0578909 -0.0247995 -0.0787115 -0.0810796 0.0948467 -0.0504581 0.0307705 0.054502 0.0479051 -0.0257501 -0.0559715 0.0554947 0.0321529 0.00887268 -0.0789512 -0.0554498 0.0439758 -0.0105257 -0.00413582 0.0573668 0.0681138 -0.0603077 0.00559378 0.0708612 0.0121563 -0.0350337 -0.0640983 0.0683749 -0.0319955 -0.0244727 -0.0477562 0.0292044 0.0180899 0.0374704 0.0797963 0.0555786 0.0552219 -0.0526099 0.0503726 -0.0176099 0.0104105 -0.0147745 -0.0723384 0.00715107 0.0503878 0.0252984 -0.0426908 0.0589758 0.00696822 0.0094685 0.0236709 -0.076192 0.00902886 0.015936 -0.0716703 -0.0695304 -0.0739982 0.0104114 0.0729853 0.0264264 0.0769583 0.0952909 -0.0204399 0.059192 0.0267895 -0.0873216 -0.0165283 -0.0660509 -0.114844 0.0531347 0.0516721 -0.0188814 0.0303721 0.0372635 0.0664029 -0.0815219 -0.0487921 0.0317969 -0.0833898 -0.0443881 0.0259942 0.00704047 0.0453041 0.0824263 -0.0610588 0.00448305 0.031209 -0.00980991 -0.0616935 0.0965011 0.0692258 0.0239331 0.0352862 0.0465064 -0.0536325 0.0494176 0.013422 -0.0597555 -0.0568775 0.0450135 -0.0728058 -0.026734 0.0355089 -0.0804436 -0.00534279 -0.0172563 0.0225799 0.0324704 -0.0486203 0.0465482 -0.0832564 0.0502776 0.0774156 0.0526454 0.00404791 0.019448 0.00318048 0.0234788 0.0488863 -0.0313716 -0.028436 -0.0742902 0.0349301 -0.103228 -0.031531 -0.0802593 -0.0379101 0.0473621 -0.0170152 -0.00561713 0.000473966 0.0742626 -0.01206 -0.0779925 -0.0602961 -0.0479649 -0.0738043 -0.0812117 -0.0490147 -0.0751041 0.0233668 0.0532194 -0.0563477 -0.0489497 -0.00364563 0.00846582 0.0562846 -0.0826646 0.0265302 0.000166998 -0.0487434 -0.0922342 0.0355959 0.0117765 0.0108842 -0.0392911 0.0655333 0.00207104 -0.045067 -0.0126433 0.0689487 0.0850309 -0.0157967 -0.0518028 0.0158548 -0.076532 0.0684339 -0.0792209 -0.0353245 0.0277697 -0.0856908 -0.0667962 0.0534176 0.0544564 -0.0108331 0.00131304 -0.0819824 -0.0399612 0.0317704 -0.0571155 0.0759076 0.0347191 0.0534999 -0.0236511 0.0658856 -0.063525 -0.0110821 0.0374448 -0.0578694 0.0540732 0.00776451 -0.0339682 0.00423027 -0.0243628 -0.00319364 0.0184963 0.00198198 0.0756422 -0.0712084 0.00119474 0.0615783 -0.0589654 -0.0357151 -0.0525158 -0.00108544 -0.0592516 0.0582069 -0.0488292 0.045683 -0.07313 -0.0200578 0.0592894 -0.0517236 -0.0184283 -0.0766388 0.00233711 -0.0531333 -0.0221627 -0.0653219 0.0585502 -0.0312885 0.0520139 0.0173715 0.0479643 -0.00938827 0.0393708 -0.0518312 0.0548176 -0.0405205 0.0586916 0.0367799 0.0101845 0.0433859 0.00922672 0.00451814 0.0206432 -0.0544339 -0.0699644 0.055676 -0.00456276 0.0341971 0.00168255 -0.000223323 -0.00539523 0.0302051 0.041433 -0.0521238 -0.0769309 0.00933469 -0.0725245 -0.018279 -0.0726431 0.0654484 0.0412555 -0.0314428 -0.0426113 0.00154183 0.0183266 0.0232867 -0.0438667 -0.0375659 -0.0260305 -0.0907762 0.0639418 -0.0368589 0.0400722 -0.0586988 -0.0510826 -0.0416676 -0.0546097 -0.0779633 -0.0476271 0.0307915 -0.00117145 0.0345895 -0.0221327 -0.0541088 -0.0266473 0.0462983 -0.0703943 -0.0361811 -0.0788253 -0.07091 0.0366459 -0.019246 -0.0770158 -0.0758214 0.0478086 0.0277569 -0.0562893 0.0253101 0.0957003 -0.0619237 0.010703 0.0303985 -0.0730982 -0.0471642 -0.0584461 -0.0309361 -0.0310059 -0.0162784 -0.0550763 -0.0112551 -0.0723794 0.00890297 0.0569465 0.00443104 0.044108 0.0612716 -0.0496526 0.0177567 -0.0229824 -0.111221 0.015622 -0.0350114 -0.0455964 -0.0743143 0.0485107 0.0779711 0.0167218 0.0141998 -0.0689183 -0.085928 -0.0887677 0.0187297 -0.0204429 -0.0673454 0.0721431 -0.0889002 0.0666286 -0.0111096 0.0513077 0.00889916 0.0235533 -0.0675253 0.0320359 -0.0350978 -0.0307335 -0.0421264 -0.100565 -0.0823872 -0.0015588 0.0662339 -0.0578815 0.0922701 0.0817648 0.102462 -0.0219515 0.0491174 -0.0552103 0.058609 -0.0286343 -0.0997628 -0.0488759 0.0759153 0.0797722 -0.0810035 -0.0729251 0.0282995 -0.0202242 -0.0688246 -0.0474267 0.0763527 -0.0824998 0.0018122 -0.0704236 0.0221413 0.0430607 0.00248491 -0.00359004 0.0234138 0.00518461 0.0229127 0.00872828 0.053191 0.0127866 0.0595283 -0.0292437 -0.0070313 -0.0930164 -0.0231969 0.0690504 -0.086438 0.0224501 -0.0303307 0.0660565 0.0766488 0.0350254 -0.0714335 -0.0870626 -0.0565426 -0.0430342 0.0332284 -0.0271692 -0.0451378 0.0323721 0.0777294 -0.0503309 -0.0350108 0.0470931 0.0760843 0.0383258 0.0418229 -0.0785187 -0.0667501 0.0563932 -0.0784879 0.00259197 -0.0169659 0.070431 0.0334977 0.00104014 -0.0578266 0.0691812 -0.00348441 0.057499 -0.0811816 0.0465004 0.048462 -0.0234422 -0.0323251 -0.0560806 0.0282794 0.0124639 -0.035673 -0.0043949 0.0673408 0.0181526 -0.0205298 0.0795675 -0.0520901 -0.0650547 0.0550049 0.0132553 -0.0283484 -0.0669742 0.0452041 0.0808568 0.000594852 -0.0453092 -0.0341419 -0.0370565 -0.0203254 0.0681921 -0.0631119 -0.0685222 0.0413802 0.0711394 0.0648497 0.00620878 0.00847174 0.00648723 0.0526818 0.0515809 0.05731 -0.0596821 -0.00752726 -0.00287822 -0.0274327 0.0376275 -0.0555916 0.0600044 0.0450253 0.0291096 -0.0390963 0.0528929 -0.00646549 0.0404917 -0.0140087 -0.0401897 0.0485463 -0.0639608 0.0361843 -0.0507012 0.0407485 0.0335253 0.0629198 -0.049652 -0.0243383 0.0567373 0.0295444 0.0227266 -0.036738 0.0032652 0.0657132 0.0297794 0.0321134 -0.0452889 0.0655416 -0.0780585 -0.0609018 0.0532988 -0.0283374 0.0588715 0.0297821 0.019254 -0.0489621 0.0312021 -0.0782112 -0.0690419 -0.0752393
0.0551411 0.00252572 0.0691856 -0.0787435 -0.0810657 -0.0279062 -0.0273774 0.015398 -0.0610273 -0.0714452 0.0551555 -0.0168311 0.0407465 -0.0812106 -0.0390946 -0.0276745 0.0359777 -0.058334 -0.082691 0.0113554 -0.0674758 0.051556 -0.0175395 -0.0323217 0.0809479 0.0606433 -0.0814558 0.0698758 -0.0220573 0.0462834 -0.0640569 0.0630049 0.0549843 -0.0739669 0.015251 0.0238647 0.0227539 -0.0607732 -0.0128513 0.037193 -0.0149862 -0.0119005 0.0555547 0.0294176 -0.00166538 0.0837628 -0.0477199 0.0565111 -0.0329645 0.024312 -0.0629119 0.0581943 -0.0189235 -0.0719715 0.0107341 -0.0421442 -0.0372226 -0.0394183 -0.0782987 0.0749707 0.076748 -0.0403153 0.0525344 0.0100721 0.0873528 -0.0217891 0.0368435 0.0445129 -0.0712284 -0.012861 -0.0456379 0.0680805 0.00400409 -0.0495637 0.0496762 -0.034496 -0.0440447 0.0559361 0.0276142 -0.0627388 -0.083198 0.0313376 0.0225018 -0.0373287 0.0387274 0.0166182 -0.0815352 0.0446431 0.0809692 0.0362902 0.0292076 -0.0718677 0.0781624 0.0119194 0.0620268 0.0677508 -0.00946332 -0.0761201 0.0452996 -0.0276841 -0.0694167 0.00615432 -0.0218911 -0.00761175 -0.0235986 -0.0544665 -0.0771627 0.0250591 -0.00447705 -0.0705971 0.0506801 0.0139833 -0.0476889 0.0706004 0.00189013 0.0739065 -0.0815596 -0.00688432 -0.0663372 -0.0161208 0.0818051 -0.0278069 0.0753863 -0.00598396 0.0806402 -0.0509862 -0.00312966 0.0456765 0.0157816 0.0199015 0.0589245 0.0774299 0.083761 0.0741334 -0.039238 -0.0773375 -0.0056337 0.00862218 0.0567591 0.0830098 0.0348842 0.0605411 -0.00792232 0.00929184 -0.0762094 0.0635552 0.0863152 0.072135 -0.0615413 0.0352674 -0.0173252 0.0336704 -0.0500059 -0.0461902 -0.0518654 -0.017573 0.0101366 -0.044019 -0.0662031 -0.0176003 0.0696388 0.027088 -0.0354214 -0.0393957 -0.027744 -0.00835261 -0.0386178 -0.0245075 -0.0263576 0.0634131 0.0794803 0.0486158 0.0304111 -0.0182097 0.0589857 0.0499275 -0.0839223 -0.0799683 -0.0561003 0.0569734 -0.0839775 0.0724377 -0.0617112 0.0226166 -0.0585199 0.0331547 0.00688268 -0.0617207 -0.0723925 0.0381246 -0.045356 -0.0688759 -0.0202916 0.0110599 -0.0307333 0.03569 -0.0633386 0.0140394 0.0145832 -0.0603902 -0.0363921 0.00559762 0.0462682 -0.00491615 0.015283 -0.0815324 0.0512188 0.0613193 -0.0192868 -0.0207742 -0.00126802 0.0129125 -0.0449532 0.0551079 -0.00161038 0.0256315 -0.0369888 0.00431915 -0.0548418 0.0578327 -0.0350562 0.00990853 -0.0235025 -0.049192 0.0363089 0.0522062 0.0699092 0.0840511 0.0425692 0.0491769 -0.00479253 0.0393853 0.0593384 0.0576678 -0.0331676 -0.0648888 0.0153906 -0.0100756 0.00840387 -0.00259423 -0.0443321 0.0746427 -0.0579059 -0.0277973 -0.073288 -0.063084 0.00907164 -0.016757 0.0792584 0.0688828 -0.0032435 0.0763134 -0.0198974 0.0725121 0.0690414 0.0557053 -0.0339767 -0.0274503 0.0604555 -0.0499067 -0.000704833 -0.0811715 0.0130884 0.0861548 0.0470046 -0.0315976 -0.0118383 -0.0370149 0.036094 0.057036 -0.0409687 0.0129283 0.0590231 0.0393231 -0.0141554 -0.0628108 -0.020102 -0.031029 -0.0822075 -0.0550322 -0.0416954 -0.0409119 0.0572016 0.063627 0.0305629 -0.0360554 0.0417478 -0.0705034 -0.0745914 -0.0368038 -0.0526733 -0.0345462 0.0263314 -0.0175471 -0.0302811 0.0508858 0.0435406 -0.0502678 0.059384 0.0200969 -0.0710883 0.0662332 0.00131008 -0.0626144 -0.0767938 -0.0125291 0.068495 -0.0823738 -0.0646839 -0.0543933 -0.0190958 0.0256981 0.0340943 -0.0818961 0.0347247 -0.0600615 -0.0657929 0.0545114 -0.0542824 -0.0032441 -0.0585723 -0.0318025 -0.0464824 0.0161304 0.0114462 0.0436196 0.0505055 0.0179282 0.0808651 0.0255065 0.0157548 0.0393165 -0.057526 0.0506226 0.0100014 0.0540629 -0.0233752 0.0744426 0.0495277 0.071084 -0.0571106 -0.0434119 -0.0734467 0.00352195 0.0755723 -0.0218924 -0.0578224 -0.0476393 0.0762999 0.00383124 0.0629205 -0.0378453 -0.0331643 0.00778057 -0.0700646 -0.0613086 0.00273256 0.00522315 0.0268759 0.063729 0.0269644 0.0754177 -0.0665617 0.0467374 -0.0547865 0.0728274 -0.0188631 0.0212552 -0.0287554 -0.0501735 -0.0836882 -0.0753831 0.00682626 0.0427369 0.0454879 0.0573575 0.0260619 -0.0770371 0.0183541 -0.0101362 -0.00283921 -0.0106975 0.0121886 -0.0859757 -0.0426151 0.0833962 -0.0341279 0.0675979 -0.0510337 0.00896707 -0.0586541 0.01293 0.0571779 0.0548628 -0.0614389 0.0649972 0.0772787 -0.0568964 -0.016378 -0.0478415 0.0556388 -0.0318022 -0.0706718 -0.0366756 0.0106439 -0.0860518 -0.0539697 -0.00456857 -0.075054 0.0326308 0.0754584 0.0328836 -0.00928073 0.0733396 0.0809071 -0.0592397 0.00273805 -0.0633364 -0.0556736 -0.00479222 -0.0498812 -0.0157367 0.028853 0.0712202 0.0887069 -0.000425284 -0.0214978 0.0518658 0.0775491 -0.0147501 -0.0553594 0.0380581 0.0629674 0.0121174 -0.0186355 0.00399775 -0.0851507 -0.0464844 -0.0144183 -0.00383944 -0.058119 -0.0488765 -0.0303665 0.061918 -0.0674011 -0.00502755 0.00281741 0.0858856 0.0139874 0.0701542 -0.0839732 -0.00936653 -0.0151496 -0.0813234 -0.0705259 -0.0842117 -0.0393934 0.0182852 0.0185358 -0.0284204 0.00125652 -0.0429185 -0.0827089 -0.0239535 -0.0523151 -0.00337776 0.0783083 0.0785512 0.0410359 -0.0207194 0.00828642 -0.0409865 0.0304059 0.0240349 -0.0700434 -0.0805966 -0.0306528 -0.0728535 -0.0454931 0.025727 0.0159695 -0.0569784 0.0586046 -0.0725377 -0.0773825 0.0728125 -0.0435074 -0.0516399 0.0102077 -0.038699 -0.0073121 0.0430645 0.076898 -0.067825 -0.0402258 0.0783962 -0.0553928 -0.0518494 0.0533527 0.053236 0.0227553 -0.0780658 0.0387166 0.0369587 0.0452467 0.045059 -0.0674775 0.0533325 0.0384309 0.0541848 -0.00716617 0.036669 0.036805 -0.0530621 0.0747974 0.052421 -0.00841901 -0.00885374 0.055041 0.0600305 -0.0128173 0.0450424 0.0094296 -0.0379639 -0.000825332 0.0380108 0.0113673 -0.0683432 0.0710509 -0.0262988 0.0366476 0.0777634 -0.0291803 0.0244924 0.00886959 -0.0514576 0.0379796 -0.00138926 0.0441322 -0.0733673 0.0188517 -0.0437794 0.073547 0.0117463 -0.0434884 -0.0114652 -0.0451386 -0.0287314 0.0392844 -0.0296718 0.0409866 0.033987 0.0295853 0.0127426 0.0887143 -0.055457 0.0558868 -0.0290238 -0.018781 0.0753097 -0.0568885 -0.0114345 -0.034844 -0.0287729 -0.0756557 0.0684606 0.0554745 -0.0484417 -0.0296004 -0.0260551 -0.0191856 0.0701261 -0.0330914 -0.066187 -0.0429193 -0.0200226 -0.00625911 0.00437743 0.0860992 0.0370864 -0.0248062 0.0362196 -0.0708478 -0.0599421 0.0592737 0.013749 0.076614 0.0712063 0.0177104 -0.0683742 -0.038461 -0.0600959 0.0547296 -0.0550282 0.0481633 -0.0365407 0.0629386 0.0112436 0.0287589 0.0136351 -0.0702745 0.0232323 -0.0574759 -0.0414099 0.00283362 -0.0100126 0.0518917 -0.0472815 -0.022503 0.0323815 0.0756857 0.0245912 -0.00444059 -0.0781981 -0.0259676 0.0808932 0.0371775 0.0422327 -0.0770662 -0.00314236 -0.0451525 0.0281018 -0.0511571 0.080759 -0.0788114 -0.0658141 7.54158e-05 0.000209228 -0.0119463 0.048593 0.0543982 -0.0314142 0.0515788 0.0740198 0.0212013 0.0510857 0.0259554 0.0840416 0.00357816 0.0546043 0.0542253 -0.0338374 0.0725779 -0.0651112 0.0405688 -0.0415962 0.072562 -0.0661257 -0.079023 0.0344027 0.0199791 -0.0319711 -0.00762522 -0.0268703 -0.0820711 -0.0516912 -0.0395666 0.00375013 -0.05885 -0.0675882 0.0577094 -0.0612199 0.0628293 0.0744859 -0.0758868 0.0408662 0.0787745 -0.0519194 0.0275762 0.0397966 -0.0830467 -0.0420966 0.0247103 -0.0402058 -0.0633902 -0.0265357 -0.0611685 -0.0832315 -0.0345549 0.00719395 0.0353935 -0.0355184 -0.00137164 0.085194 0.0337844 0.0498357 -0.0432203 0.0111212 -0.0812756 0.0421224 0.00731358 -0.0495112 0.0497003 0.0693205 -0.0453756 0.000452689 0.0327419 -0.0627108 0.0410799 -0.0702133 0.0356804 -0.0722219 0.0369431 -0.0300656 0.0403114 0.0473017 -0.00931147 -0.0652083 0.0571278 0.0480576 0.0743986 -0.0163009 -0.0554964 0.0690422 0.0406789 -0.0612052 -0.0190514 0.0250383 0.00277612 -0.0481255 0.0321319 -0.0242624 -0.00351664 -0.079335 -0.0210906 0.0689431 0.0884087 0.0667092 -0.00876912 0.0680764 0.0277636 0.0145046 0.0568008 0.0190257 0.0155869 0.011308 -0.031332 0.0454436 0.089076 0.0200937 -0.0327633 -0.0512998 -0.0541866 0.0249509 -0.0156812 0.0653354 0.0514642 0.0593134 -0.0118279 0.0644021 0.0401087 -0.0543454 -0.0334594 -0.0806604 -0.0351766 0.0353743 0.0341587 0.0325266 -0.0224914 0.0271416 -0.068736 -0.00951316 0.0749503 -0.0699456 0.00948642 -0.011884 -0.0264283 0.0540831 0.0789404 0.0431337 -0.0565373 -0.0504008 0.0260621 0.0850375 0.0662177 0.00983953 0.0300397 0.0174875 0.00838582 0.0461093 0.000896408 -0.034326 0.0650438 -0.0453498
0.0616589 0.0782164 -0.0679862 -0.032002 0.0467714 -0.00324754 0.0281263 -0.074551 0.0734782 0.0372759 -0.0853673 0.0276817 0.00208887 0.000554576 -0.0246636 0.0583886 0.000408893 0.0606821 0.0205383 -0.0902703 0.0395908 -0.0374901 0.0484162 0.0437833 0.0380681 -0.0599649 -0.0341864 -0.047337 -0.0150515 0.0738573 -0.0559736 -0.0200941 -0.0789587 -0.00466347 -0.0592221 -0.00693674 0.022732 0.0281339 -0.0116072 -0.0589904 -0.0396722 0.0163327 -0.0884748 -0.0805813 -0.083794 0.0723062 0.0549196 0.00965525 -0.0526419 -0.0829203 -0.00535704 -0.00239063 -0.0104687 -0.0547021 -0.0507496 -0.0805814 0.0183984 0.0572703 0.0404614 -0.0732603 -0.023504 0.0784345 -0.0460601 -0.0254731 0.0558053 0.079348 -0.0203707 -0.0861888 -0.0486625 -0.0206935 -0.0034134 -0.07688 0.0229447 -0.0202183 0.04205 -0.0274423 0.0764819 -0.042264 -0.0896468 0.00325806 -0.0279945 0.00198508 0.0619137 -0.00262083 -0.0739016 -0.0193137 -0.0374176 -0.035346 0.018641 0.0383915 0.0502132 -0.0190946 0.0243875 -0.0303041 0.0351877 -0.0411188 -0.0811504 -0.0336501 -0.0259012 0.0559904 -0.0478379 -0.0943662 0.0378965 0.0287034 0.0791501 0.0783633 -0.0327724 -0.0767459 -0.0847648 -0.0859719 0.0218962 -0.00209756 0.0593947 0.0516172 -0.0443485 -0.03026 -0.0311198 -0.0286001 0.0736129 0.0488438 -0.058042 0.0643978 0.00727132 -0.0718999 0.0223405 -0.0438411 0.073234 0.00636229 -0.0607702 0.0202203 0.0118847 0.0872853 0.0573195 -0.0518499 0.00985599 0.000168011 0.0729165 0.0655657 -0.0328509 -0.0217097 -0.00549213 -0.0522977 0.00359693 -0.043278 0.0628727 -0.0492383 -0.0444004 -0.050166 -0.0821787 -0.078006 -0.0204697 -0.0478055 0.0380376 -0.0203117 -0.00743299 -0.0533796 -0.0515593 0.0892666 0.0835676 -0.0398049 0.0100708 0.086813 0.0697212 -0.061602 0.0580125 -0.0488638 -0.0644169 -0.0344185 0.0231354 0.0138992 -0.0897223 -0.0531817 0.0531655 0.0321629 0.0329956 0.0255756 0.0654992 0.0773422 -0.0759232 -0.0774661 -0.0606069 0.0700438 -0.00792607 -0.0251587 0.0739597 0.0654484 -0.0273552 0.0335087 -0.0494654 0.0259784 0.0933914 -0.0172885 -0.0812392 -0.0624769 0.0160531 -0.0130305 0.00470626 -0.00010279 -0.0266323 -0.0446222 -0.0744094 -0.074522 -0.0689599 0.0461527 0.0357954 -0.00827323 0.0162528 -0.027618 0.0216904 0.0318882 -0.0784099 -0.054079 0.0496832 0.106082 0.0174872 0.0310042 0.0554087 -0.0601421 -0.0322188 0.0333153 0.0265239 0.0260736 -0.0850969 0.00559755 -0.0658779 -0.0659229 -0.0857622 -0.00962823 -0.0463899 0.0555047 0.042877 0.0424023 -0.0234201 0.0735568 -0.00517842 -0.0631915 0.0426224 0.0496811 -0.0230063 0.0879605 -0.00259984 0.0525582 0.00242549 -0.00343232 0.0946189 0.0919702 0.0138607 -0.0630191 -0.019762 0.0189497 -0.0842786 0.0786684 0.0303276 -0.00210269 -0.0831373 -0.0172128 -0.0367577 0.0558407 -0.00331313 -0.0687151 -0.0193792 0.034366 0.0708461 -0.0765098 0.0131414 0.0373557 0.0246523 0.00669434 -0.0634414 0.0517683 0.0493496 0.00198839 -0.0657189 0.0148725 -0.0545273 -0.0850837 0.0132185 0.00118205 0.0724086 -0.028966 0.0655694 0.015458 -0.0211251 0.0724368 0.0777411 0.0144369 0.0729519 -0.0730354 0.00813262 0.045809 0.0521972 -0.0288196 -0.0519957 0.0018485 0.00440359 -0.0566768 0.0320006 0.0681702 -0.0146714 -0.0206362 -0.0384306 -0.0599957 0.0138404 0.0475005 0.0380651 -0.0399997 0.0370468 0.0405238 0.0803414 -0.0626068 -0.0564202 -0.034897 -0.0720836 0.0147854 -0.0810034 0.00804409 0.0541265 -0.0213497 0.0809054 0.0681866 0.0113996 -0.019033 0.0608385 -0.0212011 -0.0694793 0.0397856 -0.0754875 -0.0841576 0.0558814 -0.0235623 0.0308436 0.0630166 -0.0467282 0.0716567 0.0646209 0.0390478 -0.042764 -0.0005839 0.0455578 -0.0236549 -0.0366392 0.0263936 0.0133218 0.00163089 0.0708784 0.0276114 0.0761836 0.0452162 -0.0274101 0.0269141 -0.0712716 0.0133836 0.0360701 0.014208 -0.0463106 -0.0687864 0.0212972 -0.0442261 -0.00394747 -0.0851965 0.0813608 0.0766934 -0.0375189 0.034215 0.0496751 -0.0538064 0.0425067 0.025851 0.0591815 0.0265766 0.0397578 -0.025453 -0.070613 -0.0151312 0.0638498 -0.0410358 0.0827183 0.0541061 -0.0445267 -0.0717587 -0.0277836 0.0276748 0.00275253 0.0691728 -0.00514314 -0.0424518 0.0419671 -0.0755471 -0.0758259 -0.0865069 0.0458838 -0.0457722 -0.0454952 0.0620476 -0.0890283 -0.00597109 -0.0256766 0.0600366 0.0362554 0.04178 -0.0217036 -0.0390685 -0.0310995 -0.00624137 0.0316026 -0.0518483 -0.0795195 0.0580555 -0.00440021 -0.0785698 -0.0317107 -0.0474392 0.0645416 -0.0119961 0.0352649 0.0265626 -0.0265429 0.0281503 -0.0524976 -3.33886e-05 0.0317114 -0.0220564 -0.00419597 0.0552168 0.0780178 -0.0316387 0.0609051 -0.0585801 -0.0147537 0.0663372 0.00352595 -0.0519693 -0.0508846 -0.0713025 -0.00542568 -0.0133363 0.037284 -0.0435341 -0.0682593 -0.00455548 0.0473012 0.0278529 -0.0299799 0.0149066 0.0545313 -0.0591452 -0.00840532 0.0627052 0.0261733 0.049741 -0.0681241 0.0281056 0.0364327 0.0368197 0.0477296 -0.0501718 0.0296468 0.0521102 -0.0120531 0.0212847 0.0516676 -0.0362844 -0.0599731 -0.0840165 0.00763575 -0.0517223 0.0171117 -0.0299068 0.0477372 -0.0244753 0.0640509 -0.0774607 -0.091388 -0.0484668 -0.0882008 -0.0627803 0.0609863 0.0400404 0.0745602 0.0796592 -0.0434961 0.0865326 -0.00120333 0.0489289 0.0366568 -0.061853 -0.0387781 -0.0152326 0.0715841 0.0624086 -0.0805838 -0.0958072 -0.0352796 -0.0147517 -0.0692747 -0.00189178 -0.0433865 0.0700821 0.0301195 -0.0567466 -0.0677744 -0.0628789 0.0703452 0.0509669 -0.0772574 -0.0765902 0.00943081 -0.0651789 -0.0856418 -0.0287428 0.00750714 -0.0644877 -0.00498236 0.0762147 -0.00730246 0.0413113 0.0305406 0.0142265 0.00883382 -0.0548863 0.0360833 0.0848044 -0.0533633 -0.00897457 -0.0622648 0.0480349 0.0570407 0.0239946 0.0112763 -0.090772 -0.0113554 -0.0662504 0.0394947 0.0499084 0.0526923 0.0356836 0.0413415 -0.0465655 -0.0399512 0.033583 0.0426162 -0.0122816 0.0440469 -0.0917767 -0.00119419 -0.056421 0.0419183 0.0137725 -0.0766124 -0.0726048 0.0665573 -0.0336266 0.0297963 0.0337862 -0.00727006 -0.0636761 -0.0425418 -0.046487 0.0649723 -0.0473162 0.0772244 -0.0768237 -0.00856931 0.00599448 0.070551 -0.0749916 0.0394125 -0.0639451 0.0800454 0.0581028 -0.0229178 0.0169165 -0.0272184 -0.0753516 0.0400386 -0.007515 0.058688 -0.078293 0.00121329 -0.0683996 -0.0754737 -0.0879132 -0.0280058 -0.0901165 0.0538985 0.0578579 -0.0149609 -0.0626171 0.0378227 -0.0686714 -0.0091316 0.0767449 -0.0472912 0.0645028 -0.0713037 0.00817707 -0.00990012 -0.00427999 0.0907045 -0.0400767 0.0535596 -0.0381056 0.029686 0.0144148 0.0367649 0.0047009 -0.00593274 -0.088857 -0.0391108 0.0562024 -0.0495695 0.0566532 0.0784779 0.0720933 0.00205195 -0.0379309 0.037367 -0.0252418 -0.0289996 -0.0265396 -0.0172911 0.0500348 -0.0847766 0.0930499 0.104545 0.0742972 0.0784004 -0.0378081 -0.0352253 0.0397235 0.0670041 0.0863237 -0.00674116 -0.0217885 0.0416074 0.0290771 0.0812103 -0.00397532 -0.01253 0.0551853 0.0479433 0.0512529 0.0401694 0.0311557 -0.0119123 0.0713795 -0.0454843 0.00620794 0.00659774 -0.0211476 -0.00181003 0.0165764 0.0121026 0.0813925 -0.0334658 0.0319852 0.0332515 -0.0695154 -0.0251401 -0.0205457 0.0319363 0.0167724 -0.0394496 0.00304746 -0.00592139 0.0118645 0.0668403 -0.0169846 -0.069023 -0.00746196 -0.0277032 0.0586672 0.0335553 0.0517519 0.0164513 0.0670023 0.0711423 -0.0547011 0.0562266 0.0197881 -0.00104412 0.00457762 0.023423 -0.065273 -0.00475851 0.0277226 -0.0650149 -0.0341882 -0.0873304 0.00382025 -0.0597659 -0.0500015 -0.0812738 0.0697288 0.0736665 0.0584331 -0.020982 0.0179586 0.0615566 -0.0439963 -0.000254212 0.0648869 -0.0756988 0.0757685 -0.0756764 0.0782768 0.0475704 -0.0868557 -0.0900786 0.0159692 -0.0762936 -0.0601662 -0.056141 -0.0781503 -0.0862127 -0.0915672 -0.0612105 0.0382942 -0.0264144 -0.0752727 -0.0234922 0.0504411 0.0756899 0.0687373 0.055722 0.0261861 -0.0750777 -0.0888899 -0.0771498 -0.012782 0.0109674 0.0566428 0.0163635 0.0515481 0.0447995 -0.0499305 -0.0177253 -0.0131414 0.0234908 0.0309684 0.03527 -0.0479825 -0.0504434 0.00700289 0.0547826 -0.0330637 -0.0474982 -0.017653 0.0108717 -0.0780748 0.0192807 0.0653424 0.0538863 0.0658755 0.066186 0.040371 0.0513106 0.00810325 -0.0764056 0.0398697 0.062326 0.00825327 0.0318334 0.0332951 0.00520453 0.0689758 -0.00622835 0.0323199 0.0366224 -0.00143067 -0.0506021 0.0703666 -0.0684533 -0.082496 0.0156648 -0.0362159 0.0679601 -0.0457385 0.0333166 0.0536352 -0.03212 -0.0799306 -0.0790972 0.0453677
