0.18644 -0.226886 -0.0799143 0.107644 0.123093 -0.209687 0.0863268 0.0560157 -0.0105398 0.200076 0.157436 0.120892 -0.160298 -0.0067867 -0.109925 -0.14132 0.176773 0.0909594 -0.120064 0.0535353 0.176086 0.018069 -0.0895315 -0.115839 0.231683 0.111199 0.246277 0.147643 0.149414 -0.0953789 -0.0465026 0.119359 0.0560155 0.0853317 0.190748 0.182822 0.0121093 0.0850805 -0.00642619 -0.325007 -0.0470302 -0.00654769 0.10706 -0.0592888 0.160215 -0.111179 -0.158001 -0.172949 -0.0863854 0.0230515 0.00680892 -0.0647188 -0.169006 -0.18738 0.00788017 0.0684389 -0.142015 0.0841772 -0.000740651 0.134712 0.198205 -0.0193205 -0.156104 -0.231063 0.17536 -0.157291 0.1751 0.152718 -0.0812371 0.178448 -0.0740979 0.254656 -0.0126681 0.172778 0.142195 -0.0022936 0.0439166 0.157662 -0.17315 0.0870626 -0.167519 0.211208 0.202385 0.0726141 -0.136346 0.200093 -0.137315 0.100038 -0.0959586 0.246427 -0.181113 -0.0188978 -0.0594982 0.243329 -0.0846943 0.152833 -0.18323 0.13686 0.0256974 -0.131847 -0.108276 0.0398002 -0.287907 -0.112603 -0.148585 -0.0745305 0.228985 0.053975 -0.213786 0.137207 -0.0253543 -0.171284 0.179568 0.100609 -0.146584 0.169116 0.114804 0.179836 -0.0229279 0.0642509 -0.0638396 0.00275225 -0.00902103 0.0273219 0.0133164 -0.00979246 -0.128642 0.121077
0.112422 -0.214654 -0.113734 0.159876 -0.342738 0.0183924 -0.125209 -0.208992 0.21749 0.224198 -0.000864458 -0.05213 -0.0717233 0.138904 -0.112406 0.091021 0.0331476 0.110124 0.0463479 0.156577 -0.178352 0.257456 0.0779037 -0.00134155 -0.154118 -0.0629699 -0.0491715 -0.0966883 -0.0241093 -0.000493926 -0.145393 -0.193376 0.19856 0.0298537 -0.217525 -0.032209 -0.118997 0.285071 0.137042 0.104905 0.083798 0.137249 -0.284325 0.176286 0.180483 0.00752342 0.0266539 0.0123439 0.244921 -0.277673 0.197701 0.109379 -0.0382254 -0.0452892 0.0845966 -0.100143 0.132267 0.293179 0.103125 -0.201537 0.0478425 0.12586 0.103132 -0.0475703 0.242562 -0.0570118 0.0677697 0.208003 0.0340291 0.297919 -0.0593975 0.16727 0.0234808 -0.143628 0.147499 0.0812001 -0.145313 -0.198344 0.130716 0.114079 -0.196687 0.0482076 0.203216 0.0778175 -0.136675 -0.131603 0.140722 0.0919956 0.173695 0.00904393 -0.104636 0.0401273 0.140196 0.134599 -0.112677 -0.102887 -0.0480651 -0.116507 0.067416 0.152514 -0.098086 -0.162951 -0.227898 -0.0840155 -0.163829 -0.0190847 0.0082698 -0.045954 -0.223937 0.0974708 -0.0786683 -0.0733845 -0.0755323 -0.10965 -0.0968637 -0.00887544 0.177714 0.118419 -0.161255 0.0633571 -0.120688 0.140107 -0.101024 0.129512 -0.139071 -0.047766 0.131801 -0.152214
0.191015 -0.0211855 0.122483 -0.169442 0.0603363 0.059906 -0.217019 -0.2309 0.0538755 0.282245 -0.239738 -0.152226 0.0663178 0.192669 -0.166845 0.10552 0.331069 0.134071 -0.144868 -0.0816434 -0.171862 0.0238643 -0.226727 0.21101 -0.00173838 0.0981337 0.0883018 -0.173375 0.0673957 0.0730804 0.0627125 0.115868 -0.0134066 -0.0439509 -0.0594362 0.0673134 0.00715107 0.2265 0.361658 0.119382 0.0931522 0.0501803 0.0982867 -0.162702 -0.042198 0.300164 0.0730765 0.216633 0.0736019 0.0561618 0.260695 0.0317098 -0.145367 0.0496698 0.229766 0.0972068 -0.00836439 0.149549 -0.198635 0.149359 -0.254518 0.175292 0.115508 0.313071 0.172266 0.0517324 0.197862 0.194248 -0.0774795 -0.162697 -0.012634 0.0217569 0.0611027 0.0604623 0.0250745 0.0653785 0.00377718 -0.210133 0.0530568 -0.147929 0.170338 -0.0453545 0.257522 0.103629 -0.1021 -0.115018 0.208027 -0.00660933 -0.00551995 -0.112962 0.0455477 0.118038 -0.153476 -0.166531 0.0452784 0.286157 -0.0929485 -0.0988111 -0.11421 0.0474449 0.0308555 0.0674192 0.225328 -0.0831437 -0.0556443 0.091098 -0.13238 0.198446 0.265639 -0.25045 0.344657 0.120255 -0.207094 0.171304 -0.0725761 -0.0522715 -0.0172944 0.272026 0.24084 0.140681 -0.11985 0.328715 0.182761 0.0498493 0.139213 0.118369 0.0277043 0.0617811
0.00817302 0.110433 -0.118747 -0.0583079 0.158081 -0.0549988 -0.0340886 -0.157983 -0.0494938 0.115811 -0.0719129 0.0351902 -0.0594222 0.086586 -0.0595118 0.0908539 -0.117074 0.157922 -0.0475629 -0.129306 0.0428335 0.142053 0.0432281 -0.103499 -0.112032 -0.16986 0.0431505 -0.142021 -0.0982034 0.174908 0.0980001 -0.15545 -0.045453 0.104793 -0.0302792 -0.170697 0.130224 -0.118348 0.137888 -0.155133 -0.0122112 -0.166491 0.0523013 -0.0485774 -0.0907632 -0.0297848 0.00924372 0.0114371 0.141756 -0.0118345 -0.0738898 0.0364122 -0.0885075 -0.135768 -0.0884119 0.007232 0.0851054 -0.0467885 0.0709268 -0.0700524 -0.0210078 -0.101588 -0.105459 0.171881 -0.0269256 -0.123716 0.129203 -0.00746869 0.00693149 0.0130542 -0.151958 -0.148823 -0.106624 -0.00584879 -0.00166671 -0.124057 0.0013158 -0.138388 0.0937259 0.112111 0.0578727 -0.0382249 -0.123524 -0.116508 -0.0202493 0.107036 -0.0444458 0.131568 0.153504 -0.104797 -0.022488 -0.121426 -0.148856 0.11767 -0.00621539 -0.0721328 0.0548106 -0.0799217 0.091308 0.074652 0.0210529 -0.0815407 -0.144878 0.121684 -0.164427 0.0826671 -0.115445 -0.148 -0.0763403 0.0065014 0.0338114 0.0464916 0.00107542 0.104181 0.0418348 0.00067577 0.0448318 -0.163054 0.160665 0.00175432 0.04735 -0.0768796 0.122798 -0.150458 -0.117346 -0.0016496 0.124241 0.135343
0.0337009 0.134892 0.130291 0.158462 -0.00942092 0.220686 -0.0208382 0.0322904 0.0635617 0.0986646 -0.191204 -0.0745894 0.0797462 0.0159026 -0.142888 0.0544229 0.294396 0.100844 0.00500618 -0.0425497 -0.124873 -0.221106 -0.134757 -0.00684516 -0.0774819 -0.129905 -0.0764646 0.0263093 -0.0495548 -0.02889 0.0618741 0.0886703 0.0661281 -0.186411 -0.0675655 0.012216 -0.0124899 -0.146884 0.377508 0.193834 0.159627 0.0815404 0.0231958 -0.180649 0.196869 0.36411 0.0446835 -0.0903036 -0.192282 0.0568647 -0.0249603 0.21771 -0.0682909 0.065937 0.0905711 0.106693 0.173577 0.122536 -0.128755 0.181692 -0.049443 0.0873533 0.16345 0.0805259 -0.166169 -0.198364 -0.038226 0.256674 -0.190718 -0.2736 0.159244 -0.276046 -0.0745953 0.12883 0.13435 0.243521 0.178442 -0.00434007 0.105874 -0.0179717 0.153984 0.00671196 0.0252484 0.232791 0.185328 -0.192047 0.166281 -0.0259723 -0.125147 -0.254017 -0.0516716 0.088905 -0.0543407 -0.0428932 0.144347 0.203327 -0.0648433 0.0323105 0.167661 0.148603 0.157795 -0.300276 0.246251 0.133929 0.0472827 0.0252566 0.225135 0.227621 0.17334 -0.0643072 0.278813 -0.0983823 0.00970686 0.141978 -0.133156 0.128188 -0.108194 0.162958 0.335104 0.131325 -0.126173 -0.0143927 0.220121 -0.0933834 -0.0205625 -0.138202 -0.123333 -0.115092
-0.127358 0.128142 -0.060361 0.0117878 -0.0330458 -0.0927397 -0.0666703 -0.145684 0.160013 0.152916 -0.112575 -0.0548093 -0.0683455 0.108319 0.0698564 0.154078 0.060312 0.132972 0.102902 -0.157114 0.118077 -0.128507 0.110851 -0.126092 0.0736414 0.0247701 0.0544532 -0.00463419 0.0509322 -0.00208307 -0.113685 -0.0349595 0.086711 0.0117229 -0.0240836 -0.0823804 0.067204 -0.119099 0.0390469 -0.020048 -0.0207996 0.0606457 -0.064158 -0.148209 -0.137896 -0.0082573 -0.0395393 0.139078 0.0378357 0.119686 0.0664744 -0.147224 0.107733 0.125584 -0.0394808 -0.0907023 0.0471432 -0.151895 0.00924726 0.00553615 -0.139615 -0.109053 -0.134768 0.140679 0.10525 -0.148174 -0.0858314 -0.0398881 0.078112 0.00578891 0.0453162 0.0705772 0.0608851 -0.00108263 0.0101811 0.0409238 -0.0448052 0.115631 0.156887 -0.104364 -0.175909 -0.051391 -0.115134 -0.00422981 0.0293759 -0.0274239 0.0791734 -0.171348 -0.11509 0.153088 0.0511541 -0.161642 0.00717723 -0.000927095 0.102344 0.0574132 0.0371546 0.0656604 -0.10921 0.0592525 -0.0853884 -0.143876 -0.119164 0.121099 -0.0753081 0.0775978 -0.159133 -0.037538 0.0190479 -0.128795 -0.0239717 0.110459 -0.169206 0.143746 0.141979 -0.107537 -0.175928 0.0254445 -0.0550552 -0.0717325 -0.150295 0.0391737 -0.135679 0.0401086 0.149554 0.0519969 0.152794 -0.0632736
0.0260415 -0.079106 0.20111 -0.152899 0.287419 0.066468 -0.0147103 -0.148118 0.138555 0.154599 -0.0159681 0.0222382 0.192615 -0.00536144 -0.0470701 0.272774 0.200782 0.153616 0.0122663 0.0409803 -0.0415811 0.0395668 -0.110015 0.162059 0.0441223 0.194288 0.080966 -0.0813271 -0.0403598 0.195348 0.0596762 -0.241489 -0.122188 0.0463482 0.0960256 0.150953 -0.173262 -0.216521 0.298943 -0.0809523 0.152139 -0.0984578 0.125195 -0.137195 -0.170539 0.290104 0.15985 -0.161432 0.198333 0.237851 0.117606 0.0265792 0.194427 -0.144735 0.0529253 0.206157 -0.159999 0.260769 -0.215937 -0.0204717 -0.220821 0.0911026 0.060585 0.250841 0.0534021 0.185548 0.208252 0.142889 -0.104738 -0.129272 0.130892 -0.116099 -0.093372 -0.105122 0.0603686 0.129087 0.164638 0.0129 -0.121448 0.0622965 -0.143133 -0.148668 0.0764884 0.186861 0.215155 -0.305306 0.140063 0.0620338 -0.128637 0.0466197 -0.163926 -0.182547 0.0123007 0.0132317 0.0622009 -0.040983 0.0436893 -0.0829222 -0.0578682 -0.188881 0.15878 0.105696 0.243045 -0.223687 -0.0944386 0.139289 -0.0536375 0.243967 0.192046 -0.267675 0.299068 0.174141 -0.0227422 0.0040297 -0.197719 -0.0740811 -0.156238 0.246591 0.269565 0.284697 0.0632747 0.0216818 -0.0978966 -0.00151121 -0.107835 0.116274 -0.120267 -0.0435985
0.0912614 -0.0621243 0.276424 0.0607327 0.136334 -0.00670585 -0.0363794 -0.0737378 0.0767648 -0.161649 0.105996 0.159689 -0.0601682 0.159618 0.0271335 0.0855167 0.154152 0.16244 0.160124 -0.207573 -0.119912 0.12994 -0.0760927 -0.0663862 0.00267906 0.27072 0.0354654 -0.031162 -0.0536657 0.183479 0.150762 -0.171823 -0.139707 0.0892299 0.0695835 -0.0353967 -0.151314 0.055934 -0.0788376 0.175034 0.151704 0.141612 0.154255 -0.0902748 -0.262233 -0.0808097 -0.0335271 0.206629 -0.036278 -0.0333543 0.229221 0.246839 -0.20085 -0.0425264 0.0220939 0.117661 -0.171026 -0.119881 0.169766 -0.153494 -0.156394 0.195773 -0.0500299 -0.0274113 0.0562871 -0.0329214 -0.144668 -0.0333293 0.161402 0.120838 -0.110253 0.296622 -0.155129 0.0224418 -0.153237 0.0578162 -0.00545515 0.264284 -0.143099 -0.0512723 -0.0108015 -0.0595484 0.198822 -0.111492 -0.0291523 -0.0543309 0.167081 -0.134073 0.128783 -0.223763 0.0904143 -0.0855851 -0.219175 0.00657119 0.249975 -0.0966141 -0.133925 -0.0954211 -0.130733 0.202243 0.137132 0.0233954 -0.102908 0.187635 0.0952284 0.00457739 -0.153714 -0.054417 -0.0837545 -0.0376715 0.020147 -0.0410495 -0.104767 -0.0740356 0.0687862 0.150733 -0.067168 0.154936 0.0276892 0.0892284 0.049616 0.0377369 0.107689 0.163303 0.036083 -0.0881334 0.0550922 0.135744
0.0223399 0.0452339 -0.21554 -0.046317 0.231973 -0.18667 -0.0767647 0.135149 0.046087 -0.0436021 0.138367 -0.0917045 0.121369 0.0321605 -0.0383997 0.106265 0.105655 0.0634732 -0.11966 0.18727 -0.081614 -0.0377821 -0.0596595 -0.0495433 -0.189081 -0.298767 -0.229575 -0.0715056 0.116021 0.0441552 0.139157 -0.0218587 0.0315525 -0.121887 -0.235143 0.160237 -0.149579 0.180841 0.0640175 0.0840034 0.165107 0.0165886 -0.124191 0.0249736 0.257999 -0.0584929 -0.114164 -0.170849 0.0545843 -0.0644796 -0.126225 0.0935521 0.0119858 -0.0368317 -0.0379734 0.0176221 -0.0778717 -0.072057 -0.0781984 -0.0107166 -0.0564185 -0.0672397 0.105435 -0.00117205 0.0296784 -0.105847 0.100462 0.0681 -0.0461119 -0.0366921 -0.0123658 -0.100481 0.0694085 0.0938133 0.311563 0.0407227 -0.108301 -0.0022133 0.0719488 -0.100412 0.0660902 0.0633149 0.0211773 -0.0757444 -0.0198348 -0.170995 0.029676 -0.0788353 -0.142953 -0.0604647 -0.0877256 -0.0329336 0.124138 0.0174018 0.164622 -0.0466633 -0.0554722 -0.153289 0.137865 0.0422563 0.140628 -0.0411057 0.104744 0.154881 0.161455 0.141522 0.125272 0.107056 -0.0270817 0.00963558 0.0737205 0.0127392 0.0862866 0.168415 0.0192858 0.208264 -0.0238326 -0.00858695 -0.0360766 -0.058108 0.0186823 -0.188188 0.129132 0.0108722 0.172042 -0.0124417 0.0546156 0.0114055
0.100876 0.0225566 -0.0726959 -0.0246247 0.198919 -0.0658042 0.105345 0.0785912 -0.0110076 0.159334 -0.176885 0.018814 -0.169999 0.0226868 -0.117682 -0.0136482 0.122775 -0.00973742 -0.0116495 0.00985087 0.142284 -0.0563246 0.185844 0.00117428 0.0285119 0.0893905 -0.140563 -0.00751322 0.0988669 0.0833003 0.167782 -0.00802139 0.166165 0.0946502 -0.0325924 0.16291 -0.0677441 -0.028304 0.0183623 -0.0832001 -0.0863054 -0.0187822 -0.148409 0.230613 0.0792981 -0.0615633 -0.0669997 -0.00338636 0.163814 -0.0706335 -0.114901 0.121205 -0.116472 -0.0774111 0.127185 -0.0912968 0.154542 0.0760705 -0.0440844 0.185386 0.032024 -0.0730678 0.135991 -0.104249 0.10885 -0.139756 -0.00464149 -0.0868124 0.0417233 -0.0679693 0.0896119 0.0415658 -0.118317 -0.113216 0.0629605 0.0999346 0.0284973 0.1581 -0.0219559 0.0514998 -0.129287 -0.103803 -0.0819579 -0.0934036 -0.109499 -0.114675 0.10277 -0.0486457 -0.0435723 0.0181897 -0.121372 -0.113184 0.189233 0.0361197 -0.20694 0.0615277 0.0666981 0.0669648 -0.0514177 0.0125968 0.090132 -0.0403927 -0.127676 -0.000539743 0.078333 -0.151291 0.0431574 -0.0732122 0.176027 -0.0669132 -0.0425907 -0.160015 -0.0106918 0.143878 0.0256556 -0.209968 -0.0287692 0.012721 0.103345 -0.109049 -0.0772612 -0.0718919 0.000406418 -0.0884745 0.0277203 -0.199891 -0.151089 0.137473
0.0792551 0.0324372 -0.21672 -0.146824 -0.123866 -0.123111 -0.129621 -0.1352 0.236014 0.0895862 0.013875 -0.179742 -0.0107338 0.128038 -0.0446428 -0.224184 0.0737605 0.152748 -0.0469909 0.12454 0.0256354 0.0879937 -0.13825 0.0396888 0.0624522 -0.107313 -0.0835735 -0.0206973 -0.214609 -0.0762451 -0.052526 0.041375 0.0519346 0.0445266 0.158841 -0.158338 0.163209 -0.169063 0.00373488 0.0375461 -0.0303143 0.130702 0.0920322 0.0880976 0.0721752 -0.0495025 0.201253 -0.208413 0.0399804 -0.00758945 0.017771 -0.274684 0.158022 -0.03486 0.0617198 0.114482 0.0723598 -0.0570823 0.142259 -0.00475531 -0.0924167 0.0101325 -0.0374195 0.0625506 0.053228 0.0214643 0.03603 -0.206403 -5.65953e-05 -0.202067 -0.101618 0.0433238 0.167738 0.00919248 0.28377 -0.0547945 -0.118629 -0.0281968 -0.074186 0.190618 0.0421064 0.0583754 -0.114881 0.0453456 -0.0870491 0.0306447 0.207979 0.0879503 -0.165471 0.0542681 -0.0663382 -0.082612 0.144688 0.170503 -0.11847 0.209391 -0.167704 0.0109422 -0.0869572 0.120157 -0.109029 -0.0708983 0.00331055 -0.186971 -0.0576917 -0.168033 0.0240262 -0.116286 -0.214661 0.0898546 0.0336018 0.115295 0.109113 0.169214 -0.18326 0.200173 0.158492 0.0323533 0.215472 -0.0609015 -0.140787 -0.041108 0.34599 -0.10329 -0.0665625 0.203467 -0.146531 -0.137219
0.175692 -0.134002 -0.172941 -0.139591 0.0778282 -0.119418 -0.16776 0.000252694 -0.104957 -0.141971 -0.127773 0.0070204 -0.153323 0.00410306 0.129489 -0.125633 -0.00827206 0.0731931 0.108501 0.174633 -0.126752 -0.0374024 -0.0191726 -0.0737404 0.0443576 0.014206 -0.0253475 -0.00206211 0.137115 -0.0598461 -0.124038 0.0046719 0.175754 0.0237436 -0.177295 -0.152031 0.018092 -0.0310905 0.0102384 -0.113235 0.0571047 0.0352469 -0.0919186 -0.105528 0.113973 0.107787 0.0889656 -0.0611679 0.0320832 0.0192982 0.104305 -0.0225398 -0.134902 -0.141687 -0.0442489 0.104577 -0.00699164 0.071035 -0.0135376 -0.0877202 0.0124317 -0.146204 0.13329 0.0987721 0.106089 0.0648661 0.0591982 -0.104836 -0.106776 0.0567917 0.0116281 -0.0106057 -0.133211 -0.0500964 0.076017 0.0733975 -0.0986658 0.11279 -0.0622281 -0.154649 -0.043724 -0.0636921 0.0612994 -0.0282515 -0.123758 -0.141795 0.100704 -0.0914446 0.0777501 -0.0177337 0.105653 -0.0988531 0.0260748 -0.039278 -0.112798 0.0915349 -0.0157498 0.0343586 -0.0523098 -0.0766125 0.130293 -0.106401 -0.116814 -0.0258048 0.0849916 -0.150536 -0.146378 -0.132231 0.0457974 -0.0318236 -0.107669 -0.168794 -0.165146 0.172991 -0.0287834 -0.111718 0.00711188 -0.053421 -0.0700113 0.143244 0.10938 -0.0431533 -0.0323869 0.141701 0.00701539 0.098435 -0.0273341 0.148502
-0.0658844 0.0294411 0.062531 -0.0446567 0.0590711 -0.134817 0.0474167 0.154231 0.078923 -0.0764751 0.253759 0.135118 0.0279712 -0.0692122 -0.060777 0.139967 -0.0875728 0.117768 -0.029032 0.0999118 -0.0802555 0.102849 0.234592 -0.0273407 0.172903 0.0664541 -0.110995 -0.0291446 -0.0851891 0.0613257 0.105079 -0.0365293 -0.0850722 0.010338 -0.0532794 0.177515 0.166327 0.216337 -0.0190174 0.0575647 0.0631109 0.101892 0.0707022 0.0610409 0.031838 -0.133666 -0.179338 0.101265 0.261713 0.114337 0.114755 -0.0763463 -0.102646 -0.0977836 0.0668802 -0.167434 0.145824 -0.0755582 0.119817 -0.00190518 0.139585 -0.031485 -0.0880776 0.0227866 -0.0566548 0.134123 0.119793 0.144281 0.118106 0.0404648 0.0661732 0.0567107 -0.102345 0.0642267 -0.0739727 -0.0466385 -0.277205 -0.047324 -0.00266693 0.0831467 0.0735128 0.307149 0.0577109 -0.009933 -0.151511 0.0673861 -0.0169468 -0.045909 0.0722496 -0.0678953 -0.124193 -0.067997 0.148525 -0.017346 0.0434923 0.0198876 0.0539112 0.167903 -0.224049 0.151387 0.0193384 -0.049863 0.0586809 0.054639 0.111069 0.0624304 0.0891035 0.115715 -0.0822553 -0.113777 -0.009604 -0.0673614 0.24655 -0.142762 -0.00438481 -0.0253765 0.0217989 -0.126223 0.018297 0.0340047 0.0699019 0.0724514 0.0715172 0.0143606 -0.137984 -0.132056 0.140723 0.127912
0.114081 0.0705719 0.158203 -0.101453 0.0495252 -0.227723 -0.0409335 -0.0367729 -0.180506 0.0339328 -0.00102436 -0.171631 0.211596 0.154161 -0.076051 0.0773126 -0.226701 -0.0867433 0.1321 -0.0214665 -0.0384556 0.130321 0.233678 -0.0436512 -0.0958783 0.00579536 0.181733 -0.116801 0.0602335 -0.0469499 -0.139107 0.172221 0.23917 -0.13328 0.00474553 0.0883101 -0.160181 0.0617052 -0.0694963 0.066079 -0.0276309 -0.0572259 -0.145397 -0.149024 -0.0403418 -0.114115 0.162033 0.09483 0.285868 0.100294 -0.0958939 0.179228 0.0903655 -0.126066 -0.109958 -0.123882 0.150105 -0.019255 -0.000480195 -0.120678 0.0959174 0.126447 0.191023 -0.149157 0.00363391 0.0399486 -0.0669868 -0.0936822 -0.0763318 -0.144421 0.243953 0.0357586 -0.16994 -0.105388 -0.188967 0.0687956 0.0616155 -0.136211 -0.0898183 0.157094 -0.120081 -0.22674 0.113692 0.283134 -0.160439 0.311693 -0.0913267 -0.00880431 -0.0770181 -0.0264152 0.208832 0.00691243 0.284357 -0.0973215 -0.0793265 0.067392 -0.120708 -0.0947682 -0.16106 0.171011 0.0111262 0.200216 0.144907 -0.161578 0.0154392 0.0260964 0.0622662 -0.148701 -0.104341 -0.0309847 -0.193258 -0.106407 0.109761 -0.105701 0.159114 -0.0185473 0.0391071 -0.133697 0.0454047 0.0668055 0.040201 0.0950551 -0.202841 0.128473 -0.156544 -0.112988 -0.0835604 -0.167056
0.0178964 0.0640827 0.0168504 0.060043 -0.0941498 -0.0793005 0.0616388 0.024413 -0.0571665 -0.187941 -0.29359 -0.0644201 -0.112699 -0.106744 0.13467 0.154955 0.0529427 0.0496181 -0.0443848 -0.00826722 0.0700059 -0.165387 0.143347 -0.0133264 -0.251032 0.0152111 0.146645 -0.106732 -0.0481392 -0.0927304 -0.000942228 0.139837 -0.10396 -0.133646 0.105933 0.230794 0.105002 -0.0475883 0.00151137 0.227745 -0.144922 0.0544192 -0.0819797 0.00745223 0.0222769 0.0171713 -0.12105 -0.0437066 0.0362597 -0.0591626 -0.149485 -0.17076 -0.0406359 0.14464 0.146582 -0.106816 -0.00928683 -0.03547 0.0695596 0.0189247 0.0395887 0.00271338 -0.0621853 -0.165649 -0.0589722 0.0463436 0.0294379 -0.0350065 0.150382 0.192972 0.230257 -0.0244532 0.168914 -0.00875521 0.320054 0.0307235 -0.0821458 0.0588381 -0.144726 0.0620661 -0.0286865 -0.125792 -0.00856308 -0.120792 -0.0965634 0.18177 0.215651 0.147156 0.000266233 -0.0709848 0.11028 0.0522569 0.14901 -0.147052 0.0968839 -0.00740052 0.141064 -0.150835 -0.00254367 0.00918435 0.0481631 -0.197002 -0.106149 -0.141696 0.0559909 -0.0735278 0.0085983 0.00963177 0.168782 -0.249566 0.0344871 0.0909614 0.0851436 0.113314 0.0431784 0.0380094 0.157693 0.278751 -0.0982375 0.250978 -0.00452209 -0.146378 -0.184978 -0.127004 0.0729441 -0.0630173 0.169539 0.0740118
-0.034903 -0.0252927 -0.134665 0.181929 0.137206 0.00282307 -0.0502623 -0.0723645 -0.111208 0.0656937 -0.102238 -0.278174 0.204964 -0.101811 -0.112244 0.153284 0.116036 -0.0387785 -0.0691559 0.129612 0.145372 -0.100492 0.0632381 0.0160629 0.221095 -0.217259 -0.0418802 -0.109346 0.0436099 0.113568 0.162766 0.127921 -0.0476306 -0.196029 0.0310939 -0.0726659 -0.154005 -0.38339 0.0498987 0.0191126 -0.0239104 -0.0537556 -0.0118429 0.116114 0.0100629 0.143376 -0.0810614 -0.077888 0.0857481 0.02433 -0.109583 -0.0554071 0.0632454 0.120159 0.0896696 0.00599298 0.0974255 -0.132855 0.14654 0.0151879 -0.0645497 -0.0655873 0.0531135 -0.000566274 -0.213652 -0.229497 0.211991 0.110678 -0.0936022 -0.0379976 -0.0860853 -0.214374 0.15254 -0.0469787 0.0306629 0.40059 -0.15455 0.143378 -0.0313802 -0.153682 0.172215 -0.0350654 -0.0223887 0.037445 -0.0579549 0.170911 0.288504 0.07071 0.0763958 -0.0040409 0.249426 0.204121 0.177324 0.169582 -0.0559617 -0.0916827 0.106253 0.0149817 -0.0986228 0.153921 -0.0856448 -0.0559757 -0.11795 0.0178279 -0.106657 0.106184 0.0201421 -0.0757434 0.137134 0.114316 0.0648905 0.028332 0.0434098 -0.067738 0.136413 -0.0114697 0.0079791 0.13428 0.122088 0.104721 -0.102177 -0.120224 0.129503 -0.167224 0.151478 -0.262621 0.154583 0.164992
-0.0453588 0.191676 0.062701 0.0140125 -0.0400635 0.215556 -0.126525 0.163481 -0.131125 -0.109763 -0.0431004 0.143157 0.223974 0.0340969 0.120491 -0.118353 0.0718392 -0.127802 -0.0626255 0.0668626 0.116207 -0.108504 0.0193247 -0.130015 -0.109667 -0.175753 0.0455942 0.0278839 0.0561854 0.0301214 -0.00175977 -0.120838 -0.117526 -0.228663 -0.211637 0.171002 0.038618 -0.0306789 0.175443 0.137304 -0.108714 0.0750123 0.000646352 0.00292284 0.127975 0.173999 0.164741 -0.0482396 -0.14242 -0.00940616 -0.092304 0.00433693 0.0690015 0.16484 0.133946 -0.12025 -0.0728538 -0.172451 -0.0793371 0.0761712 0.0285547 0.140986 -0.0603329 0.101967 0.12121 -0.12713 -0.074897 0.061695 -0.258022 -0.249639 0.167734 -0.171101 0.00837153 0.0535519 0.0244647 -0.183546 0.168243 -0.11744 -0.108544 -0.00379556 0.172859 0.157032 -0.00458438 0.164802 0.0487734 -0.0373567 0.14571 0.1533 -0.191164 -0.0901641 -0.111492 -0.0542803 0.0543727 -0.209165 0.0310393 0.14352 -0.0579763 0.161983 0.179359 -0.0989832 0.0143766 -0.274479 0.210635 -0.0967662 -0.143796 -0.113345 0.0490381 0.0600739 -0.0460369 0.0831534 0.1083 0.0216458 -0.182072 -0.0816992 0.105212 -0.11008 -0.0595653 0.151907 0.207087 0.106241 -0.173385 0.0794184 0.155517 -0.0398028 0.155233 0.0968657 0.140378 0.00843983
0.140615 0.115133 0.293754 0.151037 0.266252 -0.151884 0.171403 -0.139606 -0.059979 0.15159 -0.0499645 -0.215061 0.174199 -0.117085 0.123065 0.121011 0.0644545 -0.163521 -0.14657 -0.0745325 0.116586 0.138543 0.0677724 0.146975 -0.206471 -0.118941 0.152316 0.00810135 0.0892699 0.166811 0.0565251 -0.245271 0.0553727 0.200113 0.0548416 -0.0178988 0.10932 -0.0341763 0.0108782 -0.0813129 0.0770606 0.012707 -0.0662841 0.176997 -0.250033 -0.133704 0.00760942 -0.135531 0.237861 0.054291 -0.150917 0.0688942 -0.0478659 0.0425299 0.0273254 -0.132876 0.130157 -0.0530778 -0.146067 0.174884 -0.210115 0.00101762 -0.110157 0.164426 -0.0183506 0.167774 0.224546 -0.0371268 0.052192 0.0269908 0.252758 0.0821734 0.0181081 -0.1485 0.108251 0.276167 -0.0189122 0.170549 -0.102933 -0.020693 -0.170129 -0.186736 0.286743 0.0568178 -0.216335 0.0602753 0.050804 -0.0332386 -0.21502 -0.0797468 0.0715702 -0.1342 -0.277355 0.107505 0.219321 -0.0782903 -0.0899739 0.0780493 -0.0588309 0.157586 -0.0727338 0.165315 0.189308 0.0738325 0.0331642 0.113124 -0.136432 -0.0746047 -0.105781 0.0110226 0.202746 0.0935143 0.117065 0.0178079 0.116599 -0.0910989 -0.112786 0.24471 0.0859191 0.0114067 -0.159327 -0.0358211 -0.162071 -0.0218665 -0.213171 -0.0310896 0.102482 -0.0690596
-0.127716 -0.073361 0.161601 -0.177443 -0.224203 -0.193476 -0.324228 0.143927 0.163208 -0.115313 -0.0950174 -0.092717 0.0165466 -0.0793114 -0.124697 0.0586716 -0.0440639 -0.0869378 -0.0757049 -0.0494167 0.0826087 -0.0421866 -0.00733682 0.0135567 0.0560823 0.223254 -0.158623 -0.0883872 0.201081 -0.155074 -0.0832753 -0.0468769 -0.0286336 0.16268 0.136231 -0.133731 -0.0776833 0.148054 -0.185105 0.142487 0.108441 0.160571 0.107725 -0.178368 -0.115948 0.105802 -0.178362 0.0810333 0.129352 0.215797 -0.0710565 -0.127933 0.0490699 -0.175447 -0.189793 -0.0241509 -0.156714 0.261586 -0.187856 -0.00547097 -0.0735716 -0.201231 -0.0139775 0.21325 0.00116855 -0.169819 0.0458266 -0.164713 -0.130788 0.237247 -0.213899 -0.0302281 0.139241 0.105592 -0.084046 -0.0622897 0.118979 -0.00954796 -0.10225 0.0443595 -0.088827 -0.127513 -0.0749098 -0.00177519 0.147222 -0.0900285 -0.0699153 -0.0260011 0.155991 0.105436 -0.191263 0.000583994 -0.0180609 -0.0198834 -0.0127704 -0.0152842 -0.17556 -0.153554 0.0828819 -0.000681965 0.203428 0.0313939 0.200903 0.197746 0.0999372 0.0278887 0.095865 0.109902 0.168093 -0.203123 0.343163 -0.0287529 0.0304302 -0.0237517 0.0816805 0.0655499 0.0361309 -0.130128 -0.16014 0.0438973 -0.0310317 0.00280477 0.0845069 -0.00456869 -0.185582 -0.0150103 0.130195 0.0900767
0.047732 0.163638 0.0492315 0.00935214 -0.0892346 -0.054776 0.0938801 -0.105987 0.0292164 0.031799 -0.146574 -0.0870913 0.07416 -0.157681 0.16022 -0.0785583 0.0187346 -0.0831078 0.0452516 0.138136 0.0115403 -0.0357705 -0.0401739 -0.0762065 -0.0616819 -0.11045 -0.211775 -0.143229 -0.141043 -0.101085 0.113313 0.0828154 -0.151993 -0.0643637 -0.104094 0.0251971 -0.117957 0.137756 -0.0313106 0.177766 -0.0829704 -0.0820865 -0.00805336 0.0116567 0.120725 0.112763 -0.0629909 -0.0150242 0.0767243 -0.0631568 0.0743869 0.0510645 0.0466712 0.0453917 -0.0193438 0.169751 0.0292531 0.0368009 0.0960089 -0.0530609 0.0869564 0.01456 -0.0791803 -0.095308 0.102785 -0.0903609 -0.0164732 0.0417008 -0.0261399 -0.088693 0.0132969 -0.0459375 -0.0949148 0.0850632 -0.101814 0.0962895 0.00472541 -0.117931 0.109154 -0.142699 0.16773 0.109251 -0.000150915 0.0720653 -0.166009 0.00867693 0.064209 -0.0587994 0.0859962 0.18659 -0.00473892 0.113131 0.133488 -0.0792469 -0.00922042 -0.0604113 0.0658578 -0.0395813 0.0650725 -0.0189058 -0.144249 -0.0463699 -0.127339 0.114541 -0.134274 0.128341 0.103419 -0.106968 0.0210629 -0.0393007 -0.195381 -0.107478 0.0126332 -0.0502243 -0.00754248 -0.0504479 -0.0940398 -0.168886 -0.107667 -0.0261399 0.129835 -0.190614 0.00570463 -0.056766 -0.0848875 -0.153887 0.00932174 0.0544
-0.011634 0.0672984 -0.123206 0.00313433 -0.167233 -0.247583 0.153231 0.0943195 0.00764931 0.259409 0.0356772 -0.174469 -0.157579 -0.141761 0.0652482 -0.0221847 -0.170791 0.0519623 -0.0418776 0.0815835 -0.0823319 0.105865 -0.0625704 0.222469 0.0558357 -0.198333 0.26954 0.0937618 -0.110116 0.0490192 0.0125127 0.0457612 0.122497 -0.0362551 0.0080597 -0.0677589 0.0230549 0.108463 0.11738 -0.159132 -0.124363 -0.00371644 -0.248575 0.275574 -0.0852673 -0.232778 0.123129 -0.0760321 0.0501755 -0.187521 -0.163184 0.122026 -0.121607 -0.161471 0.108624 0.050951 -0.00540698 0.0616695 -0.0823794 -0.00258695 0.0656445 0.25896 -0.0986147 0.228387 0.170722 -0.01548 0.00177656 0.181093 0.1866 -0.1383 0.180859 0.0533472 -0.154497 0.153577 -0.118635 0.0610252 -0.0591541 -0.197013 -0.0316008 0.11697 0.040629 0.0590288 0.0912869 0.0500814 0.055745 0.0918773 -0.0277512 0.14448 0.17312 0.119673 0.0392966 0.140472 0.258921 -0.104399 -0.141411 -0.0927737 -0.0485114 0.0529033 -0.0379929 -0.194656 -0.0180314 0.152633 0.226895 -0.115613 0.128354 -0.111153 0.0546773 0.106827 0.00303697 0.0406466 -0.0908313 -0.0493545 -0.229729 -0.1224 -0.17805 -0.226802 -0.00667195 -0.0426096 -0.0924579 0.00651372 0.102245 -0.181078 -0.0760978 0.0551949 0.192772 -0.102088 0.113654 -0.106918
0.120579 0.00156793 0.159777 -0.0490505 0.104109 0.086457 -0.109067 0.0432291 0.0087509 -0.21971 0.235128 0.0576221 0.135113 0.0974219 0.128826 -0.161159 0.211136 0.03683 0.156876 -0.054422 -0.0493131 -0.0746785 -0.23389 0.0672799 -0.0920941 -0.0142618 0.020074 -0.141133 -0.189488 0.214017 -0.138766 0.151799 -0.262565 -0.0805536 0.171562 0.112971 -0.0547305 -0.028274 -0.0249103 -0.0169989 -0.12446 0.0158906 0.161615 -0.123543 0.205791 0.264271 -0.0289855 -0.0645862 -0.144183 -0.0584318 0.183165 0.168631 -0.145238 -0.0716985 0.142564 -0.218834 0.109231 -0.137086 0.0782287 0.162508 -0.0479592 0.217489 0.0801937 0.0760883 -0.0900988 -0.0294952 -0.237417 -0.0506787 -0.222876 0.105414 -0.0927826 -0.18485 0.153654 -0.0926286 0.119907 -0.0354548 0.24845 0.123383 -0.0766579 -0.115844 -0.00906112 -0.250357 -0.191736 0.0112368 0.161056 -0.270183 -0.198 -0.0445237 -0.285436 -0.146432 -0.0936289 -0.166246 0.0177495 -0.0351898 -0.0435435 -0.0663143 0.0468733 -0.17355 0.185503 -0.0704398 0.015015 -0.0812579 0.0241712 -0.129871 0.154944 0.00415164 -0.158582 -0.115466 -0.1557 -0.0576045 0.120264 -0.161082 -0.123195 -0.149554 -0.0709356 -0.0621854 0.0954562 0.0201906 0.17803 0.10591 0.106747 -0.197571 0.352822 -0.050142 0.182946 -0.0667049 -0.0683288 -0.00817444
0.183905 0.186018 -0.067599 0.0780988 0.264543 0.130306 -0.121029 0.236211 -0.162611 -0.123668 -0.037942 0.0751667 0.176929 -0.0538464 -0.148839 0.0173485 -0.129806 0.00100558 0.10819 0.0823498 -0.100421 0.025109 -0.115114 -0.157093 0.0243995 0.225295 -0.333443 -0.175991 -0.143306 -0.112878 0.105801 0.306486 -0.32457 -0.0296936 -0.109875 -0.10249 -0.112024 -0.112669 0.158542 0.231363 0.015789 -0.105479 0.341119 -0.122604 -0.202672 0.173393 -0.031571 0.289795 -0.0124195 0.0977517 0.000448563 0.32714 -0.336926 0.145461 -0.0324983 -0.113563 0.130625 -0.0861185 0.107861 -0.00204892 -0.0227635 0.170511 0.048827 0.149268 -0.205613 -0.161363 -0.0378667 -0.0215592 0.0984275 0.0302539 0.166779 -0.144789 0.0938588 0.157859 -0.0521207 -0.149302 0.174625 0.0601816 0.105608 0.0508622 -0.0714135 0.0370734 -0.195564 0.0767902 -0.0490359 -0.237231 0.0661718 0.127326 -0.295732 -0.36184 -0.0816555 0.203115 0.0891496 -0.0442551 0.203385 0.102566 0.0851548 -0.142084 0.0631523 0.238629 0.231006 -0.287125 0.218907 0.274254 -0.162072 -0.0455159 0.185533 0.126653 0.111452 -0.00569599 0.149581 -0.0390566 -0.182545 0.0710661 0.0302537 0.216482 -0.229591 -0.127203 -0.0657612 0.174536 -0.0808861 0.0365082 0.230331 -0.0899344 0.154493 -0.153599 0.0963379 -0.145816
0.113747 0.0503568 -0.261691 -0.013646 -0.203112 0.0479314 0.195852 -0.0459984 0.116712 0.0201468 0.0451711 0.0146883 -0.370037 -0.0648324 -0.111453 -0.147417 0.0768425 0.114667 -0.170595 -0.150384 -0.152191 -0.0554518 -0.289234 0.000141921 -0.112197 -0.0339216 -0.0537807 -0.161972 0.141555 0.167432 -0.133884 -0.222953 0.019729 -0.018339 -0.0876925 0.136473 -0.0176999 -0.253826 0.195205 0.217922 -0.141217 -0.118188 0.0268053 -0.147985 0.253992 -0.0184682 0.175491 -0.023195 -0.110076 0.133903 0.00694928 0.0511573 0.292383 -0.116284 -0.00909701 0.0326398 0.025424 0.121915 -0.169786 -0.167596 -0.207031 -0.284337 0.167169 0.0642085 -0.289484 0.137702 0.113838 -0.0601468 -0.0852967 0.173926 -0.0740615 0.0805835 -0.0932174 -0.0442863 -0.0967541 0.193185 0.0201753 0.147837 0.0875633 -0.0797526 -0.158768 0.14495 -0.0246704 0.16872 -0.0622721 -0.210296 0.304801 -0.0240572 -0.052992 -0.0979134 0.0453902 -0.112507 0.114984 0.0466334 0.014819 0.178124 -0.0656701 0.0499389 -0.173012 0.156569 -0.0615072 -0.147085 0.145592 0.185676 0.0803401 0.0848895 0.2149 0.176985 0.0623925 -0.0718438 0.125867 -0.00701193 -0.0750823 0.15593 -0.109657 0.0890059 0.178756 -0.206983 -0.0943598 -0.0157443 0.105113 -0.168254 0.180461 -0.0616181 -0.148109 -0.138869 -0.000535035 -0.00167747
0.148275 -0.0681267 0.147264 -0.0563329 0.0567355 -0.14217 0.180352 0.189062 0.0802011 0.221229 -0.0544498 -0.0339274 0.111726 -0.0509383 -0.10432 0.135959 -0.0860515 -0.0691751 -0.176438 -0.017186 0.178067 0.166209 0.0258453 -0.116918 0.172238 0.00165281 -0.0973779 -0.0282845 0.1943 -0.0479102 -0.0160682 0.0770521 0.108397 0.0322651 0.136289 -0.161062 0.171826 0.144881 0.120945 -0.0672899 -0.144755 0.107008 -0.101452 -0.0419555 0.196227 -0.00703088 0.0493377 -0.25183 0.0760228 -0.0516414 0.0420887 0.00358537 -0.133874 0.0266554 0.09092 0.188775 -0.0231527 -0.112412 -0.0279054 0.23396 -0.0893405 0.0516375 -0.144803 -0.0523644 0.0651652 -0.0189546 -0.0623375 -0.0609799 -0.0608803 -0.0864444 0.0658424 -0.0988778 -0.0151316 -0.176118 -0.160907 -0.120414 0.0850851 -0.165589 0.140543 -0.0855968 0.0422756 0.00295993 0.240031 0.125955 -0.134734 -0.102775 0.057076 0.0544264 -0.217693 -0.0850224 0.0363007 -0.144315 -0.178408 0.273115 0.0628476 -0.209609 -0.0645881 -0.176007 -0.148874 -0.163311 -0.157511 0.217531 -0.060849 0.176356 0.141231 0.0893109 -0.181968 0.0655271 -0.148323 0.183871 0.0864896 -0.00303774 -0.149881 0.10405 -0.130641 -0.0477707 -0.165358 -0.0269633 0.114437 0.176059 0.145256 -0.0253752 0.0238381 0.0383408 0.091855 -0.144984 -0.0636809 0.0473372
0.0656709 0.0182916 -0.095796 0.116071 0.0272299 0.192328 0.0856826 -0.0988055 0.0799302 -0.0654195 -0.110619 -0.207413 0.0717382 -0.11853 0.0687498 0.274999 0.0564973 -0.072453 -0.127448 0.0854838 -0.220881 0.00656165 0.016769 0.0831672 -0.289802 -0.0132167 -0.0128875 0.165181 -0.221735 0.195818 0.0312033 -0.32388 -0.138222 -0.08405 -0.126333 0.215926 0.0559827 -0.0738899 0.0177516 0.210302 -0.0271015 0.122029 0.202124 0.137421 -0.10642 -0.054664 0.167049 -0.319833 -0.16172 -0.0360689 0.0143481 0.0665986 0.237627 0.019904 0.138022 -0.147616 -0.115697 -0.132261 -0.0745406 -0.0938019 0.0880524 -0.0679216 0.104652 0.218165 0.0575957 0.115361 -0.0729523 0.102685 0.0599238 -0.21447 0.102316 -0.120781 -0.0301281 0.139736 0.0433488 0.052709 0.199043 -0.0517621 0.126699 -0.11707 -0.00424355 0.158726 0.0471064 0.117644 0.23942 -0.146169 0.00779899 -0.126803 -0.195782 0.14691 -0.104703 -0.219255 0.0185454 -0.121275 0.19304 -0.228478 -0.102107 -0.0152269 -0.0769536 -0.161861 0.250697 0.00011374 0.250128 -0.264596 0.0954138 -0.0807244 0.0498538 -0.157712 0.22333 0.189809 0.170041 0.0730278 -0.2553 -0.00326923 0.00905295 0.114557 -0.0361799 0.113245 0.112498 0.251172 0.175386 0.228483 -0.0101109 0.165295 -0.0117146 0.205221 0.0811599 -0.142089
0.110443 0.235055 0.0431631 -0.0787226 0.0660952 0.0603929 -0.0386714 -0.0985626 0.167882 0.0234417 0.14026 -0.13064 0.0864501 0.0798565 0.155304 0.0825575 0.237671 0.170022 -0.0722275 -0.113727 -0.124328 0.0929367 0.217368 0.162079 -0.0287765 -0.0935991 -0.106006 0.0800883 -0.118125 0.0408569 0.0233809 0.0844568 -0.0112978 0.0552075 -0.228346 0.0303094 0.0483958 0.0434053 0.0924067 -0.0231038 0.202896 -0.0732328 -0.130076 -0.1713 0.260602 0.127975 0.0656292 -0.0173228 -0.0972009 0.145633 -0.037505 -0.0509153 0.344631 0.152134 0.0247649 -0.0887121 0.0390731 -0.133998 0.0325893 0.189111 0.196594 0.139316 0.288102 0.305504 -0.122523 -0.260719 -0.135633 -0.0343106 -0.06692 -0.273555 -0.114508 -0.169819 0.0068044 -0.105219 0.0218965 0.174776 0.210479 0.0813248 -0.0113256 0.26691 0.0262091 -0.16949 -0.137522 0.0599964 0.250577 0.0710742 -0.285425 -0.0774701 0.174755 0.285384 0.0280195 0.0303468 0.0584296 0.280109 0.14994 -0.0108163 0.145666 0.157501 -0.0132211 -0.208482 0.180889 -0.115662 -0.016521 0.0447347 -0.0789326 0.0733432 -0.117202 0.0161932 0.0422078 -0.134946 0.174907 -0.163397 -0.151453 0.129152 0.105822 -0.110922 0.139567 0.0544498 0.1513 0.0114233 -0.147161 0.123242 0.088586 0.0276843 0.234957 0.0332471 0.078563 -0.172563
-0.0199555 -0.00775911 -0.187027 -0.028462 -0.196952 0.146408 0.10675 -0.112988 0.0693324 -0.226309 -0.0641233 -0.0911498 0.140742 -0.0732962 -0.0219382 -0.204565 -0.157346 0.0106245 0.0552321 0.0878207 0.00424036 -0.185221 -0.0375106 -0.181861 0.139716 0.150586 -0.0958753 -0.176972 0.108936 0.139266 -0.0232621 0.10975 0.00615421 -0.112221 -0.0986004 -0.12374 -0.0148802 -0.107615 -0.1801 0.0460744 -0.135645 0.111478 0.000457971 -0.194023 -0.113422 0.0786323 0.13568 0.0276922 0.0593951 0.152406 0.15123 0.153214 -0.143809 0.0890519 0.0185215 0.164386 0.0871773 0.076201 0.117514 -0.109701 0.264064 -0.0352899 0.0989733 -0.0975252 0.0273051 0.0658123 -0.111171 -0.156999 0.0012915 0.0200902 -0.0763228 0.249215 0.0379409 -0.0374267 0.0895963 -0.110326 0.0425944 0.187643 -0.114648 0.14972 0.102756 0.117155 -0.201663 0.142423 0.118818 -0.123971 -0.195218 -0.000573377 0.17387 0.212605 -0.0455135 -0.0790374 0.0739413 0.0883197 -0.243739 0.0557452 0.0545857 0.017376 -0.0850379 -0.124632 -0.119072 -0.197379 -0.0394317 -0.153625 0.0242122 -0.021893 0.248888 0.0465447 -0.267476 0.150591 0.0748546 0.114919 0.250732 -0.0725924 0.106434 0.147271 -0.111076 -0.15496 -0.00731125 0.11184 0.0832586 0.171527 -0.119669 -0.036282 -0.0844162 0.0137159 0.137843 -0.011335
0.0914759 0.0377233 -0.141844 -0.0119137 0.0444294 -0.0790187 0.067296 -0.0863419 0.0651077 0.14533 -0.153044 0.0961891 -0.0932475 0.0295924 0.103409 0.16953 -0.153769 -0.165724 0.0792999 -0.0436948 0.142987 -0.128949 -0.0821617 -0.0455659 0.0178817 -0.100912 -0.0803566 -0.0526215 0.0628005 0.0524634 0.067542 -0.159845 -0.145884 0.0777562 0.0466328 -0.0963447 -0.165572 -0.10635 -0.036166 -0.0726866 -0.134603 -0.0689139 0.0892688 -0.0125754 -0.104052 -0.0562004 0.111724 0.0281579 0.10157 0.0326064 0.0343466 -0.11294 -0.0739223 -0.0764151 0.043097 0.12281 -0.0453278 0.169837 -0.0783096 0.00643633 -0.157162 0.0114151 0.0793164 -0.133925 -0.133226 0.00214551 -0.0410024 -0.0219288 -0.0138971 -0.157665 -0.112469 -0.0677829 0.170034 0.150105 0.16801 0.129219 -0.17941 0.0480363 0.0479034 0.114149 0.00666257 -0.029742 0.111434 -0.139483 -0.104225 0.134418 0.107545 -0.127411 0.024127 -0.0425629 -0.151322 -0.0217048 0.0467241 0.160526 0.0463237 0.000578596 0.00727126 0.102072 -0.0682343 -0.167067 0.00570304 0.0135222 -0.102158 -0.0475275 0.124849 -0.066786 0.153172 0.067452 0.0619081 -0.0532753 -0.0529281 -0.11598 0.127259 -0.1677 0.0450317 -0.124235 0.0674683 0.113854 -0.0456851 -0.0848843 -0.020006 -0.0176793 0.0415117 -0.0162896 0.0678023 -0.0101723 0.158518 -0.144678
0.027273 -0.152542 -0.244873 -0.106415 0.180363 0.115286 0.136059 -0.0357627 -0.0790339 0.00690543 -0.117582 0.0657892 0.06318 0.0815977 0.120252 0.0178151 -0.151973 -0.100656 0.029965 0.168067 -0.0490742 0.0818175 -0.128378 -0.07835 0.0616801 -0.227211 0.291973 -0.0976614 -0.153578 0.0223545 -0.0293051 -0.0512441 0.0393486 -0.22546 0.081485 0.0906026 -0.0964402 0.184149 0.231057 -0.0875883 -0.09597 0.182027 -0.0453597 -0.243525 0.147363 0.1113 -0.0437128 -0.0145116 0.0737956 0.0614239 -0.115533 0.0884923 0.06128 0.00654649 0.072098 0.0752905 -0.0943729 0.145614 0.138864 0.037391 -0.0883657 -0.12038 0.194149 0.0589268 0.0400689 -0.190113 -0.160756 0.177626 -0.00727062 -0.226297 0.0201465 -0.0448053 0.0277191 0.000694269 -0.0449191 -0.104278 0.0842017 -0.105291 -0.029848 0.132305 0.0950938 -0.227143 0.078728 -0.181512 0.178774 0.0334153 0.00847506 -0.0395264 0.137879 0.0994894 -0.0748082 -0.112995 0.196003 0.184646 -0.157204 0.339912 -0.12444 0.119057 0.160367 0.0584006 0.150789 -0.0312735 -0.0962551 -0.0661271 -0.0516656 -0.127606 0.321988 -0.0764703 0.220642 0.0800674 0.0500796 -0.127527 -0.0969424 -0.152383 0.145357 0.130843 0.0334738 -0.221987 -0.143108 -0.117075 -0.0118441 0.136104 -0.0622975 -0.119461 0.282292 0.217929 -0.0862618 -0.0443046
-0.0762708 -0.0252611 0.201519 0.155665 -0.00059555 -0.137373 0.195756 -0.00894825 0.00528498 -0.0377627 0.13248 0.200919 0.199165 -0.18791 -0.176328 -0.127203 -0.0589336 0.014647 0.104477 -0.170994 0.0717376 -0.044306 -0.0989869 0.1198 0.141753 0.0878003 -0.108922 -0.192733 0.117048 0.148813 -0.0632613 -0.0558957 -0.0511719 0.060323 -0.0316195 0.101665 0.136357 -0.02321 -0.039335 -0.072435 0.113528 0.100832 0.258541 0.0262723 -0.0298507 -0.163182 0.17338 -0.0344644 0.0711063 0.0752255 -0.0666995 0.00163607 0.0632354 -0.00588811 0.119079 -0.123342 0.0498584 0.0248499 0.175053 -0.0477323 -0.13688 0.0765585 0.0472358 -0.197714 -0.0766385 0.211485 -0.120199 -0.15866 -0.0585094 -0.101009 0.0902207 -0.155594 0.0149182 0.00284986 0.192218 -0.116087 -0.183488 0.208041 -0.111903 -0.0478038 0.0939169 -0.128632 -0.118452 -0.152385 -0.147429 -0.0805104 0.10469 0.192157 -0.248946 -0.19267 -0.245647 -0.0131993 0.206144 -0.0665154 -0.17188 -0.186422 0.0638251 0.0532407 -0.0543678 0.00178867 -0.152472 -0.0738863 0.161719 0.218537 0.0680613 -0.130766 0.0585396 0.0396798 0.147288 0.050012 0.163276 -0.157625 -0.124585 -0.17075 -0.0275561 0.0328049 -0.121439 -0.01546 0.0500451 0.0969878 -0.144405 -0.139937 0.220777 0.0314259 -0.234394 -0.0922838 0.126812 0.0892062
0.23278 -0.163243 0.0494104 -0.063875 0.0186223 0.082797 0.0260482 0.25812 0.166971 -0.155024 -0.169595 -0.123354 0.186293 -0.122187 0.0966006 -0.0237599 -0.052128 -0.16622 0.1425 0.0179227 0.0989143 0.0890062 -0.112609 0.037173 -0.0524499 -0.065385 -0.241354 -0.13111 0.0348482 -0.0690797 -0.0705981 0.0446469 -0.136117 -0.0315362 -0.163287 -0.0123168 -0.156758 0.0564349 0.165883 0.194836 0.17142 0.05065 0.100566 -0.0886949 0.0752891 0.00380128 -0.10892 0.0494145 -0.0842217 -0.173507 0.150436 0.158986 -0.163365 0.0537449 -0.0302251 -0.0800696 -0.0596136 -0.0198035 0.0707787 -0.0612828 -0.07729 0.0585046 0.0751307 0.208199 0.16645 -0.114127 0.0917081 0.237905 0.00753754 0.0718414 0.103383 0.0450457 0.00712936 0.121921 0.0414658 -0.0921146 0.210217 0.189419 0.0696287 0.1732 -0.122224 -0.0591817 -0.117929 0.0264532 -0.0208592 -0.229984 -0.117612 -0.0260736 0.0531396 0.155313 -0.211019 -0.109115 0.154118 -0.031805 -0.125884 -0.277849 -0.0665835 -0.00980871 -0.143379 -0.0729687 0.128554 -0.0207112 -0.108175 -0.0569158 -0.009802 0.132251 0.117547 -0.109038 -0.0600732 0.0682899 0.0710418 -0.0291333 -0.0810669 -0.0213845 0.0470035 -0.0556128 -0.0533692 0.252039 -0.0910852 0.138565 0.0882395 -0.109993 -0.0388921 -0.147279 -0.123726 0.0489655 0.122994 0.138346
-0.145675 -0.128009 0.106075 0.137999 0.162377 -0.233134 0.217315 -0.1623 0.0978177 -0.0274916 0.0137282 0.2182 -0.0518794 -0.0999699 0.0329478 -0.122503 0.235878 -0.147184 0.0239228 -0.0256991 0.0481072 -0.207418 0.165194 -0.172688 -0.141438 0.0765322 0.0434225 0.0960794 -0.0817417 -0.204246 0.0298804 0.213165 -0.130581 0.00743474 0.170255 -0.10791 0.00900456 -0.0721491 -0.186877 -0.152228 -0.0924436 0.00574354 0.0501862 -0.145526 0.164286 -0.0205836 0.0669342 0.121957 -0.0338333 0.0469165 -0.0781545 0.0822816 -0.19643 -0.0119306 -0.0171806 -0.201819 -0.153141 0.0637835 0.0749518 0.0231697 -0.0837397 -0.13473 -0.239215 -0.212676 0.0575439 0.0884164 -0.128005 -0.0892553 0.0369369 0.109302 -0.12475 0.0570907 -0.179391 0.0152913 0.128117 0.0820625 0.0285608 -0.0182285 0.00422313 -0.0773621 0.19878 0.0577126 -0.0248672 -0.0432967 -0.0600008 0.0994409 0.135938 0.0813993 0.0763831 0.11451 0.164498 0.157416 -0.130495 -0.132022 -0.1616 0.0673635 0.00782759 0.0833891 -0.0342642 0.0239975 0.0536643 0.192081 -0.0503051 0.0547251 0.127155 0.116923 0.155931 0.165095 0.147195 -0.052177 -0.0312978 -0.0236535 0.277859 -0.0350179 -0.203749 0.17557 -0.125354 0.0922592 -0.0490489 -0.0270067 -0.108675 -0.125653 0.015064 0.0752127 -0.0793658 0.142421 -0.0829365 0.0916441
0.0581581 0.144245 0.012133 0.118313 -0.202712 0.201928 -0.108008 0.141648 0.146309 -0.185549 0.204086 0.109914 -0.0596429 -0.199513 0.165401 -0.00786535 0.155413 -0.00336388 -0.0438171 -0.111333 -0.11444 -0.235675 -0.105458 -0.0383079 0.174072 -0.113731 -0.028485 0.0721137 -0.230904 -0.0384147 -0.128647 0.0499798 -0.0040159 0.0555868 0.0919021 0.192445 -0.120349 0.16032 -0.0412775 -0.118529 0.172895 -0.0191482 0.264716 -0.234433 -0.125051 0.206814 -0.0489849 0.253593 -0.179235 -0.0804332 0.190566 0.25693 -0.287695 0.179226 -0.0238036 0.0287106 -0.0876334 0.203383 0.0637186 -0.0845652 0.0746677 -0.00146387 -0.243317 -0.0511814 0.213206 0.20003 0.0537991 0.177403 -0.0438574 0.182661 -0.0949415 0.0857851 0.16313 -0.145328 -0.117636 -0.0865448 0.0128247 -0.0663617 -0.0078272 0.108561 0.0292178 -0.0293973 0.115796 0.138433 0.0728223 -0.29524 0.0753297 0.110984 -0.0877977 -0.0591919 -0.0101104 -0.0669429 -0.139332 -0.201774 -0.154739 0.157028 -0.120182 0.0548635 -0.0617843 0.202484 -0.0780596 -0.279245 0.165546 0.234766 -0.153515 -0.00846539 -0.114775 -0.152971 -0.0905837 0.247011 -0.0537583 0.152837 -0.00562546 -0.112117 -0.140016 0.15536 -0.145901 0.0809521 0.0758597 0.0986513 0.126713 0.0104136 0.124854 0.0872024 -0.137042 -0.0235263 0.141474 -0.0561831
-0.180604 -0.155151 -0.0194328 -0.0985283 -0.19221 0.113499 0.130967 0.220834 0.111653 0.172442 0.130533 0.169438 -0.0711965 0.175514 -0.060405 -0.134592 -0.122998 -0.00723866 0.00508035 -0.17836 0.0665757 0.0580538 0.17227 0.0585352 -0.101247 0.0516677 -0.0356499 -0.0737438 -0.0119159 0.0759421 0.0819846 -0.0208092 0.12358 -0.12123 -0.00379636 0.121879 -0.0811326 -0.0423405 -0.105223 -0.217261 -0.0983052 -0.139599 -0.0465502 0.0544944 0.222197 -0.147491 0.0101815 0.0689408 -0.0183162 0.121701 0.133438 -0.129597 -0.0319699 0.10128 -0.00904526 0.124609 -0.160114 0.0105012 0.0292532 0.05037 0.0114834 0.0744849 -0.102893 0.0339195 0.0969831 0.175643 -0.0542522 0.109319 -0.0782701 0.199202 -0.0516494 -0.0128666 -0.159791 -0.117609 0.190691 -0.06194 0.138981 0.0759883 0.0926628 0.14033 0.14839 -0.0481512 0.104964 0.0760709 -0.161144 -0.0532419 0.0372667 0.11124 0.146279 0.10186 -0.143951 0.0873097 0.195286 0.195991 -0.263507 -0.1158 0.0526074 0.107991 -0.167872 0.0405385 0.0809565 -0.0141391 -0.0894987 0.0660122 -0.17893 0.0327059 0.0285231 0.0669778 0.192018 -0.171829 0.117517 0.113453 0.112691 -0.170139 0.169802 -0.124875 0.0878097 0.154839 0.118096 -0.145211 -0.0405835 0.0885167 0.14556 -0.196279 0.110891 -0.0161125 -0.00503598 -0.174638
0.0289608 0.18282 0.0954079 -0.033935 -0.0676423 0.0735995 -0.117305 -0.014926 -0.00903826 0.159496 -0.044468 0.196278 0.0587288 0.051927 -0.146173 0.198323 0.201135 0.129106 0.0200309 0.142758 0.0926349 0.0726922 -0.0592006 0.0844732 0.238313 0.127527 0.23657 -0.153138 0.197178 -0.133628 0.0952413 -0.0429908 0.104064 -0.179965 -0.112234 -0.160736 -0.0498376 0.372245 0.300358 0.165641 -0.168683 -0.192595 -0.0488551 -0.00220612 0.0241813 0.112309 0.155396 0.0258847 0.327711 0.193402 0.223653 0.0792962 0.208923 0.0446196 -0.0495262 0.175414 -0.106904 0.340285 -0.152573 0.0326518 0.103871 -0.0127363 0.206438 0.0875624 0.229299 -0.00405662 0.18547 0.173805 -0.120262 -0.214905 -0.0163974 0.0568672 0.107751 -0.000128979 -0.182958 -0.165201 -0.0390454 0.0393946 0.126113 -0.172643 0.0350999 -0.0838191 -0.0768118 0.106752 0.141334 -0.0960204 -0.155347 -0.0305949 0.303865 0.262582 -0.140773 -0.0698469 -0.210479 0.186341 0.102903 0.0612271 -0.0154342 0.0697847 -0.165947 0.187533 -0.149332 0.0967796 0.102393 0.0678762 -0.163646 0.0862203 -0.120142 0.0970603 0.0245624 -0.0817528 0.23526 0.160918 -0.118409 -0.145377 0.105815 0.0139129 -0.0839783 -0.10657 0.159039 0.0657913 0.104907 0.177798 0.125653 -0.0766359 0.0349111 -0.0290303 0.0533681 -0.126475
0.230741 0.298396 0.311148 0.0624113 0.504302 0.00733704 0.0794185 0.156861 0.281489 0.23385 0.0220646 0.13985 0.34341 -0.181811 0.105057 0.0397443 0.596207 -0.146527 0.0932672 -0.106115 0.0216882 -0.408573 0.0725404 -0.0433198 -0.260924 0.0304133 -0.0595627 0.00442692 -0.267993 -0.0156809 0.174006 0.167998 -0.426809 -0.147607 -0.177502 0.00907126 -0.0873323 -0.0783622 0.754088 0.142521 0.239927 0.0172069 -0.0114163 -0.254861 0.132549 0.549957 0.123322 -0.251952 -0.185012 0.245192 0.051121 -0.0107725 0.235218 -0.107616 0.0689731 0.312715 -0.0460246 0.171976 0.0417814 0.365235 -0.0664935 0.206346 0.565614 0.183372 0.116523 -0.188959 0.223319 0.411238 -0.392428 -0.455255 0.331602 -0.0125581 -0.0935776 -0.0362386 0.235437 0.0403852 0.236344 -0.0869805 0.0882578 0.0982366 0.158398 -0.23968 0.0531572 0.566094 0.0901034 -0.490303 -0.271606 -0.0994851 -0.273141 0.188112 -0.282611 0.0732426 -0.151607 0.0987566 -0.291177 0.0180151 -0.0661324 0.0169751 -0.100999 0.0647831 0.21714 -0.42016 0.707444 0.053094 -0.152688 0.154504 0.232828 0.392887 0.335523 -0.123388 0.602768 0.0676601 -0.112217 0.0439438 -0.245437 0.237418 -0.233192 0.283485 0.570823 0.525537 -0.0793978 0.472839 0.270678 -0.0120699 0.13962 0.187837 0.164055 -0.0937339
-0.20243 -0.141272 0.0944101 -0.106698 -0.144255 0.0684414 -0.0131924 -0.171554 -0.0336475 0.0894837 -0.229384 0.113352 0.17575 -0.0780967 -0.0334684 -0.190087 0.202718 -0.165792 0.0817348 0.11004 -0.196845 -0.183503 0.0621142 -0.0862759 -0.298425 -0.167649 0.213082 0.13829 0.0611593 -0.0252345 -0.0919934 0.101188 -0.118269 -0.164975 -0.167274 0.149328 0.164765 0.303954 0.0230754 0.0992858 0.0701123 -0.0879278 -0.157818 0.0228269 0.19859 0.124674 0.0882348 -0.104545 0.117265 0.0274803 -0.0796928 0.263634 0.10593 -0.0484049 -0.0338811 -0.0180325 -0.14342 0.0157774 -0.0660014 -0.118419 0.269099 0.0871432 0.0106556 0.122322 0.131371 -0.16434 -0.10093 0.099898 -0.135781 -0.170914 -0.222803 0.0443483 0.0327921 -0.155044 0.126932 -0.178943 0.170107 -0.136553 0.0922927 0.0351216 0.143945 -0.101194 0.0547268 -0.123247 0.0627481 0.0497027 0.00969014 0.136892 0.185494 0.146922 0.109814 0.147169 0.123179 -0.108429 0.117414 0.0980626 -0.0570252 0.0758489 0.231382 0.137409 0.0346779 -0.0486275 -0.195881 -0.000103634 -0.161865 -0.175263 0.25068 0.059502 -0.0455756 0.116061 -0.119208 -0.147366 -0.149996 0.0242797 0.139645 0.147698 -0.158653 -0.0217841 0.0455378 -0.152248 -0.00674428 -0.0554506 0.0346818 -0.122733 0.162654 0.0986484 -0.105875 0.105597
-0.0880554 -0.0360234 0.0404345 0.0665078 0.150889 0.0769989 -0.129616 0.122529 -0.0987701 0.178482 -0.144023 -0.211146 -0.102931 -0.0430943 0.0932741 0.136356 0.0279851 0.0619255 0.159121 0.116978 0.0896483 0.02193 0.0465913 0.130198 0.105549 -0.00487935 -0.0453364 -0.128773 -0.159397 0.17219 0.0112159 0.0320113 0.173475 -0.191983 -0.0724537 0.11041 0.152693 -0.15714 -0.0539442 -0.0159066 -0.0660637 0.032724 -0.211977 -0.0372806 0.00834935 -0.0995368 0.146708 -0.13331 0.150405 0.0506704 -0.03609 0.16 -0.0938177 -0.154128 -0.193559 0.130741 0.0941068 0.065982 0.0677456 0.0898803 -0.249138 0.058732 0.143034 0.134718 0.106911 0.142946 -0.0814321 0.108369 -0.00302341 -0.269813 -0.0237287 -0.117874 -0.0156254 -0.159373 -0.0395868 0.148552 0.0392903 -0.138025 -0.151988 -0.235452 -0.163778 -0.0977908 0.131568 0.0971229 -0.0191496 -0.0246236 0.0925109 -0.144238 0.127584 -0.0362855 0.172766 -0.090087 0.182595 -0.0524613 0.0849285 0.193489 0.115282 0.118735 -0.0431023 0.0601385 0.0541179 0.147911 -0.00402656 -0.0655917 -0.116735 0.145837 0.0323117 0.151508 0.0162488 -0.0693045 -0.0339434 -0.0918506 -0.0474043 -0.00787329 -0.13841 0.0813039 0.102502 -0.0652277 -0.0754067 0.0471179 0.151379 -0.109075 0.102894 0.104175 0.189323 0.0665507 -0.0711544 -0.0160066
0.0689759 -0.0355148 -0.163221 -0.094421 0.257349 -0.0288073 0.16807 -0.19181 0.0172096 -0.155312 -0.126915 0.0202315 -0.0583787 0.139076 -0.143058 -0.14859 0.143941 0.110005 -0.108264 0.023742 0.03826 0.20734 -0.092367 0.163504 -0.140782 -0.126533 -0.183742 -0.123718 -0.0742584 0.0268684 -0.101213 -0.126425 -0.0185667 0.043143 -0.0234861 0.184207 0.0306226 0.026585 -0.107668 0.213105 0.0082723 0.0317631 -0.0964995 -0.115112 0.00918319 -0.126554 0.0395149 -0.0832756 0.199854 0.132041 -0.101715 -0.0810426 -0.091437 -0.175493 0.068385 -0.17649 -0.0953968 0.0630085 0.0514961 0.0961486 0.151846 -0.105008 0.0866905 0.069202 0.10077 0.12714 -0.048752 0.0863985 0.0170391 -0.0853011 0.085411 -0.169867 0.148995 0.098021 -0.0381208 -0.124305 0.00234095 -0.144461 0.01577 -0.0999237 -0.125709 -0.0287962 0.00624422 -0.0682218 0.032926 -0.173998 -0.0631983 0.120934 -0.0233558 -0.0657863 0.0585438 0.0290532 0.0772657 0.0223334 -0.0473461 -0.147048 -0.17408 -0.138579 -0.0401287 -0.0505235 0.0937508 0.00691472 0.00697825 -0.120543 -0.123856 0.00579894 -0.120991 0.127556 -0.126675 0.122396 -0.0996082 -0.0299238 0.0771859 -0.0504139 -0.191362 0.114574 0.117567 -0.151575 -0.153154 -0.00970864 0.174929 0.0344199 0.0194281 0.145356 -0.100522 0.137742 0.0260714 0.0198755
0.113637 0.112574 0.107034 -0.159412 0.223545 -0.118654 -0.103383 0.0371712 -0.0432859 0.0744425 0.168795 -0.134213 -0.00419127 0.197089 0.157064 0.101054 -0.0176143 -0.0597446 0.0874296 0.0269346 -0.0977342 0.0410439 -0.0342826 0.0476047 0.110636 0.00984167 -0.143201 -0.156809 0.159514 -0.114984 -0.070968 -0.0576903 0.129353 0.164279 0.0754423 0.199355 0.0895305 -0.0241212 0.130304 0.079233 0.133021 0.0772448 0.226135 -0.201019 0.0704565 -0.284073 0.0252949 -0.126247 -0.144907 0.225223 0.0966832 -0.00767266 0.0639293 0.1642 -0.0560936 0.0130966 -0.0627644 -0.236132 -0.0751681 -0.0682773 0.0620564 -0.217415 -0.00349797 -0.120643 -0.0480024 0.241106 0.14338 -0.173703 0.0225712 0.0440534 -0.000240673 0.134587 0.064095 -0.017585 0.118921 -0.0406489 0.108851 -0.0420643 -0.0500717 0.0159021 -0.189795 -0.0969822 -0.0134897 -0.140977 -0.210497 -0.0869872 0.231642 -0.00032792 -0.0816617 -0.200355 -0.195578 -0.0731174 0.141591 0.0736068 0.087345 -0.24035 -0.0298891 0.163606 0.108402 -0.14579 0.0110376 0.147946 0.167418 0.154419 0.00800512 -0.131514 -0.113777 0.13865 0.177784 -0.116129 0.149256 0.135088 0.0434643 -0.0174112 -0.112298 -0.0388067 0.167653 -0.0839423 0.0991853 -0.0998774 -0.0841336 -0.177353 0.122561 0.112114 -0.164274 0.0903567 0.0390645 0.0268724
-0.00788886 0.141193 8.89543e-05 -0.0634268 -0.108252 0.114865 -0.189941 -0.045616 -0.0460874 -0.132586 0.147782 0.0751353 0.242664 -0.0519629 -0.063003 0.142586 0.120386 -0.0401714 0.143521 -0.205231 -0.212621 -0.123514 0.202567 -0.0487157 0.145114 0.149048 -0.126085 -0.114606 -0.168717 0.108335 0.0782775 -0.0107981 0.115539 0.0332539 -0.143235 0.153624 0.115249 0.198312 0.0473625 -0.0132977 -0.13505 -0.0353967 0.0336099 0.141536 -0.188392 0.0361983 0.0126454 0.0233629 -0.00843035 0.0646259 -0.073653 0.106113 -0.288504 0.188946 0.140654 0.0659832 0.0342528 0.0185892 -0.0192771 0.0963845 0.112062 0.137816 0.0216061 -0.129089 -0.0989746 0.105038 -0.200116 0.142345 -0.0982666 -0.101377 0.0207987 7.96003e-05 0.0521396 -0.118943 -0.0351519 -0.150168 0.077915 0.0932064 -0.150702 -0.130568 0.146629 -0.0910849 0.195402 -0.125636 0.0731531 -0.118321 -0.0245685 -0.081886 -0.127631 -0.0735334 0.0766076 0.0492975 -0.164724 -0.0601627 0.0503635 0.115657 0.0758387 0.00179542 -0.166584 -0.0823307 0.0502619 -0.199609 -0.102422 -0.0793532 0.0800591 -0.159618 0.0363927 -0.0795582 -0.116722 0.0976104 -0.190508 -0.108764 -0.119446 0.165813 0.154246 0.0286083 0.0301753 -0.174075 -0.0182088 0.0664908 -0.137744 0.0929522 -0.165166 0.0931042 -0.10594 0.110437 -0.141236 -0.0723366
-0.116832 0.0362913 -0.10738 0.132194 0.100316 -0.145097 -0.125446 0.0251433 -0.0514448 -0.146794 0.0965478 0.191192 0.00244606 0.0969582 0.0386799 0.156197 -0.0202994 0.0523834 -0.110998 0.150859 -0.163862 0.0546916 -0.100038 -0.10191 0.0046054 0.103741 -0.0904776 -0.168224 0.0647528 -0.177906 0.0388051 0.114556 -0.164737 0.1095 -0.125341 0.0519467 -0.0952866 -0.0759375 -0.0708124 0.134819 0.0991107 -0.0483163 0.0570581 0.151883 0.108418 -0.0469072 0.0554016 -0.167331 0.108058 -0.0744669 -0.0558139 0.133662 -0.0597392 -0.0837275 -0.106692 0.128161 -0.0188358 0.0877376 -0.0782547 0.0285806 0.117555 -0.115923 0.143362 0.126557 0.0226236 -0.183947 0.0055476 0.0019621 0.021567 -0.0972576 -0.147328 -0.159865 0.00213856 -0.111205 -0.0998074 -0.0188901 -0.12578 -0.0603384 -0.160261 0.0435946 -0.0471973 -0.10351 0.0768127 -0.0613483 -0.0868899 -0.151593 0.137922 0.137817 -0.105128 -0.163224 0.0742388 -0.0765628 -0.120039 -0.115849 0.141416 0.10501 -0.0336941 -0.125416 -0.0701618 0.0246155 0.178632 0.074792 -0.141338 -0.167319 -0.104622 -0.0670829 -0.0344987 0.1403 0.107877 0.162557 -0.0937814 -0.0779295 -0.125343 -0.0809517 0.0917281 -0.0580325 0.081058 0.046236 -0.137919 -0.0300178 -0.0963419 -0.138264 0.0328479 0.021181 0.115056 0.0575698 -0.151268 0.129761
0.067173 -0.0647316 0.0314022 0.0127828 -0.112256 0.15707 -0.0260185 -0.182699 0.212575 -0.0620072 0.164839 -0.13671 0.111824 -0.0614806 -0.0986376 -0.149146 -0.00798015 -0.0948022 -0.06859 -0.0494929 -0.0582448 0.11705 -0.171731 -0.020643 -0.0348541 0.221886 0.169481 0.189079 0.079702 -0.0291966 -0.0199038 -0.0243505 0.17417 -0.010115 0.210866 -0.0633071 -0.16852 -0.160787 0.108213 0.0649158 -0.0965621 -0.0767269 -0.183679 0.0897265 0.0747392 0.15021 -0.121245 -0.188639 -0.0312774 -0.048594 0.0212128 -0.171565 0.123503 0.098891 0.160502 0.18585 0.160193 -0.0140976 -0.076115 0.0260152 -0.078263 0.10446 0.127059 -0.177974 0.0860688 -0.0322974 0.033665 -0.0825377 -0.161559 -0.00829862 0.142895 0.0682094 -0.167649 -0.147157 -0.0853691 0.0117897 -0.152629 0.100759 0.123928 -0.110226 -0.0733948 -0.0485256 -0.121403 -0.126134 0.19047 0.0808904 0.191638 0.0979639 -0.238455 0.0503218 0.0152851 -0.15453 0.154173 -0.206726 0.168316 0.173676 0.0102971 -0.131624 0.204204 -0.128015 -0.0228492 0.118295 -0.00766055 0.0993742 0.00495941 0.0140983 0.00654564 -0.0276834 -0.138351 0.0229564 0.175812 -0.14408 0.225184 0.00700248 -0.127507 -0.178697 -0.122969 0.168679 0.0686942 -0.176458 -0.0751418 -0.0278006 0.0415587 -0.127101 -0.0964864 -0.0200178 0.0708165 -0.0397493
-0.088852 0.158124 -0.0223559 0.0156324 -0.0762336 -0.118357 -0.0291022 0.0283515 -0.0536134 -0.0620686 -0.0295769 -0.000554148 0.0307448 -0.108964 0.0314473 0.177333 -0.169426 -0.0142804 0.0107953 0.122693 -0.137325 0.0675635 -0.0714305 0.166191 -0.125133 0.112695 -0.0482914 0.147869 -0.0824237 -0.213041 0.0412337 0.174748 0.134909 0.155705 0.146238 0.0407829 0.121842 0.100195 0.0994288 -0.135542 -0.0237497 -0.0515843 -0.030339 -0.0497634 -0.0248713 -0.183324 0.00271655 -0.0355947 -0.139266 0.0146763 -0.126275 0.154076 0.0815182 -0.0209952 0.0806044 0.146813 -0.0612342 -0.131988 -0.101443 0.117677 0.124972 0.128046 0.138555 0.0180957 -0.0290042 -0.0725735 -0.118523 -0.176419 0.113484 -0.156199 0.181448 -0.154936 -0.0914325 0.158804 0.0464282 0.0296771 -0.151449 -0.133756 -0.0902082 -0.147929 0.056013 -0.0927488 0.086919 0.0988202 -0.124957 0.144891 -0.0968557 0.126026 -0.0390218 -0.125502 0.011826 0.0841728 -8.96386e-05 0.0643125 0.185426 0.0507709 0.140276 0.00943656 -0.153877 -0.0775827 0.0141722 0.161697 -0.163046 0.160154 -0.0566781 0.0634998 -0.143386 -0.0708671 0.043891 -0.0383279 -0.140473 0.037165 -0.0253152 -0.113576 -0.142881 -0.224961 0.0533931 0.0385966 0.186183 0.122124 -0.0727692 -0.109259 -0.134712 0.164189 0.172569 0.163764 -0.0243814 0.125424
-0.163692 -0.121001 -0.140424 -0.155747 0.178688 -0.0546499 -0.207432 0.00990569 0.138707 -0.0216731 -0.0343668 0.0523527 -0.14405 0.161405 0.000495659 0.0802478 0.12178 0.0930493 0.141865 -0.110296 -0.150498 -0.132943 -0.25096 0.0527475 -0.140537 -0.135646 -0.0560588 0.154482 -0.00615081 -0.180203 -0.0325755 0.0459013 0.112743 0.0190586 0.0766762 -0.051076 0.104304 -0.118882 -0.169341 0.163587 0.05876 0.0671132 0.135049 -0.120627 0.198222 0.208985 -0.00731235 -0.136239 0.0244849 -0.0671018 -0.0572002 0.0577047 -0.109642 -0.160768 -0.0797548 -0.0713029 0.161566 -0.0418887 0.139352 0.101166 -0.0233891 -0.212019 0.179295 0.175835 -0.156587 0.0633422 0.133323 -0.0507905 -0.0179019 -0.0135712 -0.195639 -0.17376 -0.0888282 0.169252 0.125974 0.151498 0.118185 -0.0690299 -0.174429 -0.103297 -0.136062 0.150371 -0.210263 -0.0700463 -0.00678964 0.0857447 0.265634 0.0411135 -0.0225154 -0.113142 -0.0786451 -0.0266464 -0.217013 0.00034224 -0.0175199 0.101013 0.161432 -0.0640821 -0.204533 -0.137219 -0.0268292 -0.00926429 -0.0151745 0.107145 0.0291553 -0.0971452 0.0848167 -0.131183 0.0768024 0.0673208 0.0469154 0.126902 -0.0407219 -0.117309 -0.0295557 -0.111894 -0.105107 0.0403594 0.0171364 0.00773633 0.144169 0.188593 0.00123904 -0.0461789 0.0532154 0.0565445 0.144957 0.125147
-0.106056 0.256602 -0.0960785 0.15053 0.239465 0.223477 -0.160951 -0.131068 -0.0375619 0.0488087 -0.193825 -0.29892 0.0401261 -0.0454995 -0.0152703 0.0600616 0.0702432 -0.0216814 -0.0240252 0.0555418 0.000918266 -0.141147 -0.0539259 0.0561768 0.0756267 -0.353805 0.198922 0.0547822 -0.112184 -0.177772 -0.177017 0.175308 -0.126212 -0.209236 -0.103967 -0.21504 -0.158918 -0.364996 0.349087 0.0111799 -0.100754 0.112853 -0.124561 0.111614 0.251741 -0.0656439 0.0142307 -0.403274 -0.0529882 0.0437267 0.149528 0.197405 0.387415 -0.176996 -0.210728 0.0243877 0.092969 0.00525713 -0.12639 0.0971276 -0.216801 0.0621983 0.283291 0.132989 -0.150881 0.0497691 0.137865 -0.0526362 -0.0719725 -0.197544 -0.0305762 -0.234528 0.120138 0.0993915 -0.0241346 0.250731 0.158901 -0.186745 0.072329 0.161963 -0.000594823 -0.156189 -0.109842 -0.0532671 0.141937 0.0186513 0.0767602 -0.0625976 0.0805229 0.180408 0.177359 0.0874633 0.259654 0.287129 0.22553 -0.166436 0.0823283 -0.154079 -0.0139253 -0.223434 0.0151579 0.0518566 0.360559 -0.274879 0.105669 -0.0887702 -0.101887 0.176651 0.302416 0.0265845 0.0896726 0.062719 -0.0163917 -0.0323865 -0.0655666 -0.187998 -0.157657 0.194754 0.0549917 -0.00876686 0.0377447 0.134754 0.00893539 -0.109645 0.367678 -0.14709 -0.0928943 -0.0732472
-0.0775784 0.0255043 -0.0136012 -0.0134513 0.0304308 -0.133614 -0.124497 -0.0629102 0.0540024 0.080821 0.243502 -0.183448 0.129186 0.0403136 -0.166213 -0.195565 0.0234397 0.000712465 0.168993 0.196431 -0.026462 0.104384 0.0645122 -0.112841 0.19315 -0.0828551 -0.0544407 0.0407657 -0.127785 0.0367244 -0.0024721 0.0701602 -0.0704507 0.149765 0.080553 -0.0242266 -0.0641545 0.0814094 -0.124279 -0.0631964 0.0976245 0.174534 0.00525272 -0.016104 -0.00336953 -0.079955 -0.155613 0.0393715 0.144436 0.174154 0.0204498 -0.0906709 0.160658 0.150905 0.0200236 0.0803491 0.172962 0.0789149 -0.0539667 0.0405841 0.10756 -0.0997526 -0.0127027 0.000607366 0.0149252 0.289132 -0.17291 -0.0918151 -0.0589154 0.104327 -0.0624474 -0.0578959 0.0334478 0.037765 -0.116354 0.0732105 -0.0607661 0.0890883 -0.118795 0.0302574 0.0644267 0.0499127 -0.079231 0.119269 0.0164614 0.000972024 0.0955361 0.0662937 0.106506 -0.0905308 0.0693589 0.0675911 -0.152731 -0.163083 0.0509755 -0.00387666 0.140618 0.0264148 0.0944958 -0.120584 -0.0826438 0.072699 0.0458923 0.201199 -0.0708955 0.114808 -0.0939556 0.00128777 0.149175 0.171178 -0.0723018 -0.055735 0.115606 -0.042803 0.0919469 0.109402 0.0346424 -0.132055 -0.0543494 -0.184092 0.165324 -0.105476 -0.0526055 -0.114191 -0.205031 0.0271068 0.0311164 -0.1256
0.185354 0.16186 -0.144026 0.0455631 0.07517 0.117187 0.0607011 -0.0130459 0.0946496 -0.0718365 0.179993 -0.0344138 -0.150244 0.131734 -0.170517 -0.0428277 0.0786552 -0.0408679 0.14361 -0.222387 0.165459 -0.0796302 -0.0705248 -0.0954433 0.216946 0.209484 0.103455 0.0776464 -0.0642877 0.0157773 0.0722848 -0.222932 -0.0912798 0.124586 -0.15032 -0.112094 0.0829599 -0.0243481 0.16679 -0.00569592 0.0446933 0.11664 0.174374 0.0478266 -0.15213 0.038981 0.00510574 0.148771 -0.023687 0.178964 0.117502 -0.106326 0.0463457 -0.0673005 0.145134 0.181097 -0.108719 0.198135 -0.0954757 0.0549711 -0.0318902 0.0913205 0.199952 -0.0449441 0.155964 -0.0465418 0.119511 0.203998 -0.10287 -0.00378886 0.166346 0.188034 -0.0156625 0.135377 -0.00562627 -0.165435 0.0903828 -0.0807895 -0.157035 0.0475134 0.11711 -0.147764 0.133938 0.0228005 0.0105695 -0.207939 0.00647828 -0.0820421 0.229511 0.203932 -0.215502 0.0391896 0.155377 0.141113 0.0161767 0.038586 -0.14831 0.0876547 -0.228826 -0.153667 0.0315492 0.0207521 0.0497997 -0.0921497 -0.136284 0.0250345 -0.0952992 -0.00489799 0.0345962 0.0801682 0.00630933 0.0774488 0.026181 -0.141492 0.0742663 -0.106218 -0.144265 -0.0858341 0.0939342 0.179325 0.0495839 0.143282 -0.10265 0.131391 -0.0668648 -0.09032 0.0773392 -0.0389166
-0.0816337 -0.104503 -0.083442 0.146971 0.00831679 0.0120524 0.0803963 -0.0748524 -0.273546 0.0561361 0.0925129 0.0402334 -0.197625 0.00572483 -0.121789 0.177709 -0.193409 -0.00776978 -0.150894 0.0434582 -0.172161 -0.191807 -0.0413675 -0.157668 -0.107469 0.0251126 -0.116547 -0.100412 0.139176 -0.0807611 0.137961 -0.263539 0.00835025 -0.145867 0.172927 0.0853298 0.166278 -0.382463 0.191249 -0.14877 -0.148636 0.0365132 -0.011781 -0.0727078 -0.0946762 0.11448 0.0315661 -0.0374513 -0.228191 -0.166656 0.148439 -0.0958112 0.371552 0.0354105 0.174725 0.14068 0.12844 -0.089204 -0.201103 0.0625674 -0.0182403 -0.0219487 -0.11835 0.187188 0.0688659 0.112906 0.174038 0.0542679 0.206412 0.125263 -0.00992977 -0.0844726 0.0124282 -0.105401 -0.24238 0.0140739 -0.0604923 0.0371153 0.161396 0.150633 0.137947 -0.0869016 0.188912 0.0227438 0.174575 0.0735943 -0.128593 -0.0186596 0.148587 -0.0363752 0.0469502 -0.0988016 0.0322042 -0.235035 0.256346 -0.0633586 0.0987421 0.0784843 -0.0702866 0.0403616 0.117591 -0.0111934 0.0926358 -0.153193 -0.173977 0.00300449 -0.066087 -0.129531 0.00493176 -0.251817 0.31854 -0.00968433 -0.120725 -0.151827 -0.0174282 -0.198124 -0.0717511 0.0948608 0.140213 0.203403 -0.0610801 0.14514 -0.0656552 0.112621 -0.240199 0.22458 0.090628 -0.0407018
0.0398207 0.1634 0.0334381 -0.155803 0.0162256 0.113516 0.11618 -0.190451 0.078339 0.287874 0.205339 -0.0465081 0.158848 -0.0191434 0.0101834 0.0792142 0.0686868 -0.0993782 -0.0989513 -0.0101448 0.174133 -0.0949938 0.0475263 -0.0358064 0.204966 0.0152432 -0.0590965 0.0674575 0.163784 -0.224218 -0.122801 0.0896558 -0.178713 0.0102331 0.0555574 0.114553 0.113365 -0.271381 -0.147566 -0.302357 0.117406 0.0127289 -0.0497724 -0.0988464 0.0519006 -0.0613004 0.0128231 0.065791 -0.0823604 -0.16707 -0.0161593 -0.294702 -0.050467 0.00979648 0.171502 0.242737 -0.106787 0.168483 0.134968 -0.0389779 -0.0325096 -0.0673514 -0.099708 0.120756 0.13649 -0.145046 0.221727 -0.142847 -0.0535749 -0.0686146 -0.235115 0.12153 0.0375637 0.125813 0.119339 0.185412 -0.0229562 0.23432 0.172214 0.0813998 -0.0869315 0.037645 0.0316046 -0.0354726 -0.0309725 0.0202052 -0.0750344 -0.11616 0.026928 0.0472702 0.24793 0.0883905 0.0324918 0.222758 -0.0666505 0.0986413 0.0730156 0.0783658 -0.0819707 0.0939908 -0.205807 -0.0406122 -0.217741 0.170153 -0.0983114 -0.0961779 0.207143 -0.143572 0.106237 -0.0433394 0.243688 -0.134654 0.168653 -0.0720432 -0.0573045 -0.0826353 0.0245699 0.188421 0.117784 -0.113501 0.0304778 0.0338127 0.313027 -0.234259 0.125871 0.0272298 0.0314839 -0.0212518
0.06468 -0.0173955 0.0376387 -0.109385 -0.0782491 -0.172754 0.148082 0.10884 -0.0331853 0.12549 0.118817 0.116123 -0.156608 0.107432 0.0185467 0.0797362 0.15326 0.171107 -0.0563206 0.169642 -0.125376 0.151826 0.0242019 -0.0393522 -0.190754 -0.0910058 0.166025 0.041305 0.117924 -0.167965 0.123881 0.324846 -0.155634 0.0836561 0.179112 -0.0995751 -0.149942 0.161938 0.11218 0.197188 0.085329 -0.124269 -0.152372 0.267897 -0.126534 -0.218829 0.0747104 -0.0816177 0.0221718 -0.00966483 0.0800857 -0.13104 -0.115101 -0.0533313 0.110505 -0.198615 -0.0880955 -0.0325302 0.126967 0.0731553 -0.184668 0.150423 -0.145651 -0.143231 0.105608 0.0871819 -0.129892 0.0165972 0.0271913 0.151142 0.230559 0.0820004 0.00709845 -0.0143783 -0.00524038 -0.193256 0.13976 -0.15033 -0.14492 0.0456898 -0.193342 -0.155814 -0.0311311 0.0687381 0.181417 -0.18457 0.171251 -0.0532586 -0.27528 -0.205685 0.148741 0.165401 -0.202234 0.196161 -0.0753233 0.214717 0.0755175 0.000971072 0.193499 -0.178265 0.0199172 0.140258 -0.117542 0.0508946 -0.118039 -0.0943928 0.0759123 0.103992 0.0816378 -0.0442943 0.0726798 0.0558035 -0.0380204 0.0621388 -0.137122 -0.20952 -0.185075 0.208393 0.175485 0.0910662 0.172298 -0.145669 0.0679446 -0.263831 0.13223 -0.028422 -0.00615787 0.116153
-0.0073969 -0.0305754 -0.0528749 -0.121481 0.2328 -0.102997 0.150227 0.176985 -0.0822955 0.223976 -0.0475564 0.166276 -0.152779 0.0225903 -0.153729 -0.0846786 -0.00484162 -0.0916792 -0.136023 0.0369357 0.193227 0.0242232 0.143388 0.0959047 0.0390877 0.140676 0.0740791 0.112391 0.0608697 0.171868 0.169967 -0.0032592 -0.0817705 0.0455333 -0.138617 -0.122914 0.0969277 0.181063 0.0213992 0.0685528 0.0414937 -0.173919 0.127562 0.258365 -0.140161 -0.145726 -0.172876 0.178575 0.121393 -0.189857 -0.146759 -0.133984 -0.0683881 -0.103129 -0.0730246 0.165335 0.0642798 -0.103614 0.0562183 0.0561322 0.0838264 0.0107427 0.178388 -0.246931 0.0308796 -0.0348383 -0.171746 0.132135 -0.149013 -0.199504 0.0393782 0.171308 -0.0775042 -0.14153 -0.101827 -0.128981 0.142266 -0.104409 -0.00322251 0.0772014 0.101715 -0.240713 0.0418745 0.162321 -0.243324 0.0534024 0.210916 -0.0353531 0.0570152 0.0272345 0.121999 -0.169461 0.0144423 -0.100924 0.116122 0.23977 -0.0108661 0.130994 0.181115 0.0441176 -0.088018 0.215764 0.0169342 0.16403 -0.142473 0.0117088 -0.204602 -0.0243736 0.136417 -0.211831 -0.0815595 -0.0175715 0.277572 0.0272709 0.180704 -0.187531 -0.0193971 -0.0820407 0.0597217 -0.176474 -0.0499609 0.0248972 -0.085477 -0.161528 0.0362067 -0.0858134 0.12596 -0.156395
0.0259142 -0.201022 -0.0387083 0.0427443 0.133582 0.292112 0.118067 0.17478 -0.0474464 0.112398 -0.05578 -0.165405 0.209833 0.1583 0.0225207 -0.0294912 -0.0899886 0.0107354 0.165926 -0.176696 0.0302546 -0.0487655 -0.269943 -0.0908888 -0.0798743 0.0492701 -0.0265085 0.118035 -0.0474901 0.215388 0.116271 -0.0289865 -0.0570783 -0.13529 0.052749 -0.219384 -0.0169541 -0.136069 -0.0376384 0.0305024 0.186087 -0.0797905 -0.149307 -0.0185527 0.270521 0.072231 0.0385715 0.126322 -0.0854205 -0.138294 0.13897 0.220093 -0.108886 0.18034 0.225722 0.153245 0.159151 0.136768 0.073177 0.0736002 -0.0912816 0.128511 -0.0363083 0.00651987 0.184938 0.0872237 -0.191493 0.169428 -0.118716 -0.0411893 -0.0186391 -0.180214 -0.0976444 0.153398 -0.161196 0.259552 -0.0199471 -0.138829 0.0248299 -0.199165 0.0480792 0.173955 0.149762 -0.0216667 0.0409469 -0.22386 0.22631 0.0288528 0.163463 -0.0660134 -0.116765 0.149817 -0.254436 0.0141453 -0.0444442 0.0853998 0.0136172 -0.0066117 0.240808 0.10615 -0.165087 -0.10129 -0.024374 -0.235069 -0.0782441 -0.169106 0.0727796 -0.111939 -0.0243383 -0.0323228 -0.0642854 0.175025 -0.274229 -0.130608 0.0403816 -0.116926 -0.115218 -0.0100494 -0.0487972 -0.150999 -0.0283388 -0.0229324 0.00569038 0.204458 0.0562808 -0.14302 0.140214 0.179593
0.0190049 -0.0697159 -0.0314922 0.140421 -0.208103 -0.0569595 0.142642 0.152774 -0.12005 0.0953948 0.0777903 0.123663 0.149636 0.0990851 0.00756205 -0.0502384 0.043844 0.134376 -0.137226 0.0282882 0.164722 0.0343445 -0.0611868 -0.259909 -0.0402163 -0.0773461 0.210264 -0.118257 -0.199018 0.147245 -0.054171 -0.0628036 0.100892 0.195072 -0.226295 0.0612868 -0.00671903 -0.17031 0.125253 -0.123447 -0.224866 0.122375 -0.0763333 0.0709234 0.0623572 -0.0618578 0.0153825 -0.291401 -0.213825 0.144182 -0.128265 -0.117609 0.0201583 0.00165828 0.0931387 0.0155674 -0.123071 -0.160992 0.18234 -0.100028 0.185812 0.230878 -0.22314 0.000400916 0.11008 0.117573 0.0312942 -0.0271954 -0.143822 0.0550205 0.115721 0.237017 0.0386726 0.0208309 -0.161651 0.152945 0.227952 0.190547 0.0911198 0.0412395 0.0619281 -0.0324642 0.1323 -0.0582502 0.0080541 -0.116217 -0.0338187 0.00759606 0.0794202 -0.0470662 0.0977091 0.056634 0.25768 -0.0741052 -0.243458 -0.290546 0.144825 -0.0413582 -0.221739 -0.0721324 -0.0748649 0.0723166 0.0139231 0.0647946 -0.0157374 -0.145892 0.0737877 -0.0126728 -0.135894 -0.00450351 0.0938291 0.0633786 0.100312 0.167869 -0.156125 0.203616 -0.149269 -0.253093 -0.0936419 0.12511 -0.0994359 0.116989 0.0382473 -0.152167 -0.209902 -0.129745 0.0882336 0.150712
0.135769 -0.00957221 0.123385 -0.0218427 0.0301349 -0.136419 -0.174936 -0.156763 0.0074559 0.0195195 -0.0943061 -0.107249 -0.0419153 -0.157443 -0.0411465 0.0376612 0.0163969 -0.0792878 -0.0161648 0.0186905 -0.00815804 0.121405 0.0884025 0.141395 -0.169043 -0.170673 0.12176 0.0432607 -0.111207 -0.0659875 0.0080512 0.0476136 -0.138077 -0.030327 0.110793 0.0327996 -0.175694 -0.181555 -0.051111 -0.0594772 0.149828 -0.133314 -0.0804832 -0.061704 -0.0967066 -0.125777 0.0480675 0.178621 -0.170471 -0.0243037 0.0979608 -0.0980413 0.161508 0.00486929 0.0648444 -0.0834847 0.168145 0.0972574 0.13811 0.0270177 -0.0464319 -0.120392 -0.108536 -0.0368704 -0.0179044 0.16507 0.0884902 -0.148173 0.0768158 -0.0417339 -0.0691857 0.086383 -0.167991 -0.082873 0.058784 -0.131721 -0.0472303 0.143499 0.0296916 -0.17234 0.158276 0.0579679 0.0245162 0.176955 0.136472 0.0282057 0.0498438 -0.133274 0.0476954 0.147935 0.100586 -0.149457 -0.0612536 0.179449 0.0191312 -0.0181616 0.0661973 -0.0743713 -0.0687457 0.0081774 -0.0529069 -0.0673502 -0.0949471 -0.0695672 -0.163924 -0.0738317 0.0260661 -0.105161 0.0989403 -0.166804 0.0455035 0.155009 -0.0253874 -0.0186887 0.0973504 0.156937 0.00526236 -0.00873195 -0.085537 -0.0327841 -0.115431 -0.177034 -0.0322635 -0.0270093 0.118115 0.00483424 0.0774483 -0.102735
0.247261 0.0492466 0.136403 -0.148248 0.270941 0.110143 0.220195 0.045803 -0.000300738 0.122407 0.0668015 0.174988 0.229886 0.0595157 0.0174859 0.159688 0.346889 -0.176526 0.00416846 0.107518 -0.077961 -0.159451 -0.0789892 0.210318 -0.349408 0.13643 -0.118202 0.0395865 -0.128495 -0.212264 0.0846825 0.0822744 -0.104333 -0.0437461 0.00762539 0.221646 -0.110063 -0.0643611 0.442509 0.175409 -0.0466462 -0.00542847 -0.0811376 0.00772985 -0.0134004 0.117406 0.236789 -0.199915 0.0554025 -0.115701 0.0399619 0.0707899 0.000378959 -0.0905498 0.140493 0.119098 0.169495 -0.130454 0.023339 0.218686 -0.0924686 0.268502 0.337711 0.228983 0.217352 0.0584009 -0.0387051 0.321995 -0.288934 -0.119243 0.364084 0.0299762 -0.149473 -0.108574 0.0313681 -0.274756 0.247548 -0.223131 -0.0876278 0.0404439 0.0253511 -0.0418049 0.0967848 0.388441 0.248202 -0.247304 -0.022145 -0.117537 0.0267904 0.0297442 -0.0711604 0.171549 -0.139532 -0.109447 -0.139005 0.0351471 0.140195 0.0446311 0.14655 -0.146472 0.185142 -0.305534 0.378064 -0.0182663 0.0440825 0.0876921 -0.112693 0.275474 0.189074 -0.21722 0.449107 -0.0865145 0.0470115 0.0541335 -0.0180801 0.0821689 -0.153677 0.244216 0.15248 0.435899 0.00884598 0.0226432 0.210353 0.0578984 0.135663 -0.0336044 -0.0637614 0.0448259
-0.115978 0.131583 -0.0179764 0.0387473 -0.0145886 -0.160745 -0.176912 -0.124484 -0.0580834 -0.125849 -0.117126 -0.0261746 0.0770118 -0.11775 -0.0832933 0.0983782 -0.00874289 0.116945 0.0927588 0.188697 0.206206 -0.00604412 0.105637 0.170367 0.058917 0.123099 0.10862 0.0733125 -0.00345032 -0.0428664 0.017936 -0.128934 -0.0765909 -0.0462784 -0.168217 -0.126394 0.169762 -0.107535 -0.21603 -0.114936 -0.081977 -0.122578 -0.154317 0.111425 -0.072506 0.00246658 -0.16789 -0.150081 -0.0662035 -0.106577 0.100409 0.0375409 0.0384749 0.180996 0.0734151 0.103898 0.129734 -0.183549 0.100517 0.208152 0.134289 -0.0127049 -0.0628859 -0.0271813 0.092981 0.150214 0.0816713 0.0624423 -0.0773057 -0.115262 0.122524 -0.0236463 0.128563 0.139054 -0.0883191 0.0619115 0.183647 -0.0452328 0.015811 0.148331 0.137592 -0.072019 0.0318802 -0.0761914 -0.0298083 -0.208681 0.0590826 -0.155434 -0.0793968 -0.170066 -0.0322966 0.102387 -0.148877 0.118677 -0.0221837 -0.185833 0.0119739 -0.0444421 -0.144925 -0.105021 0.0827442 -0.141662 -0.147948 -0.130635 0.0489264 -0.0820387 0.0129061 -0.0157442 0.196746 -0.0493424 0.219079 0.000833872 0.040961 0.0148067 0.13786 -0.106837 -0.103645 -0.13793 0.105405 0.124745 -0.136428 -0.103753 0.0288235 0.161989 0.0258843 0.0163927 -0.0802986 0.0737592
0.00909023 0.0688342 0.126673 0.144225 0.0681689 -0.0377565 0.138031 -0.121371 -0.146747 -0.0938863 -0.054641 0.119799 0.0885909 -0.14938 -0.107366 -0.0312906 0.143189 0.0120579 -0.0577449 0.106613 -0.138905 -0.126407 0.16802 -0.0226817 -0.027399 0.112346 0.0117422 0.103719 0.0914259 -0.122072 0.0970757 -0.115 -0.00571332 0.00682301 -0.149346 -0.0702774 -0.121621 0.00592153 -0.044894 -0.132132 -0.161643 -0.155896 0.114331 -0.113107 -0.0901871 -0.217555 -0.013925 -0.00865578 0.00275582 -0.0681368 -0.0684058 -0.0624953 0.0417553 0.0986035 -0.109181 -0.0803743 -0.163534 0.0305109 -0.0612442 -0.123483 -0.0831576 0.0496034 0.0374887 0.115605 -0.105901 -0.0990643 -0.185107 -0.128606 0.175276 0.0413417 -0.0307402 0.00332924 0.106994 -0.049032 -0.136333 -0.0858072 0.161895 -0.0147277 -0.0391181 -0.0459221 -0.0526465 -0.184069 -0.128968 0.020859 0.0400232 0.0494705 0.0434849 -0.116355 -0.143631 0.0124305 0.0116262 0.149977 0.123587 0.00194878 0.068326 0.136543 0.14267 -0.136462 0.152662 0.143328 -0.142464 0.0358206 0.183795 -0.0876443 -0.0876816 -0.0656298 0.00845206 -0.0711859 0.19227 -0.155913 -0.140826 -0.142058 -0.140218 -0.0016646 -0.130462 0.0215408 -0.0717334 -0.003938 -0.128076 0.0510949 -0.162701 0.092146 -0.0180256 0.102811 -0.0233434 -0.0112502 0.106654 -0.169841
0.209511 0.130628 0.17811 -0.044276 0.0197798 -0.125773 0.114349 0.0847944 0.158986 0.186835 -0.0441333 0.126994 -0.194814 0.159498 0.022952 -0.208536 0.143879 -0.005326 -0.144371 0.151099 0.190061 0.0578941 -0.0607627 0.0128816 0.0845094 0.11376 -0.0113203 0.0636196 -0.0186747 -0.199672 0.00851448 0.133063 0.12307 0.133775 0.192502 0.127563 -0.0449495 -0.147756 0.192877 -0.0759988 0.119615 0.171991 -0.0249643 0.232751 0.0780925 -0.114314 0.152899 -0.139418 -0.165502 -0.256336 -0.102611 0.0294928 0.0491178 0.066253 -0.153581 -0.0765411 0.112146 0.104634 0.0171801 0.0535319 0.0921986 0.116928 -0.130018 -0.0563526 0.000606878 0.123719 0.113932 -0.00873917 -0.085638 -0.101952 0.0607199 0.133343 -0.121107 0.0781877 0.172852 -0.169842 -0.0323596 -0.195167 -0.0395413 -0.16949 -0.145783 0.0778566 0.124223 0.0907448 -0.0351621 0.229737 0.267407 -0.0671287 -0.210836 -0.070581 0.0925306 0.124878 0.146796 0.0988703 0.0068304 -0.0478384 -0.145941 -0.0428704 0.0637413 0.137482 0.0327844 -0.0361829 0.110148 -0.0759814 0.00896481 -0.0951332 0.076432 -0.0985167 0.0693106 -0.0581151 -0.177697 -0.110716 0.200166 -0.0897267 -0.160964 -0.144782 0.00738812 0.142565 0.000661098 -0.0379924 -0.0161723 0.0268691 0.0129476 -0.125448 -0.0860928 -0.220586 -0.052933 0.0854752
-0.0166718 0.0232599 -0.157992 -0.14476 0.071496 0.137287 0.201754 -0.163533 0.136217 -0.219435 0.00401702 -0.141583 0.0302924 0.114599 0.0123942 0.11422 -0.0802562 -0.143998 -0.100282 -0.0136684 0.167861 -0.046318 -0.182178 0.167996 -0.197606 0.168875 -0.00498141 -0.00865534 0.0491104 0.150846 -0.151249 -0.200781 -0.231596 0.221862 -0.0140659 0.138478 -0.172174 -0.0720976 0.062265 0.0268878 0.160815 0.088862 0.119309 -0.277536 -0.0417454 -0.161395 0.0875917 -0.0113615 0.0894902 0.161567 -0.216264 -0.121379 0.186215 -0.167199 -0.136629 -0.0820159 -0.0190874 0.00881596 0.0612363 0.0401716 -0.0868356 0.167874 0.199017 0.0489202 0.109365 -0.0421973 -0.116052 -0.136422 -0.0332173 -0.150776 -0.0319882 0.180837 -0.00710038 0.0323797 -0.0883532 0.0911833 0.0768023 -0.0496699 -0.128697 -0.134119 -0.124567 0.0153829 -0.15353 0.0479933 -0.156641 0.0750014 -0.164757 0.153687 0.0517883 0.232203 -0.166786 -0.209692 -0.03705 0.258495 -0.0153166 -0.198339 0.123252 -0.08486 0.026131 0.0411268 -0.127158 0.0123782 0.0815426 -0.199397 0.0308926 -0.152683 0.120638 -0.0686572 0.00832079 0.19204 -0.0369206 -0.0424864 -0.132373 0.0174904 -0.202176 0.0536658 0.194538 -0.135259 0.113067 0.166922 -0.167211 -0.00417134 -0.000949609 0.195629 -0.028519 -0.0133707 -0.0677081 0.144158
0.0688635 0.0237124 0.0838802 -0.0711755 -0.251861 0.201369 -0.181605 -0.216927 -0.170692 -0.0930151 -0.160993 -0.103975 0.114649 0.0915434 0.021776 0.179644 -0.0144694 -0.165923 -0.0816337 -0.0716713 -0.0675476 -0.127641 0.20222 -0.113388 0.0473476 0.243511 0.0683146 -0.024689 0.0220488 -0.0157814 0.0312956 0.1221 -0.141042 -0.162676 0.192912 0.0671691 0.116017 0.0348745 0.0259098 -0.0797167 -0.0772928 0.0751801 -0.112512 -0.0955391 -0.303381 0.331313 0.102427 0.237284 -0.0787189 0.264887 0.165584 0.0494502 0.155314 -0.0717824 0.146917 -0.068932 0.0741007 0.0907113 -0.1108 -0.0595355 0.128533 0.0660935 -0.0353731 0.0323126 0.106208 -0.129931 0.149501 0.0848589 -0.0544053 -0.199461 0.201383 -0.179895 -0.0723546 -0.142649 -0.221856 -0.000732437 -0.0316655 -0.180451 0.00591547 -0.193578 -0.0100335 0.0353701 -0.173081 0.210236 0.16227 0.196317 -0.159437 -0.210804 -0.0691095 0.155763 -0.0922935 -0.0239123 0.0630311 -0.156197 0.216558 0.234157 0.0911063 -0.0899515 0.0611098 0.0738795 0.097956 -0.0803149 0.284814 -0.105124 -0.0928035 0.0918531 -0.140343 0.0584981 -0.0282627 -0.229443 0.180466 0.0356875 -0.0910682 -0.128023 -0.183474 0.0785129 -0.00387583 0.117194 -0.0779412 0.0589567 0.16116 0.0635788 -0.0697098 0.181166 0.0596666 0.249383 0.0519244 -0.15011
0.0865712 -0.141693 -0.0501026 0.114419 0.208218 -0.0180335 0.15706 0.132069 0.181354 -0.132744 -0.178785 0.106666 -0.102857 0.199409 0.000997061 0.138017 0.159849 0.128946 0.148684 -0.0842377 0.00252005 0.143193 -0.252864 -0.0212864 0.0659521 0.285728 0.283867 -0.000657958 0.069607 -0.147416 0.0871723 0.258479 -0.103215 0.0696393 0.244274 -0.192215 -0.014042 0.299021 0.0256152 0.165468 0.131851 0.0190208 0.0895826 -0.312157 -0.249174 0.201473 0.114616 0.115138 -0.140753 -0.0955874 0.251706 0.199353 -0.0862092 -0.0248136 0.0565026 0.187168 0.078981 0.244 -0.0332672 -0.149773 0.0349775 -0.0351504 0.0921093 -0.14513 0.133041 -0.101162 -0.0458719 0.142824 -0.1735 0.095858 -0.0536329 0.153459 -0.0257793 0.162487 -0.337773 -0.314839 0.196037 -0.167573 0.0114807 -0.11911 0.183153 -0.171894 -0.151317 0.152783 -0.00033373 -0.0602939 -0.115436 -0.108089 0.0582312 -0.129364 0.0890795 -0.167969 -0.160429 0.0789066 0.101802 0.119212 -0.0375156 -0.0951386 0.243958 -0.117922 -0.0803522 -0.0566825 -0.0298126 0.207414 -0.106489 -0.0334674 -0.117367 0.111957 0.0854173 -0.163373 0.23998 -0.020186 0.0456503 0.146231 0.184936 -0.0210631 -0.0673023 -0.0196957 0.0711444 0.0723846 0.102975 0.0945979 0.148299 0.153511 -0.0494018 -0.0166921 0.14423 0.147304
-0.0965874 0.0322016 -0.0967259 -0.156522 -0.0341432 -0.105426 0.00475744 -0.053864 0.0123285 -0.0393955 -0.0384119 0.126448 -0.0482786 0.138816 -0.141861 0.0957074 -0.146166 -0.148763 0.0268576 0.0683435 -0.043599 -0.0768977 -0.0359099 0.0228451 0.156709 -0.168732 0.142525 0.0566271 0.0798536 0.118758 -0.0629133 -0.163844 -0.183175 0.0802675 -0.158019 -0.147988 0.0917114 0.129109 -0.174727 -0.169749 -0.139894 0.014912 0.0311561 -0.140674 -0.157984 0.0613864 -0.0472517 -0.017673 0.0784015 -0.13666 -0.0589055 0.0723379 0.00386707 -0.0351896 -0.00831444 -0.0683268 0.113176 -0.111559 0.152158 -0.145108 0.0677977 -0.108894 0.0698372 -0.156897 0.0816814 0.0505356 -0.0367217 0.0353666 -0.119725 -0.143098 0.109625 -0.100048 -0.0383715 0.17552 -0.0669193 -0.138412 -0.132677 0.135907 -0.166506 -0.0492264 -0.0435606 0.0377979 0.100771 0.0547664 0.158657 -0.122402 0.0820402 0.0433988 -0.0354934 0.104892 -0.117028 0.115659 0.129652 -0.0995086 0.100418 0.15346 0.150189 0.0728215 0.126074 0.0758423 0.0183332 0.164882 -0.058758 -0.121792 0.0584313 -0.0754512 -0.16331 0.0870552 -0.0120406 -0.0532831 -0.161216 -0.00539706 -0.134428 -0.102844 -0.168083 -0.0651622 0.0614098 0.115703 -0.151453 -0.0810554 -0.107944 -0.0246162 0.10874 0.0816091 -0.177807 0.0791294 0.145323 -0.0288617
