0.0728993 -0.0738474 0.450241 0.157754 -0.297902 0.00371264 -0.503509 0.222912 0.772829 -0.323759 0.216601 0.823626 -0.116534 0.757879 -0.331137 0.0113706 -0.216446 0.172761 0.714696 0.632961 1.17243 0.0560487 -0.226909 0.279584 -0.119963 -0.234562 0.185738 -0.0898226 -0.231305 0.28893 -0.3968 -0.304603 -0.135587 0.643368 -0.0423812 -0.123238 -0.228676 0.0422828 -0.465471 -0.0280675 0.856699 0.178856 0.714363 0.313984 0.301952 1.10906 -0.140001 -0.471091 0.000976708 -0.242996
0.134172 0.523458 0.290883 0.704846 0.588068 -0.372767 0.361353 0.31155 1.21631 -0.415403 0.28847 0.794925 0.55903 0.278935 -0.300999 0.0969211 0.200711 0.46475 -0.0381887 0.0753976 1.21123 0.257509 0.349389 -0.257672 0.560397 0.30325 -0.567309 -0.472117 0.217426 0.658114 -0.355993 -0.38196 0.17033 -0.166772 -0.555963 -0.246065 0.442697 -0.0747743 0.039893 0.16796 0.686038 0.158649 0.481947 0.29529 0.493146 0.586026 -0.325455 -0.44371 -0.177183 -0.258029
-0.291192 -0.0962888 0.660706 0.445922 0.0983796 0.0636823 0.59922 -0.232485 1.05441 0.022676 -0.208544 1.16619 0.590791 0.594146 0.383267 -0.603444 0.0233475 -0.0506791 -0.0677763 0.40285 0.745854 -0.664793 -0.455248 -0.0915719 0.451569 -0.0534794 -0.0693832 -0.481314 0.258801 0.0318476 0.259592 0.238312 0.38228 -0.0325303 0.338128 -0.514124 -0.0566705 -0.488949 -0.0625308 0.158045 0.918707 0.678105 0.342814 0.529818 -0.249102 1.20151 0.312723 0.201262 -0.207572 -0.204137
0.149029 -0.0972449 0.237555 0.083313 0.377947 -0.252965 0.386443 -0.0297966 0.864672 -0.320364 0.0918633 0.907308 -0.0104585 0.115384 0.338514 0.732324 -0.482854 0.692682 0.237969 0.300296 0.790758 0.493598 0.616548 0.0941335 0.317064 0.309129 -0.564422 -0.446346 -0.26695 0.332556 0.120232 -0.0158841 -0.29594 0.151757 -0.449148 -0.712847 -0.128107 0.410502 0.476486 -0.275144 0.974557 0.66746 0.497768 0.38672 -0.103126 1.27238 -0.0191014 0.34378 0.167702 0.696086
-0.622485 0.911585 -0.392082 0.572725 0.200448 0.0850336 0.0982094 0.142417 0.876692 0.13285 0.139688 1.20165 0.2522 -0.117253 -0.118805 -0.16201 0.330885 0.60523 0.162248 -0.678008 0.660925 -0.0769315 0.667298 0.735326 0.677546 0.270185 0.281995 -0.130303 -0.724376 0.287162 -0.81504 -0.0964963 -0.0167178 -0.418797 0.0535706 0.116131 0.281232 -0.207217 -0.157424 0.049963 0.233525 -0.507248 0.497813 0.126872 -0.241244 1.44934 0.390804 0.143554 -0.0729991 0.134486
0.768928 -0.388589 -0.344555 0.72763 0.039251 0.561966 0.267221 -0.25278 0.620026 0.830667 -0.00628158 0.784812 0.456182 0.288904 0.205104 0.799343 0.395759 0.733701 0.115059 0.805354 1.14361 0.304066 0.458604 0.264804 -0.780145 0.148853 0.324038 -0.456973 0.332702 0.247937 0.365173 -0.440916 0.312372 0.0912062 -0.263007 0.303656 0.238541 -0.173538 0.261679 -0.0334565 0.739097 0.120515 0.480154 -1.12138 0.460028 1.12517 -0.497399 -0.347367 0.155058 0.445902
0.387393 -0.0205746 -0.454681 0.205863 0.340092 0.0363288 -0.342897 -0.176216 0.821182 0.305167 -0.197392 1.14674 0.144908 0.0688567 -0.496917 -0.243016 -0.296412 0.152269 -0.653609 0.737744 1.19014 0.343155 -0.369854 -0.00702027 0.100507 0.0087724 0.536932 -0.0632858 0.22488 0.338524 0.127476 0.226654 0.219532 0.121215 -0.0523185 0.00483107 -0.0837853 0.280333 -0.404735 -0.0998681 0.853011 -0.304998 0.913538 -0.364232 -0.193917 0.875327 0.445915 -0.554944 0.196147 -0.069958
0.30542 -0.091834 0.487687 0.654707 0.115166 -0.0868858 -0.456815 -0.270468 0.727566 0.39587 -0.0810281 1.13052 -0.40865 0.536404 0.204648 -0.516783 0.0853316 0.968357 0.518478 -0.268405 0.658932 0.659063 -0.262627 0.223267 0.518472 -0.449331 -0.289016 -0.351435 0.238665 0.641806 0.487229 0.454299 0.243837 -0.0783512 -0.987478 0.256358 -0.363386 0.311569 0.157694 0.0106443 0.299119 -0.174469 0.782435 0.140263 0.638319 1.07086 0.610649 0.219203 -0.279805 -0.0842864
0.109142 -0.111139 0.0943848 0.650299 0.322691 0.718722 0.0574077 -0.0436683 0.950346 0.239608 -0.144315 1.03989 0.488496 -0.630098 0.566532 -0.224703 -0.529355 0.794203 0.22195 0.255769 1.21139 -0.460322 -0.672663 -0.488661 0.0627676 0.106834 0.421019 0.227287 -0.80655 -0.254339 -0.31473 0.161145 0.25258 0.379688 -0.591939 0.13162 -0.343839 -0.542201 0.229025 -0.260141 0.568032 0.349356 0.547226 -0.0274313 -0.133258 0.915318 -0.486498 -0.116925 0.209253 0.342669
0.363471 -0.652773 0.450436 0.65772 0.480967 0.01598 0.0572175 -0.265553 0.308892 -0.544828 0.307782 0.834475 0.102054 -0.179634 -0.226954 0.204954 -0.463833 0.794147 0.39362 -0.226009 1.07684 -0.284136 0.449322 0.653104 -0.0462858 -0.411339 -0.0249381 0.197125 -0.637126 0.504941 -0.512907 -0.462628 0.0295395 -0.402857 -0.150152 0.437356 0.0352581 -0.549779 0.0948503 -0.198744 0.511202 0.182009 0.58866 0.443157 0.495132 1.42163 0.346729 0.0606887 0.0978211 0.426064
