-1.4098 0.0158955 0.741817 -0.528674 -1.08961 0.295357 0.15286 -0.425531 -1.24603 -0.72772 -1.30415 -1.3253 -0.144281 -0.252615 -0.557515 1.01503 0.39755 -0.877551 0.412896 0.397289 0.144633 -0.142769 -0.301219 -1.57989 0.425643 0.569149 0.721775 0.0855834 1.11422 -0.864855 0.413522 -0.30511 -0.0175853 -0.700738 0.77444 0.566557 -1.05794 -1.35113 0.488605 0.208995
1.19789 -1.04449 0.257476 0.921696 0.387655 -0.820891 -0.339603 -0.946733 1.2249 -0.74128 1.06633 -0.152437 1.60747 -0.352194 0.00467764 -0.899823 -0.800205 -1.45691 -0.876091 1.23064 0.015117 0.578349 -0.391153 -0.23068 -0.188664 -1.3546 -1.42352 -0.364492 -0.931134 1.26784 -0.981001 -0.120949 -0.223659 -0.599697 0.158645 0.406889 -0.864602 -0.575154 0.677357 -0.394649
0.80564 1.28433 1.00536 -0.458049 -0.0438335 -0.0611461 0.163824 0.00795135 -1.06633 -0.996346 1.69196 -0.297897 0.610773 -0.450101 0.608733 0.580854 1.26865 0.23379 1.2764 -0.653122 -0.16226 0.40783 -0.0935671 0.474985 0.0961338 -0.712653 0.222364 -1.00395 -0.484119 -1.46863 0.860567 -0.451581 0.0820735 1.12039 -1.97646 -1.40131 0.192087 -1.25453 -1.02323 -0.0121044
1.04438 -1.06866 0.598282 -1.17368 -1.38041 -0.0712615 0.335088 1.46033 -1.09854 1.09683 1.18358 1.31501 -0.893952 -0.438451 -0.794158 -0.618528 -0.327748 -0.726137 -1.03263 -0.360846 0.182634 0.775485 -0.11248 -0.81713 -0.829145 -1.73798 0.416891 -0.0279172 -1.05712 0.254606 0.511378 0.0155411 -0.275403 -1.13212 0.333204 -0.557657 0.655558 0.905983 0.545569 1.69878
-1.82485 1.25102 -0.688023 0.458234 0.665188 1.38637 0.0278749 -0.665484 0.141838 0.574385 -1.17485 0.520668 -0.442873 -0.120045 -0.547921 0.848445 -0.993391 1.39875 0.839327 -1.31796 0.424039 -0.271258 -0.0831717 -0.459114 -1.31048 -0.630649 -1.27781 0.197687 -1.37326 1.23984 -0.889492 -0.406704 -0.521795 0.369287 -0.301335 -1.13438 0.357298 0.823117 -0.937447 0.397154
-0.16782 0.601207 -1.38817 -1.83206 -1.60584 0.168887 -0.0650733 1.38032 1.19355 -0.259406 -0.187214 1.95049 1.18592 -0.0147901 0.107049 -0.866245 -0.155255 -1.35728 -0.360531 -0.104475 0.805691 0.265036 -0.489901 1.62565 0.241042 1.64047 -0.81117 -0.912448 0.925212 0.274301 0.0736528 -0.489116 -0.464492 -0.474939 0.0231341 -0.700535 -1.84505 1.01564 0.492815 -1.85752
1.2888 0.231096 -1.14182 0.271624 0.431659 -1.08448 0.215752 -1.06939 0.875291 -0.212698 -1.29338 -0.179162 -0.458953 -0.520256 -0.338308 1.367 1.55648 0.0182481 -1.14458 -1.10502 -0.609093 0.0846169 -0.226556 0.752561 1.03824 0.599609 -1.57502 -0.766066 -0.782646 -1.2775 -0.748452 -0.41082 -0.347769 -0.303546 0.404851 0.551559 -0.552045 -1.19987 -0.192674 0.280057
-0.875975 -1.17538 0.955355 0.857145 0.839911 1.27465 0.0966229 1.01776 0.591035 -1.24192 -0.602957 0.777204 -0.404079 -0.646015 0.630981 -1.35067 -1.21484 1.51822 -1.74833 0.717508 0.969692 0.701882 -0.553515 -1.29884 0.250636 0.388194 0.836107 -0.273826 -0.110995 0.977121 -0.216905 -0.473092 -0.654707 0.593552 -1.1771 0.517066 -0.531173 0.773814 -1.46593 0.0956877
-0.636321 -1.49605 -0.743433 0.234241 0.860995 -1.25537 0.293963 -1.69553 -0.653307 1.36548 -0.63378 -0.758389 -1.27145 -0.700278 0.0540782 -0.717387 -1.37681 -0.80873 0.703571 0.92296 -0.0209487 0.164931 -0.551981 1.01168 0.332943 0.284454 -0.740337 -0.961448 -0.477284 -1.98999 1.74995 -0.792242 -0.134304 1.25819 1.66799 -1.43431 1.13158 1.15393 -0.258113 -0.0530012
-1.08643 -0.602522 -1.47737 1.14101 -0.070948 -1.54373 0.318327 -0.124035 0.209975 1.16808 0.972586 -0.0966521 -0.131047 -0.678422 0.0291769 -1.45298 -0.437355 1.12478 0.565513 -1.47913 -0.679903 -0.317998 -0.474669 0.205976 -1.93247 0.414186 2.2877 -0.32901 1.15582 0.266846 -1.32172 -0.546526 -0.602663 -0.773764 0.226437 1.40084 0.258953 -0.416755 1.20296 -0.57449
