-1.41005 0.0159906 0.740676 -0.528485 -1.08882 0.295971 0.152853 -0.425705 -1.24597 -0.727722 -1.30427 -1.32446 -0.14428 -0.253304 -0.558247 1.01487 0.395918 -0.876605 0.412151 0.396101 0.145304 -0.142718 -0.301911 -1.57985 0.424623 0.568386 0.721785 0.0863149 1.11445 -0.864813 0.412001 -0.305801 -0.0182774 -0.700979 0.773995 0.567242 -1.05772 -1.35108 0.487181 0.209033
1.18851 -1.05826 0.259135 0.914813 0.379333 -0.824709 -0.339629 -0.947738 1.21949 -0.754488 1.05966 -0.160538 1.60742 -0.360473 0.00970417 -0.899813 -0.796981 -1.45844 -0.885808 1.22484 0.0157762 0.569701 -0.399426 -0.238373 -0.195269 -1.35433 -1.41966 -0.366424 -0.930805 1.25725 -0.982765 -0.129229 -0.231928 -0.60074 0.154571 0.406954 -0.875049 -0.583027 0.675962 -0.394905
0.796902 1.28512 0.999428 -0.471011 -0.0552845 -0.058445 0.163805 0.00660621 -1.07701 -0.991146 1.67995 -0.309494 0.595839 -0.460962 0.593895 0.578809 1.25417 0.224885 1.27687 -0.665907 -0.162686 0.397558 -0.104428 0.463927 0.0859227 -0.719624 0.207956 -1.00495 -0.484507 -1.46613 0.858189 -0.462455 0.0711997 1.11654 -1.9754 -1.40314 0.185085 -1.26419 -1.02249 -0.0124022
1.04843 -1.06601 0.597604 -1.17412 -1.37732 -0.0702135 0.335107 1.45903 -1.09555 1.09772 1.18594 1.31753 -0.893399 -0.435487 -0.796852 -0.617248 -0.326856 -0.724827 -1.03041 -0.358849 0.182726 0.777399 -0.109523 -0.813757 -0.824599 -1.73789 0.415741 -0.0283447 -1.05781 0.254826 0.512703 0.0185022 -0.272444 -1.13038 0.33566 -0.555666 0.656581 0.908579 0.548041 1.69952
-1.82341 1.25156 -0.686869 0.457209 0.665614 1.388 0.0278797 -0.664794 0.14184 0.574385 -1.17426 0.521248 -0.443734 -0.119527 -0.547709 0.848554 -0.993351 1.3979 0.841805 -1.31577 0.423607 -0.27099 -0.0826513 -0.458369 -1.30791 -0.632633 -1.27536 0.19896 -1.3722 1.23883 -0.888044 -0.406185 -0.521278 0.368598 -0.302624 -1.13289 0.35654 0.823706 -0.937086 0.398461
-0.170814 0.601734 -1.39381 -1.82996 -1.60566 0.169251 -0.0651294 1.3742 1.18871 -0.259364 -0.190259 1.9462 1.18676 -0.0199041 0.107031 -0.869973 -0.161208 -1.35649 -0.360724 -0.109507 0.805756 0.264718 -0.495019 1.62083 0.236912 1.63396 -0.813056 -0.915248 0.925111 0.27608 0.067709 -0.494237 -0.469614 -0.474582 0.0165881 -0.707366 -1.84354 1.01301 0.485604 -1.85875
1.28909 0.230992 -1.1414 0.271566 0.431575 -1.08451 0.215755 -1.06902 0.875501 -0.21276 -1.29302 -0.178886 -0.45894 -0.519967 -0.3383 1.36714 1.55676 0.0181006 -1.14472 -1.10458 -0.609095 0.0846781 -0.226267 0.75283 1.03853 0.599855 -1.57498 -0.76607 -0.782645 -1.2775 -0.748051 -0.410531 -0.34748 -0.303527 0.405113 0.55179 -0.552113 -1.1997 -0.192322 0.280109
-0.873896 -1.17305 0.949409 0.858547 0.835882 1.26774 0.0966237 1.01528 0.593236 -1.23932 -0.601081 0.772599 -0.404331 -0.650599 0.632339 -1.35063 -1.21234 1.51263 -1.75544 0.717848 0.964995 0.699189 -0.558087 -1.30085 0.251053 0.387725 0.831475 -0.278856 -0.117095 0.972941 -0.218239 -0.477675 -0.65929 0.592506 -1.18387 0.511374 -0.530164 0.770617 -1.4665 0.0912562
-0.633137 -1.49171 -0.744877 0.237938 0.864674 -1.25358 0.293965 -1.6944 -0.650919 1.36722 -0.633266 -0.753971 -1.27048 -0.698709 0.0536666 -0.717375 -1.37626 -0.805921 0.705598 0.922826 -0.020559 0.166545 -0.550406 1.01549 0.337227 0.281264 -0.742364 -0.961032 -0.477772 -1.9886 1.74979 -0.79067 -0.132737 1.25476 1.66642 -1.43376 1.13278 1.15604 -0.261355 -0.0526441
-1.08556 -0.602478 -1.47577 1.1366 -0.0746044 -1.54378 0.318327 -0.123567 0.206662 1.1636 0.97005 -0.100355 -0.131129 -0.681793 0.0296274 -1.45291 -0.435864 1.12089 0.565118 -1.48226 -0.681233 -0.32198 -0.478039 0.202941 -1.93608 0.411163 2.28314 -0.328115 1.15293 0.26319 -1.32047 -0.549898 -0.606032 -0.774323 0.222621 1.39746 0.255762 -0.420376 1.19882 -0.574285
