-0.00679171 -0.347286 -0.115303 -0.653085 0.628063 0.165357 -0.110035 -0.0854749 -0.29672 0.789737 0.699612 0.255191 -0.319644 0.550498 -0.291532 0.375571 -0.332534 0.209281 1.21634 -0.0938134 0.459184 0.884951 0.0582516 0.177125 0.711557 0.424037 0.482576 0.356206 0.0092735 -0.459748 0.176906 0.458565 -0.0568281 -0.0637065 0.265379 0.651625 -0.032906 0.0055912 -0.158906 1.85471 0.101514 -0.357837 -0.517182 0.461672 0.115881 -0.0109152 0.22762 0.472107 -0.0655255 -0.230158 0.458092 -0.317937 1.69696 -0.00739437 -0.350077 0.192683 0.140104 -0.473449 -0.155352 0.728384 -0.411845 0.104796 -0.0674781 1.52456 -0.548601 0.425464 0.564532 0.240871 -0.128549 -0.234612
-0.585561 0.37829 -0.130936 0.216228 -0.111632 0.711413 0.126276 -0.203884 -0.0983124 0.699931 1.21828 0.113789 -0.0818988 -0.0635294 -0.226811 0.466659 0.65369 -0.320581 1.55028 -0.480821 0.529694 0.611341 -0.436819 0.270996 0.419387 -0.126299 -0.0305192 0.972548 -0.0487885 0.222403 0.175887 0.262562 0.28505 0.185715 0.303049 0.863383 0.073294 -0.339009 0.259847 1.52245 0.111994 0.522361 0.31743 -0.12504 -0.0293287 -0.0150793 0.182575 -0.0229394 0.398689 -0.378698 -0.376282 -0.0893769 1.2132 -0.0534084 -0.222653 -0.220546 0.141231 -0.502816 0.316486 0.991964 0.29592 0.00987073 0.231842 1.62363 0.435081 0.280772 0.398589 0.194303 0.519188 -0.651296
-0.547648 -0.162846 -0.41975 -0.595275 0.620923 0.0287513 0.18275 0.350607 0.661981 0.251492 1.14709 -0.10288 -0.412521 -0.593613 -0.598806 -0.142279 -0.235146 -0.0196245 1.12989 0.20749 0.787389 0.861195 0.38019 0.253763 0.18922 -0.626735 -0.803019 0.719295 -0.495377 -0.656506 -0.25684 0.857866 -0.200343 -0.213548 0.561298 0.830343 -0.287662 -0.213741 0.661156 1.73311 -0.133813 -0.428933 -0.182788 0.0759135 0.254033 -0.256515 0.482277 -0.230699 -0.186737 -0.690607 0.370058 0.543725 1.247 -0.649886 -0.373728 -0.144089 0.25899 0.189268 0.431314 0.724861 -0.139993 -0.10498 -0.308999 1.59637 -0.0776323 0.647317 0.814988 -0.0702551 -0.233069 0.349822
-0.334005 0.163329 -0.317783 0.447222 0.630879 0.784444 -0.0179763 -0.775333 -0.0116527 0.64909 0.96398 0.525103 0.309355 0.0264271 0.791342 0.431783 0.242709 0.488402 0.919338 0.280708 0.889197 0.31097 -0.106614 0.186629 0.180774 0.0185864 0.338696 0.360796 -0.671406 0.092799 0.138246 0.541415 -0.695288 0.103504 0.67824 0.733555 -0.522801 -0.030287 -0.191127 1.57945 -0.775563 0.172989 0.00498572 -0.650031 0.209735 -0.205303 0.478007 0.0200341 -0.295621 -0.299313 -0.341766 0.139953 1.55062 -0.379629 0.972531 -0.0555409 0.0925298 0.479479 0.190861 1.41574 -0.308335 0.248928 -0.50193 1.32785 0.67436 0.226134 0.544783 0.216363 -0.304424 0.2396
-0.225881 0.339927 -0.207404 0.199534 0.580481 1.09099 0.253312 -0.113379 -0.173588 0.604159 1.2241 -0.583328 0.0574995 -0.0169615 0.511354 -0.502416 -0.388728 -0.759153 0.857972 0.228303 0.538925 -0.290587 -0.407919 0.507886 0.372975 0.475229 -0.241369 0.424941 -0.0970599 -0.130578 0.236103 0.744063 0.145191 0.0832553 0.711991 0.854409 -0.484214 -0.158015 0.652859 1.69552 0.113618 -0.655392 0.428 -0.584908 0.244698 -0.0260299 0.141666 0.113162 0.121623 -0.635653 0.355583 -1.10103 1.28687 -0.299353 -0.152265 0.617481 0.176046 0.39897 0.0680113 0.678209 0.128954 -0.524408 0.786464 1.56466 -0.040474 -0.425339 0.594527 0.003925 0.411008 -1.14572
-0.194194 -0.5224 0.449972 0.45289 -0.155299 0.79548 -0.0602236 -0.6666 0.251902 0.364005 1.00089 0.0236402 0.380207 0.0994344 0.683764 -0.0214974 -0.147365 -0.119359 0.788608 0.150645 0.468831 0.512061 -0.215951 -0.802471 0.628282 -0.109661 0.600636 0.00389217 0.504331 -0.327175 0.355407 0.677143 0.49061 -0.210593 0.827514 1.00452 0.0482374 0.409436 0.0717616 1.82529 -0.247819 0.437137 -0.0665051 -0.130897 -0.287495 -0.0129483 0.369639 -0.0991524 0.0288698 0.768491 -0.242232 0.186244 1.41995 0.986905 0.993331 0.152597 0.144222 0.86765 -0.983605 1.10714 -0.0496801 0.383038 0.272271 1.47527 0.200388 0.323521 0.71363 0.16944 0.259738 0.358715
0.362288 0.204885 -0.108576 -0.649193 0.172818 0.603468 -0.146069 0.524749 0.165847 0.208907 0.772372 -0.348884 0.104296 0.441305 -0.456465 0.293237 0.182665 -0.320884 1.22173 -0.470846 0.69158 0.38411 -0.229685 0.0467387 0.576666 0.285995 0.250871 0.751327 0.000577768 -0.202379 0.35678 0.791904 0.673802 0.16326 0.472287 0.895906 0.213013 -0.276593 -0.405909 1.96607 -0.433583 0.463473 -0.149147 -0.393358 0.0575113 -0.22129 0.602155 0.196833 -0.90353 0.437005 0.336793 -0.287209 0.990249 0.100596 -0.0651622 0.161002 0.266331 -0.165287 -0.611555 0.912751 -0.0655062 0.246847 0.0086528 1.55872 -0.00279439 0.543925 0.73982 0.00408635 -0.0244616 -0.529466
-0.237068 0.604829 -0.0737655 -0.0129992 0.241759 0.961406 -0.0382233 -0.0468608 -0.441075 0.705998 1.21572 0.335988 0.364266 0.100411 -0.318268 0.127661 0.154003 0.587066 0.627073 0.410053 0.663057 0.709613 -0.713175 -0.450568 0.683081 0.656124 -0.331381 0.872907 0.262403 -0.167395 0.2097 0.758424 -0.432645 0.0102665 0.470662 0.465429 -0.439878 0.0564293 0.0357897 1.97454 0.446336 0.0377872 0.481197 -0.0928301 0.18207 -0.238153 -0.15798 0.197834 -0.111171 0.392317 0.118595 0.149135 1.50254 0.327186 -0.629585 -0.0971785 -0.187448 -0.539235 0.424312 0.858002 0.285688 -0.457165 -0.267225 1.25132 -0.242887 -0.412891 0.125841 -0.155524 0.436634 0.431861
-0.0715637 -0.816383 -0.290514 0.296772 0.546298 0.657699 0.205622 0.55193 0.330565 0.661137 1.02005 -0.485454 0.138232 -0.242191 -0.312415 -0.709501 -0.370752 0.0281383 1.07997 0.557252 0.656642 -0.182187 0.087843 -0.147331 0.471408 -0.439589 0.254736 0.514787 -0.558821 -0.374462 -0.160531 0.837587 0.0705528 -0.0174212 0.418556 1.11243 0.502096 0.559582 0.033245 1.78316 -0.97176 0.161959 0.603646 0.466657 0.190807 -0.152323 -0.0525419 0.337503 -0.121369 -0.367292 -1.12318 0.279841 1.36395 -0.322854 -0.312237 0.556154 0.155056 0.0965575 -0.452085 0.864713 0.391312 -0.695639 -0.453416 1.43144 0.394306 0.365559 -0.0264615 -0.133472 -0.281185 -0.0718355
0.31925 0.133095 0.431395 0.382894 0.326286 1.0821 -0.274638 -0.221254 -0.750869 0.754443 1.01256 -0.269559 -0.147653 -0.077063 0.922649 -0.651904 -0.972719 0.177566 0.868421 0.0822031 0.4713 0.150198 0.580566 0.449033 0.48457 -0.74607 0.553158 0.292026 0.337572 -0.259601 -0.0392867 0.900911 0.443956 -0.268208 0.399856 0.865203 -0.26556 -0.459764 0.678248 1.95439 -0.251968 -0.115834 0.266135 0.289231 -0.314168 -0.254695 -0.650336 -0.403252 0.265281 0.0419928 0.469585 -0.4694 1.21651 -0.298713 0.389975 0.242547 -0.00718074 0.597134 0.1485 0.941136 0.263548 0.309035 -0.828709 1.44943 0.30451 -0.439484 0.0565516 0.0366399 -0.446269 -0.0974847
