-0.0601983 -0.128565 -0.37229 0.053055 0.273233 -0.00871681 0.548024 -0.223903 0.118497 -0.0706259 -0.0172068 -0.442828 -0.168731 0.205492 -0.37524 -0.156903 1.05171 0.192245 0.196339 -0.107818 0.0495368 0.27195 0.257222 -0.228127 -0.429733 -0.188108 -0.348045 0.0711363 0.427746 0.0645771 0.257213 0.259448 0.0334407 0.0586192 0.0617085 -0.281879 0.0779944 -0.190123 -0.0902954 0.510134 0.0999913 0.801611 -0.0969681 -0.236984 -0.0353694 0.514879 0.353501 0.288797 0.0734196 0.528718
-0.289544 -0.0978539 0.0159484 0.0474784 0.0551808 0.550187 0.245231 0.301555 0.0480446 0.288134 -0.0542723 -0.14426 0.428296 -0.142422 0.218344 0.585023 0.0809865 0.196204 -0.343313 0.0134758 -0.316806 -0.227088 0.301992 0.336373 0.117274 0.0571903 0.0487615 -0.433445 -0.694895 -0.419118 0.30579 -0.0234941 0.5017 -0.154608 0.173711 0.00501923 -0.173115 0.0845402 0.489501 1.16708 -0.0839874 0.106506 0.171062 -0.727915 0.00519776 0.331303 0.265115 0.705473 -0.117351 0.341834
-0.165331 0.427399 -0.322222 -0.475321 -0.0268324 -0.215709 -0.613657 -0.191096 -0.481256 -0.00597513 0.269446 0.365481 -0.0919156 0.34124 0.0611726 0.0730667 0.678332 -0.226257 -0.126213 -0.128236 0.651525 0.425017 -0.119953 -0.279198 0.504374 0.372797 -0.466674 0.704643 -0.382426 0.857389 0.262489 0.100039 -0.0660953 0.0273228 -0.437941 0.391729 0.412618 -0.0921982 0.170829 0.963004 0.0460923 -0.124857 0.222198 -0.268087 0.239978 0.100448 -0.153197 0.442517 -0.16668 0.59257
-0.115238 0.0453406 0.416532 0.040024 -0.28849 0.0429242 -0.515166 0.405262 0.395399 -0.223778 0.150113 -0.241113 -0.361712 0.0696247 -0.395711 -0.369294 0.0985966 0.32084 0.586934 -0.148863 -0.521792 -0.203628 0.00631286 -0.415065 -0.068268 -0.393758 -0.191635 0.0484247 0.407793 0.292682 0.191093 -0.0683479 0.709645 -0.299349 0.154707 0.409595 0.0685489 -0.169795 -0.294894 1.17078 0.10536 -0.192092 0.256816 0.0260592 0.462506 0.160326 0.114505 0.671947 0.00228329 0.412392
0.288293 0.0422905 -0.0237643 0.552965 -0.173868 -0.193251 0.357921 0.682099 0.726998 0.0699448 0.136331 0.17817 0.17245 -0.351482 0.115607 0.448412 0.404825 0.0493426 -0.416209 0.188087 0.164518 -0.212867 0.265439 -0.389626 0.258585 0.0746025 0.310694 -1.05324 -0.243855 0.244152 0.367202 0.114663 0.607016 -0.419553 -0.0736885 0.546107 -0.342896 0.240957 0.229973 0.504872 0.592823 -0.317115 -0.370152 -0.0084242 -0.224905 0.550626 0.0799214 -0.476491 -0.715036 -0.0140414
0.214629 -0.266394 -0.36925 0.680109 -0.596343 0.649526 0.00130386 0.0449866 0.969078 -0.152743 -0.364777 0.454998 -0.330468 0.101013 0.0842646 -0.0403655 0.633497 0.0131265 -0.20587 -0.089758 0.0856843 0.0164354 0.304739 -0.45502 0.42348 -0.726211 0.162184 0.195248 -0.253221 -0.00521902 -0.217853 0.096878 0.365694 0.327208 0.933175 -0.15501 0.166649 0.0963843 0.227347 0.703238 -0.680051 -0.107204 -0.174145 0.332809 0.974147 0.467154 0.24239 -0.079392 0.192776 -0.0630738
0.0302973 -0.38492 0.219864 -0.680072 -0.543925 0.3861 0.456373 -0.276487 0.098471 -0.132071 0.672808 -0.114076 0.250155 -0.29702 0.715763 0.427628 0.834972 -0.159553 -0.494845 0.0425633 -0.524217 -0.143294 -0.0193681 0.0792437 0.286005 -0.283708 -0.315883 0.189238 0.436018 0.180316 -0.413182 -0.33059 0.448915 0.214509 0.184602 -0.406957 -0.110758 0.140368 0.309928 0.566901 -0.175072 -0.222472 0.220399 -0.0677342 -0.363162 0.400718 -0.0174193 0.183234 0.0837175 0.116814
-0.00259436 0.45264 0.2938 0.583496 -0.34803 0.292257 0.206407 0.656782 -0.185849 0.251413 0.189704 0.749691 -0.243412 -0.151284 0.00182369 0.202343 0.370591 -0.198858 -0.167552 -0.0735919 0.143338 0.177226 -0.290577 0.267433 -0.559108 0.012742 -0.0333795 0.523419 -0.350772 0.308246 0.0110316 0.224628 -0.0916093 0.124208 0.190828 -0.0765886 0.54668 -0.34378 0.122488 0.79205 0.446502 0.424417 -0.205617 -0.342933 -0.43755 0.417363 0.160235 -0.22088 -0.212449 0.546471
-0.27583 0.18743 -0.413739 0.44471 -0.435936 -0.661485 -0.504744 0.722281 0.142804 -0.309513 -0.463341 -0.395418 -0.434844 0.336436 0.394851 -0.123039 0.732899 0.124483 0.29917 0.0913827 -0.271693 -0.153532 -0.194456 0.142003 0.551664 0.551788 0.310731 0.243391 -0.0360077 -0.16685 -0.538905 0.0215274 0.809015 0.0236168 0.360365 -0.123015 -0.193182 0.0522741 -0.356775 0.338518 0.369766 0.223801 -0.373473 0.395907 -0.125142 0.590643 -0.39108 0.334562 -0.25846 -0.529165
-0.0527476 -0.308911 -0.28816 0.635455 0.207805 0.254143 -0.189891 0.180228 0.752494 -0.0929738 0.497083 0.134171 -1.10056 0.0750521 0.638807 -0.559207 0.569795 -0.282428 0.584279 -0.188714 0.0182987 -0.106725 0.291357 0.298511 0.348049 0.000310609 0.33143 0.152644 -0.248067 0.269888 0.364733 0.392305 0.352565 -0.267566 -0.0028061 -0.483889 -0.668719 -0.108409 -0.183487 0.67953 -0.171663 -0.0458795 -0.316065 -0.256609 0.516283 0.678775 0.276151 -0.671167 0.269609 -0.291305
