0.309713 -0.412658 0.298647 0.0333922 0.341168 -0.235118 0.230028 -0.0702658 -0.181961 -0.128567 0.407504 0.166109 -0.279872 0.0407108 0.0500963 0.0865211 0.332475 -0.332146 -0.25718 -0.166528 -0.100234 0.442433 -0.0236491 0.0218713 -0.0414862 -0.320531 0.430697 0.324978 0.14206 0.539245 -0.0329276 0.0158172 -0.0448684 0.388887 0.216881 0.193619 1.31703 0.031592 -0.272242 -0.230197 -0.07981 -0.056217 -0.266158 0.252781 -0.167424 -0.371403 -0.164991 -0.174767 0.435933 -0.294333 0.594632 -0.0735008 0.0182541 -0.287155 0.362526 -0.224409 0.303103 -0.2418 0.0206853 0.026849 -0.00696681 0.159005 0.462758 0.0620669
-0.257371 -0.341977 0.407466 0.00041383 0.557876 -0.106885 0.499461 0.256045 0.0141893 -0.20693 -0.0289338 0.172452 -0.496041 0.0798933 0.36698 0.214314 0.383129 0.527425 0.172167 0.0833877 0.0751619 -0.159962 -0.198559 -0.242752 0.0646644 0.345725 0.0987689 -0.229554 -0.199617 0.182679 -0.431996 -0.276894 -0.259089 -0.334456 -0.306274 -0.0320289 0.813697 0.429783 -0.0462873 0.271891 -0.159367 -0.152645 -0.0602002 0.47641 0.271762 0.286509 0.58861 -0.0597323 -0.208505 0.495866 0.109521 0.447954 0.23304 0.119156 0.133584 -0.233175 0.819499 0.301491 -0.183868 0.257876 0.0629751 0.519643 0.365889 0.0645886
0.282927 0.289979 0.430279 -0.188678 -0.145478 0.145159 0.68479 -0.0916453 -0.149865 -0.0597654 0.0233614 0.281495 -0.195906 -0.343483 -0.0876565 -0.397842 -0.0173688 0.420811 0.102309 -0.0334576 0.40182 -0.104353 -0.529735 -0.405104 0.445328 0.330841 0.280178 -0.0454672 -0.105316 -0.127629 0.174869 0.376771 -0.370494 -0.0565108 0.4723 0.617662 0.984871 -0.0435046 0.0610697 0.125743 0.299336 -0.186553 -0.24889 -0.145305 -0.051016 -0.18804 0.510755 0.0157417 0.401365 -0.0199682 0.16331 0.14975 -0.00333396 0.00305289 0.23024 0.0924943 0.760432 -0.285404 0.295631 0.00312982 0.379683 -0.290476 0.170883 0.277239
-0.298292 0.0899954 0.722668 -0.269834 0.17369 -0.102351 0.741366 0.257034 -0.336807 0.309049 -0.351651 0.0200979 0.315355 0.515554 -0.35162 0.0537252 -0.137296 0.38959 -0.058922 0.129494 -0.338698 -0.369365 0.278017 -0.0495428 -0.247427 0.115313 0.243509 -0.359242 0.204667 -0.000847391 -0.25206 -0.188446 0.246259 0.107478 -0.206872 0.706636 0.867961 -0.156274 0.194046 -0.206681 -0.151623 0.373241 -0.276749 -0.154738 -0.365379 -0.127811 0.060358 -0.29846 0.4692 0.560515 0.407827 -0.340973 0.318536 -0.281834 -0.450796 0.285568 0.603986 -0.0488576 0.0285198 -0.350803 0.0437596 0.756649 0.178735 -0.234852
0.205682 -0.343022 0.288082 -0.0713845 0.620889 -0.0505782 0.65832 -0.176462 0.121722 -0.378338 0.283497 0.161105 -0.203267 -0.402355 -0.324297 0.501631 0.152484 0.0197534 0.125433 0.150917 -0.202528 0.441715 0.35756 0.778757 0.155088 0.637454 0.481666 -0.498297 7.00836e-05 0.0454768 0.0214017 0.327993 0.133482 -0.394025 -0.297216 -0.234575 1.0231 -0.449023 0.3598 -0.0209133 0.0641168 0.179578 -0.19374 -0.244039 0.151701 0.296923 0.997416 -0.241831 0.193038 0.313358 -0.0918864 -0.271168 -0.661377 0.246728 0.143276 0.0691056 0.286293 0.00360656 -0.131751 -0.188149 0.240418 0.0834003 -0.333893 -0.0463531
-0.35945 -0.00174967 0.816014 -0.218975 0.647297 0.105029 0.463068 0.586056 -0.148449 -0.240075 -0.367192 0.227052 -0.123235 -0.118205 -0.338936 -0.137166 0.136671 0.00957339 0.370428 -0.210681 -0.245608 0.543963 0.846769 0.418357 0.197518 0.0565875 -0.228617 -0.158979 0.0134116 0.262855 0.237222 0.133673 -0.420488 0.488675 -0.080062 0.292738 0.724048 -0.135967 0.124831 0.319122 0.362783 0.122278 -0.195757 0.162385 0.165846 0.195706 -0.0389243 -0.401131 0.124811 -0.351983 -0.344685 0.194856 0.0384089 0.625738 -0.565395 0.173346 0.518792 -0.101099 -0.0351849 0.107783 -0.0978726 0.119928 0.798102 0.197832
0.0364179 -0.0777873 0.155292 -0.141673 0.593522 0.256264 0.164237 -0.285115 0.115218 0.276634 0.0497219 -0.0731439 -0.105628 -0.351591 -0.214644 0.390433 0.139721 0.328786 -0.173812 0.150316 -0.387425 0.398046 0.462583 -0.0877633 0.391475 -0.349519 -0.00638942 -0.4201 -0.0278981 -0.371028 0.290196 0.237592 0.236412 0.594659 -0.0513663 0.0856175 1.20925 -0.278245 -0.0647131 -0.23724 0.0507076 0.122098 0.21521 -0.317125 -0.0316463 0.118561 0.117071 0.00151669 -0.104217 -0.331398 0.290752 0.501146 0.236885 -0.330129 -0.0465998 -0.151923 0.790958 0.298142 -0.0712715 0.461056 -0.374113 0.106961 0.116452 0.25473
-0.237288 0.490804 0.735654 0.170677 0.61575 -0.186471 0.301494 -0.406327 0.461724 -0.25231 0.17472 0.152909 -0.312545 0.294319 0.1535 0.173105 0.427226 0.32587 0.235013 0.0779327 0.379513 -0.167937 0.0302538 -0.11343 0.144962 0.129686 0.386258 -0.260092 0.0205111 0.504847 -0.109715 -0.138195 -0.0271809 -0.148404 -0.02076 0.659265 0.956866 0.618419 0.476053 -0.0382093 0.0695634 -0.284021 0.07383 -0.284821 0.0975275 0.156977 0.560919 -0.176131 -4.69458e-05 -0.220082 -0.199938 -0.264243 -0.0303809 0.484296 0.0654411 0.26784 0.377745 0.218979 0.0921119 -0.244759 -0.398438 -0.044948 -0.0654847 -0.0425976
-0.70501 -0.014383 0.262818 0.26375 0.345988 -0.0208938 0.447754 0.345119 0.310266 -0.256173 0.142645 -0.0149788 0.180545 -0.474014 0.396261 -0.379804 0.417973 0.148339 -0.622614 0.332153 -0.469626 0.33449 0.373037 -0.169323 -0.242351 0.708003 0.089166 0.137548 0.201846 -0.339136 0.447773 0.471606 -0.422751 0.455481 -0.104628 0.0166571 1.15201 0.187767 -0.232195 -0.194776 0.26752 0.469287 -0.107528 0.162808 0.0221948 -0.110068 -0.178051 0.270049 0.165987 0.345122 -0.332549 -0.146151 -0.370074 -0.200349 0.129864 -0.0442008 0.730382 -0.331729 -0.32669 -0.322782 -0.0422762 0.175055 -0.254207 0.00142339
0.194648 -0.666892 -0.0965514 0.00799717 0.352683 -0.108721 0.0448091 -0.297326 0.276275 -0.187809 -0.330476 0.0606181 0.103507 -0.425587 -0.427008 -0.271739 0.53514 -0.603424 0.488827 0.184387 -0.0975608 0.270228 0.590195 -0.455889 -0.316953 0.434257 0.652544 0.0567108 0.277719 0.384637 -0.170145 0.325094 0.110134 -0.232533 -0.0104139 0.236078 1.1723 0.321068 -0.0123297 0.359634 -0.431726 -0.244755 0.00306725 -0.0254864 -0.25918 -0.35113 0.414627 -0.248737 0.216582 0.406987 -0.546277 0.276175 -0.203778 -0.00187969 -0.534843 0.0381366 0.748405 -0.2921 -0.185393 -0.183097 0.188068 0.534672 0.307328 -0.222634
